SVM-light Version V6.20
0 # kernel type
3 # kernel parameter -d 
1 # kernel parameter -g 
1 # kernel parameter -s 
1 # kernel parameter -r 
empty# kernel parameter -u 
114499 # highest feature index 
2 # number of training documents 
2 # number of support vectors plus 1 
-0.10663935 # threshold b, each following line is a SV (starting with alpha*y)
1 1:0.00048337044 2:0.012778737 3:0.012981339 4:0.067536868 5:0.011979124 6:0.01388785 7:0.0021927163 8:0.012960384 9:0.0016717971 10:0.089287259 11:-0.0033262989 12:0.0070876176 13:0.016253106 14:1.7811139e-05 15:0.00010542457 16:0.00011860264 17:0.00016113005 18:6.2699568e-05 19:9.6879565e-05 20:4.4167286e-05 21:0.00012931105 22:-0.00079906191 23:2.3165347e-05 24:-1.9865931e-05 25:0.0010036968 26:-6.1563544e-05 27:0.016667167 28:0.0082023721 29:-8.287176e-05 30:0.052337304 31:0.0026833874 32:0.030741844 33:0.00097231241 34:0.061319958 35:6.5890359e-05 36:0.0082421927 37:0.046865873 38:0.00012004491 39:0.0034560626 40:0.00058518938 41:0.0055945157 42:0.033643592 43:0.0094464738 44:0.0039452417 45:0.037010927 46:-0.00013228461 47:0.00011149992 48:0.00038021788 49:0.0013024855 50:9.8736738e-05 51:0.00036723749 52:0.082798615 53:0.0034315637 54:0.0017418363 55:0.0023337635 56:0.00067815697 57:4.6330688e-06 58:0.00033358097 59:0.0023200815 60:0.00013178072 61:0.00017594801 62:0.00094429671 63:5.2712283e-05 64:0.00011860264 65:1.9974541e-05 66:0.00020590983 67:3.9534214e-05 68:0.00014495879 69:3.9534214e-05 70:0.0014870673 71:0.00027746064 72:0.00010542457 73:0.00092390727 74:0.0010368495 75:0.00062266883 76:0.00010223377 77:0.00010295492 78:0.0065305443 79:-0.00013599891 80:2.6356141e-05 81:1.7811139e-05 82:4.6330688e-06 83:0.00096344156 84:7.0523427e-05 85:8.8334571e-05 86:-0.0013452404 87:0.013680458 88:0.005384644 89:0.0067648948 90:8.8334571e-05 91:-3.9119318e-06 92:6.1978426e-05 93:0.00044455737 94:0.02188036 95:0.00053896726 96:4.0976491e-05 97:0.0012883689 98:0.034960818 99:0.0062342943 100:0.0019068194 101:-0.00084440439 102:7.0523427e-05 103:6.1978426e-05 104:0.0003790819 105:1.7811139e-05 106:3.9534214e-05 107:1.7811139e-05 108:0.00014104685 109:0.00022402723 110:2.6356141e-05 111:9.6879565e-05 112:0.0001364138 113:0.013147566 114:0.0021381667 115:0.0079453588 116:0.015532915 117:0.001322549 118:0.00018202333 119:0.00066602591 120:0.0011259052 121:0.0034504023 122:0.015344255 123:0.001045918 124:0.0038814952 125:-0.0022174432 126:2.6356141e-05 127:3.9534214e-05 128:0.00084555999 129:4.6330688e-06 130:0.013487419 131:0.0037913623 132:0.0030832931 133:0.004382242 134:0.0070662322 135:0.0027766402 136:0.018803755 137:0.00076937611 138:-0.0002035292 139:-0.00016554585 140:-3.8091945e-05 141:0.0051196902 142:0.00015422492 143:0.00019767108 144:0.00020837948 145:0.00033522086 146:0.002342921 147:-0.00056427642 148:3.3152624e-05 149:2.8519558e-05 150:0.0026611602 151:0.013207844 152:0.0040031993 153:-7.8238636e-06 154:0.00019211926 155:4.880035e-05 156:3.9534214e-05 157:-4.9106609e-05 158:0.00013837953 159:0.0017583636 160:0.00034479331 161:2.6356141e-05 162:0.00024843722 163:8.2387478e-06 164:0.00013250185 165:5.2712283e-05 166:3.9534214e-05 167:0.00053114339 168:1.8532275e-05 169:0.001729212 170:-8.4728883e-05 171:-4.6636946e-05 172:5.2712283e-05 173:2.6356141e-05 174:3.1710351e-05 175:0.0024505088 176:4.6330688e-06 177:0.00070956111 178:0.00055430876 179:0.00028816905 180:0.0012679795 181:0.027853616 182:0.0046284073 183:0.0012782925 184:0.0026801468 185:0.00025359384 186:0.021930926 187:3.0989213e-05 188:0.000150313 189:0.00042674624 190:9.2246497e-05 191:1.8947163e-05 192:0.0028851875 193:0.00021620333 194:3.9534214e-05 195:0.0007303654 196:1.8571684e-06 197:4.458215e-05 198:2.6356141e-05 199:0.00034726295 200:0.00020837948 201:0.018082939 202:0.00076135457 203:0.00040069639 204:0.0069529931 205:0.027026977 206:0.023700593 207:0.0013136977 208:9.5782852e-05 209:0.00026294895 210:0.0030471671 211:0.001394406 212:0.0011471245 213:3.5622277e-05 214:0.0028291063 215:0.0019183379 216:0.0049405713 217:0.0059986403 218:0.0027213905 219:0.001533368 220:0.0018807695 221:2.6356141e-05 222:0.016536366 223:0.00093070377 224:0.00045948397 225:0.0024882054 226:4.4167286e-05 227:0.00031205555 228:6.5890359e-05 229:0.00015422492 230:0.0015180565 231:0.0083475281 232:9.2246497e-05 233:0.00018449299 234:0.00022588437 235:0.0001136633 236:8.4837528e-05 237:8.9055713e-05 238:0.00076227332 239:8.3701496e-05 240:0.0010868944 241:0.0054407059 242:0.00062009052 243:-9.5723935e-06 244:0.00056099659 245:0.0002293814 246:0.0028838539 247:0.0016033089 248:0.00054853968 249:3.5622277e-05 250:3.3152624e-05 251:8.4442247e-05 252:6.5890359e-05 253:0.0032740787 254:0.0011325041 255:3.5622277e-05 256:0.0072724582 257:0.003060977 258:0.006452661 259:0.0027605095 260:0.003314601 261:0.00054966449 262:0.0060874978 263:4.0255345e-05 264:7.0523427e-05 265:0.0010424209 266:0.0007006012 267:7.9068428e-05 268:0.00040285979 269:8.4422631e-05 270:0.00039647819 271:3.0989213e-05 272:7.9068428e-05 273:5.2712283e-05 274:5.2712283e-05 275:6.5890359e-05 276:2.6356141e-05 277:0.00022546948 278:0.0029068219 279:0.00019201063 280:0.0028956288 281:-0.0012439648 282:0.0002511045 283:0.00027499098 284:0.016094603 285:0.00015999403 286:0.00060271379 287:0.0040296447 288:0.00051621685 289:0.00063543202 290:0.039877109 291:-0.00023594112 292:0.0036045185 293:0.00025862211 294:0.00014578857 295:0.018148446 296:0.0039750948 297:0.003104799 298:0.0007714504 299:-0.00016471611 300:0.00039966896 301:-0.00018403878 302:-8.0816964e-05 303:0.00034881383 304:0.0042219814 305:-9.7581076e-05 306:0.0035413348 307:0.0025897182 308:0.00022238732 309:0.00012684141 310:0.00010542457 311:3.9534214e-05 312:0.00027262993 313:2.6356141e-05 314:0.00053000741 315:2.7077276e-05 316:3.9534214e-05 317:0.0011074124 318:-1.2042065e-05 319:0.00030917101 320:0.0013028805 321:0.00033275119 322:1.3899207e-05 323:5.5290577e-05 324:0.00011294219 325:2.6356141e-05 326:4.6745579e-05 327:0.0015712923 328:-3.9119318e-06 329:4.6330693e-05 330:5.2712283e-05 331:0.00013929832 332:0.00018984721 333:0.0058221486 334:-0.0003706259 335:0.0068297582 336:0.026851999 337:0.0040849159 338:0.00059301325 339:5.2712283e-05 340:4.6330688e-06 341:0.0085499408 342:7.1244554e-05 343:0.00015813686 344:4.6330693e-05 345:0.00059373438 346:4.4167286e-05 347:0.00011860264 348:-5.765161e-05 349:1.7811139e-05 350:-2.7758981e-06 351:0.00036116215 352:7.1244554e-05 353:0.016885407 354:0.00095500518 355:0.001114189 356:0.063188098 357:-0.00048241258 358:0.00086586032 359:0.016740633 360:2.2444208e-05 361:0.000502209 362:0.00091352465 363:0.0028722072 364:0.0042483369 365:0.00070647895 366:0.0044946894 367:-0.00021393131 368:0.0023760041 369:-0.00042148103 370:0.00071810611 371:7.0523427e-05 372:2.6356141e-05 373:5.7345351e-05 374:0.0020398251 375:0.00057880778 376:2.7077276e-05 377:3.5622277e-05 378:-2.1001941e-05 379:6.0753432e-06 380:4.3268133e-06 381:1.7811139e-05 382:0.0065558138 383:0.0019778663 384:0.00011757525 385:3.9534214e-05 386:2.6356141e-05 387:3.9534214e-05 388:0.00020374643 389:2.6356141e-05 390:2.6356141e-05 391:0.00051199866 392:0.0010500276 393:0.00017564173 394:0.0008349602 395:0.0029407844 396:0.0025308812 397:0.005415001 398:0.0034661784 399:6.2393286e-05 400:2.6356141e-05 401:1.7811139e-05 402:0.00012395685 403:6.4862965e-05 404:0.0014486692 405:6.5890359e-05 406:2.6356141e-05 407:7.5156502e-05 408:4.9521484e-05 409:0.0068270206 410:0.0010671176 411:5.7345351e-05 412:0.0043686689 413:0.00015103414 414:0.0065033385 415:-0.00038314311 416:0.0031739888 417:0.0078094304 418:0.00065756997 419:0.0023519895 420:9.2661376e-06 421:0.00028858392 422:0.00060743588 423:0.00093183981 424:3.9534214e-05 425:0.00013538641 426:0.00018110454 427:4.4167286e-05 428:3.0989213e-05 429:4.6330688e-06 430:1.8532275e-05 431:-2.0280802e-05 432:-0.00017295481 433:0.0004072061 434:0.0093351826 435:-1.2456937e-05 436:0.00015927288 437:-6.2284678e-05 438:7.7319906e-05 439:0.00017894119 440:0.0097302254 441:0.0059651709 442:0.00034171113 443:0.00097790326 444:0.0030454879 445:4.8908969e-05 446:0.0015188864 447:0.0023093731 448:0.00014321026 449:-0.00055571191 450:0.010371933 451:0.0076125688 452:2.6356141e-05 453:0.00013857719 454:0.0015253765 455:0.00014784333 456:0.0053891889 457:-4.9827748e-05 458:6.6611494e-05 459:-3.1907955e-06 460:4.7051832e-05 461:2.0695685e-05 462:4.6330688e-06 463:2.6356141e-05 464:6.5890359e-05 465:0.00068423233 466:3.0989213e-05 467:0.00028003895 468:-0.00059474219 469:0.00071821467 470:0.006515272 471:0.00070595538 472:0.00029146852 473:5.2712283e-05 474:2.6356141e-05 475:0.00016493333 476:0.0001146907 477:0.00011541184 478:7.5156502e-05 479:0.0011328104 480:9.2661376e-06 481:3.9534214e-05 482:0.00019983448 483:1.3899207e-05 484:3.0989213e-05 485:0.0045411889 486:0.0039543794 487:7.0523427e-05 488:3.9534214e-05 489:0.0007641305 490:0.0001146907 491:0.00010151264 492:0.00038679715 493:3.9534214e-05 494:0.00084999547 495:-0.0026450192 496:9.2661376e-06 497:0.0018010584 498:0.0011316743 499:0.00038364562 500:0.0052782423 501:5.9202499e-05 502:0.00012786879 503:0.00055009051 504:0.00023010257 505:2.6356141e-05 506:4.6330688e-06 507:-4.9412847e-05 508:0.00044785679 509:0.0031989224 510:0.0095937848 511:3.9534214e-05 512:0.0007239838 513:0.0058193039 514:0.0084747644 515:0.00011932378 516:3.9534214e-05 517:0.00011077877 518:5.2712283e-05 519:4.0255345e-05 520:-3.9119318e-06 521:6.3420703e-05 522:0.00027673951 523:4.6330688e-06 524:0.0021479365 525:0.00011860264 526:0.00075733406 527:0.00010295492 528:2.6356141e-05 529:4.6330688e-06 530:6.2699568e-05 531:0.0001232357 532:2.1416823e-05 533:0.00048100948 534:0.00025337652 535:0.00035447426 536:0.000150313 537:0.0022311935 538:0.00014321026 539:0.00071729597 540:0.00043631863 541:0.0004648382 542:0.0061477972 543:0.0045185564 544:0.0069528846 545:5.3433421e-05 546:0.0013260458 547:5.2712283e-05 548:0.00033871792 549:9.9764125e-05 550:2.6356141e-05 551:2.6356141e-05 552:2.6356141e-05 553:2.6356141e-05 554:3.9534214e-05 555:6.5890359e-05 556:-8.8640823e-05 557:2.6356141e-05 558:0.00041315332 559:0.00014104685 560:0.00084031437 561:0.0039182142 562:0.00051394483 563:6.1978426e-05 564:0.00022402723 565:0.0026018491 566:2.6356141e-05 567:2.6356141e-05 568:0.0016129594 569:-0.0018586813 570:0.018385001 571:0.0024680728 572:0.0039721904 573:0.0040476536 574:2.6356141e-05 575:1.3899207e-05 576:6.5890359e-05 577:0.0014998304 578:0.0002261906 579:0.0012696389 580:6.7332629e-05 581:0.0001888198 582:0.0023373691 583:0.00082888483 584:2.6356141e-05 585:0.00060022454 586:3.0989213e-05 587:0.00029455064 588:3.9534214e-05 589:2.6356141e-05 590:0.0042381133 591:0.00039538144 592:0.00054751226 593:0.011563826 594:0.0012073544 595:-0.00031120607 596:0.0025279375 597:0.00052115618 598:0.00014712221 599:0.00024297439 600:0.0062591475 601:0.0013565312 602:0.0014380889 603:0.00027643322 604:0.00079769804 605:0.00044744194 606:-0.002630498 607:-7.5966658e-05 608:0.00092134863 609:0.0017110945 610:0.00011613298 611:0.0011056244 612:0.00040460832 613:2.6356141e-05 614:0.00010542457 615:0.00024472291 616:2.6356141e-05 617:0.000150313 618:-6.8972564e-05 619:-2.4498997e-05 620:5.3542058e-06 621:0.00011005764 622:9.2661376e-06 623:0.00011005764 624:3.5622277e-05 625:5.2712283e-05 626:5.2712283e-05 627:7.2686838e-05 628:0.0010513809 629:0.0001146907 630:0.00021548221 631:0.0041164281 632:0.00099906384 633:0.00069915899 634:0.00013713492 635:3.5622277e-05 636:-0.0046882625 637:0.0040809149 638:9.2246497e-05 639:6.5890359e-05 640:2.7077276e-05 641:0.00045917771 642:-0.00010500969 643:2.6356141e-05 644:0.00067815697 645:2.6356141e-05 646:6.3420703e-05 647:0.00026963677 648:9.2246497e-05 649:0.00014074061 650:7.5156502e-05 651:0.00017636288 652:1.3899207e-05 653:0.0026252319 654:0.0024824366 655:2.6356141e-05 656:0.0025942426 657:2.6356141e-05 658:2.6356141e-05 659:8.3701496e-05 660:1.7811139e-05 661:2.6356141e-05 662:7.1244554e-05 663:9.9042969e-05 664:2.6356141e-05 665:2.6356141e-05 666:2.6356141e-05 667:2.6356141e-05 668:2.6356141e-05 669:2.6356141e-05 670:2.6356141e-05 671:2.6356141e-05 672:2.6356141e-05 673:2.6356141e-05 674:2.6356141e-05 675:2.6356141e-05 676:2.6356141e-05 677:2.6356141e-05 678:2.6356141e-05 679:2.6356141e-05 680:2.6356141e-05 681:2.6356141e-05 682:2.6356141e-05 683:2.6356141e-05 684:0.00016884526 685:3.9534214e-05 686:9.8015596e-05 687:0.012028645 688:0.0044897604 689:0.0018175466 690:3.9534214e-05 691:0.0036010612 692:6.5890359e-05 693:0.00013178072 694:1.7811139e-05 695:0.0019321481 696:0.0060966751 697:0.001390909 698:-8.9668218e-05 699:3.0989213e-05 700:0.0023334569 701:0.00010306351 702:0.0002190879 703:0.00073602586 704:0.0034167459 705:0.0017684399 706:0.0017806103 707:3.0989213e-05 708:-0.00018541174 709:0.00076968234 710:0.001219218 711:4.6330688e-06 712:-7.8238636e-06 713:3.0989213e-05 714:-2.1001941e-05 715:0.00092576444 716:0.0012847631 717:2.6356141e-05 718:0.00078781933 719:9.3688781e-05 720:0.0001695664 721:0.00052445562 722:0.00023010257 723:1.7811139e-05 724:2.6356141e-05 725:0.00029424441 726:3.9534214e-05 727:0.00078821462 728:4.0255345e-05 729:2.6356141e-05 730:0.00072171184 731:0.00023010257 732:2.6356141e-05 733:0.00043601237 734:0.00015885801 735:0.0001663756 736:2.6356141e-05 737:0.0033015318 738:2.6356141e-05 739:-0.00015575616 740:-0.00050546916 741:2.6356141e-05 742:2.6356141e-05 743:4.6330688e-06 744:4.6330688e-06 745:2.6356141e-05 746:0.00066570006 747:1.7811139e-05 748:7.9068428e-05 749:-0.00025027472 750:0.00065593008 751:-2.0547923e-06 752:0.0024210704 753:0.00067354355 754:0.0022430676 755:0.0022319837 756:0.00032553985 757:0.00010758798 758:4.6330688e-06 759:0.00023803502 760:0.0011743994 761:5.3848289e-05 762:-7.8238636e-06 763:9.2661376e-06 764:1.7811139e-05 765:2.6356141e-05 766:0.00012786879 767:0.00012931105 768:0.00013857719 769:1.4422749e-06 770:2.6356141e-05 771:4.4167286e-05 772:2.6356141e-05 773:3.9534214e-05 774:0.0031923235 775:0.0011177751 776:0.0067621474 777:0.00015391868 778:0.0001083091 779:0.0091611994 780:0.00078862946 781:0.000779472 782:2.6356141e-05 783:0.00011294219 784:-0.0038547148 785:0.0035491779 786:0.00028797134 787:6.024956e-05 788:2.7185908e-05 789:3.8921688e-05 790:2.6356141e-05 791:1.7811139e-05 792:0.00036867973 793:0.00016257228 794:3.0989213e-05 795:7.2113744e-07 796:0.0006995044 797:0.00028106634 798:0.00021692448 799:0.00028137257 800:5.2712283e-05 801:5.8066489e-05 802:2.6356141e-05 803:4.6330688e-06 804:0.0015362826 805:7.9068428e-05 806:-1.2456937e-05 807:0.00012467797 808:5.3542058e-06 809:-7.1027321e-06 810:4.6330688e-06 811:5.2712283e-05 812:1.7811139e-05 813:0.0011693514 814:-3.9119318e-06 815:2.6356141e-05 816:0.00054246438 817:0.00033347233 818:0.0020673175 819:0.0002728276 820:-0.00041468456 821:9.2661376e-06 822:-0.00015964864 823:0.00020374643 824:7.0523427e-05 825:-8.4728883e-05 826:0.0016494223 827:0.0031393052 828:0.00019767108 829:3.9534214e-05 830:0.00014495879 831:0.00039431473 832:0.00020230416 833:0.00052506808 834:0.00030309564 835:0.0016552112 836:0.00010151264 837:0.0022465845 838:0.004066166 839:0.0010378768 840:0.00011005764 841:0.0010327596 842:5.2712283e-05 843:0.007614465 844:9.2246497e-05 845:7.9068428e-05 846:6.414183e-05 847:7.5156502e-05 848:0.00026963677 849:0.00015422492 850:0.00041994973 851:0.0004292159 852:0.01154883 853:0.0002293814 854:-0.00042281474 855:9.9764125e-05 856:0.00015885801 857:2.7077276e-05 858:-5.5181947e-05 859:0.00041531667 860:0.00037311527 861:0.00033058779 862:0.00050509349 863:1.7811139e-05 864:0.00037825215 865:0.00021620333 866:0.0031380404 867:0.00026891564 868:0.00057808659 869:0.0030311737 870:0.00078677235 871:5.2712283e-05 872:0.00045845658 873:1.3899207e-05 874:0.0002681945 875:0.00065479398 876:0.0020178156 877:0.0030859995 878:2.6356141e-05 879:0.00015813686 880:7.5877637e-05 881:0.00018707126 882:4.4888417e-05 883:0.00084885943 884:-2.4390331e-05 885:3.9534214e-05 886:0.0021003613 887:7.1244554e-05 888:2.6356141e-05 889:2.6356141e-05 890:2.6356141e-05 891:2.6356141e-05 892:2.6356141e-05 893:2.6356141e-05 894:0.00024153211 895:0.00054268149 896:0.0012092113 897:2.7077276e-05 898:-2.4696653e-06 899:3.0989213e-05 900:0.0010371557 901:0.0002293814 902:0.0054854164 903:0.0010243925 904:0.0075486042 905:0.0014370419 906:0.00087243959 907:0.0010147115 908:0.00021157028 909:3.9534214e-05 910:2.6356141e-05 911:5.7345351e-05 912:3.3873748e-05 913:0.0044954019 914:4.9215225e-05 915:3.9534214e-05 916:0.00014104685 917:0.00089827226 918:7.9789563e-05 919:0.00014567992 920:0.00063801033 921:1.8532275e-05 922:0.00020910062 923:0.0023052436 924:0.001510539 925:0.0013286241 926:0.00011901751 927:0.00032883929 928:0.00032945178 929:0.0018033411 930:0.0029008354 931:6.5890359e-05 932:0.00025038337 933:3.9534214e-05 934:0.0019967938 935:0.00047235578 936:0.0018124683 937:0.006798551 938:0.0047644656 939:0.00014959186 940:2.6356141e-05 941:9.2246497e-05 942:2.6356141e-05 943:0.0024434063 944:5.2712283e-05 945:3.9534214e-05 946:5.2712283e-05 947:5.2712283e-05 948:8.3701496e-05 949:0.0012021976 950:0.00026788824 951:2.6356141e-05 952:0.0014802708 953:0.00027673951 954:2.6356141e-05 955:-5.1576269e-05 956:5.2712283e-05 957:0.00088633882 958:0.0030453792 959:0.00077894848 960:0.00059775496 961:0.00035405942 962:-2.3362927e-05 963:0.00024205566 964:-0.00028980893 965:0.0015330917 966:0.0010036968 967:0.017773669 968:0.00016781788 969:0.00095253543 970:1.7811139e-05 971:3.5622277e-05 972:0.00010656059 973:-3.8091945e-05 974:0.0027058509 975:8.4422631e-05 976:0.00030742248 977:9.2661376e-06 978:0.00049047323 979:0.00068115012 980:0.00018593528 981:0.00015422492 982:4.6330688e-06 983:0.0010660902 984:2.6356141e-05 985:0.00010542457 986:0.00056316005 987:0.00092228712 988:9.2661376e-06 989:2.7077276e-05 990:0.00022155754 991:0.0025472995 992:0.00022227869 993:2.6356141e-05 994:3.9534214e-05 995:2.6356141e-05 996:2.6356141e-05 997:8.051069e-05 998:0.00040821396 999:0.00040080494 1000:0.0040965122 1001:-0.00061513158 1002:0.0005606903 1003:0.0015287846 1004:0.0013172143 1005:0.0021875794 1006:0.00076937611 1007:0.00022299984 1008:0.011133909 1009:2.6356141e-05 1010:2.6356141e-05 1011:0.0065354244 1012:2.6356141e-05 1013:2.6356141e-05 1014:2.6356141e-05 1015:2.6356141e-05 1016:2.6356141e-05 1017:2.6356141e-05 1018:2.6356141e-05 1019:3.9534214e-05 1020:2.6356141e-05 1021:-0.00011427583 1022:2.6356141e-05 1023:0.00025903701 1024:2.6356141e-05 1025:2.6356141e-05 1026:2.6356141e-05 1027:0.0014971632 1028:0.00018521413 1029:2.6356141e-05 1030:2.6356141e-05 1031:2.6356141e-05 1032:3.9534214e-05 1033:6.5890359e-05 1034:0.00032101542 1035:0.00067074801 1036:4.6330688e-06 1037:0.00060804846 1038:-1.8838531e-05 1039:0.0066223363 1040:0.00068104162 1041:2.6356141e-05 1042:0.0019005268 1043:6.1978426e-05 1044:0.0023742553 1045:0.00078688102 1046:0.00047349185 1047:0.00039678442 1048:-4.5194669e-05 1049:5.3542058e-06 1050:0.00011005764 1051:0.00025182564 1052:0.00028209371 1053:0.0022219571 1054:0.0033904291 1055:0.0074357511 1056:4.6330688e-06 1057:2.6356141e-05 1058:0.0011379472 1059:0.001274361 1060:0.00028353598 1061:0.00034407215 1062:0.00014495879 1063:7.2113744e-07 1064:4.6330688e-06 1065:2.6356141e-05 1066:3.9534214e-05 1067:3.9534214e-05 1068:2.6356141e-05 1069:2.6356141e-05 1070:4.6330688e-06 1071:2.6356141e-05 1072:0.00035261712 1073:-2.4390331e-05 1074:8.1231839e-05 1075:7.5156502e-05 1076:0.00097589841 1077:8.3701496e-05 1078:3.9534214e-05 1079:9.2661376e-06 1080:9.2661376e-06 1081:-4.2616397e-05 1082:-0.00011508598 1083:0.00072337117 1084:0.00043631863 1085:-0.00017068282 1086:0.0032537589 1087:0.00033624825 1088:0.001344993 1089:0.0013893974 1090:0.0018935328 1091:0.0021855051 1092:0.00022310845 1093:0.0034069563 1094:5.8787627e-05 1095:-1.2456937e-05 1096:0.00020127677 1097:0.0022464562 1098:4.4167286e-05 1099:0.00063409837 1100:0.00093863619 1101:9.9872705e-06 1102:0.00041531667 1103:2.6356141e-05 1104:3.9534214e-05 1105:-3.9119318e-06 1106:0.00023329335 1107:-2.8825805e-05 1108:7.9068428e-05 1109:6.0753432e-06 1110:-3.9119346e-05 1111:5.4875687e-05 1112:2.7077276e-05 1113:-1.2456937e-05 1114:5.2712283e-05 1115:2.7077276e-05 1116:0.0056210198 1117:-3.0880565e-05 1118:-0.0050311298 1119:0.00048430893 1120:0.00052043505 1121:0.0014095498 1122:0.00089189061 1123:0.00017203607 1124:2.6356141e-05 1125:0.00016154493 1126:7.5699689e-05 1127:-0.00066362572 1128:1.3899207e-05 1129:0.000502209 1130:8.3701496e-05 1131:0.00011005764 1132:0.0001721447 1133:0.0009497595 1134:0.00016740299 1135:0.00034942638 1136:0.0011222106 1137:0.00016421221 1138:3.9534214e-05 1139:0.00010542457 1140:4.0255345e-05 1141:0.00033871792 1142:0.00082652393 1143:0.001219179 1144:5.7345351e-05 1145:4.6330688e-06 1146:0.00012931105 1147:5.2712283e-05 1148:0.00052661897 1149:0.00033224732 1150:0.00093721366 1151:-0.00017057419 1152:3.9534214e-05 1153:0.0013543677 1154:-6.4339481e-05 1155:-0.0005773459 1156:0.00031288536 1157:0.00059768546 1158:6.5890359e-05 1159:0.00014104685 1160:0.00033943908 1161:9.2661376e-06 1162:1.7811139e-05 1163:0.00022979632 1164:0.00025656732 1165:1.3899207e-05 1166:-3.9119318e-06 1167:7.0523427e-05 1168:2.6356141e-05 1169:0.001633488 1170:5.8066489e-05 1171:0.00078111194 1172:0.0004494967 1173:1.7811139e-05 1174:3.0989213e-05 1175:3.5622277e-05 1176:2.6356141e-05 1177:2.3165347e-05 1178:2.6356141e-05 1179:0.00022011528 1180:0.0041076164 1181:0.00045495949 1182:2.6356141e-05 1183:-7.7932404e-05 1184:0.0021995325 1185:0.0031282902 1186:-0.0015642395 1187:0.00025790097 1188:0.00020529731 1189:-0.0051648174 1190:0.00086896209 1191:-3.8091945e-05 1192:0.00022929236 1193:0.00012858991 1194:0.0017097804 1195:0.00069391332 1196:0.0001364138 1197:0.00056204345 1198:1.7811139e-05 1199:9.9872705e-06 1200:0.00070442405 1201:0.00032307018 1202:0.0011607173 1203:-2.9546938e-05 1204:6.5890359e-05 1205:4.6330688e-06 1206:1.7811139e-05 1207:-0.00095712929 1208:1.1123272e-05 1209:6.6611494e-05 1210:0.00021301255 1211:9.2967639e-05 1212:0.0001966437 1213:0.00015957913 1214:7.2113744e-07 1215:2.6356141e-05 1216:4.6330688e-06 1217:0.00094995718 1218:0.0028321692 1219:0.0037854062 1220:2.6356141e-05 1221:6.8053771e-05 1222:2.6356141e-05 1223:5.2712283e-05 1224:9.2661376e-06 1225:9.3688781e-05 1226:0.00021229142 1227:0.0002293814 1228:2.6356141e-05 1229:-7.8238636e-06 1230:-3.592854e-05 1231:2.6356141e-05 1232:0.00062297506 1233:7.5897282e-05 1234:7.9789563e-05 1235:0.0006297715 1236:5.2712283e-05 1237:2.6356141e-05 1238:2.6356141e-05 1239:2.6356141e-05 1240:2.6356141e-05 1241:2.6356141e-05 1242:2.6356141e-05 1243:2.6356141e-05 1244:0.0012361801 1245:0.00016884526 1246:0.00029208098 1247:6.5890359e-05 1248:0.0024008981 1249:0.0019238008 1250:2.6356141e-05 1251:3.9534214e-05 1252:3.0989213e-05 1253:0.00021620333 1254:0.0015888863 1255:0.00015813686 1256:0.00074653653 1257:0.0013953444 1258:0.00085945916 1259:0.00061134784 1260:6.5890359e-05 1261:0.00022341468 1262:9.2661376e-06 1263:2.6356141e-05 1264:2.7077276e-05 1265:7.1965696e-05 1266:9.3688781e-05 1267:0.00020765833 1268:0.00014104685 1269:0.00060053088 1270:0.00060835469 1271:2.9240678e-05 1272:0.00011860264 1273:0.00018984721 1274:5.2712283e-05 1275:-2.9546938e-05 1276:0.00028600564 1277:0.0010533467 1278:0.00025182564 1279:0.0036229424 1280:0.00080530462 1281:-0.0002320487 1282:0.0011566967 1283:0.00033943908 1284:2.6356141e-05 1285:0.00054071582 1286:0.00026552723 1287:0.00010542457 1288:0.00096984266 1289:3.5622277e-05 1290:0.00027931781 1291:2.6356141e-05 1292:2.6356141e-05 1293:2.6356141e-05 1294:2.6356141e-05 1295:3.9534214e-05 1296:2.6356141e-05 1297:0.0002286603 1298:0.0012313297 1299:0.00023792643 1300:2.6356141e-05 1301:2.6356141e-05 1302:0.00065252202 1303:0.00018130221 1304:2.6356141e-05 1305:2.6356141e-05 1306:2.6356141e-05 1307:0.00020982177 1308:7.2686838e-05 1309:2.6356141e-05 1310:2.6356141e-05 1311:2.6356141e-05 1312:2.6356141e-05 1313:9.2246497e-05 1314:2.6356141e-05 1315:2.6356141e-05 1316:3.9534214e-05 1317:2.6356141e-05 1318:2.6356141e-05 1319:0.0030642957 1320:0.00015175527 1321:0.001343857 1322:0.00024008982 1323:0.0031667973 1324:0.00058127742 1325:5.4875687e-05 1326:2.2444208e-05 1327:3.1710351e-05 1328:6.5890359e-05 1329:5.2712283e-05 1330:1.4620339e-05 1331:0.00068711687 1332:1.7811139e-05 1333:7.9068428e-05 1334:0.00064861006 1335:-0.00077675632 1336:0.00056737824 1337:0.00013178072 1338:2.6356141e-05 1339:0.00037825215 1340:0.00029208098 1341:-4.1263113e-05 1342:0.00044558474 1343:0.00011005764 1344:0.0016841259 1345:0.0051638675 1346:0.00025398904 1347:0.0039359559 1348:0.00016246368 1349:0.00030104085 1350:2.8519558e-05 1351:0.00016740299 1352:7.9068428e-05 1353:4.6330688e-06 1354:0.010616438 1355:0.00040729521 1356:3.0989213e-05 1357:9.3688781e-05 1358:0.00036332555 1359:0.0020591873 1360:0.00012786879 1361:3.0989213e-05 1362:0.00060269423 1363:0.00012786879 1364:-0.00024264846 1365:-2.1001941e-05 1366:-6.0121267e-05 1367:2.6356141e-05 1368:2.6356141e-05 1369:0.00018274448 1370:2.6356141e-05 1371:0.0010262497 1372:0.00011932378 1373:-4.9827748e-05 1374:2.6356141e-05 1375:6.5890359e-05 1376:5.2712283e-05 1377:5.2712283e-05 1378:0.00072490261 1379:5.2712283e-05 1380:6.5890359e-05 1381:2.6356141e-05 1382:5.2712283e-05 1383:2.6356141e-05 1384:2.6356141e-05 1385:0.00011932378 1386:9.76007e-05 1387:0.0062884684 1388:6.414183e-05 1389:0.00018984721 1390:0.0019451285 1391:3.0989213e-05 1392:2.6356141e-05 1393:0.00063040375 1394:0.00014495879 1395:1.7811139e-05 1396:3.9534214e-05 1397:8.3701496e-05 1398:0.0029380084 1399:3.9534214e-05 1400:0.00013178072 1401:7.5156502e-05 1402:0.00018737756 1403:4.4167286e-05 1404:0.00091114407 1405:-4.2003881e-05 1406:0.0053227162 1407:0.0013528169 1408:0.00021980904 1409:0.00016565446 1410:5.2712283e-05 1411:0.00025831588 1412:2.6356141e-05 1413:0.0011961418 1414:5.0242619e-05 1415:2.2444208e-05 1416:0.00012004491 1417:-0.00060453173 1418:0.00063512567 1419:0.0045394404 1420:0.0015639723 1421:6.5890359e-05 1422:0.00044095167 1423:2.6356141e-05 1424:1.7811139e-05 1425:3.9534214e-05 1426:0.00032307018 1427:2.7492162e-05 1428:4.6330688e-06 1429:2.996182e-05 1430:0.00023309574 1431:-0.00034271885 1432:0.00026655456 1433:-2.4498997e-05 1434:0.0015965125 1435:-2.0280802e-05 1436:0.0004071866 1437:0.00014495879 1438:0.00011860264 1439:0.0019909749 1440:0.00023298711 1441:8.8334571e-05 1442:0.0046885684 1443:8.4422631e-05 1444:0.00017111727 1445:0.00011613298 1446:0.00025573757 1447:0.00015813686 1448:8.8334571e-05 1449:0.0001731721 1450:0.00063554064 1451:0.001579946 1452:0.00032317886 1453:0.0041558733 1454:0.0001146907 1455:0.0002596495 1456:8.1952981e-05 1457:3.9336614e-05 1458:4.0255345e-05 1459:0.000142904 1460:2.6356141e-05 1461:0.00024391279 1462:-0.00063117465 1463:-2.9546938e-05 1464:0.00031915825 1465:-1.059979e-05 1466:0.00050653581 1467:9.8321849e-05 1468:0.0015016877 1469:0.00065221579 1470:2.6356141e-05 1471:-5.6604663e-06 1472:3.0989213e-05 1473:3.6343419e-05 1474:2.6356141e-05 1475:0.00011077877 1476:0.0029903059 1477:0.00085648563 1478:0.00014104685 1479:7.9789563e-05 1480:8.3701496e-05 1481:0.00095459021 1482:0.00018449299 1483:0.00014495879 1484:2.6356141e-05 1485:0.00079645339 1486:0.00016143627 1487:0.00039256626 1488:0.0001364138 1489:0.00023545676 1490:-0.0023145599 1491:0.0010213103 1492:-0.00080095825 1493:0.00011294219 1494:7.9068428e-05 1495:0.00017594801 1496:0.00056274515 1497:0.0016836023 1498:0.00040924139 1499:0.00021229142 1500:0.00017594801 1501:-1.17358e-05 1502:2.6356141e-05 1503:2.6356141e-05 1504:4.4167286e-05 1505:0.00030062601 1506:-1.5647727e-05 1507:-3.9119318e-06 1508:0.00046555934 1509:4.6330688e-06 1510:9.8321849e-05 1511:2.6356141e-05 1512:0.00051230489 1513:2.6356141e-05 1514:0.00010686684 1515:6.5890359e-05 1516:0.00029918371 1517:2.6356141e-05 1518:0.00021229142 1519:0.00067507481 1520:0.00075414329 1521:0.00047976477 1522:0.000285808 1523:2.2444208e-05 1524:3.0989213e-05 1525:2.2444208e-05 1526:1.7811139e-05 1527:0.0019847217 1528:0.00044311507 1529:1.8532275e-05 1530:6.5890359e-05 1531:0.00078679202 1532:0.0018622373 1533:0.00010614571 1534:0.0010832889 1535:7.1244554e-05 1536:-3.1907955e-06 1537:0.00029002622 1538:0.00047679126 1539:0.00037361908 1540:2.6356141e-05 1541:0.00056243892 1542:0.00022402723 1543:0.00014567992 1544:0.00011829637 1545:0.00049490872 1546:0.00040935003 1547:2.6356141e-05 1548:0.0077427397 1549:0.0038380295 1550:0.00045989885 1551:0.00062988012 1552:0.00066148193 1553:0.00053042226 1554:3.0989213e-05 1555:0.0016640428 1556:0.00028353598 1557:0.00010542457 1558:1.7811139e-05 1559:2.6356141e-05 1560:8.3701496e-05 1561:0.00014001947 1562:2.6356141e-05 1563:-1.17358e-05 1564:0.00070276455 1565:8.3701496e-05 1566:0.00085235655 1567:0.00042849476 1568:6.5890359e-05 1569:0.00017594801 1570:6.5890359e-05 1571:0.00059517659 1572:0.00029321699 1573:0.0017872783 1574:0.00010275729 1575:0.00097342877 1576:0.00010614571 1577:3.9534214e-05 1578:3.0989213e-05 1579:4.4167286e-05 1580:0.00043096443 1581:0.005051943 1582:3.9534214e-05 1583:3.0989213e-05 1584:0.00020837948 1585:0.0063751633 1586:0.00043529124 1587:-8.4728883e-05 1588:0.00047421292 1589:0.00012365058 1590:0.00048275798 1591:0.0003502561 1592:4.4997039e-05 1593:-0.0009773015 1594:2.6356141e-05 1595:9.2246497e-05 1596:9.2661376e-06 1597:0.0007722606 1598:1.3899207e-05 1599:5.0242619e-05 1600:0.00011149992 1601:4.6330688e-06 1602:0.0035754652 1603:9.2661376e-06 1604:0.0013641575 1605:0.00024266809 1606:7.506743e-05 1607:-3.1907955e-06 1608:0.00067177549 1609:0.00065324316 1610:0.0006475827 1611:0.00012539914 1612:9.2661376e-06 1613:0.00016421221 1614:1.7811139e-05 1615:4.6330688e-06 1616:7.4129101e-05 1617:0.00010542457 1618:8.5143765e-05 1619:0.00046195363 1620:0.0029804271 1621:0.00045093897 1622:8.3701496e-05 1623:0.00024266809 1624:0.0012819873 1625:0.00020663098 1626:0.0001146907 1627:-7.8238636e-06 1628:5.2712283e-05 1629:-1.6675131e-05 1630:0.00010542457 1631:1.6892402e-05 1632:-7.9858881e-05 1633:2.6356141e-05 1634:4.6330688e-06 1635:4.4888417e-05 1636:0.0037694518 1637:0.0012819873 1638:0.0074755927 1639:0.00084020576 1640:4.6330688e-06 1641:0.0051897489 1642:0.0020669026 1643:0.00018635014 1644:0.0029980212 1645:0.00017594801 1646:6.5890359e-05 1647:0.00066106697 1648:3.9534214e-05 1649:0.00059301325 1650:5.2712283e-05 1651:0.0031132356 1652:3.3152624e-05 1653:7.9068428e-05 1654:7.9068428e-05 1655:5.2712283e-05 1656:5.2712283e-05 1657:5.2712283e-05 1658:5.2712283e-05 1659:0.00025790097 1660:5.2712283e-05 1661:0.00037506135 1662:0.0007006012 1663:5.2712283e-05 1664:5.2712283e-05 1665:5.2712283e-05 1666:5.2712283e-05 1667:5.2712283e-05 1668:0.0044928035 1669:0.0028484685 1670:0.00028672678 1671:9.0497975e-05 1672:9.6879565e-05 1673:0.00083229301 1674:0.00091743673 1675:0.0030986541 1676:0.0033817361 1677:0.0021610255 1678:5.7345351e-05 1679:1.7811139e-05 1680:0.00052681664 1681:0.00010151264 1682:3.9534214e-05 1683:3.6343419e-05 1684:4.6330688e-06 1685:4.880035e-05 1686:0.00026891564 1687:5.2712283e-05 1688:-1.1014668e-05 1689:3.4594883e-05 1690:0.0019844456 1691:0.00032636963 1692:0.00015638833 1693:0.00176516 1694:-0.0038347403 1695:0.00078843191 1696:3.9534214e-05 1697:0.00063224119 1698:5.2712283e-05 1699:0.0002976525 1700:3.9534214e-05 1701:1.3899207e-05 1702:2.6356141e-05 1703:2.2444208e-05 1704:2.6356141e-05 1705:0.00013178072 1706:1.7811139e-05 1707:0.00033017292 1708:-5.5517962e-06 1709:9.5960801e-05 1710:0.00020055563 1711:0.00079192891 1712:-0.00012673278 1713:3.9534214e-05 1714:2.6356141e-05 1715:2.6356141e-05 1716:2.6356141e-05 1717:2.6356141e-05 1718:2.6356141e-05 1719:2.6356141e-05 1720:0.00065571279 1721:0.00020982177 1722:4.6330688e-06 1723:0.00057635788 1724:7.1244554e-05 1725:3.9534214e-05 1726:3.5622277e-05 1727:0.00032090678 1728:0.00080283498 1729:2.6356141e-05 1730:-7.463299e-05 1731:0.0032001277 1732:0.0013740361 1733:-0.0020725927 1734:3.0989213e-05 1735:0.00015824549 1736:4.5303292e-05 1737:0.00049582741 1738:0.0001146907 1739:-3.9119318e-06 1740:0.0018190083 1741:7.5156502e-05 1742:2.6356141e-05 1743:6.2699568e-05 1744:0.00023545676 1745:-1.2456937e-05 1746:3.6343419e-05 1747:0.00020127677 1748:7.1965696e-05 1749:7.9068428e-05 1750:0.00076865498 1751:5.2712283e-05 1752:-1.5647727e-05 1753:4.6330688e-06 1754:6.6611494e-05 1755:0.0001083091 1756:0.0023605539 1757:0.00019345287 1758:0.00057592324 1759:0.00023989216 1760:7.0523427e-05 1761:0.00022402723 1762:9.2246497e-05 1763:0.0059505603 1764:0.00039795981 1765:-2.4084129e-05 1766:0.00010996865 1767:5.2712283e-05 1768:6.2699568e-05 1769:0.0017276806 1770:0.00080119504 1771:0.00027499098 1772:-0.00018901743 1773:4.6330688e-06 1774:0.00011149992 1775:9.2661376e-06 1776:2.6356141e-05 1777:0.00030278941 1778:0.00014959186 1779:0.00026150668 1780:0.00034912012 1781:0.00095386908 1782:0.00035405942 1783:0.00037361908 1784:0.0019272567 1785:0.00015885801 1786:0.0017194614 1787:0.0042230082 1788:0.0043873987 1789:8.5143765e-05 1790:0.00081992499 1791:0.00098260585 1792:0.000493664 1793:4.6330688e-06 1794:2.3886481e-05 1795:4.6330693e-05 1796:0.00080191629 1797:-3.1907955e-06 1798:3.9534214e-05 1799:2.6356141e-05 1800:3.9534214e-05 1801:6.1978426e-05 1802:0.00016421221 1803:0.0012874205 1804:2.6356141e-05 1805:2.6356141e-05 1806:3.9534214e-05 1807:5.2712283e-05 1808:5.8066489e-05 1809:3.9534214e-05 1810:8.9055713e-05 1811:-0.0004040456 1812:9.2661376e-06 1813:0.0018063342 1814:0.0027608352 1815:2.6356141e-05 1816:0.0017179996 1817:4.880035e-05 1818:9.76007e-05 1819:1.7811139e-05 1820:0.00010336981 1821:0.00038823942 1822:0.00010151264 1823:0.00049757591 1824:8.9776833e-05 1825:3.9534214e-05 1826:0.0001232357 1827:0.0026657935 1828:0.00012786879 1829:-3.1907955e-06 1830:3.9534214e-05 1831:0.00018058108 1832:0.0013452994 1833:-3.3350261e-05 1834:0.0024095324 1835:-7.9374695e-05 1836:4.5609551e-05 1837:6.5988638e-06 1838:4.0255345e-05 1839:0.00051610824 1840:3.0989213e-05 1841:2.2444208e-05 1842:0.00019911335 1843:0.00030772871 1844:8.3701496e-05 1845:0.00091774284 1846:0.0029294326 1847:0.0006291591 1848:0.00037578249 1849:0.00032162791 1850:0.0004210858 1851:0.0013433924 1852:8.9776833e-05 1853:0.00026500371 1854:9.76007e-05 1855:0.0010446733 1856:-2.8104672e-05 1857:0.0014208707 1858:0.00041820123 1859:2.6356141e-05 1860:3.0989213e-05 1861:3.9534214e-05 1862:0.00023720528 1863:7.5176163e-06 1864:-2.1001941e-05 1865:7.9068428e-05 1866:2.6356141e-05 1867:0.00029146852 1868:-5.9093876e-05 1869:2.2444208e-05 1870:4.0255345e-05 1871:0.0034035484 1872:0.0019895826 1873:7.9068428e-05 1874:0.00020693723 1875:6.5890359e-05 1876:3.9534214e-05 1877:2.6356141e-05 1878:0.00064572552 1879:5.2712283e-05 1880:0.0010311891 1881:0.00021229142 1882:0.00017594801 1883:0.0023017663 1884:0.0025362652 1885:0.0006898928 1886:7.0523427e-05 1887:5.3542058e-06 1888:2.6356141e-05 1889:0.00023329335 1890:0.00036044102 1891:0.002476183 1892:-0.00016410358 1893:3.2431482e-05 1894:0.00011654787 1895:0.0041939854 1896:0.00011005764 1897:-0.00014917697 1898:-1.2456937e-05 1899:-2.9546938e-05 1900:1.8532275e-05 1901:3.0989213e-05 1902:0.00074776157 1903:0.00076917844 1904:0.0014949999 1905:0.0011547309 1906:0.00037497238 1907:0.0048931045 1908:0.00011294219 1909:2.8015689e-05 1910:0.0002596495 1911:7.0523427e-05 1912:0.00085801684 1913:0.00027715438 1914:5.3433421e-05 1915:0.0001232357 1916:2.6356141e-05 1917:2.2444208e-05 1918:8.1952981e-05 1919:0.0007136903 1920:0.0016676484 1921:0.00017594801 1922:0.0010731929 1923:4.6330688e-06 1924:9.2661376e-06 1925:0.00019592256 1926:-6.1148647e-05 1927:3.9534214e-05 1928:0.0011298368 1929:0.0011734804 1930:0.00052146241 1931:1.123193e-05 1932:2.2444208e-05 1933:6.4862965e-05 1934:3.9534214e-05 1935:0.00074148865 1936:0.00019375913 1937:6.6611494e-05 1938:3.7785696e-05 1939:0.00028672678 1940:4.6330688e-06 1941:8.4422631e-05 1942:-2.9546938e-05 1943:0.00045917771 1944:-2.9546938e-05 1945:3.9534214e-05 1946:4.6330688e-06 1947:1.7811139e-05 1948:0.00054709741 1949:-3.9119318e-06 1950:5.2712283e-05 1951:-3.2737735e-05 1952:0.00014104685 1953:4.6330688e-06 1954:2.6356141e-05 1955:2.2444208e-05 1956:0.0036911243 1957:2.6356141e-05 1958:0.00061298773 1959:4.0255345e-05 1960:0.001459269 1961:0.00035458297 1962:4.4167286e-05 1963:-2.4192734e-05 1964:2.6356141e-05 1965:3.9534214e-05 1966:-0.002381399 1967:2.6356141e-05 1968:9.6879565e-05 1969:0.00018265547 1970:0.0037628727 1971:2.2444208e-05 1972:4.2082687e-05 1973:-0.00038533524 1974:0.00042274533 1975:2.6356141e-05 1976:0.00047204952 1977:2.6356141e-05 1978:2.6356141e-05 1979:2.6356141e-05 1980:2.6356141e-05 1981:2.6356141e-05 1982:2.6356141e-05 1983:2.4607612e-05 1984:2.6356141e-05 1985:2.6356141e-05 1986:2.6356141e-05 1987:2.6356141e-05 1988:2.6356141e-05 1989:2.6356141e-05 1990:2.6356141e-05 1991:2.6356141e-05 1992:6.414183e-05 1993:5.2712283e-05 1994:2.6356141e-05 1995:2.6356141e-05 1996:-1.1014668e-05 1997:1.7811139e-05 1998:0.00023834129 1999:2.6356141e-05 2000:6.5890359e-05 2001:2.6356141e-05 2002:2.6356141e-05 2003:0.0033576323 2004:0.00033233635 2005:-4.37524e-05 2006:0.00034695666 2007:0.00011860264 2008:0.00039997522 2009:2.6356141e-05 2010:7.5877637e-05 2011:0.00024183835 2012:0.0021732652 2013:0.00064614037 2014:0.00013899207 2015:4.880035e-05 2016:6.6611494e-05 2017:0.00028353598 2018:0.00035869249 2019:-4.5194669e-05 2020:0.00015813686 2021:3.9534214e-05 2022:0.00032234908 2023:0.00054432143 2024:2.6356141e-05 2025:0.0001146907 2026:2.6356141e-05 2027:5.7345351e-05 2028:0.00026253404 2029:0.00014176799 2030:5.2712283e-05 2031:3.0989213e-05 2032:0.00076010998 2033:0.00095284166 2034:-0.00011560947 2035:0.00033460843 2036:0.00028395088 2037:3.9534214e-05 2038:2.6356141e-05 2039:0.00011860264 2040:2.2444208e-05 2041:4.6330688e-06 2042:-3.9119318e-06 2043:3.9534214e-05 2044:0.00016276992 2045:0.00095428404 2046:3.9534214e-05 2047:1.5341477e-05 2048:0.00028930508 2049:2.2444208e-05 2050:8.0925602e-05 2051:0.00010542457 2052:7.1659466e-05 2053:0.00025471018 2054:-0.0025103539 2055:0.00037147521 2056:0.00023309574 2057:4.6330688e-06 2058:1.7811139e-05 2059:3.9534214e-05 2060:0.00013178072 2061:0.0001119148 2062:0.0015861102 2063:0.00045412974 2064:8.8334571e-05 2065:-2.4913874e-05 2066:-7.8238636e-06 2067:1.5143862e-05 2068:2.0695685e-05 2069:0.0012256887 2070:4.8908969e-05 2071:0.0045078779 2072:-7.8238636e-06 2073:5.7345351e-05 2074:3.0989213e-05 2075:0.00033563576 2076:0.0046089957 2077:3.1710351e-05 2078:6.5890359e-05 2079:0.00029610159 2080:0.00013785606 2081:0.0017815483 2082:0.0007828605 2083:0.00017275721 2084:4.0670224e-05 2085:0.00065695751 2086:8.7307177e-05 2087:0.0008332312 2088:0.00095933198 2089:0.00017594801 2090:0.00015175527 2091:0.00016287855 2092:0.0038671615 2093:0.0018269214 2094:7.0523427e-05 2095:0.0001364138 2096:4.6330688e-06 2097:1.7811139e-05 2098:5.3542058e-06 2099:4.6330688e-06 2100:1.0708412e-05 2101:5.9202499e-05 2102:6.5890359e-05 2103:7.9068428e-05 2104:0.00085565588 2105:-1.2456937e-05 2106:0.00047554658 2107:0.00017883256 2108:0.00037361908 2109:0.00039966896 2110:0.0051182485 2111:0.00012756254 2112:8.8334571e-05 2113:5.2712283e-05 2114:8.8334571e-05 2115:-7.1027321e-06 2116:0.0001364138 2117:0.00011222105 2118:0.00027335109 2119:0.0002425595 2120:0.00032626101 2121:3.9534214e-05 2122:2.6356141e-05 2123:1.8532275e-05 2124:3.9534214e-05 2125:6.1978426e-05 2126:1.0708412e-05 2127:0.00029455064 2128:2.6356141e-05 2129:3.9534214e-05 2130:2.6356141e-05 2131:3.2431482e-05 2132:4.6330688e-06 2133:0.00028672678 2134:0.00024832858 2135:0.0015643374 2136:0.00058005244 2137:0.00013250185 2138:-2.1001941e-05 2139:0.0026016515 2140:0.00082497299 2141:0.0028774526 2142:0.00011077877 2143:2.6356141e-05 2144:2.6356141e-05 2145:0.00044486363 2146:9.6879565e-05 2147:-0.00010232279 2148:3.5622277e-05 2149:0.00016276992 2150:9.2246497e-05 2151:0.00037969442 2152:4.818782e-05 2153:3.3152624e-05 2154:4.4167286e-05 2155:7.2113744e-07 2156:0.00012786879 2157:9.2246497e-05 2158:0.00045238121 2159:-1.17358e-05 2160:1.3899207e-05 2161:0.00026788824 2162:-3.737081e-05 2163:0.00029354283 2164:5.2712283e-05 2165:0.0043362374 2166:3.706455e-05 2167:0.00077123329 2168:0.00043920314 2169:3.9534214e-05 2170:2.6356141e-05 2171:-0.00012137857 2172:0.00018460162 2173:6.5890359e-05 2174:2.6356141e-05 2175:2.6356141e-05 2176:0.00010924757 2177:0.00074765302 2178:-2.8825805e-05 2179:0.00079717458 2180:0.00010223377 2181:3.9534214e-05 2182:0.00051219627 2183:0.00045093897 2184:0.00021764562 2185:0.00052342814 2186:5.2712283e-05 2187:0.00047729511 2188:2.6356141e-05 2189:0.0030685447 2190:0.00078224792 2191:0.00028889021 2192:4.4167286e-05 2193:3.9534214e-05 2194:-0.00052854553 2195:0.00020302528 2196:0.00019448028 2197:0.00016276992 2198:0.00014321026 2199:0.00093039754 2200:0.00030742248 2201:7.9789563e-05 2202:1.0708412e-05 2203:0.00068958662 2204:0.00012395685 2205:8.8334571e-05 2206:4.9521484e-05 2207:6.0951039e-05 2208:2.6356141e-05 2209:3.9534214e-05 2210:0.00031061328 2211:0.00021620333 2212:2.6356141e-05 2213:4.6330688e-06 2214:4.4167286e-05 2215:9.2246497e-05 2216:4.6330688e-06 2217:-6.3005813e-05 2218:-7.1027321e-06 2219:7.9068428e-05 2220:0.0011134482 2221:0.00019767108 2222:0.00036127077 2223:5.8066489e-05 2224:4.6330688e-06 2225:2.6356141e-05 2226:0.00041778639 2227:0.00054607005 2228:0.0034088329 2229:2.6356141e-05 2230:0.0001232357 2231:0.00025193425 2232:9.3688781e-05 2233:0.0026310205 2234:5.2712283e-05 2235:2.6356141e-05 2236:9.6879565e-05 2237:0.00097168033 2238:0.00069813163 2239:2.6356141e-05 2240:2.6356141e-05 2241:2.6356141e-05 2242:2.6356141e-05 2243:4.0255345e-05 2244:2.2444208e-05 2245:4.9215225e-05 2246:0.0001604089 2247:3.0989213e-05 2248:2.6356141e-05 2249:2.6356141e-05 2250:0.00014248911 2251:0.00013250185 2252:4.4167286e-05 2253:0.00015885801 2254:-0.00059207488 2255:-0.00057570601 2256:4.6330688e-06 2257:7.9068428e-05 2258:7.5156502e-05 2259:0.0021758436 2260:3.9534214e-05 2261:0.00034262988 2262:7.1244554e-05 2263:0.00076227332 2264:6.8053771e-05 2265:2.6356141e-05 2266:2.6356141e-05 2267:-0.00014937461 2268:0.00054318545 2269:6.5890359e-05 2270:7.9068428e-05 2271:3.5622277e-05 2272:-4.5915811e-05 2273:0.00017472298 2274:5.3542058e-06 2275:2.2444208e-05 2276:0.00017666914 2277:0.00017245096 2278:2.6356141e-05 2279:5.8066489e-05 2280:-0.0010453551 2281:-2.9546938e-05 2282:4.4167286e-05 2283:4.4167286e-05 2284:7.5156502e-05 2285:4.4167286e-05 2286:1.925341e-05 2287:2.6356141e-05 2288:2.6356141e-05 2289:0.0018042794 2290:0.0010797917 2291:0.0014471576 2292:4.880035e-05 2293:9.0497975e-05 2294:-8.5341409e-05 2295:0.00023154482 2296:6.6611494e-05 2297:0.00010542457 2298:0.00015175527 2299:4.5303292e-05 2300:-0.0011555909 2301:0.0013443806 2302:0.00010614571 2303:0.0004225281 2304:0.00011510559 2305:5.0242619e-05 2306:2.996182e-05 2307:0.00055266888 2308:0.00014321026 2309:-7.8238636e-06 2310:0.00060300046 2311:0.00039215133 2312:3.9534214e-05 2313:2.6356141e-05 2314:2.6356141e-05 2315:0.00028961129 2316:6.5890359e-05 2317:0.00023329335 2318:0.00029918371 2319:0.00069668924 2320:0.0010970794 2321:0.00046638906 2322:0.00038021788 2323:0.00064943981 2324:7.5877637e-05 2325:0.0013782543 2326:3.9534214e-05 2327:0.00036188329 2328:8.3701496e-05 2329:0.00039534215 2330:0.00010542457 2331:3.9534214e-05 2332:2.6356141e-05 2333:5.2712283e-05 2334:0.00013116823 2335:0.00021373369 2336:5.4263171e-05 2337:-7.8238636e-06 2338:-7.1027321e-06 2339:0.00038649089 2340:1.3899207e-05 2341:1.184443e-05 2342:-1.23483e-05 2343:4.6330688e-06 2344:-2.3362927e-05 2345:0.00013322299 2346:0.0017258236 2347:-7.5047872e-05 2348:0.00017203607 2349:9.2661376e-06 2350:3.5622277e-05 2351:3.9534214e-05 2352:2.6356141e-05 2353:0.00034407215 2354:2.6356141e-05 2355:2.6356141e-05 2356:6.5890359e-05 2357:2.6356141e-05 2358:2.6356141e-05 2359:0.00071697013 2360:0.00029671405 2361:2.6356141e-05 2362:2.6356141e-05 2363:-9.2444119e-05 2364:7.1244554e-05 2365:5.2712283e-05 2366:0.00018984721 2367:2.6356141e-05 2368:0.00014248911 2369:0.002852252 2370:-0.00052383414 2371:5.4589018e-05 2372:5.5596829e-05 2373:7.5877637e-05 2374:0.00080108648 2375:-8.3286621e-05 2376:0.00045734015 2377:0.00026397634 2378:0.00068753172 2379:0.00018141084 2380:1.2871811e-05 2381:7.9789563e-05 2382:7.2113744e-07 2383:0.00011077877 2384:4.4167286e-05 2385:0.00043065817 2386:5.7345351e-05 2387:2.6356141e-05 2388:1.7811139e-05 2389:2.6356141e-05 2390:0.00017811143 2391:0.0010689747 2392:0.00090476242 2393:2.6356141e-05 2394:0.00062441733 2395:-2.4192734e-05 2396:3.5622277e-05 2397:1.3899207e-05 2398:6.1978426e-05 2399:0.00052784407 2400:0.00034737153 2401:0.00073591719 2402:2.6356141e-05 2403:9.2661376e-06 2404:0.00016565446 2405:1.4422749e-06 2406:0.0013713492 2407:0.0020586636 2408:0.00098343589 2409:6.5890359e-05 2410:5.3542058e-06 2411:8.3701496e-05 2412:0.00015422492 2413:0.00034262988 2414:0.0010918338 2415:1.6783757e-05 2416:4.5609551e-05 2417:9.2967639e-05 2418:0.00011005764 2419:5.8787627e-05 2420:-0.00034671993 2421:0.00073663832 2422:0.0012486371 2423:0.0006549916 2424:0.0015818033 2425:0.00032945178 2426:3.9534214e-05 2427:7.9068428e-05 2428:4.9521484e-05 2429:0.0012531613 2430:0.00018635014 2431:2.2444208e-05 2432:0.00041315332 2433:-9.2552764e-05 2434:1.4620339e-05 2435:0.00065429002 2436:-6.381591e-06 2437:3.1710351e-05 2438:4.0976491e-05 2439:4.4888417e-05 2440:3.9534214e-05 2441:0.00029135984 2442:0.00032553985 2443:1.7811139e-05 2444:0.00017594801 2445:8.8334571e-05 2446:0.00024183835 2447:0.00026500371 2448:6.1978426e-05 2449:0.00072584092 2450:0.0013081458 2451:0.00092792779 2452:0.0013543874 2453:0.0012648973 2454:0.00013178072 2455:2.6356141e-05 2456:0.00059734005 2457:8.7307177e-05 2458:5.7345351e-05 2459:6.5890359e-05 2460:3.9534214e-05 2461:0.00024297439 2462:-4.5194669e-05 2463:1.2871811e-05 2464:0.00014567992 2465:0.00049901824 2466:0.00049119431 2467:0.00021692448 2468:0.00012467797 2469:0.00027643322 2470:5.2712283e-05 2471:0.00045093897 2472:0.0004292159 2473:7.0523427e-05 2474:5.2712283e-05 2475:-9.8519471e-05 2476:0.00016884526 2477:0.0002564587 2478:0.00012858991 2479:0.0020254222 2480:0.0025699413 2481:5.3542058e-06 2482:0.0004573206 2483:0.00035303205 2484:0.00013929832 2485:0.00015247639 2486:0.00011005764 2487:0.0001397132 2488:0.00016812413 2489:9.6879565e-05 2490:7.2113744e-07 2491:5.2712283e-05 2492:3.5622277e-05 2493:0.00089086324 2494:0.00046411704 2495:0.0004494967 2496:0.0001232357 2497:7.6598764e-05 2498:2.6356141e-05 2499:5.2712283e-05 2500:4.6330688e-06 2501:0.00077267556 2502:4.0255345e-05 2503:1.7811139e-05 2504:0.0034857185 2505:0.00020302528 2506:0.00018851354 2507:0.00053876964 2508:0.00097209512 2509:0.00016276992 2510:5.2712283e-05 2511:1.4422749e-06 2512:0.00010542457 2513:0.00035725019 2514:0.0003412962 2515:0.00027304486 2516:0.00037516997 2517:0.00042716114 2518:7.0523427e-05 2519:-3.2737735e-05 2520:3.9534214e-05 2521:0.0010530207 2522:0.00041315332 2523:0.00018130221 2524:5.7345351e-05 2525:0.001711618 2526:5.3433421e-05 2527:-3.9119318e-06 2528:-8.4363683e-06 2529:-6.0427512e-05 2530:0.0001146907 2531:4.6330688e-06 2532:3.9534214e-05 2533:3.0989213e-05 2534:4.6330688e-06 2535:1.7811139e-05 2536:7.0523427e-05 2537:1.4422749e-06 2538:0.0024042171 2539:0.0026869236 2540:0.00022011528 2541:0.00090825948 2542:0.00013713492 2543:-3.9119318e-06 2544:6.3420703e-05 2545:5.2712283e-05 2546:0.002165461 2547:6.5890359e-05 2548:0.00047987339 2549:0.00010614571 2550:0.00022474835 2551:0.0001364138 2552:0.00038185783 2553:0.00052146241 2554:0.00010542457 2555:0.00020374643 2556:0.0026190476 2557:3.9534214e-05 2558:0.00015103414 2559:0.00034850763 2560:7.9068428e-05 2561:4.0255345e-05 2562:0.00015885801 2563:0.00036723749 2564:0.00017275721 2565:2.6356141e-05 2566:6.5890359e-05 2567:-0.00015658594 2568:0.00076330081 2569:2.7077276e-05 2570:1.7811139e-05 2571:0.00073272636 2572:8.4422631e-05 2573:0.00012076605 2574:3.9534214e-05 2575:3.9534214e-05 2576:-1.2456937e-05 2577:-0.00012354198 2578:0.0043592746 2579:9.2246497e-05 2580:3.0989213e-05 2581:2.6356141e-05 2582:2.2444208e-05 2583:0.00028991757 2584:0.00013250185 2585:2.2444208e-05 2586:2.6356141e-05 2587:4.6330688e-06 2588:0.0009641627 2589:0.0001232357 2590:4.880035e-05 2591:5.2712283e-05 2592:0.00012395685 2593:0.00036116215 2594:-2.8825805e-05 2595:4.4167286e-05 2596:-5.301855e-05 2597:0.0047052037 2598:0.00010686684 2599:-7.8238636e-06 2600:3.9534214e-05 2601:2.6356141e-05 2602:2.6356141e-05 2603:-5.6930465e-05 2604:6.4862965e-05 2605:1.7811139e-05 2606:2.6356141e-05 2607:0.00018490788 2608:9.2661376e-06 2609:0.00083629391 2610:0.001900023 2611:0.00068032049 2612:0.00021620333 2613:0.0014120389 2614:0.00013178072 2615:2.6356141e-05 2616:2.6356141e-05 2617:6.5890359e-05 2618:2.6356141e-05 2619:2.6356141e-05 2620:6.6611494e-05 2621:2.6356141e-05 2622:3.9534214e-05 2623:0.0002190879 2624:3.0989213e-05 2625:7.9789563e-05 2626:6.5890359e-05 2627:6.5890359e-05 2628:2.6356141e-05 2629:5.2712283e-05 2630:2.6356141e-05 2631:0.00017594801 2632:2.6356141e-05 2633:5.2712283e-05 2634:3.9534214e-05 2635:0.00014959186 2636:-9.7185824e-05 2637:0.00052681664 2638:0.0023512682 2639:0.00017050476 2640:0.00096787693 2641:0.0011785483 2642:0.00025398904 2643:0.00047585287 2644:2.6356141e-05 2645:4.4167286e-05 2646:2.6356141e-05 2647:2.6356141e-05 2648:0.00016740299 2649:0.00021548221 2650:0.00059342809 2651:2.6356141e-05 2652:2.6356141e-05 2653:4.6330688e-06 2654:3.9534214e-05 2655:0.00075475581 2656:0.00048264934 2657:8.8334571e-05 2658:2.7077276e-05 2659:3.9534214e-05 2660:0.00078893581 2661:0.00033408485 2662:0.00022011528 2663:0.00080963143 2664:0.00023010257 2665:6.5890359e-05 2666:4.4167286e-05 2667:5.7345351e-05 2668:-0.00018222099 2669:-8.6477405e-05 2670:5.2712283e-05 2671:2.6356141e-05 2672:0.00011932378 2673:5.7345351e-05 2674:0.00039112396 2675:9.2661376e-06 2676:9.9566481e-05 2677:6.6611494e-05 2678:1.7811139e-05 2679:-4.6943202e-05 2680:0.0017339733 2681:-2.8104672e-05 2682:0.00022516321 2683:0.00019933061 2684:2.6356141e-05 2685:3.9534214e-05 2686:-3.9119318e-06 2687:5.0963758e-05 2688:4.6330688e-06 2689:3.9534214e-05 2690:3.0989213e-05 2691:0.00026644598 2692:0.00042763478 2693:0.00072665111 2694:7.2380564e-05 2695:-1.6368867e-05 2696:0.00040965623 2697:0.00028364456 2698:0.00016421221 2699:4.6330688e-06 2700:-5.9706414e-05 2701:0.00045093897 2702:2.6356141e-05 2703:0.00011860264 2704:0.00024513781 2705:0.00014495879 2706:0.0010859561 2707:0.00044414253 2708:4.6330688e-06 2709:4.0255345e-05 2710:5.4569431e-05 2711:0.00011541184 2712:5.2712283e-05 2713:2.6356141e-05 2714:2.6356141e-05 2715:3.5622277e-05 2716:7.9483318e-05 2717:0.00017131494 2718:2.6356141e-05 2719:2.6356141e-05 2720:2.6356141e-05 2721:2.6356141e-05 2722:2.6356141e-05 2723:2.6356141e-05 2724:2.6356141e-05 2725:5.2712283e-05 2726:0.001858019 2727:1.8532275e-05 2728:0.00024400176 2729:3.9534214e-05 2730:0.00029887748 2731:0.00095139939 2732:7.2113744e-07 2733:1.3899207e-05 2734:0.00037578249 2735:6.5890359e-05 2736:8.1883569e-05 2737:4.4167286e-05 2738:1.6062613e-05 2739:3.1097825e-05 2740:7.1244554e-05 2741:0.00050839293 2742:9.2661376e-06 2743:3.5622277e-05 2744:2.6356141e-05 2745:0.0020645414 2746:-2.3471601e-05 2747:0.00017594801 2748:0.00029063871 2749:-2.7383529e-05 2750:-3.9119318e-06 2751:-1.2763182e-05 2752:-4.0561605e-05 2753:1.7811139e-05 2754:2.6356141e-05 2755:0.00031699488 2756:4.0255345e-05 2757:4.9521484e-05 2758:0.00012076605 2759:0.0011124208 2760:0.00020302528 2761:0.00092318619 2762:5.7345351e-05 2763:0.002628946 2764:7.5877637e-05 2765:0.004120538 2766:0.00098568818 2767:0.0030035926 2768:0.0002293814 2769:0.00017533549 2770:2.6356141e-05 2771:0.00076185848 2772:3.9534214e-05 2773:2.6356141e-05 2774:4.880035e-05 2775:5.2712283e-05 2776:6.5890359e-05 2777:3.9534214e-05 2778:2.6356141e-05 2779:7.0523427e-05 2780:3.9534214e-05 2781:-0.00069758843 2782:-0.00024151252 2783:0.00035333828 2784:3.5622277e-05 2785:0.00092042988 2786:0.0016373802 2787:0.00011860264 2788:-0.00073506788 2789:0.00033871792 2790:1.7811139e-05 2791:3.9534214e-05 2792:0.00044280887 2793:3.7785696e-05 2794:0.00017739028 2795:0.00022474835 2796:6.5890359e-05 2797:0.00026758201 2798:0.00018202333 2799:0.00016884526 2800:0.00028137257 2801:0.00010542457 2802:0.00018058108 2803:3.9534214e-05 2804:3.9534214e-05 2805:2.6356141e-05 2806:0.00066982926 2807:4.6330688e-06 2808:0.00057273242 2809:6.0951039e-05 2810:0.00017203607 2811:0.00045845658 2812:0.00011005764 2813:4.6330688e-06 2814:0.00034088132 2815:0.00072099059 2816:-6.381591e-06 2817:9.2661376e-06 2818:0.00016421221 2819:0.0027982257 2820:0.00030525908 2821:0.00020910062 2822:-1.2456937e-05 2823:0.00012786879 2824:0.00040935003 2825:0.00018130221 2826:0.0012153757 2827:4.6330688e-06 2828:9.1219103e-05 2829:0.00041625515 2830:-1.6368867e-05 2831:0.0019407127 2832:5.2712283e-05 2833:2.6356141e-05 2834:6.5890359e-05 2835:0.00016276992 2836:3.0989213e-05 2837:0.00045723157 2838:0.0001749206 2839:-8.6368767e-05 2840:4.6330688e-06 2841:0.00016421221 2842:4.6330688e-06 2843:0.00015474841 2844:2.6356141e-05 2845:4.6330688e-06 2846:2.6356141e-05 2847:0.00067424506 2848:3.0989213e-05 2849:7.5156502e-05 2850:8.9776833e-05 2851:3.5622277e-05 2852:-5.2455948e-06 2853:0.00020529731 2854:0.00015813686 2855:7.9068428e-05 2856:3.1710351e-05 2857:0.00012539914 2858:7.7319906e-05 2859:0.0022864053 2860:0.0016275409 2861:0.00058601913 2862:-4.3031272e-05 2863:0.00027221508 2864:-0.00033179316 2865:4.4167286e-05 2866:2.6356141e-05 2867:0.00023329335 2868:2.6356141e-05 2869:0.0001146907 2870:5.3433421e-05 2871:3.9534214e-05 2872:3.9534214e-05 2873:0.00012467797 2874:0.00011149992 2875:2.6356141e-05 2876:2.6356141e-05 2877:0.00096313521 2878:0.0011177751 2879:4.0976491e-05 2880:2.2444208e-05 2881:2.7077276e-05 2882:0.00068206893 2883:0.00094995718 2884:4.0255345e-05 2885:0.00017594801 2886:5.3433421e-05 2887:6.1978426e-05 2888:-3.9119318e-06 2889:-0.00037143609 2890:-4.3337517e-05 2891:0.00092576444 2892:0.00028034515 2893:5.2712283e-05 2894:1.925341e-05 2895:2.7798415e-05 2896:7.5156502e-05 2897:-1.7396249e-05 2898:8.4422631e-05 2899:5.7345351e-05 2900:0.00014784333 2901:4.0255345e-05 2902:2.4607612e-05 2903:0.0014383756 2904:5.0963758e-05 2905:7.2113744e-07 2906:2.6356141e-05 2907:0.00029990484 2908:0.00014567992 2909:2.7077276e-05 2910:2.6356141e-05 2911:3.9534214e-05 2912:2.6356141e-05 2913:9.76007e-05 2914:2.6356141e-05 2915:0.00020560354 2916:0.00037187056 2917:0.0001232357 2918:1.8532275e-05 2919:2.6356141e-05 2920:0.00023545676 2921:1.7811139e-05 2922:5.2712283e-05 2923:5.2712283e-05 2924:2.6356141e-05 2925:2.6356141e-05 2926:2.6356141e-05 2927:6.5890359e-05 2928:2.6356141e-05 2929:2.6356141e-05 2930:9.6879565e-05 2931:2.7077276e-05 2932:0.0001232357 2933:0.00020302528 2934:2.2444208e-05 2935:0.00011860264 2936:-1.2456937e-05 2937:0.00077966962 2938:9.2246497e-05 2939:7.9068428e-05 2940:2.6356141e-05 2941:2.6356141e-05 2942:0.00057819526 2943:0.0025441975 2944:0.00014176799 2945:0.00035725019 2946:2.6356141e-05 2947:0.00017131494 2948:0.00013178072 2949:0.00014959186 2950:3.9534214e-05 2951:2.6356141e-05 2952:0.00046195363 2953:6.5890359e-05 2954:2.6356141e-05 2955:2.6356141e-05 2956:0.00040771006 2957:4.4167286e-05 2958:-2.1001941e-05 2959:-7.8238636e-06 2960:0.00012684141 2961:9.0497975e-05 2962:-0.00018438436 2963:0.00017203607 2964:0.00046916501 2965:0.00021229142 2966:0.0014248914 2967:-0.00013846857 2968:0.00015660553 2969:4.6330688e-06 2970:2.6356141e-05 2971:0.00083485158 2972:0.00055883324 2973:0.00019026209 2974:6.5890359e-05 2975:3.5622277e-05 2976:4.880035e-05 2977:0.0001146907 2978:2.6356141e-05 2979:3.9534214e-05 2980:1.7811139e-05 2981:2.6356141e-05 2982:4.6330688e-06 2983:1.7811139e-05 2984:4.6330688e-06 2985:0.00031627371 2986:0.00034262988 2987:0.00051899272 2988:0.0016427344 2989:-7.4089644e-06 2990:0.00018593528 2991:0.00010542457 2992:6.5890359e-05 2993:0.00030309564 2994:3.9534214e-05 2995:0.0012501683 2996:0.001604534 2997:7.9068428e-05 2998:3.9534214e-05 2999:3.9534214e-05 3000:3.9534214e-05 3001:3.9534214e-05 3002:2.6356141e-05 3003:0.00018984721 3004:4.7051832e-05 3005:5.2712283e-05 3006:2.6356141e-05 3007:5.7345351e-05 3008:2.6356141e-05 3009:0.00021980904 3010:0.0013363394 3011:0.00095880841 3012:0.00065973331 3013:7.9068428e-05 3014:0.0001364138 3015:0.00023401449 3016:0.00060990558 3017:3.0989213e-05 3018:0.00021548221 3019:0.00024472291 3020:0.00011860264 3021:0.00014104685 3022:3.4594883e-05 3023:-0.00012703902 3024:1.4620339e-05 3025:0.00018521413 3026:8.3701496e-05 3027:0.00013322299 3028:0.00068228616 3029:-5.8678979e-05 3030:6.3420703e-05 3031:0.0023137887 3032:0.001799844 3033:9.9872705e-06 3034:2.6356141e-05 3035:0.00091372238 3036:0.00025038337 3037:0.00010151264 3038:0.0001136633 3039:-7.1027321e-06 3040:-4.4473545e-05 3041:0.0017719371 3042:8.3701496e-05 3043:0.00011860264 3044:0.00074332621 3045:5.2712283e-05 3046:-2.1308198e-05 3047:6.1978426e-05 3048:0.0002596495 3049:2.6356141e-05 3050:9.2661376e-06 3051:2.6356141e-05 3052:0.0007239838 3053:7.0523427e-05 3054:0.00064572552 3055:0.0017353959 3056:5.0963758e-05 3057:3.1710351e-05 3058:3.9534214e-05 3059:2.6356141e-05 3060:0.00068525976 3061:0.00031205555 3062:0.0056078029 3063:-0.00020827088 3064:3.3873748e-05 3065:0.00054998195 3066:2.6356141e-05 3067:2.6356141e-05 3068:3.9534214e-05 3069:0.00013713492 3070:0.0010514894 3071:0.0001973648 3072:0.00035652908 3073:-2.0280802e-05 3074:-0.00026972577 3075:4.6330688e-06 3076:5.2712283e-05 3077:6.6611494e-05 3078:4.4167286e-05 3079:3.9534214e-05 3080:-6.3726948e-05 3081:2.3886481e-05 3082:0.00044702707 3083:6.6611494e-05 3084:5.2712283e-05 3085:9.2246497e-05 3086:2.6356141e-05 3087:0.00010223377 3088:8.8334571e-05 3089:9.2661376e-06 3090:4.6330688e-06 3091:0.00016812413 3092:0.00032986666 3093:3.7785696e-05 3094:0.00063687423 3095:2.2444208e-05 3096:2.3165347e-05 3097:2.6356141e-05 3098:2.6356141e-05 3099:-3.9119318e-06 3100:7.9068428e-05 3101:0.00023792643 3102:9.76007e-05 3103:5.4154552e-05 3104:4.6330688e-06 3105:9.76007e-05 3106:5.2712283e-05 3107:0.0002564587 3108:0.0012957779 3109:-0.00011967979 3110:5.4875687e-05 3111:6.5890359e-05 3112:9.6879565e-05 3113:2.6356141e-05 3114:2.7077276e-05 3115:-3.7568439e-05 3116:0.00029857122 3117:2.6356141e-05 3118:0.00014640106 3119:2.4607612e-05 3120:4.4888417e-05 3121:2.6356141e-05 3122:0.00013178072 3123:4.9521484e-05 3124:7.2113744e-07 3125:0.00010151264 3126:-7.8238636e-06 3127:1.7811139e-05 3128:1.1429544e-05 3129:2.6356141e-05 3130:-0.00015905561 3131:9.9872705e-06 3132:0.00013178072 3133:1.7811139e-05 3134:2.6356141e-05 3135:2.6356141e-05 3136:0.0025721046 3137:0.00089796603 3138:-4.9827748e-05 3139:0.0013933785 3140:0.0009160834 3141:0.0012588218 3142:-0.0015740291 3143:-8.0095822e-05 3144:0.00041090086 3145:0.00046669532 3146:2.6356141e-05 3147:2.6356141e-05 3148:0.00011005764 3149:2.6356141e-05 3150:2.6356141e-05 3151:0.00015783061 3152:0.0013985545 3153:0.00011613298 3154:7.9068428e-05 3155:0.0011364159 3156:0.00018912608 3157:3.9534214e-05 3158:2.6356141e-05 3159:2.6356141e-05 3160:0.00051580195 3161:0.00026037064 3162:0.00035869249 3163:-0.00016163393 3164:-0.00015700085 3165:2.6356141e-05 3166:2.6356141e-05 3167:0.00017245096 3168:7.9789563e-05 3169:2.6356141e-05 3170:3.9534214e-05 3171:0.00010223377 3172:0.00015422492 3173:0.00085451989 3174:0.00038876294 3175:0.00030844985 3176:0.0019170238 3177:0.00012395685 3178:5.2712283e-05 3179:3.0989213e-05 3180:7.9068428e-05 3181:8.0204452e-05 3182:-0.00011818775 3183:0.0001364138 3184:3.0989213e-05 3185:9.2661376e-06 3186:2.3165347e-05 3187:4.6330688e-06 3188:9.2661376e-06 3189:-9.1110494e-05 3190:0.00018593528 3191:0.00023518983 3192:-0.00017264858 3193:4.6330688e-06 3194:-0.00053287228 3195:-0.00048643304 3196:-1.2456937e-05 3197:0.00035375319 3198:3.9534214e-05 3199:2.6356141e-05 3200:0.00048439787 3201:0.00010614571 3202:2.6356141e-05 3203:4.6330688e-06 3204:0.00023329335 3205:0.001395127 3206:4.6330688e-06 3207:0.00073344761 3208:0.00021445483 3209:0.00015813686 3210:2.6356141e-05 3211:0.0016342982 3212:2.6356141e-05 3213:-8.1123209e-05 3214:1.0402166e-05 3215:9.2661376e-06 3216:3.706455e-05 3217:3.0989213e-05 3218:4.4167286e-05 3219:0.0016024791 3220:9.3688781e-05 3221:0.00058807392 3222:0.00067280274 3223:0.00094027614 3224:3.9534214e-05 3225:4.6330688e-06 3226:2.6356141e-05 3227:0.00045845658 3228:2.6356141e-05 3229:4.4167286e-05 3230:0.00085783901 3231:0.0001364138 3232:0.001400175 3233:1.7811139e-05 3234:5.2712283e-05 3235:8.3701496e-05 3236:4.880035e-05 3237:0.00033233635 3238:0.00052898005 3239:0.00066292414 3240:2.6356141e-05 3241:2.6356141e-05 3242:2.6356141e-05 3243:2.6356141e-05 3244:2.6356141e-05 3245:6.5890359e-05 3246:3.9534214e-05 3247:6.5890359e-05 3248:2.6356141e-05 3249:2.2444208e-05 3250:2.6356141e-05 3251:0.0014385732 3252:6.2393286e-05 3253:2.6356141e-05 3254:2.6356141e-05 3255:2.2444208e-05 3256:0.0015180565 3257:0.0017192246 3258:3.6343419e-05 3259:2.6356141e-05 3260:4.880035e-05 3261:0.00029455064 3262:4.6330688e-06 3263:0.00081220974 3264:0.00028991757 3265:0.00037486374 3266:0.00062596815 3267:2.6356141e-05 3268:0.00013178072 3269:0.001604534 3270:3.9534214e-05 3271:2.6356141e-05 3272:9.2246497e-05 3273:0.00011860264 3274:0.00011541184 3275:7.6598764e-05 3276:0.00055317278 3277:0.00020230416 3278:0.00050539977 3279:8.1231839e-05 3280:0.00027077281 3281:0.00019375913 3282:0.00031277665 3283:2.6356141e-05 3284:2.2444208e-05 3285:5.2712283e-05 3286:1.3899207e-05 3287:0.00018202333 3288:0.0013485987 3289:0.0023112104 3290:0.00025862211 3291:2.6356141e-05 3292:1.2259335e-05 3293:0.0011926254 3294:0.00031987941 3295:4.6330688e-06 3296:0.00010151264 3297:0.0019918545 3298:4.6330693e-05 3299:6.7026354e-05 3300:5.2712283e-05 3301:4.0255345e-05 3302:0.00049088808 3303:9.2661376e-06 3304:0.00016349106 3305:-5.0548882e-05 3306:2.6356141e-05 3307:2.6356141e-05 3308:6.5890359e-05 3309:1.7811139e-05 3310:1.3592954e-05 3311:0.00017495982 3312:0.00013394412 3313:9.2246497e-05 3314:0.00021548221 3315:6.1978426e-05 3316:4.6330688e-06 3317:-3.9119318e-06 3318:-2.4696653e-06 3319:7.5877637e-05 3320:3.9534214e-05 3321:-0.00056991726 3322:-1.2456937e-05 3323:4.6330693e-05 3324:0.00014640106 3325:0.00010614571 3326:0.00011932378 3327:2.6356141e-05 3328:0.0005696502 3329:0.0010737163 3330:1.7811139e-05 3331:-3.9119318e-06 3332:5.8787627e-05 3333:1.7811139e-05 3334:7.2113744e-07 3335:4.4167286e-05 3336:3.9534214e-05 3337:1.7811139e-05 3338:2.6356141e-05 3339:0.00018274448 3340:0.00049390073 3341:9.9872705e-06 3342:0.00015813686 3343:-3.9119318e-06 3344:7.2113744e-07 3345:0.0004106836 3346:0.00074868038 3347:-1.17358e-05 3348:2.6356141e-05 3349:0.00018243821 3350:0.00068536832 3351:0.00078430265 3352:0.00094152079 3353:8.4422631e-05 3354:3.9534214e-05 3355:0.00052362576 3356:5.7345351e-05 3357:0.00017739028 3358:0.00044095167 3359:5.8066489e-05 3360:1.7811139e-05 3361:9.2967639e-05 3362:0.00038299381 3363:0.00016276992 3364:-6.381591e-06 3365:1.6062613e-05 3366:0.00016276992 3367:7.0523427e-05 3368:0.00087696401 3369:-0.00057465892 3370:3.6343419e-05 3371:4.6330688e-06 3372:0.00070420688 3373:0.00010151264 3374:2.3273977e-05 3375:2.2444208e-05 3376:0.00058663159 3377:0.0010786557 3378:0.00036507408 3379:0.00029105358 3380:0.0004836767 3381:0.00017966233 3382:4.4167286e-05 3383:2.6356141e-05 3384:2.6356141e-05 3385:7.9483318e-05 3386:9.6879565e-05 3387:1.7811139e-05 3388:4.0255345e-05 3389:0.00014393139 3390:0.00012786879 3391:2.2444208e-05 3392:0.00013929832 3393:6.5890359e-05 3394:3.9534214e-05 3395:2.6356141e-05 3396:0.00016884526 3397:7.0523427e-05 3398:0.00010542457 3399:0.00029857122 3400:0.00079964416 3401:0.00027931781 3402:0.00012839228 3403:4.4167286e-05 3404:1.7811139e-05 3405:0.00014567992 3406:7.2113744e-07 3407:0.00011005764 3408:0.00019767108 3409:9.76007e-05 3410:5.4154552e-05 3411:0.00019839221 3412:0.00015813686 3413:0.00011005764 3414:0.0001952014 3415:6.3420703e-05 3416:-4.8997994e-05 3417:0.00033552715 3418:2.6356141e-05 3419:9.6879565e-05 3420:0.00020693723 3421:0.00022402723 3422:0.00015813686 3423:-3.2737735e-05 3424:0.00030989212 3425:0.00019767108 3426:0.0001364138 3427:0.0001888198 3428:0.00022011528 3429:0.00027643322 3430:4.4167286e-05 3431:0.00031596745 3432:0.00015175527 3433:2.6356141e-05 3434:0.00012004491 3435:0.0004897521 3436:0.00052537431 3437:0.0012414256 3438:-1.1014668e-05 3439:3.9534214e-05 3440:0.00067579595 3441:0.00010542457 3442:0.00068032049 3443:0.00032626101 3444:4.6330688e-06 3445:2.6356141e-05 3446:4.6330688e-06 3447:0.00031144303 3448:3.9534214e-05 3449:3.5622277e-05 3450:3.9534214e-05 3451:0.00030670135 3452:0.00022979632 3453:4.4167286e-05 3454:2.6356141e-05 3455:3.9534214e-05 3456:4.7772963e-05 3457:0.00040605056 3458:0.00039009654 3459:6.1474559e-05 3460:-4.1282736e-05 3461:0.00030844985 3462:-2.0280802e-05 3463:2.6356141e-05 3464:-7.1027321e-06 3465:2.6356141e-05 3466:2.6356141e-05 3467:5.2712283e-05 3468:0.00021373369 3469:0.00016493333 3470:4.3139884e-05 3471:2.6356141e-05 3472:2.6356141e-05 3473:1.7811139e-05 3474:3.0989213e-05 3475:2.6356141e-05 3476:0.0023936869 3477:0.00010017902 3478:0.00084453262 3479:0.00014495879 3480:5.2712283e-05 3481:6.6611494e-05 3482:0.00042777363 3483:0.00056274515 3484:0.00075938884 3485:1.925341e-05 3486:0.0011750117 3487:7.9789563e-05 3488:9.2661376e-06 3489:1.4422749e-06 3490:0.00016276992 3491:6.5890359e-05 3492:0.00013178072 3493:0.00075012271 3494:2.6356141e-05 3495:2.6356141e-05 3496:2.6356141e-05 3497:0.00038288519 3498:0.00047904364 3499:2.1416823e-05 3500:3.2431482e-05 3501:-0.00061213848 3502:-2.0280802e-05 3503:-0.00023709665 3504:-2.1001941e-05 3505:2.6356141e-05 3506:4.880035e-05 3507:-2.9546938e-05 3508:2.6356141e-05 3509:9.2246497e-05 3510:9.2661376e-06 3511:-6.3005813e-05 3512:2.6356141e-05 3513:0.0003463442 3514:6.1978426e-05 3515:2.6356141e-05 3516:0.00011149992 3517:0.0022276177 3518:5.2712283e-05 3519:6.7747496e-05 3520:-3.3458877e-05 3521:2.6356141e-05 3522:0.00021106646 3523:0.00064799754 3524:9.8321849e-05 3525:5.9508755e-05 3526:7.0523427e-05 3527:-2.3471601e-05 3528:0.00012786879 3529:0.00034262988 3530:3.9534214e-05 3531:-0.00014008877 3532:0.00011860264 3533:-2.3471601e-05 3534:0.0028169167 3535:0.0010061666 3536:-2.5832645e-05 3537:0.00029990484 3538:0.00017131494 3539:2.6356141e-05 3540:0.00026356144 3541:0.0007116159 3542:0.00015813686 3543:0.0001232357 3544:0.0001232357 3545:2.6356141e-05 3546:2.6356141e-05 3547:2.6356141e-05 3548:2.6356141e-05 3549:0.00018912608 3550:2.6356141e-05 3551:2.6356141e-05 3552:1.7811139e-05 3553:4.4167286e-05 3554:0.0010542457 3555:1.7811139e-05 3556:0.00060776173 3557:0.0024021235 3558:2.6356141e-05 3559:7.5877637e-05 3560:6.5890359e-05 3561:2.6356141e-05 3562:7.9068428e-05 3563:0.0003801093 3564:4.6330688e-06 3565:0.00022155754 3566:0.00032553985 3567:5.8787627e-05 3568:0.00036054963 3569:-0.00024172972 3570:-1.0273961e-06 3571:0.00015175527 3572:9.2661376e-06 3573:1.4620339e-05 3574:3.9534214e-05 3575:0.00016174253 3576:0.00015422492 3577:0.00052393205 3578:2.6356141e-05 3579:0.00014959186 3580:9.6573305e-05 3581:8.9776833e-05 3582:3.9534214e-05 3583:0.00024513781 3584:0.0017875151 3585:2.6356141e-05 3586:0.00058890367 3587:0.00018346563 3588:-0.00011126308 3589:2.6356141e-05 3590:0.00038587835 3591:0.00011541184 3592:0.00025182564 3593:3.9534214e-05 3594:0.00021620333 3595:3.5622277e-05 3596:9.2967639e-05 3597:5.2712283e-05 3598:0.00012395685 3599:2.6356141e-05 3600:3.5622277e-05 3601:2.6356141e-05 3602:-3.3688759e-06 3603:0.00028425711 3604:0.00011943243 3605:0.00026572484 3606:0.00057705923 3607:-0.0023974315 3608:0.00020416132 3609:5.2712283e-05 3610:6.5890359e-05 3611:0.00013538641 3612:3.9534214e-05 3613:4.4167286e-05 3614:4.4167286e-05 3615:5.2712283e-05 3616:5.2712283e-05 3617:5.2712283e-05 3618:0.00017811143 3619:9.3688781e-05 3620:5.2712283e-05 3621:3.9534214e-05 3622:3.9534214e-05 3623:5.7345351e-05 3624:5.2712283e-05 3625:5.7345351e-05 3626:0.00020693723 3627:0.00011860264 3628:3.9534214e-05 3629:0.00056418742 3630:2.6356141e-05 3631:2.6356141e-05 3632:0.0002681945 3633:0.00015885801 3634:2.6356141e-05 3635:2.6356141e-05 3636:0.00014104685 3637:0.00043642722 3638:0.00021373369 3639:0.00010564177 3640:0.00019128948 3641:3.9227951e-05 3642:9.1940245e-05 3643:9.2967639e-05 3644:0.00011860264 3645:5.0242619e-05 3646:0.00051116891 3647:0.00011005764 3648:9.9872705e-06 3649:4.0363971e-05 3650:7.2380564e-05 3651:2.7077276e-05 3652:0.00028991757 3653:2.6356141e-05 3654:3.0989213e-05 3655:7.9789563e-05 3656:0.0015414392 3657:0.00048090078 3658:0.00072706596 3659:1.7811139e-05 3660:0.00016576312 3661:0.00046175599 3662:0.0002412258 3663:0.00059487036 3664:0.00029599294 3665:5.4628467e-06 3666:9.2246497e-05 3667:0.00011005764 3668:0.00036940089 3669:1.3899207e-05 3670:0.0001232357 3671:6.5890359e-05 3672:0.00095480739 3673:0.00010542457 3674:0.00028600564 3675:0.00029599294 3676:0.00042746737 3677:2.6356141e-05 3678:0.00023689904 3679:9.2967639e-05 3680:4.3139884e-05 3681:2.6356141e-05 3682:8.051069e-05 3683:0.00034016024 3684:0.00015783061 3685:0.00029352328 3686:6.3223095e-05 3687:7.2113744e-07 3688:2.8519558e-05 3689:6.0753432e-06 3690:4.6330688e-06 3691:4.6330688e-06 3692:0.00068540784 3693:5.3433421e-05 3694:-2.8825805e-05 3695:0.0013866907 3696:0.00033913279 3697:-0.00014968083 3698:0.00057345355 3699:0.00012653515 3700:0.00013827093 3701:0.00043426387 3702:2.7077276e-05 3703:4.6330688e-06 3704:-3.1907955e-06 3705:1.925341e-05 3706:2.6356141e-05 3707:-1.4926603e-05 3708:3.9534214e-05 3709:4.6330688e-06 3710:0.00033017292 3711:0.00014393139 3712:3.9534214e-05 3713:0.00018202333 3714:0.0011056244 3715:9.9042969e-05 3716:5.7039117e-05 3717:0.0013931809 3718:0.00044033921 3719:2.6356141e-05 3720:0.00012786879 3721:1.7811139e-05 3722:3.9534214e-05 3723:0.0004819282 3724:3.9534214e-05 3725:3.9534214e-05 3726:2.7077276e-05 3727:3.9534214e-05 3728:0.00068886543 3729:-3.4970412e-06 3730:1.4422749e-06 3731:7.9068428e-05 3732:0.00059631269 3733:0.00010542457 3734:0.00019767108 3735:0.0004206709 3736:3.9534214e-05 3737:3.9534214e-05 3738:2.6356141e-05 3739:6.5890359e-05 3740:2.6356141e-05 3741:2.6356141e-05 3742:2.6356141e-05 3743:2.6356141e-05 3744:2.6356141e-05 3745:6.3420703e-05 3746:0.00046875014 3747:5.2712283e-05 3748:0.00031380408 3749:5.3433421e-05 3750:6.7332629e-05 3751:0.00019983448 3752:9.3688781e-05 3753:-2.1001941e-05 3754:0.00093389454 3755:0.00011077877 3756:9.2661376e-06 3757:2.6356141e-05 3758:0.00075187121 3759:0.00073025672 3760:-2.1001941e-05 3761:3.5622277e-05 3762:0.00015999403 3763:0.00021548221 3764:-0.00039553977 3765:0.0011500979 3766:-1.2763182e-05 3767:0.00013044708 3768:5.2712283e-05 3769:0.0033570197 3770:0.00023401449 3771:0.00041109853 3772:0.0004174801 3773:9.8321849e-05 3774:0.00024400176 3775:4.6330688e-06 3776:-3.9119318e-06 3777:4.4888417e-05 3778:-0.00027086178 3779:-0.0049488903 3780:0.00015422492 3781:0.00031174929 3782:0.00052609545 3783:3.9534214e-05 3784:0.00027354871 3785:5.2712283e-05 3786:9.6879565e-05 3787:2.6356141e-05 3788:2.6356141e-05 3789:4.6330688e-06 3790:-0.00012282083 3791:-0.0010122221 3792:7.9068428e-05 3793:0.00092607061 3794:7.2113744e-07 3795:3.9534214e-05 3796:0.0010571303 3797:0.00067219028 3798:0.00045598694 3799:0.00015957913 3800:0.00047801627 3801:3.6452042e-05 3802:0.00013250185 3803:3.0989213e-05 3804:2.6356141e-05 3805:3.0989213e-05 3806:0.00021301255 3807:6.5890359e-05 3808:0.00010542457 3809:6.5890359e-05 3810:3.0989213e-05 3811:0.00018521413 3812:0.00017028753 3813:-0.00047120015 3814:0.00022546948 3815:0.00020374643 3816:-1.5647727e-05 3817:4.6330688e-06 3818:2.6356141e-05 3819:2.6356141e-05 3820:0.00019767108 3821:0.00019561627 3822:0.0023480775 3823:0.00043529124 3824:0.00074065896 3825:0.0012295812 3826:0.00049757591 3827:5.2712283e-05 3828:0.00010686684 3829:8.9055713e-05 3830:6.2699568e-05 3831:-1.3375733e-05 3832:0.00025501641 3833:0.00012756254 3834:1.8226021e-05 3835:2.6356141e-05 3836:-2.1001941e-05 3837:0.0002681945 3838:0.00070132234 3839:0.00014104685 3840:0.00016030026 3841:6.5890359e-05 3842:0.00013394412 3843:2.6356141e-05 3844:3.9534214e-05 3845:9.2246497e-05 3846:0.00011541184 3847:4.6330688e-06 3848:0.0027834577 3849:0.00027324245 3850:3.6343419e-05 3851:0.00044774814 3852:0.00034335098 3853:-0.00011427583 3854:2.6049887e-05 3855:-1.9559673e-05 3856:6.0229901e-05 3857:0.00035580795 3858:3.9534214e-05 3859:0.00075547694 3860:9.2246497e-05 3861:0.0015389696 3862:0.00057098386 3863:2.2444208e-05 3864:4.0255345e-05 3865:2.6356141e-05 3866:0.00015957913 3867:2.6356141e-05 3868:2.6356141e-05 3869:-3.9119318e-06 3870:4.6330688e-06 3871:0.00030475511 3872:4.6330688e-06 3873:4.4167286e-05 3874:3.9534214e-05 3875:0.00095500518 3876:0.00013250185 3877:-3.4774148e-06 3878:0.00010542457 3879:0.00061298773 3880:3.5622277e-05 3881:7.8455902e-05 3882:0.00010614571 3883:1.4620339e-05 3884:2.6356141e-05 3885:0.00023617789 3886:7.0523427e-05 3887:0.00060734688 3888:0.00080676645 3889:-0.00022494598 3890:1.4422749e-06 3891:-0.00041046637 3892:4.6330688e-06 3893:0.00044033921 3894:5.7345351e-05 3895:2.6356141e-05 3896:0.00012395685 3897:4.4167286e-05 3898:-1.2456937e-05 3899:0.00033698918 3900:8.6279768e-05 3901:0.0001300322 3902:4.4888417e-05 3903:0.00051591051 3904:-1.6675131e-05 3905:4.6330688e-06 3906:2.0389451e-05 3907:7.1244554e-05 3908:-0.00014701358 3909:2.6356141e-05 3910:0.0001695664 3911:1.6783757e-05 3912:3.9534214e-05 3913:0.0004270525 3914:0.00051147514 3915:8.0925602e-05 3916:5.2712283e-05 3917:0.00024647141 3918:2.6356141e-05 3919:2.6356141e-05 3920:3.9534214e-05 3921:3.9534214e-05 3922:7.0523427e-05 3923:6.5890359e-05 3924:5.2712283e-05 3925:3.9534214e-05 3926:0.00047812492 3927:0.00064325583 3928:2.3165347e-05 3929:1.7811139e-05 3930:6.9496033e-05 3931:0.00063862279 3932:-2.1001941e-05 3933:0.00060691242 3934:0.00024008982 3935:9.1219103e-05 3936:0.00039143025 3937:5.2712283e-05 3938:2.2444208e-05 3939:6.5890359e-05 3940:5.3433421e-05 3941:0.00016740299 3942:-0.00027621601 3943:0.00022299984 3944:2.2444208e-05 3945:0.0005542002 3946:0.00033449972 3947:0.00026253404 3948:5.7345351e-05 3949:2.6356141e-05 3950:-6.783651e-05 3951:0.0002208364 3952:0.00050664437 3953:0.00021229142 3954:2.2444208e-05 3955:0.00012612026 3956:7.1244554e-05 3957:3.6343419e-05 3958:4.6330688e-06 3959:5.2712283e-05 3960:3.5622277e-05 3961:0.00096005306 3962:1.7811139e-05 3963:-9.6049822e-05 3964:2.6356141e-05 3965:0.00093524781 3966:0.00074138003 3967:0.00053752505 3968:-2.6662405e-05 3969:-6.2284678e-05 3970:0.00028539315 3971:0.00012684141 3972:2.6356141e-05 3973:0.0001214872 3974:9.2661376e-06 3975:2.8845498e-06 3976:4.6330688e-06 3977:0.00017739028 3978:-1.2456937e-05 3979:-7.8238636e-06 3980:0.0013806155 3981:-1.2456937e-05 3982:0.0001871799 3983:0.00010223377 3984:5.2712283e-05 3985:3.9534214e-05 3986:2.6356141e-05 3987:0.00034767779 3988:0.00021620333 3989:2.6356141e-05 3990:0.00010151264 3991:3.9534214e-05 3992:0.00037084316 3993:8.3701496e-05 3994:0.0004228343 3995:0.00012262323 3996:0.00057417469 3997:9.9872705e-06 3998:7.5156502e-05 3999:2.6356141e-05 4000:3.5622277e-05 4001:-0.00018654778 4002:9.9872705e-06 4003:2.6356141e-05 4004:2.6356141e-05 4005:2.6356141e-05 4006:2.6356141e-05 4007:2.6356141e-05 4008:2.6356141e-05 4009:0.00058951619 4010:2.6356141e-05 4011:2.6356141e-05 4012:0.00020879439 4013:0.00018912608 4014:7.8041034e-05 4015:9.2661376e-06 4016:0.00010542457 4017:2.6356141e-05 4018:4.6330688e-06 4019:7.9068428e-05 4020:5.2712283e-05 4021:0.00054493401 4022:0.00083629391 4023:9.2246497e-05 4024:4.6330688e-06 4025:6.4902056e-06 4026:0.00083845726 4027:-0.0012953236 4028:0.0001364138 4029:0.00035952224 4030:0.00082208833 4031:0.00022691175 4032:4.9521484e-05 4033:2.6356141e-05 4034:7.5156502e-05 4035:0.00012786879 4036:2.2444208e-05 4037:2.6356141e-05 4038:2.6356141e-05 4039:-6.3005813e-05 4040:5.828376e-05 4041:-0.00071592309 4042:-0.00049025594 4043:3.5622277e-05 4044:4.6330688e-06 4045:0.00043920314 4046:3.5622277e-05 4047:8.5143765e-05 4048:-2.4913874e-05 4049:2.6356141e-05 4050:-1.2456937e-05 4051:0.0001146907 4052:-2.9546938e-05 4053:4.0976491e-05 4054:9.2661376e-06 4055:0.00032667586 4056:3.9534214e-05 4057:6.5890359e-05 4058:0.0014731683 4059:9.2661376e-06 4060:1.3899207e-05 4061:0.00015813686 4062:0.0002286603 4063:1.2871811e-05 4064:1.8532275e-05 4065:0.0012896135 4066:2.6356141e-05 4067:4.6330688e-06 4068:-3.3765136e-05 4069:4.4167286e-05 4070:0.00049233035 4071:6.0753432e-06 4072:1.7811139e-05 4073:0.00027190879 4074:4.7772963e-05 4075:-3.20166e-05 4076:0.00080191629 4077:-0.00014710258 4078:-4.9827748e-05 4079:3.9534214e-05 4080:6.5890359e-05 4081:-3.9119318e-06 4082:0.00032234908 4083:0.00056562969 4084:7.9068428e-05 4085:0.00039997522 4086:0.00074013538 4087:0.00029918371 4088:0.00037403396 4089:0.0004238617 4090:0.00060455146 4091:2.6356141e-05 4092:8.9055713e-05 4093:-7.7211276e-05 4094:-3.9119318e-06 4095:0.00011932378 4096:3.9534214e-05 4097:2.6356141e-05 4098:2.6356141e-05 4099:9.2246497e-05 4100:2.6356141e-05 4101:-3.9119318e-06 4102:6.5890359e-05 4103:7.4129101e-05 4104:0.00034016024 4105:7.9068428e-05 4106:0.00042241946 4107:0.00016276992 4108:0.00066889083 4109:0.00042458283 4110:0.00023226596 4111:5.2712283e-05 4112:2.6356141e-05 4113:0.00050109252 4114:3.9534214e-05 4115:5.2712283e-05 4116:3.1710351e-05 4117:1.3286694e-05 4118:3.9534214e-05 4119:3.9534214e-05 4120:2.6356141e-05 4121:6.5890359e-05 4122:0.00051394483 4123:2.6356141e-05 4124:2.6356141e-05 4125:2.6356141e-05 4126:2.6356141e-05 4127:2.6356141e-05 4128:2.6356141e-05 4129:2.6356141e-05 4130:2.6356141e-05 4131:2.6356141e-05 4132:2.6356141e-05 4133:2.6356141e-05 4134:2.6356141e-05 4135:2.6356141e-05 4136:2.6356141e-05 4137:2.6356141e-05 4138:2.6356141e-05 4139:2.6356141e-05 4140:2.6356141e-05 4141:2.6356141e-05 4142:2.6356141e-05 4143:2.6356141e-05 4144:2.6356141e-05 4145:5.2712283e-05 4146:0.00036601248 4147:9.2661376e-06 4148:0.0011292046 4149:0.0010443671 4150:0.0012876478 4151:-0.00023349098 4152:0.00078513252 4153:2.6356141e-05 4154:9.6879565e-05 4155:0.00048439787 4156:0.00079356885 4157:6.5890359e-05 4158:5.2712283e-05 4159:6.5890359e-05 4160:0.00041603786 4161:3.9534214e-05 4162:0.00034726295 4163:3.9534214e-05 4164:2.6356141e-05 4165:6.5890359e-05 4166:2.6356141e-05 4167:6.5890359e-05 4168:2.6356141e-05 4169:3.9534214e-05 4170:5.2712283e-05 4171:0.0016306925 4172:6.5890359e-05 4173:0.0014234491 4174:0.00011860264 4175:0.00013075334 4176:2.6356141e-05 4177:0.0020221421 4178:5.0242619e-05 4179:2.7077276e-05 4180:0.0001952014 4181:4.6330688e-06 4182:0.00022011528 4183:2.6356141e-05 4184:2.6356141e-05 4185:3.0989213e-05 4186:-0.00089886517 4187:5.3542058e-06 4188:0.0014167612 4189:5.4154552e-05 4190:0.0005550299 4191:-0.00017192746 4192:6.5890359e-05 4193:5.2712283e-05 4194:2.6356141e-05 4195:0.0011199384 4196:9.76007e-05 4197:-0.00012096368 4198:7.2113744e-07 4199:2.6356141e-05 4200:-7.1550821e-05 4201:2.6356141e-05 4202:0.00021084913 4203:0.00036085592 4204:7.5156502e-05 4205:9.6879565e-05 4206:0.00010542457 4207:5.8066489e-05 4208:0.00018449299 4209:0.00026367008 4210:2.6356141e-05 4211:4.880035e-05 4212:9.2661376e-06 4213:0.0001966437 4214:6.1978426e-05 4215:0.00010542457 4216:5.2712283e-05 4217:0.00054709741 4218:0.0023401449 4219:5.664385e-05 4220:0.00014640106 4221:4.6330688e-06 4222:3.5622277e-05 4223:3.1710351e-05 4224:3.5622277e-05 4225:3.706455e-05 4226:-3.9119318e-06 4227:0.00011149992 4228:5.2712283e-05 4229:0.00017739028 4230:2.6356141e-05 4231:0.00027643322 4232:4.9521484e-05 4233:5.2712283e-05 4234:-2.4913874e-05 4235:0.0004206709 4236:0.00027324245 4237:0.00027859665 4238:0.00036970712 4239:6.796477e-06 4240:0.00027293622 4241:0.00037569346 4242:4.880035e-05 4243:-3.9119318e-06 4244:5.3433421e-05 4245:0.00078327529 4246:0.00051682937 4247:7.5877637e-05 4248:0.0015668569 4249:0.00013250185 4250:1.4314097e-05 4251:4.6330688e-06 4252:5.3433421e-05 4253:5.8066489e-05 4254:0.00026469745 4255:3.5622277e-05 4256:-5.8372745e-05 4257:0.00068506208 4258:0.00013857719 4259:0.00033480598 4260:6.8774891e-05 4261:1.8532275e-05 4262:0.00021084913 4263:0.00010614571 4264:8.3701496e-05 4265:5.4154552e-05 4266:0.00099093362 4267:0.00057325588 4268:-5.8372745e-05 4269:0.00092215877 4270:7.9068428e-05 4271:4.9521484e-05 4272:0.00011149992 4273:3.850682e-05 4274:0.00012786879 4275:8.9055713e-05 4276:1.7811139e-05 4277:2.6356141e-05 4278:9.2661376e-06 4279:5.2712283e-05 4280:2.6356141e-05 4281:7.9068428e-05 4282:-1.6368867e-05 4283:2.6356141e-05 4284:0.0001966437 4285:0.0019201952 4286:6.5890359e-05 4287:0.00092947879 4288:2.6356141e-05 4289:2.3165347e-05 4290:2.6356141e-05 4291:2.6356141e-05 4292:2.6356141e-05 4293:0.00023082369 4294:4.6330688e-06 4295:6.5890359e-05 4296:0.00015824549 4297:3.3152624e-05 4298:2.6356141e-05 4299:0.00012941964 4300:-3.9119318e-06 4301:0.00021229142 4302:2.6356141e-05 4303:0.0017951023 4304:0.00019911335 4305:4.6330688e-06 4306:6.5890359e-05 4307:-3.6234782e-05 4308:0.00083351793 4309:7.5156502e-05 4310:0.00013713492 4311:0.00028672678 4312:0.00024008982 4313:0.0032027951 4314:2.6356141e-05 4315:4.4167286e-05 4316:2.6356141e-05 4317:7.9068428e-05 4318:5.2712283e-05 4319:2.6356141e-05 4320:2.6356141e-05 4321:0.00018912608 4322:2.6356141e-05 4323:7.0523427e-05 4324:0.00011860264 4325:5.2712283e-05 4326:0.00037578249 4327:3.9534214e-05 4328:7.9068428e-05 4329:4.2418764e-05 4330:7.2113744e-07 4331:5.7345351e-05 4332:-0.00035672673 4333:-0.00014360556 4334:4.880035e-05 4335:0.00033058779 4336:0.0001232357 4337:1.0708412e-05 4338:-9.4301286e-05 4339:2.6356141e-05 4340:2.6356141e-05 4341:3.9534214e-05 4342:4.4888417e-05 4343:-5.2297411e-05 4344:-3.8091945e-05 4345:3.5622277e-05 4346:7.2113744e-07 4347:4.6330688e-06 4348:8.051069e-05 4349:3.0989213e-05 4350:4.6330688e-06 4351:0.00015813686 4352:7.5156502e-05 4353:7.9068428e-05 4354:2.6356141e-05 4355:0.0015208521 4356:6.4862965e-05 4357:0.00010223377 4358:-3.9119318e-06 4359:0.0004812071 4360:0.0004416728 4361:0.00040935003 4362:0.00055966293 4363:5.3542058e-06 4364:0.00060949067 4365:2.6356141e-05 4366:9.2246497e-05 4367:0.00020837948 4368:0.00053402799 4369:0.00081457075 4370:3.3152624e-05 4371:-0.001099727 4372:9.2661376e-06 4373:3.6343419e-05 4374:-6.1563544e-05 4375:0.00032564849 4376:0.00014784333 4377:0.00043601237 4378:0.00015494606 4379:0.00064006506 4380:7.1965696e-05 4381:0.00031308291 4382:0.00011077877 4383:-0.0010887124 4384:0.00011860264 4385:2.6356141e-05 4386:0.00015494606 4387:2.6356141e-05 4388:2.2444208e-05 4389:-0.0005019526 4390:4.0255345e-05 4391:0.0012372073 4392:0.0013572524 4393:2.6356141e-05 4394:0.000602388 4395:0.0001300322 4396:-3.9119318e-06 4397:2.6356141e-05 4398:-7.6490142e-05 4399:3.5622277e-05 4400:4.4167286e-05 4401:0.00014104685 4402:2.6356141e-05 4403:3.9534214e-05 4404:5.7345351e-05 4405:0.00049119431 4406:0.00057242619 4407:6.5890359e-05 4408:-3.4486282e-05 4409:3.9534214e-05 4410:0.00020837948 4411:2.3619363e-05 4412:0.00049335771 4413:0.00037084316 4414:7.9068428e-05 4415:0.00033646554 4416:-2.9735379e-06 4417:-0.0024559128 4418:3.9534214e-05 4419:1.7811139e-05 4420:-0.00018294212 4421:5.7345351e-05 4422:2.6356141e-05 4423:1.7811139e-05 4424:1.7811139e-05 4425:-1.1014668e-05 4426:1.7811139e-05 4427:3.0989213e-05 4428:-7.8238636e-06 4429:-0.002468548 4430:0.00025326791 4431:-1.4817929e-05 4432:3.428862e-05 4433:3.9534214e-05 4434:-7.8238636e-06 4435:2.6356141e-05 4436:4.6330688e-06 4437:-0.0001251623 4438:-0.00051215716 4439:0.00020374643 4440:3.0989213e-05 4441:0.00032883929 4442:0.00036404666 4443:4.880035e-05 4444:-0.00011283356 4445:5.2712283e-05 4446:3.9534214e-05 4447:3.9534214e-05 4448:2.6356141e-05 4449:2.6356141e-05 4450:8.1231839e-05 4451:0.0010868944 4452:0.00023093232 4453:-0.00022957906 4454:-2.4913874e-05 4455:-2.3471601e-05 4456:5.8066489e-05 4457:0.00034262988 4458:9.2246497e-05 4459:0.00025584616 4460:1.7811139e-05 4461:-0.00011211242 4462:0.00022372097 4463:2.6356141e-05 4464:8.2674102e-05 4465:0.0007091462 4466:1.7811139e-05 4467:6.5890359e-05 4468:5.8787627e-05 4469:-2.0280802e-05 4470:3.9534214e-05 4471:2.6356141e-05 4472:-4.0561605e-05 4473:5.2712283e-05 4474:3.5622277e-05 4475:3.1710351e-05 4476:-3.9119318e-06 4477:4.6330688e-06 4478:0.00049130293 4479:0.00041603786 4480:0.00010614571 4481:4.0255345e-05 4482:4.6330688e-06 4483:-0.00073620386 4484:-2.1001941e-05 4485:0.00035261712 4486:0.00018809867 4487:6.1978426e-05 4488:0.00023329335 4489:0.00011582673 4490:-1.6368867e-05 4491:3.0989213e-05 4492:9.2661376e-06 4493:0.00014567992 4494:-3.9119318e-06 4495:0.00014640106 4496:0.00011860264 4497:2.6356141e-05 4498:1.7811139e-05 4499:2.6356141e-05 4500:0.00010151264 4501:6.1978426e-05 4502:0.00015813686 4503:3.0989213e-05 4504:0.00019911335 4505:6.5890359e-05 4506:6.1978426e-05 4507:0.0026017602 4508:0.0011401107 4509:0.00028497822 4510:2.9240678e-05 4511:0.00024183835 4512:5.2712283e-05 4513:5.2712283e-05 4514:3.9534214e-05 4515:9.6879565e-05 4516:2.6356141e-05 4517:3.9534214e-05 4518:-3.9119318e-06 4519:0.0001232357 4520:0.00017666914 4521:0.00024328064 4522:0.00083845726 4523:0.00036898599 4524:6.1978426e-05 4525:0.00013394412 4526:-0.00060719904 4527:2.6356141e-05 4528:2.6356141e-05 4529:8.3701496e-05 4530:1.7811139e-05 4531:3.3152624e-05 4532:6.5890359e-05 4533:-4.8276859e-05 4534:0.000641616 4535:0.00018449299 4536:5.8787627e-05 4537:0.00091000809 4538:2.6356141e-05 4539:0.00012756254 4540:0.00066034583 4541:0.00093780656 4542:4.1697622e-05 4543:9.6879565e-05 4544:3.3152624e-05 4545:3.9534214e-05 4546:0.00011726901 4547:4.6330688e-06 4548:4.6330688e-06 4549:0.00037825215 4550:2.6356141e-05 4551:4.6330688e-06 4552:7.9068428e-05 4553:2.6356141e-05 4554:0.00010295492 4555:1.7811139e-05 4556:0.0017329264 4557:0.0010415912 4558:0.0019176366 4559:0.00016763988 4560:-0.00040767092 4561:2.6356141e-05 4562:0.00031535499 4563:5.3433421e-05 4564:2.6356141e-05 4565:-1.2456937e-05 4566:2.6356141e-05 4567:4.6330688e-06 4568:7.2686838e-05 4569:2.6356141e-05 4570:5.2712283e-05 4571:5.2712283e-05 4572:0.0001146907 4573:0.00080480071 4574:0.00093183981 4575:5.0479566e-06 4576:0.00015536096 4577:6.5890359e-05 4578:9.2246497e-05 4579:0.00010614571 4580:5.2712283e-05 4581:0.00037969442 4582:1.7811139e-05 4583:0.00013857719 4584:4.6330688e-06 4585:0.00037187056 4586:5.7345351e-05 4587:3.9534214e-05 4588:5.7345351e-05 4589:2.1634066e-06 4590:-7.3299329e-05 4591:-8.7198554e-05 4592:3.9534214e-05 4593:0.00012076605 4594:0.00040368948 4595:2.6356141e-05 4596:2.6356141e-05 4597:7.0523427e-05 4598:0.00039792046 4599:6.8053771e-05 4600:3.2431482e-05 4601:0.00017203607 4602:6.7332629e-05 4603:-4.9827748e-05 4604:-8.4007763e-05 4605:2.6356141e-05 4606:2.6356141e-05 4607:2.6356141e-05 4608:2.6356141e-05 4609:-0.00093232404 4610:-0.00095013512 4611:-0.00084975851 4612:-0.00024636279 4613:8.9598798e-06 4614:0.00022299984 4615:0.00010686684 4616:0.00039298111 4617:0.0006813478 4618:-1.2456937e-05 4619:-3.0574323e-05 4620:0.001413047 4621:0.00011077877 4622:3.0989213e-05 4623:0.0006468615 4624:0.00045321105 4625:5.3542037e-05 4626:2.6356141e-05 4627:2.6356141e-05 4628:-6.0427512e-05 4629:0.00016565446 4630:5.8787627e-05 4631:2.6356141e-05 4632:5.2712283e-05 4633:2.6356141e-05 4634:9.2246497e-05 4635:2.6356141e-05 4636:0.00088448171 4637:0.0014821279 4638:2.6356141e-05 4639:9.4409901e-05 4640:0.00019489515 4641:3.9534214e-05 4642:3.3152624e-05 4643:7.5156502e-05 4644:2.6356141e-05 4645:0.0012224785 4646:4.0976491e-05 4647:0.00031566122 4648:7.0523427e-05 4649:0.00054926082 4650:0.00048903091 4651:0.00013250185 4652:9.3688781e-05 4653:5.7345351e-05 4654:2.6356141e-05 4655:2.2444208e-05 4656:9.2661376e-06 4657:2.8519558e-05 4658:3.9534214e-05 4659:3.1710351e-05 4660:2.6356141e-05 4661:0.00012931105 4662:0.00091217144 4663:6.5890359e-05 4664:4.6330688e-06 4665:0.00023401449 4666:-0.001332082 4667:2.6356141e-05 4668:0.00014567992 4669:0.00083423912 4670:-0.0011462163 4671:4.1085106e-05 4672:0.0001215958 4673:2.7077276e-05 4674:4.7466707e-05 4675:3.9534214e-05 4676:0.00010542457 4677:0.00027468475 4678:0.00033471704 4679:0.00051682937 4680:6.6611494e-05 4681:0.0008413418 4682:9.2661376e-06 4683:0.00030062601 4684:0.00027180015 4685:4.4888417e-05 4686:5.2712283e-05 4687:0.0001604089 4688:2.6356141e-05 4689:2.6356141e-05 4690:0.00036116215 4691:7.0523427e-05 4692:2.6356141e-05 4693:0.00043448104 4694:0.00018058108 4695:0.00050581462 4696:0.0011754266 4697:-3.9119318e-06 4698:7.5877637e-05 4699:0.00030844985 4700:0.0001214872 4701:3.0989213e-05 4702:2.6356141e-05 4703:6.5890359e-05 4704:0.00016102138 4705:0.0001695664 4706:1.3899207e-05 4707:5.2712283e-05 4708:2.7798415e-05 4709:7.9068428e-05 4710:2.6356141e-05 4711:3.6343419e-05 4712:7.5156502e-05 4713:0.00014176799 4714:0.00014959186 4715:4.0255345e-05 4716:5.7345351e-05 4717:2.6356141e-05 4718:2.6356141e-05 4719:-3.9119318e-06 4720:0.00055966293 4721:0.00038504862 4722:3.9227951e-05 4723:0.00043312786 4724:9.2246497e-05 4725:1.8532275e-05 4726:0.0003466504 4727:8.4422631e-05 4728:0.00025007711 4729:3.9336614e-05 4730:4.4167286e-05 4731:2.6356141e-05 4732:0.00017594801 4733:0.0003619919 4734:0.00062081165 4735:0.0019230796 4736:4.6330688e-06 4737:0.0016531366 4738:0.00041315332 4739:3.9534214e-05 4740:0.00015813686 4741:4.6330688e-06 4742:2.6356141e-05 4743:0.00011294219 4744:9.2246497e-05 4745:-3.9119318e-06 4746:0.00065582141 4747:2.6356141e-05 4748:-0.00012703902 4749:7.0523427e-05 4750:0.00015463981 4751:0.00029208098 4752:3.5316018e-05 4753:0.0001136633 4754:0.00060197315 4755:-0.00010645197 4756:-5.9400121e-05 4757:4.0255345e-05 4758:7.9068428e-05 4759:0.00015927288 4760:-2.4696653e-06 4761:3.5622277e-05 4762:3.0989213e-05 4763:5.2712283e-05 4764:0.00034726295 4765:9.2967639e-05 4766:4.6330688e-06 4767:2.6356141e-05 4768:3.9534214e-05 4769:4.6330688e-06 4770:0.00021229142 4771:0.00047307691 4772:2.3886481e-05 4773:1.4422749e-06 4774:3.9534214e-05 4775:3.9534214e-05 4776:2.2444208e-05 4777:0.00010872402 4778:5.4569431e-05 4779:-5.5181947e-05 4780:0.00011932378 4781:6.0753432e-06 4782:-5.6209345e-05 4783:0.00017594801 4784:4.880035e-05 4785:2.6356141e-05 4786:0.00019767108 4787:0.00015885801 4788:0.00011077877 4789:5.2712283e-05 4790:2.6356141e-05 4791:1.7811139e-05 4792:0.00044106029 4793:0.0002511045 4794:0.0002208364 4795:0.000934418 4796:6.1978426e-05 4797:0.00024863481 4798:7.9068428e-05 4799:6.5890359e-05 4800:0.0001364138 4801:4.6330688e-06 4802:2.6356141e-05 4803:4.6330688e-06 4804:0.00133955 4805:0.00039575703 4806:5.4154552e-05 4807:0.00050612091 4808:3.9534214e-05 4809:9.2246497e-05 4810:0.0010672262 4811:0.00014959186 4812:3.9534214e-05 4813:4.4888417e-05 4814:3.9534214e-05 4815:2.6356141e-05 4816:6.5890359e-05 4817:0.00069957384 4818:0.00026644598 4819:0.00092751294 4820:8.8136941e-05 4821:0.0012835381 4822:4.0255345e-05 4823:7.6598764e-05 4824:0.00012786879 4825:9.2246497e-05 4826:2.6356141e-05 4827:-3.20166e-05 4828:0.0005376336 4829:0.00011149992 4830:0.00040141749 4831:2.6356141e-05 4832:3.9534214e-05 4833:3.9534214e-05 4834:0.00014712221 4835:2.6356141e-05 4836:0.00087377324 4837:0.00035941359 4838:6.5890359e-05 4839:0.0001364138 4840:0.00014495879 4841:0.0001146907 4842:0.00030062601 4843:0.00035622285 4844:2.2444208e-05 4845:1.7811139e-05 4846:5.3433421e-05 4847:4.4888417e-05 4848:0.00015813686 4849:0.00088417548 4850:2.6356141e-05 4851:1.7811139e-05 4852:2.6356141e-05 4853:5.2712283e-05 4854:0.00011860264 4855:7.9068428e-05 4856:9.2246497e-05 4857:0.00088509417 4858:1.7811139e-05 4859:0.00030989212 4860:0.00036651635 4861:2.6356141e-05 4862:4.6330688e-06 4863:0.00038721203 4864:9.2661376e-06 4865:9.2661376e-06 4866:1.7811139e-05 4867:2.6356141e-05 4868:0.0001695664 4869:4.6330688e-06 4870:7.9068428e-05 4871:4.6330688e-06 4872:4.6330688e-06 4873:0.00010151264 4874:2.6356141e-05 4875:2.6356141e-05 4876:-4.2003881e-05 4877:7.2113744e-07 4878:2.6356141e-05 4879:0.00038576973 4880:0.00039143025 4881:0.00010542457 4882:5.3433421e-05 4883:0.00037114942 4884:2.6356141e-05 4885:2.6356141e-05 4886:2.6356141e-05 4887:2.6356141e-05 4888:2.6356141e-05 4889:8.5143765e-05 4890:3.0989213e-05 4891:2.6356141e-05 4892:2.6356141e-05 4893:2.6356141e-05 4894:2.6356141e-05 4895:2.6356141e-05 4896:2.1634066e-06 4897:6.1978426e-05 4898:0.00047781868 4899:-0.0012039068 4900:2.6356141e-05 4901:8.5143765e-05 4902:-5.6930465e-05 4903:0.00011613298 4904:5.2712283e-05 4905:3.1710351e-05 4906:9.2661376e-06 4907:8.1952981e-05 4908:5.7345351e-05 4909:0.00015247639 4910:0.00032420622 4911:8.3701496e-05 4912:3.9534214e-05 4913:6.0753432e-06 4914:0.00056562969 4915:7.0523427e-05 4916:1.4620339e-05 4917:4.880035e-05 4918:5.2712283e-05 4919:2.6356141e-05 4920:4.6330688e-06 4921:-8.2565472e-05 4922:0.00034243223 4923:0.00044239397 4924:2.6356141e-05 4925:7.0938324e-05 4926:0.00054956711 4927:9.2661376e-06 4928:0.0015829195 4929:0.0012608767 4930:7.5877637e-05 4931:7.9068428e-05 4932:0.00073797198 4933:0.00021126405 4934:0.00010903024 4935:0.0002681945 4936:0.00021229142 4937:5.7345351e-05 4938:5.2712283e-05 4939:7.0523427e-05 4940:2.6356141e-05 4941:7.9789563e-05 4942:0.00019839221 4943:4.6330688e-06 4944:4.9521484e-05 4945:0.00044239397 4946:0.0002728276 4947:0.00072479394 4948:0.00030814359 4949:0.0012053885 4950:2.6356141e-05 4951:0.00056243892 4952:0.00013713492 4953:4.6330688e-06 4954:2.6356141e-05 4955:3.9534214e-05 4956:3.9534214e-05 4957:0.00038113666 4958:0.00017666914 4959:4.6330688e-06 4960:3.9534214e-05 4961:2.6356141e-05 4962:0.00058601913 4963:3.6343419e-05 4964:9.2246497e-05 4965:5.2712283e-05 4966:4.6330688e-06 4967:0.00019375913 4968:3.0989213e-05 4969:0.00014104685 4970:5.5596829e-05 4971:-7.0829679e-05 4972:0.00043950946 4973:-7.8238636e-06 4974:3.0989213e-05 4975:3.9534214e-05 4976:-1.1014668e-05 4977:-1.6675131e-05 4978:5.7345351e-05 4979:-0.0067511061 4980:0.00030453794 4981:0.00070173718 4982:0.00011901751 4983:0.00016030026 4984:5.8787627e-05 4985:0.00015391868 4986:2.6356141e-05 4987:0.00011932378 4988:5.8066489e-05 4989:-9.2029237e-05 4990:0.00017594801 4991:3.0989213e-05 4992:0.0010877242 4993:5.7345351e-05 4994:0.00012467797 4995:0.00015824549 4996:2.6356141e-05 4997:2.6356141e-05 4998:2.6356141e-05 4999:9.6879565e-05 5000:0.00013466526 5001:7.2113744e-07 5002:4.1697622e-05 5003:-7.8238636e-06 5004:0.00023401449 5005:0.00032162791 5006:5.7345351e-05 5007:4.0976491e-05 5008:0.00026037064 5009:1.7811139e-05 5010:0.00015494606 5011:4.9521484e-05 5012:5.7345351e-05 5013:2.6356141e-05 5014:9.5131043e-05 5015:0.00010542457 5016:5.2712283e-05 5017:0.00016884526 5018:2.2444208e-05 5019:2.6356141e-05 5020:3.5622277e-05 5021:1.7811139e-05 5022:1.7811139e-05 5023:2.6356141e-05 5024:2.6356141e-05 5025:0.00061340269 5026:0.00034726295 5027:0.0009029053 5028:6.5890359e-05 5029:0.00010542457 5030:7.9068428e-05 5031:0.00029918371 5032:0.00030772871 5033:0.00015813686 5034:0.00040460832 5035:0.00043487639 5036:0.00032945178 5037:0.00030309564 5038:0.00022804773 5039:3.9534214e-05 5040:0.00015813686 5041:0.00015422492 5042:0.00037361908 5043:0.00023720528 5044:0.00040924139 5045:0.0008840668 5046:0.0012165117 5047:0.0006554065 5048:0.00036507408 5049:0.00037160332 5050:6.5890359e-05 5051:2.6356141e-05 5052:0.00012972593 5053:-4.2201507e-05 5054:2.6356141e-05 5055:0.00010542457 5056:2.6356141e-05 5057:0.00052753778 5058:2.6356141e-05 5059:0.00013178072 5060:0.00013178072 5061:0.00014495879 5062:5.2712283e-05 5063:7.9068428e-05 5064:5.2712283e-05 5065:5.2712283e-05 5066:0.00023720528 5067:0.00013178072 5068:7.9068428e-05 5069:2.6356141e-05 5070:3.9534214e-05 5071:0.00031627371 5072:0.00027673951 5073:2.6356141e-05 5074:6.1978426e-05 5075:0.00056490855 5076:9.9042969e-05 5077:5.7345351e-05 5078:2.3886481e-05 5079:3.9534214e-05 5080:9.2246497e-05 5081:2.6356141e-05 5082:2.2444208e-05 5083:-2.4696653e-06 5084:9.6879565e-05 5085:9.1940245e-05 5086:0.00033377859 5087:-0.0022340294 5088:0.00058695761 5089:0.0001214872 5090:4.4167286e-05 5091:7.5156502e-05 5092:0.00010542457 5093:3.0989213e-05 5094:0.00010614571 5095:0.00033089408 5096:9.6879565e-05 5097:0.00026037064 5098:3.9534214e-05 5099:3.9534214e-05 5100:4.4888417e-05 5101:3.9534214e-05 5102:2.6356141e-05 5103:0.0004003901 5104:-2.8104672e-05 5105:-3.9119318e-06 5106:3.1710351e-05 5107:8.3701496e-05 5108:4.880035e-05 5109:-4.2003881e-05 5110:5.7345351e-05 5111:4.9521484e-05 5112:3.0989213e-05 5113:-0.00015267405 5114:-8.1123209e-05 5115:-0.00042054264 5116:-2.4696653e-06 5117:3.9534214e-05 5118:4.6330688e-06 5119:4.6330688e-06 5120:4.6330688e-06 5121:-2.1001941e-05 5122:5.5596829e-05 5123:0.00083559245 5124:1.925341e-05 5125:0.00013713492 5126:2.6356141e-05 5127:0.00011247773 5128:7.5156502e-05 5129:3.0989213e-05 5130:2.6356141e-05 5131:6.5890359e-05 5132:0.00014104685 5133:0.00023082369 5134:0.00052229216 5135:2.6356141e-05 5136:1.6062613e-05 5137:5.2712283e-05 5138:-5.0855124e-05 5139:0.00016812413 5140:3.9534214e-05 5141:-3.9119318e-06 5142:4.6330688e-06 5143:0.00029743518 5144:0.00016493333 5145:0.00017811143 5146:-5.0855124e-05 5147:5.2712283e-05 5148:0.00013178072 5149:2.6356141e-05 5150:3.9534214e-05 5151:0.0021477195 5152:0.00047441057 5153:8.1952981e-05 5154:0.00017594801 5155:3.0989213e-05 5156:-0.00054141734 5157:3.9534214e-05 5158:0.00086975278 5159:0.0001731721 5160:2.6356141e-05 5161:0.00032534223 5162:3.9534214e-05 5163:9.6879565e-05 5164:2.6356141e-05 5165:0.00019767108 5166:2.6356141e-05 5167:0.00015813686 5168:-0.000426529 5169:2.6356141e-05 5170:3.3873748e-05 5171:0.00013785606 5172:-2.6247499e-05 5173:0.00027962404 5174:0.00013857719 5175:6.0753432e-06 5176:-0.00027765828 5177:-0.00011036389 5178:4.0255345e-05 5179:5.7345351e-05 5180:0.00010511831 5181:2.6356141e-05 5182:0.00013178072 5183:6.1978426e-05 5184:0.0001232357 5185:0.00014784333 5186:4.4167286e-05 5187:-0.00033736468 5188:-4.6943202e-05 5189:2.6356141e-05 5190:2.7492162e-05 5191:0.00036404666 5192:0.00010151264 5193:0.0029289399 5194:0.00018058108 5195:0.00011860264 5196:4.880035e-05 5197:2.6356141e-05 5198:3.0989213e-05 5199:0.00011860264 5200:0.0001232357 5201:0.00010975137 5202:2.6356141e-05 5203:0.00015638833 5204:-6.381591e-06 5205:0.00013713492 5206:5.8066489e-05 5207:5.2712283e-05 5208:3.9534214e-05 5209:3.9534214e-05 5210:3.9534214e-05 5211:5.2712283e-05 5212:0.00018346563 5213:0.0003463442 5214:0.00010542457 5215:0.00035652908 5216:0.00069185853 5217:0.00040585294 5218:-1.8206378e-05 5219:0.0004206709 5220:6.5890359e-05 5221:0.00026891564 5222:0.00031308291 5223:0.00019880709 5224:0.00020374643 5225:7.0523427e-05 5226:3.0989213e-05 5227:2.6356141e-05 5228:0.00058663159 5229:0.00021620333 5230:2.6356141e-05 5231:2.2444208e-05 5232:2.6356141e-05 5233:0.00047235578 5234:-3.3458877e-05 5235:8.8028311e-05 5236:0.001317501 5237:0.00031668859 5238:5.4154552e-05 5239:3.9534214e-05 5240:1.7811139e-05 5241:2.2444208e-05 5242:-5.9093876e-05 5243:4.6330688e-06 5244:3.9534214e-05 5245:0.00010542457 5246:2.6356141e-05 5247:2.6356141e-05 5248:0.00018593528 5249:0.00026109177 5250:-2.4696653e-06 5251:2.6356141e-05 5252:0.00015885801 5253:-1.2456937e-05 5254:0.00037084316 5255:-3.737081e-05 5256:2.6356141e-05 5257:4.880035e-05 5258:4.0976491e-05 5259:0.00035333828 5260:0.0010457007 5261:0.0001214872 5262:0.00018449299 5263:0.00049593596 5264:2.6356141e-05 5265:0.00016174253 5266:5.8066489e-05 5267:5.2712283e-05 5268:0.00015957913 5269:2.6356141e-05 5270:2.6356141e-05 5271:9.2661376e-06 5272:5.2712283e-05 5273:7.5877637e-05 5274:1.7811139e-05 5275:5.2712283e-05 5276:2.6356141e-05 5277:4.6330688e-06 5278:4.0255345e-05 5279:0.00018521413 5280:0.00012931105 5281:-0.00017232267 5282:2.8519558e-05 5283:0.00012087464 5284:2.6356141e-05 5285:0.00043426387 5286:3.7143368e-06 5287:0.00012858991 5288:0.0001364138 5289:0.00019253416 5290:-3.062643e-07 5291:5.2712283e-05 5292:-2.4696653e-06 5293:0.00014104685 5294:0.00038041556 5295:0.00011077877 5296:3.9534214e-05 5297:9.2661376e-06 5298:0.00016606935 5299:3.0989213e-05 5300:5.2712283e-05 5301:1.7811139e-05 5302:2.6356141e-05 5303:9.76007e-05 5304:7.5877637e-05 5305:2.6356141e-05 5306:4.0255345e-05 5307:0.00015422492 5308:0.00034870519 5309:3.9534214e-05 5310:2.6356141e-05 5311:7.2113744e-07 5312:0.00010048524 5313:0.00011860264 5314:2.6356141e-05 5315:-1.17358e-05 5316:2.6356141e-05 5317:5.3542058e-06 5318:0.00013178072 5319:0.00015710946 5320:1.7811139e-05 5321:-0.00049880089 5322:0.00016276992 5323:3.5622277e-05 5324:0.00041675897 5325:2.6356141e-05 5326:2.6356141e-05 5327:-8.4728883e-05 5328:4.4167286e-05 5329:0.00010295492 5330:0.00018130221 