SVM-light Version V6.20
0 # kernel type
3 # kernel parameter -d 
1 # kernel parameter -g 
1 # kernel parameter -s 
1 # kernel parameter -r 
empty# kernel parameter -u 
135863 # highest feature index 
4 # number of training documents 
2 # number of support vectors plus 1 
-0.070730463 # threshold b, each following line is a SV (starting with alpha*y)
1 1:0.0070916493 2:0.0043416866 3:0.0015090994 4:1.9757956e-05 5:6.3823521e-05 6:0.00013284798 7:0.0029034398 8:0.0024220468 9:0.0017632737 10:0.044781189 11:0.038502369 12:0.015518851 13:0.0046365703 14:0.065943763 15:0.0018536155 16:0.0023701843 17:0.006665735 18:0.013122768 19:0.0097601553 20:0.064972505 21:1.6575081e-05 22:0.027738484 23:8.5792119e-05 24:0.0043579526 25:0.00066943152 26:0.0060469629 27:0.015555126 28:0.0049822624 29:0.0017396101 30:0.00081846933 31:1.9757956e-05 32:7.9031823e-05 33:0.0011539602 34:5.3944539e-05 35:0.00024619477 36:0.0026855962 37:0.00030150608 38:0.00010255975 39:-9.1634938e-06 40:0.00012309739 41:3.9515911e-05 42:0.00043305152 43:-1.5987973e-05 44:1.9757956e-05 45:1.9757956e-05 46:1.9757956e-05 47:0.0017790693 48:0.0014744444 49:6.1548693e-05 50:2.5802761e-05 51:6.9868329e-05 52:0.00043376698 53:0.01072261 54:1.4428631e-05 55:0.022257011 56:0.00077043183 57:0.0049094856 58:2.2032782e-05 59:0.0050516068 60:0.00034498455 61:0.023538971 62:5.9273865e-05 63:0.0001473408 64:2.9636933e-05 65:1.9757956e-05 66:0.001403402 67:5.9273865e-05 68:0.051529337 69:0.0053147068 70:-6.9528469e-06 71:0.027140455 72:8.293963e-05 73:1.2153803e-05 74:2.9636933e-05 75:0.0013861851 76:-1.5987973e-05 77:0.0020706225 78:0.05518847 79:2.9636933e-05 80:0.0030256368 81:0.00010938425 82:0.011502699 83:0.0065881871 84:0.010039925 85:0.0033183834 86:0.00050077337 87:0.0066588633 88:0.00072000059 89:0.012732008 90:0.00060248922 91:0.00078792439 92:0.0098440684 93:0.00092401006 94:0.00057675067 95:0.00052813545 96:0.0018971583 97:2.2748266e-06 98:2.2748266e-06 99:1.9757956e-05 100:0.00034791065 101:2.9636933e-05 102:4.9394886e-05 103:7.9031823e-05 104:0.0022728899 105:4.1790736e-05 106:3.6461413e-05 107:1.9757956e-05 108:0.002142766 109:9.1185633e-05 110:0.00066144223 111:5.9273865e-05 112:0.00031684278 113:5.3944539e-05 114:6.609835e-05 115:1.2153803e-05 116:2.9636933e-05 117:0.00010028492 118:0.00056596374 119:1.9757956e-05 120:0.0005484164 121:0.001852836 122:0.0011201038 123:4.6340389e-05 124:-0.00012790378 125:0.011250424 126:7.5977325e-05 127:0.00047711702 128:8.8846609e-05 129:0.00010028492 130:0.0041392557 131:2.9636933e-05 132:0.00016170526 133:0.0080624949 134:0.050396424 135:0.0036562865 136:0.0098679708 137:0.028176989 138:-1.559345e-06 139:6.3630949e-05 140:0.00096646143 141:0.00022839075 142:0.030949621 143:0.0013946424 144:0.001693011 145:0.00098247768 146:-0.00012060845 147:0.0019913984 148:0.007574406 149:0.0015943589 150:2.6582433e-05 151:0.00098270632 152:0.00011620871 153:0.0086020855 154:-0.0021767397 155:0.0019310239 156:0.00095326197 157:0.013931309 158:0.00030085476 159:0.00028642613 160:1.9757956e-05 161:8.3196383e-06 162:0.00071648729 163:0.00091172784 164:0.0001504595 165:0.00066098344 166:0.00040257067 167:1.9757956e-05 168:0.0008585818 169:0.0005645327 170:-3.5094636e-05 171:-7.7967252e-07 172:0.0001717126 173:2.9636933e-05 174:9.3460461e-05 175:2.2032782e-05 176:1.4236079e-05 177:3.0811138e-05 178:1.9757956e-05 179:0.00046197296 180:0.0022713947 181:9.5735282e-05 182:5.9273865e-05 183:-0.00049729616 184:0.0010436131 185:0.0028259482 186:0.002770737 187:0.0088726431 188:0.0026793589 189:0.00033055592 190:0.00019757955 191:0.00011452098 192:9.7881741e-05 193:0.00050565338 194:0.003051128 195:0.012233078 196:2.2032782e-05 197:-1.8262801e-05 198:-5.4008728e-05 199:2.9636933e-05 200:0.0001717126 201:0.0034172838 202:-0.0010937592 203:0.00014662532 204:0.0036089094 205:0.0018340071 206:0.00025672506 207:0.00020050567 208:0.00029091164 209:0.00028025298 210:1.4428631e-05 211:-0.00016124651 212:-0.0001376544 213:-0.12293727 214:0.00010788908 215:0.00010866876 216:0.00022793196 217:0.00062536594 218:0.00040198359 219:0.0068843095 220:0.00091634167 221:0.00014818467 222:0.00019757955 223:0.00010866876 224:0.00010866876 225:1.9757956e-05 226:2.9636933e-05 227:1.9757956e-05 228:1.9757956e-05 229:8.8910798e-05 230:0.00010866876 231:0.00099648349 232:1.9757956e-05 233:1.9757956e-05 234:1.9757956e-05 235:1.9757956e-05 236:1.9757956e-05 237:5.9273865e-05 238:0.00012797742 239:3.1132091e-05 240:6.9152848e-05 241:6.1548693e-05 242:6.9152848e-05 243:9.4175935e-05 244:8.8066947e-05 245:6.1548693e-05 246:6.9152848e-05 247:1.9757956e-05 248:1.9757956e-05 249:2.9636933e-05 250:2.9636933e-05 251:6.9152848e-05 252:-8.2930179e-05 253:1.2153803e-05 254:1.9757956e-05 255:1.9757956e-05 256:2.9636933e-05 257:3.9515911e-05 258:0.00045600184 259:0.0015792884 260:0.0017817029 261:0.00054178445 262:0.0059275245 263:0.0094258795 264:0.000395682 265:0.021273602 266:-0.00028843479 267:-1.3713146e-05 268:-2.6903375e-05 269:6.9804133e-05 270:1.1374133e-05 271:0.0038306499 272:0.0037599562 273:0.0075708213 274:2.5023093e-05 275:0.00043305152 276:1.9757956e-05 277:0.0014510733 278:0.0064684651 279:0.001031835 280:0.0011170495 281:1.9757956e-05 282:2.9636933e-05 283:0.00017769322 284:4.1790736e-05 285:1.9757956e-05 286:7.9031823e-05 287:0.00040269908 288:0.00045924884 289:0.00013447151 290:4.62762e-05 291:0.0011919809 292:0.0033196763 293:2.9636933e-05 294:9.8789773e-05 295:0.0014146477 296:1.9757956e-05 297:1.670346e-05 298:1.9757956e-05 299:1.9757956e-05 300:1.9757956e-05 301:1.9757956e-05 302:1.2153803e-05 303:0.0021857307 304:1.9757956e-05 305:2.4307607e-05 306:8.5875028e-05 307:0.0044314791 308:7.3702497e-05 309:1.9757956e-05 310:1.9757956e-05 311:1.9757956e-05 312:0.00026660401 313:3.7699856e-06 314:-6.791445e-05 315:0.0017993407 316:8.8910798e-05 317:1.9757956e-05 318:0.00087676157 319:1.4428631e-05 320:0.006522987 321:0.0002788862 322:0.00050955178 323:1.9757956e-05 324:3.1911761e-05 325:0.0011739937 326:-0.00018229759 327:4.1790736e-05 328:4.4716846e-05 329:1.2153803e-05 330:6.9152848e-05 331:1.9757956e-05 332:-4.1139432e-05 333:-3.8341718e-06 334:5.8494195e-05 335:0.00082623999 336:0.00073923561 337:-0.0005529566 338:0.0025277894 339:0.0069489214 340:0.00045053463 341:0.00051332172 342:0.0020465811 343:0.00078850205 344:5.7201021e-05 345:0.0027832119 346:-0.00011451153 347:-0.00065843301 348:-2.5866952e-05 349:2.2748266e-06 350:-3.8341718e-06 351:-2.5866952e-05 352:2.2748266e-06 353:0.0010044087 354:0.00048010741 355:1.2153803e-05 356:1.9757956e-05 357:4.5496531e-06 358:1.9757956e-05 359:3.9515911e-05 360:1.9757956e-05 361:-3.0544982e-06 362:0.0001504595 363:1.4364451e-05 364:0.0056405393 365:0.00045645103 366:0.00029084747 367:-5.933805e-05 368:0.00029916712 369:0.00019030571 370:-6.9281203e-05 371:0.0083307968 372:0.0034332061 373:0.00028389462 374:0.015882103 375:0.012385074 376:-3.8396527e-05 377:3.7699856e-06 378:0.00022786777 379:-0.00062977773 380:0.00017996803 381:0.0029919178 382:0.00055231468 383:0.0016320684 384:4.5496531e-06 385:0.012787637 386:2.4307607e-05 387:0.0027705352 388:0.00094008131 389:0.015282623 390:-1.8262801e-05 391:0.00080221531 392:-0.00062542065 393:1.9757956e-05 394:1.9757956e-05 395:0.00067833817 396:0.00011848356 397:0.0022588198 398:0.0018797677 399:0.00023859061 400:1.9757956e-05 401:0.0039851996 402:0.00027089697 403:0.00047939186 404:6.2603969e-05 405:-0.00040386384 406:1.2153803e-05 407:9.1901107e-05 408:1.9757956e-05 409:1.670346e-05 410:2.4307607e-05 411:0.0057163695 412:2.6582433e-05 413:0.0003184021 414:0.00012842671 415:0.00020206503 416:0.0039898781 417:0.0012431468 418:0.0021514799 419:0.00097328593 420:9.4955605e-05 421:4.4001375e-05 422:4.9394886e-05 423:-5.3293238e-06 424:8.0462778e-05 425:5.2972347e-05 426:1.9757956e-05 427:4.1790736e-05 428:0.0020661373 429:0.0013227466 430:0.00060937798 431:0.0015665381 432:8.8910798e-05 433:0.00051286299 434:0.0034092497 435:0.0019107069 436:0.01376516 437:0.0093229301 438:-0.00010424748 439:0.00051201915 440:7.3702497e-05 441:-5.3293238e-06 442:0.00055673602 443:0.00050987268 444:0.00054405926 445:1.2153803e-05 446:0.00021350334 447:0.00065903901 448:0.00085940683 449:0.0027972003 450:0.00018308673 451:-0.00032749193 452:0.0047898185 453:0.00010022076 454:0.00059039961 455:9.3460461e-05 456:5.3164866e-05 457:-1.1612184e-05 458:6.8373178e-05 459:0.00048550087 460:0.0020840149 461:1.9757956e-05 462:0.00060326897 463:8.9626279e-05 464:0.00017606969 465:0.00071258901 466:3.9515911e-05 467:4.7835547e-05 468:0.0024921265 469:0.0026684981 470:3.9515911e-05 471:4.9394886e-05 472:3.9515911e-05 473:3.9515911e-05 474:3.9515911e-05 475:3.9515911e-05 476:4.9394886e-05 477:4.9394886e-05 478:0.0039947866 479:0.00013980085 480:0.0018885176 481:-0.00047619009 482:0.0021344742 483:0.0027513832 484:0.00016625492 485:0.00061301957 486:0.00180235 487:0.0013690229 488:-0.001925859 489:0.00016612654 490:2.9636933e-05 491:5.6219371e-05 492:0.00010938425 493:7.8252153e-05 494:1.2153803e-05 495:0.00015721978 496:0.00027732685 497:8.58563e-05 498:4.1790736e-05 499:9.5671101e-05 500:0.00022409781 501:-0.00016371388 502:3.7956568e-05 503:-0.0052734525 504:-0.00069125276 505:0.00010756819 506:0.0030762695 507:0.00030923859 508:7.9031823e-05 509:-7.7967252e-07 510:2.2748266e-06 511:0.00015500915 512:6.609835e-05 513:4.5496531e-06 514:0.0001383057 515:5.9273865e-05 516:0.0014064752 517:0.017342405 518:0.00091692881 519:0.00028252779 520:0.00248853 521:0.001021837 522:-0.0014686552 523:-0.0025618905 524:-0.0048256996 525:0.0019078169 526:0.021261942 527:6.5130216e-06 528:0.00022565713 529:-7.9875681e-05 530:0.0037259711 531:0.0010354124 532:0.0066195116 533:0.0021584518 534:0.0028637389 535:-0.00013179283 536:7.1427676e-05 537:6.0769016e-05 538:6.7593501e-05 539:4.1790736e-05 540:3.9515911e-05 541:6.9152848e-05 542:-5.4576931e-06 543:-0.0003476445 544:0.0056151501 545:-0.0007049017 546:-0.001300695 547:-2.5151467e-05 548:5.6219371e-05 549:1.9757956e-05 550:0.00076172705 551:0.0021567454 552:6.3043852e-05 553:6.8373178e-05 554:0.0002416451 555:2.9572746e-05 556:5.6219371e-05 557:2.9636933e-05 558:0.00017626226 559:7.9031823e-05 560:9.0993062e-06 561:3.1847572e-05 562:3.1911761e-05 563:5.9273865e-05 564:2.2032782e-05 565:1.9757956e-05 566:0.0001504595 567:0.00038131757 568:1.9757956e-05 569:0.00013525119 570:0.0001230332 571:0.00050064496 572:4.8358459e-05 573:0.00015949461 574:2.9636933e-05 575:0.0019253 576:3.9515911e-05 577:0.0046701059 578:0.00033270239 579:0.0041482551 580:4.6340389e-05 581:-0.0008343744 582:0.0022427943 583:0.0013924319 584:2.9636933e-05 585:4.9394886e-05 586:0.00092473498 587:2.9636933e-05 588:3.9515911e-05 589:2.9636933e-05 590:3.9515911e-05 591:3.9515911e-05 592:7.9031823e-05 593:0.00021350334 594:0.00049693917 595:2.9636933e-05 596:2.9636933e-05 597:2.9636933e-05 598:2.9636933e-05 599:2.9636933e-05 600:0.00012764704 601:2.9636933e-05 602:5.3880347e-05 603:2.9636933e-05 604:2.9636933e-05 605:0.0030012645 606:1.8978284e-05 607:-6.9217029e-05 608:0.00030234992 609:2.9636933e-05 610:2.9636933e-05 611:0.00073956611 612:0.0023703128 613:1.1309936e-05 614:0.00068086979 615:2.2032782e-05 616:1.9757956e-05 617:3.9515911e-05 618:9.5735282e-05 619:6.3823521e-05 620:0.00010333943 621:0.0013683074 622:0.0071573975 623:0.0024054265 624:0.00039509495 625:0.00033965521 626:0.0011841841 627:0.00078681437 628:0.0019179075 629:-1.6235301e-06 630:0.0001145852 631:0.00042850187 632:1.9757956e-05 633:0.0034474065 634:0.00044592077 635:0.001009738 636:0.00034420486 637:0.014536795 638:0.0053662034 639:0.00013973666 640:0.002329366 641:1.2153803e-05 642:1.9757956e-05 643:5.7714526e-05 644:0.00090425211 645:0.00018009642 646:0.00083705311 647:0.0013057223 648:1.9757956e-05 649:0.00010333943 650:0.00013525119 651:3.9515911e-05 652:0.00010028492 653:0.00051650457 654:3.9515911e-05 655:0.0001383057 656:0.00014201149 657:0.00014890016 658:1.9757956e-05 659:1.9757956e-05 660:1.9757956e-05 661:1.9757956e-05 662:1.9757956e-05 663:1.9757956e-05 664:2.9636933e-05 665:0.00010788908 666:3.9515911e-05 667:0.000925056 668:0.00011549324 669:1.9757956e-05 670:5.1669715e-05 671:1.9757956e-05 672:1.9757956e-05 673:5.9273865e-05 674:0.00029325063 675:3.6397225e-05 676:1.2153803e-05 677:1.9757956e-05 678:6.8373178e-05 679:-0.00040938571 680:0.00082938478 681:0.0020707152 682:0.0014078232 683:0.0023219732 684:0.0095031662 685:0.0025887797 686:0.0010109121 687:-5.3293238e-06 688:0.0044307997 689:0.006242827 690:0.002583229 691:0.0013886524 692:0.0052457559 693:0.00040568941 694:0.00062601722 695:2.2032782e-05 696:0.00034193005 697:8.0526974e-05 698:0.0002062295 699:-2.8141776e-05 700:1.9757956e-05 701:1.9757956e-05 702:3.9515911e-05 703:0.00058110774 704:0.00023326131 705:0.00011776807 706:1.9757956e-05 707:0.0014955052 708:0.00017931676 709:4.8615213e-05 710:0.001563612 711:8.1306651e-05 712:0.00095657306 713:0.019476201 714:0.00023313293 715:0.0020343633 716:8.0398619e-05 717:0.00069063919 718:0.0020558732 719:0.0071719005 720:0.00014058052 721:0.00069354655 722:-5.3293238e-06 723:9.3267896e-05 724:5.9273865e-05 725:0.006885455 726:0.010581257 727:0.0023016189 728:0.0026395768 729:0.00011854773 730:1.9757956e-05 731:0.0013556306 732:1.9757956e-05 733:0.00021200816 734:0.0024377136 735:-7.7967252e-07 736:0.0003503139 737:0.00010015657 738:0.000957096 739:0.00031079794 740:0.001164307 741:0.00062231137 742:0.0013328919 743:0.00027810654 744:0.00053171284 745:0.00051054271 746:0.019361053 747:6.8244799e-06 748:0.00033699532 749:3.4186589e-05 750:0.0054807598 751:7.1427676e-05 752:0.0021353636 753:0.0012859643 754:4.5496531e-06 755:0.00065097614 756:6.9152848e-05 757:-3.0544982e-06 758:0.001166701 759:1.9757956e-05 760:7.1427676e-05 761:6.0448115e-06 762:5.8494195e-05 763:3.9515911e-05 764:0.00010710942 765:1.2153803e-05 766:6.8244799e-06 767:0.00041186259 768:0.00079598738 769:2.2748266e-06 770:0.00037533697 771:5.9273865e-05 772:0.00015189046 773:-0.00012185895 774:0.0004168067 775:0.0044821389 776:3.8736242e-05 777:3.9515911e-05 778:1.9757956e-05 779:0.0025918791 780:0.0017741893 781:-7.3766685e-05 782:0.0038611302 783:0.00010165175 784:0.0011635823 785:0.0006197156 786:0.00029558968 787:0.00018692092 788:3.3342716e-05 789:0.0014023654 790:1.5923786e-05 791:0.0017435894 792:0.00024725011 793:0.0010474378 794:0.00014051635 795:0.0063234461 796:0.00072233961 797:0.0010935856 798:-2.6710812e-05 799:0.00012459254 800:2.2032782e-05 801:0.00075515936 802:0.00038437208 803:0.00045047043 804:6.1548693e-05 805:0.00036012864 806:3.6397225e-05 807:-0.0010678734 808:6.0769016e-05 809:0.0019981586 810:0.00095741695 811:-0.0013336146 812:1.2153803e-05 813:1.9757956e-05 814:0.00017925256 815:0.0012468334 816:0.0029046854 817:0.0049772072 818:0.0011865873 819:1.9757956e-05 820:1.9757956e-05 821:1.9757956e-05 822:1.9757956e-05 823:1.9757956e-05 824:1.9757956e-05 825:0.00010866876 826:1.9757956e-05 827:1.9757956e-05 828:0.00014818467 829:0.00065870868 830:0.00014513018 831:0.0015175284 832:6.4474836e-05 833:-0.0010487856 834:-0.0025499223 835:0.00027427237 836:0.00150609 837:2.6582433e-05 838:0.0024749092 839:0.00021655783 840:3.1911761e-05 841:0.0021859875 842:0.0037999949 843:6.0704828e-05 844:0.00026140307 845:1.9757956e-05 846:1.9757956e-05 847:2.9636933e-05 848:-3.34711e-05 849:1.9757956e-05 850:1.9757956e-05 851:1.9757956e-05 852:4.1011066e-05 853:1.2153803e-05 854:1.2153803e-05 855:0.0010938423 856:5.9806239e-06 857:8.8910798e-05 858:0.00023554548 859:1.9757956e-05 860:2.9636933e-05 861:1.9757956e-05 862:4.9394886e-05 863:2.9636933e-05 864:0.0018947002 865:0.0011829458 866:0.00021727332 867:4.9394886e-05 868:2.8857263e-05 869:2.9636933e-05 870:1.9757956e-05 871:1.9757956e-05 872:1.9757956e-05 873:4.9394886e-05 874:0.00019829505 875:0.0018304822 876:4.6340389e-05 877:0.0071575996 878:-0.00064641703 879:0.0016881403 880:7.9031823e-05 881:3.9515911e-05 882:3.6461413e-05 883:2.2619872e-05 884:0.00065221457 885:1.2153803e-05 886:0.0001595588 887:0.00016410845 888:0.00061834883 889:0.0014444225 890:0.00014740499 891:4.2506217e-05 892:1.1309936e-05 893:-0.00015598137 894:0.00024743317 895:0.00012985767 896:0.00041940255 897:6.1879073e-05 898:4.1790736e-05 899:-5.3293238e-06 900:7.3124807e-05 901:4.5496531e-06 902:1.9757956e-05 903:1.9757956e-05 904:-0.0023546177 905:-0.0075644786 906:0.0017877098 907:0.0013289198 908:0.00084174058 909:0.00086435094 910:0.0029454401 911:-7.7967252e-07 912:0.00079623458 913:0.0019390133 914:0.0016776744 915:0.00040023166 916:2.2748266e-06 917:-0.00011789644 918:-5.1733903e-05 919:-1.8160824e-06 920:1.9757956e-05 921:5.9273865e-05 922:1.9757956e-05 923:7.1427676e-05 924:3.9515911e-05 925:0.00033809588 926:6.9868329e-05 927:3.9515911e-05 928:1.9757956e-05 929:3.9515911e-05 930:-7.7967252e-07 931:4.6340389e-05 932:0.0027264883 933:0.0011499524 934:6.609835e-05 935:0.0004519014 936:7.0914182e-05 937:0.00088819995 938:-6.1612882e-05 939:7.1548084e-07 940:0.00094086106 941:0.00046340388 942:0.00093369652 943:0.0020575705 944:0.00070108648 945:2.1253109e-05 946:4.7835551e-05 947:0.0039067096 948:-0.00014090147 949:0.00014967982 950:1.9757956e-05 951:1.2153803e-05 952:5.9273865e-05 953:0.010869298 954:0.00028707745 955:0.0020997007 956:0.0026811936 957:0.0027279833 958:5.5439701e-05 959:0.0051906374 960:0.00055563531 961:0.0020134954 962:0.001676317 963:0.0026194714 964:6.2979656e-05 965:0.0023751289 966:0.0032351229 967:-2.3903507e-05 968:0.0062065395 969:9.3396258e-05 970:7.8252153e-05 971:0.00048686762 972:0.00022858327 973:4.1790736e-05 974:2.4307607e-05 975:2.9636933e-05 976:8.3581472e-05 977:5.6155175e-05 978:0.0001132184 979:2.9636933e-05 980:7.8252153e-05 981:8.2801802e-05 982:1.9757956e-05 983:1.670346e-05 984:0.00011698839 985:0.00039191206 986:0.0023153224 987:0.00072090863 988:0.0056698276 989:2.9636933e-05 990:0.0031783707 991:0.0014600802 992:2.9636933e-05 993:0.00015806365 994:2.8077588e-05 995:0.00055614894 996:0.0017841324 997:5.9273865e-05 998:0.00015806365 999:0.00011088889 1000:-0.00062690629 1001:0.00030468899 1002:0.0037133405 1003:0.0011512266 1004:0.0036624409 1005:0.0068816296 1006:0.0021412254 1007:1.670346e-05 1008:0.00016521843 1009:0.00067781529 1010:0.00056914653 1011:-6.2713494e-05 1012:3.3406919e-05 1013:1.9757956e-05 1014:0.00014058052 1015:3.9515911e-05 1016:0.00032672178 1017:0.00014513018 1018:0.00026140307 1019:1.9757956e-05 1020:6.9152848e-05 1021:0.0021133311 1022:0.0016032562 1023:0.00075606746 1024:1.9757956e-05 1025:0.00063596037 1026:0.0002362516 1027:2.2032782e-05 1028:5.1669715e-05 1029:0.00011094358 1030:-4.8679405e-05 1031:0.00036168803 1032:-0.00015825621 1033:0.00057642977 1034:2.9636933e-05 1035:0.0012394219 1036:0.00072565087 1037:6.3043852e-05 1038:0.00070173776 1039:0.0020493427 1040:0.00010061532 1041:2.9636933e-05 1042:2.2032782e-05 1043:1.9757956e-05 1044:2.2748266e-06 1045:3.1911761e-05 1046:5.6219371e-05 1047:0.00016027429 1048:1.4428631e-05 1049:0.00039210459 1050:0.00052631937 1051:2.2032782e-05 1052:0.0022239632 1053:0.0006967294 1054:0.0046540629 1055:1.9757956e-05 1056:-1.2933476e-05 1057:-5.3293238e-06 1058:-5.3293238e-06 1059:9.4047544e-05 1060:0.00060535112 1061:-0.00065269967 1062:0.0040719192 1063:0.00063603395 1064:2.4307607e-05 1065:7.5399712e-06 1066:2.2748266e-06 1067:7.260187e-05 1068:0.0058771768 1069:-6.8501555e-05 1070:0.0010512079 1071:0.004798735 1072:0.0059365686 1073:3.1911761e-05 1074:4.5496531e-06 1075:0.0018668058 1076:1.670346e-05 1077:0.00097731268 1078:0.0038881074 1079:0.00023176614 1080:0.0001778216 1081:4.9394886e-05 1082:0.00043916047 1083:0.00067918212 1084:0.0038059759 1085:6.1484512e-05 1086:1.2153803e-05 1087:0.00062707241 1088:-0.0083171604 1089:0.00027791396 1090:0.012717576 1091:0.00045742333 1092:6.3823521e-05 1093:0.00011309004 1094:0.00032574951 1095:0.0010972915 1096:0.00019751537 1097:4.9394886e-05 1098:0.0024760198 1099:-0.00020568783 1100:4.1790736e-05 1101:1.670346e-05 1102:0.00083751197 1103:0.00043831664 1104:1.1374133e-05 1105:3.9515911e-05 1106:1.9757956e-05 1107:7.9031823e-05 1108:2.9636933e-05 1109:0.00010022076 1110:4.9394886e-05 1111:3.9515911e-05 1112:-1.325441e-05 1113:-0.00028531611 1114:0.01189085 1115:0.00025074443 1116:-3.5679716e-06 1117:2.9636933e-05 1118:0.0010467224 1119:5.1669715e-05 1120:0.0022625523 1121:0.00042831872 1122:0.00081554323 1123:0.003594324 1124:4.9394886e-05 1125:1.9757956e-05 1126:1.9757956e-05 1127:8.429696e-05 1128:1.2153803e-05 1129:3.9515911e-05 1130:0.0041199927 1131:0.00072487118 1132:0.00065948832 1133:2.2032782e-05 1134:0.00044130697 1135:0.00028161981 1136:0.00015500915 1137:0.0002424343 1138:0.0012693249 1139:0.0011921733 1140:0.0015884795 1141:2.9636933e-05 1142:4.9394886e-05 1143:0.0014559154 1144:5.1669715e-05 1145:0.00058052072 1146:0.0026973647 1147:-2.1317295e-05 1148:4.8615213e-05 1149:3.9515911e-05 1150:3.9515911e-05 1151:3.9515911e-05 1152:3.9515911e-05 1153:3.9515911e-05 1154:3.9515911e-05 1155:0.00011854773 1156:0.00011854773 1157:0.0003039735 1158:0.00075229746 1159:3.9515911e-05 1160:3.9515911e-05 1161:3.9515911e-05 1162:8.8910798e-05 1163:3.9515911e-05 1164:3.9515911e-05 1165:3.9515911e-05 1166:5.9273865e-05 1167:4.1790736e-05 1168:3.9515911e-05 1169:3.9515911e-05 1170:3.9515911e-05 1171:3.9515911e-05 1172:3.9515911e-05 1173:3.9515911e-05 1174:0.00011854773 1175:0.00011854773 1176:0.00028194068 1177:3.9515911e-05 1178:3.9515911e-05 1179:3.9515911e-05 1180:3.9515911e-05 1181:3.9515911e-05 1182:3.9515911e-05 1183:3.9515911e-05 1184:3.9515911e-05 1185:3.9515911e-05 1186:3.9515911e-05 1187:0.00099043886 1188:6.609835e-05 1189:0.0020926555 1190:0.0019063218 1191:1.9757956e-05 1192:-9.1634938e-06 1193:0.0021622027 1194:3.9515911e-05 1195:0.0003898298 1196:1.9757956e-05 1197:0.00014740499 1198:-4.1377643e-05 1199:0.0012795344 1200:0.00019829505 1201:0.00052573223 1202:-5.3293238e-06 1203:1.9757956e-05 1204:0.00010860457 1205:3.9515911e-05 1206:0.00014506599 1207:7.9031823e-05 1208:0.00067366014 1209:7.9031823e-05 1210:6.9152848e-05 1211:6.9152848e-05 1212:0.00017509745 1213:4.5496531e-06 1214:0.00027641884 1215:9.3460461e-05 1216:0.00041232127 1217:0.00071655156 1218:0.00080490374 1219:2.9572746e-05 1220:5.1669715e-05 1221:5.3944539e-05 1222:1.9757956e-05 1223:2.9636933e-05 1224:0.00015877913 1225:0.0047108503 1226:0.0011180217 1227:0.00048855541 1228:2.9636933e-05 1229:0.00029000358 1230:0.0053489124 1231:1.9757956e-05 1232:3.4186589e-05 1233:-3.6525602e-05 1234:0.00010399073 1235:1.2153803e-05 1236:0.00047997903 1237:0.00048004312 1238:2.8077588e-05 1239:0.00030085476 1240:0.0013646657 1241:0.00074085913 1242:6.6813838e-05 1243:-9.1634938e-06 1244:3.9515911e-05 1245:7.1427676e-05 1246:0.0001132184 1247:1.9757956e-05 1248:0.00013668215 1249:1.8978284e-05 1250:2.8857263e-05 1251:-0.0002380677 1252:0.00018348123 1253:4.4065564e-05 1254:3.9515911e-05 1255:0.00038060211 1256:0.0022208253 1257:0.0015620528 1258:0.00017398743 1259:3.2627238e-05 1260:0.00092927524 1261:-6.1089963e-06 1262:-8.2214705e-05 1263:4.3873035e-05 1264:0.0027796435 1265:0.00022137372 1266:0.00056609203 1267:5.1669715e-05 1268:0.0004063407 1269:0.0027836154 1270:0.00027018142 1271:0.00036545802 1272:0.00028629781 1273:0.00014740499 1274:0.00017242809 1275:0.00032067695 1276:0.00094604288 1277:3.9515911e-05 1278:0.0011533729 1279:0.00054620567 1280:0.00057876878 1281:-1.0658648e-05 1282:1.9757956e-05 1283:9.0993062e-06 1284:1.9757956e-05 1285:9.1185633e-05 1286:9.4175935e-05 1287:3.9515911e-05 1288:3.1911761e-05 1289:1.9757956e-05 1290:1.9757956e-05 1291:1.9757956e-05 1292:2.2748266e-06 1293:0.00064584881 1294:0.0027464295 1295:0.00062075205 1296:-0.0013964943 1297:0.0003404349 1298:0.00031749404 1299:-0.00022747323 1300:0.00076510257 1301:0.00038729818 1302:4.081849e-05 1303:-0.00031540237 1304:0.00095956342 1305:0.0010354765 1306:0.0022952438 1307:0.0005674588 1308:7.2143157e-05 1309:0.00011315422 1310:0.00016398006 1311:6.9152848e-05 1312:-3.8341718e-06 1313:-0.00012550059 1314:1.8198612e-05 1315:0.00013070153 1316:0.00023937029 1317:2.9636933e-05 1318:7.3702497e-05 1319:3.4186589e-05 1320:0.00024236061 1321:2.2748266e-06 1322:1.9757956e-05 1323:3.9515911e-05 1324:1.9757956e-05 1325:4.9394886e-05 1326:-8.4480125e-06 1327:-5.3293238e-06 1328:3.9515911e-05 1329:0.0003928201 1330:1.2153803e-05 1331:2.9636933e-05 1332:0.00018685673 1333:0.00035928484 1334:0.00018737963 1335:3.1911761e-05 1336:2.4307607e-05 1337:3.1911761e-05 1338:-9.94317e-06 1339:1.2153803e-05 1340:0.001557503 1341:2.9636933e-05 1342:0.00127725 1343:4.1790736e-05 1344:0.00093488005 1345:7.1427676e-05 1346:1.9757956e-05 1347:0.00047334709 1348:1.9757956e-05 1349:0.0032746478 1350:6.531868e-05 1351:4.1011066e-05 1352:-0.00028837062 1353:0.00055757986 1354:0.0001510466 1355:8.8910798e-05 1356:3.9515911e-05 1357:5.1669715e-05 1358:0.00019985436 1359:3.9515911e-05 1360:6.9152848e-05 1361:5.3944539e-05 1362:3.9515911e-05 1363:7.1427676e-05 1364:7.1427676e-05 1365:0.00090913207 1366:2.3527935e-05 1367:4.9394886e-05 1368:3.9515911e-05 1369:0.00014357083 1370:0.00011601616 1371:0.00023404096 1372:0.00048400572 1373:0.0049709515 1374:0.001063875 1375:0.00020037733 1376:2.2748266e-06 1377:3.8736242e-05 1378:0.00016794262 1379:0.00019985436 1380:0.0022214768 1381:0.0038500321 1382:2.9636933e-05 1383:1.9757956e-05 1384:0.00061535853 1385:0.0010271569 1386:0.0004756219 1387:0.00051943067 1388:5.1605522e-05 1389:1.9757956e-05 1390:0.0041473545 1391:0.0015576956 1392:0.00094214454 1393:5.9273865e-05 1394:4.9394886e-05 1395:0.00022942713 1396:0.00013141701 1397:4.1011066e-05 1398:8.3132232e-05 1399:0.00029325063 1400:0.00014812048 1401:0.0007646532 1402:2.4307607e-05 1403:6.9868329e-05 1404:0.0001797755 1405:0.00045436877 1406:0.00028246362 1407:0.00022260266 1408:0.0003862617 1409:0.0018148249 1410:4.1790736e-05 1411:0.0027250482 1412:0.0012924677 1413:6.609835e-05 1414:0.00015300052 1415:3.9515911e-05 1416:-0.00048386797 1417:1.2153803e-05 1418:0.0001101639 1419:0.00056577113 1420:1.9757956e-05 1421:3.1911761e-05 1422:5.3944539e-05 1423:0.00011549324 1424:2.2032782e-05 1425:2.2748266e-06 1426:2.9636933e-05 1427:3.9515911e-05 1428:6.3823521e-05 1429:0.00076553505 1430:5.5439701e-05 1431:-0.00023214196 1432:0.00035024967 1433:7.8252153e-05 1434:9.5735282e-05 1435:0.0062085763 1436:4.9394886e-05 1437:0.00064038165 1438:0.0001504595 1439:-8.5580621e-05 1440:0.0034376369 1441:0.00062595296 1442:-0.00064335309 1443:-5.3293238e-06 1444:-0.00013251764 1445:1.2153803e-05 1446:-4.8679405e-05 1447:0.00010333943 1448:2.2748266e-06 1449:1.9757956e-05 1450:1.9757956e-05 1451:0.00011854773 1452:7.9031823e-05 1453:2.2748265e-05 1454:-2.6710812e-05 1455:0.00058338261 1456:5.9273865e-05 1457:3.5681744e-05 1458:0.00037040221 1459:0.00027089697 1460:0.00026289825 1461:0.00073131989 1462:0.00012985767 1463:0.00010626556 1464:-0.00030935759 1465:0.00087158906 1466:2.9636933e-05 1467:8.3581472e-05 1468:8.0462778e-05 1469:3.1132091e-05 1470:0.00012082255 1471:0.0001997902 1472:8.3517283e-05 1473:1.9757956e-05 1474:2.2748266e-06 1475:1.2153803e-05 1476:-3.7497859e-05 1477:-7.6298224e-05 1478:3.5681744e-05 1479:2.2032782e-05 1480:0.00031001831 1481:3.9515911e-05 1482:-5.3935182e-06 1483:-7.0776368e-05 1484:0.0018191629 1485:0.00062692526 1486:0.0011283498 1487:0.00016033847 1488:0.00082736678 1489:-1.0658648e-05 1490:2.9636933e-05 1491:-0.00046832932 1492:0.0039870162 1493:-0.00048517052 1494:8.8131128e-05 1495:1.2153803e-05 1496:0.00028876518 1497:-5.9402242e-05 1498:0.001021956 1499:3.6461413e-05 1500:5.3944539e-05 1501:3.1911761e-05 1502:0.00033939848 1503:3.41224e-05 1504:1.9757956e-05 1505:2.9636933e-05 1506:-0.00020303724 1507:-0.00091455219 1508:3.9515911e-05 1509:4.1790736e-05 1510:2.2748265e-05 1511:0.00016098979 1512:6.8244799e-06 1513:4.5496531e-06 1514:1.9757956e-05 1515:3.1911761e-05 1516:1.9757956e-05 1517:0.00135076 1518:1.9757956e-05 1519:1.2153803e-05 1520:3.9515911e-05 1521:1.9757956e-05 1522:8.8910798e-05 1523:0.00021499849 1524:0.0010906594 1525:0.00068230077 1526:1.9757956e-05 1527:1.9757956e-05 1528:1.9757956e-05 1529:1.9757956e-05 1530:1.9757956e-05 1531:7.7472483e-05 1532:0.00011835519 1533:-3.9580096e-05 1534:0.00080474693 1535:4.9394886e-05 1536:4.1011066e-05 1537:0.00030976153 1538:0.00029234262 1539:0.00076783617 1540:0.00065955246 1541:0.00027427237 1542:0.00052345742 1543:8.8910798e-05 1544:0.0030357176 1545:0.0003503139 1546:0.00024619477 1547:3.1911761e-05 1548:0.000300919 1549:-2.8921449e-05 1550:-5.0367133e-05 1551:5.0825874e-05 1552:5.7714526e-05 1553:0.00025432184 1554:0.00041550418 1555:0.00030443227 1556:0.0017719237 1557:0.00087201939 1558:0.00017021745 1559:6.9152848e-05 1560:0.00089496019 1561:0.00016794262 1562:2.2748266e-06 1563:4.8615213e-05 1564:4.9394886e-05 1565:1.2153803e-05 1566:0.00092401006 1567:0.00048861955 1568:3.9515911e-05 1569:0.0003166502 1570:0.00062835618 1571:0.00079545495 1572:0.00017249228 1573:8.8910798e-05 1574:4.9394886e-05 1575:5.3164866e-05 1576:4.9394886e-05 1577:4.9394886e-05 1578:-1.4557001e-05 1579:0.0023399056 1580:0.00098178873 1581:0.00011094358 1582:3.1911761e-05 1583:0.0009115354 1584:-0.00015773324 1585:0.0028482287 1586:0.0004390963 1587:0.00021577816 1588:7.7995435e-05 1589:-1.5987973e-05 1590:0.0014669687 1591:0.00026588852 1592:-2.1317295e-05 1593:0.00032353887 1594:0.0021061762 1595:4.9394886e-05 1596:3.1911761e-05 1597:1.9757956e-05 1598:1.9757956e-05 1599:1.9757956e-05 1600:1.9757956e-05 1601:1.9757956e-05 1602:1.9757956e-05 1603:1.9757956e-05 1604:1.9757956e-05 1605:7.8252153e-05 1606:0.00030611991 1607:0.0023794121 1608:0.0031139604 1609:0.00012842671 1610:0.00020739433 1611:1.2153803e-05 1612:1.9757956e-05 1613:1.9757956e-05 1614:1.9757956e-05 1615:1.9757956e-05 1616:1.9757956e-05 1617:0.000294489 1618:1.9757956e-05 1619:1.9757956e-05 1620:0.00032438277 1621:1.9757956e-05 1622:6.9739937e-05 1623:5.3944539e-05 1624:1.2153803e-05 1625:1.9757956e-05 1626:1.9757956e-05 1627:3.9515911e-05 1628:0.000444554 1629:0.00041407321 1630:0.0031044853 1631:0.0046936884 1632:0.00081378204 1633:0.00068535522 1634:4.5496531e-06 1635:2.6582433e-05 1636:0.00061932107 1637:0.00063524488 1638:0.00072038569 1639:5.9273865e-05 1640:3.9515911e-05 1641:2.4307607e-05 1642:0.00011776807 1643:4.4781042e-05 1644:0.0011919809 1645:-0.00074845378 1646:0.00027928074 1647:4.7578767e-05 1648:0.00048777569 1649:0.00034264557 1650:0.0001383057 1651:-3.5745928e-05 1652:4.5496531e-06 1653:0.00038521591 1654:1.9757956e-05 1655:1.4428631e-05 1656:2.9636933e-05 1657:1.9757956e-05 1658:1.9757956e-05 1659:1.2153803e-05 1660:0.00016943777 1661:0.0037907481 1662:2.9636933e-05 1663:1.9757956e-05 1664:1.9757956e-05 1665:0.00015877913 1666:8.58563e-05 1667:4.1011066e-05 1668:1.2153803e-05 1669:5.3944539e-05 1670:5.9273865e-05 1671:1.9757956e-05 1672:1.495156e-06 1673:0.0036274199 1674:3.9515911e-05 1675:0.00010626556 1676:-1.143832e-05 1677:0.0013705823 1678:0.00019602021 1679:0.00034803903 1680:0.00033205107 1681:0.00021122851 1682:0.00020810982 1683:0.00027661139 1684:6.1548693e-05 1685:0.00033647238 1686:1.670346e-05 1687:2.9636933e-05 1688:0.0011202965 1689:0.0014132167 1690:0.00022793196 1691:0.00028948064 1692:-4.0029397e-05 1693:2.1188931e-05 1694:0.00067391695 1695:0.0001903699 1696:0.00020336766 1697:2.2619872e-05 1698:2.2748266e-06 1699:1.9757956e-05 1700:1.9757956e-05 1701:1.9757956e-05 1702:-1.9042467e-05 1703:0.0039878599 1704:-0.00073876738 1705:0.00058728101 1706:1.9757956e-05 1707:0.00055218639 1708:0.00021493432 1709:9.25524e-05 1710:1.9757956e-05 1711:0.00045365328 1712:0.0015927261 1713:0.0016923785 1714:0.00025529409 1715:0.0016328933 1716:0.0009228547 1717:0.00064356456 1718:0.00262047 1719:0.00055498414 1720:5.1669715e-05 1721:3.9515911e-05 1722:8.8910798e-05 1723:7.9031823e-05 1724:0.00012309739 1725:0.00073813513 1726:3.1132091e-05 1727:0.00047107227 1728:9.4175935e-05 1729:0.001095209 1730:7.8252153e-05 1731:4.1790736e-05 1732:4.764297e-05 1733:7.9031823e-05 1734:1.9757956e-05 1735:6.1548693e-05 1736:2.9636933e-05 1737:3.0352414e-05 1738:0.00045269035 1739:-6.8565743e-05 1740:2.9636933e-05 1741:0.00086005818 1742:0.00010399073 1743:6.3823521e-05 1744:2.2032782e-05 1745:4.1790736e-05 1746:5.8494195e-05 1747:5.9273865e-05 1748:0.00046652262 1749:1.9757956e-05 1750:7.3702497e-05 1751:1.9757956e-05 1752:0.00039814942 1753:0.00013297636 1754:0.0021229438 1755:-0.0036620537 1756:0.0013439449 1757:0.00010866876 1758:0.00011243874 1759:2.2748266e-06 1760:-5.7255766e-05 1761:6.1548693e-05 1762:5.0890041e-05 1763:0.0031812971 1764:0.00010255975 1765:0.0022487107 1766:0.0017383149 1767:0.00059430738 1768:6.8373178e-05 1769:0.00084940909 1770:9.6450764e-05 1771:0.00010106461 1772:0.00010158755 1773:0.00017476712 1774:0.00033959106 1775:0.00020206503 1776:1.9757956e-05 1777:0.00019985436 1778:0.0010235154 1779:0.00085017923 1780:2.9636933e-05 1781:0.00026972269 1782:0.00016638328 1783:2.9636933e-05 1784:6.453901e-05 1785:2.9636933e-05 1786:0.00029552547 1787:6.9868329e-05 1788:0.00019374538 1789:4.4065564e-05 1790:0.00089963828 1791:4.9789403e-05 1792:0.00074618839 1793:-7.0253474e-05 1794:0.00025977957 1795:0.001352191 1796:0.0010400903 1797:0.00078863051 1798:5.9273865e-05 1799:2.1253109e-05 1800:2.9636933e-05 1801:1.9757956e-05 1802:8.1957958e-05 1803:0.00029247097 1804:1.9757956e-05 1805:2.9636933e-05 1806:1.9757956e-05 1807:3.1911761e-05 1808:1.9757956e-05 1809:7.9031823e-05 1810:0.00024619477 1811:7.9031823e-05 1812:2.2748266e-06 1813:6.1548693e-05 1814:0.0016971754 1815:-3.1452953e-05 1816:-0.00030863279 1817:3.1911761e-05 1818:0.00012452836 1819:0.001682692 1820:5.2211642e-05 1821:0.00056986196 1822:0.0003600645 1823:3.0352414e-05 1824:5.7714526e-05 1825:8.8066947e-05 1826:0.00020050567 1827:9.8789773e-05 1828:0.00017704192 1829:0.00024229642 1830:0.00012842671 1831:0.0016289306 1832:0.00011094358 1833:9.0993062e-06 1834:0.00029474581 1835:4.6340389e-05 1836:0.0003082022 1837:2.1253109e-05 1838:0.00014058052 1839:8.8066947e-05 1840:0.002197949 1841:8.2801802e-05 1842:3.9515911e-05 1843:-3.0544982e-06 1844:-0.0013945856 1845:0.0010348252 1846:0.00079903239 1847:9.5671101e-05 1848:-6.6483466e-05 1849:0.0001115949 1850:5.9273865e-05 1851:8.1306651e-05 1852:0.00055829535 1853:2.9636933e-05 1854:0.00077784341 1855:2.6582433e-05 1856:2.729792e-05 1857:1.1374133e-05 1858:0.00010860457 1859:-0.00011334679 1860:0.0009659385 1861:0.00046470645 1862:0.00070115062 1863:0.00075886527 1864:0.00015195465 1865:-5.8613205e-05 1866:0.00046801774 1867:3.8672053e-05 1868:0.0018088346 1869:1.4428631e-05 1870:0.00089287793 1871:0.004631883 1872:0.00050902879 1873:0.00221634 1874:-8.6828513e-05 1875:2.9636933e-05 1876:-3.4250777e-05 1877:5.3944539e-05 1878:2.9636933e-05 1879:5.9273865e-05 1880:9.8010103e-05 1881:5.0890041e-05 1882:2.8857263e-05 1883:2.9636933e-05 1884:1.9757956e-05 1885:6.9152848e-05 1886:0.00015806365 1887:0.001533067 1888:0.00018841606 1889:4.9394886e-05 1890:9.8789773e-05 1891:-1.2933476e-05 1892:0.0014027506 1893:5.9273865e-05 1894:2.9636933e-05 1895:0.00035369868 1896:0.00015748598 1897:0.00034537911 1898:0.00053132774 1899:0.0041972911 1900:0.00035778966 1901:0.0035352525 1902:0.00048478536 1903:-0.00010983356 1904:-0.00026237531 1905:-0.00022102431 1906:1.9757956e-05 1907:1.9757956e-05 1908:1.9757956e-05 1909:0.00030468899 1910:9.8010103e-05 1911:0.00015273433 1912:7.9031823e-05 1913:2.9636933e-05 1914:0.00053645507 1915:2.4307607e-05 1916:0.00021428302 1917:1.2869292e-05 1918:0.00038450042 1919:4.6340389e-05 1920:0.00038450042 1921:-1.9042467e-05 1922:3.1911761e-05 1923:0.00043922468 1924:0.0001383057 1925:0.00029857998 1926:0.00023709546 1927:2.9636933e-05 1928:4.9394886e-05 1929:2.9636933e-05 1930:1.9757956e-05 1931:7.9031823e-05 1932:4.9394886e-05 1933:4.9394886e-05 1934:2.9636933e-05 1935:0.00025588123 1936:0.00027180501 1937:0.00047043053 1938:-0.00098683313 1939:-0.0010001063 1940:8.8910798e-05 1941:3.9515911e-05 1942:0.00014877177 1943:2.2748266e-06 1944:0.00053710642 1945:1.9757956e-05 1946:0.00010555007 1947:6.8244799e-06 1948:-2.0537627e-05 1949:2.2748266e-06 1950:0.0033438834 1951:0.0016011099 1952:1.2153803e-05 1953:2.2748266e-06 1954:0.0025570958 1955:0.001161583 1956:0.00052352162 1957:0.00053255673 1958:0.00035707414 1959:3.9515911e-05 1960:2.9636933e-05 1961:0.00095969182 1962:1.9757956e-05 1963:-8.3838213e-06 1964:0.0003418017 1965:2.9636933e-05 1966:3.1911761e-05 1967:0.00026816339 1968:0.00046399105 1969:5.9273865e-05 1970:7.1427676e-05 1971:0.0014506504 1972:2.1253109e-05 1973:0.00010561426 1974:0.00090958143 1975:0.0001808119 1976:0.0020486636 1977:1.9629595e-05 1978:-0.00012880232 1979:0.001064398 1980:1.9757956e-05 1981:-4.1075255e-05 1982:0.001138816 1983:0.00012082255 1984:7.4353789e-05 1985:9.8010103e-05 1986:0.00014967982 1987:0.00011471356 1988:8.1306651e-05 1989:6.609835e-05 1990:0.0001101639 1991:9.3460461e-05 1992:0.00077797181 1993:0.0010590045 1994:-3.8341718e-06 1995:2.6582433e-05 1996:1.9757956e-05 1997:0.00028343586 1998:0.00011243874 1999:0.00024236061 2000:2.2032782e-05 2001:-0.00028070228 2002:8.6507607e-05 2003:6.8373178e-05 2004:0.00035635868 2005:1.9757956e-05 2006:0.00071577181 2007:1.9757956e-05 2008:1.4364451e-05 2009:1.9757956e-05 2010:1.9757956e-05 2011:2.9636933e-05 2012:0.00022260266 2013:0.00032054857 2014:0.00098232122 2015:3.9515911e-05 2016:0.00021200816 2017:8.7351458e-05 2018:0.00013447151 2019:4.1011066e-05 2020:-0.00067207258 2021:0.00041151492 2022:2.9636933e-05 2023:0.0010143518 2024:2.9636933e-05 2025:0.0013684357 2026:8.1242462e-05 2027:1.4428631e-05 2028:6.1548693e-05 2029:0.00035713834 2030:3.3406919e-05 2031:3.1911761e-05 2032:4.705587e-05 2033:0.00012992187 2034:9.1185633e-05 2035:7.1427676e-05 2036:2.9636933e-05 2037:1.9757956e-05 2038:6.531868e-05 2039:0.00013752602 2040:0.0011196451 2041:1.9757956e-05 2042:2.2748266e-06 2043:9.8010103e-05 2044:1.9757956e-05 2045:8.1306651e-05 2046:5.1669715e-05 2047:1.670346e-05 2048:1.9757956e-05 2049:0.0010447685 2050:0.0002203278 2051:0.00033335364 2052:-5.3935182e-06 2053:2.2748266e-06 2054:3.9515911e-05 2055:0.00029604841 2056:0.0021401059 2057:-3.503044e-05 2058:1.2153803e-05 2059:0.00035174485 2060:-9.6771691e-05 2061:0.00091640593 2062:0.0021618726 2063:1.9757956e-05 2064:1.9757956e-05 2065:1.9757956e-05 2066:0.00011471356 2067:0.00024671771 2068:0.0002983874 2069:2.9636933e-05 2070:0.00057311857 2071:0.00022721649 2072:3.9515911e-05 2073:1.9757956e-05 2074:1.9757956e-05 2075:7.3702497e-05 2076:0.00019524054 2077:1.9757956e-05 2078:6.8244799e-06 2079:0.00018237127 2080:0.0001132184 2081:0.0021353543 2082:0.00054860895 2083:0.0049505611 2084:-2.5866952e-05 2085:0.00036442152 2086:8.4948275e-05 2087:0.00045670784 2088:0.0012628214 2089:0.00054243568 2090:9.1185633e-05 2091:0.00019757955 2092:0.00016703457 2093:0.0021516085 2094:2.9636933e-05 2095:0.00030852313 2096:-0.00047990537 2097:1.9757956e-05 2098:0.0018096144 2099:0.0001504595 2100:3.9515911e-05 2101:0.0031598513 2102:6.2200001e-05 2103:0.00016463136 2104:0.00034414072 2105:3.6461413e-05 2106:4.9394886e-05 2107:5.9273865e-05 2108:0.00030624832 2109:2.9636933e-05 2110:3.1911761e-05 2111:2.6582433e-05 2112:3.9515911e-05 2113:3.1911761e-05 2114:0.00010178008 2115:1.9757956e-05 2116:1.9757956e-05 2117:-0.0011545283 2118:8.1957958e-05 2119:0.00041004646 2120:0.00040269908 2121:2.8857263e-05 2122:-6.9217029e-05 2123:0.00019374538 2124:1.9757956e-05 2125:2.9636933e-05 2126:1.9757956e-05 2127:6.8244799e-06 2128:8.3453095e-05 2129:-7.8444704e-05 2130:0.00059638976 2131:2.2032782e-05 2132:0.00021122851 2133:-0.00044279269 2134:7.3474143e-06 2135:0.00027128204 2136:-5.4008728e-05 2137:-1.8262801e-05 2138:0.00071479962 2139:3.7176895e-05 2140:0.00023313293 2141:-3.8084934e-05 2142:0.00093831035 2143:0.00042395218 2144:1.2153803e-05 2145:2.2032782e-05 2146:-2.3390239e-06 2147:2.2748266e-06 2148:-1.2933476e-05 2149:0.00015500915 2150:2.9636933e-05 2151:0.00011997871 2152:0.0010735615 2153:3.4186589e-05 2154:0.00038716992 2155:0.00039126075 2156:0.00024912087 2157:2.2748266e-06 2158:0.0024082786 2159:2.5802761e-05 2160:4.4854746e-06 2161:3.1911761e-05 2162:-4.9651644e-05 2163:0.0002203278 2164:0.0008648099 2165:2.2748266e-06 2166:8.58563e-05 2167:0.00012153803 2168:5.6219371e-05 2169:0.00053782191 2170:0.00055153505 2171:0.00011549324 2172:-6.1089963e-06 2173:3.9515911e-05 2174:7.3702497e-05 2175:2.4307607e-05 2176:-2.0537627e-05 2177:-2.5866952e-05 2178:4.4065564e-05 2179:3.1911761e-05 2180:1.9757956e-05 2181:3.1911761e-05 2182:6.9152848e-05 2183:0.0052025896 2184:0.00041602712 2185:0.0017560641 2186:2.2032782e-05 2187:0.00011770388 2188:4.6340389e-05 2189:0.00039808522 2190:0.00089775806 2191:1.6905477e-05 2192:2.4307607e-05 2193:0.002033446 2194:0.0006601396 2195:-3.0544982e-06 2196:6.3823521e-05 2197:0.00019985436 2198:0.00049394887 2199:1.9757956e-05 2200:5.9273865e-05 2201:0.00010255975 2202:3.9515911e-05 2203:3.1911761e-05 2204:2.2748266e-06 2205:4.1790736e-05 2206:2.9636933e-05 2207:2.2748266e-06 2208:3.6461413e-05 2209:-7.7967252e-07 2210:-9.1634938e-06 2211:5.0890041e-05 2212:-3.0544982e-06 2213:0.00025607375 2214:0.00019757955 2215:7.7472483e-05 2216:3.1132091e-05 2217:6.9152848e-05 2218:2.2748266e-06 2219:0.0012842029 2220:1.4428631e-05 2221:5.8494195e-05 2222:0.00011614452 2223:5.9273865e-05 2224:2.4307607e-05 2225:-9.1634938e-06 2226:4.3285894e-05 2227:0.00076965219 2228:0.00025445019 2229:-0.0001149703 2230:0.00032694271 2231:0.00098666886 2232:0.0015835626 2233:-7.7967252e-07 2234:4.9394886e-05 2235:6.8244799e-06 2236:1.9757956e-05 2237:2.2032782e-05 2238:3.9515911e-05 2239:-7.6885364e-05 2240:2.1253109e-05 2241:2.2032782e-05 2242:0.00013902117 2243:0.00049882883 2244:4.9394886e-05 2245:0.00023176614 2246:-0.00011425484 2247:7.1427676e-05 2248:0.00031989728 2249:0.00035557899 2250:0.00010100043 2251:-7.4738928e-05 2252:0.00029429657 2253:0.00014116761 2254:0.00041376165 2255:-3.0801773e-05 2256:6.609835e-05 2257:0.0018298308 2258:4.5496531e-06 2259:1.495156e-06 2260:0.00089053891 2261:3.5681744e-05 2262:0.0015409923 2263:9.5735282e-05 2264:2.9636933e-05 2265:8.2737606e-05 2266:1.8134418e-05 2267:0.00017697773 2268:6.9152848e-05 2269:4.4212975e-06 2270:3.9515911e-05 2271:6.1548693e-05 2272:1.9757956e-05 2273:8.5792119e-05 2274:0.00018770057 2275:2.9636933e-05 2276:0.0017205206 2277:0.00022234587 2278:1.9757956e-05 2279:0.0001778216 2280:0.002672791 2281:0.00072844856 2282:0.0002822711 2283:0.00022871167 2284:1.9757956e-05 2285:3.4902067e-05 2286:0.00025373473 2287:0.00018770057 2288:0.00011094358 2289:9.1185633e-05 2290:0.0014915424 2291:0.00013297636 2292:-5.3293238e-06 2293:0.00015572464 2294:1.9757956e-05 2295:0.00025074443 2296:0.00029474581 2297:1.9757956e-05 2298:0.00017626226 2299:6.0769016e-05 2300:0.00011393389 2301:6.9152848e-05 2302:3.9515911e-05 2303:1.9757956e-05 2304:0.00011679581 2305:1.9757956e-05 2306:-5.7063222e-05 2307:0.00053684972 2308:0.00056134979 2309:1.9757956e-05 2310:1.9757956e-05 2311:1.9757956e-05 2312:2.9636933e-05 2313:1.9757956e-05 2314:1.9757956e-05 2315:1.670346e-05 2316:1.9757956e-05 2317:1.9757956e-05 2318:1.9757956e-05 2319:-2.8921449e-05 2320:1.9757956e-05 2321:1.9757956e-05 2322:2.9636933e-05 2323:5.9273865e-05 2324:5.8430003e-05 2325:0.00011471356 2326:4.1790736e-05 2327:1.9757956e-05 2328:1.9757956e-05 2329:0.00064135389 2330:4.5496531e-06 2331:0.0001192632 2332:-5.1862269e-05 2333:-0.00015754074 2334:0.00029864415 2335:0.0036067537 2336:0.00018237127 2337:0.00029552547 2338:4.4065564e-05 2339:2.9636933e-05 2340:7.5197655e-05 2341:6.9152848e-05 2342:6.609835e-05 2343:2.9636933e-05 2344:7.3702497e-05 2345:2.8013408e-05 2346:-5.3293238e-06 2347:-9.1313988e-05 2348:0.00043597762 2349:2.9636933e-05 2350:0.0001778216 2351:-3.8341718e-06 2352:-0.00015688941 2353:0.00035285493 2354:-0.0031420642 2355:0.00013297636 2356:-6.5575427e-05 2357:0.00018536155 2358:8.58563e-05 2359:3.1911761e-05 2360:2.2106487e-06 2361:0.00024541508 2362:0.00019218604 2363:3.8736242e-05 2364:9.2359849e-05 2365:-0.00028291292 2366:2.2748266e-06 2367:1.2153803e-05 2368:2.2748266e-06 2369:0.00020583501 2370:1.8978284e-05 2371:1.1309936e-05 2372:1.9757956e-05 2373:0.00080604944 2374:1.2869292e-05 2375:3.9515911e-05 2376:1.9757956e-05 2377:6.9152848e-05 2378:-2.5931135e-05 2379:-2.6774978e-05 2380:0.00015117496 2381:-8.3838213e-06 2382:2.9636933e-05 2383:1.9757956e-05 2384:0.0010470432 2385:0.00028480263 2386:0.0012832307 2387:0.00024840538 2388:0.00061620248 2389:0.00048628059 2390:7.1427676e-05 2391:1.9757956e-05 2392:2.9636933e-05 2393:0.00011471356 2394:0.00022936297 2395:0.00049466436 2396:9.1185633e-05 2397:0.00020433986 2398:0.0011159395 2399:0.00044670043 2400:0.00013291219 2401:0.00019738698 2402:5.8494195e-05 2403:0.00014285535 2404:2.0473441e-05 2405:0.00014890016 2406:0.00030624832 2407:0.00044585657 2408:9.1185633e-05 2409:2.9636933e-05 2410:3.1911761e-05 2411:0.00029240677 2412:4.6019468e-05 2413:-0.00046124801 2414:-0.00094901421 2415:-0.00023988378 2416:-0.00016364973 2417:-0.00064115186 2418:1.9757956e-05 2419:0.00016794262 2420:7.8187957e-05 2421:-3.6525602e-05 2422:-4.263459e-05 2423:1.9757956e-05 2424:-4.5945835e-05 2425:1.8978284e-05 2426:0.00015267012 2427:8.3581472e-05 2428:0.00071272673 2429:0.00024067292 2430:0.00031418286 2431:-6.3015409e-06 2432:0.00016911681 2433:0.00011452098 2434:3.9515911e-05 2435:4.1011066e-05 2436:0.00010022074 2437:-3.503044e-05 2438:9.9376906e-05 2439:4.5496531e-06 2440:0.00016684199 2441:1.4428631e-05 2442:6.1484512e-05 2443:1.9757956e-05 2444:4.8615213e-05 2445:2.2748266e-06 2446:7.1299313e-05 2447:0.0006473345 2448:0.00052405393 2449:0.00060613087 2450:0.00021655783 2451:2.9636933e-05 2452:0.00072415563 2453:0.00059105095 2454:8.4232786e-05 2455:3.9515911e-05 2456:-7.7967252e-07 2457:3.1911761e-05 2458:-0.00013127924 2459:0.00020362435 2460:7.1427676e-05 2461:2.9636933e-05 2462:2.9636933e-05 2463:0.00010333943 2464:0.00014058052 2465:1.9757956e-05 2466:0.00034641553 2467:2.6582433e-05 2468:0.00038827048 2469:4.5496531e-06 2470:5.3944539e-05 2471:5.4595839e-05 2472:-0.00053176767 2473:4.1790736e-05 2474:0.00013297636 2475:1.8198612e-05 2476:4.5891073e-05 2477:-5.3293238e-06 2478:0.00030546865 2479:4.5496531e-06 2480:-1.6831827e-05 2481:0.00073651143 2482:4.9394886e-05 2483:2.2748266e-06 2484:0.0010028493 2485:9.8147975e-06 2486:7.428963e-05 2487:-0.00011575 2488:7.4353789e-05 2489:9.6450764e-05 2490:0.0013737008 2491:0.0011557762 2492:0.00076413032 2493:4.6340389e-05 2494:2.2748266e-06 2495:-5.3293238e-06 2496:6.0448115e-06 2497:8.2554498e-06 2498:-6.4177065e-08 2499:0.00025529409 2500:0.00020895369 2501:-2.8921449e-05 2502:-1.2933476e-05 2503:0.00038365662 2504:1.4428631e-05 2505:1.9757956e-05 2506:6.9152848e-05 2507:0.00021577816 2508:1.9757956e-05 2509:0.0001595588 2510:0.00021200816 2511:2.9636933e-05 2512:2.9636933e-05 2513:8.481992e-05 2514:0.001678739 2515:-0.00018378334 2516:4.4065564e-05 2517:0.0026786339 2518:0.00076510257 2519:1.9757956e-05 2520:0.00042096188 2521:0.00047153092 2522:5.1669715e-05 2523:0.000581172 2524:0.00038905014 2525:0.00031612729 2526:0.00042479605 2527:0.00017021745 2528:4.9394886e-05 2529:5.9273865e-05 2530:3.6461413e-05 2531:9.0405949e-05 2532:6.9868329e-05 2533:4.9394886e-05 2534:4.1790736e-05 2535:8.8910798e-05 2536:6.9152848e-05 2537:0.0021125418 2538:4.9394886e-05 2539:0.00065428735 2540:8.8910798e-05 2541:4.9394886e-05 2542:0.001537681 2543:0.00046658676 2544:1.9757956e-05 2545:5.9273865e-05 2546:2.9636933e-05 2547:2.9636933e-05 2548:3.9515911e-05 2549:6.9868329e-05 2550:-1.2997667e-05 2551:2.9636933e-05 2552:6.1548693e-05 2553:3.4186589e-05 2554:2.2748266e-06 2555:-4.8349008e-05 2556:0.00023527938 2557:5.2321015e-05 2558:-5.6283552e-05 2559:0.00025223958 2560:1.4428631e-05 2561:0.00035700999 2562:0.0001101639 2563:0.000461469 2564:4.5496531e-06 2565:7.9031823e-05 2566:0.00034472786 2567:4.4065564e-05 2568:0.00032743727 2569:0.001243779 2570:3.0352414e-05 2571:-6.1089845e-06 2572:0.00010866876 2573:0.00016736501 2574:-3.34711e-05 2575:9.8789773e-05 2576:7.1427676e-05 2577:0.0007783022 2578:6.8373178e-05 2579:-4.4909415e-05 2580:3.1132091e-05 2581:-0.00014772595 2582:0.00043422572 2583:0.00083165971 2584:1.4428631e-05 2585:2.2748266e-06 2586:5.3944539e-05 2587:0.00059079425 2588:0.00014890016 2589:0.00021272367 2590:0.0011232226 2591:2.9636933e-05 2592:0.00055934122 2593:0.00094117236 2594:0.0031744083 2595:5.7714526e-05 2596:-5.1733903e-05 2597:4.5496531e-06 2598:2.2748266e-06 2599:2.9636933e-05 2600:0.00032295176 2601:6.0448115e-06 2602:-0.00036363245 2603:-0.00011191579 2604:0.00027882203 2605:0.0018794826 2606:0.0008790365 2607:0.00015728397 2608:1.2153803e-05 2609:-2.4673782e-06 2610:4.9394886e-05 2611:1.9757956e-05 2612:0.00056511979 2613:6.9152848e-05 2614:3.9515911e-05 2615:3.9515911e-05 2616:0.00061068049 2617:1.9757956e-05 2618:0.00019452507 2619:0.00036701735 2620:2.9636933e-05 2621:-0.00013732399 2622:0.00049388467 2623:0.00061776181 2624:4.2056952e-05 2625:0.0001511108 2626:0.00053340063 2627:0.00031307279 2628:3.3406915e-05 2629:2.9636933e-05 2630:2.9636933e-05 2631:2.9636933e-05 2632:0.00010866876 2633:2.9636933e-05 2634:5.1669715e-05 2635:3.9515911e-05 2636:-2.8921449e-05 2637:0.00016488812 2638:4.8615213e-05 2639:0.00026822754 2640:0.00030546865 2641:0.00036701735 2642:3.9515911e-05 2643:2.9636933e-05 2644:5.9273865e-05 2645:5.9989357e-05 2646:3.1911761e-05 2647:9.0993062e-06 2648:2.9636933e-05 2649:2.9636933e-05 2650:2.9636933e-05 2651:0.00012992187 2652:-0.0010498222 2653:1.9757956e-05 2654:2.9636933e-05 2655:1.9757956e-05 2656:0.00020440402 2657:0.0015820032 2658:0.00014513018 2659:0.00062536594 2660:0.0002416451 2661:0.00019985436 2662:6.9152848e-05 2663:4.5496531e-06 2664:1.9757956e-05 2665:1.9757956e-05 2666:1.9757956e-05 2667:0.00045424042 2668:0.00085388502 2669:0.00041257805 2670:0.00067775109 2671:0.00089287793 2672:1.9757956e-05 2673:2.2748266e-06 2674:1.9757956e-05 2675:0.00016398009 2676:1.4428631e-05 2677:-8.7608219e-05 2678:-0.00044155421 2679:-1.3713146e-05 2680:3.0352414e-05 2681:-2.0537627e-05 2682:-3.6525602e-05 2683:1.9693771e-05 2684:1.1374133e-05 2685:-1.2835413e-07 2686:-1.9106652e-05 2687:2.2748266e-06 2688:2.2748266e-06 2689:-0.00010222937 2690:-0.00099509791 2691:0.00010255975 2692:-0.00082669652 2693:0.0010967685 2694:0.00011094358 2695:0.00037156697 2696:-9.3973911e-05 2697:5.1669715e-05 2698:0.00025977957 2699:5.9273865e-05 2700:-0.00030773404 2701:4.0946881e-05 2702:-4.3350079e-05 2703:3.1911761e-05 2704:3.9515911e-05 2705:4.4781042e-05 2706:0.00012231772 2707:5.9273865e-05 2708:3.9515911e-05 2709:-4.6138443e-06 2710:1.9757956e-05 2711:0.00011009972 2712:0.00024229642 2713:-0.00012666539 2714:0.0001321967 2715:1.7033863e-05 2716:1.2153803e-05 2717:-1.3713146e-05 2718:-0.00012251026 2719:0.00013135285 2720:4.9394886e-05 2721:1.9757956e-05 2722:0.00024762572 2723:2.9636933e-05 2724:0.0022331718 2725:0.00068463973 2726:-0.00070835085 2727:0.0007728351 2728:0.00024391996 2729:0.00034017811 2730:0.00021200816 2731:0.00081989093 2732:0.00032600627 2733:0.0001504595 2734:0.00016794262 2735:4.9394886e-05 2736:0.00011854773 2737:0.00015494497 2738:-0.00043135433 2739:-9.9633646e-05 2740:0.0001778216 2741:0.00056310173 2742:0.00011854773 2743:0.00016320038 2744:0.00014051635 2745:0.00055699277 2746:0.00028876518 2747:0.00039509495 2748:0.00023326131 2749:0.00014818467 2750:0.0001778216 2751:0.00026140307 2752:0.00027128204 2753:0.00020745852 2754:0.00019757955 2755:0.00011991452 2756:8.2801802e-05 2757:0.00013297636 2758:1.9757956e-05 2759:3.1911761e-05 2760:4.1790736e-05 2761:2.2748266e-06 2762:0.00058812485 2763:2.2748266e-06 2764:9.2680777e-05 2765:0.0005807869 2766:5.1669715e-05 2767:1.1374133e-05 2768:-9.3973911e-05 2769:4.9394886e-05 2770:4.0231389e-05 2771:-0.00019542364 2772:0.0031465327 2773:0.00041862286 2774:0.00016638328 2775:3.9515911e-05 2776:2.9636933e-05 2777:9.0993062e-06 2778:0.00016027429 2779:3.1132091e-05 2780:-0.00016963034 2781:9.8789773e-05 2782:2.9636933e-05 2783:9.5735282e-05 2784:4.1790736e-05 2785:0.00019679987 2786:0.00010866876 2787:0.00029786449 2788:0.00015260596 2789:0.00038216147 2790:0.00010561426 2791:6.1301311e-05 2792:4.4065564e-05 2793:0.003307275 2794:0.00017021745 2795:5.8494195e-05 2796:0.00010866876 2797:0.00014513018 2798:6.8244799e-06 2799:2.9636933e-05 2800:4.9394886e-05 2801:2.9636933e-05 2802:2.9636933e-05 2803:2.9636933e-05 2804:2.9636933e-05 2805:2.9636933e-05 2806:2.9636933e-05 2807:2.9636933e-05 2808:2.9636933e-05 2809:2.9636933e-05 2810:2.9636933e-05 2811:2.9636933e-05 2812:2.9636933e-05 2813:2.9636933e-05 2814:2.9636933e-05 2815:2.9636933e-05 2816:6.9152848e-05 2817:6.9868329e-05 2818:0.00030163449 2819:6.5254477e-05 2820:0.00034304007 2821:4.9394886e-05 2822:-0.00048347347 2823:3.9515911e-05 2824:0.00038216147 2825:0.00084628083 2826:0.00035129546 2827:3.9515911e-05 2828:1.5923786e-05 2829:0.00027115367 2830:1.9757956e-05 2831:2.9636933e-05 2832:4.1790736e-05 2833:1.4428631e-05 2834:1.9757956e-05 2835:0.00013973666 2836:0.00059716951 2837:2.2032782e-05 2838:-0.00015084457 2839:0.00032594206 2840:0.00010106461 2841:5.6155175e-05 2842:-2.3592122e-05 2843:1.9757956e-05 2844:2.691275e-05 2845:-1.3841513e-05 2846:6.6749664e-05 2847:3.6461413e-05 2848:1.9757956e-05 2849:2.2748266e-06 2850:7.5399712e-06 2851:2.2032782e-05 2852:2.9636933e-05 2853:2.9636933e-05 2854:2.2748266e-06 2855:0.00012082255 2856:-9.6056217e-05 2857:0.00040010334 2858:1.0594465e-05 2859:0.001558292 2860:-6.8501555e-05 2861:1.9757956e-05 2862:1.4428631e-05 2863:-9.9697827e-05 2864:4.3285894e-05 2865:7.3702497e-05 2866:1.2153803e-05 2867:2.9636933e-05 2868:1.8198612e-05 2869:-2.0537627e-05 2870:-6.1612882e-05 2871:1.4428631e-05 2872:2.6582433e-05 2873:2.2748266e-06 2874:9.560692e-05 2875:-1.3061863e-05 2876:0.0001101639 2877:5.8494195e-05 2878:1.9757956e-05 2879:0.0010872105 2880:3.1911761e-05 2881:0.0011949163 2882:-1.6831827e-05 2883:0.00057896128 2884:2.9636933e-05 2885:0.00084907858 2886:5.2009473e-06 2887:0.00010561426 2888:0.0001244 2889:2.9636933e-05 2890:3.4186589e-05 2891:0.00029318649 2892:0.00013135285 2893:8.3581472e-05 2894:0.00028343586 2895:1.9757956e-05 2896:2.9636933e-05 2897:0.0001383057 2898:2.2032782e-05 2899:-2.5151467e-05 2900:3.9515911e-05 2901:2.9636933e-05 2902:2.9636933e-05 2903:0.0024302478 2904:0.0017960938 2905:1.670346e-05 2906:5.9209691e-05 2907:0.00015422948 2908:8.7351458e-05 2909:2.9636933e-05 2910:2.4307607e-05 2911:0.0002826562 2912:0.00032977623 2913:4.6340389e-05 2914:6.291546e-05 2915:5.3944539e-05 2916:5.1669715e-05 2917:0.0010347611 2918:0.0011406415 2919:0.0010992358 2920:0.00067515537 2921:-1.6767643e-05 2922:2.2748266e-06 2923:0.00012537221 2924:0.00025607375 2925:6.1548693e-05 2926:8.8131128e-05 2927:8.8131128e-05 2928:0.00010561426 2929:0.0006099008 2930:0.00029019616 2931:4.6340389e-05 2932:1.9757956e-05 2933:1.670346e-05 2934:6.8244799e-06 2935:4.9394886e-05 2936:2.9636933e-05 2937:6.8373178e-05 2938:2.2748266e-06 2939:2.9636933e-05 2940:0.00018159159 2941:0.00080832432 2942:-6.8501555e-05 2943:0.0034558261 2944:8.5012434e-05 2945:0.00053112581 2946:5.9273865e-05 2947:2.2748266e-06 2948:3.6461413e-05 2949:9.8010103e-05 2950:0.00059638027 2951:0.00010106461 2952:0.00011549324 2953:1.9757956e-05 2954:-8.3838213e-06 2955:0.00024691026 2956:6.9152848e-05 2957:2.2032782e-05 2958:3.9515911e-05 2959:-4.7184243e-05 2960:2.2748266e-06 2961:2.9636933e-05 2962:0.00023176614 2963:0.00065578253 2964:4.9394886e-05 2965:1.9757956e-05 2966:5.6219371e-05 2967:1.9757956e-05 2968:3.9515911e-05 2969:0.00042142058 2970:1.2869292e-05 2971:0.00089008961 2972:0.00045651529 2973:3.9515911e-05 2974:0.00012004289 2975:0.00018614123 2976:1.2153803e-05 2977:-0.00027160297 2978:3.4186589e-05 2979:0.00010561426 2980:7.9747304e-05 2981:1.9757956e-05 2982:5.9273865e-05 2983:7.3702497e-05 2984:1.8978284e-05 2985:4.8615213e-05 2986:0.00040198359 2987:1.9757956e-05 2988:4.9394886e-05 2989:3.9515911e-05 2990:4.9394886e-05 2991:1.9757956e-05 2992:3.9515911e-05 2993:5.2385192e-05 2994:1.9757956e-05 2995:1.9757956e-05 2996:2.9636933e-05 2997:1.9757956e-05 2998:6.0769016e-05 2999:6.8244799e-06 3000:0.00015988921 3001:0.0002137695 3002:3.1911761e-05 3003:2.2748266e-06 3004:3.1911761e-05 3005:8.8910798e-05 3006:0.00026822754 3007:0.00041712771 3008:3.9515911e-05 3009:-0.00084885763 3010:4.4065564e-05 3011:0.00015273433 3012:0.00015806365 3013:8.1306651e-05 3014:0.00036545802 3015:0.00031606309 3016:0.00081820326 3017:0.0023728444 3018:0.00032977623 3019:3.9515911e-05 3020:9.8789773e-05 3021:0.00013284798 3022:5.8494195e-05 3023:0.00042479605 3024:1.9757956e-05 3025:0.0003184021 3026:0.00024073708 3027:5.3944539e-05 3028:5.9273865e-05 3029:0.00023618745 3030:2.2032782e-05 3031:7.0648006e-05 3032:0.00073495199 3033:0.00042905315 3034:0.00014116765 3035:0.00087208365 3036:0.00015721978 3037:0.00035863352 3038:2.4307607e-05 3039:4.8615213e-05 3040:2.8857263e-05 3041:0.00025984374 3042:2.9636933e-05 3043:1.9757956e-05 3044:1.9757956e-05 3045:2.2032782e-05 3046:1.9757956e-05 3047:2.2032782e-05 3048:0.00013070153 3049:3.6461413e-05 3050:0.00054256408 3051:0.00013297636 3052:1.8978284e-05 3053:1.9757956e-05 3054:2.2032782e-05 3055:-5.3293238e-06 3056:0.00081898289 3057:4.9394886e-05 3058:3.1132091e-05 3059:3.8736242e-05 3060:4.4065564e-05 3061:4.1790736e-05 3062:6.375934e-05 3063:0.00010333943 3064:-5.3293238e-06 3065:2.9636933e-05 3066:0.00055913924 3067:0.00032594206 3068:3.4186589e-05 3069:0.00087084511 3070:0.0001997902 3071:4.1790736e-05 3072:0.00035479933 3073:4.5496531e-06 3074:0.00021194399 3075:8.58563e-05 3076:0.00030852313 3077:0.00070095807 3078:2.9636933e-05 3079:0.00011854773 3080:3.9515911e-05 3081:1.9757956e-05 3082:5.1669715e-05 3083:1.9757956e-05 3084:1.2153803e-05 3085:-0.00062807131 3086:0.00051741261 3087:0.00021343918 3088:0.0001153007 3089:-1.3061863e-05 3090:-8.7544002e-05 3091:0.00010535747 3092:3.9515911e-05 3093:0.00029403032 3094:0.0002556245 3095:-0.00084490457 3096:-0.00013797529 3097:1.9757956e-05 3098:4.6340389e-05 3099:3.9515911e-05 3100:0.0003464155 3101:0.00015117496 3102:1.9757956e-05 3103:0.00035934901 3104:3.1911761e-05 3105:0.0017845912 3106:-7.7967252e-07 3107:0.00071655156 3108:0.00012082255 3109:5.7714526e-05 3110:-3.6525602e-05 3111:-0.00021433769 3112:2.2748266e-06 3113:0.00026361374 3114:0.00045027793 3115:1.2153803e-05 3116:0.00035707414 3117:0.00012842671 3118:4.9394886e-05 3119:1.9757956e-05 3120:3.1911761e-05 3121:1.9757956e-05 3122:0.00034264557 3123:0.00015195465 3124:0.00017320777 3125:1.9757956e-05 3126:1.9757956e-05 3127:0.00011243874 3128:1.9757956e-05 3129:0.00052644772 3130:0.00094077771 3131:3.9515911e-05 3132:5.3944539e-05 3133:1.5859592e-05 3134:0.00073137472 3135:-0.00011185164 3136:0.00026887885 3137:0.00010483459 3138:0.00014435049 3139:1.9757956e-05 3140:1.9757956e-05 3141:-1.559345e-06 3142:2.2748266e-06 3143:1.2153803e-05 3144:2.2032782e-05 3145:0.00014285535 3146:2.4307607e-05 3147:0.00043370284 3148:0.00037078734 3149:0.00075132522 3150:9.1185633e-05 3151:0.00018770057 3152:0.00013570995 3153:0.00015877913 3154:9.4175935e-05 3155:0.0025214143 3156:0.00037540114 3157:4.62762e-05 3158:-5.1018407e-05 3159:5.1669715e-05 3160:-0.00074955449 3161:0.00096086593 3162:0.00021649364 3163:1.8978284e-05 3164:0.00010483459 3165:0.00064948096 3166:1.9757956e-05 3167:2.2748266e-06 3168:1.9757956e-05 3169:0.0002431403 3170:0.0001997902 3171:0.00024665351 3172:0.00023007844 3173:1.9757956e-05 3174:4.5496531e-06 3175:5.9273865e-05 3176:0.00010255975 3177:9.4955605e-05 3178:0.00048920669 3179:0.00032893239 3180:6.5254477e-05 3181:-5.4008728e-05 3182:8.8066947e-05 3183:0.00056050596 3184:0.0001132184 3185:0.00013057316 3186:0.00018529735 3187:7.1427676e-05 3188:3.9515911e-05 3189:3.1911761e-05 3190:3.9515911e-05 3191:1.9757956e-05 3192:1.495156e-06 3193:1.2153803e-05 3194:1.9757956e-05 3195:-4.3350079e-05 3196:2.2748266e-06 3197:2.9636933e-05 3198:0.00031300861 3199:7.3702497e-05 3200:8.8910798e-05 3201:4.1790736e-05 3202:0.00059650867 3203:0.0011337434 3204:0.0022797049 3205:5.6219371e-05 3206:7.3702497e-05 3207:7.4757781e-06 3208:1.9757956e-05 3209:-2.4435976e-05 3210:1.9757956e-05 3211:3.9515911e-05 3212:0.00087585358 3213:0.00037540114 3214:2.9636933e-05 3215:2.9636933e-05 3216:1.9757956e-05 3217:1.9757956e-05 3218:1.9757956e-05 3219:1.9757956e-05 3220:2.9636933e-05 3221:1.9757956e-05 3222:1.9757956e-05 3223:1.9757956e-05 3224:1.9757956e-05 3225:1.9757956e-05 3226:1.9757956e-05 3227:1.9757956e-05 3228:1.9757956e-05 3229:1.9757956e-05 3230:1.9757956e-05 3231:1.9757956e-05 3232:2.9636933e-05 3233:3.9515911e-05 3234:8.4948275e-05 3235:0.00040277268 3236:0.00044975497 3237:0.0011677375 3238:0.00045268107 3239:0.00024541508 3240:0.0002857107 3241:-0.00032704268 3242:-0.00010496296 3243:1.9757956e-05 3244:2.4307607e-05 3245:0.00015338563 3246:0.00042388798 3247:9.3460461e-05 3248:8.1306651e-05 3249:8.1306651e-05 3250:2.9636933e-05 3251:3.1911761e-05 3252:-0.00020145887 3253:-2.8398546e-05 3254:3.9515911e-05 3255:0.00016033847 3256:2.3335402e-05 3257:0.00024600219 3258:0.0004808229 3259:8.3581472e-05 3260:7.3702497e-05 3261:3.1911761e-05 3262:0.00022487748 3263:0.0012058866 3264:0.000218053 3265:8.8910798e-05 3266:0.00062309112 3267:0.00035168065 3268:-5.3293238e-06 3269:-6.8886702e-06 3270:-0.0010294771 3271:6.375934e-05 3272:4.9394886e-05 3273:2.2748266e-06 3274:1.9757956e-05 3275:7.3702497e-05 3276:2.8857263e-05 3277:-8.3838213e-06 3278:0.0001192632 3279:0.00014058052 3280:4.9394886e-05 3281:0.0005674588 3282:1.9757956e-05 3283:2.2032782e-05 3284:9.1185633e-05 3285:0.00021669567 3286:0.00012537221 3287:9.0351105e-06 3288:0.00041244971 3289:0.00034544329 3290:0.0024161302 3291:0.00027121784 3292:0.00012842671 3293:0.0001383057 3294:0.00014058052 3295:0.00010561426 3296:0.00020128534 3297:0.00019452507 3298:0.00011854773 3299:0.00083054969 3300:0.00090873754 3301:0.00012914221 3302:-5.4008728e-05 3303:-3.9644292e-05 3304:1.495156e-06 3305:-0.00086557062 3306:0.00053405191 3307:0.00012537221 3308:-3.1260464e-05 3309:2.9903119e-06 3310:-0.0011722683 3311:-2.8141776e-05 3312:1.2153803e-05 3313:1.495156e-06 3314:1.9757956e-05 3315:1.9757956e-05 3316:1.364896e-05 3317:0.00033790336 3318:1.9757956e-05 3319:5.9273865e-05 3320:7.4417985e-05 3321:-5.0954233e-05 3322:0.00011854773 3323:-6.8886702e-06 3324:0.00040952355 3325:-5.3293238e-06 3326:6.3823521e-05 3327:0.00026510889 3328:0.00043077665 3329:5.3944539e-05 3330:0.0021163216 3331:0.00015273433 3332:2.3463757e-05 3333:0.0006386484 3334:7.5197655e-05 3335:2.6582433e-05 3336:3.1911761e-05 3337:2.4307607e-05 3338:2.9636933e-05 3339:2.4307607e-05 3340:0.00024391996 3341:0.00025815604 3342:2.2748266e-06 3343:4.5496531e-06 3344:2.2748266e-06 3345:6.1548693e-05 3346:2.2032782e-05 3347:2.9636933e-05 3348:0.00053002522 3349:1.2153803e-05 3350:0.00012309739 3351:0.00027277719 3352:2.2032782e-05 3353:-2.7554681e-05 3354:9.5671101e-05 3355:-0.00016352134 3356:3.1911761e-05 3357:0.0012504109 3358:0.00068541948 3359:0.00070738804 3360:0.00077719224 3361:5.2385192e-05 3362:1.8978284e-05 3363:-0.00011360349 3364:2.9636933e-05 3365:3.9515911e-05 3366:1.2153803e-05 3367:3.4186589e-05 3368:1.7418946e-05 3369:1.8198612e-05 3370:5.6219371e-05 3371:0.0006040486 3372:2.2748266e-06 3373:3.1911761e-05 3374:-3.0544982e-06 3375:1.9757956e-05 3376:0.00016541101 3377:6.7593501e-05 3378:0.00026887885 3379:-5.8943526e-05 3380:5.0110382e-05 3381:0.0030901756 3382:2.2032782e-05 3383:0.00069984811 3384:8.58563e-05 3385:0.00010333943 3386:2.9636933e-05 3387:3.9515911e-05 3388:3.1911761e-05 3389:0.00052417291 3390:3.9515911e-05 3391:1.670346e-05 3392:0.0011108026 3393:0.00035708371 3394:1.2153803e-05 3395:-5.4980945e-05 3396:2.9636933e-05 3397:0.00037767595 3398:3.9515911e-05 3399:3.9515911e-05 3400:0.00012907802 3401:4.1790736e-05 3402:1.9757956e-05 3403:3.9515911e-05 3404:0.00076659769 3405:-0.00094037375 3406:1.9757956e-05 3407:1.9757956e-05 3408:0.00020212922 3409:2.2032782e-05 3410:0.00011738286 3411:1.9757956e-05 3412:1.9757956e-05 3413:1.9757956e-05 3414:8.8910798e-05 3415:1.9757956e-05 3416:1.9757956e-05 3417:3.9515911e-05 3418:0.00090087665 3419:0.00020433986 3420:2.9636933e-05 3421:6.1548693e-05 3422:0.00011393389 3423:0.0028833041 3424:0.00054028927 3425:7.9031823e-05 3426:2.2032782e-05 3427:0.00068009016 3428:9.1185633e-05 3429:1.9757956e-05 3430:2.2748266e-06 3431:2.9636933e-05 3432:5.9273865e-05 3433:0.00024924928 3434:2.1253109e-05 3435:1.8134418e-05 3436:0.00051702751 3437:2.2032782e-05 3438:2.4307607e-05 3439:1.2153803e-05 3440:3.9515911e-05 3441:0.00021200816 3442:3.9515911e-05 3443:0.00018419676 3444:0.0030864056 3445:3.0288234e-05 3446:0.00036201841 3447:2.2032782e-05 3448:0.0016237939 3449:0.00023703127 3450:1.7290571e-05 3451:-0.00020154209 3452:4.1726547e-05 3453:-8.0004036e-05 3454:0.00010321104 3455:-0.00011711677 3456:2.2748266e-06 3457:0.00057052291 3458:2.2032782e-05 3459:1.2153803e-05 3460:0.00026030242 3461:5.1669715e-05 3462:0.00011315422 3463:0.00016794262 3464:0.00023703127 3465:-0.00013102246 3466:-5.3293238e-06 3467:3.9515911e-05 3468:4.1790736e-05 3469:2.7949216e-05 3470:1.5923786e-05 3471:-2.6646616e-05 3472:-3.503044e-05 3473:-5.3293238e-06 3474:0.00017008906 3475:8.507663e-05 3476:4.6340389e-05 3477:5.0890041e-05 3478:-3.4250777e-05 3479:-5.3293238e-06 3480:1.364896e-05 3481:0.00019602021 3482:1.3584783e-05 3483:0.00015273433 3484:0.00012505127 3485:0.00015241338 3486:1.9757956e-05 3487:2.2748266e-06 3488:1.9757956e-05 3489:-6.1089963e-06 3490:-0.00038722457 3491:-3.5745928e-05 3492:0.00012309739 3493:-3.3012402e-05 3494:1.495156e-06 3495:0.00050805655 3496:0.00034011394 3497:-0.00032709725 3498:0.00054555439 3499:0.00016937357 3500:0.00045502008 3501:1.9757956e-05 3502:0.00018750802 3503:2.2032782e-05 3504:5.3944539e-05 3505:1.9757956e-05 3506:5.1669715e-05 3507:0.0008553802 3508:1.9757956e-05 3509:3.1911761e-05 3510:1.9757956e-05 3511:2.2032782e-05 3512:5.6155175e-05 3513:0.00025984374 3514:1.9757956e-05 3515:2.4307607e-05 3516:3.9515911e-05 3517:3.1911761e-05 3518:5.3944539e-05 3519:4.1011066e-05 3520:1.9757956e-05 3521:1.8978284e-05 3522:-0.00049562717 3523:0.00014266274 3524:2.4307607e-05 3525:0.00011854773 3526:1.9757956e-05 3527:1.9757956e-05 3528:2.2748265e-05 3529:0.0007326132 3530:1.9757956e-05 3531:-1.8262801e-05 3532:-0.0025667443 3533:-6.1089963e-06 3534:0.00011542905 3535:8.58563e-05 3536:0.00020804566 3537:8.58563e-05 3538:0.00075002265 3539:3.3406919e-05 3540:-2.8921449e-05 3541:0.00020895369 3542:0.00075224257 3543:0.00010866876 3544:2.2748266e-06 3545:-4.4909426e-05 3546:9.8725584e-05 3547:1.9757956e-05 3548:7.7472483e-05 3549:5.3944539e-05 3550:0.00021792461 3551:1.9757956e-05 3552:4.7835551e-05 3553:0.00011549324 3554:0.00010776069 3555:0.0001631362 3556:0.00029013198 3557:0.00011854773 3558:0.00010327524 3559:4.4001375e-05 3560:2.9636933e-05 3561:2.9636933e-05 3562:4.4065564e-05 3563:2.9636933e-05 3564:1.670346e-05 3565:2.9636933e-05 3566:0.00034862617 3567:6.0769016e-05 3568:-0.00012562895 3569:4.6340389e-05 3570:1.9757956e-05 3571:5.9273865e-05 3572:0.00087442261 3573:2.9636933e-05 3574:-0.00028531611 3575:0.00057369616 3576:0.00023631581 3577:2.8857263e-05 3578:4.9394886e-05 3579:-1.2933476e-05 3580:0.00045664361 3581:3.1911761e-05 3582:9.1185633e-05 3583:1.9757956e-05 3584:0.00084946363 3585:1.9757956e-05 3586:1.9693771e-05 3587:0.00052443909 3588:0.00095768319 3589:0.00018159159 3590:2.9636933e-05 3591:0.00063680421 3592:1.2153803e-05 3593:5.0890041e-05 3594:4.5496531e-06 3595:1.8134418e-05 3596:8.1306651e-05 3597:0.0001656036 3598:0.00016105395 3599:3.4186589e-05 3600:4.9394886e-05 3601:0.0003986723 3602:-0.00027569389 3603:0.00033575686 3604:0.00023163776 3605:1.495156e-06 3606:-3.8341718e-06 3607:-0.0047471914 3608:1.8978284e-05 3609:1.1374133e-05 3610:2.2748266e-06 3611:-0.00039925001 3612:1.9757956e-05 3613:0.00011243874 3614:2.6582433e-05 3615:7.5977325e-05 3616:8.3453095e-05 3617:-2.4371799e-05 3618:1.2153803e-05 3619:4.9394886e-05 3620:0.0015680334 3621:0.00057278818 3622:0.0012436504 3623:1.2153803e-05 3624:3.4186589e-05 3625:1.9757956e-05 3626:6.3823521e-05 3627:-5.3293238e-06 3628:9.3396258e-05 3629:0.00020284471 3630:4.8615213e-05 3631:1.9757956e-05 3632:4.5496531e-06 3633:2.2032782e-05 3634:7.1427676e-05 3635:5.9209691e-05 3636:0.00017314358 3637:5.9273865e-05 3638:3.9515911e-05 3639:3.9515911e-05 3640:9.4047544e-05 3641:2.9636933e-05 3642:0.00037605246 3643:-6.1089963e-06 3644:0.00025828442 3645:0.00015273433 3646:2.2032782e-05 3647:0.00010106461 3648:-0.0001987444 3649:0.00024918508 3650:0.00065026066 3651:1.9757956e-05 3652:0.0002674479 3653:7.8187957e-05 3654:3.9515911e-05 3655:0.00027654719 3656:2.2748266e-06 3657:1.2153803e-05 3658:9.7945907e-05 3659:0.00015877913 3660:1.9757956e-05 3661:-2.365631e-05 3662:0.00045579975 3663:-0.001481571 3664:3.3342716e-05 3665:8.1306651e-05 3666:3.1911761e-05 3667:1.9757956e-05 3668:1.670346e-05 3669:0.00026367791 3670:2.2748266e-06 3671:1.9757956e-05 3672:1.9757956e-05 3673:0.00016086135 3674:-5.3293238e-06 3675:-0.00086641451 3676:2.1124733e-05 3677:5.6219371e-05 3678:0.00027271302 3679:9.7230426e-05 3680:3.1911761e-05 3681:4.5496531e-06 3682:9.1901107e-05 3683:6.8244799e-06 3684:0.00024977219 3685:1.9757956e-05 3686:-1.0658648e-05 3687:0.00011698839 3688:-4.4322322e-05 3689:0.00037306212 3690:1.364896e-05 3691:-1.5272493e-05 3692:-6.4667372e-05 3693:0.00043454664 3694:2.9636933e-05 3695:6.1548693e-05 3696:0.00013434316 3697:2.2032782e-05 3698:4.5496531e-06 3699:3.1911761e-05 3700:-6.8886702e-06 3701:1.2153803e-05 3702:0.00027732685 3703:0.00018386642 3704:-4.7184243e-05 3705:3.3406919e-05 3706:0.0010196812 3707:0.00028818747 3708:7.0648006e-05 3709:-0.00021504392 3710:0.00020817401 3711:2.2106487e-06 3712:0.00025074443 3713:0.00076198386 3714:8.3196383e-06 3715:3.7699856e-06 3716:1.9757956e-05 3717:-6.4016072e-05 3718:3.9515911e-05 3719:0.0009801652 3720:4.1790736e-05 3721:6.609835e-05 3722:2.2748266e-06 3723:-2.3592122e-05 3724:3.4186589e-05 3725:2.2748266e-06 3726:1.2153803e-05 3727:0.0001899754 3728:1.9757956e-05 3729:0.00036077996 3730:1.0530286e-05 3731:-1.8262801e-05 3732:1.9757956e-05 3733:2.2748266e-06 3734:-1.5987973e-05 3735:0.00017249228 3736:0.0020133029 3737:-0.00015975136 3738:0.00036176149 3739:2.2032782e-05 3740:2.9903119e-06 3741:7.9031823e-05 3742:0.00010106461 3743:0.0001132184 3744:1.2153803e-05 3745:7.0648006e-05 3746:1.9757956e-05 3747:7.0648006e-05 3748:9.0993062e-06 3749:1.9757956e-05 3750:6.8373178e-05 3751:0.0002187685 3752:0.0011321841 3753:-0.00057121943 3754:0.00046730225 3755:0.00071213976 3756:-7.3766685e-05 3757:-0.00010197266 3758:0.00051734847 3759:9.0993062e-06 3760:2.9636933e-05 3761:2.2748266e-06 3762:8.58563e-05 3763:1.9757956e-05 3764:2.9636933e-05 3765:2.2748266e-06 3766:2.9636933e-05 3767:1.9757956e-05 3768:2.4307607e-05 3769:0.0010580322 3770:6.7593501e-05 3771:-1.8262801e-05 3772:3.4186589e-05 3773:0.00082892604 3774:8.8910798e-05 3775:3.9515911e-05 3776:4.4065564e-05 3777:8.1306651e-05 3778:2.6582433e-05 3779:3.9515911e-05 3780:1.9757956e-05 3781:1.4428631e-05 3782:0.00013493022 3783:9.8789773e-05 3784:4.4065564e-05 3785:0.00060788274 3786:0.00026283402 3787:5.9273865e-05 3788:2.9636933e-05 3789:4.9394886e-05 3790:1.9757956e-05 3791:5.6219371e-05 3792:0.00018009642 3793:2.6582433e-05 3794:1.670346e-05 3795:9.4175935e-05 3796:1.1704486e-05 3797:4.1790736e-05 3798:2.9636933e-05 3799:5.6934841e-05 3800:2.2748266e-06 3801:5.0890041e-05 3802:3.2627238e-05 3803:8.58563e-05 3804:7.5977325e-05 3805:0.0014524759 3806:5.9732625e-05 3807:0.0009874485 3808:0.0006234856 3809:0.002131456 3810:0.00022104333 3811:3.9515911e-05 3812:1.9757956e-05 3813:0.00021954815 3814:0.00092362484 3815:5.1669715e-05 3816:3.9515911e-05 3817:6.3823521e-05 3818:1.9757956e-05 3819:0.00022416201 3820:6.8244799e-06 3821:0.00020655048 3822:3.9515911e-05 3823:1.9757956e-05 3824:5.0046187e-05 3825:-0.0003719521 3826:1.9757956e-05 3827:1.9757956e-05 3828:1.9757956e-05 3829:2.9636933e-05 3830:2.9636933e-05 3831:2.9636933e-05 3832:0.0001383057 3833:6.1548693e-05 3834:1.9757956e-05 3835:1.9757956e-05 3836:3.9515911e-05 3837:1.9757956e-05 3838:1.9757956e-05 3839:1.9757956e-05 3840:1.9757956e-05 3841:0.0013087407 3842:0.00031606309 3843:2.0473441e-05 3844:2.4307607e-05 3845:9.0993062e-06 3846:0.00012381286 3847:5.1669715e-05 3848:1.9757956e-05 3849:4.9394886e-05 3850:2.2748266e-06 3851:8.332474e-05 3852:9.5671101e-05 3853:0.0011702048 3854:8.0526974e-05 3855:0.00033419751 3856:8.3581472e-05 3857:0.00017704192 3858:0.00058130035 3859:0.00014227765 3860:0.00011315422 3861:0.00018380221 3862:4.62762e-05 3863:-0.00031410923 3864:0.00010866876 3865:0.00019452507 3866:0.00010106461 3867:-8.3838213e-06 3868:7.1427676e-05 3869:5.0110382e-05 3870:2.2748266e-06 3871:0.00012530801 3872:4.0167193e-05 3873:0.00064350036 3874:7.8252153e-05 3875:4.1790736e-05 3876:2.9636933e-05 3877:-5.1733903e-05 3878:0.00037826312 3879:-1.8262801e-05 3880:1.9757956e-05 3881:3.1911761e-05 3882:0.00020362435 3883:0.00087149651 3884:0.00015195465 3885:-0.00033671031 3886:-6.3951891e-05 3887:0.00019147056 3888:2.2748266e-06 3889:5.6219371e-05 3890:0.00026595272 3891:-3.34711e-05 3892:2.9636933e-05 3893:0.00040347877 3894:6.0448115e-06 3895:0.00079558336 3896:0.0001997902 3897:3.4186589e-05 3898:0.00017762906 3899:8.1306651e-05 3900:9.8789773e-05 3901:7.9031823e-05 3902:0.00015650431 3903:0.00076640525 3904:4.6340389e-05 3905:2.3527935e-05 3906:0.00023475644 3907:0.00025133157 3908:3.9515911e-05 3909:-1.2933476e-05 3910:1.9757956e-05 3911:6.9152848e-05 3912:1.9757956e-05 3913:2.4307607e-05 3914:0.0015309302 3915:0.00014818467 3916:-1.559345e-06 3917:0.00053021777 3918:3.5489185e-05 3919:-1.0851192e-05 3920:0.00045560717 3921:3.9515911e-05 3922:6.9152848e-05 3923:0.0011807351 3924:0.00033718784 3925:0.00014357083 3926:0.00020284471 3927:7.5977325e-05 3928:2.4307607e-05 3929:5.265143e-06 3930:0.00033426171 3931:-0.00010132138 3932:-5.3293238e-06 3933:0.00026582438 3934:6.3043852e-05 3935:1.2153803e-05 3936:0.00049291248 3937:-1.0658648e-05 3938:8.0526974e-05 3939:3.1132091e-05 3940:-5.3293238e-06 3941:2.9636933e-05 3942:2.2748266e-06 3943:2.5802761e-05 3944:-4.6404577e-05 3945:0.00010503658 3946:2.9636933e-05 3947:0.00056459691 3948:0.00016943777 3949:6.8244799e-06 3950:3.6461413e-05 3951:2.9636933e-05 3952:0.0001808119 3953:0.00018295836 3954:1.9757956e-05 3955:1.9757956e-05 3956:0.00041832065 3957:0.00046120252 3958:0.0010380081 3959:0.0001321967 3960:0.00037364921 3961:-7.9875681e-05 3962:0.0011640958 3963:2.2032782e-05 3964:7.0648006e-05 3965:2.2032782e-05 3966:0.00010932003 3967:-1.2933476e-05 3968:0.00083198067 3969:1.9757956e-05 3970:-1.2933476e-05 3971:9.8789773e-05 3972:0.00012842671 3973:1.9757956e-05 3974:0.00086915749 3975:4.9394886e-05 3976:0.00053710642 3977:0.00030624832 3978:0.00020518369 3979:4.5496531e-06 3980:-3.0544982e-06 3981:-5.0302933e-05 3982:-0.00038345464 3983:5.6219371e-05 3984:2.2748266e-06 3985:0.00015500915 3986:6.9152848e-05 3987:-0.00014532272 3988:-4.4450655e-05 3989:-3.8800426e-05 3990:2.9636933e-05 3991:1.9757956e-05 3992:5.6219371e-05 3993:-5.3293238e-06 3994:-1.2933476e-05 3995:4.5496531e-06 3996:1.9757956e-05 3997:5.9145492e-05 3998:0.00021545718 3999:1.4428631e-05 4000:0.00087370712 4001:0.00033816008 4002:-1.9042467e-05 4003:2.9636933e-05 4004:1.2153803e-05 4005:-5.3293238e-06 4006:3.8736242e-05 4007:1.9757956e-05 4008:2.4307607e-05 4009:0.00016625492 4010:0.00011094358 4011:0.0001504595 4012:0.00015728397 4013:2.9636933e-05 4014:-0.00040736765 4015:6.8244799e-06 4016:9.1185633e-05 4017:8.58563e-05 4018:0.00016183362 4019:5.6934841e-05 4020:2.9636933e-05 4021:-5.3293238e-06 4022:3.9515911e-05 4023:1.9757956e-05 4024:5.8494195e-05 4025:0.00022188717 4026:0.00020044153 4027:7.3702497e-05 4028:0.00037000762 4029:8.58563e-05 4030:0.0015630891 4031:-6.167707e-05 4032:0.0012968797 4033:0.0005743475 4034:-8.9680972e-05 4035:0.00010866876 4036:0.0011700123 4037:3.9515911e-05 4038:2.6582433e-05 4039:0.00040796419 4040:-0.0001174377 4041:4.5496531e-06 4042:1.9757956e-05 4043:5.9273865e-05 4044:3.1911761e-05 4045:1.670346e-05 4046:0.00015799944 4047:0.0010369075 4048:1.9757956e-05 4049:-1.8262801e-05 4050:-0.00098424661 4051:8.3196383e-06 4052:-0.001077643 4053:8.3581472e-05 4054:0.00057213684 4055:-0.00067110971 4056:4.3285894e-05 4057:7.7472483e-05 4058:-6.4177065e-08 4059:4.9394886e-05 4060:1.2153803e-05 4061:-1.0658648e-05 4062:7.8252153e-05 4063:0.00035148804 4064:6.609835e-05 4065:0.00055147079 4066:-2.5866952e-05 4067:2.2748266e-06 4068:1.9757956e-05 4069:-1.0658648e-05 4070:3.3278553e-05 4071:1.2153803e-05 4072:-1.0658648e-05 4073:0.00035077255 4074:1.9757956e-05 4075:-1.3713146e-05 4076:-5.3293238e-06 4077:2.2748266e-06 4078:5.1669715e-05 4079:0.00052053132 4080:0.00036968666 4081:9.0341775e-05 4082:1.9757956e-05 4083:6.0769016e-05 4084:7.0583825e-05 4085:7.1427676e-05 4086:6.3823521e-05 4087:-9.4368486e-05 4088:0.00036701735 4089:0.00089502445 4090:3.9515911e-05 4091:0.00010860457 4092:2.2748266e-06 4093:0.0006078186 4094:-4.4909415e-05 4095:6.9152848e-05 4096:0.0002416451 4097:0.0008517385 4098:0.0016352964 4099:1.9757956e-05 4100:5.9273865e-05 4101:0.00011165906 4102:2.9636933e-05 4103:0.00058384147 4104:5.9273865e-05 4105:3.1911761e-05 4106:1.9757956e-05 4107:5.9273865e-05 4108:1.9757956e-05 4109:0.00011854773 4110:7.9031823e-05 4111:-5.4072909e-05 4112:1.9757956e-05 4113:-0.00010716412 4114:-5.3293238e-06 4115:0.00021428302 4116:0.00026485205 4117:0.0004642478 4118:1.2153803e-05 4119:4.7835551e-05 4120:1.2153803e-05 4121:2.6582433e-05 4122:0.00086663524 4123:0.00012914221 4124:0.000914654 4125:0.00018685673 4126:1.9757956e-05 4127:4.1790736e-05 4128:8.8131128e-05 4129:5.6219371e-05 4130:1.3456375e-05 4131:0.0002643934 4132:0.00048478536 4133:1.9757956e-05 4134:6.609835e-05 4135:2.9636933e-05 4136:0.00013297636 4137:5.9273865e-05 4138:2.2032782e-05 4139:-0.00027127261 4140:2.9636933e-05 4141:1.9693771e-05 4142:0.0001007437 4143:-0.00019855177 4144:-3.34711e-05 4145:2.9636933e-05 4146:-0.00019699245 4147:-0.00091509393 4148:8.3196383e-06 4149:-9.2276887e-06 4150:0.00016242074 4151:-3.1196276e-05 4152:0.00015182627 4153:1.9757956e-05 4154:0.00061282696 4155:0.00014890016 4156:-6.9996706e-05 4157:6.3823521e-05 4158:4.2442018e-05 4159:2.1253109e-05 4160:1.9757956e-05 4161:1.9757956e-05 4162:0.00010106461 4163:0.00057961268 4164:8.3581472e-05 4165:0.00015877913 4166:3.3406919e-05 4167:0.00028636202 4168:3.7956568e-05 4169:1.495156e-06 4170:0.00017021745 4171:0.00015500915 4172:2.2748266e-06 4173:2.2748266e-06 4174:0.0002233823 4175:0.0001534498 4176:1.9757956e-05 4177:-0.00029669027 4178:0.00013526065 4179:0.0016128143 4180:-0.00050811138 4181:0.00072110118 4182:-9.5083982e-05 4183:-0.0021463791 4184:4.5496531e-06 4185:4.5496531e-06 4186:1.9757956e-05 4187:1.2153803e-05 4188:-0.00027550128 4189:6.9152848e-05 4190:0.00016794262 4191:5.6219371e-05 4192:2.9636933e-05 4193:0.00020635789 4194:-3.8213304e-05 4195:4.5496531e-06 4196:0.00015702723 4197:0.00030293706 4198:0.0015543202 4199:7.2858653e-05 4200:4.1790736e-05 4201:1.2153803e-05 4202:-6.5639622e-05 4203:5.9273865e-05 4204:4.9394886e-05 4205:3.9515911e-05 4206:-0.00069899485 4207:1.9757956e-05 4208:0.00035791803 4209:8.1306651e-05 4210:5.2009473e-06 4211:-1.8262801e-05 4212:0.00017249228 4213:0.00010106461 4214:0.00068769429 4215:3.9515911e-05 4216:0.00079473952 4217:1.2153803e-05 4218:4.5496531e-06 4219:2.2748266e-06 4220:0.00051669712 4221:0.00021961234 4222:3.4186589e-05 4223:0.00069472083 4224:5.7714526e-05 4225:7.968313e-05 4226:-0.0014825433 4227:0.00010327524 4228:-8.3838213e-06 4229:7.3702497e-05 4230:0.00015728397 4231:0.00025568862 4232:0.00057577842 4233:4.7835551e-05 4234:0.00014116765 4235:1.670346e-05 4236:1.9757956e-05 4237:0.00034037072 4238:0.00020583501 4239:0.0010194887 4240:1.9757956e-05 4241:2.5802761e-05 4242:4.5496531e-06 4243:1.9757956e-05 4244:2.9636933e-05 4245:1.8978284e-05 4246:1.9757956e-05 4247:3.9515911e-05 4248:3.9515911e-05 4249:2.9636933e-05 4250:7.5977325e-05 4251:2.9636933e-05 4252:3.9515911e-05 4253:2.9636933e-05 4254:3.9515911e-05 4255:3.9515911e-05 4256:0.00048153839 4257:-0.00011029228 4258:2.9636933e-05 4259:2.1968597e-05 4260:0.00026822754 4261:0.00028948064 4262:0.00010483459 4263:0.000436106 4264:-6.0961578e-05 4265:1.0594465e-05 4266:9.8147975e-06 4267:-5.3293238e-06 4268:0.00011094358 4269:2.2748266e-06 4270:3.9515911e-05 4271:1.9757956e-05 4272:5.265143e-06 4273:4.5496531e-06 4274:9.5735282e-05 4275:2.4307607e-05 4276:2.4307607e-05 4277:0.00047588814 4278:0.00034570001 4279:2.9636933e-05 4280:2.9636933e-05 4281:2.9636933e-05 4282:2.9636933e-05 4283:2.9636933e-05 4284:0.00018913156 4285:1.2153803e-05 4286:1.4428631e-05 4287:2.9636933e-05 4288:0.00017249228 4289:5.9989357e-05 4290:-3.8149112e-05 4291:1.5144117e-05 4292:1.9757956e-05 4293:1.9757956e-05 4294:1.9757956e-05 4295:2.9636933e-05 4296:0.00041335772 4297:0.00012842671 4298:7.1427676e-05 4299:0.00010178008 4300:0.00064246391 4301:0.0001595588 4302:8.58563e-05 4303:2.2748266e-06 4304:3.9515911e-05 4305:-1.143832e-05 4306:0.00014584565 4307:2.5738584e-05 4308:2.9636933e-05 4309:1.9757956e-05 4310:1.9757956e-05 4311:0.00051435817 4312:1.2153803e-05 4313:0.00010269756 4314:0.00083575054 4315:1.9757956e-05 4316:1.9757956e-05 4317:6.9152848e-05 4318:4.1790736e-05 4319:1.9757956e-05 4320:1.4428631e-05 4321:1.9757956e-05 4322:2.9636933e-05 4323:1.9757956e-05 4324:1.9757956e-05 4325:1.9757956e-05 4326:1.9757956e-05 4327:1.9757956e-05 4328:5.9273865e-05 4329:0.00012764704 4330:1.9757956e-05 4331:1.9757956e-05 4332:1.9757956e-05 4333:1.9757956e-05 4334:7.3702497e-05 4335:2.9636933e-05 4336:1.9757956e-05 4337:1.9757956e-05 4338:0.00010255975 4339:1.9757956e-05 4340:1.9757956e-05 4341:0.00039054529 4342:1.9757956e-05 4343:1.9757956e-05 4344:1.9757956e-05 4345:1.9757956e-05 4346:3.8736242e-05 4347:9.0341775e-05 4348:4.1790736e-05 4349:0.00020356018 4350:-0.0015738477 4351:-0.0024067364 4352:0.00016176944 4353:-0.00012386769 4354:0.00023306876 4355:-1.8262801e-05 4356:-4.1139432e-05 4357:-0.00026854849 4358:2.2032782e-05 4359:1.8978284e-05 4360:2.2748266e-06 4361:4.5496531e-06 4362:8.1306651e-05 4363:0.00011991452 4364:-6.388771e-05 4365:0.00030611991 4366:0.00020882531 4367:5.9273865e-05 4368:1.9757956e-05 4369:3.4186589e-05 4370:2.2748266e-06 4371:8.1306651e-05 4372:4.9394886e-05 4373:1.9757956e-05 4374:2.6582433e-05 4375:0.0001534498 4376:-0.0012658476 4377:4.8615213e-05 4378:-2.6710812e-05 4379:-0.00010574263 4380:-1.8455377e-05 4381:3.4186589e-05 4382:7.1427676e-05 4383:-9.94317e-06 4384:0.00026211856 4385:9.2488241e-05 4386:-3.9378134e-05 4387:-1.9444785e-06 4388:1.2153803e-05 4389:7.5399712e-06 4390:1.9757956e-05 4391:9.1185633e-05 4392:2.2748266e-06 4393:1.2153803e-05 4394:1.8978284e-05 4395:4.5496531e-06 4396:6.531868e-05 4397:6.1548693e-05 4398:0.00011854773 4399:2.2748266e-06 4400:-6.8886702e-06 4401:4.4065564e-05 4402:3.9515911e-05 4403:-3.6589776e-05 4404:5.9273865e-05 4405:2.2748266e-06 4406:0.001612163 4407:0.00031144929 4408:0.00013297636 4409:0.00035350624 4410:0.00012082255 4411:4.4065564e-05 4412:9.5671101e-05 4413:1.9757956e-05 4414:1.9757956e-05 4415:-2.3069169e-05 4416:4.8615213e-05 4417:0.00057590683 4418:2.2032782e-05 4419:1.9757956e-05 4420:3.9515911e-05 4421:1.9757956e-05 4422:-0.0001066507 4423:1.9757956e-05 4424:1.9757956e-05 4425:2.2032782e-05 4426:1.9757956e-05 4427:1.9757956e-05 4428:1.9757956e-05 4429:1.9757956e-05 4430:1.9757956e-05 4431:3.9515911e-05 4432:1.9757956e-05 4433:1.9757956e-05 4434:1.9757956e-05 4435:4.6340389e-05 4436:3.1911761e-05 4437:2.1464346e-06 4438:1.9757956e-05 4439:1.9757956e-05 4440:1.9757956e-05 4441:8.1306651e-05 4442:1.4428631e-05 4443:0.00011393389 4444:6.609835e-05 4445:1.9757956e-05 4446:-4.731262e-05 4447:0.0015857732 4448:0.00060802058 4449:0.00029370943 4450:0.00022241008 4451:1.9757956e-05 4452:1.9757956e-05 4453:2.2748266e-06 4454:0.00043084082 4455:0.00013070153 4456:6.9152848e-05 4457:0.00020583501 4458:0.00027277719 4459:3.4186589e-05 4460:0.00037969401 4461:2.4307607e-05 4462:1.9757956e-05 4463:4.4065564e-05 4464:1.9757956e-05 4465:0.00015500915 4466:-3.8213304e-05 4467:4.5496531e-06 4468:1.2153803e-05 4469:2.4307607e-05 4470:4.9394886e-05 4471:1.9757956e-05 4472:9.1185633e-05 4473:0.00071798242 4474:5.9273865e-05 4475:8.8910798e-05 4476:0.0021963441 4477:7.5069278e-05 4478:-0.00011691476 4479:3.9515911e-05 4480:0.0011613074 4481:0.0002575047 4482:-1.3713146e-05 4483:0.00060015026 4484:3.1911761e-05 4485:0.00015728397 4486:4.6340389e-05 4487:3.9515911e-05 4488:2.0473441e-05 4489:0.00023547196 4490:0.00016021008 4491:3.1911761e-05 4492:9.8725584e-05 4493:2.9636933e-05 4494:1.2153803e-05 4495:6.8244799e-06 4496:8.3581472e-05 4497:8.8910798e-05 4498:4.3285894e-05 4499:0.00027960169 4500:0.00028948064 4501:0.0001717126 4502:3.9515911e-05 4503:3.1911761e-05 4504:5.6219371e-05 4505:1.9757956e-05 4506:0.00070439774 4507:0.00018692092 4508:1.9757956e-05 4509:0.00010555007 4510:6.9152848e-05 4511:0.00010866876 4512:5.3944539e-05 4513:0.0002416451 4514:8.8910798e-05 4515:0.0002362516 4516:1.9757956e-05 4517:1.9757956e-05 4518:4.5496531e-06 4519:1.9757956e-05 4520:2.9636933e-05 4521:1.9757956e-05 4522:1.9757956e-05 4523:-0.0001065223 4524:1.2153803e-05 4525:0.00011549324 4526:3.9515911e-05 4527:1.9757956e-05 4528:1.9757956e-05 4529:3.3406919e-05 4530:1.9757956e-05 4531:-2.4032172e-06 4532:3.705798e-06 4533:0.0003745573 4534:6.1548693e-05 4535:0.00010333943 4536:1.9757956e-05 4537:-5.3293238e-06 4538:2.2748266e-06 4539:3.6461413e-05 4540:8.3581472e-05 4541:1.9757956e-05 4542:1.9757956e-05 4543:-5.3293238e-06 4544:0.00055010407 4545:-5.3293238e-06 4546:0.00017301521 4547:3.1911761e-05 4548:1.9757956e-05 4549:1.2153803e-05 4550:1.9757956e-05 4551:1.9757956e-05 4552:-0.0021441043 4553:5.5439701e-05 4554:0.00027108946 4555:0.00070738804 4556:-3.7369464e-05 4557:0.0004691919 4558:-0.0026535734 4559:0.00090978347 4560:8.1242462e-05 4561:0.0010161772 4562:-0.0025810541 4563:1.9757956e-05 4564:1.9757956e-05 4565:-1.2933476e-05 4566:1.2153803e-05 4567:-1.6767643e-05 4568:2.2748266e-06 4569:8.8910798e-05 4570:-5.4788397e-05 4571:-2.287664e-05 4572:0.0002362516 4573:-2.287664e-05 4574:9.3460461e-05 4575:1.1374133e-05 4576:7.5848962e-05 4577:0.00022019944 4578:2.2032782e-05 4579:7.968313e-05 4580:-5.3293238e-06 4581:-5.3293238e-06 4582:-7.0170508e-06 4583:1.8914103e-05 4584:2.2748266e-06 4585:0.00034576422 4586:3.9515911e-05 4587:0.00019225021 4588:7.5197655e-05 4589:-0.0011111783 4590:0.00044377433 4591:-4.6404577e-05 4592:0.00010327524 4593:3.9515911e-05 4594:1.9757956e-05 4595:0.00012686737 4596:0.0010582248 4597:0.00015422948 4598:2.9636933e-05 4599:2.9636933e-05 4600:6.9152848e-05 4601:2.2748266e-06 4602:4.5496531e-06 4603:1.2153803e-05 4604:1.9757956e-05 4605:5.3944539e-05 4606:1.9757956e-05 4607:-5.3293238e-06 4608:0.00019277312 4609:3.9515911e-05 4610:-3.6589776e-05 4611:2.7233722e-05 4612:5.1669715e-05 4613:0.00068288785 4614:0.00036851247 4615:0.00068463973 4616:9.0405949e-05 4617:1.9757956e-05 4618:0.00042395218 4619:-0.00039215927 4620:1.9757956e-05 4621:2.9636933e-05 4622:6.9152848e-05 4623:1.9757956e-05 4624:1.9757956e-05 4625:-2.5866952e-05 4626:-5.3293238e-06 4627:0.0001504595 4628:1.9757956e-05 4629:8.8910798e-05 4630:0.00060560793 4631:0.00026595272 4632:0.0013525212 4633:9.1185633e-05 4634:5.6219371e-05 4635:0.00012764704 4636:7.9031823e-05 4637:0.00017398743 4638:0.00014207567 4639:8.8910798e-05 4640:0.00010106461 4641:6.5254477e-05 4642:0.00010106461 4643:9.8789773e-05 4644:0.00039736976 4645:0.00037299792 4646:2.2032782e-05 4647:5.1669715e-05 4648:-0.00030650504 4649:-9.0534333e-05 4650:0.00059144548 4651:-0.0001004133 4652:1.5923786e-05 4653:-6.1089963e-06 4654:1.9757956e-05 4655:3.7699856e-06 4656:1.8198612e-05 4657:0.00011309004 4658:4.1790736e-05 4659:2.4307607e-05 4660:9.2680777e-05 4661:2.5802761e-05 4662:0.00064499542 4663:9.4175935e-05 4664:0.00042167737 4665:5.9273865e-05 4666:8.7351458e-05 4667:7.5399712e-06 4668:3.9515911e-05 4669:1.9757956e-05 4670:2.9636933e-05 4671:1.2153803e-05 4672:0.00032672178 4673:3.1911761e-05 4674:4.5496531e-06 4675:2.9636933e-05 4676:1.9757956e-05 4677:1.9757956e-05 4678:0.0004080284 4679:2.8857263e-05 4680:2.2032782e-05 4681:5.5439701e-05 4682:0.00029325063 4683:0.00026822754 4684:0.00098399934 4685:3.9515911e-05 4686:0.0001132184 4687:6.7593501e-05 4688:0.00011243874 4689:-0.00010132138 4690:6.9152848e-05 4691:1.9757956e-05 4692:1.9757956e-05 4693:1.2153803e-05 4694:1.670346e-05 4695:0.00012914221 4696:4.8615213e-05 4697:2.9636933e-05 4698:1.2153803e-05 4699:2.9636933e-05 4700:1.9757956e-05 4701:3.9515911e-05 4702:9.5735282e-05 4703:1.2153803e-05 4704:0.00033803168 4705:1.9757956e-05 4706:0.00042401633 4707:1.9757956e-05 4708:2.9636933e-05 4709:0.00045963394 4710:1.9757956e-05 4711:0.00045054406 4712:-5.933805e-05 4713:-0.0001158784 4714:4.0231389e-05 4715:-4.6138443e-06 4716:0.00032445643 4717:-2.3592122e-05 4718:2.1253109e-05 4719:4.5432338e-05 4720:0.00013902117 4721:-6.1089963e-06 4722:-0.00037396079 4723:0.00022241008 4724:-2.8921449e-05 4725:2.2748266e-06 4726:8.8910798e-05 4727:9.4891424e-05 4728:0.00032139244 4729:3.6461413e-05 4730:1.9757956e-05 4731:2.9636933e-05 4732:-0.0001004133 4733:1.9757956e-05 4734:0.00053841854 4735:1.9757956e-05 4736:0.00016943777 4737:2.2748266e-06 4738:8.58563e-05 4739:1.8978284e-05 4740:0.0001076965 4741:2.2748266e-06 4742:4.9394886e-05 4743:0.00061015761 4744:1.9757956e-05 4745:0.00010860457 4746:0.00026822754 4747:3.9515911e-05 4748:0.00015806365 4749:-3.89288e-05 4750:0.00013434316 4751:2.4307607e-05 4752:0.0001717126 4753:3.9515911e-05 4754:3.9515911e-05 4755:4.5496531e-06 4756:-4.4973604e-05 4757:1.9757956e-05 4758:1.9757956e-05 4759:1.495156e-06 4760:-1.3713146e-05 4761:6.4997737e-05 4762:0.00016716294 4763:1.9757956e-05 4764:1.9757956e-05 4765:2.2032782e-05 4766:1.9757956e-05 4767:4.5496531e-06 4768:0.00016943777 4769:1.2869292e-05 4770:2.9636933e-05 4771:-0.00016137488 4772:-7.7967252e-07 4773:0.00093369652 4774:1.8978284e-05 4775:2.9636933e-05 4776:0.00013070153 4777:-2.5866952e-05 4778:9.4175935e-05 4779:0.00041699928 4780:4.1790736e-05 4781:2.2748266e-06 4782:1.9757956e-05 4783:0.00014058052 4784:2.2032782e-05 4785:0.00012985767 4786:2.2748266e-06 4787:2.9636933e-05 4788:-5.3293238e-06 4789:-6.8886702e-06 4790:1.9757956e-05 4791:2.9636933e-05 4792:2.2032782e-05 4793:0.00040101135 4794:0.0010872746 4795:4.5496531e-06 4796:1.2153803e-05 4797:0.0001626133 4798:0.00072409154 4799:0.00043688566 4800:1.9757956e-05 4801:0.00010028492 4802:1.5923786e-05 4803:2.6582433e-05 4804:0.00015422948 4805:2.9636933e-05 4806:8.3581472e-05 4807:0.00041790737 4808:1.2153803e-05 4809:-6.7006396e-05 4810:0.00077803596 4811:3.9515911e-05 4812:1.9757956e-05 4813:4.5496531e-06 4814:0.00017249228 4815:-0.0056636981 4816:-1.559345e-06 4817:0.0011928247 4818:0.00019595603 4819:0.0017384527 4820:5.1669715e-05 4821:4.1790736e-05 4822:-1.2933476e-05 4823:2.5802761e-05 4824:1.9757956e-05 4825:1.9757956e-05 4826:4.9394886e-05 4827:9.4955605e-05 4828:0.0018030466 4829:0.00093831035 4830:7.9031823e-05 4831:6.1548693e-05 4832:-6.8886702e-06 4833:-6.4667372e-05 4834:1.2153803e-05 4835:1.2153803e-05 4836:1.670346e-05 4837:0.00019667152 4838:0.00039054529 4839:4.9394886e-05 4840:1.9757956e-05 4841:1.9757956e-05 4842:0.00048777569 4843:0.00028116105 4844:0.00014116765 4845:1.9757956e-05 4846:2.2032782e-05 4847:0.00013752602 4848:0.0012726362 4849:0.0019616974 4850:3.9515911e-05 4851:0.00011549324 4852:0.00012231772 4853:2.9636933e-05 4854:3.8736242e-05 4855:1.9757956e-05 4856:0.00012537221 4857:3.1911761e-05 4858:4.8615213e-05 4859:1.4428631e-05 4860:-2.0537627e-05 4861:0.00059728831 4862:5.9273865e-05 4863:5.9273865e-05 4864:3.9515911e-05 4865:1.9757956e-05 4866:2.2032782e-05 4867:8.8066947e-05 4868:-8.6048865e-05 4869:2.2032782e-05 4870:1.9757956e-05 4871:-1.2933476e-05 4872:1.495156e-06 4873:3.9515911e-05 4874:3.1911761e-05 4875:3.9515911e-05 4876:0.00011549324 4877:0.00025828442 4878:1.9757956e-05 4879:7.8252153e-05 4880:-5.3293238e-06 4881:0.00034934163 4882:-5.3293238e-06 4883:6.3823521e-05 4884:0.00023235322 4885:0.00020284471 4886:5.1669715e-05 4887:1.2153803e-05 4888:0.00010932003 4889:0.00011237455 4890:1.9757956e-05 4891:0.00011094358 4892:0.00014584565 4893:3.3406919e-05 4894:0.00030833055 4895:1.1374133e-05 4896:1.9757956e-05 4897:2.2748266e-06 4898:4.9394886e-05 4899:1.9757956e-05 4900:-5.3293238e-06 4901:8.0462778e-05 4902:7.8252153e-05 4903:-4.0909131e-06 4904:-4.191912e-05 4905:1.9757956e-05 4906:6.9152848e-05 4907:-5.3293238e-06 4908:1.9757956e-05 4909:1.9757956e-05 4910:2.2748266e-06 4911:0.00083971315 4912:0.00059878349 4913:0.00032139244 4914:0.00014818467 4915:2.9636933e-05 4916:3.9515911e-05 4917:4.9394886e-05 4918:6.0769016e-05 4919:5.3816151e-05 4920:0.00022949131 4921:9.6514952e-05 4922:0.00048101542 4923:2.6582433e-05 4924:0.00030013931 4925:3.8736242e-05 4926:0.00019452507 4927:6.2264182e-05 4928:-1.8262801e-05 4929:3.9515911e-05 4930:0.0001132184 4931:1.2153803e-05 4932:2.2032782e-05 4933:0.00047250325 4934:7.1427676e-05 4935:8.8910798e-05 4936:2.4307607e-05 4937:0.00016716294 4938:0.00029026036 4939:0.00022487748 4940:1.2153803e-05 4941:1.9757956e-05 4942:0.00041413738 4943:4.9394886e-05 4944:8.8131128e-05 4945:2.9636933e-05 4946:-0.00024872637 4947:-0.00011939159 4948:1.9757956e-05 4949:0.00072409154 4950:0.0005249526 4951:8.58563e-05 4952:0.00030624832 4953:9.5735282e-05 4954:4.1790736e-05 4955:3.5681744e-05 4956:0.00020667886 4957:1.9757956e-05 4958:2.2748266e-06 4959:0.0001108794 4960:0.00013889282 4961:-0.00020101923 4962:2.2032782e-05 4963:2.2748266e-06 4964:-0.00015754074 4965:0.00010866876 4966:1.9757956e-05 4967:-8.4480125e-06 4968:1.9757956e-05 4969:0.00039548948 4970:0.00031151346 4971:0.00052631937 4972:0.00037605246 4973:4.4065564e-05 4974:5.9273865e-05 4975:9.8789773e-05 4976:3.9515911e-05 4977:8.8910798e-05 4978:0.00013206831 4979:0.00014643275 4980:5.1605522e-05 4981:-0.00010814582 4982:3.4186589e-05 4983:-7.9875681e-05 4984:-0.00016735549 4985:0.00033198687 4986:7.1548084e-07 4987:-0.0001186761 4988:0.00019374538 4989:-2.5866952e-05 4990:8.3196383e-06 4991:3.4186589e-05 4992:2.9636933e-05 4993:7.7472483e-05 4994:-3.34711e-05 4995:2.6582433e-05 4996:4.5496531e-06 4997:0.00029175548 4998:0.00036773284 4999:6.9088666e-05 5000:0.00022793196 5001:1.9757956e-05 5002:1.2153803e-05 5003:2.2748266e-06 5004:0.00097184564 5005:0.0005250168 5006:0.00022188717 5007:0.0001504595 5008:0.00023631581 5009:2.9636933e-05 5010:0.0012712053 5011:0.00011588778 5012:0.00048907835 5013:0.0003613671 5014:-7.3051204e-05 5015:6.1484512e-05 5016:1.6639277e-05 5017:3.705798e-06 5018:0.00010938425 5019:0.00022416201 5020:1.9757956e-05 5021:2.2032782e-05 5022:4.9394886e-05 5023:0.00048771154 5024:0.00028798552 5025:2.2748266e-06 5026:7.0648006e-05 5027:1.670346e-05 5028:1.9757956e-05 5029:3.6461413e-05 5030:0.00020648628 5031:-3.5745928e-05 5032:9.8661396e-05 5033:7.4417985e-05 5034:1.9757956e-05 5035:2.9636933e-05 5036:1.2153803e-05 5037:0.00018991121 5038:6.9152848e-05 5039:0.00012309739 5040:-4.3350079e-05 5041:1.9757956e-05 5042:2.4307607e-05 5043:0.00018009642 5044:2.2032782e-05 5045:5.7714526e-05 5046:6.5126129e-05 5047:0.00018308673 5048:0.00012075836 5049:0.00018464607 5050:1.2153803e-05 5051:1.4428631e-05 5052:1.2153803e-05 5053:3.9515911e-05 5054:9.7945907e-05 5055:0.00015026695 5056:2.9636933e-05 5057:6.9152848e-05 5058:0.00046133113 5059:1.2153803e-05 5060:0.00018770057 5061:2.9636933e-05 5062:0.00011822679 5063:0.0001132184 5064:7.1427676e-05 5065:1.9757956e-05 5066:-1.2933476e-05 5067:0.00028720582 5068:4.1790736e-05 5069:3.9515911e-05 5070:1.9757956e-05 5071:1.9757956e-05 5072:8.8131128e-05 5073:5.1669715e-05 5074:3.5681744e-05 5075:6.0769016e-05 5076:0.0003418017 5077:0.00025971534 5078:0.00016183362 5079:8.2022132e-05 5080:4.9394886e-05 5081:3.1132091e-05 5082:9.6450764e-05 5083:4.9394886e-05 5084:8.1306651e-05 5085:0.001589158 5086:1.2153803e-05 5087:5.9273865e-05 5088:-1.2933476e-05 5089:1.2153803e-05 5090:1.9757956e-05 5091:0.00010333943 5092:5.9273865e-05 5093:5.9273865e-05 5094:0.00014818467 5095:-4.5101948e-05 5096:0.0013423762 5097:0.00033504138 5098:9.1185633e-05 5099:0.00011854773 5100:0.00027498786 5101:7.0648006e-05 5102:2.7820861e-05 5103:2.2032782e-05 5104:3.7956568e-05 5105:-4.1075255e-05 5106:0.00053268514 5107:0.00032815273 5108:-4.4909415e-05 5109:-0.0020754742 5110:0.00036903541 5111:2.9636933e-05 5112:3.4773708e-05 5113:0.00014435049 5114:2.9636933e-05 5115:0.00010106461 5116:1.9757956e-05 5117:1.9757956e-05 5118:0.00040933097 5119:0.00054965477 5120:-7.7600853e-05 5121:6.3823521e-05 5122:0.00012530801 5123:9.0993062e-06 5124:-3.0544982e-06 5125:0.00023462805 5126:0.00035376288 5127:0.00011445679 5128:1.2153803e-05 5129:-1.8262801e-05 5130:3.4186589e-05 5131:-1.0658648e-05 5132:2.2748266e-06 5133:0.00051130366 5134:1.9757956e-05 5135:0.00040556103 5136:3.1911761e-05 5137:5.3164866e-05 5138:3.9515911e-05 5139:0.00028779291 5140:-7.7967252e-07 5141:-0.00012491349 5142:-2.3133372e-05 5143:-1.0658648e-05 5144:4.1790736e-05 5145:8.2801802e-05 5146:0.00010333943 5147:0.00015500915 5148:0.00038450042 5149:9.2680777e-05 5150:5.1669715e-05 5151:0.0011466127 5152:0.00029864415 5153:2.2032782e-05 5154:3.0352414e-05 5155:9.8010103e-05 5156:0.00035473512 5157:0.00028096844 5158:5.1669715e-05 5159:0.00026140307 5160:8.0526974e-05 5161:0.00028187654 5162:1.2153803e-05 5163:0.00034647968 5164:-1.0658648e-05 5165:9.6450764e-05 5166:3.9515911e-05 5167:6.9152848e-05 5168:0.00063297007 5169:0.00033588524 5170:3.9515911e-05 5171:0.00023553614 5172:1.9757956e-05 5173:4.5496531e-06 5174:0.00033283074 5175:0.00016553942 5176:6.9152848e-05 5177:1.9757956e-05 5178:9.3460461e-05 5179:0.00033816008 5180:0.00027505204 5181:0.00011854773 5182:8.3517283e-05 5183:0.00050304818 5184:0.00040120393 5185:0.00022487748 5186:6.609835e-05 5187:4.9394886e-05 5188:4.9394886e-05 5189:1.9757956e-05 5190:1.9757956e-05 5191:9.8010103e-05 5192:6.1548693e-05 5193:3.9515911e-05 5194:-5.3293238e-06 5195:6.1548693e-05 5196:-2.6646616e-05 5197:0.00022403363 5198:-0.00016813516 5199:0.0003434252 5200:0.00043526216 5201:0.00015787108 5202:2.9636933e-05 5203:1.9757956e-05 5204:0.00019679987 5205:4.9394886e-05 5206:0.0001595588 5207:2.2032782e-05 5208:1.9757956e-05 5209:3.1911761e-05 5210:6.8244799e-06 5211:4.5496531e-06 5212:1.364896e-05 5213:-1.0658648e-05 5214:1.9757956e-05 5215:5.2009473e-06 5216:1.2153803e-05 5217:7.4417985e-05 5218:1.2153803e-05 5219:1.9757956e-05 5220:0.0001626133 5221:8.3581472e-05 5222:0.00091946038 5223:9.1185633e-05 5224:2.2032782e-05 5225:1.9757956e-05 5226:0.00014357083 5227:-5.6283552e-05 5228:2.2748266e-06 5229:8.8910798e-05 5230:1.2869292e-05 5231:-0.00017359285 5232:-5.3935182e-06 5233:0.00048972951 5234:9.0993062e-06 5235:0.00016983227 5236:4.8615213e-05 5237:0.0001115307 5238:1.9757956e-05 5239:0.00081287394 5240:0.00020973336 5241:2.8857263e-05 5242:1.495156e-06 5243:-0.00025281729 5244:1.9757956e-05 5245:4.9394886e-05 5246:-2.1317295e-05 5247:3.4186589e-05 5248:0.00014818467 5249:3.1911761e-05 5250:-3.34711e-05 5251:8.3517283e-05 5252:2.2032782e-05 5253:3.1911761e-05 5254:3.9515911e-05 5255:0.00034414072 5256:-3.581011e-05 5257:-1.2933476e-05 5258:2.9636933e-05 5259:-5.3293238e-06 5260:6.2071653e-05 5261:9.1901107e-05 5262:5.1669715e-05 5263:2.0473441e-05 5264:1.9757956e-05 5265:0.00016033847 5266:-1.5987973e-05 5267:3.8736242e-05 5268:-0.00014700093 5269:9.5735282e-05 5270:2.9636933e-05 5271:1.2153803e-05 5272:0.00012231772 5273:3.9515911e-05 5274:2.2106487e-06 5275:-0.000320475 5276:0.00010106461 5277:-0.00011484193 5278:-3.8084934e-05 5279:2.2032782e-05 5280:5.7714526e-05 5281:7.1427676e-05 5282:4.5496531e-06 5283:1.9757956e-05 5284:8.7351458e-05 5285:1.9757956e-05 5286:-4.1075255e-05 5287:0.00029981838 5288:0.00025347795 5289:-7.7967006e-06 5290:3.8736242e-05 5291:3.7176895e-05 5292:0.0016853425 5293:0.00024528673 5294:-4.1075255e-05 5295:9.0993062e-06 5296:1.9757956e-05 5297:-0.00019634113 5298:-6.4667372e-05 5299:-6.388771e-05 5300:7.2143157e-05 5301:0.00019907471 5302:-2.2096972e-05 5303:1.9757956e-05 5304:2.9636933e-05 5305:1.2153803e-05 5306:1.9757956e-05 5307:3.9515911e-05 5308:9.9505254e-05 5309:0.0012043914 5310:0.00035713834 5311:0.00036098203 5312:0.00011549324 5313:-3.5745928e-05 5314:0.00073221861 5315:3.1911761e-05 5316:0.00013570995 5317:1.9757956e-05 5318:1.9757956e-05 5319:2.1253109e-05 5320:4.5496531e-06 5321:1.9757956e-05 5322:1.3025914e-06 