SVM-light Version V6.20
0 # kernel type
3 # kernel parameter -d 
1 # kernel parameter -g 
1 # kernel parameter -s 
1 # kernel parameter -r 
empty# kernel parameter -u 
9949 # highest feature index 
4 # number of training documents 
2 # number of support vectors plus 1 
-0.001960732 # threshold b, each following line is a SV (starting with alpha*y)
1 1:-0.019229505 2:-0.012175268 3:-0.0078341672 4:-0.0086640622 5:-0.004765471 6:0.00098412635 7:-0.00496769 8:-0.0027648224 9:-0.0049954783 10:-0.0018746754 11:-0.003289381 12:-0.0019214537 13:-0.0028737511 14:-0.0016457868 15:0.0033745775 16:-0.00044633669 17:-0.0041399556 18:-0.0044423318 19:-0.0012157658 20:-0.010322242 21:-0.0028530087 22:-0.0015400617 23:-0.0026179298 24:-0.0033613842 25:-0.002175895 26:0.0063970895 27:-0.0020119648 28:0.0059819245 29:0.0043429406 30:-0.0058053271 31:0.0038916562 32:-0.0029193661 33:-0.00030721448 34:-0.0024030679 35:-0.0010924544 36:-6.4613065e-05 37:-0.0025416047 38:-0.00282691 39:-0.00047132064 40:-0.00019691871 41:-0.0014564811 42:-0.0012267429 43:-1.3677574e-05 44:-0.0025550732 45:-0.0031020374 46:-0.0020193865 47:-0.0023865679 48:-0.0031485162 49:0.00017596471 50:-0.0016225706 51:-0.0027647151 52:-0.0012384888 53:-0.0029042747 54:-0.0029873066 55:-0.00093624974 56:-0.001602246 57:-0.00089293637 58:-0.0012304826 59:-0.0021117304 60:0.0057750028 61:-0.00085659052 62:-0.0019839804 63:-0.0011682762 64:0.005464952 65:-0.0002007782 66:-0.0013066086 67:0.0050159958 68:0.0015174571 69:-0.0010819416 70:-0.00071854872 71:-0.00048954895 72:-0.0014770734 73:-0.00054147362 74:-0.001584015 75:-0.0052673812 76:-0.0015990881 77:-0.0022022817 78:-0.00078827294 79:-0.0017062742 80:0.0032008984 81:0.0031317407 82:-0.0022146644 83:-0.0043823249 84:-0.00032152742 85:-0.00216703 86:-0.002932539 87:-0.0010968711 88:0.0031096265 89:-0.00014510159 90:-0.00023932099 91:-0.0014319021 92:0.00020310523 93:-0.00012372471 94:-0.00019555524 95:-0.003337831 96:0.0014919166 97:0.0015904641 98:-0.00064802135 99:-0.00031691173 100:-0.00088556064 101:-0.0015350335 102:0.0046741907 103:0.00043399507 104:-0.00091249566 105:-0.0013286785 106:-0.0030357942 107:0.00042746708 108:-0.00022282894 109:-0.00062038895 110:6.6552602e-05 111:-0.0007661464 112:-0.0017107497 113:-0.00089026615 114:-0.003356166 115:-0.0005016565 116:-0.00061309693 117:0.00013733533 118:-0.00067484897 119:-0.0022309201 120:-0.0020417776 121:1.2183389e-05 122:-0.0032804811 123:-0.0012017811 124:-0.0013079229 125:-0.00067806715 126:-0.00035489231 127:-0.0011865036 128:-0.00075326645 129:-0.0011527085 130:-0.00068170886 131:-0.00036525211 132:-0.00044773938 133:-0.00045663601 134:0.0027538901 135:-0.0010962433 136:-0.00071258127 137:-0.0015887289 138:-0.00059076789 139:-0.0014337652 140:-0.0013241312 141:-0.0012610885 142:-0.0068994556 143:-0.001795682 144:0.00081191876 145:-0.00092926004 146:-0.0020741243 147:-9.872677e-05 148:-0.00096360967 149:-0.00097703142 150:0.00080809265 151:-0.00084770273 153:0.0029552765 154:-0.00030046829 155:1.7041435e-06 156:-0.00045627309 157:-0.0007640355 158:0.0018774361 159:0.0015041506 160:-0.0012590544 161:-0.00088554336 162:-0.0021869305 164:-0.00088681508 165:7.4249452e-05 166:-0.0019008013 167:-0.00054194388 168:-0.0014478702 169:-0.0026193191 170:-0.0012153479 171:-0.0005629299 172:0.0020428509 173:-0.0017163942 174:0.0024121602 175:-0.00066762988 176:0.0013235208 177:-0.00046309174 178:0.0016064685 179:0.0030951141 180:0.004025002 181:-0.00095633586 182:-0.00014402199 183:-0.00020396934 184:-0.00087166467 185:0.00062892045 186:0.00019472781 187:-0.0013976714 188:-0.00035672999 189:-0.001380927 190:-0.0010228013 191:-0.00029515673 192:0.0018011479 193:-0.0018821321 194:-0.001164878 195:-0.00053519307 196:-1.8577992e-05 197:-0.0010522109 198:0.0013301721 199:-0.00037023771 200:-0.00029754068 201:-0.001075219 202:-0.0010536304 203:-0.00072548253 204:0.0038077075 205:0.0028349196 206:0.00015218456 207:-0.0010709523 208:-0.00085153454 209:-0.0018310529 210:-0.00040811361 211:-0.0014964759 212:-0.00064637896 213:-0.00087098306 214:-0.0010161031 215:-0.00050864625 216:-0.0010636101 217:-0.00056922744 218:-0.0015749551 219:-0.00087975 220:0.00088678079 221:-0.00095326756 222:-0.00075301202 223:-0.00035288974 224:-0.00037635295 225:-0.00065247697 226:0.00084683741 227:-0.0020762451 228:-0.0011131231 229:0.00061611214 230:-0.00028782469 231:-6.9604495e-05 232:0.0022567275 233:-0.00078903511 234:-0.0017390305 235:-0.00053156569 236:-0.00082715676 237:-2.0699732e-05 238:-0.0024613708 239:-0.0011007049 240:0.000188558 241:-0.00060096802 242:-0.00037927512 243:-0.00018393838 244:-0.00040052415 245:0.0020676188 246:-0.00099379616 247:-0.00018387446 248:0.00014845804 249:-0.00042695284 250:-0.00011168698 251:-1.444077e-05 252:0.0011248322 253:-0.00073508453 254:-0.00077597995 255:0.0021247675 256:-0.0011708678 257:-0.00074211549 258:-0.00080206821 259:-0.00029026211 260:-0.00037103132 261:-0.00048694474 262:-9.238148e-05 263:-0.00035510177 264:-0.0008795532 265:0.00065481942 266:-0.00013080283 267:-0.001087485 268:0.00074462424 269:-0.00086834113 270:-0.00072265672 271:-0.00087311969 272:0.00010767348 273:-0.00021150918 274:0.0022196581 275:-0.00042935726 276:-0.0001088201 277:-0.00045532046 278:6.35162e-05 279:-2.8573446e-05 280:-0.00091341324 281:-0.00042952423 282:-0.00027842243 283:-0.0012461847 284:-0.00070942863 285:9.3082363e-06 286:-0.00168402 287:-0.00063081656 288:-0.00024649667 289:7.460593e-05 290:-0.00055254746 291:-0.00032961334 292:-0.00018927902 293:-0.00097219984 294:-0.00060584594 295:-0.00047265034 296:-0.00074219721 297:-0.00061652035 298:-0.0012197549 299:-0.00014374663 300:-0.00076683972 301:-0.00063024485 302:-0.00038466757 303:-0.0025501563 304:-0.0009468639 305:-0.00046449047 306:-0.00028241071 307:-0.00061387831 308:0.0025987674 309:-0.00049056846 310:-0.00019892312 311:-0.00025549848 312:0.00186236 313:-0.0012940548 314:-0.000142887 315:-0.00050545944 316:-0.0003404223 317:-0.00028733886 318:-0.00097203284 319:7.4238356e-05 320:0.00038293298 321:-8.3373969e-05 322:0.0022542791 323:-0.00073800742 324:-0.00082539837 325:0.00033824134 326:-0.0015185793 327:0.0012242236 328:-0.00096960715 329:-3.9312319e-05 330:-0.00035164927 331:-0.0005346479 332:-0.00045714289 333:-0.0004338547 334:-0.00051387359 335:-0.00060089282 336:-0.00033578483 337:0.0020716016 338:-0.00083908124 339:-0.0010256863 340:-6.1355124e-05 341:-0.00050344743 342:-0.00073820748 343:-0.00096535694 344:-0.00069784914 345:0.0017959245 346:0.0021065313 347:-0.00045144759 348:-0.00042267994 349:-0.00050195324 350:-0.00016275805 351:0.00048685289 352:-0.0011356182 353:-0.00034721385 354:-0.00015352776 355:0.0010765007 356:-0.0016344236 357:-0.0010729759 358:-0.00088918972 359:-0.00067259674 360:0.00034635531 361:-0.0001069486 362:-0.0001713433 363:-0.00030405825 364:-0.00032790488 365:0.0022465826 366:-0.0001813173 367:-0.00017812768 368:-0.00062439562 369:-0.00055793708 370:-0.00040942244 371:-0.00062072097 372:-0.00044781706 373:0.0016539868 374:-0.00014005745 375:-0.00080887228 376:-0.00083230942 377:9.4555027e-05 378:-0.00013876166 379:-0.00094492076 380:-0.00051531265 381:-0.000644663 382:-0.00028730402 383:-0.0010464629 384:-0.00020380208 385:-0.00074625172 386:-0.0015037919 387:0.0019412567 388:-0.00042036569 389:0.0017034198 390:-0.00053644326 391:-0.00031471765 392:1.2647302e-05 393:-0.00016046547 394:0.00018429276 395:-0.00018255685 396:-0.00039193238 397:-0.00035541982 398:0.0003614804 399:-0.00028478052 400:-0.0015034433 401:-0.00030111833 402:-0.00077431515 403:-0.00065638201 404:0.00075718749 405:0.0016292307 406:-0.00076713704 407:-0.00021746513 408:1.7343487e-05 409:-0.002022546 410:-0.0015811075 411:-1.5175843e-06 412:-0.00063549436 413:0.0012168678 414:-7.5273048e-05 415:-0.00011432327 416:-0.0001479643 417:2.6783649e-05 418:-4.2489437e-06 419:-0.00055338425 420:-0.0010402021 421:-0.0002209589 422:-0.00022456938 423:-0.00036346985 424:-0.0012798497 425:0.00010354173 426:0.0001720853 427:0.0019016941 428:-0.00017295676 429:-0.0003301698 430:-0.0010840386 431:-0.00037656186 432:-0.00047813769 433:-0.00067418523 434:-0.00057499571 435:-6.6721252e-05 436:0.00053990603 437:0.0014267634 438:-0.00052060437 439:4.1067964e-05 440:-0.00010556348 441:-0.00039700459 442:-0.00075577485 443:-0.00012074431 444:-0.00022452345 445:-0.00036978241 446:-0.00026720369 447:-0.00054246391 448:0.00013005789 449:-0.00039420978 450:-0.00045757424 451:-0.00027860151 452:-0.000355506 453:-0.00033053829 454:-0.00056542369 455:0.0004895656 456:-0.0013867029 457:4.6382175e-07 458:-0.00048429921 459:-0.00047457594 460:-0.0002379731 461:-0.00046980579 462:-0.00035047697 463:-0.00036845976 464:-0.00033484079 465:-0.00054700155 466:-0.00069075654 467:0.0017206377 468:-0.00063279638 469:6.3587599e-05 470:-0.00043969243 471:-9.2983624e-05 472:-0.00059525494 473:0.00022080928 474:-0.00056493608 475:0.00062521565 476:-0.00025580492 477:0.00028619013 478:0.00064376806 479:-0.0007230445 480:0.00089629315 481:-0.00068029715 482:-0.0001224897 483:-0.00044978558 484:-0.00055798091 485:-0.00020655109 486:-0.00015982191 487:-0.00043081891 488:-0.00033058968 489:0.0001881823 490:-0.0010604275 491:-0.0015150591 492:-0.0002313991 493:0.00049161335 494:-8.1416227e-05 495:-0.00030605594 496:0.00047246111 497:-0.00011154433 498:0.00038723787 499:0.0004368207 500:-0.00021676254 501:-0.00042782497 502:-0.00022345768 503:-0.00025808325 504:-0.00035947777 505:0.0014680354 506:-0.0013200245 507:-0.0004870588 508:-0.001001949 509:-0.0004921729 510:-8.7885812e-05 511:-0.000103 512:-0.00019384082 513:0.0013187735 514:-0.00046288688 515:0.00070041319 516:-0.00039402038 517:-8.0164253e-05 518:-0.0010719321 519:-0.00062323909 520:-0.00021077775 521:-0.00061873678 522:-0.00048593763 523:-0.00035857951 524:-0.0011209535 525:-4.0394851e-05 526:-0.00019533244 527:0.00064121303 528:-0.00023481443 529:-5.6481666e-05 530:0.00054509367 531:0.00036998405 532:-0.00036702602 533:4.5638088e-05 534:-0.0011719061 535:0.00045905769 536:2.5198671e-05 537:-0.0003197683 538:-0.00011834148 539:0.00057493924 540:-0.00015553932 541:0.00018537704 542:-0.00025924659 543:0.00086010853 544:-0.00023537435 545:-0.00015958968 546:-9.8689015e-05 547:0.00012055218 548:-0.00054418831 549:-6.8735179e-05 550:-0.00029976384 551:-0.00028576254 553:0.0013376414 554:-0.00027584386 555:-0.00019274937 556:-5.739804e-05 557:-0.00027416399 558:-0.00081029156 559:-0.0007982403 560:-0.00056217017 561:0.0011317014 562:-0.0002355655 563:7.7571822e-05 564:-0.00044446439 565:0.00027680604 566:-0.00016614179 567:-0.00016978913 568:-0.00013378603 569:-0.00012507633 570:-0.0003276864 571:0.00030926321 572:-0.00046436864 573:-0.00022821274 574:0.0012652176 575:9.1540951e-06 576:-0.00021676035 577:-0.00032304382 578:-6.1956598e-05 579:5.6604651e-05 580:-0.00010018669 581:-0.00021214604 582:0.0014499507 583:-0.00020280255 584:-0.00020180061 585:-0.00056067592 586:0.00079140486 587:0.001579877 588:-0.00042136299 589:-0.00036370347 590:-0.00019419582 591:-0.00014776389 592:0.00099625427 593:0.00034715162 594:-0.00051640446 595:-0.00046040918 596:-0.00021061287 597:-0.00023394525 598:-0.0010891618 599:-0.00033713938 600:0.00021686727 601:-0.00034883089 602:-6.0381302e-05 603:-0.00070569973 604:-0.00010235445 605:-0.00025994371 606:-0.00037529101 607:-0.00043232198 608:0.0002242936 609:-0.00067626173 610:0.00015390725 611:-0.00035816495 612:-0.00037195307 613:0.00071956543 614:-0.00029531895 615:-0.00028582854 616:-0.00024742773 617:-0.00031457172 618:-0.00023360424 619:-0.00023418923 620:-4.7252408e-05 621:-0.00033405307 622:-0.00035685729 623:-0.00033987171 624:-2.4419138e-05 625:8.8260262e-05 626:-7.5798242e-05 627:-0.00018213355 628:-0.00017304125 629:-0.00029560036 630:-0.00029679493 631:-0.0008729152 632:-1.842858e-05 633:0.00022370805 634:-0.00026295288 635:-0.00017305902 636:-0.00066464703 637:-0.0001684061 638:-0.00039055091 639:-0.00011822591 640:-0.00065885391 641:0.001735436 643:0.00086605118 644:0.00066756376 645:-4.9560753e-05 646:-0.00042945094 647:-0.00062975124 648:-0.0002866679 649:-0.00026424121 650:-4.907637e-05 651:-0.00023616059 652:-0.0001504652 653:-6.6839544e-05 654:-0.00013151272 655:-0.00023656862 656:-0.00023689604 657:-8.808844e-05 658:0.00033371279 659:-0.00013285167 660:-0.00010823997 661:-0.00043167832 662:-0.00019080828 663:1.9948666e-06 664:0.00022626529 665:-0.00021602443 666:-0.00031838828 667:0.00013903216 668:-0.00020229431 669:-0.00026791357 670:-0.00027456132 671:-0.0020231239 672:-0.00037695217 673:-0.00029003381 674:-0.00031242555 675:-0.00011638455 676:-0.00037889302 677:-0.00018149382 678:-0.00030146292 679:1.8350107e-06 680:-0.00026835501 681:-0.00040103341 682:9.2614857e-05 683:0.00017346397 684:-0.00040611459 685:3.7035414e-05 686:2.9133196e-06 687:-0.00011239349 688:-0.00042284676 689:-0.00029386097 690:-0.00053303322 691:-0.0002226936 692:-0.00018425763 693:0.0011607574 694:-0.00020533148 695:-0.00024598133 696:0.00026224784 697:0.00041506119 698:-0.00026278323 699:-3.6419624e-05 700:-0.00026887434 701:-0.00022372678 702:-0.00027970783 703:-9.8555094e-05 704:-0.00037174509 705:-0.00059709838 706:-0.00018254142 707:-9.9429635e-05 708:-5.4207314e-05 709:-0.00049328792 710:-0.0001756869 711:-4.0138482e-05 712:-0.00010910191 713:-0.00011482129 714:-0.000322546 715:-0.00013476939 716:-0.00072028133 717:0.00016147186 718:0.00011868074 719:0.0011947494 720:-0.00019715143 721:-0.00017512155 722:-0.000218242 723:-0.00055110577 724:-0.00049579726 725:-0.00011106053 726:0.00049459154 727:0.00013000716 728:1.2456365e-05 729:-0.00017644958 730:-0.00017846118 731:0.00089067803 732:0.00018015517 733:0.00093364029 734:-3.2422544e-05 735:-0.00048200676 736:-3.6768841e-05 737:0.0012605214 738:0.00043526178 739:-0.00026219836 740:-0.00021578633 741:0.00033540378 742:0.000116071 743:-0.00010658945 744:-0.00015887685 745:-0.00017108055 746:-0.00024447907 747:-0.00019182941 748:-0.00025231775 749:0.00023601422 750:-5.0833729e-05 751:-2.2351676e-05 752:-0.00019862874 753:-0.0001579813 754:-8.12707e-05 755:0.00060892821 756:-0.00027474668 757:0.001374846 758:-0.00069218874 759:-0.00020863039 760:-8.6121247e-05 761:0.0001312158 762:-0.00018548698 763:-8.8031396e-05 764:0.000857362 765:-0.00041482109 766:-0.00023798466 767:-0.00061305275 768:0.00090928684 769:-8.8360699e-05 770:-0.00017474599 771:-0.0002669378 772:0.00099204935 773:-0.00021677499 774:-3.3654065e-05 775:-0.00019511249 776:-8.5491731e-05 777:-0.0004034116 778:-0.00032207716 779:-4.3216893e-05 780:-2.7350201e-05 781:0.0015831244 782:-0.00023730438 783:-8.5866523e-05 784:-9.0028305e-05 785:-0.00013251661 786:-9.859167e-05 787:-0.00018703107 788:-0.00010642048 789:-0.00033351389 790:-0.00015709609 791:-0.00021461192 792:-7.3013027e-05 793:-0.00043281613 794:7.6452954e-05 795:0.0012019393 796:-2.1762302e-05 797:-0.00010196392 798:-0.0010143735 799:0.00060039526 800:0.0003478741 801:0.00037360657 802:-5.2221054e-05 803:-0.00015986392 804:0.00035681124 805:-0.00049715413 806:-0.00022355537 807:-0.00024167441 808:-0.00043304727 809:-9.6158641e-05 810:-0.00032022799 811:-0.00022342088 812:-0.00022121239 813:-0.00011971839 814:-0.00031350629 815:-0.00025554246 816:-0.00013626793 817:-2.9947809e-05 818:-0.00069560384 819:-0.00026280488 820:-0.00014442483 821:6.4872373e-05 822:-0.00010651667 823:0.00049068267 824:0.00019494411 825:-0.00033163215 826:-0.00037914352 827:0.00024369235 828:-0.00022243988 829:-0.0014319129 830:-0.00012872241 831:-0.00012907622 832:-0.00027875655 833:1.9465866e-05 834:0.00043950684 835:-0.00039019383 836:-0.00017778955 837:-0.00032374452 838:-7.9882353e-05 839:-0.00014609656 840:8.3073595e-05 841:-0.00013957178 842:3.8098828e-05 843:-0.00042160065 844:-0.00016283561 845:-8.6816101e-07 846:-0.00038680289 847:-4.9623581e-05 848:-2.8216074e-05 849:-0.00013628877 850:7.912414e-05 851:-0.0002065946 852:0.00017604539 853:-0.00056671927 854:-7.7137724e-05 855:-0.0002447537 856:-8.4728665e-05 857:-0.00011287625 858:0.00026841805 859:-0.00015694501 860:8.1003796e-05 861:-0.00015081129 862:-0.00037129514 863:-5.6104873e-05 864:-0.000142562 865:-0.00022796179 866:-0.00032573412 867:-0.0013972309 868:-0.00012949835 869:-0.00040113489 870:-9.3189963e-05 871:-0.00013664615 872:-5.0387313e-05 873:-9.0526992e-05 874:-0.00032399758 875:-0.00051870511 876:5.7432357e-05 877:-6.9797599e-05 880:0.00097697868 881:-0.00013740838 882:-0.00010661507 883:-0.0004545282 884:2.5335463e-05 885:-0.00013950843 886:-0.00013175589 887:-0.00010711789 888:2.6407138e-06 889:-0.00010388266 890:9.9680336e-05 891:-0.00019213092 892:-0.00013455143 893:2.8329459e-05 894:-0.00014981642 895:0.00084011257 896:0.00014601197 897:-3.4470468e-05 898:4.0533556e-05 899:-1.7258462e-05 900:-0.00024068898 901:-5.4931228e-05 902:-0.00010660969 903:0.00043404399 904:-0.00038419792 905:-0.00014015478 906:-6.7791865e-05 907:-2.189567e-05 908:-0.00023558609 909:-0.00036270072 910:-0.00015337324 911:-0.00021832201 912:0.0001723876 913:-0.00029010579 914:-0.0002989455 915:-0.0001337904 916:0.0006142591 917:-0.00020511626 918:-0.00030705248 919:-0.00022213075 920:-0.0003986909 921:-0.00014044165 922:-0.00035405983 923:-0.00026696335 925:-0.0002483287 926:5.066314e-05 927:-0.00021867454 928:-8.5772619e-05 929:-4.1772648e-05 930:-0.00095825171 931:0.00011651227 932:-0.00015248313 933:0.00012257471 934:-0.00014029515 936:3.9998675e-05 937:-0.00036568151 938:-0.00029664376 939:-9.0201778e-05 940:-0.00037582649 941:-0.0003551855 942:-0.00027048311 943:-0.00035973763 944:-0.0004040373 945:-0.00024591145 946:6.3311178e-05 947:0.0013603345 948:-0.00018150898 949:-6.2503415e-05 950:-0.00032784272 951:-0.00016917349 952:0.00090758374 953:8.9186899e-05 954:-0.00016683215 955:-0.00020864065 956:0.00026640898 957:-0.00028684153 958:-0.00012740631 959:-0.00063173746 960:-3.1126706e-06 961:-4.0157338e-05 962:-0.0002020645 963:-8.1324797e-05 964:-0.00045021079 965:0.00053484587 966:-0.0003655511 967:-4.0352228e-05 968:-6.9988622e-05 969:-5.181801e-05 970:-0.00010938306 971:-0.00029975123 972:-0.00050607277 973:-0.00021090847 974:-0.000176166 975:0.00037769196 976:-9.5460033e-05 977:-6.2097788e-05 978:-0.00027509706 979:0.0043023219 980:-3.2275635e-05 981:-0.00030593429 982:-0.00030353613 984:3.1040638e-06 985:-0.00026680229 986:-0.00074497936 987:-2.9096303e-05 988:-0.00033071116 989:-0.00011360791 990:-0.00024217763 991:3.3009626e-05 993:0.00077416602 994:0.0005871586 995:0.00045713357 996:-3.2214819e-05 997:0.00069615617 998:0.00097412127 999:0.0017607384 1000:-0.00013181896 1001:0.00035795305 1002:-9.7947275e-05 1003:-4.6248431e-05 1004:-0.00010400403 1005:0.00063249486 1006:1.0840133e-05 1007:0.00033254662 1008:0.00024233248 1009:0.00033406174 1010:0.0003445177 1011:-0.00022500903 1012:-0.00017217215 1013:3.7540599e-06 1014:0.00055681303 1015:-0.00016695917 1016:-0.00013022502 1017:0.00025150293 1018:0.00069898315 1019:-5.5924327e-05 1020:-0.00026651932 1021:-0.00014309412 1022:-0.00010879367 1023:-0.00016390921 1024:-0.00032705188 1025:-0.00033079297 1026:-0.00015698696 1027:0.00041664706 1028:-7.2180723e-05 1029:-0.00013718277 1030:-0.00012590075 1031:0.0012392709 1032:-0.00029333663 1033:0.00090477831 1034:-0.0001707628 1035:-0.00027333776 1036:-6.1437072e-06 1037:-0.00014950422 1038:0.00071436213 1039:-0.00036405466 1040:-0.00017117175 1041:-8.0383019e-05 1042:-0.00031841424 1043:2.0291247e-05 1044:-0.0002748268 1045:-0.0026608768 1046:0.0013398825 1047:0.00036651024 1048:0.000126442 1049:3.9950522e-05 1050:-5.0866001e-05 1051:-0.00024125951 1052:-0.00010431269 1053:-0.00011006686 1054:-0.00026321702 1055:-0.00020696667 1056:-0.00038118442 1057:0.00016723882 1058:-0.00021701565 1059:-0.00041678027 1060:-0.00034277432 1061:-0.00017312741 1062:-0.00019885681 1063:-2.7069029e-06 1064:0.00060811697 1065:-4.3106182e-05 1066:6.1251623e-05 1067:-0.00041102729 1068:-0.00029382296 1069:7.1327493e-05 1070:-0.00014889329 1071:-0.00019745887 1072:-2.872597e-05 1073:4.951662e-05 1074:-6.7924942e-05 1075:-0.00045473286 1076:7.6932592e-05 1077:-3.1994387e-05 1078:-6.658952e-05 1079:-0.00012358214 1080:0.00072738581 1081:-0.00043693211 1082:-0.0001144284 1083:1.9055142e-05 1084:-4.4209366e-05 1085:-0.00021358288 1086:-0.00017052579 1087:-0.00019621833 1088:-5.0087052e-05 1089:-0.00020449037 1090:-8.8061468e-05 1092:-8.8235327e-05 1093:-8.2154344e-05 1094:0.00012103091 1095:-6.7812034e-05 1096:-0.00023410673 1097:4.1708219e-05 1098:-0.00018284027 1099:-0.0001575106 1100:1.8274643e-05 1101:-0.0002375855 1102:-0.00022741675 1103:-0.00018540359 1104:-0.00024299721 1105:-0.00019379846 1106:-0.00022591282 1107:-0.00011180781 1109:-0.00020421048 1110:-0.00015775631 1111:-8.222006e-05 1112:-0.00010679111 1113:-0.00011519595 1114:-0.0001735023 1115:9.145381e-05 1116:-0.00012700833 1117:-0.00025649345 1118:0.00076066615 1119:-0.00023660158 1120:-0.00043992334 1121:-0.00010051578 1122:0.00048414993 1123:-6.367777e-05 1124:0.00035862916 1125:-0.00018877102 1126:0.00039545546 1127:-0.00022858848 1128:0.0016066922 1129:5.6849545e-05 1132:1.2973339e-05 1133:0.00063282537 1134:0.00044044247 1135:0.00045603912 1136:-1.3229374e-05 1137:-0.00020780414 1138:-0.00028396587 1139:-0.00025811399 1140:-0.00017771313 1141:8.4463572e-05 1142:-0.00017205979 1143:5.0542167e-05 1144:-3.0015457e-05 1145:-9.2263348e-05 1146:-0.00022224805 1147:-2.2398735e-05 1148:-7.9585072e-05 1149:0.00054861192 1150:-3.8116046e-05 1151:-0.00027028885 1152:-0.00023275963 1153:-0.00035051329 1154:0.00050944247 1155:0.00053813192 1156:-1.366981e-05 1157:-0.00011073812 1158:-4.787189e-05 1159:0.00048366666 1160:-0.00033990704 1161:-4.4215285e-05 1162:-9.7837612e-05 1164:-0.00025468742 1165:-0.00058324332 1166:-0.00011690914 1167:-0.00012510255 1168:-3.7524798e-05 1169:5.7748592e-05 1170:-0.00015431124 1171:9.4873685e-05 1172:-0.00039912178 1173:-0.00027607632 1175:-7.6981654e-05 1176:-0.0004316807 1177:-9.3618211e-05 1178:-4.3509175e-05 1179:-0.00011608083 1182:-6.9051901e-05 1183:-4.9544768e-05 1184:-0.00021895391 1185:-7.4630108e-05 1186:-2.5156656e-05 1187:-2.5156656e-05 1188:-6.3216925e-05 1189:0.00010273555 1190:0.00016974068 1191:-0.00023291577 1192:0.00014307325 1193:-5.6637287e-05 1194:-0.00035962855 1195:4.3460866e-05 1196:-0.00021208277 1197:5.9858034e-05 1198:-0.00032167046 1199:-7.5068448e-05 1200:-0.00030418529 1201:0.00058384938 1202:-0.00019978534 1203:-0.00023074313 1204:-0.00021559095 1205:6.2981017e-05 1206:-8.4563486e-05 1207:-0.00019229931 1208:-2.6234517e-05 1209:-4.9840393e-05 1210:0.00010362918 1211:-9.297466e-05 1212:-0.00010259566 1213:-0.00012563645 1214:-9.0466747e-05 1215:-0.00014256619 1216:2.9862282e-05 1217:-2.3504339e-05 1218:-0.0001625713 1223:0.00047133604 1224:-5.6377237e-05 1225:-0.00056174642 1226:-9.1707952e-05 1227:0.00027469004 1228:0.00097831967 1229:0.00010558109 1230:0.00029224809 1231:1.8744582e-05 1232:0.00017463464 1233:-7.2291456e-05 1234:-0.00021165359 1235:0.00013493886 1236:-0.000159378 1237:0.00043638432 1238:0.0011346992 1239:-0.00011950009 1240:1.8852121e-05 1241:0.00031337526 1242:0.00053239404 1243:6.4474771e-05 1244:-4.0873551e-06 1245:5.9452304e-05 1246:-0.00019511937 1247:-0.0001102988 1248:0.00027711943 1249:-8.0413003e-05 1250:0.00025765752 1251:-7.7722027e-05 1252:-0.00014029365 1253:-0.00047775739 1254:-0.00011965967 1255:-0.00022739863 1256:-0.00017904157 1257:2.8203453e-05 1258:-0.00029508444 1259:-3.0392068e-05 1260:2.062505e-05 1261:-7.2097348e-05 1262:-0.00022871119 1263:-0.0002228386 1264:-9.1133152e-05 1265:-0.00023297087 1266:-0.00033833791 1267:2.561321e-05 1268:-0.00017409354 1269:-0.00091079966 1270:-9.3192546e-05 1271:-0.0001372353 1272:0.00097309577 1273:0.00025438145 1274:-0.00012872808 1275:-7.1589246e-05 1276:-2.3332223e-05 1277:4.3709853e-05 1278:-1.3221411e-05 1279:-1.1975928e-05 1280:-0.00017604437 1281:-0.00016670227 1282:-9.0150999e-05 1283:-0.00025859263 1284:-0.00015261034 1286:-2.3094852e-05 1287:-0.00034590703 1288:-0.00010458316 1289:-0.00034349249 1290:-0.00025714966 1291:-0.00011336344 1292:-0.00010529369 1293:-0.00010129077 1294:0.00030856693 1295:-5.7936082e-05 1296:0.00023250579 1297:-0.00011164924 1298:-5.3571297e-05 1299:-9.941015e-05 1300:-6.4407024e-05 1301:-0.00022956832 1302:-0.00013628129 1303:-0.0001226559 1304:6.0245602e-06 1305:0.00023413828 1306:-0.00021279597 1307:-0.00025616083 1308:0.00014126122 1309:0.0005265837 1310:-0.00010987814 1311:0.0005795561 1312:1.2493502e-05 1313:0.00043080698 1314:0.00014973836 1315:-0.000404847 1316:-2.8765329e-05 1317:0.00011017079 1318:-0.00015852666 1319:-0.00010384431 1320:-0.00013353006 1321:1.2647988e-05 1322:2.1024374e-05 1323:-0.00034745503 1324:-0.00042192097 1325:-0.00012585492 1326:-0.00012848065 1327:9.5820636e-05 1328:-8.4652813e-05 1329:-0.00023968026 1330:7.1002651e-05 1331:4.1674728e-05 1332:-0.0002599883 1333:-0.00019400245 1334:-0.00011807225 1335:-0.00018793829 1336:-2.9522336e-05 1337:-0.00012563281 1338:0.00029428664 1339:-0.00013537973 1340:7.6031516e-05 1341:2.2267834e-05 1342:-0.00011650915 1343:-0.00051699934 1344:-0.0001423494 1345:-0.00027168251 1346:-8.4968487e-05 1347:4.2608841e-05 1349:-0.00013619088 1350:-8.7630076e-05 1351:-8.7559878e-05 1352:-9.2406954e-05 1353:0.00012965244 1354:8.0422316e-05 1355:-7.1324939e-05 1358:-0.00024237316 1359:-0.00056859467 1360:-9.0867863e-05 1361:-0.00014249097 1362:-7.2687049e-05 1363:-0.00017702706 1364:-0.00012085141 1365:-0.00011405619 1366:-0.00037914119 1367:-1.7137309e-05 1368:-2.3020781e-05 1369:-0.00019465925 1370:-9.4969888e-05 1371:-0.00010587213 1372:-0.00010050452 1373:2.7769991e-05 1374:0.00015409014 1375:-0.00011503566 1376:-0.00010281298 1377:4.374132e-06 1378:0.00014611168 1379:0.00011160125 1380:0.00068615004 1381:-0.00025842615 1382:-0.00015911853 1383:-0.00022574866 1384:-0.00010336701 1385:-7.3779476e-05 1386:-0.00025857234 1387:0.00065295625 1388:-0.00029508569 1389:4.0235529e-05 1390:-2.7330765e-05 1391:-0.00034315186 1392:-2.0677982e-05 1393:-0.00038632395 1394:-0.00011386666 1395:0.00042301675 1396:-3.0854011e-05 1397:-2.9588078e-05 1398:-0.0001144384 1399:-0.00017618707 1400:-5.795469e-05 1401:-1.8535577e-05 1402:-0.00012390522 1403:0.00016453446 1404:-0.00022502874 1405:-0.00020186529 1407:-0.00012729794 1408:-2.9891484e-05 1409:-0.00047028295 1410:0.00017409871 1411:0.00035262766 1412:3.3603577e-05 1413:-9.6027332e-05 1414:-1.641125e-05 1415:-3.5697987e-05 1416:0.00015549423 1417:-7.5042481e-05 1418:-6.652822e-05 1419:-8.9887581e-05 1420:-2.306671e-05 1421:0.00038819987 1422:2.7000846e-05 1423:-9.8003868e-05 1424:-5.4409365e-06 1426:4.5800982e-05 1427:-0.00015248518 1428:-6.8601214e-05 1429:-0.00014429411 1430:0.00068274583 1431:0.0010119118 1432:0.00013222324 1433:-0.00026717511 1435:-6.1148683e-05 1436:-0.00013738569 1437:1.2992383e-05 1438:-0.0003301595 1439:0.00036740868 1440:-0.00010322036 1441:-5.3142117e-05 1442:-4.3209224e-05 1443:-1.8779139e-05 1444:-0.00026761129 1445:-2.2415681e-05 1446:0.00033281863 1447:-0.00032680217 1448:0.00054988841 1449:-0.00021986877 1450:-4.1858329e-05 1451:-1.3910964e-05 1453:-4.9034152e-05 1454:-2.6530775e-05 1455:-4.6507525e-05 1457:9.9114492e-05 1458:-0.0002107621 1459:-0.0001503824 1460:-7.7189907e-05 1461:2.2299414e-06 1462:7.8550343e-05 1463:0.00018040888 1464:-8.4122155e-05 1465:-8.060503e-05 1466:4.4644185e-05 1467:-0.00019657172 1468:-0.00012852933 1469:0.0010170821 1470:4.6561112e-05 1471:-0.00019406909 1472:0.0002151619 1473:-9.2828595e-05 1474:-0.00018256884 1475:1.8430208e-05 1476:-9.4997216e-05 1477:-0.00025681205 1478:-0.00025865046 1479:0.00024135711 1480:-0.0001549256 1481:-9.5989904e-05 1482:0.00045382473 1483:-0.00010368257 1484:-7.1184688e-05 1485:0.0003485787 1486:-3.6733592e-05 1487:-4.5196364e-05 1488:-7.8208221e-05 1489:-0.00015354616 1490:-0.00036923622 1491:-0.00017860941 1492:-5.6779587e-05 1493:-0.00015692743 1494:-6.4326137e-05 1495:-0.0003233311 1496:-1.5089923e-05 1497:0.00020132271 1498:-4.3645356e-05 1499:-9.0066213e-05 1500:-0.00040169645 1501:-9.3759751e-05 1502:0.00015485413 1503:-0.00014830376 1504:8.07791e-05 1505:-0.00021856917 1506:-0.00014377409 1507:-0.00014929862 1508:-0.00013049431 1509:0.00063102122 1510:-0.00014025452 1511:-7.9458347e-05 1512:-0.00029182583 1513:-7.8202036e-05 1514:6.5147658e-05 1515:-2.2673639e-05 1516:-9.2691997e-05 1517:-3.8308364e-05 1518:2.2921713e-05 1519:-3.7967186e-06 1520:-0.00011817604 1521:-0.00011817604 1522:-5.4760592e-05 1523:3.5409124e-05 1524:-3.7568298e-05 1525:-0.00015539555 1526:0.00088876806 1527:0.00056438654 1528:0.0033993018 1529:-7.9870551e-05 1530:-0.00019170623 1531:-6.9455746e-05 1533:-0.00015549833 1534:5.9267804e-06 1535:2.2878039e-05 1536:-0.00016765756 1538:-0.00018681689 1539:-1.7202958e-05 1540:-0.00017519316 1541:-0.00019526227 1542:-6.8218442e-06 1543:0.00019900891 1544:-0.00025613554 1545:-0.00016714168 1546:-0.0001038607 1547:-0.00013145208 1548:-8.5145992e-05 1549:-0.00019324249 1550:0.003108731 1551:-0.00034868676 1552:0.00010491086 1553:4.3345615e-05 1554:-6.5584645e-05 1555:-4.837921e-05 1556:-2.1334892e-05 1557:0.00030415683 1558:0.00045187492 1559:-5.1525854e-05 1560:-0.00013843282 1561:0.00013044545 1562:-0.00015219953 1563:-3.7797938e-05 1564:-5.1275976e-05 1565:-7.8849604e-05 1566:-1.7163109e-06 1567:-0.00012945695 1568:-0.00012485089 1569:-4.4011147e-05 1570:-3.8216182e-05 1571:-0.00011964701 1572:4.5965575e-05 1573:0.00012501398 1574:3.0975938e-05 1575:-0.0002920503 1576:0.00015406674 1577:2.4544614e-05 1578:0.00052755658 1579:1.9033634e-05 1580:-7.9689926e-05 1581:0.0002358748 1582:-9.2903916e-05 1583:6.3526713e-05 1584:5.6242457e-06 1586:-6.4943168e-05 1587:-0.00010605075 1588:-4.4652843e-05 1589:2.6895497e-05 1590:-7.0793467e-05 1591:0.00037168013 1592:-0.00014274851 1593:-0.00014371343 1594:-3.199451e-05 1595:-0.00025130514 1596:-6.5258813e-05 1597:-0.00014921826 1598:-0.00035716061 1599:-3.7804224e-05 1600:-7.8517085e-05 1601:-0.00020513158 1602:-0.00021810443 1603:-0.00046004006 1604:8.3145722e-05 1605:-2.9503404e-05 1606:-9.0717993e-05 1607:-0.00014996894 1608:0.00065283634 1609:-6.5714303e-05 1610:-0.0002435551 1611:-7.4793068e-05 1612:-0.00024817727 1613:-0.00022080142 1614:4.1054491e-06 1615:-0.00012095655 1616:-9.0311718e-05 1617:-9.0311718e-05 1618:-0.00013597433 1620:0.00037901828 1621:-0.00014052188 1623:-3.879358e-05 1624:-7.397501e-05 1625:0.00014663611 1626:0.0002016927 1627:0.00012993504 1628:-0.00011582256 1629:-7.1061419e-05 1630:7.7775985e-06 1631:-0.00014272262 1632:-4.6845402e-05 1634:0.00019408895 1635:5.2744697e-05 1636:-6.7072338e-05 1637:-0.00019036648 1638:-0.00026003181 1639:0.00039786787 1640:-6.5335633e-05 1641:1.7389189e-05 1642:6.0317034e-05 1643:8.2911349e-05 1644:-0.00014539719 1645:-7.5013209e-05 1646:-5.2531523e-05 1647:-2.1845881e-05 1649:-0.00016701376 1650:-5.7124293e-05 1651:0.00039520947 1652:-2.9620242e-05 1653:-0.00012007965 1654:-4.8811817e-05 1655:5.2467356e-05 1656:-4.0091534e-05 1657:-0.00014008608 1658:-6.3907159e-05 1659:-0.00012472399 1660:-0.00031569516 1661:-0.00024726082 1662:-6.8515503e-05 1663:-7.0325448e-05 1664:-4.7552283e-05 1665:0.00088132574 1666:-0.00012274503 1667:-8.0261438e-05 1668:3.1805637e-05 1669:-6.9291556e-05 1670:-8.3297098e-05 1671:1.7236696e-05 1672:-0.00011699472 1673:-6.1762606e-05 1674:-0.00011978052 1675:0.00040992894 1676:0.00027009024 1677:0.00030322064 1678:-2.3066685e-05 1679:4.353196e-05 1680:-4.5414195e-05 1681:0.00024879337 1682:-0.00023506477 1683:-0.00010307442 1685:0.00097231613 1686:-5.4888362e-05 1687:-0.0001159499 1688:0.00022499097 1689:0.00025152025 1690:-2.1444332e-05 1691:-9.6180433e-05 1692:1.5847676e-06 1693:-9.2047694e-06 1694:-7.5620192e-06 1695:-2.0387886e-05 1696:-1.8683237e-05 1697:-9.8249584e-05 1698:-0.00010357152 1699:-0.0001005883 1700:0.00067034247 1701:-1.4338664e-05 1702:-0.00011489107 1703:9.8040273e-06 1704:-0.00011456454 1705:-7.416094e-05 1706:-4.1693755e-05 1707:0.00017919797 1708:3.7254424e-05 1709:0.00032424007 1710:-0.00026275488 1711:0.00016068005 1712:-4.581437e-05 1713:0.00038780191 1714:-0.00013730855 1715:-0.00012433497 1716:-3.6258982e-05 1717:0.0014854771 1718:6.1519648e-05 1719:-1.6582486e-05 1720:6.758541e-05 1721:-8.0324979e-05 1722:-5.4306209e-05 1723:0.00017779798 1724:-6.0995539e-05 1725:0.00027977198 1726:1.2819059e-05 1727:0.00014590358 1728:-0.00012778994 1729:-3.4278208e-05 1730:-8.2765604e-05 1731:2.4765111e-06 1732:-1.6346477e-05 1733:-0.00011291758 1734:5.305175e-05 1735:-0.00022411197 1736:-0.00011643223 1737:-0.00014935194 1738:0.00012033708 1739:1.95185e-05 1740:-7.5626635e-06 1741:-9.8863391e-05 1742:-1.4477819e-05 1743:-6.9448138e-06 1744:0.00040310872 1745:-6.508347e-05 1746:-6.1082799e-05 1747:-0.00014949241 1748:-9.3615767e-05 1749:-2.8194956e-05 1750:5.3099073e-05 1751:0.0001416899 1752:-0.00011952279 1753:-5.4756416e-05 1754:0.00017462885 1755:0.00018596735 1757:-5.6230609e-05 1758:0.00013795332 1759:-0.00015540066 1760:-0.00019838857 1761:-5.4976019e-05 1762:-5.4976019e-05 1763:-4.3661134e-05 1764:-2.9064153e-05 1765:0.00010502119 1766:-4.1313102e-05 1767:0.00016777194 1768:-4.3179676e-05 1769:4.1019874e-05 1770:-0.00013528745 1771:-0.00013497665 1772:-1.1823456e-05 1773:-3.7490914e-05 1774:-0.00012052813 1775:0.00013587272 1776:0.00011082213 1777:-6.6782064e-05 1778:-0.00017672042 1779:-6.5674263e-05 1781:-0.00024880748 1782:-2.5007947e-05 1783:0.00066342071 1784:-0.00020027171 1785:0.00052653602 1786:7.3638825e-05 1787:-9.952399e-05 1788:-8.2983999e-05 1789:-9.1615286e-05 1791:-0.00010465895 1792:-6.2532315e-05 1793:-9.4406758e-05 1794:1.086497e-05 1795:5.7421559e-05 1796:-8.7944652e-05 1797:7.9614501e-06 1798:-2.3347271e-05 1799:0.00010703376 1800:-0.00010138036 1802:0.0007601268 1803:-1.8666442e-06 1804:5.2527834e-05 1805:9.4149851e-05 1806:-0.0001906902 1808:0.0010196081 1809:8.9861405e-06 1810:-2.6265225e-05 1811:2.5681486e-05 1812:4.5362893e-05 1813:-0.00015833936 1814:-9.8338103e-05 1815:-0.00019624115 1816:0.00016478793 1817:0.00047696228 1818:-7.2793839e-05 1819:0.00019941488 1820:6.5987151e-05 1822:5.4948352e-05 1823:-5.6153905e-05 1824:-0.00010137865 1825:-1.0867411e-05 1826:-1.0867411e-05 1827:0.00025920669 1828:-9.1914117e-05 1829:0.00032483158 1831:-0.00010618922 1833:-2.6205298e-05 1834:-0.00011115542 1835:-0.00020368704 1836:3.0929667e-05 1837:-0.00015162758 1838:0.00041852458 1840:-2.3499997e-05 1841:-9.7985117e-05 1842:-6.5975386e-05 1843:-8.4881307e-05 1844:-4.1366573e-05 1845:-6.0805418e-05 1846:3.2073422e-05 1847:-6.6068664e-05 1848:-4.7219778e-06 1849:-8.7476292e-05 1850:-0.0002752828 1851:-0.00014871555 1852:-7.6857112e-05 1853:-3.4217574e-05 1854:-0.00013299772 1855:-9.6089039e-05 1856:-0.0002325142 1857:-4.3753247e-05 1858:9.9499775e-05 1859:-0.00017180057 1860:-4.8258549e-05 1861:-3.7363814e-05 1862:6.5534005e-05 1863:0.00030149458 1864:5.297962e-05 1865:-0.00015390893 1866:-5.3926527e-05 1867:8.122452e-05 1868:-5.3744447e-05 1870:1.979966e-05 1871:1.979966e-05 1872:-2.7495314e-05 1873:-4.5299836e-05 1874:-4.7383655e-05 1875:-0.00016379844 1876:1.4915965e-05 1877:8.4814426e-05 1878:-6.7124362e-05 1879:-3.5296725e-05 1880:0.00035506475 1881:-9.3068928e-05 1882:1.2142247e-05 1883:-7.0818031e-05 1884:0.00011379607 1885:-6.68855e-06 1886:-6.0910155e-05 1887:2.6594391e-06 1888:-6.8478577e-05 1889:-5.2015788e-05 1890:-2.0604737e-05 1891:0.00036057059 1892:0.00058648543 1893:-3.4183413e-05 1894:-5.0011688e-05 1895:-4.9339611e-05 1896:2.0469051e-05 1897:-5.14856e-05 1898:-6.7534485e-05 1899:-8.7066874e-05 1900:-2.3647837e-05 1901:-5.4943233e-05 1903:-0.00038239342 1904:0.00010792614 1905:-4.8197773e-05 1906:-3.9189817e-05 1907:-4.873109e-05 1908:-8.0721751e-05 1909:-6.0501308e-05 1910:3.5101719e-05 1911:0.00010852329 1912:-0.00022809427 1913:-6.9922262e-06 1915:-0.00027300522 1916:0.00025182686 1917:-0.00010793487 1918:0.00030569953 1919:1.8303695e-05 1920:-7.8235375e-05 1921:-2.1177559e-05 1922:-1.6779219e-05 1923:-3.6222005e-05 1924:6.2587758e-05 1925:-8.5080428e-05 1926:2.3294973e-05 1927:-3.4132008e-05 1928:0.00014299518 1929:-0.00014790591 1930:-4.8286875e-05 1931:0.00010241148 1932:-0.00010048234 1933:-4.9834187e-05 1934:-1.2085327e-05 1935:4.4133544e-06 1936:0.00033912234 1937:-0.0002500416 1938:-1.4385687e-05 1939:-9.8012461e-05 1940:-7.0590388e-05 1941:-5.0322666e-05 1942:-5.1096224e-05 1943:0.0002880118 1944:-3.8061997e-05 1945:-0.00012179597 1946:0.00044069393 1947:7.3977171e-06 1948:-0.0001040276 1949:0.00012151715 1950:-1.0299988e-05 1951:0.00020166757 1952:-3.471932e-05 1953:-3.1283671e-05 1954:-0.00010375508 1955:0.00051703409 1956:-0.00013698296 1957:-0.00011728262 1958:6.4050058e-05 1960:1.4470429e-05 1961:-0.00018466134 1962:-0.00055014715 1963:-5.8258142e-05 1964:-1.9019313e-05 1965:-0.00013592176 1966:-2.9266275e-05 1967:4.108891e-07 1968:-8.9125926e-05 1969:6.0683182e-05 1970:7.8085461e-05 1972:-9.9438883e-05 1973:-0.00015576124 1974:-9.2571121e-05 1975:-0.00019010328 1976:0.00036303926 1977:-7.0108188e-05 1978:-0.00024519252 1979:-0.00013670283 1980:0.00030444094 1981:-7.9725571e-05 1983:0.0015335341 1984:0.00020285642 1985:-0.00010372321 1986:-4.7465586e-05 1987:-6.741305e-05 1988:-3.5056019e-05 1989:-7.3609874e-05 1990:0.00038629651 1991:-2.7043534e-05 1992:-5.1107407e-05 1993:0.00011670052 1994:-1.3554235e-05 1995:-6.0681527e-05 1996:-4.6835023e-05 1997:-6.3836684e-05 1998:-7.5406533e-06 1999:-0.00011384765 2000:0.00067231257 2001:-0.00010516982 2002:-0.00014863073 2003:-2.1961287e-06 2005:-0.00015304697 2006:-1.406491e-05 2007:0.00040926135 2008:-0.00010492332 2009:-0.00013482226 2010:-4.8915688e-05 2011:-0.00019698194 2012:-3.5385787e-05 2013:-0.00020959173 2014:-8.2489678e-05 2015:-8.0381767e-05 2016:0.00014876301 2017:0.00029838918 2018:0.00030841309 2020:-9.1359092e-05 2021:0.00028674389 2022:0.00075301738 2023:-6.3742023e-05 2024:0.0002381277 2025:0.00020790659 2026:0.00049129868 2027:-3.9106773e-05 2029:-0.00019527941 2030:-5.3338659e-05 2032:-9.0008922e-05 2034:0.00022054488 2035:-7.0268296e-05 2036:-0.00010609404 2037:-6.6823384e-05 2038:-5.014347e-05 2039:-4.460691e-05 2040:2.3131421e-05 2041:0.00031229996 2042:0.00013190955 2043:-2.3631685e-05 2044:-5.8381567e-05 2045:-9.7215532e-05 2046:-3.652753e-05 2047:-6.5435815e-05 2048:-1.2038193e-05 2049:-0.00012121064 2050:-0.00022376743 2053:-9.5167248e-05 2054:7.9407037e-05 2055:0.00045283142 2056:-6.7735127e-05 2057:-2.0838945e-05 2058:1.9335364e-05 2059:0.00029877818 2060:-2.2296288e-05 2061:-4.5529127e-05 2062:0.00015886888 2063:1.882059e-05 2064:-3.9051709e-05 2065:-2.9455405e-05 2066:-0.00028743569 2067:0.00029801854 2068:-0.00011664871 2069:-0.00014009274 2070:-3.5973164e-05 2071:-0.00018832697 2072:-5.1615796e-05 2073:-3.2870539e-05 2074:-0.00012501933 2075:-5.7266927e-05 2076:-1.2510052e-05 2077:-5.0709892e-05 2078:7.95995e-05 2081:-1.1946688e-05 2082:-2.8155942e-05 2083:-0.00018148369 2084:-5.0223145e-05 2086:-7.2567309e-05 2087:-5.3821244e-05 2088:-7.439794e-05 2090:0.00022450276 2091:-7.822764e-05 2092:-6.8731853e-05 2094:-5.0360726e-05 2095:-9.4013289e-05 2097:0.00013628493 2098:0.0015488743 2099:5.6753317e-05 2100:-6.148524e-05 2101:-5.4369153e-05 2102:5.8166464e-05 2103:0.0014346122 2104:-4.6119301e-05 2105:-9.6716059e-05 2106:3.2179141e-05 2107:0.00013030955 2108:2.0005566e-05 2109:0.00019112509 2111:-4.9522812e-05 2112:-0.00019409647 2113:-0.0001510599 2114:0.00032236692 2115:-8.5703432e-05 2116:-1.3024883e-05 2117:-3.4232744e-05 2118:-7.7413579e-06 2119:1.7562023e-05 2120:-8.0810074e-05 2121:0.00022556935 2122:0.0015549782 2123:0.00022349121 2124:-6.2346866e-05 2126:-2.7051818e-05 2127:-4.6634348e-05 2128:0.00011137722 2129:0.00011137722 2130:0.00036407649 2131:-3.6261521e-05 2132:0.00031715684 2133:9.7008393e-05 2134:0.0011815275 2135:0.00059707084 2136:-0.00019177604 2137:-0.00030708589 2138:-1.8767094e-05 2139:0.00015343662 2140:-2.7361259e-05 2141:-0.00013123237 2142:0.00018996108 2143:-2.8247316e-06 2144:-5.377275e-05 2146:0.00021150567 2147:-4.7457852e-05 2148:-2.5540163e-05 2149:7.851414e-06 2150:-9.4628391e-05 2151:-8.3823485e-05 2152:-0.00013348587 2153:0.00035283982 2154:3.0230018e-05 2156:-5.2972762e-05 2157:-2.0497044e-05 2158:-8.404148e-05 2159:-2.4790666e-05 2160:0.00024702778 2161:0.00037494011 2162:0.00010381526 2163:0.00037034712 2164:0.00010047261 2165:0.00010374088 2166:-7.2203235e-05 2167:-0.00016739596 2168:2.0300442e-05 2169:-2.8567778e-05 2170:1.398234e-06 2171:0.00057661696 2172:-2.4427211e-05 2173:-0.00018117842 2175:0.00037107989 2177:-5.5129552e-05 2178:0.00011569617 2179:-0.00014469434 2180:-6.1885003e-06 2181:-0.00013219463 2182:-3.6375197e-05 2183:-4.5641413e-05 2184:-6.838805e-05 2185:0.00015628106 2186:-1.076772e-05 2187:0.0001429337 2188:0.00036918142 2189:0.00019687961 2190:0.00030757769 2191:3.8590183e-06 2192:-6.9434158e-05 2193:-9.8655779e-05 2194:9.3877592e-05 2195:8.0553917e-05 2196:3.2315889e-05 2197:-0.00022175651 2198:0.00033051 2200:-9.0386689e-05 2201:0.0013281929 2202:-2.5397521e-06 2203:-9.396902e-06 2204:-8.7968845e-05 2205:4.1718904e-05 2206:0.00057340559 2207:-8.5179396e-05 2208:-8.8821958e-05 2209:-8.5740408e-05 2210:9.0297217e-05 2211:0.00019756668 2212:-9.0642689e-06 2213:-2.8998169e-05 2214:-3.7281075e-05 2215:0.00043687064 2216:0.0010021784 2217:-0.00010286851 2218:0.00044566457 2219:0.0002709027 2220:-5.3024742e-05 2221:-0.00010456843 2222:-1.5016682e-05 2223:6.7366549e-05 2224:-8.4685198e-05 2225:-0.00013204958 2226:-8.8571149e-05 2227:0.00033963707 2228:-0.0002250062 2229:0.00044427856 2230:-0.00021909128 2231:-1.7876129e-06 2232:-8.2793798e-05 2233:-5.1929561e-05 2234:2.4123867e-05 2235:6.922082e-05 2236:0.00019427857 2237:-2.1703006e-05 2238:0.00050833495 2239:0.0002411618 2240:0.0017731457 2241:-1.6470416e-05 2242:-4.694653e-05 2243:6.4415335e-06 2244:-0.00011532541 2245:-0.00013830836 2246:0.00027922075 2247:3.816657e-05 2248:0.00020579177 2249:-9.2131359e-06 2250:0.0019965929 2251:-0.00025476012 2252:0.0017317889 2253:-3.5067013e-05 2254:-3.6581765e-05 2255:0.00015868187 2256:-0.000152377 2257:-3.5461115e-05 2258:-0.00014795878 2259:1.0311687e-05 2260:-0.00010555568 2261:9.0170644e-05 2262:-0.00022025897 2263:-4.4217708e-05 2264:0.00015688663 2265:-7.2860994e-06 2266:-1.6020085e-05 2268:-1.34807e-05 2269:-9.1940688e-05 2270:0.00020616617 2271:0.00012476042 2272:-5.8425609e-05 2273:-0.00011790198 2274:-5.759293e-05 2275:7.8877507e-05 2276:-4.5583121e-05 2277:-0.00038565946 2278:-6.0306797e-05 2279:-5.7933474e-05 2280:0.00047619132 2281:-1.828194e-05 2282:6.3564781e-05 2283:-3.6953854e-05 2284:5.9011032e-05 2285:-0.00016204639 2286:-1.613062e-05 2287:-3.3308377e-05 2289:7.9157908e-05 2290:-0.00011301065 2291:9.0994785e-05 2292:7.3497948e-05 2293:-7.0000948e-05 2294:-3.8601378e-05 2295:-0.00018984651 2296:3.6332905e-05 2297:-4.8518665e-05 2298:8.2515842e-05 2299:-6.3822212e-05 2301:0.00035770467 2303:-7.159813e-05 2304:-5.0831128e-05 2305:0.00012713276 2306:0.00032957582 2307:-7.6302909e-05 2308:-0.00011396553 2309:-0.00010822679 2310:-0.00013278147 2311:-2.1316851e-05 2312:-1.6764987e-05 2313:-0.00025963481 2314:-5.0397273e-05 2315:7.3433584e-05 2316:0.00029440425 2317:-8.5837564e-05 2318:0.00016527927 2319:-5.2333064e-05 2320:1.6027786e-06 2321:-8.6661988e-05 2322:0.00017499877 2324:-7.0693946e-05 2325:0.00014611536 2326:-6.3685649e-05 2327:-0.00014876518 2328:-4.7659887e-05 2329:-4.127116e-05 2330:-4.127116e-05 2331:-4.5230736e-05 2333:0.00013668142 2334:-6.3928725e-05 2335:0.00016097695 2336:-5.0903359e-06 2337:-4.6255711e-05 2338:-3.0399913e-05 2339:-0.00026712939 2340:0.00058686419 2341:0.00027522189 2342:-2.6346768e-05 2343:-0.00015092907 2344:-9.4408329e-05 2345:-5.858417e-05 2347:-3.4074212e-05 2348:-5.6779503e-05 2350:-6.4612061e-05 2351:0.00042535042 2352:4.350139e-05 2353:0.00030326011 2354:0.0006658957 2355:-0.00015473532 2356:-3.9614129e-05 2357:-3.6930443e-05 2358:5.2161038e-05 2359:-0.00014350645 2360:-3.3220247e-05 2361:-4.0971256e-05 2362:-0.00010944524 2363:-7.0520648e-05 2364:-4.2789266e-05 2365:1.3503558e-05 2366:-2.576823e-05 2367:-0.00037998057 2368:-7.5864547e-05 2369:0.00043990588 2370:-4.0087973e-05 2371:-3.7781061e-05 2372:-4.1584073e-05 2373:-0.00015736563 2374:-8.8552253e-05 2375:-0.00010423489 2376:9.9309582e-05 2377:-5.9154892e-05 2378:-3.7720463e-05 2379:5.4158969e-05 2380:-2.3146627e-05 2381:-8.5979409e-05 2382:0.00038725478 2383:3.4613015e-05 2384:-0.00039770573 2385:0.00083294453 2386:-8.4812549e-05 2387:-3.7881538e-05 2388:0.00060440833 2389:-5.1866933e-05 2392:4.5125576e-06 2393:0.00045253604 2394:-9.1379727e-05 2395:-0.00013391019 2396:0.00017045475 2397:-1.901094e-05 2398:0.00011358826 2399:-9.7945289e-05 2400:-6.3651234e-05 2401:-7.603968e-05 2402:9.4396957e-05 2403:-0.00013892059 2404:4.949253e-05 2406:-4.8384365e-05 2407:1.4515012e-05 2408:9.6577269e-06 2409:-1.415634e-05 2410:-5.6056022e-05 2411:7.4334457e-05 2412:4.3989344e-06 2414:-4.3025339e-05 2415:-4.6445235e-05 2416:-0.00012224409 2417:0.00013495398 2418:0.00014848573 2419:8.2385552e-05 2420:-2.5895659e-05 2421:0.00062503759 2422:-0.00010797986 2423:0.00034312098 2424:5.842264e-05 2425:-3.3765307e-05 2426:-0.00016978203 2427:0.00075173058 2428:3.1105472e-05 2429:-5.050033e-05 2430:-6.1161598e-05 2431:-5.050033e-05 2432:-8.5824962e-05 2433:1.8061444e-05 2435:0.00022992662 2436:-8.0568279e-05 2438:1.0788802e-05 2440:-4.0221999e-05 2441:2.9788805e-06 2442:-0.00013456948 2443:1.6674965e-05 2444:-5.2246605e-06 2445:-0.00011818412 2446:-4.7667359e-05 2448:0.00016001074 2449:0.00017442433 2450:-8.7803737e-06 2451:5.1861145e-05 2453:-4.3884729e-06 2454:-0.00010066185 2455:-0.0001342413 2456:-4.0687173e-05 2457:8.8410481e-05 2458:-5.5588986e-05 2459:-3.2128977e-05 2461:0.00041046194 2462:-5.0890154e-05 2463:-1.2497691e-05 2464:-4.1919131e-05 2465:5.0351198e-05 2466:1.3828108e-05 2467:8.3464882e-05 2468:-0.00013803934 2469:-6.2737749e-06 2470:0.00011808102 2471:2.5774823e-05 2472:0.00063300977 2474:-3.4568504e-05 2475:-3.3967826e-05 2476:-7.8190627e-05 2477:-8.6359352e-05 2478:0.00016360676 2479:-9.7952063e-05 2480:0.00010113283 2481:-4.445267e-05 2484:1.1472719e-05 2485:-8.1246013e-05 2486:0.0001053676 2487:-0.00012847886 2488:-7.8093421e-05 2489:-5.9171907e-05 2490:0.00047542428 2491:0.00020617546 2492:-5.2056741e-05 2494:-5.4074597e-05 2495:2.9761461e-06 2496:-9.6910953e-05 2497:4.4781638e-05 2498:-0.00027310211 2499:-5.6094696e-06 2500:-8.0043683e-06 2501:-6.6451488e-05 2502:-9.6087257e-05 2503:-5.7470104e-05 2504:-2.3851879e-05 2508:1.792183e-05 2509:-6.9353002e-05 2510:-2.6607246e-05 2511:-4.2409378e-05 2512:-0.00017456892 2513:-2.0495689e-05 2514:-3.5654102e-05 2515:-2.265856e-05 2516:-0.00018730914 2517:-7.6785596e-05 2518:-7.0974129e-05 2519:-5.8808233e-05 2520:-0.00014553766 2521:-8.1249045e-06 2522:3.1730506e-05 2523:3.9758226e-05 2524:-5.808887e-05 2525:-0.00010879836 2526:0.00059432333 2527:-3.3687003e-05 2528:-5.3634663e-05 2529:-0.0001409262 2530:-1.5539359e-05 2531:-9.8167191e-05 2532:0.00010034759 2533:-0.00011329506 2534:-5.8718302e-05 2535:-1.9074208e-05 2537:8.5515603e-05 2538:-6.631163e-05 2540:0.0003853059 2541:-2.4305567e-05 2542:0.00015060189 2543:-0.00013820973 2544:-9.8325698e-05 2545:-2.1560543e-05 2546:-0.00042483324 2547:-1.555127e-05 2548:-5.9749804e-05 2549:-4.4648048e-05 2551:-0.00011182975 2552:-5.2577423e-05 2553:-7.558248e-05 2554:-0.00012552501 2555:-0.00018007896 2556:-1.2096723e-05 2557:6.1987994e-05 2558:-6.3131803e-05 2559:-0.00013607681 2560:9.5527375e-06 2561:-3.0652613e-05 2562:-3.5185225e-05 2564:0.00028459262 2565:-1.363289e-05 2566:7.0280505e-05 2567:-1.4388987e-05 2568:-2.5656311e-05 2569:-0.00011106055 2570:-2.3064558e-05 2571:-9.4658069e-05 2573:-2.0309168e-05 2574:-4.7379723e-05 2575:-0.00010588932 2576:-0.0001152507 2577:-9.9230074e-06 2578:0.00022938476 2580:-6.2047955e-05 2581:0.00062793697 2582:-1.8587521e-05 2583:-0.00013529927 2584:-1.634985e-05 2585:-1.2367398e-05 2586:-0.00012095142 2587:-0.00021620681 2588:-4.2796553e-05 2589:-9.7844291e-05 2590:-1.3311914e-05 2591:7.4167406e-07 2592:-2.4942879e-05 2593:-0.00015586396 2594:-0.00012708653 2595:-5.8752506e-05 2596:-9.2376249e-05 2597:-5.3555828e-05 2598:-6.6729132e-05 2599:-1.3096038e-05 2602:3.3775483e-05 2603:-9.3265509e-05 2604:0.00035313834 2605:0.00011719934 2606:-2.1110078e-05 2608:8.791525e-05 2609:-7.0573056e-05 2611:1.6507565e-05 2612:-0.00015121831 2615:0.00034326533 2616:-4.8122311e-05 2617:-4.8409805e-05 2618:-9.4297298e-05 2619:-8.6785607e-05 2620:-9.298401e-05 2621:-3.6896614e-05 2622:0.00011542479 2623:6.9097994e-05 2624:-4.0924075e-05 2625:7.3718533e-05 2626:-6.5894819e-05 2628:-5.2535019e-05 2629:-3.2099259e-05 2631:-7.4850199e-05 2632:-1.3052555e-05 2633:-8.3281244e-05 2634:-1.7844779e-05 2636:5.6521603e-05 2637:-3.115501e-05 2638:0.00016939963 2639:0.00012439651 2640:-0.00024120623 2642:6.2037092e-05 2643:9.9367062e-05 2644:-9.5932264e-06 2645:6.1341372e-05 2646:6.4846718e-06 2647:7.5419259e-05 2648:-2.2102242e-05 2649:0.00013681983 2650:-9.2713184e-05 2651:-3.2202788e-05 2652:4.295669e-05 2653:-4.6165733e-05 2655:-4.9714108e-05 2656:-3.1216019e-05 2657:0.00010589993 2658:-3.4974633e-05 2659:-2.2642153e-05 2660:3.2833907e-06 2662:-6.1433027e-05 2663:-5.6826968e-05 2664:-9.4485295e-05 2665:0.00024189979 2666:0.00050622824 2667:-5.1451239e-05 2668:-1.1654162e-05 2669:7.5895514e-06 2671:-2.8127186e-05 2672:-8.7905551e-05 2673:-2.3321709e-05 2674:-3.3853299e-05 2675:-6.6003551e-05 2676:-2.2784823e-05 2677:-0.00038923463 2678:-7.7525132e-05 2679:7.4083779e-05 2680:-3.7302281e-05 2681:-9.5467673e-05 2682:0.0003284126 2683:1.6697828e-05 2684:-7.0667547e-06 2685:-1.601077e-05 2686:0.001191513 2687:8.3726627e-05 2688:-3.7481939e-05 2689:0.00026974297 2691:0.00026791496 2692:-1.9323586e-05 2693:1.0595725e-05 2694:0.0002103286 2695:-9.7610711e-05 2697:-0.0001218917 2698:-7.0916445e-05 2699:-8.2709426e-05 2700:-0.00021977673 2701:-5.4963897e-05 2702:-1.2069155e-05 2703:-8.2697179e-06 2704:-0.00012485849 2705:6.3853811e-05 2706:-0.00011143451 2707:-3.4581029e-05 2708:-7.6651331e-06 2709:0.00030827089 2710:-0.00012083488 2711:-0.00017869061 2712:0.00017805114 2713:-4.83244e-05 2715:-8.2428443e-05 2718:0.00011916549 2719:-3.3434149e-05 2721:-8.7911731e-06 2722:5.5536308e-05 2723:0.0001295136 2724:-0.000128652 2726:0.00036522016 2727:-9.6094846e-05 2728:-0.00013319848 2729:-0.00013319848 2730:-5.4798082e-05 2731:-3.9447412e-05 2733:-0.00019219299 2734:-0.00010579758 2735:-4.7390851e-05 2736:-5.7609901e-05 2737:8.4905179e-05 2738:-7.0158589e-05 2739:-8.6082771e-05 2740:0.00016217743 2741:8.3218467e-05 2744:-7.9620251e-05 2745:0.00077228138 2746:-6.3924614e-05 2748:-6.3861917e-05 2749:-5.9255141e-05 2750:-0.00010100833 2751:-3.3226304e-05 2752:-0.00022324994 2753:6.3034931e-05 2754:0.00029206448 2756:2.1459316e-05 2757:0.00021353939 2758:0.00021353939 2759:-7.1695722e-05 2760:-2.7244383e-05 2761:-6.2258427e-05 2762:-2.3459999e-05 2763:7.3070609e-05 2764:4.317339e-05 2765:3.4208679e-05 2766:-5.8560116e-05 2767:-1.0850045e-05 2768:0.00010918011 2769:7.3582654e-05 2770:-0.00014895078 2771:0.00033254066 2772:-7.804051e-05 2773:-1.1816994e-05 2774:-9.145504e-05 2775:0.00028202377 2776:-0.00011584647 2777:2.2310251e-05 2778:-1.9437855e-05 2779:0.0001460239 2780:-4.5906334e-05 2781:-0.00014406334 2782:-1.7206121e-05 2783:-1.6743914e-05 2784:-6.5602922e-05 2785:2.8759188e-05 2786:1.9753141e-05 2787:-5.5873043e-05 2789:0.00024222615 2791:0.00014194823 2792:0.00023135463 2793:-7.7989585e-05 2794:-5.6044686e-05 2795:-0.00011011888 2796:0.00031281513 2798:0.0011351481 2799:0.0015648836 2801:0.00015340555 2803:-7.790274e-05 2804:4.3729739e-05 2806:0.00010344773 2807:-0.00043740662 2808:5.2738102e-05 2809:-6.1941151e-05 2813:-9.6335731e-05 2814:-6.7488123e-05 2815:0.00024633258 2816:-5.0134735e-05 2817:-0.00017044692 2818:-3.2590768e-05 2819:-7.6310469e-05 2820:-7.3662377e-05 2821:-9.0983347e-05 2822:-5.2692958e-05 2823:0.00027707574 2824:-0.00021451125 2825:0.0001892721 2826:-1.3345104e-05 2829:-7.1759791e-06 2830:5.457845e-05 2831:-9.8590914e-05 2833:0.00022030616 2834:-8.1266437e-05 2835:3.061496e-05 2837:0.00044589757 2838:8.9729183e-05 2839:-3.2770553e-05 2840:6.2072271e-05 2841:0.0001282928 2842:7.5999764e-05 2844:-8.0359452e-05 2845:3.2879259e-05 2846:4.793474e-05 2848:-1.5505544e-05 2849:1.801602e-05 2850:-0.00023216872 2851:-0.00015535779 2852:0.00012024503 2853:-6.9718088e-05 2854:0.00019109907 2855:-6.6266104e-05 2856:-3.2036958e-05 2857:-3.5195273e-05 2858:0.00050585717 2859:-5.4639757e-05 2860:-0.00010170964 2861:5.464186e-05 2862:-0.00012570279 2864:8.0041063e-05 2865:-3.3150773e-05 2866:-9.1423215e-05 2867:-0.0002446349 2868:-2.7612519e-05 2871:-5.7946851e-05 2873:0.00047602126 2874:-0.00014990369 2875:-2.8783894e-05 2876:-2.757389e-06 2877:-8.6171007e-05 2878:-6.9397691e-05 2879:8.2936996e-05 2880:-2.5984696e-06 2881:-7.6003169e-05 2882:-3.5918136e-05 2883:7.3627692e-05 2884:-2.508194e-06 2886:0.0011533863 2887:-0.00020947907 2888:4.7410311e-05 2889:3.5456826e-05 2891:-1.6580199e-05 2892:9.7284581e-05 2893:-8.5896652e-05 2894:-5.1132309e-05 2896:5.4605945e-05 2897:-3.4417702e-05 2900:5.8836838e-05 2901:-0.00019127906 2902:-4.2838557e-05 2904:-8.0753292e-05 2905:-4.7198417e-05 2907:0.00042290916 2908:6.3172178e-05 2909:-0.00012812103 2910:-0.00013667758 2911:-0.00010277486 2912:-7.048071e-05 2913:-6.1530824e-05 2915:4.7525318e-05 2916:-0.00010715333 2917:-2.5559382e-05 2919:-6.8114336e-05 2920:-2.0651525e-05 2921:2.1757956e-05 2923:-6.1707178e-05 2924:0.0002994503 2925:-5.9272956e-05 2926:-7.2313674e-06 2927:4.2087722e-05 2928:0.00020189001 2929:-6.8821049e-05 2930:1.4994251e-05 2931:-0.0001223289 2932:4.4645611e-05 2933:-2.1008764e-05 2934:0.00012874232 2935:0.00036978407 2936:-1.3297325e-05 2937:-4.0138086e-05 2938:-1.7341472e-05 2940:-2.0067537e-05 2941:-0.00040089633 2942:-0.0001445669 2944:0.00019411581 2945:0.00018013353 2946:0.00040218909 2947:-0.0001850518 2948:4.5889581e-05 2949:-4.1803101e-05 2950:3.6254412e-05 2951:0.00012133494 2952:-5.6245372e-05 2953:3.8528222e-05 2954:-4.8417627e-05 2955:-7.851913e-05 2956:-2.963418e-05 2957:5.9202936e-05 2958:6.9359339e-06 2959:-9.2443726e-05 2960:-4.4082888e-05 2961:-9.8094446e-05 2962:-1.1944693e-05 2963:-3.4813882e-05 2965:4.2837666e-05 2966:-0.00063699146 2967:-0.0001194947 2968:3.3122087e-05 2969:-0.00019419937 2970:0.00023825769 2971:-4.5772893e-05 2972:-3.8539631e-05 2973:-1.5374782e-05 2974:0.00028459626 2975:0.00022022062 2976:0.00039103493 2977:-0.0001144931 2979:1.153151e-05 2980:-2.3492996e-05 2981:-4.4729728e-05 2982:-0.00023876244 2983:-2.5663996e-05 2984:7.6740638e-05 2985:-4.2303953e-05 2986:-3.7431666e-05 2987:0.00044302348 2988:3.7619357e-05 2989:7.1960829e-05 2991:-2.9323288e-05 2992:-9.412106e-06 2993:-3.9094961e-05 2994:-0.00010780012 2995:-2.8678714e-05 2996:5.3830739e-05 2997:0.00035828949 2998:0.00025825863 2999:9.992181e-05 3000:-7.4597665e-05 3001:1.0575994e-05 3004:-1.66722e-05 3005:0.00035954863 3008:4.1248422e-05 3009:-1.7897826e-05 3010:-3.2558804e-05 3011:2.2698759e-06 3012:-4.4488206e-05 3013:3.3983899e-05 3014:-2.0108078e-05 3018:0.00012613738 3021:-6.1267026e-05 3022:-2.3494906e-05 3023:0.00022152513 3024:4.0033006e-05 3025:-8.0259073e-05 3026:-5.7816666e-05 3027:3.1509082e-06 3029:0.00018721266 3030:-1.1616105e-06 3031:-0.00012266867 3033:-6.0570059e-05 3034:-2.8844239e-05 3035:-1.6408463e-05 3036:7.9994883e-05 3037:-2.0428637e-05 3038:-0.00016359321 3040:-3.115501e-05 3041:-5.0054205e-05 3042:-5.0421157e-05 3044:-0.00019660292 3045:0.00010786507 3046:0.0003910714 3047:-3.2564247e-05 3048:-7.1628921e-05 3049:0.00010121853 3050:0.00030177593 3051:0.00024539942 3052:0.0001104719 3053:-1.5559628e-05 3054:-1.2674812e-05 3055:-4.6502511e-05 3056:-4.5721528e-05 3057:0.00015252552 3058:0.0001812405 3059:-0.00010161498 3060:3.7888778e-05 3061:7.9473912e-06 3062:-9.3940325e-05 3063:-1.6426233e-05 3064:0.00013242058 3065:-2.8126178e-06 3066:-1.6360782e-05 3069:-1.1847255e-05 3070:-7.7720351e-06 3071:-2.6642309e-05 3072:-0.00011307417 3073:2.581037e-05 3074:5.8324069e-05 3075:-6.1276973e-05 3076:-2.6846625e-05 3077:-4.6963589e-05 3078:-2.6489985e-05 3079:-4.0168696e-05 3081:-7.0928734e-05 3082:-6.6318375e-05 3083:-3.9925169e-05 3084:-0.00011366565 3085:-1.6966002e-05 3086:0.00041942077 3087:0.00021902847 3088:-3.8544142e-05 3089:0.00047000212 3090:6.4553868e-05 3091:6.1721032e-05 3092:-3.3530152e-05 3093:-3.7100886e-05 3094:-3.8817503e-05 3095:6.1493272e-05 3096:-7.0257433e-05 3097:-2.2214293e-05 3098:9.7096658e-05 3099:-5.7136418e-05 3100:-7.0120859e-06 3101:-1.694622e-05 3102:-8.0588288e-05 3103:1.5503349e-05 3105:-0.00047953412 3106:-2.6229709e-05 3108:-0.00011767245 3109:-0.00017015415 3110:-2.9460582e-05 3111:-0.00016455774 3112:-1.6985726e-07 3113:7.3857341e-06 3114:-5.8119214e-05 3115:0.00011319722 3116:-0.00014641813 3117:0.00033182598 3118:3.7248381e-05 3119:0.00025779358 3120:-4.8283047e-05 3121:0.0002869498 3123:-7.8993246e-05 3124:0.00013594615 3127:-0.00016348223 3128:5.4598886e-06 3129:-2.3802164e-05 3130:1.5006403e-05 3131:2.7577249e-05 3132:2.1498246e-05 3133:5.8587008e-05 3134:0.00021606042 3135:-1.6337002e-05 3136:0.00024036218 3137:-2.8329558e-05 3139:-6.1854626e-06 3140:-0.00016902763 3141:2.3234368e-05 3143:-5.0050785e-05 3144:9.9944657e-05 3147:5.2923224e-05 3148:-0.00027117593 3149:-0.000108964 3150:-0.00013855513 3151:-0.0001398895 3152:-5.2205924e-05 3153:2.6344575e-05 3154:-8.8556175e-05 3156:0.00011656633 3157:2.737865e-05 3158:6.2251442e-05 3160:-6.1154038e-05 3161:1.7711617e-06 3162:-5.179684e-05 3163:8.2724517e-05 3165:-0.00018292225 3166:-5.7945384e-05 3167:0.00023409774 3169:-5.6293171e-05 3170:0.00038202913 3174:-4.276861e-05 3175:-3.0039622e-05 3176:-2.8322231e-05 3177:-0.00013439241 3179:-1.8214429e-05 3181:-0.00010928059 3182:-1.9332663e-05 3183:-4.3763233e-05 3184:0.00014042758 3185:0.00037878074 3187:-2.894854e-05 3188:5.6729547e-08 3189:-3.0231628e-05 3191:-2.6635395e-05 3192:-2.1948237e-05 3193:-2.1948237e-05 3194:-2.941761e-05 3195:-2.8396569e-05 3197:6.9670488e-05 3198:-3.9329349e-05 3199:-2.5775085e-05 3200:-1.0147261e-05 3203:-3.0273064e-05 3204:-6.2375198e-05 3205:-1.267382e-05 3206:0.00012865088 3207:-4.9757491e-06 3208:0.00016664155 3209:0.00019684063 3210:-0.00010278988 3211:-0.00010278988 3212:7.2507726e-05 3213:-2.7672924e-05 3215:-6.5518725e-05 3216:-1.6372425e-05 3217:-3.0687232e-05 3218:-0.00021816009 3219:0.00022581812 3220:-2.8113174e-05 3221:-1.38407e-05 3222:-5.7191715e-05 3223:-2.2080108e-05 3225:-0.00013193759 3226:5.5727396e-05 3228:-8.0635014e-05 3232:-5.2874206e-05 3233:-4.0308289e-05 3235:-5.5980698e-05 3236:0.00038481457 3237:-3.5477973e-05 3238:-7.8196819e-05 3239:-9.6463873e-06 3241:-5.343412e-05 3242:-0.00011839948 3245:-0.00015841791 3246:5.0611845e-07 3247:-3.1786083e-05 3248:2.1894122e-05 3251:3.975684e-05 3252:0.00023864598 3253:0.00070299773 3254:0.00029996966 3255:0.00015179794 3256:3.8899121e-05 3257:-9.4114541e-05 3260:-7.9849007e-05 3261:-1.4150888e-05 3262:2.3259985e-05 3263:-6.5188215e-05 3264:-7.0919079e-05 3265:-5.8013746e-05 3266:0.00013472748 3267:-9.1299393e-05 3270:-1.381634e-05 3271:0.00010505172 3272:-9.9027922e-05 3273:-0.00014761272 3274:-3.7340717e-05 3275:5.3115131e-05 3277:-2.8061862e-05 3278:-1.4423761e-05 3279:0.00015641325 3280:-7.7314726e-05 3281:-3.6817637e-05 3283:-7.8266283e-05 3284:-9.9429235e-06 3285:8.6122367e-05 3287:-0.00010100256 3289:0.00027760692 3292:3.3026648e-05 3295:-5.0598384e-05 3296:-3.5311285e-05 3297:-3.7605423e-05 3298:9.390503e-05 3299:-2.8018268e-05 3300:-4.914101e-05 3301:-7.6374243e-05 3302:-0.00010268137 3304:-0.00012415275 3305:-2.7043705e-05 3307:-4.2913965e-05 3308:-2.7391387e-05 3311:-7.6185104e-05 3313:-0.0001606218 3314:-1.6637761e-05 3315:0.00020941894 3316:-2.201946e-05 3317:-4.2350599e-05 3318:-2.3146226e-06 3319:-4.3193664e-05 3320:2.1349912e-05 3323:0.00059046922 3324:-6.6704088e-05 3325:-2.0825202e-05 3329:-6.3620951e-06 3331:0.00036531573 3332:-8.2494465e-05 3333:-1.0236356e-05 3335:0.00011107878 3337:-4.2096945e-05 3339:1.1577043e-05 3341:7.828707e-05 3342:-8.7016328e-05 3343:9.2299029e-05 3344:-1.7135011e-05 3345:-3.4270022e-05 3346:-2.3809913e-05 3347:-3.1036834e-05 3348:0.00044119218 3349:-8.1121274e-05 3350:2.5235875e-05 3352:5.5143319e-05 3353:-1.7765935e-05 3355:-1.5542046e-05 3356:1.0468864e-05 3357:-8.3467014e-05 3360:3.4652654e-05 3361:-5.2326879e-05 3362:-3.759388e-05 3363:-3.759388e-05 3364:4.3331813e-05 3365:0.00028722637 3366:0.00015378543 3367:-2.7168311e-05 3369:3.4671433e-05 3370:-1.6616483e-05 3371:-9.3993694e-05 3372:-1.5862664e-05 3373:-4.2364645e-05 3374:0.00030953228 3375:-2.3696637e-05 3376:1.9105706e-05 3378:-6.0295515e-05 3379:-0.00010346366 3380:-3.0602456e-05 3381:-2.6291253e-05 3382:-5.8134658e-05 3383:-1.2367398e-05 3387:-6.0702834e-05 3388:6.6059736e-05 3389:8.0038235e-06 3390:4.2678937e-05 3391:-7.1315364e-05 3392:-1.7259894e-05 3393:0.00012953524 3395:-6.1891791e-05 3396:-2.6402395e-05 3397:-3.0313391e-05 3398:1.025222e-05 3399:4.6443143e-05 3400:0.00022064867 3401:2.0429679e-05 3402:0.00013700504 3403:-7.9517995e-05 3404:-2.2239074e-05 3405:-6.6786073e-05 3407:8.6039217e-05 3408:7.7485674e-05 3409:-1.3207549e-05 3412:-3.5392688e-05 3413:-3.5647434e-05 3414:3.3162101e-05 3416:0.00030016087 3418:-7.8360048e-05 3419:-4.5236007e-05 3420:-3.8411756e-05 3421:-0.0001085442 3425:-0.00010308116 3426:-0.00013242936 3427:-3.8330076e-05 3428:-8.5485472e-06 3429:-8.2037022e-06 3430:-5.7808345e-05 3431:-1.5269932e-05 3432:0.0001742615 3434:-3.1478357e-05 3435:-1.617264e-05 3436:-1.617264e-05 3438:-4.0120805e-05 3439:-1.6971957e-05 3440:-6.6666049e-05 3441:-1.8589342e-05 3442:2.6860818e-05 3444:1.5059035e-05 3446:0.00017378766 3447:3.0333842e-06 3448:-0.00013043892 3449:7.6161406e-05 3450:-1.9189019e-05 3451:4.7758302e-05 3452:-1.1141165e-05 3454:-8.1932485e-05 3456:-3.3393706e-05 3457:-4.6202185e-05 3458:1.7036634e-06 3459:-9.6399373e-05 3460:-1.3933377e-05 3461:-1.3877051e-05 3462:-3.4772242e-05 3463:3.2734359e-05 3464:-0.00013920909 3465:-0.00012447849 3466:2.9388384e-05 3467:0.00029559457 3468:-4.8517919e-05 3469:-2.2656108e-05 3470:-2.3928837e-06 3471:2.9860812e-06 3472:-5.8331254e-05 3473:0.0002516266 3474:-2.7831638e-05 3475:-5.5515262e-05 3477:4.2153806e-05 3479:0.00032223616 3480:-3.2771353e-05 3481:-1.8731918e-05 3482:-0.00010382358 3483:-9.7809125e-06 3484:0.001001782 3485:-1.113596e-05 3486:-6.0213144e-05 3487:1.2594494e-05 3488:-3.2564247e-05 3489:-6.5418397e-05 3490:1.7154463e-05 3491:-1.4521192e-05 3492:-2.7937574e-05 3493:-7.3939242e-05 3494:-9.4302832e-06 3495:-3.0712839e-05 3496:-3.1934524e-05 3497:-7.8719779e-05 3498:-2.5096519e-05 3499:-1.5514997e-05 3500:-4.8551465e-05 3501:0.00017436429 3502:0.0002975247 3503:-0.00016075798 3505:-1.2367398e-05 3506:-3.6612815e-05 3507:3.3151049e-05 3508:-0.00024056406 3509:0.00018307909 3510:-3.1007319e-05 3511:-8.9779191e-05 3512:-3.961039e-05 3513:8.0652368e-05 3516:-3.6740996e-05 3517:-1.5265174e-05 3518:1.6004113e-05 3519:-6.7033092e-05 3520:0.0002357926 3521:0.0001626561 3523:0.00013279726 3524:-4.1683998e-05 3525:5.500513e-05 3526:-7.866064e-05 3527:-2.5604404e-05 3528:-2.3494951e-05 3529:-1.7001877e-05 3530:3.7918958e-06 3532:-1.3916155e-05 3534:0.00011767982 3535:-0.00026170688 3536:-7.3278097e-05 3537:0.00025867336 3538:-1.1144128e-05 3539:-1.6429927e-05 3540:0.00019638428 3541:-1.8422581e-05 3542:0.00023628856 3543:-7.4061521e-05 3545:-2.3596984e-05 3546:-0.00016071709 3547:2.7036367e-05 3549:9.9835916e-06 3551:8.202083e-05 3552:6.1835992e-05 3553:0.00035112014 3554:-0.00013145964 3556:-0.0001867644 3557:0.00014721268 3559:6.2899802e-05 3561:-4.3581149e-05 3562:-5.074844e-05 3563:0.00012573869 3564:-9.7676646e-05 3565:-3.7459427e-05 3566:-8.0269303e-05 3568:0.00027765427 3569:-7.4998403e-05 3570:-3.9126229e-05 3571:-3.6858894e-06 3572:-1.8023387e-05 3573:0.00019858238 3574:-0.00013345799 3575:-6.3414598e-05 3576:0.00017308952 3577:-0.00019487069 3578:0.00020580056 3579:-9.5332371e-06 3580:1.8442148e-05 3582:1.6600943e-05 3583:2.841778e-05 3584:7.0047186e-05 3585:-8.5452899e-05 3586:-8.5050764e-05 3587:-1.1857688e-05 3588:0.00015300215 3589:0.00036175543 3590:-6.935998e-05 3591:-3.4456145e-05 3592:-0.00011037121 3593:9.4813702e-05 3594:2.9879575e-05 3595:-4.1120893e-05 3596:-3.0572413e-05 3598:-7.9354002e-05 3599:-1.1133928e-05 3601:-0.00025795947 3602:3.9042602e-06 3603:-3.9242728e-05 3604:-2.2117154e-05 3605:2.2022063e-05 3606:-1.2294406e-05 3608:-2.1320433e-05 3609:-4.5013112e-05 3610:-0.00022161889 3611:0.00032624314 3612:2.1962787e-05 3613:5.5140714e-05 3614:0.00017393442 3616:-2.4733085e-05 3618:-1.2696582e-05 3619:-5.2983019e-06 3620:-6.8633686e-05 3621:0.00023879144 3622:0.0001552725 3623:-1.539366e-05 3624:3.5369882e-05 3625:-6.1995612e-05 3626:1.9339615e-05 3627:6.8836591e-05 3629:-2.900035e-05 3632:-1.6018954e-05 3633:-3.5473644e-05 3634:-0.00011842561 3636:0.00053984078 3641:-1.2732421e-05 3642:-4.6274192e-05 3643:-1.7630273e-05 3644:0.00016197392 3645:3.8559479e-05 3648:0.00011052826 3649:-1.2888918e-05 3652:-0.00023097088 3653:3.7161728e-05 3654:-4.7764828e-05 3657:-0.00013772483 3658:-3.6670033e-05 3659:-7.2240284e-05 3660:-3.185825e-05 3661:-1.8263765e-05 3662:-6.1779174e-05 3666:9.6413401e-05 3667:0.00011633626 3668:-9.4194518e-05 3669:0.00027893097 3670:3.4114953e-06 3671:2.9365734e-05 3672:-0.00012207765 3673:-9.4383875e-05 3674:-0.00011764882 3675:0.000106573 3676:0.0010582935 3677:6.0064056e-05 3678:-2.2214293e-05 3679:2.82419e-06 3680:-3.3085689e-05 3681:1.4635649e-05 3683:0.00010948193 3684:6.7259411e-05 3685:4.1280469e-05 3687:-3.7469828e-05 3688:1.4849073e-05 3689:0.00011944186 3690:-5.1375413e-05 3691:0.00057768926 3692:-7.929787e-06 3693:5.7929217e-05 3694:0.00022817757 3695:-4.0950079e-05 3696:-7.5486387e-05 3697:3.2017033e-05 3698:-1.0497456e-05 3699:-3.2168457e-05 3700:-4.7229216e-05 3701:-0.00016022696 3702:-0.0001377264 3703:7.2050584e-06 3704:0.00015237479 3707:0.00019190648 3708:5.2611984e-05 3710:6.4457636e-05 3711:3.0086489e-05 3712:2.2650467e-05 3713:-3.3103956e-05 3714:-7.6135977e-05 3715:-7.0309252e-05 3716:-2.2464807e-05 3717:3.6439807e-05 3718:5.8585912e-05 3719:-0.00012003723 3722:-5.3877346e-05 3724:-4.6118104e-05 3725:-4.1018713e-05 3726:-3.3698307e-05 3727:0.00015929644 3728:5.5695935e-05 3731:1.2057044e-05 3732:-3.1650274e-05 3733:0.00026878624 3734:0.00022105404 3735:0.00025957215 3736:-4.4695138e-05 3737:-4.8931259e-05 3738:1.1310166e-05 3739:4.172296e-05 3740:2.143402e-05 3741:-0.0001056681 3742:0.00013532078 3743:-2.7121934e-05 3744:0.00017850957 3745:-3.6861955e-05 3746:-9.9937351e-05 3748:3.4784374e-05 3749:0.00074318791 3750:-0.00028890418 3751:-2.4462193e-05 3753:-4.5045934e-05 3754:-0.00016031638 3756:0.00016902936 3758:0.00018453899 3759:8.4134408e-05 3760:8.5547246e-05 3762:-4.9130951e-05 3763:-0.00016076067 3764:-3.5457808e-05 3765:-3.0910451e-05 3766:5.0180472e-05 3767:0.00013219343 3768:4.0859828e-05 3769:6.5257909e-06 3771:-4.5960311e-05 3772:-0.00017450372 3773:-2.8446259e-05 3774:-0.00010298289 3775:-8.5369822e-05 3776:-1.5370337e-05 3777:-2.8232012e-05 3778:3.1550066e-05 3779:-5.7787886e-08 3780:-2.6079784e-05 3781:0.00016240466 3782:-4.8395745e-05 3783:4.0641789e-05 3784:4.1842279e-05 3785:-5.8250349e-05 3786:-0.00015794192 3787:0.00043250943 3789:-3.7221267e-05 3790:-0.00020729193 3791:-2.7491473e-05 3792:-3.7335802e-05 3793:9.8860852e-05 3795:0.00016622858 3796:8.851187e-06 3797:-7.1378774e-05 3799:6.0142222e-05 3801:-2.719023e-05 3803:-0.00019045828 3804:-4.1711952e-05 3807:-4.0358034e-05 3808:-1.8245724e-05 3810:-0.0001201092 3811:8.0335645e-05 3812:1.5059135e-05 3813:0.00013564777 3814:1.2601663e-05 3815:-8.215267e-05 3818:1.3070512e-05 3819:-1.1702636e-05 3820:-6.3127198e-05 3821:-1.7503002e-05 3822:3.446397e-05 3823:-1.5088914e-05 3824:-1.6391352e-05 3825:0.00025631237 3826:5.2109375e-05 3827:-7.3905474e-05 3829:-3.7708181e-05 3830:-4.2462609e-05 3831:-2.1231304e-05 3832:-2.1231304e-05 3833:-2.1231304e-05 3835:0.00026629271 3836:2.3469018e-05 3837:4.5983204e-05 3839:1.8777673e-05 3840:-7.75183e-05 3841:-3.0154401e-05 3842:-5.75046e-05 3843:0.00018578816 3845:-1.5120845e-05 3846:3.4502147e-05 3848:-9.9707977e-05 3850:6.4985514e-05 3851:0.00012814108 3852:0.00016936428 3853:-6.5218665e-05 3855:-0.00012807321 3856:-2.1469816e-05 3857:-5.1443574e-05 3858:-5.1443574e-05 3859:-8.6955704e-05 3861:4.9903119e-05 3862:-1.1810791e-05 3864:0.00019860489 3865:1.0010216e-05 3867:-4.2940264e-05 3868:-1.3705541e-05 3870:-4.5484725e-05 3874:-7.8750738e-05 3877:-2.8322231e-05 3878:2.7660539e-05 3879:-1.9455187e-05 3880:0.00056872499 3881:4.889903e-05 3882:5.3128413e-05 3883:-3.7233658e-05 3884:0.00029748367 3885:2.504735e-06 3886:-5.032355e-05 3887:0.00019225961 3888:-0.00014137174 3889:8.8895249e-05 3890:-5.2776446e-05 3891:-0.00010519779 3892:-6.9342808e-05 3893:-1.2973195e-05 3894:-3.0719937e-05 3895:5.8587379e-05 3896:-3.605356e-05 3897:0.00015056231 3899:0.00014485254 3900:0.00018488237 3901:-9.5046722e-05 3904:0.00012738597 3905:0.00023047709 3907:-3.0750703e-05 3908:-1.9811472e-05 3909:9.1538219e-05 3910:-6.4288281e-05 3912:-4.2555053e-05 3913:-9.4107469e-05 3914:9.1048896e-06 3917:-1.8782186e-05 3918:-6.9632071e-05 3919:-0.00018621412 3921:3.4737404e-05 3923:-6.280595e-05 3924:-1.388239e-05 3925:0.0008299069 3926:8.6702494e-05 3927:6.8888163e-05 3929:0.0001761638 3930:0.00033543041 3931:-4.6569377e-05 3932:-5.4256026e-05 3935:-0.00010842514 3936:-2.9795754e-05 3937:0.00020958693 3939:0.00015696256 3940:0.00020192143 3941:-1.623101e-05 3943:-0.00014453553 3944:-1.5796171e-05 3945:5.0467784e-06 3946:-0.00012523885 3947:3.0594292e-05 3948:6.0454866e-05 3949:-0.00045394688 3950:0.0001657143 3951:8.5339037e-05 3952:0.00021641974 3954:-4.0725695e-06 3955:4.7231977e-05 3956:0.00013002334 3957:-8.1641672e-05 3958:0.00017895219 3959:-5.0119848e-05 3960:-0.00021731523 3961:-1.9975605e-05 3962:0.00016426602 3963:6.4586937e-05 3964:-0.00016717408 3965:-5.5881133e-05 3966:-4.8298672e-05 3967:-4.8298672e-05 3968:-9.1902177e-05 3969:8.8957066e-05 3970:3.9494098e-05 3972:-5.829264e-05 3973:-1.2227745e-05 3976:-5.0716528e-05 3977:-0.00010143306 3979:-0.000128506 3980:-3.4729495e-05 3981:-2.4399238e-05 3982:5.0805007e-05 3984:-5.0431623e-05 3985:6.642435e-06 3986:-2.1030455e-05 3987:-4.2383985e-05 3988:-0.00014120089 3989:2.2903932e-05 3990:-1.7012373e-05 3991:-3.2962769e-05 3992:-2.9566672e-05 3994:-3.7320457e-05 3995:-8.9223642e-05 3996:-2.8303835e-05 3997:0.00013147184 3998:-4.7696063e-05 3999:9.3559311e-06 4001:6.0923187e-05 4002:8.1512306e-05 4003:7.3297902e-05 4004:0.00013356096 4006:3.207937e-05 4007:-2.1459373e-05 4008:-4.0143557e-05 4010:1.887719e-05 4013:-4.7721966e-05 4015:2.1175007e-05 4016:-2.361991e-05 4018:-1.2522069e-05 4019:-1.991436e-05 4020:2.131144e-05 4021:0.00065084442 4023:-9.3211478e-05 4024:0.00033095723 4028:-0.00013645967 4029:-8.9858604e-06 4030:0.0001853705 4031:0.00022727752 4032:4.4094835e-05 4033:0.00060898816 4034:1.1310166e-05 4035:-9.0179328e-06 4036:-4.3299551e-05 4037:-3.8150953e-05 4040:-1.7456949e-05 4042:-4.2903037e-05 4043:-1.9336538e-05 4044:6.7570058e-05 4046:-4.9051723e-05 4047:2.1150185e-05 4048:7.6591125e-05 4049:-1.9218969e-05 4050:5.4035281e-05 4051:-1.0030459e-05 4052:-1.2383376e-05 4053:-5.1969586e-05 4054:-3.6547928e-05 4055:-9.8147966e-06 4056:-3.2716664e-05 4059:-5.4253494e-05 4061:0.00030121909 4062:0.00041223195 4063:0.00015776698 4064:2.0573541e-05 4065:-3.132725e-05 4066:0.00041399401 4068:-0.00010016868 4069:2.3480337e-05 4070:-6.236379e-05 4071:-2.3108412e-05 4074:-3.185825e-05 4075:1.221679e-05 4078:-3.0710999e-05 4080:6.3156651e-05 4082:-6.3825413e-05 4083:-0.00010418988 4084:5.4892014e-05 4085:1.6990029e-05 4087:-0.00024181565 4088:-0.00019914687 4089:-5.2481286e-05 4090:0.00027562206 4091:5.7166359e-05 4093:-3.5688419e-05 4094:-1.5216425e-05 4095:-6.585037e-05 4097:-4.0308289e-05 4098:-1.6200103e-05 4099:-2.8317998e-05 4101:-3.4732911e-05 4102:-3.8289469e-05 4103:6.2138664e-05 4107:-5.5763299e-05 4108:5.0952363e-05 4109:3.8685172e-05 4111:4.1622112e-05 4112:1.8001909e-05 4113:-2.4770959e-05 4114:4.0908912e-05 4115:3.7955178e-05 4116:-5.5768025e-05 4117:-8.9629204e-05 4118:0.00011370131 4119:-2.9072939e-05 4120:-1.0727202e-05 4124:5.9740691e-05 4125:-8.0850441e-06 4126:0.00010754445 4127:-4.9386137e-05 4128:-2.062263e-05 4129:-3.8733553e-05 4130:2.2269691e-05 4131:4.4645691e-05 4133:-4.7911846e-05 4135:-3.2877157e-05 4136:-1.5640991e-05 4137:-2.678161e-05 4138:-6.7786197e-05 4139:9.2790739e-05 4140:0.0001905316 4141:-9.0377512e-07 4142:-2.1439855e-05 4143:-2.1439855e-05 4144:8.3418767e-05 4146:-2.1177018e-05 4147:0.00019986126 4148:-6.6425368e-05 4150:-0.00015058617 4152:-5.5532632e-06 4153:-1.7372913e-05 4154:-6.5355758e-05 4155:8.8258079e-05 4156:-4.6551089e-05 4158:-5.1306677e-05 4159:-7.4960997e-05 4160:0.00016571843 4161:-2.7960072e-05 4162:0.00033129097 4164:9.1667771e-06 4165:-2.2788645e-05 4166:4.9462647e-05 4169:-6.843271e-05 4171:2.6476357e-05 4172:-3.8049278e-05 4173:-9.5123185e-05 4174:6.3500942e-05 4175:1.3703498e-05 4176:5.3363547e-05 4177:8.2592414e-05 4178:-0.00016967668 4179:-3.6525737e-05 4180:-4.2517335e-05 4181:6.8637695e-05 4182:-4.276861e-05 4183:5.4208242e-05 4184:9.1580216e-05 4185:-2.4607765e-05 4187:-1.2505115e-05 4188:-7.2050745e-05 4189:0.00015413793 4190:1.5767155e-05 4191:-7.3293457e-05 4192:-2.246469e-05 4195:-7.514796e-05 4196:-1.2779848e-05 4199:-4.0021405e-05 4200:-5.0279647e-05 4201:-0.00036024032 4203:3.6082351e-05 4205:0.00028265279 4207:2.5955678e-05 4208:0.00011485352 4209:-1.4870252e-05 4210:-9.163824e-06 4211:-4.8064849e-05 4212:0.00013233436 4213:0.0005650582 4214:8.0115533e-05 4215:2.7235692e-05 4217:4.7866059e-05 4218:-6.1136423e-05 4219:-5.3029547e-05 4220:7.9121732e-05 4221:1.5294432e-05 4222:-1.602175e-05 4224:0.00017450852 4225:0.00064924092 4226:0.0007820084 4227:9.881227e-05 4230:-4.6209749e-05 4231:-0.00016729193 4232:3.6398229e-05 4233:6.7822337e-05 4234:0.00023271715 4235:-5.1313382e-05 4237:4.2762211e-05 4238:2.0516971e-05 4239:-5.9898313e-05 4240:-1.5572305e-05 4241:-7.130055e-05 4243:-1.7100363e-05 4244:0.00031892629 4245:3.1972297e-05 4246:2.1842634e-07 4247:-2.051752e-05 4248:0.00010917169 4250:3.5537061e-05 4251:3.680716e-05 4252:-2.7510454e-05 4253:-1.875632e-05 4254:3.6913454e-05 4256:-2.4491437e-05 4257:5.5808023e-06 4258:-8.6403226e-05 4259:0.00038641653 4262:-3.7936814e-05 4263:3.5283079e-05 4264:7.722625e-05 4265:0.00019936645 4266:-1.143066e-05 4267:-8.0993887e-05 4268:2.7845004e-05 4269:1.4938464e-05 4270:-5.4834876e-05 4273:-8.6249907e-05 4275:-5.9574915e-05 4276:-4.4594082e-05 4277:-2.7439717e-05 4279:-6.0464849e-05 4281:-8.0506004e-05 4282:0.00025690673 4283:-1.1809955e-05 4286:-0.00012605544 4287:-1.6422297e-05 4288:0.00013334391 4292:0.00034851301 4293:2.2506725e-05 4295:0.00013399989 4296:-9.9235513e-06 4297:0.00039318943 4300:0.00021720985 4301:-1.7457565e-05 4305:0.00040974867 4307:-2.8160332e-05 4308:5.7923113e-05 4309:-0.00012608008 4310:9.4716728e-05 4311:7.4363066e-05 4312:-3.1318868e-05 4315:0.00010538384 4316:-0.0001019991 4317:2.3694067e-05 4319:-1.33751e-05 4321:-6.6452667e-05 4322:0.0010954648 4323:8.9498069e-05 4324:0.00015087974 4325:-1.4555693e-05 4326:5.2449839e-05 4327:3.2521955e-05 4328:4.062846e-05 4330:9.3124778e-05 4331:0.00023624324 4332:0.00065807562 4333:-3.7698075e-05 4334:-1.4696033e-05 4335:0.00013222183 4337:3.9857307e-05 4338:5.4896478e-05 4340:-3.0443454e-05 4344:-3.5939607e-05 4345:-2.3475415e-05 4346:4.4803408e-05 4347:-1.661012e-05 4349:0.00012467062 4350:-2.051752e-05 4351:-2.051752e-05 4352:-5.7586829e-05 4353:0.00011972073 4354:2.6821011e-05 4355:-7.0596347e-05 4356:-0.00016935573 4358:1.5561045e-05 4359:-2.7647322e-05 4364:-4.0974464e-05 4365:-4.0974464e-05 4366:-6.2481369e-05 4368:6.5998424e-06 4370:-5.3202722e-05 4371:-4.1130872e-05 4372:-8.6442808e-05 4373:0.000107033 4374:-2.7613176e-05 4375:-2.4824221e-05 4377:-4.2552547e-05 4379:0.0002827631 4381:-0.0001463184 4382:-7.6618498e-06 4383:-3.487245e-05 4384:-6.3816689e-05 4385:5.0311781e-05 4386:-6.4263055e-05 4387:4.4981665e-05 4388:-7.3753348e-05 4390:-2.9834342e-05 4392:-2.4540934e-05 4393:-5.7535326e-06 4394:-1.8686584e-05 4395:1.1552827e-05 4396:0.00023543111 4397:2.370774e-05 4398:7.508813e-05 4399:-2.7067848e-05 4402:0.00016670351 4404:-8.6165011e-05 4405:-3.2195476e-05 4407:-9.6850463e-06 4408:-3.6230267e-05 4409:-0.00013526369 4411:-3.517501e-05 4412:-5.6548099e-05 4413:-6.6498542e-05 4416:0.00010393264 4417:-2.7564776e-05 4418:-2.2630509e-05 4419:0.00016843904 4422:6.902637e-05 4424:-3.2457476e-05 4425:0.00013704182 4427:-5.0675237e-05 4429:8.6775493e-05 4430:-0.00014073256 4431:3.9220824e-05 4432:-7.2762683e-05 4437:0.00016988631 4438:8.2357736e-05 4440:5.4268061e-05 4442:-6.9508387e-05 4443:-3.2154177e-05 4444:-3.5693451e-05 4445:-5.7850411e-05 4446:-7.1745315e-05 4447:1.7744238e-05 4448:7.3373245e-05 4449:1.4470891e-05 4450:8.1366925e-05 4451:7.0636903e-05 4452:-5.0051225e-05 4453:-7.1463706e-05 4456:3.9458641e-06 4457:-2.667861e-05 4458:4.1262003e-05 4459:3.0415382e-05 4461:0.000123786 4463:-1.0025424e-05 4467:-3.8422651e-05 4468:0.00011064542 4469:5.4987475e-05 4470:-2.5751497e-05 4471:6.1674284e-05 4472:-3.5143788e-05 4473:-2.1383084e-05 4474:0.00016890705 4475:0.0012650804 4476:-4.7829279e-05 4477:-0.0001517551 4478:-7.4629992e-05 4479:3.3798486e-05 4480:-9.7612159e-05 4481:0.00015740527 4482:0.00015740527 4483:0.00015740527 4485:-3.736986e-05 4486:0.00012574374 4487:0.00085775612 4488:7.5813718e-05 4489:-4.5092027e-05 4490:0.0001152007 4491:8.7249769e-05 4492:9.9722245e-05 4493:1.1875466e-05 4494:-1.0878386e-05 4495:-9.4095572e-05 4496:-5.5305805e-05 4497:-2.201602e-05 4498:-2.0240652e-05 4499:-7.2915944e-05 4500:0.00016109417 4501:0.00011820894 4502:-0.00023815421 4504:-3.1188571e-05 4505:1.5566096e-05 4506:-2.8673381e-05 4507:6.1188662e-06 4508:0.00010061912 4510:2.4539035e-05 4511:-4.1970048e-05 4512:0.00014994432 4513:1.313396e-05 4514:-3.5832159e-05 4515:-0.0001710175 4517:0.0004548755 4518:-3.7510996e-05 4519:0.00015879954 4521:2.463722e-05 4522:-7.6551216e-05 4524:-1.2913693e-05 4525:5.673962e-05 4528:4.9488299e-05 4529:-1.4448358e-05 4530:0.00017650191 4532:-2.9257457e-05 4533:-3.9231563e-05 4534:2.3027824e-05 4535:-0.00010874883 4536:-2.4305567e-05 4537:-1.4028898e-05 4538:-3.1436233e-05 4539:-1.5906873e-05 4540:0.00022306746 4542:-5.1178908e-05 4545:-4.1595224e-05 4546:2.0159473e-06 4547:-1.5687452e-05 4548:-3.3349679e-05 4549:-1.4749843e-05 4550:-6.8916823e-05 4551:-3.8096314e-06 4553:0.00038397979 4555:2.7178756e-05 4556:0.00017258507 4557:-6.5505454e-05 4558:-0.00010156397 4559:-0.00014431609 4562:-3.203157e-05 4563:-4.5750137e-05 4565:-0.00015137668 4567:-2.4906582e-05 4568:-3.6555666e-05 4573:0.00014218636 4574:4.4025473e-05 4575:-8.1184284e-05 4576:0.00022883946 4577:7.9469632e-05 4578:1.0374336e-05 4580:-8.0003032e-05 4585:-0.00010327867 4586:0.0001150419 4587:1.8866342e-05 4588:4.9817045e-05 4589:3.5552945e-05 4590:-2.9695655e-05 4591:0.00072082016 4594:-2.3791492e-06 4595:-5.8152407e-05 4596:-1.613062e-05 4597:-0.00020927697 4598:-7.8547919e-06 4599:-1.9786214e-05 4601:-4.762203e-05 4602:9.6929316e-06 4603:-1.7400576e-05 4604:2.1358986e-05 4605:-7.1363407e-05 4606:0.00016484017 4607:3.0652838e-05 4608:-6.8926631e-05 4609:7.0849796e-06 4610:-3.3840868e-05 4611:-7.2759882e-05 4613:9.5127825e-06 4614:-9.0643523e-05 4615:0.00010844397 4617:-0.00021616761 4618:-7.3579089e-05 4619:0.00025525055 4621:-0.00018898922 4622:-5.8461446e-06 4623:0.00037139936 4624:-0.00016187364 4625:-3.051272e-06 4626:-2.3886209e-05 4629:-6.5390472e-05 4630:4.1708732e-05 4631:4.1708732e-05 4632:-1.1525971e-05 4636:-1.5263804e-05 4637:-2.9328949e-05 4639:-4.6910078e-05 4640:0.00015706714 4642:2.1701193e-05 4643:-4.8765491e-05 4644:-4.3686116e-05 4645:-0.00011989936 4648:-9.8253448e-05 4649:0.00012575531 4650:8.4162994e-06 4651:-3.366312e-05 4653:-3.2164804e-05 4655:3.1932337e-05 4656:-5.0716e-05 4657:1.7068438e-05 4658:-2.685956e-05 4659:-2.8246881e-05 4661:-1.4756659e-05 4662:5.704568e-05 4663:5.704568e-05 4664:-3.661423e-05 4665:-3.661423e-05 4667:-3.661423e-05 4668:-3.661423e-05 4669:-2.201602e-05 4670:-3.661423e-05 4672:-2.5315154e-05 4675:-3.661423e-05 4676:-3.661423e-05 4677:-6.2559011e-05 4678:-5.1107567e-05 4679:0.00013427973 4680:-3.5279449e-05 4682:0.00083879678 4683:4.3096061e-05 4684:1.930284e-06 4685:0.00056340883 4686:2.9342038e-05 4687:0.00010001269 4688:0.00040918661 4689:0.00044978509 4690:0.0001557911 4691:0.00016587561 4692:0.00018789039 4693:8.8981287e-05 4694:9.8899989e-05 4695:9.2126196e-05 4696:4.9771796e-05 4697:-0.00010410264 4698:-4.3222182e-05 4700:-0.00028799893 4702:-5.1119219e-05 4703:3.5470337e-05 4704:0.00012535905 4705:0.00029213823 4706:-0.00010153541 4707:-2.3447077e-05 4708:-6.6926288e-05 4709:-0.00012285259 4711:5.2527798e-06 4716:0.00014098959 4717:5.6421963e-05 4718:3.8891758e-05 4719:1.2065051e-05 4720:0.00014067497 4721:-2.3179839e-05 4722:-2.5341356e-05 4725:-2.5654395e-05 4726:-2.507168e-05 4727:3.6749359e-05 4729:-4.4161137e-05 4731:-5.1882645e-05 4732:-7.0907045e-06 4733:-0.0001264696 4734:-2.1808635e-05 4736:0.00013177423 4737:0.0003083552 4739:-1.9005043e-05 4740:1.956306e-05 4741:-3.0781473e-05 4746:-5.2823281e-05 4748:3.8641629e-05 4749:4.0779207e-05 4752:-6.3600157e-05 4755:3.2425021e-05 4756:-2.4694986e-05 4757:7.2014824e-05 4759:1.6335467e-05 4760:0.00016335466 4761:-1.7525912e-05 4762:-5.7336252e-05 4763:-7.9441699e-05 4764:5.0904891e-05 4767:1.4644373e-05 4768:3.5173307e-05 4770:7.9503043e-05 4771:6.8891832e-06 4773:-3.2213065e-05 4775:-2.3386503e-05 4776:-3.5079753e-05 4777:7.3637229e-06 4778:4.9071994e-05 4779:-3.598279e-05 4780:-4.4797212e-05 4781:2.5443531e-05 4782:-0.00017320682 4784:0.00010451303 4785:0.00026913715 4787:7.8412588e-05 4792:-2.9551215e-05 4793:1.0381704e-05 4795:-2.8776791e-05 4796:7.8536004e-06 4797:-5.1637206e-05 4798:-6.4516153e-06 4799:-2.6906948e-05 4800:-6.4361418e-05 4801:0.00016864852 4803:5.9421676e-05 4804:-0.00014949143 4805:6.3003179e-05 4806:-8.7451539e-05 4810:0.00011542439 4811:0.00022023886 4812:7.2369097e-05 4813:-1.4792198e-05 4815:-7.238923e-05 4817:-9.0016096e-05 4818:-0.00015572665 4819:-6.1257262e-05 4820:-8.0544924e-05 4822:0.00017342143 4823:-1.7640748e-05 4824:-8.6989108e-05 4825:-3.8912043e-05 4826:-5.9118491e-05 4829:-1.6460079e-05 4830:2.9456312e-05 4831:-1.5443507e-05 4834:-8.5049687e-06 4835:0.00011166324 4837:-6.0459362e-05 4838:-3.9231563e-05 4839:0.00031347104 4841:0.00022739972 4842:3.9741601e-05 4846:1.2646563e-05 4848:0.00010358554 4849:0.00013217845 4850:-3.2877157e-05 4853:6.5323693e-05 4854:-3.1997017e-05 4855:-3.0274632e-05 4856:-1.7561235e-05 4857:2.5113999e-05 4858:3.814197e-05 4859:-4.94905e-05 4865:2.9708135e-05 4866:-4.4238048e-05 4867:0.00026062183 4868:-3.9707618e-05 4870:2.9228506e-05 4871:-0.00026973308 4873:-0.00023751875 4878:-1.2158524e-05 4880:-4.7608239e-05 4881:-3.3114233e-05 4882:-5.1461822e-05 4883:-3.0588581e-05 4884:-3.4296922e-05 4885:4.9015471e-05 4886:0.00031238009 4887:0.00027629282 4889:-3.0317351e-05 4890:1.4134479e-05 4892:-1.2973195e-05 4893:3.0337986e-05 4897:-1.0104462e-05 4900:0.00036280658 4901:-7.523875e-05 4903:-2.5873165e-05 4908:-3.332366e-05 4909:6.5132095e-05 4910:-1.8329247e-05 4911:-7.4917683e-05 4913:-6.289201e-05 4915:7.6104865e-05 4916:-2.9834095e-05 4917:3.9855371e-05 4920:0.00012857304 4921:-7.4839299e-05 4922:-0.00014958884 4923:5.2183368e-05 4924:0.00022592234 4926:-1.3126596e-05 4927:-1.5778831e-05 4928:-0.00021745283 4929:-1.617264e-05 4930:-5.6794775e-05 4932:2.4309835e-05 4933:1.9919591e-05 4934:-6.475985e-05 4935:0.0001603141 4938:1.5031535e-05 4939:-5.0785759e-05 4940:-3.4168381e-05 4944:6.7134832e-05 4945:-7.2654337e-05 4947:-1.9439713e-06 4949:-2.5138899e-05 4950:-1.9996502e-05 4951:-4.5113207e-05 4952:-4.9543367e-05 4954:1.1469348e-05 4955:0.000152031 4958:-1.1613396e-05 4959:-4.8323625e-05 4960:-1.5382415e-06 4961:-3.3075754e-05 4962:-8.6136824e-05 4963:-8.6136824e-05 4964:-8.6136824e-05 4965:-2.9537223e-05 4966:-7.2234325e-05 4968:-2.4245963e-05 4970:-3.9223436e-05 4973:-7.5105891e-05 4976:-1.8120298e-05 4977:4.6744906e-05 4978:-5.3916271e-08 4979:4.9496652e-05 4983:4.9626167e-05 4984:-1.7588427e-05 4985:-0.00012458889 4986:-1.4586736e-05 4987:-0.00010427542 4989:-3.8311839e-05 4991:8.1753706e-06 4992:-1.6020085e-05 4997:0.0001839675 4998:1.7278062e-05 5000:-3.54648e-05 5001:-3.2172338e-05 5002:-3.2172338e-05 5003:-8.7901353e-05 5004:-1.6710394e-05 5005:-8.6377171e-05 5006:9.1681606e-05 5007:-3.7031888e-05 5010:-2.5783786e-05 5012:-3.1669239e-05 5013:9.9401979e-05 5015:-0.00013720167 5018:-1.0230565e-05 5020:-5.2375901e-05 5021:1.7338715e-07 5025:-1.7813531e-05 5026:-4.1816882e-05 5028:1.6246555e-05 5029:-0.00018292194 5030:-0.00017221546 5031:5.4248427e-05 5032:-0.00022445507 5034:5.5877819e-05 5035:0.00010872456 5036:2.4519049e-05 5037:-3.1459858e-05 5038:0.00011118039 5039:-5.3112719e-05 5041:-4.6243102e-05 5042:-0.00011963805 5045:-4.5630662e-05 5048:-2.1721302e-05 5049:-0.00013301634 5050:8.5946893e-05 5051:-1.0312975e-05 5052:-1.5302518e-05 5053:0.0001087925 5054:-1.8907773e-05 5055:-2.7840772e-05 5056:3.2213131e-05 5057:3.8268165e-05 5058:5.9283113e-05 5059:0.00073680567 5060:0.00012636426 5064:-2.8996368e-05 5065:-2.8996368e-05 5067:7.095348e-05 5069:-5.7743528e-05 5070:-1.3769864e-05 5071:-2.7940567e-05 5074:-3.7214555e-05 5075:0.00010370617 5076:-8.1199156e-05 5079:7.6809774e-05 5080:1.4635649e-05 5081:0.00010611449 5082:0.00054776191 5083:2.0710026e-05 5084:-1.1571736e-05 5086:4.3599761e-05 5089:-0.00015686035 5090:-9.2062633e-05 5091:-3.8492235e-05 5092:0.0001621245 5093:-8.2192724e-05 5094:-3.5986832e-05 5097:-2.0185294e-05 5098:-4.5086068e-05 5099:-1.6914853e-05 5100:0.00062808528 5103:5.9094393e-05 5104:-2.0875485e-05 5105:1.7689737e-05 5106:-1.6731572e-05 5107:0.00014104038 5108:-5.0501068e-05 5109:1.1923547e-05 5110:-6.806801e-05 5111:-3.6043155e-05 5112:8.1494429e-05 5113:0.00058982626 5114:1.2050076e-05 5118:0.00011867187 5119:0.00031354552 5121:6.0216531e-05 5122:8.776685e-05 5123:6.1315848e-05 5124:2.0438616e-05 5125:0.00013074273 5126:-6.1598577e-05 5127:-5.5351338e-05 5128:-1.5779486e-05 5129:-0.00014212271 5130:-1.0300519e-05 5131:1.2830266e-05 5132:8.9123518e-05 5133:-0.00013136261 5134:-0.00027688578 5136:-0.00011619092 5137:2.7108681e-05 5138:-4.1399337e-05 5141:-1.8610634e-05 5143:-1.1120536e-05 5144:-6.4075379e-05 5146:7.8430276e-05 5147:1.6111282e-05 5148:0.00029515233 5149:7.7388002e-05 5150:0.00011779246 5151:-4.1818796e-05 5152:0.00012519765 5153:0.00048907305 5154:-3.2610813e-05 5156:0.00015264584 5157:-8.3061968e-05 5158:-5.9316291e-05 5159:-3.7316848e-05 5160:-0.00027328945 5162:1.1189206e-05 5163:-2.6027845e-05 5164:9.5114374e-05 5166:-0.0001653928 5167:0.00015012696 5170:-3.6090078e-05 5171:-5.0288363e-05 5172:-0.00014317158 5173:-3.6090078e-05 5175:-4.6012123e-05 5176:8.2391154e-05 5177:-0.00015582186 5178:-9.2488561e-05 5179:9.9062054e-05 5180:-1.3987945e-05 5181:1.8372727e-06 5182:6.6390392e-05 5183:1.4417919e-05 5186:0.00015110354 5187:0.00030789679 5188:0.0001078274 5190:0.00028459725 5191:0.00015081732 5192:9.8669952e-05 5193:9.8301593e-05 5194:0.00011656563 5195:1.7616065e-05 5196:9.878425e-05 5197:0.00010025515 5198:9.9133882e-05 5199:0.0001295492 5200:0.00016852892 5201:6.9139431e-05 5202:0.00041819442 5205:0.00050561602 5206:2.5957403e-05 5208:7.457735e-05 5209:0.00012817538 5210:2.9982031e-05 5211:5.8262511e-05 5212:-2.7678798e-05 5213:-2.0518419e-05 5214:-4.4739092e-05 5215:0.00029893644 5216:-0.00010720258 5217:3.2443128e-05 5218:-0.00017274711 5219:0.00011360816 5220:1.5333031e-05 5221:-4.6353842e-05 5222:0.00017317446 5223:-0.00010033842 5224:-3.7299596e-05 5225:-5.1191138e-05 5226:0.00024866837 5227:9.8306322e-05 5228:0.00027067843 5230:-2.0936248e-05 5231:5.2347612e-05 5232:-3.736986e-05 5233:-1.7205371e-05 5234:9.5288065e-05 5235:-6.0533319e-05 5237:1.2416601e-05 5239:2.9517762e-05 5240:2.582975e-05 5241:3.6394496e-05 5242:7.1003073e-05 5243:-4.3124954e-05 5244:-3.6101545e-05 5247:0.00018537305 5248:-5.3638115e-07 5250:-4.5739889e-05 5252:-1.5019811e-05 5253:-0.00012817833 5254:-9.6037133e-05 5256:0.00017224577 5259:-1.5642396e-05 5260:2.7456425e-05 5262:-3.8569724e-05 5263:-1.1133928e-05 5264:-8.2884828e-05 5267:-3.1210358e-05 5269:2.043723e-05 5270:0.00014780861 5272:2.4043906e-05 5277:-0.00013986768 5279:7.4996475e-05 5280:9.133172e-05 5290:-3.0449553e-05 5291:4.4842411e-05 5292:8.8046683e-05 5293:-3.3163822e-05 5294:2.5851174e-05 5295:-1.2063055e-05 5296:-3.3585475e-05 5297:6.8794952e-07 5299:1.1980844e-05 5300:0.00012851474 5301:-1.9786214e-05 5302:-0.00047127824 5303:0.00023131289 5304:-3.3349155e-05 5306:-2.6167745e-06 5307:-2.7161195e-05 5309:-1.9829929e-05 5314:-1.825547e-05 5318:-0.00014877586 5321:-5.7166268e-05 5322:5.889048e-05 5323:2.9878578e-05 5324:-4.3030541e-05 5325:-3.6335536e-05 5326:7.6534147e-05 5327:3.7288675e-05 5330:-2.2869945e-05 5343:0.00012861735 5344:-1.7525912e-05 5346:-5.5465123e-05 5349:-2.051752e-05 5350:0.00018820455 5351:0.00011048307 5352:-9.621105e-05 5353:-2.8616079e-05 5354:-4.4570173e-05 5355:-1.0988804e-05 5357:0.00018379853 5359:-6.4883767e-05 5360:-6.4883767e-05 5361:0.00047174361 5362:0.00016086956 5364:6.9650843e-05 5365:0.00016184966 5367:-0.00015636443 5369:3.1897609e-05 5370:0.00010581554 5371:-7.6479526e-05 5375:-4.1972133e-05 5376:5.2201493e-05 5378:-3.5203986e-05 5379:-1.4948391e-05 5380:-7.1149589e-05 5382:-0.00010600514 5384:-1.3849743e-05 5385:-3.1574978e-05 5387:-3.1574978e-05 5388:-9.0495843e-05 5390:3.0662948e-05 5392:5.3854528e-05 5393:-0.00019088284 5394:0.00018582348 5395:1.588661e-05 5396:-0.00013273186 5397:-1.5606987e-05 5398:-1.5825137e-05 5399:7.3679119e-05 5400:-2.8364886e-05 5401:8.9158362e-05 5402:4.0409595e-05 5403:-2.5876756e-05 5404:-2.8170769e-05 5405:-7.1313472e-05 5406:0.00013594235 5408:4.801566e-05 5409:-3.4754194e-05 5410:-2.2146569e-06 5412:-6.4623368e-05 5413:-1.2386303e-05 5414:0.0001080438 5415:-5.5207049e-05 5416:-7.576988e-05 5418:4.9986727e-05 5419:6.1290477e-05 5420:-5.5443939e-05 5421:-1.8015322e-05 5422:2.0289941e-05 5424:7.0709473e-05 5427:-6.6430941e-05 5432:-3.321547e-05 5433:-9.0707552e-05 5440:0.00027556912 5441:3.1278047e-05 5442:-3.5355777e-05 5444:3.8925296e-05 5445:0.00012609677 5448:7.2595954e-05 5450:3.2173797e-05 5451:-3.3788547e-05 5452:0.00017080971 5454:-0.0001424252 5455:-7.155948e-05 5456:3.4840621e-05 5457:0.00020799047 5458:-6.62944e-05 5459:1.9259638e-05 5460:0.0004351415 5461:0.00010628873 5466:-5.4188557e-05 5467:-2.8124368e-05 5468:-0.00016746833 5470:-3.1025622e-05 5471:-6.5816981e-05 5472:-3.7254082e-05 5473:0.00033726174 5474:4.1410323e-05 5475:8.5003165e-05 5476:5.5459765e-05 5477:0.00041353499 5478:1.2603869e-05 5480:7.3780153e-05 5481:0.00045632591 5482:4.67891e-05 5483:0.00028210046 5484:-7.3153569e-05 5485:-0.00013206764 5486:-7.9240584e-05 5489:0.00020952855 5490:-0.00013777995 5491:0.00018373416 5492:-5.1882645e-05 5493:2.8506925e-05 5494:4.4886874e-05 5495:2.0022737e-05 5497:3.1231615e-05 5501:-3.4091594e-05 5502:-0.00012298192 5503:5.6336707e-05 5504:-2.5609463e-06 5507:-7.2915944e-05 5508:1.1259877e-05 5509:5.5312212e-05 5510:1.3911849e-05 5512:-1.9723962e-05 5514:0.00015296348 5515:-0.00010718563 5516:-0.00017898904 5522:3.8159913e-05 5523:-3.1025622e-05 5525:-2.5721787e-05 5526:-3.989202e-06 5530:6.0589755e-05 5531:3.5051064e-05 5532:-7.9060439e-05 5534:-7.7954304e-05 5535:6.3703752e-05 5536:2.0460617e-05 5539:-1.0094547e-05 5540:3.1075098e-05 5541:6.6145883e-05 5542:8.2621387e-05 5544:7.0385402e-05 5545:4.3140153e-05 5547:-1.0037776e-05 5548:-1.768712e-05 5549:4.3122549e-05 5550:6.484396e-05 5552:-4.4913081e-06 5554:-4.0281608e-05 5555:-1.574489e-05 5556:-1.5315072e-05 5557:5.9529038e-06 5558:-2.00213e-05 5561:5.3798492e-05 5562:-5.7091554e-05 5563:0.00010070764 5564:0.00010070764 5565:-0.00010370019 5569:-9.0617534e-05 5570:7.3229792e-05 5571:-2.00213e-05 5572:-6.9058151e-05 5573:-2.1395972e-05 5574:-0.00012439876 5575:-2.1173784e-05 5577:0.00027719743 5579:0.00017314898 5580:0.00012535646 5581:2.4427602e-05 5582:0.00015858385 5583:-1.0107762e-05 5584:-3.0127176e-05 5585:-0.00010153911 5588:-3.6585512e-05 5589:3.7959009e-05 5590:-1.6102631e-05 5597:-1.9465831e-05 5598:5.7418642e-05 5599:0.00011304067 5600:-2.795227e-05 5601:0.00029519087 5603:-7.391299e-05 5604:-1.4148922e-05 5606:-6.8633686e-05 5607:5.142673e-05 5609:-1.8782186e-05 5612:-6.9147864e-05 5615:-0.00012766953 5617:-1.6020085e-05 5618:1.2183976e-05 5619:-2.8935063e-05 5620:0.00021603968 5621:9.3439703e-05 5622:1.0727803e-05 5623:-8.2688189e-07 5624:-9.802742e-05 5625:-9.802742e-05 5627:-5.2595646e-05 5629:-2.0647526e-06 5630:-6.6285975e-05 5631:0.00020706924 5632:5.4794982e-05 5633:-0.00014458249 5634:-0.00012348662 5635:-2.8916496e-05 5637:7.5980803e-05 5639:3.3839711e-05 5640:0.00087224686 5643:3.9102961e-05 5644:0.00020988287 5645:-0.0001124943 5647:-1.661012e-05 5650:0.00010167618 5651:6.5235319e-05 5652:-1.7001877e-05 5653:3.4903907e-05 5654:-2.2344317e-05 5656:-2.3560026e-05 5657:-7.7919154e-05 5658:-6.0558537e-05 5662:2.8024053e-06 5664:-0.00013052154 5666:3.6026533e-05 5667:1.4964728e-05 5669:-1.9024639e-05 5673:-1.5687452e-05 5674:4.1560179e-05 5676:1.7909473e-05 5677:0.00023782917 5678:0.00039352998 5679:6.9643866e-05 5680:-1.6267266e-05 5682:2.928697e-05 5683:-5.7086509e-05 5685:-0.00014340728 5686:0.00019608841 5687:-3.346154e-05 5688:2.7433065e-05 5689:-4.120286e-05 5691:6.1201281e-05 5692:-1.6350083e-05 5693:4.3247961e-05 5697:-7.0212343e-05 5698:-5.0816736e-05 5700:9.0792841e-05 5701:-1.1055309e-05 5702:-2.896353e-05 5704:1.0004564e-05 5705:0.00022167794 5706:-8.1098857e-05 5709:2.1891588e-05 5710:2.2449169e-05 5711:2.9304107e-05 5712:-2.7667831e-05 5713:-5.3932967e-05 5715:-8.1242484e-05 5716:-2.9565394e-05 5719:-5.7705944e-05 5720:1.2569428e-05 5722:-7.8085977e-05 5728:5.9796435e-05 5729:-1.9833162e-05 5730:8.5136729e-05 5731:9.0227979e-05 5733:-3.8352355e-06 5734:3.0561318e-05 5735:6.6916458e-05 5736:0.00016251828 5737:-2.8761011e-05 5738:2.482261e-05 5739:7.0782466e-05 5740:0.00010026053 5741:0.00010086202 5743:-5.3012765e-05 5749:-7.2064126e-05 5750:-9.3939692e-05 5752:-0.00018119358 5753:7.4655727e-05 5755:-4.9098529e-05 5756:3.2803073e-05 5757:0.00010905021 5760:1.5180158e-05 5762:7.7891244e-05 5763:7.7891244e-05 5764:7.7891244e-05 5766:-1.3356097e-05 5767:-1.5176258e-05 5768:3.4392746e-05 5769:-3.5158504e-05 5772:3.5636953e-05 5773:5.4811058e-05 5774:1.6031216e-05 5775:-1.6894379e-05 5777:0.00013248218 5780:-0.00010723172 5782:0.00033368962 5784:-5.6613524e-05 5786:-1.5685377e-05 5788:0.00037265866 5789:-1.5443507e-05 5790:-5.1383424e-05 5791:4.0498482e-05 5792:0.00012123261 5793:8.427204e-05 5794:4.9948063e-05 5795:0.00025298083 5796:8.427204e-05 5797:0.00046799838 5798:0.0002032179 5799:0.00016164259 5800:0.00010672443 5801:0.00014196488 5802:0.00060914381 5803:0.0002356128 5804:-1.7510887e-05 5806:0.00013546682 5807:-3.5415058e-05 5808:-1.7286966e-05 5811:3.7131973e-05 5812:1.5561045e-05 5813:-2.4565194e-05 5815:-7.224064e-05 5816:0.00023669476 5817:2.0665948e-05 5818:-2.2237469e-05 5819:6.9166808e-06 5820:4.7778034e-05 5821:-1.7525124e-05 5823:-3.4356694e-05 5829:0.00034312368 5830:-3.1185868e-05 5831:0.0001049627 5832:4.7637899e-05 5833:7.7707919e-05 5837:-8.5063177e-05 5838:-8.5063177e-05 5839:-0.00015088514 5840:-9.0621848e-05 5841:-2.9947052e-05 5842:0.00021333457 5843:-3.3341443e-05 5844:4.1305862e-05 5845:-0.00024244114 5846:-0.0001001394 5847:9.6566109e-05 5848:7.9530582e-05 5849:0.00016822155 5851:0.00035218673 5852:0.00010090529 5854:0.00016522892 5855:7.4980468e-05 5857:0.00061668479 5858:0.00022555656 5860:7.5081836e-05 5861:5.2684336e-05 5863:0.00024833149 5864:0.00013596067 5866:5.2841926e-05 5867:0.00028655725 5868:5.9113339e-05 5869:0.00076528621 5870:0.00015568302 5871:9.8569108e-05 5872:2.128316e-05 5873:0.00038440892 5874:0.00021114631 5875:6.8410423e-05 5876:0.00012783828 5879:7.4455173e-05 5880:8.2674502e-05 5881:0.00021379862 5882:0.00027773893 5883:0.00010271907 5884:6.4616346e-05 5885:0.00024726198 5886:2.1496851e-05 5887:0.00052090723 5889:-1.9833702e-05 5893:0.00011312984 5894:-2.0614718e-05 5895:-7.0303693e-05 5896:-3.8445443e-05 5897:-2.7841817e-05 5899:-1.9336538e-05 5900:-1.2607906e-05 5901:3.6614132e-05 5902:-3.098528e-05 5903:2.3562776e-05 5904:0.00010892334 5905:-1.5668624e-05 5906:3.7902268e-05 5910:4.1340627e-05 5911:7.7263168e-05 5912:6.9019748e-05 5914:-1.77324e-05 5915:-3.9588522e-06 5916:3.3685108e-05 5918:5.7202713e-05 5919:5.2437431e-06 5921:-3.3487569e-05 5923:3.2839602e-05 5925:3.8452228e-05 5926:-4.1408635e-05 5927:-1.3508989e-05 5929:-0.00011124084 5930:8.7140194e-05 5931:-0.00012329483 5933:-1.6708366e-06 5934:-1.261711e-05 5935:8.6747357e-05 5936:-5.4489017e-05 5937:-0.00028396019 5938:-5.8638314e-05 5940:-0.00014982714 5941:-3.7456786e-05 5942:-1.4561666e-05 5943:1.3771159e-05 5945:-2.7161195e-05 5946:7.2083545e-05 5949:-3.2120304e-05 5950:-3.7333935e-05 5953:0.00012663635 5954:0.000171543 5955:4.5920086e-05 5956:0.000822564 5957:-5.0020255e-05 5959:9.1815331e-05 5960:0.00012530247 5961:6.6267981e-05 5966:-2.6546373e-05 5968:-2.7699485e-05 5972:6.6954119e-05 5973:-1.9596002e-05 5974:0.00011745354 5975:4.9265003e-05 5976:-0.00013118194 5977:1.7689737e-05 5978:0.00017201736 5979:-5.7672143e-05 5980:-0.00017295199 5981:-7.1999733e-05 5982:-1.5648567e-06 5983:-1.1693252e-05 5984:-2.8514594e-05 5990:-6.1710518e-05 5991:0.00039348478 5992:8.0823747e-06 5993:0.00015539299 5994:0.00054500485 5995:0.00046593533 5997:-3.5734189e-05 5998:0.00010836325 5999:9.1928059e-06 6000:6.8129892e-05 6001:4.5720422e-05 6003:4.5720422e-05 6005:2.1556454e-05 6007:-0.00016032922 6009:-4.1018713e-05 6012:-1.0355622e-05 6013:-1.3293646e-05 6014:1.5688536e-05 6015:-2.2241073e-05 6016:-4.2774941e-06 6017:4.0651314e-05 6019:1.6662671e-05 6020:1.6662671e-05 6021:2.2036851e-05 6022:7.1774812e-05 6024:1.1466153e-05 6025:-0.00010420043 6027:-1.9487057e-05 6028:-5.9383514e-05 6059:5.394459e-05 6060:-1.0578319e-05 6070:-8.90111e-06 6071:0.00030511199 6072:0.00011365495 6073:2.3221572e-05 6075:0.000149371 6076:-1.973966e-05 6077:0.00027893161 6078:-2.473562e-05 6079:4.8351056e-05 6080:-3.9401093e-05 6081:-9.2394963e-05 6082:2.8424003e-05 6085:-3.5369314e-05 6088:-3.7648446e-05 6089:-3.3165572e-05 6091:-1.7525124e-05 6093:-4.0988765e-05 6096:2.9074452e-06 6097:-1.6267266e-05 6098:-2.4112591e-05 6099:3.9912346e-05 6100:-1.8374794e-05 6101:-2.6369546e-05 6103:4.8080619e-06 6104:-2.7525895e-05 6105:-2.9815425e-05 6108:0.00012597257 6109:0.00026091558 6110:2.0272142e-05 6111:9.3360695e-06 6113:-6.3797292e-05 6114:0.00020176412 6115:7.1292779e-05 6116:-0.00014314921 6117:-1.7893652e-05 6119:-0.00019450662 6120:-8.8494686e-05 6121:-0.00010196032 6123:-3.0290983e-05 6125:9.0249829e-05 6126:4.5046731e-05 6127:-8.6260974e-05 6128:-1.9336538e-05 6129:-8.0736565e-05 6131:-8.0736565e-05 6132:0.00031163794 6133:-0.00018209868 6134:-2.7533335e-05 6135:-3.6989637e-05 6136:-7.8659563e-05 6137:-0.00012432174 6138:-3.6804697e-05 6139:-1.6900476e-05 6140:4.9397542e-05 6142:5.9389098e-05 6145:-6.1037426e-05 6146:-0.00018252547 6148:3.8001464e-05 6149:0.00010075629 6150:3.6764806e-05 6151:-2.7637852e-05 6152:4.0909788e-05 6153:9.0783644e-05 6157:-8.8412991e-05 6158:2.9569168e-05 6159:2.4526164e-05 6160:-1.6364191e-05 6161:0.00017007791 6162:0.00010716754 6164:-2.6070857e-05 6165:7.3428178e-05 6166:-1.676857e-05 6167:-9.1535054e-05 6168:4.9834503e-05 6169:-1.5110148e-05 6170:-2.1599239e-05 6171:1.5148713e-05 6173:0.00046463462 6175:-5.7832993e-05 6176:3.7497026e-05 6177:1.9416899e-05 6178:-1.6022292e-05 6181:-7.0998598e-05 6186:9.6393967e-05 6191:-9.5780952e-06 6192:4.5945053e-05 6193:1.3088432e-05 6197:-1.8745539e-05 6198:1.4635649e-05 6199:1.3022792e-05 6202:-4.0333583e-05 6206:-3.281009e-05 6207:-8.5402098e-05 6208:-0.00012923797 6209:-3.281009e-05 6213:-8.6846439e-06 6216:-4.5209141e-05 6217:-5.3715987e-05 6219:1.7527609e-05 6220:1.4113991e-05 6221:-3.0235851e-05 6222:3.7169571e-05 6223:2.9519153e-05 6224:6.5645472e-05 6225:0.00017017375 6226:5.1170631e-05 6227:0.00038960867 6229:-0.0001412861 6230:1.3150956e-05 6231:-8.7650311e-05 6233:0.00022355882 6234:2.5042635e-05 6239:2.8193879e-05 6240:4.7961705e-05 6242:-8.6271662e-05 6243:-2.1677039e-05 6245:-3.4308541e-05 6248:0.0001629394 6249:0.00023417083 6250:-1.1613396e-05 6251:-5.1882645e-05 6252:7.4996475e-05 6253:-2.5465038e-06 6255:4.3766548e-05 6258:-3.2141565e-05 6259:3.793159e-05 6260:1.3475294e-05 6261:-1.6400003e-05 