SVM-light Version V6.20
0 # kernel type
3 # kernel parameter -d 
1 # kernel parameter -g 
1 # kernel parameter -s 
1 # kernel parameter -r 
empty# kernel parameter -u 
4405 # highest feature index 
8 # number of training documents 
2 # number of support vectors plus 1 
-0.70636599 # threshold b, each following line is a SV (starting with alpha*y)
1 1:0.0013060763 2:0.00061362109 3:0.00013339501 4:9.0473281e-05 5:0.0001523478 6:0.002983069 7:0.0012941377 8:0.00020154761 9:0.00018752183 10:0.00058460486 11:0.00075827801 12:0.0003738488 13:0.00012637587 14:0.0022991945 15:0.0003294498 16:0.00033127077 17:0.0010894719 18:0.00035878664 19:0.00037200068 20:5.3119609e-05 21:0.00031676228 22:0.00030800482 23:0.00031838461 24:0.0005661209 25:0.00031133095 26:0.001262484 27:0.0015425985 28:0.00062824268 29:0.00012010901 30:0.00037617082 31:0.00014527714 32:0.0012025589 33:0.0001579622 34:0.00021548256 35:0.00022369334 36:0.00026152088 37:0.00010070067 38:0.00058516883 39:0.00065303996 40:5.3847798e-05 41:0.0001836 42:0.00026656309 43:0.00016400075 44:0.00017431119 45:0.00027161496 46:0.0019972138 47:0.0018747988 48:0.00062680873 49:0.00010790637 50:0.00019049214 51:4.3153574e-05 52:0.00018419039 53:0.0001779313 54:0.00032587614 55:0.013560794 56:0.00018336222 57:0.0025852267 58:0.00069969962 59:0.00029276308 60:0.0001581368 61:6.7335372e-05 62:0.0001379084 63:0.00042885332 64:0.0019785978 65:0.00059780717 66:0.00021800677 67:0.00042747729 68:0.00017595247 69:0.00019120393 70:0.0013048154 71:0.00045335953 72:0.00023168101 73:0.00030892354 74:0.00029374327 75:0.0001987992 76:0.00020510422 77:0.00028117516 78:0.000155494 79:0.00014216128 80:0.00048145669 81:8.4276195e-05 82:0.0014270142 83:0.00022345132 84:0.00013366534 85:0.00085267291 86:0.00014713321 87:0.0035196554 88:0.0088407481 89:0.013534673 90:0.0011799565 91:0.00017003831 92:0.00016975868 93:0.00065606856 94:0.005396565 95:4.3988744e-05 96:0.00012630853 97:0.00036688423 98:0.0003128699 99:0.00026062367 100:0.00019407038 101:0.0038133033 102:0.00018707708 103:0.00049448438 104:0.00040743442 105:0.00031573744 106:0.00027835072 107:0.00040506877 108:0.00050562993 109:0.00097615278 110:0.00033488288 111:0.00025588606 112:0.00019500952 113:0.00038045229 114:7.9057885e-05 115:0.0020661608 116:0.00012394709 117:0.00016633593 118:0.00032920478 119:0.00030643708 120:0.0001987284 121:9.831143e-05 122:0.00066784723 123:0.00030033878 124:0.00027720205 125:0.0001609438 126:0.00019158785 127:0.00011523367 128:0.00010594079 129:0.00023087011 130:0.000174581 131:0.0023120418 132:0.0039686533 133:0.00031569073 134:0.0001459637 135:0.00019154351 136:0.00030075252 137:0.00013384179 138:0.0023572885 139:0.0019287309 140:9.210495e-05 141:0.00067062333 142:0.00031494908 143:0.0009519789 144:0.001606477 145:0.00094299443 146:0.00026518316 147:0.00076938118 148:0.00051674701 149:0.00010736968 150:0.00048872631 151:0.00042447128 152:0.0020813909 153:0.00078083045 154:0.00054401759 155:0.00036382565 156:0.00058443646 157:0.00017222649 158:0.0010180713 159:0.00014132698 160:9.6121199e-05 161:0.00031915843 162:0.00034243139 163:0.00022896535 164:0.00026546643 165:0.00072264962 166:0.00024219841 167:0.00089068874 168:0.00047806275 169:0.00012748137 170:0.0002057713 171:0.001593301 172:0.00034865874 173:0.0003456675 174:0.00027570466 175:0.00011694134 176:0.00016450223 177:0.00018801696 178:0.00057963381 179:0.0012240905 180:0.00053312449 181:0.00025803631 182:0.0082675405 183:0.00033469591 184:0.0044902628 185:0.00074906263 186:0.00086734653 187:0.00040404673 188:0.0039922451 189:0.00039081855 190:5.5514589e-05 191:0.0010459677 192:0.00033287259 193:0.00048970676 194:0.00042606995 195:0.00074221898 196:0.000241068 197:0.00051822647 198:0.00012731116 199:0.00010269984 200:0.00010318782 201:0.00015248076 202:0.017280739 203:0.0017130339 204:0.00067302736 205:0.00073857431 206:0.0019174299 207:0.00492083 208:0.00092358526 209:0.0024830527 210:0.0016375271 211:0.00029193348 212:9.4584859e-05 213:0.0058302665 214:0.012132867 215:0.00062671112 216:0.00032970402 217:0.0026438315 218:0.00017195824 219:0.0053318925 220:0.016684646 221:0.0018185533 222:0.00011907759 223:0.008190074 224:0.00065694284 225:0.01420822 226:0.00018056692 227:8.3570354e-05 228:0.00030106097 229:0.00033523724 230:0.0003786014 231:0.001440053 232:0.015319366 233:6.8793357e-05 234:0.044462226 235:0.00074383116 236:0.00032959468 237:8.3922867e-05 238:0.00056520005 239:0.00023649623 240:0.00012349711 241:0.00030679555 242:0.00065116136 243:0.00024030005 244:0.0013950175 245:0.0044150581 246:0.00047636451 247:8.967644e-05 248:0.00029667589 249:0.00027528289 250:0.00028154859 251:0.00011798075 252:0.00029055847 253:0.009096384 254:0.0004507346 255:0.0012888639 256:0.0051386971 257:0.0030934101 258:0.0012048952 259:0.0019993521 260:0.00025306884 261:0.0040647769 262:0.00057422003 263:0.00029688553 264:0.0015775101 265:0.00028313583 266:0.00027892337 267:0.00025485692 268:0.00020859725 269:0.0010684883 270:0.00047002963 271:0.00039570572 272:0.0010091782 273:0.0014051046 274:0.00041006244 275:0.00018878268 276:0.00018470448 277:0.00037670138 278:0.000636429 279:0.0014709292 280:0.00060162257 281:0.00017666908 282:0.00022448528 283:7.0224989e-05 284:0.00075088791 285:0.00035994267 286:0.00068038551 287:0.00049826736 288:0.00023482945 289:0.017707722 290:0.0017809015 291:0.00070906867 292:0.0010645544 293:0.00034664257 294:0.00055761595 295:0.0064459923 296:0.00022763526 297:0.001007201 298:0.0026016769 299:0.00013083921 300:8.1691433e-05 301:0.00045846435 302:0.00046880433 303:0.00028910127 304:0.00021685884 305:0.00041128663 306:0.00081351504 307:0.0013581795 308:0.019107405 309:0.00022850391 310:0.00038126289 311:0.0011395817 312:0.00098263146 313:0.00047859669 314:0.00025264628 315:0.00080206478 316:0.00059766462 317:0.00037374426 318:0.00011752017 319:0.00028271237 320:0.00031049721 321:9.281643e-05 322:0.00015275713 323:0.00037853196 324:0.00013963545 325:0.00014764961 326:0.00013796598 327:8.9943838e-05 328:0.015911728 329:0.00011288468 330:0.00018100023 331:0.00038095037 332:0.00077274541 333:0.00020843378 334:0.00024001634 335:0.00013025333 336:0.0001743816 337:0.00015267692 338:0.00040108833 339:0.00011182599 340:0.00040469688 341:0.00066338119 342:0.0012324025 343:0.00023995429 344:0.00011475979 345:0.0011410195 346:0.00016572756 347:0.00072338321 348:0.00023010439 349:0.001180851 350:0.0017297692 351:0.00034787858 352:0.00042723736 353:0.0012735099 354:4.8709662e-05 355:0.00099841156 356:0.0063286196 357:0.00055069348 358:0.0039620772 359:0.00045568973 360:0.00014031748 361:0.00014843083 362:0.00063229096 363:0.0037765892 364:0.00017750828 365:0.0066561038 366:0.00016939064 367:0.00095082272 368:0.00079800538 369:0.00071918598 370:0.00047584856 371:0.00052475434 372:0.0080527365 373:0.00012843769 374:0.0014691141 375:0.00015953506 376:0.0011265129 377:0.00026147775 378:0.0010229491 379:9.4277086e-05 380:0.00018298822 381:0.00060941395 382:0.00039760448 383:0.00015729526 384:0.00048429702 385:5.5756551e-05 386:0.002699059 387:6.7068766e-05 388:0.0016271246 389:0.00029629364 390:0.00024679877 391:0.00020990755 392:0.00019983575 393:0.00073210901 394:0.00045728212 395:0.00051383628 396:0.0011255875 397:0.00032398838 398:0.00026218742 399:0.001439415 400:0.00090854475 401:0.0007021302 402:0.00039406834 403:0.00017462073 404:4.0055125e-05 405:0.00071134395 406:0.0084490236 407:0.018073926 408:0.0013446523 409:0.0001493056 410:0.0012104778 411:0.00068068469 412:0.0017653032 413:0.0007307803 414:0.00033531178 415:0.00076765096 416:0.0089322152 417:0.0017595643 418:0.00038306779 419:0.00045701204 420:0.0035599039 421:0.00018347366 422:0.00019239513 423:0.00013652646 424:0.010304616 425:0.0066659357 426:0.00059994985 427:0.00068959931 428:0.00052092824 429:0.00018164905 430:0.00038042726 431:0.000600425 432:0.00015352195 433:0.0066550868 434:0.0027260189 435:0.00013903034 436:0.00035090465 437:0.00054089597 438:0.00025057729 439:0.00056729151 440:0.00067250448 441:0.00028041779 442:0.00032031161 443:0.00081035617 444:0.011675696 445:8.049907e-05 446:0.00016278149 447:0.00028233207 448:0.011272188 449:0.0029630302 450:4.2018724e-05 451:0.00084776635 452:0.00016363669 453:0.00031412169 454:0.0011637586 455:0.00015828561 456:0.00014318466 457:0.0041312897 458:0.0013870973 459:0.0012708106 460:0.00031934216 461:4.3991e-05 462:0.00017786096 463:0.00018569906 464:0.0043074782 465:0.0045893677 466:0.00013039321 467:0.0018934709 468:0.00055538886 469:0.0001356882 470:0.00012312728 471:3.8292823e-05 472:0.00027671657 473:0.00020195685 474:0.00025012199 475:0.00013486391 476:0.00010787932 477:0.00054490328 478:0.000960626 479:0.00014198205 480:0.00063208921 481:0.00038343744 482:0.00022748868 483:0.00011352013 484:0.00037839988 485:0.00018628185 486:0.00033055534 487:0.00013514147 488:0.0010465111 489:0.020962281 490:0.00020126438 491:0.00023293463 492:0.00034673678 493:0.00084666343 494:0.0001846213 495:0.00015995585 496:0.0007759399 497:0.027356673 498:0.00041537033 499:0.00063134049 500:0.0013394271 501:0.00051027373 502:0.00017061517 503:0.0001372571 504:0.00017452982 505:0.00012639051 506:3.7744219e-05 507:7.1497241e-05 508:0.00040668828 509:0.00029216218 510:0.00037681012 511:0.00059919461 512:8.8964814e-05 513:0.00023712113 514:0.0051420899 515:0.00075330195 516:0.00044700495 517:0.00012836694 518:0.00018049705 519:0.0021734957 520:0.010902954 521:0.00033495968 522:0.0028581393 523:0.00030915852 524:0.00051493075 525:0.00015566582 526:0.00013772771 527:0.00058930868 528:0.00070399331 529:0.00017585336 530:0.00031774401 531:0.00054865435 532:0.00068784715 533:0.00019460479 534:0.00026627522 535:0.0003021599 536:0.0016085213 537:0.00010012254 538:0.00048946147 539:0.00050676981 540:0.00033587613 541:0.0022553848 542:0.0007999455 543:0.00038537954 544:0.0010982143 545:0.00175754 546:0.00038599098 547:0.00045501706 548:0.00013868175 549:7.8888355e-05 550:0.0010381816 551:0.0003995132 552:0.00033833217 553:0.00087995728 554:0.0002245894 555:0.0013652084 556:0.0045704148 557:0.00013254788 558:0.002032737 559:-1.9253514e-05 560:0.0002948764 561:0.00014811094 562:0.0003591642 563:0.00048413067 564:0.00017435063 565:2.9356192e-05 566:0.00021341229 567:0.00046691927 568:0.00068852375 569:0.00024217395 570:0.0036781812 571:0.00018949366 572:0.00045915757 573:0.00095200224 574:0.00024801056 575:0.00021481607 576:0.00084755244 577:0.00014457159 578:8.1289938e-05 579:0.00089884497 580:0.001138309 581:0.00075433624 582:0.022036284 583:0.0042446186 584:0.0049052946 585:0.0096089495 586:0.00038875401 587:8.3046019e-05 588:0.0051275631 589:0.00032980883 590:0.0084457677 591:0.0011493377 592:0.0005192635 593:0.0010148592 594:0.00019463932 595:0.00095002807 596:0.0015883957 597:0.00030738863 598:0.0001822558 599:0.0035842308 600:0.00027337612 601:0.00025673461 602:1.7289522e-05 603:0.02098532 604:0.00069548859 605:0.00034334915 606:0.00025880805 607:0.00022583867 608:0.00017848596 609:0.00024865294 610:0.00018003807 611:0.0032439528 612:0.00091116608 613:0.00109267 614:0.0010361562 615:0.00037298122 616:0.00066542468 617:0.0016145057 618:0.00090832816 619:0.00038174327 620:0.0010464732 621:0.00063002057 622:0.00026663876 623:0.00025704119 624:0.00022597556 625:0.00033744751 626:0.0067901104 627:0.002056641 628:0.0048468038 629:0.00071026443 630:0.00024761725 631:0.00017782385 632:0.00038260719 633:0.00011774158 634:0.00045745901 635:0.00050727022 636:0.00016688636 637:0.00036778435 638:0.00042915021 639:0.00084627722 640:0.00032275356 641:0.00028087047 642:0.00024489051 643:0.00018062399 644:0.00020701237 645:0.0015311434 646:0.0001101525 647:0.00012390387 648:0.00042001918 649:0.00021978471 650:0.00035282382 651:0.00034886479 652:0.0007709568 653:0.0010117259 654:0.00047294889 655:0.00018237831 656:0.0003697646 657:0.0001565807 658:0.0011082625 659:0.0048696771 660:0.0012538616 661:0.00048060701 662:0.001294579 663:0.00088564382 664:0.0011408497 665:0.00075583934 666:0.00042239801 667:0.00077865267 668:0.00024607193 669:0.0034632969 670:0.0016242317 671:0.00080453971 672:0.00061643316 673:0.0010985804 674:0.00041742087 675:0.00024765733 676:0.0015143785 677:0.0024233456 678:0.0022214048 679:0.0011159423 680:0.00080812752 681:0.00034101252 682:0.00043726407 683:0.00069361762 684:0.00031242697 685:0.00066877325 686:0.0029835294 687:0.00085292739 688:0.001600199 689:0.00054057926 690:0.0015402276 691:0.00017324433 692:0.0029084615 693:0.00046524988 694:0.00016456735 695:0.00027782528 696:0.00040108437 697:0.00036289674 698:0.00031421511 699:0.0017005431 700:0.00079169736 701:0.00036149769 702:0.00095816108 703:0.00020708417 704:0.0021270288 705:0.00021726238 706:0.00040425779 707:0.00015401166 708:0.0034180009 709:0.0009134399 710:0.00059827062 711:0.00015397623 712:0.0019076167 713:0.00014377525 714:0.0003682641 715:0.00029751234 716:0.00076348562 717:0.00035154971 718:0.00025297113 719:0.00034980025 720:0.0018437792 721:0.0002977034 722:0.00017624498 723:0.00050800689 724:0.00019154437 725:0.00040277388 726:0.00028591297 727:0.00035324704 728:0.00047373847 729:0.0005316285 730:0.00024057821 731:0.00038026297 732:0.00012443095 733:0.00020250461 734:0.00019993284 735:0.00075672218 736:8.8014953e-05 737:0.00025692367 738:0.00024110571 739:0.00011631369 740:0.00024922649 741:0.0017263381 742:0.0020203143 743:0.0013255371 744:0.0036755118 745:0.00014381984 746:0.00030885651 747:0.00054033863 748:0.00022660465 749:0.0018710851 750:0.0003216959 751:0.00035611712 752:0.00013813611 753:0.0033938847 754:0.0023187466 755:0.0007445243 756:0.0041992678 757:0.00080065214 758:0.0013073685 759:0.00020957664 760:0.00098293473 761:0.00034165892 762:0.00080456771 763:0.00019514388 764:0.00036252546 765:0.00010558324 766:0.00013924859 767:0.00048579447 768:0.00032239591 769:0.00015721955 770:0.002348644 771:0.00020584372 772:0.00081840169 773:0.00055956724 774:0.0001929557 775:0.0017944878 776:0.0023767084 777:0.00049891497 778:0.00072345737 779:0.0011203358 780:0.00014183864 781:0.00022933127 782:0.00047838167 783:0.00012056976 784:0.00013936621 785:0.00042447768 786:0.00012601375 787:0.00014484274 788:0.00021638852 789:0.00076172577 790:0.00021479739 791:0.000387935 792:0.00023374049 793:0.0022525005 794:0.0016351363 795:0.0012629464 796:0.00030181929 797:0.0017429467 798:0.00021949378 799:0.00029772084 800:0.00029130519 801:0.00017232954 802:0.00014646264 803:0.0001557106 804:0.00021167925 805:0.0001233752 806:0.0001053978 807:0.0057489844 808:0.00071566796 809:0.00011203776 810:0.0010092116 811:0.0003024326 812:0.0007827786 813:0.001038368 814:0.00022244746 815:0.00069189374 816:0.0003112338 817:0.00015929247 818:0.00026781458 819:0.00099075073 820:0.00030014868 821:0.0001563691 822:0.00010835598 823:9.9766563e-05 824:0.00010057924 825:0.00029046077 826:0.0019347711 827:0.0015779858 828:0.0010082027 829:0.0028895929 830:0.0004007289 831:0.00070670154 832:0.00015229775 833:0.00063009927 834:0.0016579101 835:0.0012630993 836:0.00013524998 837:0.00033460875 838:0.00026319918 839:0.00064100709 840:0.0014109659 841:0.00019830518 842:0.00038545125 843:0.0010167026 844:8.6575332e-05 845:0.00018461773 846:0.00013787762 847:0.00018902462 848:5.5511904e-05 849:0.00017073582 850:0.00010455652 851:0.00031984143 852:0.00024895024 853:0.00015433331 854:9.9443489e-05 855:8.4810657e-05 856:0.00017531709 857:0.0019404405 858:0.00045657452 859:0.00022702606 860:0.00022685499 861:0.0012359933 862:0.00028943541 863:0.00038238661 864:0.00027698107 865:8.4501429e-05 866:0.00010775941 867:0.00012238494 868:0.0055869087 869:0.0010046959 870:0.0012333454 871:0.0014171124 872:0.0027209893 873:0.003843561 874:0.00046710949 875:0.00034578788 876:0.0002102181 877:0.00077595591 878:0.00018608687 879:0.0019524958 880:0.00098692602 881:0.00016545801 882:0.00044179545 883:0.00052086869 884:0.00080977118 885:0.0025340253 886:0.00040689117 887:0.0002160088 888:0.00053833507 889:0.001443548 890:0.00011352038 891:0.00029145164 892:0.00056693616 893:0.00012977689 894:0.00040453381 895:0.00018397192 896:0.00041235259 897:0.00020416883 898:0.00051104539 899:0.0032734866 900:8.9298075e-05 901:0.00012722133 902:0.001116852 903:0.00045648901 904:0.0083122542 905:0.0034710779 906:0.00039322523 907:0.00034345442 908:0.00018736414 909:0.00014092708 910:0.0001540768 911:0.00016106109 912:0.00062415528 913:0.0010711397 914:0.0036156606 915:0.0001738361 916:0.00023559459 917:0.0019145845 918:0.0079417722 919:0.00066897931 920:0.00043984948 921:0.0013198543 922:0.00020433121 923:0.00015955637 924:0.00017261847 925:4.8556532e-05 926:6.5200278e-05 927:0.0002686845 928:0.00020635124 929:0.00024845262 930:0.00075882074 931:0.0010753323 932:0.00047053266 933:0.00016402233 934:0.00034908185 935:0.00020691979 936:0.00043328619 937:0.0020515677 938:0.00043607311 939:0.00012103274 940:0.00021749077 941:0.00032100675 942:0.00010730587 943:0.00020832608 944:0.00044077454 945:0.00015114159 946:0.00021725903 947:0.0010190421 948:0.00017037112 949:0.0014226864 950:0.0012304261 951:0.00018064944 952:0.001172326 953:0.00027282565 954:0.00053249317 955:0.0026443347 956:0.00087336038 957:6.4648535e-05 958:0.00018598972 959:0.00023841436 960:0.00019295485 961:0.00061050645 962:0.00031705815 963:0.00010149544 964:0.00012535142 965:0.0005320913 966:0.0015514472 967:0.00035653709 968:0.00019492632 969:0.00016930529 970:0.0017711811 971:0.00060206268 972:0.00021601954 973:0.00032371574 974:0.00050967204 975:0.00092024123 976:0.0023711685 977:0.00028099999 978:0.0054235142 979:0.00029953048 980:0.0052032503 981:0.0015028052 982:0.00049817481 983:0.0020971049 984:0.00032995373 985:0.00031533453 986:0.00042524442 987:0.00021982761 988:0.00020657983 989:0.00034582784 990:0.0005853044 991:0.00021871952 992:0.00054383179 993:0.0012854576 994:0.0042663789 995:0.00073659257 996:0.0013544427 997:0.00014954648 998:0.00021935109 999:0.0002167901 1000:0.00083513273 1001:0.00017375265 1002:0.00022112156 1003:0.00020142194 1004:0.00050859561 1005:0.00015124489 1006:0.00023588684 1007:0.00033847528 1008:9.6145137e-05 1009:0.00035815311 1010:0.0001067128 1011:0.0004709576 1012:0.0033439663 1013:0.0008699813 1014:0.00054337113 1015:0.00016363407 1016:0.00012180765 1017:0.00027915492 1018:0.00026968578 1019:0.00024271131 1020:7.3633506e-05 1021:0.00053490163 1022:0.00018218982 1023:0.00014631667 1024:0.00065636938 1025:0.00099240243 1026:0.00021845264 1027:0.00032996963 1028:0.001837299 1029:0.00067780167 1030:0.0017181153 1031:0.00021715059 1032:0.00011684118 1033:8.8639623e-05 1034:0.00018474252 1035:0.00016902444 1036:0.00074757781 1037:0.00021414481 1038:0.00019558148 1039:0.00063145184 1040:0.00063322269 1041:0.00012799284 1042:0.00020547248 1043:0.00015799038 1044:0.002231522 1045:0.0014578934 1046:0.00016489111 1047:0.0001408894 1048:0.0001897879 1049:0.00028251429 1050:0.00040066938 1051:0.00025497869 1052:0.00066625531 1053:9.2703667e-05 1054:0.00054135104 1055:0.00038936126 1056:0.00053167948 1057:9.9470824e-05 1058:0.00012545094 1059:0.00029565097 1060:0.00026285133 1061:0.00042108545 1062:0.00023985741 1063:0.00025663309 1064:0.014940706 1065:0.0027332439 1066:0.00052510807 1067:0.00015130283 1068:0.00024939785 1069:0.00067578768 1070:0.0035374335 1071:0.0069248686 1072:0.0051356857 1073:0.00044920103 1074:0.00033126539 1075:0.00018279249 1076:0.0001351619 1077:0.0018122336 1078:0.00027765421 1079:0.0030258147 1080:0.00024875853 1081:0.0022302894 1082:0.00019581651 1083:0.00080349186 1084:0.00013870258 1085:0.00011553754 1086:0.0012055878 1087:0.00075585273 1088:0.00027544191 1089:0.00015136841 1090:0.00018712145 1091:0.00018562467 1092:0.001238474 1093:0.00046216225 1094:0.00050722889 1095:0.00050221744 1096:0.0012924463 1097:0.00015168681 1098:0.00013710989 1099:0.00023926924 1100:0.00019157649 1101:0.00015697707 1102:0.00017695362 1103:0.00037235822 1104:0.00014110951 1105:0.00042852524 1106:0.00022425436 1107:0.0015475643 1108:0.00017476936 1109:0.00044714386 1110:0.00011499214 1111:0.0002684689 1112:0.00034809485 1113:0.00018757855 1114:0.00069678226 1115:0.00014676509 1116:0.00022142104 1117:0.0002870844 1118:0.00011450876 1119:0.0046328115 1120:0.00055861694 1121:0.00023237539 1122:0.00067477761 1123:8.4133331e-05 1124:0.00021231511 1125:0.00024919162 1126:0.00014733295 1127:0.00015937892 1128:0.00010758663 1129:0.00028294112 1130:0.00054000592 1131:0.00021711476 1132:0.00041510482 1133:0.0001475243 1134:0.00048443073 1135:0.00013303579 1136:0.011404749 1137:0.00042146543 1138:0.00049376109 1139:0.00096812414 1140:0.00053195585 1141:0.0010400997 1142:0.00014358609 1143:0.0023468793 1144:0.0068785101 1145:0.0041297814 1146:0.00033088788 1147:0.0003367454 1148:0.00023332069 1149:0.0018386046 1150:0.00030539589 1151:0.00072049687 1152:0.00061185047 1153:0.01065365 1154:0.0029068687 1155:0.0015495629 1156:0.00048867206 1157:0.00028725795 1158:0.00023241086 1159:0.0012869973 1160:0.00022293732 1161:0.00025750734 1162:0.006514729 1163:0.00023388749 1164:0.0089418488 1165:0.0050090286 1166:0.0045649288 1167:0.0030258694 1168:0.00097281788 1169:0.00030392033 1170:0.00049911614 1171:0.00020999984 1172:0.00040163408 1173:0.00013866395 1174:0.00037505903 1175:0.00025266537 1176:0.00028002236 1177:0.00014490547 1178:0.00011703285 1179:0.00030444807 1180:0.00010858248 1181:0.00037613336 1182:0.0009002008 1183:0.00051326136 1184:0.00020203345 1185:0.000792659 1186:0.00014177377 1187:0.00099949201 1188:0.00021945183 1189:0.00073552743 1190:0.00045146936 1191:0.0005617179 1192:0.0013435743 1193:0.0010660279 1194:0.00026190604 1195:0.00018814292 1196:0.0001896129 1197:0.00025889851 1198:0.00022183928 1199:0.0019754365 1200:0.00015705814 1201:0.00013228614 1202:0.00011435957 1203:0.00023699943 1204:0.00014326096 1205:0.0015957803 1206:0.00034934632 1207:0.00020229991 1208:7.5363307e-05 1209:0.0019416651 1210:0.0031851374 1211:0.00074737531 1212:0.00018334178 1213:0.0016749593 1214:0.0014722765 1215:0.00012444932 1216:0.00015968844 1217:0.0040234518 1218:0.007438818 1219:0.00041847897 1220:0.0044672391 1221:0.00010803204 1222:0.021151032 1223:0.00017270765 1224:0.0002640973 1225:0.0003270068 1226:0.004485121 1227:0.0026750106 1228:0.0002633431 1229:0.00014645859 1230:0.00023570299 1231:0.00068341306 1232:0.00044123083 1233:0.00033240646 1234:0.0001373429 1235:0.0014398594 1236:0.00058511843 1237:0.0001967344 1238:0.00040922515 1239:0.00040531997 1240:0.00022774949 1241:0.0005983084 1242:0.00018016571 1243:0.00046363295 1244:0.00026350416 1245:0.00015290684 1246:0.00020230748 1247:0.00030212675 1248:0.00026362517 1249:0.00074739341 1250:0.0024355073 1251:0.00018598798 1252:0.00094783492 1253:0.00016588568 1254:0.00018859422 1255:0.0034947158 1256:0.00050264451 1257:0.00092431688 1258:0.00059704354 1259:9.2964285e-05 1260:0.00017049746 1261:0.00016972439 1262:0.00019391657 1263:0.002233526 1264:0.00026594283 1265:0.0002305377 1266:0.0024422365 1267:0.00019285153 1268:0.0001200823 1269:0.00037382307 1270:0.00016331402 1271:0.00088384544 1272:0.00019650382 1273:0.00041105269 1274:0.00026970421 1275:8.6361622e-05 1276:0.00029946456 1277:0.000272701 1278:0.00023075187 1279:0.0021375678 1280:0.00077493 1281:0.00036239764 1282:0.00013881018 1283:0.00019865354 1284:0.00025891996 1285:0.00017559096 1286:0.0022725274 1287:0.00018576159 1288:0.0055817636 1289:0.0014757423 1290:0.001412338 1291:0.0032687881 1292:0.00045320595 1293:0.00090496067 1294:0.0008023773 1295:0.00018970783 1296:0.00024781929 1297:0.0056875716 1298:0.0001519681 1299:0.00092069863 1300:0.0002774999 1301:0.0004688263 1302:-3.7345995e-05 1303:0.00035680647 1304:0.0014948118 1305:0.00035404414 1306:0.00017984217 1307:0.00036007332 1308:0.001390761 1309:0.0001562987 1310:0.00011795491 1311:0.00047425786 1312:0.00015766405 1313:0.00033474111 1314:0.0033469903 1315:0.0011568964 1316:0.00022569759 1317:0.00040369117 1318:0.00017324409 1319:0.00030318749 1320:0.00016559863 1321:0.00023193039 1322:0.001042644 1323:0.00021453165 1324:0.00017722943 1325:0.00013598864 1326:0.00021369381 1327:0.0038642304 1328:0.00027071513 1329:0.00017522203 1330:0.0003423726 1331:0.0001731087 1332:1.8511268e-05 1333:0.00016071566 1334:0.00024523382 1335:7.9105259e-05 1336:0.00025467138 1337:0.00019199638 1338:0.00014406086 1339:0.0043008039 1340:6.4964734e-05 1341:0.00060752174 1342:0.00029884049 1343:0.010854451 1344:0.00055364351 1345:0.0001867027 1346:0.00025576146 1347:0.00012044564 1348:0.00078846334 1349:0.0071365791 1350:0.0057072849 1351:0.00049809559 1352:0.001327197 1353:0.0032913713 1354:0.0065256585 1355:9.2543582e-05 1356:0.0037315381 1357:0.000195163 1358:0.0001394424 1359:0.00027752831 1360:0.0023289146 1361:0.0009760352 1362:0.00096662313 1363:0.00055337802 1364:0.00040281174 1365:0.00031402419 1366:0.0059727984 1367:0.00019241622 1368:0.0021709041 1369:0.00023564897 1370:0.00069196761 1371:0.000212952 1372:0.00018626951 1373:0.0012662947 1374:5.495263e-05 1375:0.00043547616 1376:0.00027299864 1377:0.00016674394 1378:0.00017184736 1379:0.0001755307 1380:0.00016453328 1381:7.6956356e-05 1382:0.00026240581 1383:0.00012533106 1384:0.0013966074 1385:0.00041802754 1386:0.0023122348 1387:0.0043546562 1388:0.00067060645 1389:0.00029706143 1390:0.0025281655 1391:0.0050488706 1392:0.00075256778 1393:0.00018014264 1394:0.00017777184 1395:0.0024147974 1396:0.00010542772 1397:0.00048200969 1398:0.00018472498 1399:0.00016536468 1400:-9.172265e-06 1401:0.00031322052 1402:0.0001168891 1403:0.00020360659 1404:0.00021611262 1405:0.0010140475 1406:0.00051327114 1407:0.00023930598 1408:0.0001323789 1409:0.0002608936 1410:0.0026920023 1411:0.00012676892 1412:0.00029355197 1413:0.00037835282 1414:0.0028123998 1415:0.0022473435 1416:0.006355565 1417:0.00077842636 1418:0.00052784762 1419:0.0014672499 1420:0.0004574045 1421:0.0013838031 1422:0.00020078412 1423:0.0040061874 1424:0.0010872295 1425:0.00014906925 1426:4.7685106e-05 1427:0.00029744586 1428:0.00017558565 1429:0.00037086572 1430:9.3570983e-05 1431:0.00032737068 1432:0.00011555012 1433:0.00013231341 1434:1.2038568e-05 1435:0.00062849099 1436:0.00093284948 1437:0.00019246455 1438:0.00102547 1439:0.00048979768 1440:0.00038290073 1441:0.00030523556 1442:0.00019454914 1443:0.0004446696 1444:0.0021078696 1445:0.00086919835 1446:0.00058081647 1447:0.0043362458 1448:0.00014998596 1449:0.0077135409 1450:0.00022475337 1451:0.00018193699 1452:0.00018749287 1453:0.00029534657 1454:0.0058629741 1455:0.0046835267 1456:8.6590742e-05 1457:0.00024894485 1458:0.00017473489 1459:0.00050286955 1460:0.00062457682 1461:0.00014469727 1462:0.00031363335 1463:0.0031111517 1464:0.00059657055 1465:0.00027407342 1466:0.00031054328 1467:0.00027362071 1468:0.0053153289 1469:0.0050508184 1470:0.00014659962 1471:0.00044596184 1472:0.00042586878 1473:0.0002033792 1474:0.0051489291 1475:0.0011455589 1476:0.0025896756 1477:0.00042291582 1478:0.00032762767 1479:0.00072971394 1480:0.00019336471 1481:0.0010810733 1482:0.00034164829 1483:0.00090329815 1484:0.0071229818 1485:0.00023987904 1486:0.0077086734 1487:0.0012275839 1488:0.00011614124 1489:0.00012892815 1490:0.00013374344 1491:0.00018915495 1492:0.00023679946 1493:0.0014198005 1494:0.0011855832 1495:0.00022165973 1496:0.00050805992 1497:0.0016997111 1498:0.0028921613 1499:0.00031116875 1500:0.000317489 1501:0.00010915339 1502:0.00023557204 1503:0.00012358735 1504:0.00023398097 1505:0.0041501378 1506:0.0079851476 1507:0.0014663726 1508:0.00028847958 1509:0.0028529903 1510:0.00075602968 1511:0.0001794316 1512:0.00026189987 1513:0.0011392225 1514:0.00091181777 1515:0.001405418 1516:0.0015399982 1517:0.00031556224 1518:0.00022892364 1519:0.00084870204 1520:0.011959706 1521:0.00017651136 1522:0.0021164985 1523:0.0030527841 1524:0.0020186875 1525:0.00096976041 1526:0.0008313338 1527:6.5284097e-05 1528:0.00010363376 1529:0.00071851671 1530:0.00017430098 1531:0.00037927675 1532:0.00031259624 1533:0.00048998196 1534:0.00065762305 1535:0.00049428578 1536:0.00030034568 1537:0.00012219104 1538:0.00016516 1539:0.00054653193 1540:0.00017242438 1541:0.00014230827 1542:0.00085724972 1543:0.00081445422 1544:0.00019440697 1545:0.00026595627 1546:9.6873038e-05 1547:0.00033933879 1548:0.00031334668 1549:0.00078365539 1550:0.00036509469 1551:0.00025870174 1552:9.2324495e-05 1553:0.00059222354 1554:0.0005981655 1555:0.00021248069 1556:0.00065907551 1557:0.00012401224 1558:0.00063864089 1559:0.00017156843 1560:0.00074050634 1561:0.00011622836 1562:0.00025915907 1563:0.0062189898 1564:0.0019993477 1565:0.00015716578 1566:0.00015221024 1567:0.00013609332 1568:0.00013226515 1569:0.00018136605 1570:0.031028416 1571:0.00023306093 1572:0.00038284474 1573:8.4349071e-05 1574:0.00052993308 1575:0.00015388516 1576:0.0012117885 1577:0.0011522664 1578:0.00021577034 1579:0.0005741127 1580:0.00024539803 1581:0.0013930496 1582:0.0034298303 1583:0.00023617657 1584:0.00119064 1585:0.00031396322 1586:0.00048464065 1587:0.00079930678 1588:0.00021489427 1589:0.00020681455 1590:0.00014234231 1591:0.00034073708 1592:0.0030435908 1593:0.0052384306 1594:0.0010787011 1595:8.1256039e-05 1596:0.00023952223 1597:0.00027106653 1598:0.00034727083 1599:0.00010845273 1600:0.00018193423 1601:0.0091553675 1602:0.00018290619 1603:0.00025538774 1604:0.00066642871 1605:0.00058337866 1606:0.00081906118 1607:0.0004525031 1608:0.00036904291 1609:0.00075970782 1610:0.00046758616 1611:0.0026210654 1612:0.0026703048 1613:0.0033207629 1614:0.013562554 1615:0.00098487805 1616:0.00063413632 1617:0.00025129356 1618:0.00035029856 1619:0.00046263202 1620:0.00048134744 1621:0.0019944098 1622:0.00087516342 1623:0.00024232434 1624:0.0032174701 1625:0.0022107635 1626:0.00068233319 1627:0.0011980255 1628:0.00010568032 1629:0.0015240838 1630:0.00028560401 1631:0.00066311582 1632:0.00022840837 1633:0.0001319111 1634:0.00019962458 1635:0.0023494828 1636:0.00010468486 1637:0.0003861739 1638:0.0021542828 1639:0.00055256113 1640:0.00012328773 1641:0.0012242063 1642:0.0026312151 1643:0.00015634524 1644:7.0492999e-05 1645:0.0020065664 1646:0.00016611384 1647:0.00026385105 1648:0.0003055647 1649:0.0021427562 1650:0.00010156618 1651:0.00079831155 1652:0.00064076536 1653:0.00026221882 1654:0.0075694919 1655:0.00068836089 1656:0.0001236377 1657:0.00020255908 1658:0.00015248834 1659:0.00040845416 1660:0.00045537692 1661:0.013407941 1662:0.001540261 1663:0.0064493609 1664:0.00013942318 1665:6.5100656e-05 1666:0.0055240598 1667:0.00023379423 1668:0.00013194112 1669:0.0010314956 1670:0.00032900035 1671:0.00036652276 1672:0.004300335 1673:0.0016190583 1674:0.001461717 1675:0.0014834392 1676:0.00028468613 1677:0.0039578187 1678:0.0030923998 1679:0.00030440625 1680:0.0014023843 1681:0.00014364146 1682:0.00049986073 1683:0.00032245013 1684:0.00030765703 1685:0.00016429793 1686:0.0002117157 1687:0.0004752191 1688:0.0091737267 1689:0.00031519966 1690:0.00043280071 1691:0.00020521825 1692:0.0018976044 1693:0.0050099888 1694:0.00096203276 1695:0.00016227864 1696:0.011370503 1697:0.00011448609 1698:0.00085736992 1699:9.9152392e-05 1700:0.00027847858 1701:0.0087980377 1702:0.00021329585 1703:0.0016659452 1704:0.00010651344 1705:0.00018417464 1706:0.00066848868 1707:0.00037156054 1708:0.00037305983 1709:0.00018187294 1710:0.0003047646 1711:0.00050236896 1712:0.00028473142 1713:0.00033762594 1714:0.00019624729 1715:0.00066296913 1716:0.0028306919 1717:0.00025897915 1718:0.00019761312 1719:0.00021867086 1720:0.00035063509 1721:0.00073730713 1722:0.00013578289 1723:0.02037894 1724:0.00060555636 1725:0.0014659527 1726:0.00053058879 1727:0.00011895897 1728:0.00072992616 1729:0.00026391295 1730:0.00042813714 1731:0.00061035878 1732:0.00068209303 1733:0.00019960584 1734:0.00011636873 1735:0.00011770947 1736:0.00026756601 1737:0.00026634327 1738:0.00034794578 1739:0.00014990635 1740:0.0015007871 1741:0.00011466671 1742:0.0012876668 1743:0.00043263839 1744:0.00068818242 1745:0.00071077154 1746:0.00047921104 1747:0.00038796826 1748:0.00040481662 1749:0.00037942428 1750:0.00019232141 1751:0.015679665 1752:0.00030424839 1753:0.00022988579 1754:0.00018290078 1755:0.0016008728 1756:0.0048010922 1757:0.0006003459 1758:0.00064153963 1759:0.0016092766 1760:0.00020187732 1761:0.00034052829 1762:0.00066698837 1763:0.0043276809 1764:0.0018495608 1765:0.00028768697 1766:0.00017825124 1767:0.00079338538 1768:0.00049619336 1769:0.00016257781 1770:0.00054563471 1771:0.0017190687 1772:0.00049371558 1773:0.007294775 1774:0.004241135 1775:0.00072586763 1776:0.00024794001 1777:0.00075098668 1778:0.00019139536 1779:0.00083428499 1780:0.00017355273 1781:0.0010258682 1782:0.00067411317 1783:0.00018896628 1784:0.013248044 1785:0.00077182299 1786:0.00070385908 1787:0.00089371059 1788:0.00040882835 1789:0.027407015 1790:0.0038914105 1791:0.00019042919 1792:0.00777453 1793:0.00015352982 1794:0.0045742858 1795:0.00075744122 1796:0.00029545929 1797:0.00023306279 1798:0.00013980205 1799:0.0002530519 1800:0.00032136199 1801:0.00056457642 1802:0.0011537683 1803:0.00021456524 1804:0.00043883629 1805:0.00018927072 1806:0.00029885044 1807:0.00059127458 1808:0.0002264246 1809:0.0032159172 1810:0.00046566068 1811:0.00019769483 1812:0.001269846 1813:4.9326456e-08 1814:0.00019269068 1815:0.0021968388 1816:0.0009112102 1817:0.0016154532 1818:9.3742761e-05 1819:0.0013826111 1820:0.0002846577 1821:0.0047276295 1822:0.0034597369 1823:0.00043807228 1824:0.00080345158 1825:0.00059954001 1826:0.000452343 1827:0.00035354283 1828:0.00065336149 1829:0.00040376594 1830:0.00025075459 1831:0.0020592655 1832:0.00088884437 1833:0.00027735988 1834:0.0011437545 1835:0.00024645854 1836:0.00058669021 1837:0.00072108879 1838:0.0055228812 1839:0.0014300105 1840:0.00037717336 1841:0.0023291111 1842:0.00020959933 1843:0.00062327128 1844:0.0016576013 1845:0.00019937342 1846:0.0001801021 1847:0.00067140668 1848:0.00011601517 1849:0.00017171736 1850:0.0070992135 1851:0.00017829554 1852:0.0034943952 1853:0.0011461317 1854:0.00029811499 1855:0.0001864974 1856:0.00021033335 1857:0.0053934464 1858:0.00017548093 1859:0.00042392942 1860:0.0012400567 1861:0.00040670295 1862:0.0011547069 1863:0.00017033944 1864:0.0002064921 1865:0.0023088253 1866:0.0012712213 1867:0.0010115515 1868:0.00021223741 1869:0.00078014901 1870:0.00011798383 1871:0.00033601536 1872:0.00011173492 1873:0.00040136743 1874:0.00095861184 1875:0.00029688489 1876:0.00029751635 1877:0.00037824677 1878:0.0012383109 1879:0.0036648093 1880:0.0026322042 1881:0.0092219105 1882:0.0046536592 1883:0.00021707638 1884:0.00035177165 1885:0.00023044873 1886:0.00077677297 1887:0.0026406017 1888:0.00011669656 1889:0.00017466194 1890:0.0004386146 1891:0.00061402936 1892:0.0001146989 1893:0.00017899959 1894:0.00046956903 1895:0.00026717753 1896:0.0050383797 1897:0.00051786168 1898:0.00039549169 1899:0.00011073916 1900:0.00015715454 1901:0.00024115734 1902:0.00022178372 1903:0.0021360903 1904:0.00081179931 1905:0.00024019144 1906:0.00016056314 1907:0.00017887785 1908:0.00025665373 1909:0.014645983 1910:0.00012665075 1911:0.00036749916 1912:0.0001731916 1913:0.00032089092 1914:9.0649963e-05 1915:0.00050950027 1916:0.00085274433 1917:0.00065252645 1918:0.0012361608 1919:0.0020040609 1920:0.0003644453 1921:0.0020459655 1922:0.00019447097 1923:0.00023360147 1924:0.00020502509 1925:0.00034224137 1926:0.00014266247 1927:0.00015081278 1928:0.00033964962 1929:0.0016097602 1930:0.00037859668 1931:0.00079468574 1932:0.00020608622 1933:0.0035173467 1934:0.0005183894 1935:0.0005294127 1936:0.00098151725 1937:0.0013868342 1938:0.00303595 1939:0.0031311726 1940:0.00174341 1941:0.00028958928 1942:0.0001734274 1943:0.00018911516 1944:0.028305745 1945:0.00019063326 1946:0.00024518138 1947:0.0001019151 1948:0.00053841004 1949:0.00019975963 1950:0.00077015499 1951:0.0010023121 1952:0.00033951938 1953:0.0015575981 1954:0.00017361592 1955:0.00026410574 1956:0.00020253386 1957:0.0012752304 1958:0.00067494152 1959:0.00023430791 1960:0.00037308893 1961:0.0019058251 1962:0.0010773854 1963:0.00067765982 1964:0.00018901912 1965:0.0001861331 1966:0.0002229118 1967:0.00015536883 1968:3.3087716e-05 1969:0.00017687526 1970:0.00016371159 1971:8.5446401e-05 1972:0.00023237264 1973:0.00025813209 1974:0.00012151634 1975:0.00024684955 1976:0.00017960031 1977:7.6716307e-05 1978:0.0006730936 1979:0.00010617468 1980:0.00014336298 1981:0.00079936249 1982:0.0014202469 1983:0.00016370069 1984:4.3905278e-05 1985:0.00011566809 1986:0.00097131706 1987:0.00075849955 1988:0.0035487029 1989:0.00010693306 1990:0.00020420196 1991:0.00032771713 1992:0.00019328661 1993:5.5016779e-05 1994:0.0010971403 1995:0.0002029379 1996:0.0004791604 1997:0.00018731055 1998:0.00020426764 1999:0.00014602288 2000:0.0012661822 2001:0.00035113332 2002:0.00029910024 2003:0.0015188084 2004:0.0033225839 2005:0.0005625948 2006:0.0016060555 2007:5.4752451e-05 2008:0.00052253751 2009:0.00016107818 2010:0.00043832065 2011:0.00074965117 2012:0.00023387073 2013:8.4225634e-05 2014:0.0002645186 2015:0.00077928702 2016:0.0011913643 2017:0.00072212616 2018:0.0014056645 2019:0.00033388843 2020:0.0012719736 2021:0.0001913501 2022:0.003821861 2023:0.0060746698 2024:0.00032541118 2025:0.00050737272 2026:0.0016112996 2027:0.00093346182 2028:0.00020955516 2029:0.00020544826 2030:0.0012975573 2031:0.00023177471 2032:0.00018246708 2033:0.00039350212 2034:0.00012947034 2035:5.6055454e-05 2036:0.0065150023 2037:0.0001216485 2038:0.0020777793 2039:0.00153142 2040:0.0001529002 2041:9.9171986e-05 2042:0.00024126847 2043:0.039032068 2044:0.00025124053 2045:0.0023960746 2046:0.00012337411 2047:0.0029523179 2048:0.0026957996 2049:0.045610026 2050:0.00053223461 2051:0.00060305861 2052:0.0024532131 2053:0.0012429799 2054:0.0001438192 2055:0.00044945886 2056:0.008067959 2057:0.0034387379 2058:0.00020263699 2059:0.00042450603 2060:0.00040140291 2061:0.00027617224 2062:0.00015817993 2063:0.00011687244 2064:0.0002009789 2065:0.00037974661 2066:0.00049837591 2067:7.8033692e-05 2068:7.0259666e-05 2069:0.00040074403 2070:0.00032622489 2071:0.0018466982 2072:0.00022159844 2073:0.00019185296 2074:4.202102e-05 2075:0.00040899287 2076:0.00015946181 2077:0.0016246857 2078:0.00085784693 2079:0.00014563362 2080:0.00034145176 2081:0.0008245731 2082:0.00050332124 2083:0.00025683804 2084:7.2809991e-05 2085:0.00011184708 2086:-5.8221913e-06 2087:0.00021117851 2088:0.017123589 2089:0.00021304545 2090:0.00010236588 2091:0.00057224941 2092:0.0011679217 2093:0.0026942652 2094:0.0044947425 2095:0.00018701272 2096:0.0045167245 2097:0.00052399747 2098:0.00089365989 2099:0.0014016384 2100:0.0001459342 2101:0.0010593729 2102:0.0020734561 2103:0.0035385091 2104:0.0006736386 2105:0.0025043362 2106:7.9512705e-05 2107:0.00047747075 2108:0.0002217423 2109:0.0015964647 2110:0.00013687903 2111:9.4606978e-05 2112:0.0002387397 2113:0.00021733991 2114:0.0022235031 2115:0.00035980865 2116:0.000774607 2117:0.041865777 2118:0.00077967992 2119:0.0013045451 2120:0.00017898514 2121:0.00013657309 2122:0.0030508707 2123:0.00021867806 2124:0.00014591598 2125:0.00047377485 2126:0.00021485878 2127:0.00016152245 2128:0.00016821647 2129:0.0016719019 2130:0.00019900659 2131:0.0058388049 2132:0.000454872 2133:0.00017834826 2134:0.00057776039 2135:0.0005124695 2136:0.00089588918 2137:0.00021300773 2138:0.00011488189 2139:0.000547242 2140:0.0013195904 2141:0.00044432093 2142:0.0015745423 2143:0.00021198425 2144:0.00030742519 2145:0.00025140075 2146:0.00018529966 2147:0.00042381915 2148:0.00025998728 2149:0.0006652872 2150:0.00095512473 2151:0.0013341885 2152:0.0008599257 2153:0.00040086661 2154:0.0021856911 2155:0.0002069146 2156:0.0030434369 2157:0.0001383846 2158:0.0025209333 2159:0.00013214922 2160:0.00027339661 2161:0.004635233 2162:0.00046363162 2163:0.00029183459 2164:0.00020864744 2165:0.0018383893 2166:0.00098276825 2167:0.00025717483 2168:0.0019339718 2169:0.0052073821 2170:0.00018755921 2171:0.00010467749 2172:0.00014900004 2173:0.00024087493 2174:0.00084175222 2175:0.00046891844 2176:0.0009159745 2177:0.00084583764 2178:0.00038937855 2179:0.00091816019 2180:0.00038849367 2181:0.00020962428 2182:0.00017306521 2183:0.0001006559 2184:0.00017455788 2185:0.00032712077 2186:0.0012694326 2187:0.00067213818 2188:0.0017311969 2189:0.0027381785 2190:0.0028991981 2191:0.0019501727 2192:0.00048470765 2193:0.00085307873 2194:0.00020310048 2195:0.00080433319 2196:0.00011092453 2197:0.00024652653 2198:0.00015542617 2199:0.0027824768 2200:0.00014274649 2201:0.00019742105 2202:0.00017715947 2203:0.00022039746 2204:0.00054441829 2205:0.00031095781 2206:0.00060281274 2207:0.00014519706 2208:0.00020284861 2209:0.0049647936 2210:0.00016829326 2211:0.0028973683 2212:0.00090923172 2213:0.00061795855 2214:0.0004287289 2215:0.001878194 2216:0.00020622066 2217:0.00056563452 2218:0.00011951654 2219:0.00021076026 2220:0.00081844634 2221:0.0053058453 2222:0.00017736528 2223:0.00039134963 2224:0.00027539488 2225:4.2153672e-05 2226:0.0066877073 2227:0.00015650499 2228:0.00026779555 2229:0.00010195571 2230:0.013433449 2231:0.002965986 2232:0.0039245025 2233:0.0019866477 2234:0.00040207003 2235:0.0001450259 2236:0.00083206285 2237:0.0032683015 2238:0.016974565 2239:0.0017029855 2240:0.00072119309 2241:0.0017105504 2242:0.00050478178 2243:0.00028127371 2244:0.0002255224 2245:0.00052647764 2246:0.0014997462 2247:5.9779744e-05 2248:0.00013119075 2249:0.0026514172 2250:0.00061284972 2251:0.00081475952 2252:0.00042992702 2253:0.00040451298 2254:0.0003822677 2255:0.0019728539 2256:0.00036846133 2257:0.0015831973 2258:0.00011810897 2259:0.00073213899 2260:0.00018020654 2261:0.001155558 2262:0.00040231369 2263:0.00096751493 2264:0.00020044486 2265:0.0002609037 2266:0.00066930876 2267:0.0080012223 2268:0.0028488589 2269:0.00029810853 2270:0.00074549153 2271:0.00093088066 2272:0.0044222376 2273:0.00052660261 2274:0.0023320378 2275:0.0018359497 2276:0.00060714135 2277:0.00061737746 2278:0.00035525599 2279:0.00015382345 2280:0.0015184534 2281:0.00029542137 2282:0.0004430839 2283:0.0010810017 2284:0.00052689592 2285:0.00040431033 2286:0.00032288372 2287:0.00025285754 2288:0.00011004364 2289:0.0003389582 2290:0.00013899432 2291:6.7530003e-05 2292:0.00067917339 2293:0.00016657758 2294:0.0078697521 2295:0.0034382294 2296:0.00015228281 2297:0.0049412493 2298:0.0020616415 2299:0.0045820274 2300:0.0025923422 2301:0.00018402585 2302:0.00062270061 2303:0.00017839622 2304:0.00042462657 2305:0.0012266225 2306:0.00017045323 2307:0.0007957741 2308:0.00034640773 2309:0.001491896 2310:0.007233236 2311:0.0026567953 2312:0.0002145238 2313:0.028969631 2314:0.0035167853 2315:0.00049879472 2316:0.00088445784 2317:0.00035740761 2318:0.0049603041 2319:0.00046751241 2320:0.0020242156 2321:0.002505658 2322:0.0015089646 2323:9.7798722e-05 2324:0.00013750989 2325:0.00058974989 2326:0.00034535199 2327:0.00042862215 2328:0.00038998734 2329:0.00088363484 2330:0.00046641624 2331:0.0005275117 2332:0.00052538636 2333:0.00041878765 2334:0.00011465834 2335:0.00058933999 2336:0.00068733399 2337:0.0001785903 2338:0.00099118962 2339:0.00016363407 2340:0.0059358831 2341:0.0010420793 2342:0.0021873396 2343:0.00058819161 2344:0.00026352418 2345:9.3078415e-05 2346:0.00015929925 2347:0.00025447749 2348:0.0017552131 2349:0.000209727 2350:0.00011883151 2351:0.0013993157 2352:0.0006214907 2353:0.0016247558 2354:6.5509113e-05 2355:0.0062459758 2356:0.0064720963 2357:0.0025895138 2358:0.00036557156 2359:0.00081020966 2360:0.00088946614 2361:0.00033091719 2362:0.00036117708 2363:0.00013781591 2364:0.00014227962 2365:0.00029205644 2366:6.5376742e-05 2367:0.00030018331 2368:0.0012367251 2369:0.00050444651 2370:0.00047940022 2371:0.00011795697 2372:0.0084023066 2373:0.00021013877 2374:0.00042227816 2375:6.1813022e-05 2376:0.00022615322 2377:0.0004728747 2378:0.0002228675 2379:0.0027086842 2380:4.4098473e-05 2381:0.00024808999 2382:0.00030852531 2383:0.00031211204 2384:0.00020194062 2385:0.00034006106 2386:0.00017783929 2387:0.00025661051 2388:0.00022731059 2389:0.0021324479 2390:0.00098593091 2391:0.00017912807 2392:0.0016453679 2393:5.8306712e-05 2394:0.00014790501 2395:9.6794516e-05 2396:0.0031773483 2397:0.0022921008 2398:0.00015681873 2399:0.00022435431 2400:0.017485071 2401:0.0011030009 2402:0.00080055767 2403:0.0016411375 2404:0.00096852134 2405:0.00012333428 2406:0.00018971023 2407:0.00044665489 2408:0.00038514394 2409:0.00047574658 2410:0.00012408895 2411:0.00028496952 2412:0.00023474255 2413:0.00015770245 2414:0.00020406186 2415:0.00030102531 2416:0.0011464028 2417:0.0001544582 2418:0.0012251381 2419:0.00059475866 2420:0.00015278618 2421:0.0020247239 2422:0.00071960088 2423:0.00010995108 2424:0.00016615124 2425:0.00024936479 2426:0.00012771624 2427:0.00041319741 2428:0.00017464622 2429:0.00032140841 2430:0.0003939516 2431:0.00036387509 2432:0.00018917241 2433:0.00024119906 2434:0.00014832446 2435:0.000952375 2436:0.0028410405 2437:0.00020441695 2438:0.0001811657 2439:0.00025027138 2440:0.00023648429 2441:0.00038020397 2442:0.00012701542 2443:9.6967327e-05 2444:0.0016556893 2445:0.0033570204 2446:0.00035978368 2447:0.00024414749 2448:0.00023342296 2449:0.0016344809 2450:0.00024449153 2451:0.00022260367 2452:0.0016418969 2453:0.0036327599 2454:3.1903361e-05 2455:4.2888321e-05 2456:0.0024600767 2457:0.00065529288 2458:0.0010350475 2459:0.00071952806 2460:0.00017465089 2461:0.00020999146 2462:0.00010035036 2463:0.0010376732 2464:0.0010245146 2465:0.00025252227 2466:0.00026995927 2467:0.001635651 2468:0.0035216489 2469:0.00081415958 2470:0.00016308452 2471:0.00033801902 2472:0.00011755159 2473:0.001436756 2474:0.0011608708 2475:0.00032099057 2476:0.0001364262 2477:0.000466016 2478:0.0041804542 2479:0.00035677102 2480:0.00015331768 2481:0.0050868569 2482:0.00046196239 2483:0.0024842429 2484:0.00039346277 2485:0.015309888 2486:0.00026883761 2487:0.0013256815 2488:0.0056978837 2489:0.0012166217 2490:0.0012863786 2491:0.00048871333 2492:0.0019976099 2493:0.00063541339 2494:0.00030051018 2495:0.00020440374 2496:0.00024426318 2497:0.0011160669 2498:0.0017168263 2499:0.00026229609 2500:0.00021941964 2501:0.00018955983 2502:0.013658811 2503:0.00018475571 2504:0.00044539574 2505:0.0001955546 2506:0.0013872635 2507:0.0022346571 2508:0.0034865872 2509:0.00072893139 2510:0.036867414 2511:0.0046241041 2512:0.00012966785 2513:0.00013473572 2514:0.00015800558 2515:0.00099854032 2516:0.00012080015 2517:0.00031848013 2518:0.00028720437 2519:0.0001804099 2520:0.00052395696 2521:0.00067281071 2522:0.00025063046 2523:0.000306748 2524:0.0025357348 2525:0.00088794623 2526:0.002182286 2527:0.00014572284 2528:0.00014396002 2529:0.0015915192 2530:0.00011697337 2531:0.00020637686 2532:0.0011612492 2533:0.00061164051 2534:0.00021109408 2535:0.00096089888 2536:0.00013550636 2537:0.00020097947 2538:0.0077374182 2539:0.0026319947 2540:0.00040400994 2541:0.00027906842 2542:0.0031148486 2543:0.0018341959 2544:0.0005414809 2545:0.00043149915 2546:0.00040798404 2547:0.00083749054 2548:0.00056841923 2549:0.0024043689 2550:0.00017575508 2551:0.00036993736 2552:0.0062677437 2553:0.00019611919 2554:0.016938007 2555:0.00078338943 2556:0.0014221617 2557:0.00015670364 2558:0.0010842921 2559:0.0016874889 2560:0.0018416768 2561:0.0042392504 2562:0.0070883473 2563:0.00072307186 2564:0.00054778956 2565:0.00019458625 2566:0.0036872174 2567:9.042662e-05 2568:0.00019187217 2569:0.013806177 2570:0.00091799372 2571:0.00020192143 2572:0.00010696771 2573:0.00046258839 2574:0.00016795847 2575:0.0019022467 2576:0.00053124211 2577:0.0001912806 2578:0.0002196867 2579:0.0048804968 2580:0.00011212614 2581:0.0005344883 2582:0.0011152518 2583:0.00077852688 2584:4.7933681e-05 2585:0.00018654126 2586:0.019346364 2587:0.00010538952 2588:0.0001865276 2589:0.0012738245 2590:0.00045782313 2591:0.00015921524 2592:0.00040225202 2593:0.0020393154 2594:0.002656898 2595:0.00099423632 2596:0.00061025133 2597:0.00072399178 2598:0.001320607 2599:0.000294433 2600:9.657086e-05 2601:0.00095336995 2602:0.0017062735 2603:6.5629101e-05 2604:0.00026897786 2605:0.013546686 2606:0.00021348619 2607:0.00022506935 2608:0.00049546733 2609:0.00018569865 2610:0.0028050134 2611:0.00019319315 2612:0.0021690484 2613:0.00019643501 2614:0.00037132943 2615:0.00011783955 2616:0.00018252991 2617:0.00011507733 2618:0.00012237908 2619:0.00018055397 2620:0.00072452851 2621:0.00024942859 2622:0.00035510867 2623:7.6801902e-05 2624:0.0001995721 2625:0.0001555506 2626:0.00013308409 2627:0.00059399928 2628:0.0007244299 2629:0.00031995794 2630:0.00035461495 2631:0.00090268371 2632:0.00019810855 2633:0.00013694871 2634:0.0002766737 2635:0.00021550908 2636:0.00037639754 2637:0.00019138464 2638:0.030423375 2639:0.0067586685 2640:0.0010706421 2641:0.00085203501 2642:0.00028318143 2643:0.00017266472 2644:0.00088093465 2645:0.0013229183 2646:0.00014156546 2647:0.00014879864 2648:0.0027151066 2649:0.0012536282 2650:0.0016366318 2651:0.0007507595 2652:0.00010741575 2653:0.0044873641 2654:0.0022586815 2655:0.0003292585 2656:0.025451288 2657:0.004121399 2658:0.018779734 2659:0.0018920562 2660:0.0024711441 2661:0.013561999 2662:0.0013987781 2663:0.0017989869 2664:0.0011915667 2665:0.00052175781 2666:0.00041334418 2667:0.0013336929 2668:0.00017414863 2669:0.00020487975 2670:0.00031337308 2671:0.00060332683 2672:0.0016331838 2673:0.00014379858 2674:0.00056417286 2675:0.00049853913 2676:0.00023307848 2677:0.00049525721 2678:0.00020713873 2679:0.0029457777 2680:0.0004342504 2681:0.0020369694 2682:0.014805705 2683:0.00018773113 2684:0.0041214139 2685:0.0043374035 2686:0.0019709915 2687:0.00012830895 2688:0.0003060918 2689:0.00075450673 2690:0.00048031719 2691:0.00012905632 2692:0.00033025464 2693:0.0005776668 2694:0.0021815405 2695:0.00078194303 2696:0.00031595744 2697:0.0093704434 2698:0.0028226508 2699:0.0018981702 2700:0.0002489264 2701:0.0044173263 2702:0.012052857 2703:0.00013602155 2704:0.00074055849 2705:0.00034285034 2706:0.0019102354 2707:0.0016908664 2708:0.00019128152 2709:0.0073164073 2710:0.0040167538 2711:0.00013706952 2712:0.00014183264 2713:0.00014647286 2714:0.00041440688 2715:-1.2870608e-05 2716:0.00086541317 2717:0.0043227067 2718:0.0027314015 2719:0.0013628583 2720:0.00043245958 2721:0.00017164586 2722:0.00073860481 2723:8.8313878e-05 2724:0.00034593578 2725:0.00020729878 2726:0.00022155888 2727:0.0011121767 2728:0.0012254057 2729:0.00015670844 2730:0.00069398608 2731:0.00031166684 2732:0.00033733583 2733:0.0001917004 2734:0.0016269907 2735:0.011097478 2736:0.006509488 2737:0.00021597539 2738:0.0015439625 2739:0.0010362635 2740:0.00031434474 2741:7.0047186e-05 2742:0.00027779941 2743:0.00017794267 2744:0.00013206249 2745:0.00054489059 2746:0.00018360313 2747:0.00033175875 2748:7.9780839e-05 2749:0.00028238006 2750:0.00029281844 2751:0.0062499302 2752:0.0033166837 2753:0.0013741775 2754:0.00067623419 2755:0.0001655168 2756:0.00056131993 2757:0.00018411891 2758:0.0001059482 2759:0.00031647232 2760:0.0004005763 2761:0.0022696131 2762:0.00066674774 2763:0.00078590796 2764:0.00027166455 2765:0.00043266421 2766:0.00025240428 2767:0.00075674418 2768:0.00029609597 2769:0.00064475596 2770:0.00023735852 2771:0.00018567035 2772:0.00019915047 2773:0.00052919536 2774:0.0012777688 2775:9.2783266e-05 2776:0.0015905499 2777:0.00021924706 2778:0.00020424253 2779:0.00038507581 2780:0.00024070378 2781:0.00010662257 2782:0.00034915571 2783:0.0015561137 2784:0.0005086693 2785:0.0002078215 2786:0.0021992333 2787:0.00010696663 2788:0.0001745708 2789:0.0057709021 2790:0.0021853442 2791:0.00020680933 2792:0.00020187952 2793:0.00030123175 2794:0.00021756995 2795:0.00093245861 2796:0.0044858283 2797:0.001236451 2798:9.7143289e-05 2799:0.00032350456 2800:0.0080355443 2801:0.00030278391 2802:0.0020074425 2803:0.00014857097 2804:0.00079548539 2805:0.00031538738 2806:0.00018204584 2807:0.001068668 2808:0.0011780023 2809:0.00053840206 2810:0.0013242762 2811:0.00019993796 2812:0.00028868191 2813:0.0019806442 2814:0.0014469005 2815:0.00012628964 2816:0.00025874047 2817:0.00070274499 2818:0.00013315155 2819:0.00011784975 2820:0.00035200251 2821:9.1942849e-05 2822:0.0024951869 2823:0.00069252955 2824:0.00011536363 2825:0.00080564874 2826:0.00012368221 2827:0.0014863989 2828:0.00050196942 2829:0.0017864867 2830:0.00072849606 2831:0.00057743664 2832:0.00023194899 2833:0.0007616058 2834:0.0015945164 2835:0.00019404088 2836:0.00021373267 2837:0.0015239669 2838:0.00030197317 2839:0.00032846673 2840:0.00025850846 2841:0.00034391819 2842:0.00022590336 2843:0.00055356353 2844:0.00030704043 2845:0.00014918919 2846:0.0032379236 2847:0.00089053035 2848:0.00069269893 2849:0.0012846257 2850:0.00021813478 2851:0.00046680376 2852:0.0012722334 2853:0.00086907437 2854:0.00054686429 2855:0.00035309821 2856:0.00034457567 2857:0.00054523803 2858:0.00083947048 2859:0.00038385502 2860:0.00201241 2861:0.000136998 2862:0.00073553389 2863:0.001145847 2864:9.7762073e-05 2865:0.001265523 2866:0.00019774429 2867:0.00018430577 2868:0.00031804957 2869:0.00087533344 2870:0.00063006871 2871:0.0014813315 2872:0.004828312 2873:0.00022596947 2874:0.00043914741 2875:0.0022362755 2876:0.00096515648 2877:0.00089758984 2878:0.00074137718 2879:0.00014588586 2880:0.00079304242 2881:0.0030392834 2882:8.2547755e-05 2883:0.0015128707 2884:0.00047442724 2885:0.00015240941 2886:0.0025132068 2887:0.00020900961 2888:0.00011929198 2889:0.00011659777 2890:0.00080147356 2891:0.00027064321 2892:0.00053702039 2893:0.0011795192 2894:0.0001741171 2895:0.00058159244 2896:0.00021174124 2897:0.00044674863 2898:0.00043644896 2899:0.0004174303 2900:0.00098110409 2901:0.001929567 2902:0.0002314272 2903:0.0004011261 2904:0.00010993492 2905:0.0011581517 2906:0.00016517032 2907:0.00024945481 2908:0.00093226967 2909:0.0002171551 2910:0.00024785448 2911:0.00047331562 2912:0.0016432458 2913:0.00050644693 2914:0.00092364539 2915:0.00017397641 2916:9.1011258e-05 2917:0.00049827812 2918:0.00021532326 2919:0.0020456088 2920:0.00043525873 2921:0.00034002101 2922:0.00099763577 2923:0.0007689115 2924:0.00024629114 2925:0.00030884333 2926:0.00035100032 2927:0.0014513939 2928:0.00027694236 2929:0.00024639862 2930:8.8666595e-05 2931:0.00013789842 2932:0.00013725208 2933:0.00012521897 2934:0.0021495551 2935:0.00037613339 2936:0.00015111059 2937:0.00042752633 2938:0.00013101216 2939:0.00025707777 2940:0.00026913261 2941:0.00016916374 2942:0.00017376442 2943:0.00012281247 2944:0.00027545798 2945:0.0020811677 2946:0.00019164711 2947:0.00016806698 2948:0.00034187135 2949:0.0013421602 2950:0.00031090435 2951:0.00012701678 2952:0.00059913401 2953:0.00037097061 2954:0.0033600715 2955:0.00021417567 2956:0.00038711025 2957:0.0036568351 2958:0.00095741847 2959:0.0083832052 2960:0.0013684341 2961:0.0019329399 2962:0.00065876765 2963:0.00082616985 2964:0.00024086966 2965:0.00046345525 2966:0.00051966548 2967:0.00011400222 2968:5.3208933e-05 2969:0.0047821929 2970:0.0019741461 2971:3.0786097e-05 2972:0.000826962 2973:0.00077979296 2974:0.00012186773 2975:0.00018730693 2976:0.00032669154 2977:0.0028938788 2978:0.0068843779 2979:0.00018462366 2980:0.0048929099 2981:8.6861328e-05 2982:0.0012095458 2983:0.00013710554 2984:0.00011135614 2985:0.012809915 2986:0.00014578192 2987:0.00014721495 2988:0.00022638658 2989:0.0011804103 2990:0.0003132032 2991:0.00022340362 2992:0.00064313522 2993:0.00018118664 2994:0.00044898764 2995:0.00051056943 2996:0.00052250153 2997:0.00096321368 2998:0.00035274652 2999:0.00013938032 3000:0.00024296794 3001:0.00012116943 3002:0.00012719577 3003:0.00026929544 3004:0.00024171903 3005:0.0002779639 3006:0.00037835454 3007:0.00028064044 3008:0.0015198505 3009:0.00097310578 3010:0.00028519821 3011:0.0002377148 3012:0.0006901091 3013:0.00044899285 3014:0.00032960839 3015:0.00035872537 3016:0.0003199738 3017:0.00024622754 3018:0.00019226785 3019:0.0001392651 3020:0.00083050912 3021:0.00077616307 3022:0.00015255237 3023:0.00083181896 3024:0.00032876077 3025:0.00070376851 3026:0.0003109455 3027:0.0002348429 3028:0.0012401593 3029:0.0002288978 3030:0.00018688399 3031:0.00046532933 3032:0.0005405281 3033:0.00079009763 3034:0.00034458085 3035:0.0010856512 3036:0.00030163216 3037:0.00017270277 3038:0.0087583326 3039:0.0078558559 3040:0.0015898625 3041:0.0031297067 3042:0.00043021404 3043:0.00020748703 3044:0.0014679774 3045:0.00067989243 3046:0.0042256857 3047:0.00065973907 3048:0.00025949348 3049:0.00037306643 3050:0.0050970758 3051:0.00035863285 3052:0.0012811994 3053:0.0033627783 3054:0.00015379656 3055:0.0010955429 3056:0.0007565358 3057:0.00071482005 3058:0.00023091999 3059:0.0034795986 3060:0.00098009279 3061:0.0034771804 3062:0.00015524117 3063:0.00055671309 3064:0.00053071382 3065:0.00012880666 3066:0.00032807956 3067:0.0045563909 3068:7.1434639e-05 3069:0.00030269456 3070:0.00033998562 3071:0.00027833186 3072:0.00012329889 3073:0.00024430046 3074:0.00039321513 3075:0.0004830065 3076:0.00021214421 3077:0.00069876097 3078:0.0001056514 3079:0.00010528389 3080:0.00011882688 3081:0.00085706031 3082:0.0011114907 3083:0.00022963074 3084:0.00026435443 3085:0.0022570307 3086:0.00094647071 3087:0.00024961049 3088:9.1514208e-05 3089:3.4635952e-05 3090:0.0038936792 3091:0.00070263032 3092:0.0001603781 3093:0.00023111521 3094:0.024618106 3095:0.0012775125 3096:0.0014198687 3097:0.01499855 3098:0.0047585014 3099:0.00047506698 3100:0.022935444 3101:0.00043755659 3102:0.0025796944 3103:0.0018244463 3104:0.0045527574 3105:0.00014403839 3106:6.2475294e-05 3107:0.00096006651 3108:0.0013751283 3109:0.00016338548 3110:0.013150475 3111:0.0024734463 3112:0.0013085256 3113:0.00061753084 3114:0.0011684744 3115:0.00049777573 3116:0.00046458346 3117:0.00051708351 3118:0.00047102326 3119:0.00053117075 3120:0.00045657178 3121:0.001304612 3122:0.0057280459 3123:0.0010477008 3124:0.00092810235 3125:0.0022065556 3126:0.00036356656 3127:0.00076434732 3128:0.00010160721 3129:0.00036421497 3130:0.00056989805 3131:0.00022253992 3132:0.00029471205 3133:0.0004944228 3134:0.0087325433 3135:0.00022513006 3136:0.00025662826 3137:0.002454398 3138:0.00035942122 3139:0.00013282089 3140:0.00013247944 3141:0.00058598106 3142:0.00010148749 3143:0.00029696213 3144:0.00085560413 3145:0.00021407353 3146:0.00014425481 3147:0.00018120889 3148:0.0010479047 3149:0.00015962755 3150:0.00030781658 3151:0.00012880788 3152:0.00018559818 3153:0.00046008133 3154:0.0010880672 3155:0.00038057429 3156:0.00020820767 3157:0.00024176264 3158:8.9332498e-05 3159:4.4057197e-05 3160:0.00014337873 3161:0.00021692086 3162:0.00040322961 3163:0.00028902141 3164:0.00045260851 3165:0.00010718266 3166:0.00035334381 3167:0.00065083121 3168:0.00017701778 3169:0.00023592658 3170:0.0013569267 3171:0.00057079946 3172:0.0002370646 3173:0.0020808403 3174:0.00039854913 3175:0.00035914464 3176:0.00013100618 3177:0.00040299332 3178:0.00054441241 3179:0.00018557782 3180:0.00028078206 3181:0.00023458025 3182:0.0010234528 3183:0.0010133928 3184:0.0005980581 3185:0.00015123544 3186:0.00015028472 3187:0.00018397247 3188:0.00044889667 3189:0.00032066996 3190:0.00056895521 3191:0.00017431077 3192:0.00031181978 3193:0.00013835309 3194:0.00028631379 3195:0.00046201536 3196:0.00099717255 3197:0.00017849338 3198:0.00023999067 3199:0.00032458387 3200:0.00019342406 3201:0.00027090451 3202:0.00023959433 3203:0.0002657148 3204:0.00020334261 3205:0.00047427029 3206:0.00040146487 3207:0.00018461613 3208:0.0001396334 3209:0.0001407357 3210:0.00018740511 3211:0.00013607187 3212:0.00020787367 3213:0.00011405898 3214:0.00022189214 3215:7.9218349e-05 3216:0.00013003113 3217:0.0011998016 3218:0.00026154896 3219:0.00082870125 3220:0.0013796733 3221:0.00010943064 3222:0.0004787306 3223:0.0002873466 3224:0.00027999503 3225:0.00023046863 3226:0.00019740449 3227:0.00042394301 3228:0.00022739507 3229:0.00035484778 3230:0.0009120538 3231:0.00015330609 3232:0.00048813553 3233:0.00022304556 3234:0.00048368034 3235:0.0018113592 3236:0.00065995957 3237:0.00045459939 3238:5.0003106e-05 3239:0.00025550972 3240:0.00028089405 3241:0.00059929956 3242:0.00010344698 3243:0.00010633928 3244:0.00051707454 3245:0.00011294844 3246:0.00059912878 3247:0.0012195549 3248:7.4074742e-05 3249:0.00058975728 3250:0.00016261965 3251:0.00042123382 3252:0.00011339501 3253:0.00034708277 3254:0.0001136049 3255:0.00011980761 3256:0.00061025698 3257:0.00018502041 3258:0.00093839096 3259:0.00019608004 3260:0.00013886753 3261:0.00019100202 3262:0.00013719969 3263:0.00028010545 3264:0.00013534912 3265:0.00029678756 3266:0.00035260129 3267:0.00037961156 3268:0.00010451362 3269:0.00045678648 3270:0.00142204 3271:0.0010039255 3272:0.0002572191 3273:0.00011929144 3274:0.00013893559 3275:0.005064657 3276:0.00031333804 3277:0.00017514185 3278:0.00048912497 3279:0.00031207761 3280:0.0037547818 3281:0.00016880296 3282:0.00030539083 3283:0.00021875775 3284:0.00019439989 3285:0.00017438897 3286:0.00079326535 3287:0.00043557445 3288:0.00013137412 3289:0.00019783278 3290:0.00019260899 3291:0.0064125657 3292:0.00030035374 3293:5.2130767e-05 3294:0.00020799512 3295:0.00066248747 3296:0.00011806806 3297:0.00040280833 3298:0.00020184607 3299:0.00019016826 3300:0.0011123148 3301:0.00019107504 3302:0.00016816566 3303:0.0026100187 3304:0.00055094738 3305:0.00033535023 3306:0.00018572911 3307:0.00024646168 3308:0.00015146111 3309:0.00023310342 3310:0.00012648136 3311:0.00018332456 3312:0.0011865661 3313:0.00016455661 3314:0.00088956731 3315:0.00011911926 3316:0.00021388118 3317:0.00021225946 3318:0.00020961044 3319:0.00023048031 3320:0.00013613653 3321:9.8647404e-05 3322:9.1699512e-05 3323:0.00014777093 3324:0.0014322177 3325:0.0015945138 3326:0.00051967468 3327:0.00034977854 3328:0.00011686282 3329:0.00013870643 3330:0.0001173127 3331:0.0001636426 3332:0.00012478509 3333:0.0003853284 3334:0.00028348714 3335:0.0035815553 3336:0.00043681826 3337:0.00036373961 3338:0.00011463826 3339:0.0047968784 3340:0.0011075845 3341:0.00073076721 3342:0.0001632162 3343:0.000135205 3344:0.00021572069 3345:0.00043261232 3346:0.00046304823 3347:0.00023673088 3348:0.0022696643 3349:0.00018382508 3350:0.00035936592 3351:0.00032815247 3352:0.0015797189 3353:0.0010047755 3354:0.00078470574 3355:0.00051073398 3356:0.00091894984 3357:0.0011414958 3358:0.00058797572 3359:0.00040435352 3360:0.00017711967 3361:0.001902994 3362:0.0072458065 3363:0.0009707422 3364:0.0014739413 3365:0.00025984732 3366:0.00028687599 3367:7.6334225e-05 3368:0.00020259083 3369:0.00036129143 3370:0.0016557724 3371:0.00029315447 3372:0.00018484305 3373:0.00012719822 3374:0.00019038237 3375:0.00030356011 3376:0.00017477301 3377:0.0138416 3378:0.0010660596 3379:0.00039441086 3380:0.00035749649 3381:4.2708631e-05 3382:0.00084757502 3383:0.00055293244 3384:0.00042004543 3385:0.00049622596 3386:0.00017015962 3387:0.00050596654 3388:0.00028097228 3389:0.0020726928 3390:0.00021254615 3391:0.00039209795 3392:0.0011088707 3393:0.00020720217 3394:0.0038491699 3395:0.00012006498 3396:0.00035753459 3397:0.0040505016 3398:0.00065625313 3399:0.00025217587 3400:0.00043809495 3401:0.00011957227 3402:0.00019220784 3403:0.00035952448 3404:0.0062097576 3405:0.0010205624 3406:0.0018482116 3407:0.0011062509 3408:0.0033380068 3409:0.0017008687 3410:0.00016862637 3411:0.00016651762 3412:0.0009944546 3413:0.00048246823 3414:0.00031020393 3415:0.0028583233 3416:0.00059544633 3417:0.00073682523 3418:0.00080628076 3419:0.00033615189 3420:0.00032192151 3421:0.00065576652 3422:0.00022588173 3423:0.00021686809 3424:0.0016444988 3425:0.00052517629 3426:0.00032167824 3427:0.00085372786 3428:0.0004014725 3429:0.0012667704 3430:0.00024895012 3431:0.00035818253 3432:0.00020442925 3433:0.00016474063 3434:0.00078042917 3435:0.0011119508 3436:0.00014749746 3437:0.00014648169 3438:0.0010508668 3439:0.00017087678 3440:0.0011060173 3441:0.00080135046 3442:0.00022785598 3443:0.000203017 3444:0.0002109456 3445:0.0036948174 3446:0.00027406219 3447:0.00021088644 3448:0.00027839871 3449:0.0033638719 3450:0.00022867885 3451:0.00078118348 3452:0.00083432655 3453:0.00023019972 3454:0.0011464275 3455:0.0042692642 3456:0.00010148533 3457:0.00017436361 3458:0.00010764921 3459:0.00012274443 3460:0.0002721588 3461:0.00045326041 3462:0.0024967205 3463:0.00032772048 3464:0.00061933295 3465:0.00099775568 3466:0.00080529333 3467:0.00024354657 3468:0.0067840009 3469:0.00027517564 3470:0.00024183521 3471:0.0011006653 3472:0.00047740707 3473:0.00021033335 3474:0.00038103457 3475:0.00013945055 3476:7.7443081e-05 3477:0.0008358325 3478:0.00068923115 3479:0.00086335139 3480:0.0022488704 3481:8.9750254e-05 3482:0.00036067743 3483:0.0014205643 3484:0.00021345798 3485:0.0012119615 3486:0.00029787689 3487:0.002571739 3488:0.00023394497 3489:0.00011063665 3490:9.3246796e-05 3491:0.00030902325 3492:0.00018414004 3493:0.004581552 3494:0.00011512978 3495:0.00025065121 3496:0.00045954247 3497:0.0018085635 3498:0.00061086344 3499:0.00053489849 3500:0.00053410459 3501:0.00076182274 3502:0.00014447951 3503:0.00012017944 3504:0.00059604587 3505:9.4044917e-05 3506:0.00044249478 3507:0.00026485807 3508:0.0027539353 3509:0.0014517973 3510:0.00014778248 3511:0.00067485688 3512:0.00016875716 3513:0.00094049925 3514:0.00010548926 3515:0.00059424964 3516:0.00058789062 3517:0.00036231501 3518:0.00031474433 3519:0.00010170382 3520:0.0010296655 3521:0.0045852605 3522:0.00021107674 3523:0.00071623083 3524:0.00022863694 3525:0.003076534 3526:0.0001951728 3527:0.00022892412 3528:0.0083063981 3529:0.0014181957 3530:0.00014861398 3531:0.00065825874 3532:0.0010159387 3533:0.0013584684 3534:0.0011058813 3535:0.00015937113 3536:0.0012919465 3537:0.00038701104 3538:0.00059937203 3539:0.00067658455 3540:0.01064166 3541:0.00044299284 3542:0.00077671587 3543:0.0003035641 3544:0.00014397086 3545:0.00090237265 3546:6.4964734e-05 3547:0.00071017066 3548:0.00022397329 3549:0.00043740906 3550:0.00017654926 3551:0.00020434202 3552:0.00011888404 3553:0.0001212008 3554:0.001203576 3555:0.00033387338 3556:0.0016201296 3557:0.00032562111 3558:0.00050070352 3559:0.00058059435 3560:0.00023267543 3561:0.00062619842 3562:0.00013279889 3563:6.5884255e-05 3564:0.00056604407 3565:0.0011945205 3566:0.0011398855 3567:0.00020103443 3568:0.00076501031 3569:0.00015686369 3570:0.00018821025 3571:0.00042154302 3572:0.0022200122 3573:0.00010892707 3574:0.00031594661 3575:0.00021228737 3576:0.00010430036 3577:0.00019561427 3578:0.00019414531 3579:0.0067457915 3580:0.004409716 3581:0.00032538091 3582:0.00057523948 3583:0.00041867801 3584:0.0001203682 3585:0.0010263979 3586:0.00059106259 3587:0.00022613427 3588:0.00032897573 3589:0.00077075569 3590:0.00012351183 3591:0.023372557 3592:0.00039672278 3593:0.00045964943 3594:0.0027672218 3595:0.0017005545 3596:0.00014360498 3597:0.00099833624 3598:0.00019998082 3599:0.00094505207 3600:9.3164177e-05 3601:0.00033209744 3602:0.00099406508 3603:0.00025132866 3604:0.009923582 3605:0.00024730075 3606:0.00029852503 3607:0.00054086448 3608:0.0022848446 3609:0.0051280106 3610:0.00015374833 3611:0.0027140882 3612:0.0012413475 3613:0.00058291282 3614:0.0018073727 3615:0.00051109213 3616:0.00025704215 3617:0.0029723912 3618:0.0024506501 3619:0.00095091679 3620:0.00033123468 3621:0.00019409947 3622:0.00037810041 3623:0.00033491373 3624:0.00087738328 3625:0.0013101372 3626:0.00014546013 3627:0.00013657534 3628:0.00014692664 3629:0.00098621123 3630:0.00024024362 3631:0.00072868646 3632:0.00064987567 3633:0.00025988556 3634:0.00039769334 3635:0.0036653311 3636:9.1535083e-05 3637:0.00011112717 3638:0.00082627992 3639:0.00029897274 3640:0.00060037867 3641:0.00070429314 3642:0.00025894507 3643:0.00010085783 3644:0.00062174589 3645:0.00050487131 3646:0.00066991587 3647:0.00016934412 3648:0.00036083616 3649:0.00070145918 3650:0.00033239744 3651:0.00014656842 3652:0.00015501041 3653:0.00031967409 3654:0.0025173477 3655:0.0024499991 3656:0.00021850872 3657:0.00028038787 3658:8.3231163e-05 3659:0.0018963187 3660:0.0010678004 3661:0.0016181743 3662:0.00020460643 3663:0.0001463151 3664:0.00012470745 3665:8.342728e-05 3666:0.0010654639 3667:0.00037718265 3668:0.00021121316 3669:0.00022955982 3670:0.00010198313 3671:0.00052704464 3672:0.00034508115 3673:0.00031928759 3674:0.00023428735 3675:0.00024566348 3676:0.0002348476 3677:0.00014128505 3678:0.00038693656 3679:0.00020137783 3680:0.00019597379 3681:0.00093346252 3682:0.0009525161 3683:0.00013313704 3684:0.00017796777 3685:0.00028366971 3686:0.0002787362 3687:0.0018854641 3688:0.00021200239 3689:0.00014949086 3690:0.00034464928 3691:0.0028372544 3692:0.0035494796 3693:0.0031491858 3694:0.00064618594 3695:0.00027620059 3696:7.5859527e-05 3697:0.00031015067 3698:0.000374995 3699:0.00023093545 3700:4.724208e-05 3701:0.00036747445 3702:0.00078158092 3703:0.00027897229 3704:0.00020638827 3705:0.00033800345 3706:0.000163819 3707:0.00066479639 3708:0.00017028076 3709:0.00028702465 3710:0.00016300712 3711:0.00074779015 3712:0.00026061878 3713:0.00021740739 3714:0.00010823931 3715:0.00022297757 3716:0.0077467412 3717:0.00071094238 3718:0.00025461556 3719:0.0013734527 3720:0.00094891823 3721:0.00023744565 3722:0.0014752799 3723:0.0054337517 3724:0.00046401386 3725:0.0011111235 3726:0.00067207322 3727:0.000373902 3728:0.00097309763 3729:0.00059789926 3730:7.1180511e-05 3731:0.0019885392 3732:0.00025503954 3733:0.00018619391 3734:0.00039825321 3735:0.00012889078 3736:0.00034233334 3737:0.00023753247 3738:0.00024429444 3739:0.0001652029 3740:0.00034968412 3741:0.00019344676 3742:0.00012894998 3743:0.00010160357 3744:0.0001850344 3745:0.00010312669 3746:0.0005211294 3747:0.0004859035 3748:0.00023030602 3749:0.00023508008 3750:0.00074034429 3751:0.00085292413 3752:0.00049339188 3753:0.00019883456 3754:0.00037849721 3755:0.00012871077 3756:0.0015907023 3757:0.00037499919 3758:0.00025570279 3759:0.00052517111 3760:0.00077926734 3761:0.00020700014 3762:0.00024106118 3763:0.00021079979 3764:0.00039380888 3765:0.00013058927 3766:0.00044295899 3767:0.00023170191 3768:0.00015675207 3769:0.00025865424 3770:0.00041558541 3771:0.00019765862 3772:9.2398819e-05 3773:0.00019553234 3774:0.00011122094 3775:0.00027117282 3776:0.00030540052 3777:0.00013016265 3778:0.00021691642 3779:0.0038593851 3780:0.00011228678 3781:0.00015638462 3782:0.00029328431 3783:0.00024197013 3784:0.00018605703 3785:0.000209351 3786:0.0013675259 3787:0.00028011069 3788:0.00084680266 3789:0.0003838494 3790:0.00046042094 3791:0.00028617901 3792:0.00066810509 3793:0.00032243857 3794:0.0003550126 3795:0.00016640734 3796:0.0003603549 3797:0.0004331168 3798:0.0016505434 3799:0.00047146177 3800:0.0025025243 3801:0.0003539178 3802:0.0029534344 3803:0.00092042203 3804:0.0010559035 3805:0.00013446668 3806:0.00017060759 3807:0.0028541125 3808:0.00047669254 3809:0.00029021298 3810:0.0004249278 3811:0.0010107256 3812:0.0049060206 3813:0.00024362201 3814:0.00067499501 3815:0.00036569283 3816:0.0008415599 3817:0.00029120949 3818:0.0015707947 3819:0.0019654736 3820:0.00024822864 3821:0.00042328745 3822:0.00016527569 3823:0.00010923854 3824:0.0001403129 3825:0.0002657361 3826:0.0002296434 3827:0.00086435006 3828:0.00017380319 3829:0.0024060237 3830:0.00020287152 3831:0.00025770991 3832:0.00038539997 3833:0.00019310348 3834:0.00062763976 3835:0.00050030282 3836:0.00049345696 3837:0.00096686586 3838:0.00019572706 3839:0.00016053414 3840:0.00016136721 3841:0.00034046418 3842:0.00048713197 3843:0.0014136955 3844:0.00020630477 3845:0.00071197469 3846:0.00022777796 3847:0.00096782955 3848:0.00018498895 3849:0.00033666391 3850:0.00022229356 3851:0.00014284861 3852:0.0003928128 3853:0.0076271659 3854:0.0012358798 3855:0.0029008794 3856:0.0022678843 3857:0.00079586863 3858:0.00060082373 3859:0.00061730429 3860:0.00015220226 3861:0.00021948709 3862:0.00022765915 3863:0.00070043461 3864:0.00030504761 3865:0.00027533885 3866:0.00016302771 3867:0.00014538708 3868:0.00024222955 3869:0.00016888468 3870:0.00038267189 3871:0.00026354895 3872:0.00049673469 3873:0.00022136964 3874:0.0013336978 3875:0.00042500277 3876:0.0014904988 3877:0.0002157962 3878:0.00034944498 3879:0.00020390401 3880:0.00017702651 3881:0.002829653 3882:0.00026558308 3883:0.00025239767 3884:0.0022768946 3885:0.0004507566 3886:0.00016976843 3887:0.00014036809 3888:0.00033185107 3889:0.00086173072 3890:0.00015936789 3891:0.00035437773 3892:0.00015791663 3893:0.00028994028 3894:0.00045988729 3895:0.00025447219 3896:0.00011983606 3897:0.0016150532 3898:0.00086331903 3899:0.00040310997 3900:0.00036115103 3901:0.0066706967 3902:0.00033289351 3903:0.00087638549 3904:0.00014459383 3905:0.00046657363 3906:0.00032009152 3907:0.014977949 3908:0.0033756488 3909:0.00021336623 3910:0.0039955894 3911:0.026060887 3912:0.00062855822 3913:0.054498762 3914:0.0038481944 3915:0.00032844665 3916:0.0087606478 3917:0.00053672225 3918:0.0069080628 3919:0.00012144278 3920:0.011218125 3921:0.00055983342 3922:0.0038317391 3923:0.010228753 3924:0.00042517562 3925:0.00014370102 3926:0.0001074184 3927:0.0016111591 3928:0.0086701671 3929:0.0052529131 3930:0.0074532488 3931:0.0019734274 3932:0.00014886765 3933:0.0008672307 3934:0.0001526561 3935:0.0021471917 3936:0.00011210939 3937:0.024826998 3938:0.00010134316 3939:0.00076734996 3940:0.0043142354 3941:0.0048650848 3942:0.0057165916 3943:0.00038360487 3944:0.00017143384 3945:0.00096396799 3946:0.0027419159 3947:0.0016275796 3948:0.0045143026 3949:0.00022109559 3950:0.00046819702 3951:0.00044090336 3952:0.00095185032 3953:0.00051477988 3954:0.00027144904 3955:0.00090029178 3956:0.00013582624 3957:0.00020563503 3958:0.00018593151 3959:0.0006242969 3960:0.00018381959 3961:0.013160461 3962:0.00030589753 3963:0.0032439737 3964:0.0012013164 3965:0.00041315306 3966:0.00042023306 3967:0.00038083346 3968:0.0019002067 3969:0.00013516872 3970:0.00014228457 3971:0.0011841282 3972:0.0016874992 3973:0.046331894 3974:0.0026091817 3975:0.00016266941 3976:0.0012186925 3977:0.00045831568 3978:0.0016393105 3979:0.00011516445 3980:0.00045549902 3981:0.00061604462 3982:0.00026711795 3983:0.00086586527 3984:0.0078923684 3985:0.0039081755 3986:0.0014021468 3987:0.00017400761 3988:0.0024344635 3989:0.00019789551 3990:0.00010719684 3991:0.00026198677 3992:0.00026954187 3993:0.00024775157 3994:0.0006807454 3995:0.0019988301 3996:0.00034591823 3997:0.0034629675 3998:0.00024678191 3999:0.00030886367 4000:0.00069220393 4001:0.00032946223 4002:1.2817553e-05 4003:0.00022340138 4004:0.00030723348 4005:0.00052283437 4006:0.00081833662 4007:0.00049580849 4008:0.00022920815 4009:0.00013099886 4010:0.00049224438 4011:0.00065531634 4012:0.001164595 4013:0.00039457204 4014:4.2745171e-05 4015:0.001369866 4016:6.2275409e-05 4017:0.0008008547 4018:0.00033745059 4019:9.1664508e-05 4020:0.00013444913 4021:0.00047653695 4022:0.00016825758 4023:0.00024893988 4024:0.00039457227 4025:0.00013802045 4026:0.0038517481 4027:0.00038912243 4028:0.00023052543 4029:0.00023731873 4030:0.0022517019 4031:0.0010340267 4032:0.00091238105 4033:0.00031945601 4034:0.00025750764 4035:0.00044139076 4036:0.00010380238 4037:0.00038287765 4038:0.0010037322 4039:0.00016335672 4040:0.00027807124 4041:0.00022463489 4042:0.00021152265 4043:0.00027113353 4044:0.00025014006 4045:0.00042163816 4046:0.0030138972 4047:7.1419134e-05 4048:0.00027643514 4049:0.0022793687 4050:0.0011387179 4051:0.0018860893 4052:0.0002662953 4053:0.00011522347 4054:0.00013447473 4055:0.0016658396 4056:0.0023136789 4057:0.0001847938 4058:0.00032568118 4059:0.0033912321 4060:0.002937889 4061:0.0002170192 4062:0.00025298784 4063:0.00033532039 4064:0.0059079938 4065:0.002129226 4066:0.00045369708 4067:0.0040124264 4068:0.0031213255 4069:0.00084312062 4070:0.0001439676 4071:0.0011507252 4072:0.00056156609 4073:0.0059786043 4074:0.00018489396 4075:0.0032536248 4076:0.00032569907 4077:0.00071171729 4078:0.0003492125 4079:0.00036251041 4080:0.00087887316 4081:0.00014882351 4082:0.00021180318 4083:0.00026908843 4084:8.3617801e-05 4085:0.00031677668 4086:0.00027752784 4087:0.00018437007 4088:0.00025583318 4089:0.00018011186 4090:0.00021102256 4091:0.00085920794 4092:0.00040933717 4093:0.00060314109 4094:0.00015213198 4095:0.00032396385 4096:0.00050347054 4097:0.00015283361 4098:0.00043711395 4099:0.0020385133 4100:0.00021554058 4101:0.00016661483 4102:0.0018310416 4103:0.00020549024 4104:0.00019262127 4105:0.00010886313 4106:0.00012458346 4107:0.00019998301 4108:0.00010123906 4109:0.00082839996 4110:0.00011658437 4111:0.00035151807 4112:0.002960002 4113:-6.6914458e-06 4114:0.00027280158 4115:0.00027020075 4116:0.038407974 4117:0.0001584636 4118:0.0013707974 4119:0.00082682056 4120:0.00027902544 4121:0.00032761379 4122:0.00013428835 4123:0.00019419195 4124:1.2080134e-05 4125:0.00023256257 4126:2.4126864e-05 4127:1.6200729e-05 4128:0.00013217771 4129:0.00034587827 4130:0.0028246979 4131:0.00010122489 4132:0.011851524 4133:0.00024996386 4134:0.0025687951 4135:0.00064153393 4136:0.00066482736 4137:0.00021681588 4138:0.0028740123 4139:0.0010780561 4140:0.00030729256 4141:0.00082994276 4142:0.00044730425 4143:0.00018545757 4144:0.00071485376 4145:0.00078635552 4146:0.00017876257 4147:0.00025309226 4148:0.00024156694 4149:0.0030052459 4150:0.00041227706 4151:0.00059657451 4152:0.00061718462 4153:0.00064173236 4154:0.0020295389 4155:0.00020352322 4156:0.016448455 4157:0.0073100287 4158:0.0026418136 4159:0.00012490623 4160:0.00030648892 4161:0.0038401384 4162:0.0018870885 4163:0.0015808081 4164:0.0072196745 4165:0.00059746474 4166:0.0017511706 4167:5.5340282e-05 4168:0.00018994798 4169:0.0016728524 4170:0.00036964737 4171:0.00027711337 4172:0.0017903212 4173:0.0011026999 4174:0.0012265142 4175:0.0001230246 4176:0.00025629305 4177:0.00023974208 4178:0.010681652 4179:0.00016358649 4180:0.00031056348 4181:0.00016970206 4182:0.0062345392 4183:0.0017779378 4184:0.00038318615 4185:0.019387528 4186:0.0022083549 4187:0.00015646622 4188:0.00019619605 4189:0.00074158079 4190:0.00024208476 4191:0.0013324538 4192:0.00021661731 4193:0.00020172389 4194:0.0009689951 4195:0.00025778971 4196:0.0005380995 4197:0.00023066414 4198:0.00087536994 4199:0.00029226244 4200:0.00010378496 4201:0.00016281244 4202:0.00010199741 4203:0.00025330571 4204:0.00034134928 4205:0.00014539009 4206:0.0017201685 4207:0.00024104281 4208:0.00012776096 4209:0.00051123573 4210:0.00050234189 4211:0.0012811968 4212:0.0050665601 4213:0.0020746994 4214:0.0043411357 4215:0.00023115374 4216:0.00046758651 4217:0.00044109524 4218:0.00031673361 4219:0.00041614845 4220:0.00067677558 4221:0.00012036251 4222:0.0089522535 4223:0.0052681016 4224:0.0013497956 4225:0.00095587882 4226:0.00032622903 4227:0.00024883257 4228:0.00023531435 4229:0.00014382064 4230:0.00014321387 4231:0.00073455495 4232:0.00010299576 4233:0.02032391 4234:0.0027754274 4235:0.00021623955 4236:0.00020770697 4237:0.00034873388 4238:0.00065954856 4239:0.00019311205 4240:0.00074284372 4241:0.00051368371 4242:0.0084232213 4243:0.0008128481 4244:0.0081788125 4245:0.00052693946 4246:0.0010164682 4247:0.00030919278 4248:0.00011425 4249:0.00045207495 4250:0.005032578 4251:0.00030697638 4252:0.00015300846 4253:0.0011286022 4254:0.00055985246 4255:0.00012113078 4256:0.0045164372 4257:0.00056430342 4258:0.00017143851 4259:0.00495737 4260:0.00031184533 4261:0.00028999752 4262:0.00072255154 4263:0.0064422297 4264:0.00021264369 4265:0.00036658175 4266:0.00059736409 4267:0.010246873 4268:0.0029275639 4269:0.00027600722 4270:0.0060755657 4271:0.00024746521 4272:0.00018639243 4273:0.010461088 4274:0.0010885758 4275:0.00073036732 4276:0.00021732572 4277:0.00012176313 4278:0.014108044 4279:0.0018068691 4280:0.0058173565 4281:0.00017646028 4282:0.0018185877 4283:0.0014313329 4284:0.0091522578 4285:0.00014782589 4286:0.0081141051 4287:0.00023489028 4288:0.00040623831 4289:0.00128697 4290:0.00023941732 4291:0.00054089597 4292:0.0026763086 4293:0.00016202494 4294:0.0080787027 4295:6.4225387e-05 4296:0.0024435869 4297:0.0001768676 4298:0.00020282208 4299:0.0038492503 4300:0.0076934923 4301:0.00055304024 4302:0.00010248092 4303:0.00023635681 4304:0.00030200832 4305:0.00507419 4306:0.0093468633 4307:0.00022968728 4308:0.00080019538 4309:0.01180865 4310:0.00024323589 4311:0.0002530051 4312:0.00036000763 4313:0.00035175463 4314:0.00049745617 4315:0.00043655891 4316:0.00019651816 4317:0.0070929495 4318:0.0004136716 4319:0.00034046729 4320:0.0056552622 4321:0.0004997729 4322:0.00024539261 4323:0.00015958968 4324:0.00013379744 4325:0.00024489866 4326:0.026380096 4327:0.0031037487 4328:0.0088158473 4329:0.00022434715 4330:0.00022737197 4331:0.00013610999 4332:0.0031051645 4333:0.0010342278 4334:0.00027133067 4335:0.006069609 4336:0.00064060505 4337:0.00052969914 4338:0.00014948483 4339:0.0004329939 4340:0.0035686793 4341:0.0026589578 4342:0.00015849264 4343:0.0057023228 4344:0.0020365717 4345:0.0002245106 4346:0.0016551065 4347:0.0070682238 4348:0.0023140644 4349:0.00026812323 4350:0.00028748272 4351:0.0011201354 4352:0.00024079485 4353:0.0015687038 4354:0.00016718848 4355:0.00035563763 4356:0.0001441991 4357:0.0052612987 4358:0.00010187813 4359:0.00035731672 4360:0.0003212493 4361:0.016030755 4362:0.0019334757 4363:0.0027732367 4364:0.00016366408 4365:0.00017335449 4366:0.00023903523 4367:0.0005283549 4368:0.00030629104 4369:0.0011685747 4370:0.00014313271 4371:0.00088754576 4372:0.00096705527 4373:0.0019593358 4374:0.00036601277 4375:9.6095901e-05 4376:0.00020072611 4377:0.00031053473 4378:0.00028504396 4379:0.00017496728 4380:0.00044487763 4381:0.0038463713 4382:0.0048171044 4383:8.5662476e-05 4384:0.002011081 4385:0.0017371143 4386:0.0049043861 4387:0.00017182041 4388:0.00033560992 4389:0.0001373118 4390:0.022877848 4391:0.00042950243 4392:0.00041436104 4393:0.010234168 4394:0.00039734811 4395:0.0013065137 4396:0.00015933256 4397:0.00031275913 4398:0.00021108406 4399:0.00054249127 4400:0.00013230412 4401:0.00012770899 4402:0.001365209 4403:0.00064119464 #
