SVM-light Version V6.20
0 # kernel type
3 # kernel parameter -d 
1 # kernel parameter -g 
1 # kernel parameter -s 
1 # kernel parameter -r 
empty# kernel parameter -u 
135863 # highest feature index 
2 # number of training documents 
2 # number of support vectors plus 1 
-0.10133837 # threshold b, each following line is a SV (starting with alpha*y)
1 1:0.0081820525 2:0.0046931328 3:0.0019404596 4:2.1026552e-05 5:7.0166505e-05 6:0.0001728088 7:0.004176477 8:0.0027100183 9:0.001990987 10:0.052003335 11:0.04487076 12:0.01792288 13:0.0052137822 14:0.080119133 15:0.0021073348 16:0.0026974822 17:0.0085485112 18:0.014720573 19:0.011312919 20:0.082490072 21:5.0192903e-05 22:0.034351729 23:0.00010926116 24:0.0062373788 25:0.00072588411 26:0.0074107046 27:0.018200165 28:0.0066346098 29:0.0029708426 30:0.0010360337 31:2.1026552e-05 32:8.4106206e-05 33:0.0013099976 34:5.9653223e-05 35:0.00026649231 36:0.003023043 37:0.00036239871 38:0.00011588002 39:3.5098438e-07 40:0.00013324615 41:4.2053103e-05 42:0.00048442971 43:-1.0279286e-05 44:2.1026552e-05 45:2.1026552e-05 46:2.1026552e-05 47:0.0020448405 48:0.0016970832 49:6.6623077e-05 50:3.531724e-05 51:8.4457199e-05 52:0.00049529393 53:0.01292491 54:1.7600123e-05 55:0.031720281 56:0.00084908487 57:0.0056535178 58:2.4569976e-05 59:0.0054556546 60:0.00037162509 61:0.026822774 62:6.3079657e-05 63:0.00017588423 64:3.1539828e-05 65:2.1026552e-05 66:0.0015188591 67:6.3079657e-05 68:0.060908094 69:0.005870352 70:1.8419092e-05 71:0.034351256 72:0.00023643987 73:1.4056699e-05 74:3.1539828e-05 75:0.0016278528 76:-1.0279286e-05 77:0.0022406147 78:0.065981716 79:3.1539828e-05 80:0.0033040938 81:0.00012651031 82:0.013323143 83:0.0072592748 84:0.012275193 85:0.0039209668 86:0.00053629407 87:0.0078519788 88:0.00085827766 89:0.016221315 90:0.00067035918 91:0.0010372037 92:0.012578671 93:0.00099568581 94:0.00062051724 95:0.0005642905 96:0.0021020367 97:3.5434236e-06 98:3.5434236e-06 99:2.1026552e-05 100:0.00040055742 101:3.1539828e-05 102:5.2566378e-05 103:8.4106206e-05 104:0.0025995537 105:4.5596527e-05 106:4.2170101e-05 107:2.1026552e-05 108:0.0023286156 109:9.8162913e-05 110:0.00080606231 111:6.3079657e-05 112:0.00034728911 113:5.9653223e-05 114:7.3709925e-05 115:1.4056699e-05 116:3.1539828e-05 117:0.0001123366 118:0.00064271386 119:2.1026552e-05 120:0.0006397554 121:0.0021109956 122:0.0013693831 123:5.2683372e-05 124:-8.2234292e-05 125:0.013547883 126:8.4223204e-05 127:0.00052659976 128:0.00010914417 129:0.0001123366 130:0.0049314946 131:3.1539828e-05 132:0.00020800905 133:0.010009808 134:0.060318183 135:0.0043400605 136:0.011269144 137:0.03342396 138:7.3208344e-06 139:0.00011374053 140:0.0012373069 141:0.00032163263 142:0.038008142 143:0.0017872732 144:0.0018230422 145:0.0017594935 146:0.0013212111 147:0.0022000826 148:0.008517608 149:0.0018594956 150:3.1656822e-05 151:0.0011825177 152:0.00013714055 153:0.0097095855 154:-0.00086057035 155:0.0022132867 156:0.0011143738 157:0.017140232 158:0.00033700978 159:0.00031940965 160:2.1026552e-05 161:1.7834116e-05 162:0.00078943162 163:0.0010106785 164:0.00016124257 165:0.00073709927 166:0.00047107492 167:2.1026552e-05 168:0.0012886362 169:0.00062098529 170:-5.9169042e-06 171:3.6604172e-06 172:0.00018947296 173:3.1539828e-05 174:0.00010170634 175:2.4569976e-05 176:6.1174171e-05 177:0.00011136705 178:2.1026552e-05 179:0.00050510524 180:0.0025923497 181:0.00010524976 182:6.3079657e-05 183:-1.0714827e-05 184:0.0013874177 185:0.0037437782 186:0.0031069152 187:0.0097911516 188:0.0030523264 189:0.00035402496 190:0.00021026551 191:0.00017351074 192:0.00013784255 193:0.00063442346 194:0.0035826701 195:0.014922532 196:2.4569976e-05 197:-1.3822711e-05 198:-4.5128549e-05 199:3.1539828e-05 200:0.00018947296 201:0.0048577832 202:-0.0009383561 203:0.00016501997 204:0.0043491358 205:0.0036005359 206:0.00030239456 207:0.00023919788 208:0.00034102125 209:0.00033416835 210:1.7600123e-05 211:-0.00013904607 212:-0.0001566462 213:-0.16107149 214:0.00011930645 215:0.00011564604 216:0.00025266962 217:0.00067674409 218:0.00043116132 219:0.007803408 220:0.0010032406 221:0.00015769915 222:0.00021026551 223:0.00011564604 224:0.00011564604 225:2.1026552e-05 226:3.1539828e-05 227:2.1026552e-05 228:2.1026552e-05 229:9.4619485e-05 230:0.00011564604 231:0.0011816986 232:2.1026552e-05 233:2.1026552e-05 234:2.1026552e-05 235:2.1026552e-05 236:2.1026552e-05 237:6.3079657e-05 238:0.00023834535 239:3.8743674e-05 240:7.3592935e-05 241:6.6623077e-05 242:7.3592935e-05 243:0.00011257059 244:0.00011280459 245:6.6623077e-05 246:7.3592935e-05 247:2.1026552e-05 248:2.1026552e-05 249:3.1539828e-05 250:3.1539828e-05 251:7.3592935e-05 252:-6.5804117e-05 253:1.4056699e-05 254:2.1026552e-05 255:2.1026552e-05 256:3.1539828e-05 257:4.2053103e-05 258:0.00064692571 259:0.0019871423 260:0.0026443636 261:0.00058555108 262:0.0064356122 263:0.012982421 264:0.0004749693 265:0.027324887 266:-0.00021041608 267:-6.7358624e-06 268:4.0966566e-05 269:9.8981865e-05 270:1.7717119e-05 271:0.0042613535 272:0.0045502922 273:0.0094807157 274:3.8977661e-05 275:0.00048442971 276:2.1026552e-05 277:0.0021481675 278:0.0070463186 279:0.0011295169 280:0.0013695003 281:2.1026552e-05 282:3.1539828e-05 283:0.00021828833 284:4.5596527e-05 285:2.1026552e-05 286:8.4106206e-05 287:0.00044202557 288:0.00060323463 289:0.00015096329 290:6.720805e-05 291:0.0013448469 292:0.0038011088 293:3.1539828e-05 294:0.00010513276 295:0.0015795652 296:2.1026552e-05 297:2.1143549e-05 298:2.1026552e-05 299:2.1026552e-05 300:2.1026552e-05 301:2.1026552e-05 302:1.4056699e-05 303:0.0024540392 304:2.1026552e-05 305:2.8113398e-05 306:0.0004360078 307:0.0054939291 308:8.0679783e-05 309:2.1026552e-05 310:2.1026552e-05 311:2.1026552e-05 312:0.0003129078 313:1.074727e-05 314:-8.2903935e-06 315:0.0019426995 316:9.4619485e-05 317:2.1026552e-05 318:0.00097571214 319:1.7600123e-05 320:0.0069822194 321:0.00029791516 322:0.00062309124 323:2.1026552e-05 324:3.5083252e-05 325:0.0016141968 326:-4.0214716e-05 327:4.5596527e-05 328:7.4528871e-05 329:1.4056699e-05 330:7.3592935e-05 331:2.1026552e-05 332:-2.0207581e-05 333:3.7774103e-06 334:6.6740075e-05 335:0.0016686179 336:0.00082486589 337:-0.00047620645 338:0.0027967319 339:0.0080335792 340:0.00050191279 341:0.00063383847 342:0.0023250382 343:0.00090648158 344:0.00018659793 345:0.0030483487 346:-2.8749876e-06 347:-0.00045038309 348:-2.0792564e-05 349:3.5434236e-06 350:3.7774103e-06 351:-2.0792564e-05 352:3.5434236e-06 353:0.0011160453 354:0.00054797734 355:1.4056699e-05 356:2.1026552e-05 357:7.0868473e-06 358:2.1026552e-05 359:4.2053103e-05 360:2.1026552e-05 361:1.1699433e-07 362:0.00016124257 363:3.2124812e-05 364:0.006602136 365:0.00054525281 366:0.00035554593 367:-4.8554975e-05 368:0.00037338005 369:0.00030130794 370:-4.4543562e-05 371:0.01046395 372:0.0036805826 373:0.00037396501 374:0.017304834 375:0.013554086 376:0.00022293445 377:1.074727e-05 378:0.00026719426 379:-0.00054224452 380:0.00022183172 381:0.003477186 382:0.00062145322 383:0.0021376044 384:7.0868473e-06 385:0.015056529 386:2.8113398e-05 387:0.0029798537 388:0.0013327121 389:0.016955305 390:-1.3822711e-05 391:0.00091321755 392:-0.00049158372 393:2.1026552e-05 394:2.1026552e-05 395:0.00078363175 396:0.000140684 397:0.003191873 398:0.0025819363 399:0.00025952247 400:2.1026552e-05 401:0.0043746592 402:0.00037809339 403:0.000537113 404:0.00034613541 405:-0.00035121708 406:1.4056699e-05 407:0.00010902717 408:2.1026552e-05 409:2.1143549e-05 410:2.8113398e-05 411:0.006374137 412:3.1656822e-05 413:0.00033996825 414:0.00013667259 415:0.00023187706 416:0.0043526967 417:0.0016877902 418:0.002429937 419:0.0012409673 420:0.00010891017 421:6.3664629e-05 422:5.2566378e-05 423:-3.4264281e-06 424:0.00010583472 425:0.00010688772 426:2.1026552e-05 427:4.5596527e-05 428:0.0022190032 429:0.0014705381 430:0.00066646485 431:0.0017555665 432:9.4619485e-05 433:0.00056487549 434:0.0053007281 435:0.0026503138 436:0.015352809 437:0.010563618 438:-7.9509831e-05 439:0.00058306055 440:8.0679783e-05 441:-3.4264281e-06 442:0.00065758952 443:0.00055046775 444:0.00058909447 445:1.4056699e-05 446:0.0002350695 447:0.00083156821 448:0.00092917966 449:0.0033312875 450:0.00020719007 451:-0.00021835542 452:0.0052623707 453:0.0001268613 454:0.00064177782 455:0.00010170634 456:6.3313644e-05 457:0.00038165291 458:7.725336e-05 459:0.00053687906 460:0.0023199739 461:2.1026552e-05 462:0.00066669885 463:0.00010548374 464:0.00024013384 465:0.00080773374 466:4.2053103e-05 467:2.5037962e-05 468:0.0030852032 469:0.0029184117 470:4.2053103e-05 471:5.2566378e-05 472:4.2053103e-05 473:4.2053103e-05 474:4.2053103e-05 475:4.2053103e-05 476:5.2566378e-05 477:5.2566378e-05 478:0.0049697035 479:0.00015438971 480:0.002149856 481:-0.00023197776 482:0.0028226883 483:0.0033400122 484:0.0002150959 485:0.00070626143 486:0.0023053486 487:0.0015377463 488:-0.0029089525 489:0.00024414525 490:3.1539828e-05 491:6.3196654e-05 492:0.00012651031 493:8.7766632e-05 494:1.4056699e-05 495:0.00018639752 496:0.000305236 497:9.4736482e-05 498:4.5596527e-05 499:0.00011977445 500:0.00025644703 501:-9.9015422e-05 502:4.9373939e-05 503:-0.0026423295 504:-0.00045275653 505:0.0001919299 506:0.0034219623 507:0.00031940965 508:8.4106206e-05 509:3.6604172e-06 510:3.5434236e-06 511:0.00016832942 512:7.3709925e-05 513:7.0868473e-06 514:0.00014718587 515:6.3079657e-05 516:0.0018739532 517:0.020633159 518:0.0010431543 519:0.00033771177 520:0.00269658 521:0.0013186887 522:-0.00045753858 523:-0.0013693355 524:-0.0031009524 525:0.0021088894 526:0.025630442 527:0.00025388945 528:0.0002491262 529:-6.5921115e-05 530:0.0046387268 531:0.0011838382 532:0.0072544445 533:0.0027527895 534:0.0031396588 535:0.0001067034 536:7.7136363e-05 537:7.0283495e-05 538:8.0913771e-05 539:4.5596527e-05 540:4.2053103e-05 541:7.3592935e-05 542:2.5622936e-05 543:-0.00028802044 544:0.0069915778 545:-0.00047401706 546:-0.001139546 547:-9.9283025e-06 548:6.3196654e-05 549:2.1026552e-05 550:0.00091142894 551:0.0024478883 552:7.382693e-05 553:7.725336e-05 554:0.00025940547 555:4.6064506e-05 556:6.3196654e-05 557:3.1539828e-05 558:0.00019655981 559:8.4106206e-05 560:1.4173695e-05 561:4.9607934e-05 562:3.5083252e-05 563:6.3079657e-05 564:2.4569976e-05 565:2.1026552e-05 566:0.00016124257 567:0.00044284452 568:2.1026552e-05 569:0.00014730285 570:0.00014777083 571:0.00056534342 572:0.00010735564 573:0.00018994094 574:3.1539828e-05 575:0.0021263727 576:4.2053103e-05 577:0.00522702 578:0.00038661776 579:0.0054796552 580:5.2683372e-05 581:-0.00071956636 582:0.0024990507 583:0.0017692052 584:3.1539828e-05 585:5.2566378e-05 586:0.001170216 587:3.1539828e-05 588:4.2053103e-05 589:3.1539828e-05 590:4.2053103e-05 591:4.2053103e-05 592:8.4106206e-05 593:0.0002350695 594:0.00054007152 595:3.1539828e-05 596:3.1539828e-05 597:3.1539828e-05 598:3.1539828e-05 599:3.1539828e-05 600:0.00014033301 601:3.1539828e-05 602:7.41779e-05 603:3.1539828e-05 604:3.1539828e-05 605:0.0032905047 606:2.4686969e-05 607:-5.9068254e-05 608:0.00034421362 609:3.1539828e-05 610:3.1539828e-05 611:0.00091590849 612:0.0026684331 613:3.2241787e-05 614:0.00072907651 615:2.4569976e-05 616:2.1026552e-05 617:4.2053103e-05 618:0.00010524976 619:7.0166505e-05 620:0.0001122196 621:0.0015268821 622:0.0078582978 623:0.0030156216 624:0.00043505576 625:0.00036819861 626:0.0013814509 627:0.00094285177 628:0.0024101306 629:2.1845517e-05 630:0.00015898609 631:0.00047734284 632:2.1026552e-05 633:0.004268189 634:0.00050935062 635:0.0011194716 636:0.00037528551 637:0.016765749 638:0.0063113081 639:0.0001689144 640:0.0026046515 641:1.4056699e-05 642:2.1026552e-05 643:7.0400492e-05 644:0.00097465923 645:0.00019278239 646:0.00097723305 647:0.0015220181 648:2.1026552e-05 649:0.0001122196 650:0.00014730285 651:4.2053103e-05 652:0.0001123366 653:0.00060467207 654:4.2053103e-05 655:0.00014718587 656:0.00017245782 657:0.00016856341 658:2.1026552e-05 659:2.1026552e-05 660:2.1026552e-05 661:2.1026552e-05 662:2.1026552e-05 663:2.1026552e-05 664:3.1539828e-05 665:0.00011930645 666:4.2053103e-05 667:0.0011045624 668:0.00012627631 669:2.1026552e-05 670:5.6109802e-05 671:2.1026552e-05 672:2.1026552e-05 673:6.3079657e-05 674:0.00033003994 675:5.6694778e-05 676:1.4056699e-05 677:2.1026552e-05 678:7.725336e-05 679:-0.00031106945 680:0.00098478794 681:0.0027101182 682:0.001568935 683:0.0028953792 684:0.012106962 685:0.0033144392 686:0.0011992988 687:-3.4264281e-06 688:0.0049566333 689:0.0071454337 690:0.002863589 691:0.0015878221 692:0.0059238211 693:0.00045643328 694:0.00067425362 695:2.4569976e-05 696:0.00037174206 697:9.1310052e-05 698:0.00032611191 699:-2.4335985e-05 700:2.1026552e-05 701:2.1026552e-05 702:4.2053103e-05 703:0.0006711781 704:0.00025609604 705:0.00012981973 706:2.1026552e-05 707:0.0017688879 708:0.00019644282 709:5.6226796e-05 710:0.001733604 711:8.7649634e-05 712:0.001056158 713:0.022932494 714:0.00028514542 715:0.0023255062 716:0.00012035943 717:0.0011029409 718:0.002295638 719:0.008032009 720:0.00015072929 721:0.00079757156 722:-3.4264281e-06 723:0.00013831054 724:6.3079657e-05 725:0.0073713278 726:0.011718591 727:0.0026638033 728:0.0028977364 729:0.00012615931 730:2.1026552e-05 731:0.001458387 732:2.1026552e-05 733:0.00022786563 734:0.0027929207 735:3.6604172e-06 736:0.00037505155 737:0.00014138597 738:0.0011105962 739:0.0003329984 740:0.0015601093 741:0.00067686103 742:0.0015935886 743:0.00030157558 744:0.00061861175 745:0.000917128 746:0.020820582 747:1.0630271e-05 748:0.00045180335 749:3.862668e-05 750:0.0059583867 751:7.7136363e-05 752:0.0024487071 753:0.0015009915 754:7.0868473e-06 755:0.00072775601 756:7.3592935e-05 757:1.1699433e-07 758:0.0013639678 759:2.1026552e-05 760:7.7136363e-05 761:1.4290692e-05 762:6.6740075e-05 763:4.2053103e-05 764:0.00012296689 765:1.4056699e-05 766:1.0630271e-05 767:0.00044167461 768:0.0011061669 769:3.5434236e-06 770:0.00041402917 771:6.3079657e-05 772:0.00016206154 773:-6.7943576e-05 774:0.00053224899 775:0.0049147308 776:4.5713525e-05 777:4.2053103e-05 778:2.1026552e-05 779:0.0029654957 780:0.0019397412 781:-6.6155102e-05 782:0.004218949 783:0.00014858984 784:0.0013646698 785:0.00074594101 786:0.00031905872 787:0.00020341268 788:5.6811761e-05 789:0.0015945579 790:2.4803967e-05 791:0.0021260714 792:0.00054600474 793:0.0012199745 794:0.00016525399 795:0.0076992768 796:0.00084729644 797:0.0013232017 798:-2.6074679e-06 799:0.00014045001 800:2.4569976e-05 801:0.00084966986 802:0.00044272753 803:0.00051643746 804:6.6623077e-05 805:0.00040008946 806:5.6694778e-05 807:-0.00057629211 808:7.0283495e-05 809:0.0022252374 810:0.0010379729 811:-0.00056611339 812:1.4056699e-05 813:2.1026552e-05 814:0.00021096748 815:0.0013717902 816:0.00320344 817:0.0056914422 818:0.0013559449 819:2.1026552e-05 820:2.1026552e-05 821:2.1026552e-05 822:2.1026552e-05 823:2.1026552e-05 824:2.1026552e-05 825:0.00011564604 826:2.1026552e-05 827:2.1026552e-05 828:0.00015769915 829:0.00073355588 830:0.00015781615 831:0.001622822 832:9.5555464e-05 833:-0.00092192594 834:-0.0022803454 835:0.00030535299 836:0.0016196294 837:3.1656822e-05 838:0.0031802568 839:0.00023495249 840:3.5083252e-05 841:0.0023959405 842:0.0046467832 843:8.4808169e-05 844:0.00028043202 845:2.1026552e-05 846:2.1026552e-05 847:3.1539828e-05 848:-2.7762411e-05 849:2.1026552e-05 850:2.1026552e-05 851:2.1026552e-05 852:4.9256945e-05 853:1.4056699e-05 854:1.4056699e-05 855:0.001265103 856:2.881537e-05 857:9.4619485e-05 858:0.00043027513 859:2.1026552e-05 860:3.1539828e-05 861:2.1026552e-05 862:5.2566378e-05 863:3.1539828e-05 864:0.0023127031 865:0.0013161484 866:0.00024581674 867:5.2566378e-05 868:3.5200246e-05 869:3.1539828e-05 870:2.1026552e-05 871:2.1026552e-05 872:2.1026552e-05 873:5.2566378e-05 874:0.0002211298 875:0.0021590488 876:5.2683372e-05 877:0.0079853591 878:-0.00057791278 879:0.0018885788 880:8.4106206e-05 881:4.2053103e-05 882:4.2170101e-05 883:6.4483575e-05 884:0.00082093797 885:1.4056699e-05 886:0.00017541625 887:0.00018250312 888:0.00070968783 889:0.0017526916 890:0.00016135957 891:5.6460784e-05 892:3.2241787e-05 893:-0.00012109495 894:0.00033179487 895:0.0001584011 896:0.00046316916 897:0.00014372588 898:4.5596527e-05 899:-3.4264281e-06 900:0.00021140189 901:7.0868473e-06 902:2.1026552e-05 903:2.1026552e-05 904:-0.0020805933 905:-0.0064449417 906:0.001990051 907:0.0014557794 908:0.0011259062 909:0.00098490482 910:0.0033107961 911:3.6604172e-06 912:0.00088440208 913:0.0021331087 914:0.0018381518 915:0.00048205617 916:3.5434236e-06 917:-0.00010077039 918:-4.1585128e-05 919:6.5419561e-05 920:2.1026552e-05 921:6.3079657e-05 922:2.1026552e-05 923:7.7136363e-05 924:4.2053103e-05 925:0.00037551948 926:8.4457199e-05 927:4.2053103e-05 928:2.1026552e-05 929:4.2053103e-05 930:3.6604172e-06 931:5.2683372e-05 932:0.0032719849 933:0.0016777111 934:7.3709925e-05 935:0.00053119619 936:0.00019333379 937:0.00097890466 938:-5.2098403e-05 939:1.0864257e-05 940:0.0013290518 941:0.0005268337 942:0.0010428033 943:0.0024299037 944:0.00081906596 945:2.8230392e-05 946:5.9887225e-05 947:0.0046792929 948:-7.8105913e-05 949:0.00016490299 950:2.1026552e-05 951:1.4056699e-05 952:6.3079657e-05 953:0.013075403 954:0.00034479861 955:0.002744148 956:0.0033212083 957:0.0032791886 958:6.6857072e-05 959:0.0057843411 960:0.00073387317 961:0.0022101281 962:0.0019725345 963:0.0036394307 964:8.8351597e-05 965:0.0027880571 966:0.0037571504 967:0.0002260101 968:0.006704479 969:0.000116231 970:8.7766632e-05 971:0.00057313219 972:0.00027805858 973:4.5596527e-05 974:2.8113398e-05 975:3.1539828e-05 976:9.1193055e-05 977:7.7721328e-05 978:0.00012273289 979:3.1539828e-05 980:8.7766632e-05 981:9.4853473e-05 982:2.1026552e-05 983:2.1143549e-05 984:0.00013348015 985:0.0004642221 986:0.0024859635 987:0.00082556787 988:0.0061943922 989:3.1539828e-05 990:0.0034549397 991:0.0016649585 992:3.1539828e-05 993:0.00016821241 994:3.8860664e-05 995:0.00061767589 996:0.0019287599 997:6.3079657e-05 998:0.00016821241 999:0.00030434993 1000:-0.00034906139 1001:0.00033323243 1002:0.0042144363 1003:0.0012374911 1004:0.0039840303 1005:0.0075457403 1006:0.0026772076 1007:2.1143549e-05 1008:0.00027685499 1009:0.0007291935 1010:0.00061354745 1011:2.4185405e-05 1012:4.2287098e-05 1013:2.1026552e-05 1014:0.00015072929 1015:4.2053103e-05 1016:0.0003578024 1017:0.00015781615 1018:0.00028043202 1019:2.1026552e-05 1020:7.3592935e-05 1021:0.0024241374 1022:0.0017466076 1023:0.00081696012 1024:2.1026552e-05 1025:0.00069812161 1026:0.00027050372 1027:2.4569976e-05 1028:5.6109802e-05 1029:0.00011918946 1030:-4.1702118e-05 1031:0.00039276865 1032:-0.00012463839 1033:0.00069314067 1034:3.1539828e-05 1035:0.0013212464 1036:0.00078908075 1037:7.382693e-05 1038:0.00084445497 1039:0.0029094515 1040:0.00021034897 1041:3.1539828e-05 1042:2.4569976e-05 1043:2.1026552e-05 1044:3.5434236e-06 1045:3.5083252e-05 1046:6.3196654e-05 1047:0.00018628054 1048:1.7600123e-05 1049:0.00042064802 1050:0.00062971003 1051:2.4569976e-05 1052:0.0027865861 1053:0.00076840515 1054:0.0053879614 1055:2.1026552e-05 1056:-1.0396282e-05 1057:-3.4264281e-06 1058:-3.4264281e-06 1059:0.00014161994 1060:0.0007138162 1061:-0.00019283325 1062:0.0047924826 1063:0.00085423264 1064:2.8113398e-05 1065:2.1494539e-05 1066:3.5434236e-06 1067:0.00015696356 1068:0.0067854919 1069:-4.8204001e-05 1070:0.0012376916 1071:0.0054907547 1072:0.0066279764 1073:3.5083252e-05 1074:7.0868473e-06 1075:0.0020596324 1076:2.1143549e-05 1077:0.0012005857 1078:0.0044037919 1079:0.0002488922 1080:0.00018923897 1081:5.2566378e-05 1082:0.00048419565 1083:0.00076544669 1084:0.0046755993 1085:8.1147766e-05 1086:1.4056699e-05 1087:0.00097467541 1088:-0.0071640061 1089:0.0003451496 1090:0.015022617 1091:0.0004980184 1092:7.0166505e-05 1093:0.00015178225 1094:0.00040503682 1095:0.0013484737 1096:0.0002247902 1097:5.2566378e-05 1098:0.0032815789 1099:6.9597729e-05 1100:4.5596527e-05 1101:2.1143549e-05 1102:0.0010461962 1103:0.00050238078 1104:1.7717119e-05 1105:4.2053103e-05 1106:2.1026552e-05 1107:8.4106206e-05 1108:3.1539828e-05 1109:0.0001268613 1110:5.2566378e-05 1111:4.2053103e-05 1112:6.2227118e-05 1113:-0.00022505777 1114:0.01273131 1115:0.00027357918 1116:0.00011631445 1117:3.1539828e-05 1118:0.0011951706 1119:5.6109802e-05 1120:0.0025200774 1121:0.00069155259 1122:0.0010071014 1123:0.0038486777 1124:5.2566378e-05 1125:2.1026552e-05 1126:2.1026552e-05 1127:0.00010205732 1128:1.4056699e-05 1129:4.2053103e-05 1130:0.0044529992 1131:0.00079274114 1132:0.00072989543 1133:2.4569976e-05 1134:0.00051678851 1135:0.00037042159 1136:0.00016832942 1137:0.00042638087 1138:0.0014653231 1139:0.0013012728 1140:0.0024638488 1141:3.1539828e-05 1142:5.2566378e-05 1143:0.0015707234 1144:5.6109802e-05 1145:0.00063126459 1146:0.0031242475 1147:-1.3705712e-05 1148:5.6226796e-05 1149:4.2053103e-05 1150:4.2053103e-05 1151:4.2053103e-05 1152:4.2053103e-05 1153:4.2053103e-05 1154:4.2053103e-05 1155:0.00012615931 1156:0.00012615931 1157:0.00030842843 1158:0.00079227309 1159:4.2053103e-05 1160:4.2053103e-05 1161:4.2053103e-05 1162:9.4619485e-05 1163:4.2053103e-05 1164:4.2053103e-05 1165:4.2053103e-05 1166:6.3079657e-05 1167:4.5596527e-05 1168:4.2053103e-05 1169:4.2053103e-05 1170:4.2053103e-05 1171:4.2053103e-05 1172:4.2053103e-05 1173:4.2053103e-05 1174:0.00012615931 1175:0.00012615931 1176:0.00028385845 1177:4.2053103e-05 1178:4.2053103e-05 1179:4.2053103e-05 1180:4.2053103e-05 1181:4.2053103e-05 1182:4.2053103e-05 1183:4.2053103e-05 1184:4.2053103e-05 1185:4.2053103e-05 1186:4.2053103e-05 1187:0.0011674081 1188:7.3709925e-05 1189:0.0022651849 1190:0.0021016859 1191:2.1026552e-05 1192:3.5098438e-07 1193:0.0023804461 1194:4.2053103e-05 1195:0.00041710463 1196:2.1026552e-05 1197:0.00016135957 1198:0.00035128294 1199:0.001566879 1200:0.0002211298 1201:0.0005897964 1202:-3.4264281e-06 1203:2.1026552e-05 1204:0.00013017072 1205:4.2053103e-05 1206:0.00017234083 1207:8.4106206e-05 1208:0.00080559426 1209:8.4106206e-05 1210:7.3592935e-05 1211:7.3592935e-05 1212:0.00028736828 1213:7.0868473e-06 1214:0.00033794579 1215:0.00010170634 1216:0.00051063753 1217:0.00077490701 1218:0.0013415203 1219:4.6064506e-05 1220:5.6109802e-05 1221:5.9653223e-05 1222:2.1026552e-05 1223:3.1539828e-05 1224:0.0001790767 1225:0.0051288903 1226:0.0013222658 1227:0.00053676206 1228:3.1539828e-05 1229:0.00037373096 1230:0.0062502506 1231:2.1026552e-05 1232:3.862668e-05 1233:-2.7645423e-05 1234:0.00013760856 1235:1.4056699e-05 1236:0.00057702669 1237:0.00056250195 1238:3.8860664e-05 1239:0.00033700978 1240:0.0014870854 1241:0.00080302043 1242:8.4574196e-05 1243:3.5098438e-07 1244:4.2053103e-05 1245:7.7136363e-05 1246:0.00012273289 1247:2.1026552e-05 1248:0.00016903138 1249:2.4686969e-05 1250:3.5200246e-05 1251:-0.00020508419 1252:0.00029067768 1253:4.9139951e-05 1254:4.2053103e-05 1255:0.0004319803 1256:0.0024599559 1257:0.0017409249 1258:0.00019301639 1259:4.5947509e-05 1260:0.0010136369 1261:2.3398866e-07 1262:-5.4939868e-05 1263:9.2714014e-05 1264:0.0031367834 1265:0.00035457642 1266:0.00061366445 1267:5.6109802e-05 1268:0.00048182221 1269:0.0032955019 1270:0.00036722911 1271:0.00040351594 1272:0.00034845906 1273:0.00016135957 1274:0.00020033722 1275:0.0003435117 1276:0.0010202558 1277:4.2053103e-05 1278:0.0012700838 1279:0.00062168721 1280:0.00068215939 1281:-6.8528561e-06 1282:2.1026552e-05 1283:1.4173695e-05 1284:2.1026552e-05 1285:9.8162913e-05 1286:0.00011257059 1287:4.2053103e-05 1288:3.5083252e-05 1289:2.1026552e-05 1290:2.1026552e-05 1291:2.1026552e-05 1292:3.5434236e-06 1293:0.00085139117 1294:0.003078802 1295:0.00068418193 1296:-0.0011954218 1297:0.00036453825 1298:0.00037267801 1299:-0.00018370664 1300:0.00084565848 1301:0.00047165988 1302:9.2830967e-05 1303:-0.00016189473 1304:0.0010705657 1305:0.0011693134 1306:0.0025515002 1307:0.00064991764 1308:8.8000619e-05 1309:0.00013725756 1310:0.00018367302 1311:7.3592935e-05 1312:3.7774103e-06 1313:-0.00010774023 1314:2.8347389e-05 1315:0.00014021601 1316:0.00025586205 1317:3.1539828e-05 1318:8.0679783e-05 1319:3.862668e-05 1320:0.00027026975 1321:3.5434236e-06 1322:2.1026552e-05 1323:4.2053103e-05 1324:2.1026552e-05 1325:5.2566378e-05 1326:1.1215241e-05 1327:-3.4264281e-06 1328:4.2053103e-05 1329:0.00043151234 1330:1.4056699e-05 1331:3.1539828e-05 1332:0.00021793736 1333:0.00041827461 1334:0.00027237562 1335:3.5083252e-05 1336:2.8113398e-05 1337:3.5083252e-05 1338:4.0113978e-06 1339:1.4056699e-05 1340:0.001733838 1341:3.1539828e-05 1342:0.0013996696 1343:4.5596527e-05 1344:0.001300236 1345:7.7136363e-05 1346:2.1026552e-05 1347:0.00052282237 1348:2.1026552e-05 1349:0.0039698388 1350:7.737035e-05 1351:4.9256945e-05 1352:-0.00022494077 1353:0.0006394044 1354:0.00020115619 1355:9.4619485e-05 1356:4.2053103e-05 1357:5.6109802e-05 1358:0.00021380893 1359:4.2053103e-05 1360:7.3592935e-05 1361:5.9653223e-05 1362:4.2053103e-05 1363:7.7136363e-05 1364:7.7136363e-05 1365:0.0010797584 1366:3.1773816e-05 1367:5.2566378e-05 1368:4.2053103e-05 1369:0.00016513698 1370:0.00015283521 1371:0.00025243562 1372:0.00052967522 1373:0.0053933943 1374:0.0011355508 1375:0.00026824727 1376:3.5434236e-06 1377:4.5713525e-05 1378:0.00017872571 1379:0.00021380893 1380:0.0024853449 1381:0.0045541036 1382:3.1539828e-05 1383:2.1026552e-05 1384:0.00069528009 1385:0.0011514794 1386:0.00052636577 1387:0.00063360442 1388:7.063448e-05 1389:2.1026552e-05 1390:0.0044809957 1391:0.001690264 1392:0.0010385578 1393:6.3079657e-05 1394:5.2566378e-05 1395:0.00025987346 1396:0.00015108027 1397:4.9256945e-05 1398:0.00019286587 1399:0.00033003994 1400:0.00017222382 1401:0.00094733119 1402:2.8113398e-05 1403:8.4457199e-05 1404:0.0002654058 1405:0.00049813534 1406:0.00035223644 1407:0.0002492432 1408:0.00052644912 1409:0.0022467822 1410:4.5596527e-05 1411:0.0030656813 1412:0.001584245 1413:7.3709925e-05 1414:0.00027732304 1415:4.2053103e-05 1416:-0.0003880889 1417:1.4056699e-05 1418:0.00012284987 1419:0.00068628788 1420:2.1026552e-05 1421:3.5083252e-05 1422:5.9653223e-05 1423:0.00012627631 1424:2.4569976e-05 1425:3.5434236e-06 1426:3.1539828e-05 1427:4.2053103e-05 1428:7.0166505e-05 1429:0.0016116893 1430:6.6857072e-05 1431:8.8914858e-06 1432:0.00038957619 1433:8.7766632e-05 1434:0.00010524976 1435:0.0070864824 1436:5.2566378e-05 1437:0.00073425786 1438:0.00016124257 1439:0.00018843633 1440:0.0038803846 1441:0.00071665767 1442:-0.00040739402 1443:-3.4264281e-06 1444:-7.479648e-05 1445:1.4056699e-05 1446:-4.1702118e-05 1447:0.0001122196 1448:3.5434236e-06 1449:2.1026552e-05 1450:2.1026552e-05 1451:0.00012615931 1452:8.4106206e-05 1453:3.5434237e-05 1454:-2.6074679e-06 1455:0.00067472161 1456:6.3079657e-05 1457:4.5830522e-05 1458:0.00049409043 1459:0.00037809339 1460:0.00028763589 1461:0.0010611551 1462:0.0001584011 1463:0.00014115198 1464:-0.00014063418 1465:0.0014551437 1466:3.1539828e-05 1467:9.1193055e-05 1468:0.00010583472 1469:3.8743674e-05 1470:0.00012970273 1471:0.00022833364 1472:0.00010571773 1473:2.1026552e-05 1474:3.5434236e-06 1475:1.4056699e-05 1476:1.9589006e-05 1477:-1.1599775e-05 1478:4.5830522e-05 1479:2.4569976e-05 1480:0.00033665885 1481:4.2053103e-05 1482:1.1098243e-05 1483:-5.1747411e-05 1484:0.0019561714 1485:0.00066942326 1486:0.0012311062 1487:0.00017175585 1488:0.00092314585 1489:-6.8528561e-06 1490:3.1539828e-05 1491:-0.00027613688 1492:0.0043092398 1493:-0.00043886673 1494:9.8279903e-05 1495:1.4056699e-05 1496:0.00030842843 1497:-3.4030301e-05 1498:0.0011120338 1499:4.2170101e-05 1500:5.9653223e-05 1501:3.5083252e-05 1502:0.00042629737 1503:5.3151354e-05 1504:2.1026552e-05 1505:3.1539828e-05 1506:-0.00018464257 1507:-0.00037159267 1508:4.2053103e-05 1509:4.5596527e-05 1510:3.5434237e-05 1511:0.00019714481 1512:1.0630271e-05 1513:7.0868473e-06 1514:2.1026552e-05 1515:3.5083252e-05 1516:2.1026552e-05 1517:0.0015099839 1518:2.1026552e-05 1519:1.4056699e-05 1520:4.2053103e-05 1521:2.1026552e-05 1522:9.4619485e-05 1523:0.00024227332 1524:0.0012942692 1525:0.00075080502 1526:2.1026552e-05 1527:2.1026552e-05 1528:2.1026552e-05 1529:2.1026552e-05 1530:2.1026552e-05 1531:9.1427049e-05 1532:0.00016973336 1533:-2.7528424e-05 1534:0.0008586623 1535:5.2566378e-05 1536:4.9256945e-05 1537:0.0003877877 1538:0.00036274976 1539:0.00091816491 1540:0.00071537076 1541:0.00030535299 1542:0.00058625295 1543:9.4619485e-05 1544:0.00337894 1545:0.00037505155 1546:0.00026649231 1547:3.5083252e-05 1548:0.00032248514 1549:-2.0675569e-05 1550:-5.3319377e-06 1551:7.429492e-05 1552:7.0400492e-05 1553:0.00032790046 1554:0.00048147122 1555:0.00039133115 1556:0.0021068333 1557:0.0010121993 1558:0.00018226913 1559:7.3592935e-05 1560:0.0010040596 1561:0.00017872571 1562:3.5434236e-06 1563:5.6226796e-05 1564:5.2566378e-05 1565:1.4056699e-05 1566:0.00099568581 1567:0.00052223739 1568:4.2053103e-05 1569:0.00039086313 1570:0.00069115177 1571:0.00088806252 1572:0.00018581255 1573:9.4619485e-05 1574:5.2566378e-05 1575:6.3313644e-05 1576:5.2566378e-05 1577:5.2566378e-05 1578:1.1449239e-05 1579:0.0028111895 1580:0.0010515616 1581:0.00011918946 1582:3.5083252e-05 1583:0.0010542526 1584:-7.0200054e-05 1585:0.0035047648 1586:0.00049872033 1587:0.00023861289 1588:0.00014586537 1589:-1.0279286e-05 1590:0.001661064 1591:0.00028810385 1592:-1.3705712e-05 1593:0.00038696872 1594:0.0023154947 1595:5.2566378e-05 1596:3.5083252e-05 1597:2.1026552e-05 1598:2.1026552e-05 1599:2.1026552e-05 1600:2.1026552e-05 1601:2.1026552e-05 1602:2.1026552e-05 1603:2.1026552e-05 1604:2.1026552e-05 1605:8.7766632e-05 1606:0.00035496088 1607:0.0026826069 1608:0.0033587995 1609:0.00013667259 1610:0.00023530347 1611:1.4056699e-05 1612:2.1026552e-05 1613:2.1026552e-05 1614:2.1026552e-05 1615:2.1026552e-05 1616:2.1026552e-05 1617:0.00039534247 1618:2.1026552e-05 1619:2.1026552e-05 1620:0.00036878366 1621:2.1026552e-05 1622:0.00011350653 1623:5.9653223e-05 1624:1.4056699e-05 1625:2.1026552e-05 1626:2.1026552e-05 1627:4.2053103e-05 1628:0.00047309743 1629:0.0004597427 1630:0.0036024097 1631:0.0050666635 1632:0.00088736066 1633:0.00075068796 1634:7.0868473e-06 1635:3.1656822e-05 1636:0.00066245341 1637:0.00068725739 1638:0.00077112956 1639:6.3079657e-05 1640:4.2053103e-05 1641:2.8113398e-05 1642:0.00012981973 1643:6.0004208e-05 1644:0.0013448469 1645:-0.00063935446 1646:0.00038140279 1647:0.0001179859 1648:0.00054042245 1649:0.00038260638 1650:0.00014718587 1651:-3.1305837e-05 1652:7.0868473e-06 1653:0.00042454244 1654:2.1026552e-05 1655:1.7600123e-05 1656:3.1539828e-05 1657:2.1026552e-05 1658:2.1026552e-05 1659:1.4056699e-05 1660:0.00018592953 1661:0.0043203873 1662:3.1539828e-05 1663:2.1026552e-05 1664:2.1026552e-05 1665:0.0001790767 1666:9.4736482e-05 1667:4.9256945e-05 1668:1.4056699e-05 1669:5.9653223e-05 1670:6.3079657e-05 1671:2.1026552e-05 1672:7.2038424e-06 1673:0.0041133147 1674:4.2053103e-05 1675:0.00014115198 1676:-3.1924399e-06 1677:0.0015304255 1678:0.00021758635 1679:0.0003715081 1680:0.0003612288 1681:0.00023152606 1682:0.00024616774 1683:0.00029437174 1684:6.6623077e-05 1685:0.00039736502 1686:2.1143549e-05 1687:3.1539828e-05 1688:0.0013258093 1689:0.0015578368 1690:0.00025266962 1691:0.00031929268 1692:7.4144336e-05 1693:4.275508e-05 1694:0.00074749556 1695:0.00028678327 1696:0.0002756851 1697:6.4483575e-05 1698:3.5434236e-06 1699:2.1026552e-05 1700:2.1026552e-05 1701:2.1026552e-05 1702:-1.0162288e-05 1703:0.0042910543 1704:-0.00058526715 1705:0.00065641955 1706:2.1026552e-05 1707:0.00065050262 1708:0.00025679803 1709:0.0001344161 1710:2.1026552e-05 1711:0.00048727109 1712:0.0017107056 1713:0.0021389248 1714:0.00028066602 1715:0.0017781476 1716:0.0012501603 1717:0.00070509152 1718:0.0029020987 1719:0.00070848438 1720:5.6109802e-05 1721:4.2053103e-05 1722:9.4619485e-05 1723:8.4106206e-05 1724:0.00013324615 1725:0.00090114982 1726:3.8743674e-05 1727:0.00051927892 1728:0.00011257059 1729:0.0013013561 1730:8.7766632e-05 1731:4.5596527e-05 1732:0.00010346124 1733:8.4106206e-05 1734:2.1026552e-05 1735:6.6623077e-05 1736:3.1539828e-05 1737:4.2404085e-05 1738:0.00069120148 1739:-3.3679324e-05 1740:3.1539828e-05 1741:0.00095456862 1742:0.00013760856 1743:7.0166505e-05 1744:2.4569976e-05 1745:4.5596527e-05 1746:6.6740075e-05 1747:6.3079657e-05 1748:0.00051219208 1749:2.1026552e-05 1750:8.0679783e-05 1751:2.1026552e-05 1752:0.00043493873 1753:0.00014375943 1754:0.0023151436 1755:-0.0028622032 1756:0.0016839289 1757:0.00011564604 1758:0.00012639331 1759:3.5434236e-06 1760:-1.4374938e-06 1761:6.6623077e-05 1762:5.977022e-05 1763:0.0034978122 1764:0.00011588002 1765:0.002542391 1766:0.0019305148 1767:0.0007941114 1768:7.725336e-05 1769:0.0011183517 1770:0.00011611402 1771:0.00010867619 1772:0.0001631145 1773:0.00018935598 1774:0.00038272334 1775:0.00023187706 1776:2.1026552e-05 1777:0.00021380893 1778:0.0011116829 1779:0.00093011564 1780:3.1539828e-05 1781:0.00029826612 1782:0.00018604654 1783:3.1539828e-05 1784:8.1030768e-05 1785:3.1539828e-05 1786:0.00033358339 1787:8.4457199e-05 1788:0.00021404294 1789:4.9139951e-05 1790:0.00098209712 1791:0.000136054 1792:0.00080644677 1793:2.6908504e-06 1794:0.00030227756 1795:0.001545652 1796:0.0011618757 1797:0.00087743229 1798:6.3079657e-05 1799:2.8230392e-05 1800:3.1539828e-05 1801:2.1026552e-05 1802:0.00011303859 1803:0.00033370036 1804:2.1026552e-05 1805:3.1539828e-05 1806:2.1026552e-05 1807:3.5083252e-05 1808:2.1026552e-05 1809:8.4106206e-05 1810:0.00026649231 1811:8.4106206e-05 1812:3.5434236e-06 1813:6.6623077e-05 1814:0.001917277 1815:1.9940066e-05 1816:3.3896045e-05 1817:3.5083252e-05 1818:0.0001549747 1819:0.0020848373 1820:0.00045181971 1821:0.00062441168 1822:0.00041461416 1823:4.2404085e-05 1824:7.0400492e-05 1825:0.00011280459 1826:0.00023919788 1827:0.00010513276 1828:0.00019289939 1829:0.00028479443 1830:0.00013667259 1831:0.0018109742 1832:0.00011918946 1833:1.4173695e-05 1834:0.00033724381 1835:5.2683372e-05 1836:0.00040207838 1837:2.8230392e-05 1838:0.00015072929 1839:0.00011280459 1840:0.002418722 1841:9.4853473e-05 1842:4.2053103e-05 1843:1.1699433e-07 1844:-0.00076345855 1845:0.0011439247 1846:0.00094238389 1847:0.00011977445 1848:1.343815e-05 1849:0.00014457841 1850:6.3079657e-05 1851:8.7649634e-05 1852:0.00065026863 1853:3.1539828e-05 1854:0.00089962874 1855:3.1656822e-05 1856:4.2521086e-05 1857:1.7717119e-05 1858:0.00013017072 1859:-9.3683535e-05 1860:0.0011828686 1861:0.00057761156 1862:0.00080454128 1863:0.00087494188 1864:0.00016844641 1865:0.00013294494 1866:0.00051939592 1867:6.0238202e-05 1868:0.0020473308 1869:1.7600123e-05 1870:0.00095694209 1871:0.0050651091 1872:0.00056865287 1873:0.0024383445 1874:-4.750201e-05 1875:3.1539828e-05 1876:-2.4102001e-05 1877:5.9653223e-05 1878:3.1539828e-05 1879:6.3079657e-05 1880:0.00010879317 1881:5.977022e-05 1882:3.5200246e-05 1883:3.1539828e-05 1884:2.1026552e-05 1885:7.3592935e-05 1886:0.00016821241 1887:0.001734774 1888:0.0002106165 1889:5.2566378e-05 1890:0.00010513276 1891:-1.0396282e-05 1892:0.0015074098 1893:6.3079657e-05 1894:3.1539828e-05 1895:0.00047294679 1896:0.00029893455 1897:0.00045511275 1898:0.00070575986 1899:0.0049292715 1900:0.00041107074 1901:0.0039126598 1902:0.00052601477 1903:-2.4837565e-05 1904:-0.00023319757 1905:4.2888336e-05 1906:2.1026552e-05 1907:2.1026552e-05 1908:2.1026552e-05 1909:0.00033323243 1910:0.00010879317 1911:0.00016478599 1912:8.4106206e-05 1913:3.1539828e-05 1914:0.00058212457 1915:2.8113398e-05 1916:0.00023140907 1917:2.4920962e-05 1918:0.00041367818 1919:5.2683372e-05 1920:0.00041367818 1921:-1.0162288e-05 1922:3.5083252e-05 1923:0.00046967101 1924:0.00014718587 1925:0.00033346639 1926:0.00025231863 1927:3.1539828e-05 1928:5.2566378e-05 1929:3.1539828e-05 1930:2.1026552e-05 1931:8.4106206e-05 1932:5.2566378e-05 1933:5.2566378e-05 1934:3.1539828e-05 1935:0.00032057968 1936:0.00034538363 1937:0.0006645259 1938:-0.00062208925 1939:-0.00088022393 1940:9.4619485e-05 1941:4.2053103e-05 1942:0.00019761275 1943:3.5434236e-06 1944:0.00060751353 1945:2.1026552e-05 1946:0.00013028771 1947:1.0630271e-05 1948:-1.7366134e-05 1949:3.5434236e-06 1950:0.0043701781 1951:0.0017140149 1952:1.4056699e-05 1953:3.5434236e-06 1954:0.0027302594 1955:0.0016582387 1956:0.00057172828 1957:0.00060042663 1958:0.00040020645 1959:4.2053103e-05 1960:3.1539828e-05 1961:0.0010415163 1962:2.1026552e-05 1963:-3.3094329e-06 1964:0.00040079144 1965:3.1539828e-05 1966:3.5083252e-05 1967:0.00030558699 1968:0.00056674739 1969:6.3079657e-05 1970:7.7136363e-05 1971:0.0015527725 1972:2.8230392e-05 1973:0.00011576303 1974:0.00097808568 1975:0.00020364665 1976:0.0023582163 1977:5.0075923e-05 1978:0.00012111129 1979:0.0011899892 1980:2.1026552e-05 1981:-3.4732268e-05 1982:0.0012815332 1983:0.00012970273 1984:0.00010606871 1985:0.00010879317 1986:0.00016490299 1987:0.00012993673 1988:8.7649634e-05 1989:7.3709925e-05 1990:0.00012284987 1991:0.00010170634 1992:0.00087057939 1993:0.0012010874 1994:3.7774103e-06 1995:3.1656822e-05 1996:2.1026552e-05 1997:0.000305002 1998:0.00012639331 1999:0.00027026975 2000:2.4569976e-05 2001:-0.00023249559 2002:0.00012012543 2003:7.725336e-05 2004:0.0003893422 2005:2.1026552e-05 2006:0.00077856734 2007:2.1026552e-05 2008:3.2124812e-05 2009:2.1026552e-05 2010:2.1026552e-05 2011:3.1539828e-05 2012:0.0002492432 2013:0.00037256107 2014:0.0012766357 2015:4.2053103e-05 2016:0.00022786563 2017:0.00010194032 2018:0.00015096329 2019:4.9256945e-05 2020:-0.00032888725 2021:0.0012113653 2022:3.1539828e-05 2023:0.0011120338 2024:3.1539828e-05 2025:0.0014978326 2026:0.00010217432 2027:1.7600123e-05 2028:6.6623077e-05 2029:0.00038568178 2030:4.2287098e-05 2031:3.5083252e-05 2032:6.3547632e-05 2033:0.00014387643 2034:9.8162913e-05 2035:7.7136363e-05 2036:3.1539828e-05 2037:2.1026552e-05 2038:7.737035e-05 2039:0.00015084629 2040:0.0013004201 2041:2.1026552e-05 2042:3.5434236e-06 2043:0.00010879317 2044:2.1026552e-05 2045:8.7649634e-05 2046:5.6109802e-05 2047:2.1143549e-05 2048:2.1026552e-05 2049:0.0011399132 2050:0.00024569975 2051:0.00041200666 2052:1.1098243e-05 2053:3.5434236e-06 2054:4.2053103e-05 2055:0.0003880217 2056:0.00241222 2057:-2.0441576e-05 2058:1.4056699e-05 2059:0.00039678006 2060:-4.3490621e-05 2061:0.00098871603 2062:0.0023242529 2063:2.1026552e-05 2064:2.1026552e-05 2065:2.1026552e-05 2066:0.00012993673 2067:0.00032093065 2068:0.00037704041 2069:3.1539828e-05 2070:0.00075135642 2071:0.00024180536 2072:4.2053103e-05 2073:2.1026552e-05 2074:2.1026552e-05 2075:8.0679783e-05 2076:0.00022124678 2077:2.1026552e-05 2078:1.0630271e-05 2079:0.00019632583 2080:0.00012273289 2081:0.0022780716 2082:0.00059618131 2083:0.0056882501 2084:-2.0792564e-05 2085:0.00046527499 2086:0.00012744627 2087:0.00048715418 2088:0.0013820695 2089:0.00061093993 2090:9.8162913e-05 2091:0.00021026551 2092:0.00021143546 2093:0.0024008879 2094:3.1539828e-05 2095:0.00032945498 2096:-0.0004209156 2097:2.1026552e-05 2098:0.0020436705 2099:0.00016124257 2100:4.2053103e-05 2101:0.0035131557 2102:9.2012036e-05 2103:0.00023694139 2104:0.00038981021 2105:4.2170101e-05 2106:5.2566378e-05 2107:6.3079657e-05 2108:0.00032591156 2109:3.1539828e-05 2110:3.5083252e-05 2111:3.1656822e-05 2112:4.2053103e-05 2113:3.5083252e-05 2114:0.00011954044 2115:2.1026552e-05 2116:2.1026552e-05 2117:-0.0010086397 2118:0.00011303859 2119:0.00050709414 2120:0.00044202557 2121:3.5200246e-05 2122:-5.9068254e-05 2123:0.00021404294 2124:2.1026552e-05 2125:3.1539828e-05 2126:2.1026552e-05 2127:1.0630271e-05 2128:0.00012024241 2129:-4.4192584e-05 2130:0.00084122899 2131:2.4569976e-05 2132:0.00023152606 2133:-0.00035335659 2134:6.5068576e-05 2135:0.00029094532 2136:-4.5128549e-05 2137:-1.3822711e-05 2138:0.00082580186 2139:5.3034357e-05 2140:0.00028514542 2141:-2.0324576e-05 2142:0.0010423353 2143:0.00047025597 2144:1.4056699e-05 2145:2.4569976e-05 2146:1.0981244e-05 2147:3.5434236e-06 2148:-1.0396282e-05 2149:0.00016832942 2150:3.1539828e-05 2151:0.00014788785 2152:0.0011896382 2153:3.862668e-05 2154:0.00050070934 2155:0.00043883314 2156:0.00029542466 2157:3.5434236e-06 2158:0.0028884425 2159:3.531724e-05 2160:2.1611533e-05 2161:3.5083252e-05 2162:5.5323262e-06 2163:0.00024569975 2164:0.0010887173 2165:3.5434236e-06 2166:9.4736482e-05 2167:0.00014056699 2168:6.3196654e-05 2169:0.00061837782 2170:0.00062511367 2171:0.00012627631 2172:2.3398866e-07 2173:4.2053103e-05 2174:8.0679783e-05 2175:2.8113398e-05 2176:-1.7366134e-05 2177:-2.0792564e-05 2178:4.9139951e-05 2179:3.5083252e-05 2180:2.1026552e-05 2181:3.5083252e-05 2182:7.3592935e-05 2183:0.0056713363 2184:0.00053590955 2185:0.0020535649 2186:2.4569976e-05 2187:0.00014434442 2188:5.2683372e-05 2189:0.0004494634 2190:0.0010620414 2191:0.00014820528 2192:2.8113398e-05 2193:0.0021806106 2194:0.00075528439 2195:1.1699433e-07 2196:7.0166505e-05 2197:0.00021380893 2198:0.00052566378 2199:2.1026552e-05 2200:6.3079657e-05 2201:0.00011588002 2202:4.2053103e-05 2203:3.5083252e-05 2204:3.5434236e-06 2205:4.5596527e-05 2206:3.1539828e-05 2207:3.5434236e-06 2208:4.2170101e-05 2209:3.6604172e-06 2210:3.5098438e-07 2211:5.977022e-05 2212:1.1699433e-07 2213:0.0002770056 2214:0.00021026551 2215:9.1427049e-05 2216:3.8743674e-05 2217:7.3592935e-05 2218:3.5434236e-06 2219:0.0013812506 2220:1.7600123e-05 2221:6.6740075e-05 2222:0.00015166524 2223:6.3079657e-05 2224:2.8113398e-05 2225:3.5098438e-07 2226:5.2800369e-05 2227:0.00085274526 2228:0.00029885108 2229:-7.1838003e-05 2230:0.00081916573 2231:0.0011566608 2232:0.0017110566 2233:3.6604172e-06 2234:5.2566378e-05 2235:1.0630271e-05 2236:2.1026552e-05 2237:2.4569976e-05 2238:4.2053103e-05 2239:-5.1513423e-05 2240:2.8230392e-05 2241:2.4569976e-05 2242:0.00015805011 2243:0.00063076295 2244:5.2566378e-05 2245:0.0002488922 2246:-6.0973758e-05 2247:7.7136363e-05 2248:0.00034717211 2249:0.00039300259 2250:0.00012320088 2251:-1.8920653e-05 2252:0.00043891661 2253:0.00018367302 2254:0.0007030018 2255:5.9268616e-05 2256:7.3709925e-05 2257:0.0021336598 2258:7.0868473e-06 2259:7.2038424e-06 2260:0.00096792332 2261:4.5830522e-05 2262:0.0016691205 2263:0.00010524976 2264:3.1539828e-05 2265:0.00010937814 2266:4.287206e-05 2267:0.00020742406 2268:7.3592935e-05 2269:3.6136222e-05 2270:4.2053103e-05 2271:6.6623077e-05 2272:2.1026552e-05 2273:0.00010926116 2274:0.00019975225 2275:3.1539828e-05 2276:0.0021632609 2277:0.00030734186 2278:2.1026552e-05 2279:0.00018923897 2280:0.0029835973 2281:0.00084706239 2282:0.00039581055 2283:0.0002490092 2284:2.1026552e-05 2285:4.9490933e-05 2286:0.00028798686 2287:0.00019975225 2288:0.00011918946 2289:9.8162913e-05 2290:0.0018017144 2291:0.00014375943 2292:-3.4264281e-06 2293:0.00017919368 2294:2.1026552e-05 2295:0.00027357918 2296:0.00033724381 2297:2.1026552e-05 2298:0.00019655981 2299:7.0283495e-05 2300:0.00013359713 2301:7.3592935e-05 2302:4.2053103e-05 2303:2.1026552e-05 2304:0.00017705417 2305:2.1026552e-05 2306:-4.5011551e-05 2307:0.00066561234 2308:0.00065015157 2309:2.1026552e-05 2310:2.1026552e-05 2311:2.1026552e-05 2312:3.1539828e-05 2313:2.1026552e-05 2314:2.1026552e-05 2315:2.1143549e-05 2316:2.1026552e-05 2317:2.1026552e-05 2318:2.1026552e-05 2319:-2.0675569e-05 2320:2.1026552e-05 2321:2.1026552e-05 2322:3.1539828e-05 2323:6.3079657e-05 2324:8.1264749e-05 2325:0.00012993673 2326:4.5596527e-05 2327:2.1026552e-05 2328:2.1026552e-05 2329:0.00068702339 2330:7.0868473e-06 2331:0.00013702357 2332:-1.2535763e-05 2333:-0.00011377413 2334:0.00031894172 2335:0.0041459072 2336:0.00019632583 2337:0.00033358339 2338:4.9139951e-05 2339:3.1539828e-05 2340:8.7883622e-05 2341:7.3592935e-05 2342:7.3709925e-05 2343:3.1539828e-05 2344:8.0679783e-05 2345:5.3385349e-05 2346:-3.4264281e-06 2347:-6.9113543e-05 2348:0.00051336206 2349:3.1539828e-05 2350:0.00018923897 2351:3.7774103e-06 2352:-8.8385168e-05 2353:0.00049113197 2354:-0.0027005924 2355:0.00014375943 2356:-1.9271638e-05 2357:0.00021073349 2358:9.4736482e-05 2359:3.5083252e-05 2360:1.8068111e-05 2361:0.00027015273 2362:0.00022136376 2363:4.5713525e-05 2364:0.00017799015 2365:-0.00025056369 2366:3.5434236e-06 2367:1.4056699e-05 2368:3.5434236e-06 2369:0.00024262433 2370:2.4686969e-05 2371:3.2241787e-05 2372:2.1026552e-05 2373:0.0009094401 2374:2.4920962e-05 2375:4.2053103e-05 2376:2.1026552e-05 2377:7.3592935e-05 2378:-6.2678814e-06 2379:1.1917233e-05 2380:0.00017210681 2381:-3.3094329e-06 2382:3.1539828e-05 2383:2.1026552e-05 2384:0.0011434566 2385:0.00034125519 2386:0.001428485 2387:0.0002845604 2388:0.00067709514 2389:0.00053321867 2390:7.7136363e-05 2391:2.1026552e-05 2392:3.1539828e-05 2393:0.00012993673 2394:0.00027439816 2395:0.00053652807 2396:9.8162913e-05 2397:0.00023542048 2398:0.0012751484 2399:0.00050569017 2400:0.00015828412 2401:0.00025383953 2402:6.6740075e-05 2403:0.00015427273 2404:2.4920962e-05 2405:0.00016856341 2406:0.00032591156 2407:0.00052387529 2408:9.8162913e-05 2409:3.1539828e-05 2410:3.5083252e-05 2411:0.00034822506 2412:0.00012530677 2413:-0.00032360526 2414:-0.00069339195 2415:-0.00013966463 2416:-0.00011354015 2417:-0.00055996166 2418:2.1026552e-05 2419:0.00017872571 2420:0.0001022913 2421:-2.7645423e-05 2422:-2.7411425e-05 2423:2.1026552e-05 2424:3.0804284e-05 2425:2.4686969e-05 2426:0.00017931066 2427:9.1193055e-05 2428:0.00094235019 2429:0.00029967009 2430:0.00043089379 2431:4.3808042e-05 2432:0.0002585529 2433:0.00017351074 2434:4.2053103e-05 2435:4.9256945e-05 2436:0.00011989143 2437:-2.0441576e-05 2438:0.0001450464 2439:7.0868473e-06 2440:0.00025500948 2441:1.7600123e-05 2442:8.1147766e-05 2443:2.1026552e-05 2444:5.6226796e-05 2445:3.5434236e-06 2446:0.00010618573 2447:0.00071583869 2448:0.00079680228 2449:0.00071015581 2450:0.00023495249 2451:3.1539828e-05 2452:0.00078187679 2453:0.00066716678 2454:0.00011658201 2455:4.2053103e-05 2456:3.6604172e-06 2457:3.5083252e-05 2458:-9.4939278e-06 2459:0.00022455621 2460:7.7136363e-05 2461:3.1539828e-05 2462:3.1539828e-05 2463:0.0001122196 2464:0.00015072929 2465:2.1026552e-05 2466:0.00039335364 2467:3.1656822e-05 2468:0.0004244255 2469:7.0868473e-06 2470:5.9653223e-05 2471:8.5042171e-05 2472:-0.00043345138 2473:4.5596527e-05 2474:0.00014375943 2475:2.8347389e-05 2476:0.00015435611 2477:-3.4264281e-06 2478:0.00032957198 2479:7.0868473e-06 2480:7.9058163e-06 2481:0.00090208562 2482:5.2566378e-05 2483:3.5434236e-06 2484:0.0011233661 2485:2.5037962e-05 2486:0.00012059342 2487:-6.8177615e-05 2488:0.00010606871 2489:0.00011611402 2490:0.0015157837 2491:0.001244578 2492:0.00089289289 2493:5.2683372e-05 2494:3.5434236e-06 2495:-3.4264281e-06 2496:1.4290692e-05 2497:3.2358792e-05 2498:1.452469e-05 2499:0.00028066602 2500:0.00022798264 2501:-2.0675569e-05 2502:-1.0396282e-05 2503:0.0004318633 2504:1.7600123e-05 2505:2.1026552e-05 2506:7.3592935e-05 2507:0.00023861289 2508:2.1026552e-05 2509:0.00017541625 2510:0.00022786563 2511:3.1539828e-05 2512:3.1539828e-05 2513:0.00015649565 2514:0.0022813301 2515:0.00011624725 2516:4.9139951e-05 2517:0.0028638565 2518:0.00084565848 2519:2.1026552e-05 2520:0.00045584829 2521:0.00058824185 2522:5.6109802e-05 2523:0.00065665349 2524:0.00042076505 2525:0.00033642483 2526:0.00045207088 2527:0.00018226913 2528:5.2566378e-05 2529:6.3079657e-05 2530:4.2170101e-05 2531:0.00010182332 2532:8.4457199e-05 2533:5.2566378e-05 2534:4.5596527e-05 2535:9.4619485e-05 2536:7.3592935e-05 2537:0.002250192 2538:5.2566378e-05 2539:0.00069741963 2540:9.4619485e-05 2541:5.2566378e-05 2542:0.0017203663 2543:0.00049766741 2544:2.1026552e-05 2545:6.3079657e-05 2546:3.1539828e-05 2547:3.1539828e-05 2548:4.2053103e-05 2549:8.4457199e-05 2550:4.1283924e-06 2551:3.1539828e-05 2552:6.6623077e-05 2553:3.862668e-05 2554:3.5434236e-06 2555:5.6310248e-05 2556:0.00031773819 2557:8.1498743e-05 2558:-4.8671969e-05 2559:0.00028078302 2560:1.7600123e-05 2561:0.00040776128 2562:0.00012284987 2563:0.00079193851 2564:7.0868473e-06 2565:8.4106206e-05 2566:0.00042972385 2567:4.9139951e-05 2568:0.00036866666 2569:0.0013649375 2570:4.2404085e-05 2571:-0.00013219321 2572:0.00011564604 2573:0.00030944787 2574:-2.7762411e-05 2575:0.00010513276 2576:7.7136363e-05 2577:0.00096859172 2578:7.725336e-05 2579:-3.0954849e-05 2580:3.8743674e-05 2581:-8.8736189e-05 2582:0.00056425692 2583:0.00098833139 2584:1.7600123e-05 2585:3.5434236e-06 2586:5.9653223e-05 2587:0.00072526553 2588:0.00016856341 2589:0.0002387299 2590:0.0013547416 2591:3.1539828e-05 2592:0.00075217534 2593:0.0010857924 2594:0.0035017063 2595:7.0400492e-05 2596:-4.1585128e-05 2597:7.0868473e-06 2598:3.5434236e-06 2599:3.1539828e-05 2600:0.00034705509 2601:1.4290692e-05 2602:-0.00029829971 2603:-7.1954979e-05 2604:0.00031243984 2605:0.0021281277 2606:0.00097925565 2607:0.00017187283 2608:1.4056699e-05 2609:4.0030623e-05 2610:5.2566378e-05 2611:2.1026552e-05 2612:0.00066089886 2613:7.3592935e-05 2614:4.2053103e-05 2615:4.2053103e-05 2616:0.00071724266 2617:2.1026552e-05 2618:0.00021038252 2619:0.00039619507 2620:3.1539828e-05 2621:-2.3784552e-05 2622:0.00054018846 2623:0.00066977425 2624:0.00015813358 2625:0.00018663151 2626:0.00058224163 2627:0.00033654182 2628:3.531724e-05 2629:3.1539828e-05 2630:3.1539828e-05 2631:3.1539828e-05 2632:0.00011564604 2633:3.1539828e-05 2634:5.6109802e-05 2635:4.2053103e-05 2636:-2.0675569e-05 2637:0.00017884269 2638:5.6226796e-05 2639:0.00029106229 2640:0.00032957198 2641:0.00039619507 2642:4.2053103e-05 2643:3.1539828e-05 2644:6.3079657e-05 2645:7.3943927e-05 2646:3.5083252e-05 2647:1.4173695e-05 2648:3.1539828e-05 2649:3.1539828e-05 2650:3.1539828e-05 2651:0.00014387643 2652:-0.00086016697 2653:2.1026552e-05 2654:3.1539828e-05 2655:2.1026552e-05 2656:0.00022089577 2657:0.0017183775 2658:0.00015781615 2659:0.00067674409 2660:0.00025940547 2661:0.00021380893 2662:7.3592935e-05 2663:7.0868473e-06 2664:2.1026552e-05 2665:2.1026552e-05 2666:2.1026552e-05 2667:0.00052718475 2668:0.00096932735 2669:0.00045253886 2670:0.00074371812 2671:0.00095694209 2672:2.1026552e-05 2673:3.5434236e-06 2674:2.1026552e-05 2675:0.00021155248 2676:1.7600123e-05 2677:-4.3841621e-05 2678:-0.00028805397 2679:-6.7358624e-06 2680:4.2404085e-05 2681:-1.7366134e-05 2682:-2.7645423e-05 2683:3.5551235e-05 2684:1.7717119e-05 2685:2.9049379e-05 2686:4.3623936e-06 2687:3.5434236e-06 2688:3.5434236e-06 2689:-2.4837565e-05 2690:-0.00080417411 2691:0.00011588002 2692:-0.00055648538 2693:0.0012940353 2694:0.00011918946 2695:0.00040328191 2696:1.4491133e-05 2697:5.6109802e-05 2698:0.00030227756 2699:6.3079657e-05 2700:-0.00016247967 2701:6.3781627e-05 2702:-3.8275692e-05 2703:3.5083252e-05 2704:4.2053103e-05 2705:6.0004208e-05 2706:0.00013690659 2707:6.3079657e-05 2708:4.2053103e-05 2709:7.4378272e-06 2710:2.1026552e-05 2711:0.00013737456 2712:0.00028479443 2713:-1.6931743e-05 2714:0.00014741985 2715:0.00011218603 2716:1.4056699e-05 2717:-6.7358624e-06 2718:-9.3332528e-05 2719:0.00016560496 2720:5.2566378e-05 2721:2.1026552e-05 2722:0.00028822082 2723:3.1539828e-05 2724:0.0024304388 2725:0.00073982374 2726:-0.00055738777 2727:0.00082357897 2728:0.00026294892 2729:0.00042263692 2730:0.00022786563 2731:0.0008871266 2732:0.00034693812 2733:0.00016124257 2734:0.00017872571 2735:5.2566378e-05 2736:0.00012615931 2737:0.0001828541 2738:-0.00035016413 2739:-8.6947672e-05 2740:0.00018923897 2741:0.00059925672 2742:0.00012615931 2743:0.00021521286 2744:0.00016525399 2745:0.00059949077 2746:0.00030842843 2747:0.00043505576 2748:0.00025609604 2749:0.00015769915 2750:0.00018923897 2751:0.00028043202 2752:0.00029094532 2753:0.00022077879 2754:0.00021026551 2755:0.00016241251 2756:9.4853473e-05 2757:0.00014375943 2758:2.1026552e-05 2759:3.5083252e-05 2760:4.5596527e-05 2761:3.5434236e-06 2762:0.00063823443 2763:3.5434236e-06 2764:0.00010536674 2765:0.00074380159 2766:5.6109802e-05 2767:1.7717119e-05 2768:1.4491133e-05 2769:5.2566378e-05 2770:5.2917359e-05 2771:-7.0369779e-06 2772:0.0035899072 2773:0.00046682954 2774:0.00018604654 2775:4.2053103e-05 2776:3.1539828e-05 2777:1.4173695e-05 2778:0.00018628054 2779:3.8743674e-05 2780:-0.00014235551 2781:0.00010513276 2782:3.1539828e-05 2783:0.00010524976 2784:4.5596527e-05 2785:0.00021392593 2786:0.00011564604 2787:0.00032260214 2788:0.00019383537 2789:0.00042465946 2790:0.00011576303 2791:0.00028838782 2792:4.9139951e-05 2793:0.0040157866 2794:0.00018226913 2795:6.6740075e-05 2796:0.00011564604 2797:0.00015781615 2798:1.0630271e-05 2799:3.1539828e-05 2800:5.2566378e-05 2801:3.1539828e-05 2802:3.1539828e-05 2803:3.1539828e-05 2804:3.1539828e-05 2805:3.1539828e-05 2806:3.1539828e-05 2807:3.1539828e-05 2808:3.1539828e-05 2809:3.1539828e-05 2810:3.1539828e-05 2811:3.1539828e-05 2812:3.1539828e-05 2813:3.1539828e-05 2814:3.1539828e-05 2815:3.1539828e-05 2816:7.3592935e-05 2817:8.4457199e-05 2818:0.00033334942 2819:9.1895017e-05 2820:0.00046609397 2821:5.2566378e-05 2822:-0.00030460127 2823:4.2053103e-05 2824:0.00042465946 2825:0.00096235744 2826:0.00049845275 2827:4.2053103e-05 2828:2.4803967e-05 2829:0.00031999464 2830:2.1026552e-05 2831:3.1539828e-05 2832:4.5596527e-05 2833:1.7600123e-05 2834:2.1026552e-05 2835:0.0001689144 2836:0.0008375686 2837:2.4569976e-05 2838:-7.4094452e-05 2839:0.00036146279 2840:0.00010867619 2841:7.7721328e-05 2842:-1.7249136e-05 2843:2.1026552e-05 2844:0.00012966912 2845:2.2313503e-05 2846:9.9098885e-05 2847:4.2170101e-05 2848:2.1026552e-05 2849:3.5434236e-06 2850:2.1494539e-05 2851:2.4569976e-05 2852:3.1539828e-05 2853:3.1539828e-05 2854:3.5434236e-06 2855:0.00012970273 2856:-3.2626365e-05 2857:0.00051110558 2858:2.137754e-05 2859:0.0019008132 2860:-4.8204001e-05 2861:2.1026552e-05 2862:1.7600123e-05 2863:-7.242299e-05 2864:5.2800369e-05 2865:8.0679783e-05 2866:1.4056699e-05 2867:3.1539828e-05 2868:2.8347389e-05 2869:-1.7366134e-05 2870:-5.2098403e-05 2871:1.7600123e-05 2872:3.1656822e-05 2873:3.5434236e-06 2874:0.00013429913 2875:1.8653063e-05 2876:0.00012284987 2877:6.6740075e-05 2878:2.1026552e-05 2879:0.0012108987 2880:3.5083252e-05 2881:0.0015444148 2882:7.9058163e-06 2883:0.00063858536 2884:3.1539828e-05 2885:0.0010203392 2886:3.2475782e-05 2887:0.00011576303 2888:0.00018402407 2889:3.1539828e-05 2890:3.862668e-05 2891:0.00034456467 2892:0.00016560496 2893:9.1193055e-05 2894:0.000305002 2895:2.1026552e-05 2896:3.1539828e-05 2897:0.00014718587 2898:2.4569976e-05 2899:-9.9283025e-06 2900:4.2053103e-05 2901:3.1539828e-05 2902:3.1539828e-05 2903:0.0029275378 2904:0.0019933607 2905:2.1143549e-05 2906:7.7604345e-05 2907:0.00017198984 2908:0.00010194032 2909:3.1539828e-05 2910:2.8113398e-05 2911:0.00030866242 2912:0.00035768538 2913:5.2683372e-05 2914:0.00010287627 2915:5.9653223e-05 2916:5.6109802e-05 2917:0.0011584493 2918:0.0013797795 2919:0.0012540047 2920:0.00081279816 2921:-6.6188659e-06 2922:3.5434236e-06 2923:0.00013678959 2924:0.0002770056 2925:6.6623077e-05 2926:9.8279903e-05 2927:9.8279903e-05 2928:0.00011576303 2929:0.00072090304 2930:0.00033015697 2931:5.2683372e-05 2932:2.1026552e-05 2933:2.1143549e-05 2934:1.0630271e-05 2935:5.2566378e-05 2936:3.1539828e-05 2937:7.725336e-05 2938:3.5434236e-06 2939:3.1539828e-05 2940:0.00019998624 2941:0.00091298355 2942:-4.8204001e-05 2943:0.0037450662 2944:0.00011292157 2945:0.00057869818 2946:6.3079657e-05 2947:3.5434236e-06 2948:4.2170101e-05 2949:0.00010879317 2950:0.00067059323 2951:0.00010867619 2952:0.00012627631 2953:2.1026552e-05 2954:-3.3094329e-06 2955:0.00027735659 2956:7.3592935e-05 2957:2.4569976e-05 2958:4.2053103e-05 2959:-3.4498273e-05 2960:3.5434236e-06 2961:3.1539828e-05 2962:0.0002488922 2963:0.00070462347 2964:5.2566378e-05 2965:2.1026552e-05 2966:6.3196654e-05 2967:2.1026552e-05 2968:4.2053103e-05 2969:0.00052481121 2970:2.4920962e-05 2971:0.0010626263 2972:0.00053072826 2973:4.2053103e-05 2974:0.00013336315 2975:0.00020707308 2976:1.4056699e-05 2977:-0.0002183219 2978:3.862668e-05 2979:0.00011576303 2980:9.497047e-05 2981:2.1026552e-05 2982:6.3079657e-05 2983:8.0679783e-05 2984:2.4686969e-05 2985:5.6226796e-05 2986:0.00043116132 2987:2.1026552e-05 2988:5.2566378e-05 2989:4.2053103e-05 2990:5.2566378e-05 2991:2.1026552e-05 2992:4.2053103e-05 2993:6.6974055e-05 2994:2.1026552e-05 2995:2.1026552e-05 2996:3.1539828e-05 2997:2.1026552e-05 2998:7.0283495e-05 2999:1.0630271e-05 3000:0.00027342865 3001:0.00034760649 3002:3.5083252e-05 3003:3.5434236e-06 3004:3.5083252e-05 3005:9.4619485e-05 3006:0.00029106229 3007:0.00045962571 3008:4.2053103e-05 3009:-0.00055200589 3010:4.9139951e-05 3011:0.00016478599 3012:0.00016821241 3013:8.7649634e-05 3014:0.00040351594 3015:0.0003509495 3016:0.00092349685 3017:0.0026138779 3018:0.00035768538 3019:4.2053103e-05 3020:0.00010513276 3021:0.0001728088 3022:6.6740075e-05 3023:0.00045207088 3024:2.1026552e-05 3025:0.00033996825 3026:0.00029211526 3027:5.9653223e-05 3028:6.3079657e-05 3029:0.00027805858 3030:2.4569976e-05 3031:8.0796781e-05 3032:0.00092334615 3033:0.0010367185 3034:0.00019064294 3035:0.00099767477 3036:0.00018639752 3037:0.00039288565 3038:2.8113398e-05 3039:5.6226796e-05 3040:3.5200246e-05 3041:0.00028775286 3042:3.1539828e-05 3043:2.1026552e-05 3044:2.1026552e-05 3045:2.4569976e-05 3046:2.1026552e-05 3047:2.4569976e-05 3048:0.00014021601 3049:4.2170101e-05 3050:0.00058189064 3051:0.00014375943 3052:2.4686969e-05 3053:2.1026552e-05 3054:2.4569976e-05 3055:-3.4264281e-06 3056:0.0009198364 3057:5.2566378e-05 3058:3.8743674e-05 3059:4.5713525e-05 3060:4.9139951e-05 3061:4.5596527e-05 3062:8.4691193e-05 3063:0.0001122196 3064:-3.4264281e-06 3065:3.1539828e-05 3066:0.00063208357 3067:0.00036146279 3068:3.862668e-05 3069:0.00093237206 3070:0.00022833364 3071:4.5596527e-05 3072:0.00039666303 3073:7.0868473e-06 3074:0.00024239032 3075:9.4736482e-05 3076:0.00032945498 3077:0.00084811531 3078:3.1539828e-05 3079:0.00012615931 3080:4.2053103e-05 3081:2.1026552e-05 3082:5.6109802e-05 3083:2.1026552e-05 3084:1.4056699e-05 3085:-0.00023734344 3086:0.00057196233 3087:0.00024959419 3088:0.00016985038 3089:1.8653063e-05 3090:-5.8366273e-05 3091:0.00017386171 3092:4.2053103e-05 3093:0.00032637955 3094:0.00037867841 3095:-0.0007554685 3096:-4.9173505e-05 3097:2.1026552e-05 3098:5.2683372e-05 3099:4.2053103e-05 3100:0.00038638373 3101:0.00017210681 3102:2.1026552e-05 3103:0.0004037499 3104:3.5083252e-05 3105:0.0020046928 3106:3.6604172e-06 3107:0.00077490701 3108:0.00012970273 3109:7.0400492e-05 3110:-2.7645423e-05 3111:-4.6248591e-05 3112:3.5434236e-06 3113:0.00029850015 3114:0.00056001154 3115:1.4056699e-05 3116:0.00040020645 3117:0.00013667259 3118:5.2566378e-05 3119:2.1026552e-05 3120:3.5083252e-05 3121:2.1026552e-05 3122:0.00038260638 3123:0.00016844641 3124:0.00019667682 3125:2.1026552e-05 3126:2.1026552e-05 3127:0.00012639331 3128:2.1026552e-05 3129:0.00060066063 3130:0.0010023047 3131:4.2053103e-05 3132:5.9653223e-05 3133:3.9328639e-05 3134:0.0008759948 3135:-8.6479697e-05 3136:0.00028160197 3137:0.00011942346 3138:0.00016147655 3139:2.1026552e-05 3140:2.1026552e-05 3141:7.3208344e-06 3142:3.5434236e-06 3143:1.4056699e-05 3144:2.4569976e-05 3145:0.00015427273 3146:2.8113398e-05 3147:0.00050981867 3148:0.00040694233 3149:0.0008534473 3150:9.8162913e-05 3151:0.00019975225 3152:0.00021626586 3153:0.0001790767 3154:0.00011257059 3155:0.0026844291 3156:0.0003995045 3157:6.720805e-05 3158:-3.0720854e-05 3159:5.6109802e-05 3160:-0.0005630707 3161:0.0011213435 3162:0.00024947716 3163:2.4686969e-05 3164:0.00011942346 3165:0.00074843154 3166:2.1026552e-05 3167:3.5434236e-06 3168:2.1026552e-05 3169:0.00026660934 3170:0.00022833364 3171:0.00033545532 3172:0.00027829254 3173:2.1026552e-05 3174:7.0868473e-06 3175:6.3079657e-05 3176:0.00011588002 3177:0.00010891017 3178:0.0005273018 3179:0.00037587047 3180:9.1895017e-05 3181:-4.5128549e-05 3182:0.00011280459 3183:0.0006683367 3184:0.00012273289 3185:0.00016926538 3186:0.00022525816 3187:7.7136363e-05 3188:4.2053103e-05 3189:3.5083252e-05 3190:4.2053103e-05 3191:2.1026552e-05 3192:7.2038424e-06 3193:1.4056699e-05 3194:2.1026552e-05 3195:-3.8275692e-05 3196:3.5434236e-06 3197:3.1539828e-05 3198:0.00035106653 3199:8.0679783e-05 3200:9.4619485e-05 3201:4.5596527e-05 3202:0.00064154383 3203:0.001220008 3204:0.002439548 3205:6.3196654e-05 3206:8.0679783e-05 3207:2.9049379e-05 3208:2.1026552e-05 3209:-6.0338843e-06 3210:2.1026552e-05 3211:4.2053103e-05 3212:0.001008422 3213:0.0003995045 3214:3.1539828e-05 3215:3.1539828e-05 3216:2.1026552e-05 3217:2.1026552e-05 3218:2.1026552e-05 3219:2.1026552e-05 3220:3.1539828e-05 3221:2.1026552e-05 3222:2.1026552e-05 3223:2.1026552e-05 3224:2.1026552e-05 3225:2.1026552e-05 3226:2.1026552e-05 3227:2.1026552e-05 3228:2.1026552e-05 3229:2.1026552e-05 3230:2.1026552e-05 3231:2.1026552e-05 3232:3.1539828e-05 3233:4.2053103e-05 3234:0.00012744627 3235:0.00059813663 3236:0.00050557323 3237:0.0013022088 3238:0.00053450558 3239:0.00027015273 3240:0.00030854545 3241:-0.00028517898 3242:-9.0374087e-05 3243:2.1026552e-05 3244:2.8113398e-05 3245:0.00019017493 3246:0.00048478064 3247:0.00010170634 3248:8.7649634e-05 3249:8.7649634e-05 3250:3.1539828e-05 3251:3.5083252e-05 3252:0.00013536841 3253:3.376271e-05 3254:4.2053103e-05 3255:0.00017175585 3256:7.5347882e-05 3257:0.00031006633 3258:0.00055884162 3259:9.1193055e-05 3260:8.0679783e-05 3261:3.5083252e-05 3262:0.00025278662 3263:0.0013080087 3264:0.00024215634 3265:9.4619485e-05 3266:0.0006732007 3267:0.0004113047 3268:-3.4264281e-06 3269:3.8944049e-06 3270:-0.00079922681 3271:8.4691193e-05 3272:5.2566378e-05 3273:3.5434236e-06 3274:2.1026552e-05 3275:8.0679783e-05 3276:3.5200246e-05 3277:-3.3094329e-06 3278:0.00013702357 3279:0.00015072929 3280:5.2566378e-05 3281:0.00064991764 3282:2.1026552e-05 3283:2.4569976e-05 3284:9.8162913e-05 3285:0.0003765389 3286:0.00013678959 3287:2.8698363e-05 3288:0.00048158824 3289:0.00044058808 3290:0.002666678 3291:0.00030546996 3292:0.00013667259 3293:0.00014718587 3294:0.00015072929 3295:0.00011576303 3296:0.00023553746 3297:0.00021038252 3298:0.00012615931 3299:0.00089397951 3300:0.00099627068 3301:0.00014753686 3302:-4.5128549e-05 3303:-1.3003757e-05 3304:7.2038424e-06 3305:-0.00074378529 3306:0.00060763059 3307:0.00013678959 3308:-9.6943131e-06 3309:1.4407685e-05 3310:-0.00096802419 3311:-2.4335985e-05 3312:1.4056699e-05 3313:7.2038424e-06 3314:2.1026552e-05 3315:2.1026552e-05 3316:2.1260543e-05 3317:0.00041909356 3318:2.1026552e-05 3319:6.3079657e-05 3320:9.154404e-05 3321:-4.5245546e-05 3322:0.00012615931 3323:3.8944049e-06 3324:0.00045265586 3325:-3.4264281e-06 3326:7.0166505e-05 3327:0.00030570399 3328:0.00048088623 3329:5.9653223e-05 3330:0.0024385452 3331:0.00016478599 3332:4.6298504e-05 3333:0.0011264239 3334:8.7883622e-05 3335:3.1656822e-05 3336:3.5083252e-05 3337:2.8113398e-05 3338:3.1539828e-05 3339:2.8113398e-05 3340:0.00026294892 3341:0.00032412307 3342:3.5434236e-06 3343:7.0868473e-06 3344:3.5434236e-06 3345:6.6623077e-05 3346:2.4569976e-05 3347:3.1539828e-05 3348:0.00065498205 3349:1.4056699e-05 3350:0.00013324615 3351:0.00029814913 3352:2.4569976e-05 3353:1.557762e-05 3354:0.00011977445 3355:-0.00014258949 3356:3.5083252e-05 3357:0.0014261116 3358:0.00073616341 3359:0.00077525794 3360:0.00087423989 3361:6.6974055e-05 3362:2.4686969e-05 3363:-3.5584777e-05 3364:3.1539828e-05 3365:4.2053103e-05 3366:1.4056699e-05 3367:3.862668e-05 3368:3.2007811e-05 3369:2.8347389e-05 3370:6.3196654e-05 3371:0.0006630384 3372:3.5434236e-06 3373:3.5083252e-05 3374:1.1699433e-07 3375:2.1026552e-05 3376:0.00023328095 3377:8.0913771e-05 3378:0.00031645125 3379:3.4932658e-05 3380:6.3430649e-05 3381:0.0033851243 3382:2.4569976e-05 3383:0.00075376348 3384:9.4736482e-05 3385:0.0001122196 3386:3.1539828e-05 3387:4.2053103e-05 3388:3.5083252e-05 3389:0.00059711724 3390:4.2053103e-05 3391:2.1143549e-05 3392:0.0012281479 3393:0.0005708423 3394:1.4056699e-05 3395:2.1059211e-06 3396:3.1539828e-05 3397:0.00040304789 3398:4.2053103e-05 3399:4.2053103e-05 3400:0.00016206154 3401:4.5596527e-05 3402:2.1026552e-05 3403:4.2053103e-05 3404:0.00085286231 3405:-0.00075515121 3406:2.1026552e-05 3407:2.1026552e-05 3408:0.00021735238 3409:2.4569976e-05 3410:0.00021696773 3411:2.1026552e-05 3412:2.1026552e-05 3413:2.1026552e-05 3414:9.4619485e-05 3415:2.1026552e-05 3416:2.1026552e-05 3417:4.2053103e-05 3418:0.0010473996 3419:0.00023542048 3420:3.1539828e-05 3421:6.6623077e-05 3422:0.00013359713 3423:0.0032042593 3424:0.00057834719 3425:8.4106206e-05 3426:2.4569976e-05 3427:0.00073273689 3428:9.8162913e-05 3429:2.1026552e-05 3430:3.5434236e-06 3431:3.1539828e-05 3432:6.3079657e-05 3433:0.00026637531 3434:2.8230392e-05 3435:4.287206e-05 3436:0.00065214059 3437:2.4569976e-05 3438:2.8113398e-05 3439:1.4056699e-05 3440:4.2053103e-05 3441:0.00022786563 3442:4.2053103e-05 3443:0.00030154196 3444:0.0033743773 3445:5.6928769e-05 3446:0.00049078104 3447:2.4569976e-05 3448:0.0017639739 3449:0.0002668433 3450:6.1057166e-05 3451:-0.00017743875 3452:6.0121205e-05 3453:-3.6871734e-05 3454:0.00014126896 3455:-0.00010443079 3456:3.5434236e-06 3457:0.00081346661 3458:2.4569976e-05 3459:1.4056699e-05 3460:0.00035671581 3461:5.6109802e-05 3462:0.00013725756 3463:0.00017872571 3464:0.0002668433 3465:-6.7592613e-05 3466:-3.4264281e-06 3467:4.2053103e-05 3468:4.5596527e-05 3469:6.7910019e-05 3470:2.4803967e-05 3471:-1.7132139e-05 3472:-2.0441576e-05 3473:-3.4264281e-06 3474:0.00021131846 3475:9.8396893e-05 3476:5.2683372e-05 3477:5.977022e-05 3478:-2.4102001e-05 3479:-3.4264281e-06 3480:2.1260543e-05 3481:0.00021758635 3482:3.578523e-05 3483:0.00016478599 3484:0.00020941297 3485:0.00023740939 3486:2.1026552e-05 3487:3.5434236e-06 3488:2.1026552e-05 3489:2.3398866e-07 3490:-0.00031554885 3491:-3.1305837e-05 3492:0.00013324615 3493:4.1200525e-05 3494:7.2038424e-06 3495:0.00061588729 3496:0.00043716159 3497:-0.00013486775 3498:0.00059629825 3499:0.0002004542 3500:0.0005235243 3501:2.1026552e-05 3502:0.0002433263 3503:2.4569976e-05 3504:5.9653223e-05 3505:2.1026552e-05 3506:5.6109802e-05 3507:0.00094168191 3508:2.1026552e-05 3509:3.5083252e-05 3510:2.1026552e-05 3511:2.4569976e-05 3512:7.7721328e-05 3513:0.00028775286 3514:2.1026552e-05 3515:2.8113398e-05 3516:4.2053103e-05 3517:3.5083252e-05 3518:5.9653223e-05 3519:4.9256945e-05 3520:2.1026552e-05 3521:2.4686969e-05 3522:-0.0003186579 3523:0.00019784672 3524:2.8113398e-05 3525:0.00012615931 3526:2.1026552e-05 3527:2.1026552e-05 3528:3.5434237e-05 3529:0.00094129745 3530:2.1026552e-05 3531:-1.3822711e-05 3532:-0.002129683 3533:2.3398866e-07 3534:0.00014080098 3535:9.4736482e-05 3536:0.00026069244 3537:9.4736482e-05 3538:0.00080266944 3539:4.2287098e-05 3540:-2.0675569e-05 3541:0.00022798264 3542:0.00099137309 3543:0.00011564604 3544:3.5434236e-06 3545:-5.1864416e-05 3546:0.00011965744 3547:2.1026552e-05 3548:9.1427049e-05 3549:5.9653223e-05 3550:0.00027120567 3551:2.1026552e-05 3552:5.9887225e-05 3553:0.00012627631 3554:0.0001483558 3555:0.00022973753 3556:0.00034468167 3557:0.00012615931 3558:0.00012674429 3559:6.3664629e-05 3560:3.1539828e-05 3561:3.1539828e-05 3562:4.9139951e-05 3563:3.1539828e-05 3564:2.1143549e-05 3565:3.1539828e-05 3566:0.00041142173 3567:7.0283495e-05 3568:-7.8690864e-05 3569:5.2683372e-05 3570:2.1026552e-05 3571:6.3079657e-05 3572:0.00098669343 3573:3.1539828e-05 3574:-0.00022505777 3575:0.0006206343 3576:0.00025597907 3577:3.5200246e-05 3578:5.2566378e-05 3579:-1.0396282e-05 3580:0.00050167879 3581:3.5083252e-05 3582:9.8162913e-05 3583:2.1026552e-05 3584:0.00093319104 3585:2.1026552e-05 3586:3.5551235e-05 3587:0.00070965424 3588:0.0011505099 3589:0.00019998624 3590:3.1539828e-05 3591:0.00067993649 3592:1.4056699e-05 3593:5.977022e-05 3594:7.0868473e-06 3595:4.287206e-05 3596:8.7649634e-05 3597:0.00018970695 3598:0.0001826201 3599:3.862668e-05 3600:5.2566378e-05 3601:0.00048937701 3602:-0.00015644576 3603:0.00038650073 3604:0.00027794155 3605:7.2038424e-06 3606:3.7774103e-06 3607:-0.0041966201 3608:2.4686969e-05 3609:1.7717119e-05 3610:3.5434236e-06 3611:-0.00035865491 3612:2.1026552e-05 3613:0.00012639331 3614:3.1656822e-05 3615:8.4223204e-05 3616:0.00012024241 3617:-1.3588723e-05 3618:1.4056699e-05 3619:5.2566378e-05 3620:0.0017697404 3621:0.00065334409 3622:0.0014009565 3623:1.4056699e-05 3624:3.862668e-05 3625:2.1026552e-05 3626:7.0166505e-05 3627:-3.4264281e-06 3628:0.000116231 3629:0.00022821664 3630:5.6226796e-05 3631:2.1026552e-05 3632:7.0868473e-06 3633:2.4569976e-05 3634:7.7136363e-05 3635:7.7604345e-05 3636:0.00021120148 3637:6.3079657e-05 3638:4.2053103e-05 3639:4.2053103e-05 3640:0.00014161994 3641:3.1539828e-05 3642:0.00042489346 3643:2.3398866e-07 3644:0.00029507373 3645:0.00016478599 3646:2.4569976e-05 3647:0.00010867619 3648:-0.00011945709 3649:0.00028090001 3650:0.00074477115 3651:2.1026552e-05 3652:0.00029472273 3653:0.0001022913 3654:4.2053103e-05 3655:0.00030889641 3656:3.5434236e-06 3657:1.4056699e-05 3658:0.00012331785 3659:0.0001790767 3660:2.1026552e-05 3661:-2.7244589e-06 3662:0.00051986391 3663:-0.0012938186 3664:5.6811761e-05 3665:8.7649634e-05 3666:3.5083252e-05 3667:2.1026552e-05 3668:2.1143549e-05 3669:0.00028397545 3670:3.5434236e-06 3671:2.1026552e-05 3672:2.1026552e-05 3673:0.00022619411 3674:-3.4264281e-06 3675:-0.00072560023 3676:5.7279747e-05 3677:6.3196654e-05 3678:0.0003126738 3679:0.00011245359 3680:3.5083252e-05 3681:7.0868473e-06 3682:0.00010902717 3683:1.0630271e-05 3684:0.00032081362 3685:2.1026552e-05 3686:-6.8528561e-06 3687:0.00013348015 3688:8.9587538e-06 3689:0.00041048575 3690:2.1260543e-05 3691:5.8497022e-07 3692:-5.1981402e-05 3693:0.00049163349 3694:3.1539828e-05 3695:6.6623077e-05 3696:0.00018001266 3697:2.4569976e-05 3698:7.0868473e-06 3699:3.5083252e-05 3700:3.8944049e-06 3701:1.4056699e-05 3702:0.000305236 3703:0.00020352966 3704:-3.4498273e-05 3705:4.2287098e-05 3706:0.0011154603 3707:0.00043915052 3708:8.0796781e-05 3709:0.00011352271 3710:0.00023164306 3711:1.8068111e-05 3712:0.00027357918 3713:0.00086030009 3714:1.7834116e-05 3715:1.074727e-05 3716:2.1026552e-05 3717:-2.6592465e-05 3718:4.2053103e-05 3719:0.0010734071 3720:4.5596527e-05 3721:7.3709925e-05 3722:3.5434236e-06 3723:-1.7249136e-05 3724:3.862668e-05 3725:3.5434236e-06 3726:1.4056699e-05 3727:0.00020329567 3728:2.1026552e-05 3729:0.00042547841 3730:3.5902227e-05 3731:-1.3822711e-05 3732:2.1026552e-05 3733:3.5434236e-06 3734:-1.0279286e-05 3735:0.00018581255 3736:0.0022537019 3737:-0.00013184223 3738:0.00054887956 3739:2.4569976e-05 3740:1.4407685e-05 3741:8.4106206e-05 3742:0.00010867619 3743:0.00012273289 3744:1.4056699e-05 3745:8.0796781e-05 3746:2.1026552e-05 3747:8.0796781e-05 3748:1.4173695e-05 3749:2.1026552e-05 3750:7.725336e-05 3751:0.00025302061 3752:0.0012273289 3753:-0.00049002923 3754:0.00050853164 3755:0.00090940663 3756:-6.6155102e-05 3757:-7.5966411e-05 3758:0.000586487 3759:1.4173695e-05 3760:3.1539828e-05 3761:3.5434236e-06 3762:9.4736482e-05 3763:2.1026552e-05 3764:3.1539828e-05 3765:3.5434236e-06 3766:3.1539828e-05 3767:2.1026552e-05 3768:2.8113398e-05 3769:0.0012483217 3770:8.0913771e-05 3771:-1.3822711e-05 3772:3.862668e-05 3773:0.00091582496 3774:9.4619485e-05 3775:4.2053103e-05 3776:4.9139951e-05 3777:8.7649634e-05 3778:3.1656822e-05 3779:4.2053103e-05 3780:2.1026552e-05 3781:1.7600123e-05 3782:0.00021992622 3783:0.00010513276 3784:4.9139951e-05 3785:0.00065926096 3786:0.00030216054 3787:6.3079657e-05 3788:3.1539828e-05 3789:5.2566378e-05 3790:2.1026552e-05 3791:6.3196654e-05 3792:0.00019278239 3793:3.1656822e-05 3794:2.1143549e-05 3795:0.00011257059 3796:0.00011572945 3797:4.5596527e-05 3798:3.1539828e-05 3799:7.4060903e-05 3800:3.5434236e-06 3801:5.977022e-05 3802:4.5947509e-05 3803:9.4736482e-05 3804:8.4223204e-05 3805:0.0016579886 3806:0.00013204265 3807:0.0011181511 3808:0.0007566883 3809:0.0022963737 3810:0.00025656403 3811:4.2053103e-05 3812:2.1026552e-05 3813:0.00024936016 3814:0.0010828337 3815:5.6109802e-05 3816:4.2053103e-05 3817:7.0166505e-05 3818:2.1026552e-05 3819:0.00024192237 3820:1.0630271e-05 3821:0.00025348857 3822:4.2053103e-05 3823:2.1026552e-05 3824:7.7955323e-05 3825:-0.00031613384 3826:2.1026552e-05 3827:2.1026552e-05 3828:2.1026552e-05 3829:3.1539828e-05 3830:3.1539828e-05 3831:3.1539828e-05 3832:0.00014718587 3833:6.6623077e-05 3834:2.1026552e-05 3835:2.1026552e-05 3836:4.2053103e-05 3837:2.1026552e-05 3838:2.1026552e-05 3839:2.1026552e-05 3840:2.1026552e-05 3841:0.0020483327 3842:0.0003509495 3843:3.1890813e-05 3844:2.8113398e-05 3845:1.4173695e-05 3846:0.00014411041 3847:5.6109802e-05 3848:2.1026552e-05 3849:5.2566378e-05 3850:3.5434236e-06 3851:0.00014929178 3852:0.00011977445 3853:0.0012621781 3854:9.1310052e-05 3855:0.00039382157 3856:8.4223204e-05 3857:0.00019289939 3858:0.00062760414 3859:0.00027105509 3860:0.00013725756 3861:0.00021108451 3862:6.720805e-05 3863:-0.00027478271 3864:0.00011564604 3865:0.00021038252 3866:0.00010867619 3867:-3.3094329e-06 3868:7.7136363e-05 3869:6.3430649e-05 3870:3.5434236e-06 3871:0.00015131426 3872:6.744203e-05 3873:0.00071961619 3874:8.7766632e-05 3875:4.5596527e-05 3876:3.1539828e-05 3877:-4.1585128e-05 3878:0.00044296155 3879:-1.3822711e-05 3880:2.1026552e-05 3881:3.5083252e-05 3882:0.00022455621 3883:0.00095776108 3884:0.00016844641 3885:-4.9647915e-06 3886:-4.1117146e-05 3887:0.00021049952 3888:3.5434236e-06 3889:6.3196654e-05 3890:0.00028751887 3891:-2.7762411e-05 3892:3.1539828e-05 3893:0.00043836518 3894:1.4290692e-05 3895:0.00085901323 3896:0.00022833364 3897:3.862668e-05 3898:0.00023281304 3899:8.7649634e-05 3900:0.00010513276 3901:8.4106206e-05 3902:0.00017553326 3903:0.00089643645 3904:5.2683372e-05 3905:3.1773816e-05 3906:0.00026329988 3907:0.00031349281 3908:4.2053103e-05 3909:-1.0396282e-05 3910:2.1026552e-05 3911:7.3592935e-05 3912:2.1026552e-05 3913:2.8113398e-05 3914:0.0018728171 3915:0.00015769915 3916:7.3208344e-06 3917:0.00061140797 3918:8.9404559e-05 3919:3.6721198e-05 3920:0.00056343793 3921:4.2053103e-05 3922:7.3592935e-05 3923:0.0012980802 3924:0.00040822927 3925:0.00016513698 3926:0.00022821664 3927:8.4223204e-05 3928:2.8113398e-05 3929:1.7951113e-05 3930:0.00037929692 3931:-5.0577495e-05 3932:-3.4264281e-06 3933:0.00031656824 3934:7.382693e-05 3935:1.4056699e-05 3936:0.00058742298 3937:-6.8528561e-06 3938:9.1310052e-05 3939:3.8743674e-05 3940:-3.4264281e-06 3941:3.1539828e-05 3942:3.5434236e-06 3943:3.531724e-05 3944:-3.8158698e-05 3945:0.00024648514 3946:3.1539828e-05 3947:0.00060646061 3948:0.00018592953 3949:1.0630271e-05 3950:4.2170101e-05 3951:3.1539828e-05 3952:0.00020364665 3953:0.00023623944 3954:2.1026552e-05 3955:2.1026552e-05 3956:0.00088072423 3957:0.000644552 3958:0.0011147582 3959:0.00014741985 3960:0.00045039933 3961:-6.5921115e-05 3962:0.0012624122 3963:2.4569976e-05 3964:8.0796781e-05 3965:2.4569976e-05 3966:0.00014103497 3967:-1.0396282e-05 3968:0.00091570802 3969:2.1026552e-05 3970:-1.0396282e-05 3971:0.00010513276 3972:0.00013667259 3973:2.1026552e-05 3974:0.00096874236 3975:5.2566378e-05 3976:0.00060751353 3977:0.00032591156 3978:0.00021026551 3979:7.0868473e-06 3980:1.1699433e-07 3981:-1.9856605e-05 3982:-0.00030480162 3983:6.3196654e-05 3984:3.5434236e-06 3985:0.00016832942 3986:7.3592935e-05 3987:-0.0001142421 3988:3.8008155e-05 3989:-3.1188843e-05 3990:3.1539828e-05 3991:2.1026552e-05 3992:6.3196654e-05 3993:-3.4264281e-06 3994:-1.0396282e-05 3995:7.0868473e-06 3996:2.1026552e-05 3997:9.2129012e-05 3998:0.00031123625 3999:1.7600123e-05 4000:0.0009758292 4001:0.00036099483 4002:-1.0162288e-05 4003:3.1539828e-05 4004:1.4056699e-05 4005:-3.4264281e-06 4006:4.5713525e-05 4007:2.1026552e-05 4008:2.8113398e-05 4009:0.0002150959 4010:0.00011918946 4011:0.00016124257 4012:0.00017187283 4013:3.1539828e-05 4014:-0.00024942734 4015:1.0630271e-05 4016:9.8162913e-05 4017:9.4736482e-05 4018:0.00017895967 4019:7.4060903e-05 4020:3.1539828e-05 4021:-3.4264281e-06 4022:4.2053103e-05 4023:2.1026552e-05 4024:6.6740075e-05 4025:0.00023837893 4026:0.0002537226 4027:8.0679783e-05 4028:0.00041060272 4029:9.4736482e-05 4030:0.0016791658 4031:-3.7573725e-05 4032:0.0014497456 4033:0.00064602325 4034:7.967672e-05 4035:0.00011564604 4036:0.0013057521 4037:4.2053103e-05 4038:3.1656822e-05 4039:0.00045997667 4040:-3.1807402e-05 4041:7.0868473e-06 4042:2.1026552e-05 4043:6.3079657e-05 4044:3.5083252e-05 4045:2.1143549e-05 4046:0.00018273709 4047:0.0011910421 4048:2.1026552e-05 4049:-1.3822711e-05 4050:-0.00084786501 4051:1.7834116e-05 4052:-0.00096409617 4053:9.1193055e-05 4054:0.00062795513 4055:-0.00051887805 4056:5.2800369e-05 4057:9.1427049e-05 4058:1.452469e-05 4059:5.2566378e-05 4060:1.4056699e-05 4061:-6.8528561e-06 4062:8.7766632e-05 4063:0.0004548787 4064:7.3709925e-05 4065:0.00063963828 4066:-2.0792564e-05 4067:3.5434236e-06 4068:2.1026552e-05 4069:-6.8528561e-06 4070:7.1336464e-05 4071:1.4056699e-05 4072:-6.8528561e-06 4073:0.00044401444 4074:2.1026552e-05 4075:-6.7358624e-06 4076:-3.4264281e-06 4077:3.5434236e-06 4078:5.6109802e-05 4079:0.0005573206 4080:0.00048322612 4081:0.00011634801 4082:2.1026552e-05 4083:7.0283495e-05 4084:9.5321469e-05 4085:7.7136363e-05 4086:7.0166505e-05 4087:-6.8996545e-05 4088:0.00039619507 4089:0.00098953489 4090:4.2053103e-05 4091:0.00013017072 4092:3.5434236e-06 4093:0.00067378563 4094:-3.0954849e-05 4095:7.3592935e-05 4096:0.00025940547 4097:0.00093673449 4098:0.0017526416 4099:2.1026552e-05 4100:6.3079657e-05 4101:0.00013005371 4102:3.1539828e-05 4103:0.00074368465 4104:6.3079657e-05 4105:3.5083252e-05 4106:2.1026552e-05 4107:6.3079657e-05 4108:2.1026552e-05 4109:0.00012615931 4110:8.4106206e-05 4111:-3.0603864e-05 4112:2.1026552e-05 4113:6.2193576e-05 4114:-3.4264281e-06 4115:0.00023140907 4116:0.00036380262 4117:0.00050864869 4118:1.4056699e-05 4119:5.9887225e-05 4120:1.4056699e-05 4121:3.1656822e-05 4122:0.0011939333 4123:0.00014753686 4124:0.0010396108 4125:0.00021793736 4126:2.1026552e-05 4127:4.5596527e-05 4128:9.8279903e-05 4129:6.3196654e-05 4130:6.4834559e-05 4131:0.0002948397 4132:0.00052601477 4133:2.1026552e-05 4134:7.3709925e-05 4135:3.1539828e-05 4136:0.00014375943 4137:6.3079657e-05 4138:2.4569976e-05 4139:-0.00012030956 4140:3.1539828e-05 4141:3.5551235e-05 4142:0.00018129962 4143:-0.00016303106 4144:-2.7762411e-05 4145:3.1539828e-05 4146:-0.00017035191 4147:-0.00077427214 4148:1.7834116e-05 4149:1.4875654e-05 4150:0.00021887331 4151:-2.4218991e-05 4152:0.00019749576 4153:2.1026552e-05 4154:0.00074983545 4155:0.00016856341 4156:-5.540784e-05 4157:7.0166505e-05 4158:7.098545e-05 4159:2.8230392e-05 4160:2.1026552e-05 4161:2.1026552e-05 4162:0.00010867619 4163:0.00066397438 4164:9.1193055e-05 4165:0.0001790767 4166:4.2287098e-05 4167:0.00033393438 4168:4.9373939e-05 4169:7.2038424e-06 4170:0.00018226913 4171:0.00016832942 4172:3.5434236e-06 4173:3.5434236e-06 4174:0.00024558275 4175:0.00017565025 4176:2.1026552e-05 4177:-0.00024277488 4178:0.00031793863 4179:0.0018297444 4180:-0.00043072694 4181:0.00078199385 4182:-7.9860816e-05 4183:-0.0018704445 4184:7.0868473e-06 4185:7.0868473e-06 4186:2.1026552e-05 4187:1.4056699e-05 4188:-0.00020001976 4189:7.3592935e-05 4190:0.00017872571 4191:6.3196654e-05 4192:3.1539828e-05 4193:0.00029706256 4194:8.7247872e-06 4195:7.0868473e-06 4196:0.00022997156 4197:0.00038412726 4198:0.0017630043 4199:9.886489e-05 4200:4.5596527e-05 4201:1.4056699e-05 4202:-4.7469639e-06 4203:6.3079657e-05 4204:5.2566378e-05 4205:4.2053103e-05 4206:-0.00060131284 4207:2.1026552e-05 4208:0.00038202139 4209:8.7649634e-05 4210:3.2475782e-05 4211:-1.3822711e-05 4212:0.00018581255 4213:0.00010867619 4214:0.00073970674 4215:4.2053103e-05 4216:0.00087719836 4217:1.4056699e-05 4218:7.0868473e-06 4219:3.5434236e-06 4220:0.00056109804 4221:0.0002348355 4222:3.862668e-05 4223:0.00087739876 4224:7.0400492e-05 4225:0.00010949516 4226:-0.001260524 4227:0.00012674429 4228:-3.3094329e-06 4229:8.0679783e-05 4230:0.00017187283 4231:0.00033627427 4232:0.00066775171 4233:5.9887225e-05 4234:0.00019064294 4235:2.1143549e-05 4236:2.1026552e-05 4237:0.00037906293 4238:0.00024262433 4239:0.0011590344 4240:2.1026552e-05 4241:3.531724e-05 4242:7.0868473e-06 4243:2.1026552e-05 4244:3.1539828e-05 4245:2.4686969e-05 4246:2.1026552e-05 4247:4.2053103e-05 4248:4.2053103e-05 4249:3.1539828e-05 4250:8.4223204e-05 4251:3.1539828e-05 4252:4.2053103e-05 4253:3.1539828e-05 4254:4.2053103e-05 4255:4.2053103e-05 4256:0.00056970591 4257:-9.3800518e-05 4258:3.1539828e-05 4259:3.9094655e-05 4260:0.00029106229 4261:0.00031929268 4262:0.00011942346 4263:0.00048431268 4264:-2.670946e-05 4265:2.137754e-05 4266:2.5037962e-05 4267:-3.4264281e-06 4268:0.00011918946 4269:3.5434236e-06 4270:4.2053103e-05 4271:2.1026552e-05 4272:1.7951113e-05 4273:7.0868473e-06 4274:0.00010524976 4275:2.8113398e-05 4276:2.8113398e-05 4277:0.00063890289 4278:0.00038248932 4279:3.1539828e-05 4280:3.1539828e-05 4281:3.1539828e-05 4282:3.1539828e-05 4283:3.1539828e-05 4284:0.00022148078 4285:1.4056699e-05 4286:1.7600123e-05 4287:3.1539828e-05 4288:0.00018581255 4289:7.3943927e-05 4290:-5.7998873e-06 4291:2.8464385e-05 4292:2.1026552e-05 4293:2.1026552e-05 4294:2.1026552e-05 4295:3.1539828e-05 4296:0.00044887842 4297:0.00013667259 4298:7.7136363e-05 4299:0.00011954044 4300:0.00078137527 4301:0.00017541625 4302:9.4736482e-05 4303:3.5434236e-06 4304:4.2053103e-05 4305:-3.1924399e-06 4306:0.0001686804 4307:4.9841925e-05 4308:3.1539828e-05 4309:2.1026552e-05 4310:2.1026552e-05 4311:0.00057207933 4312:1.4056699e-05 4313:0.0002574664 4314:0.00091948541 4315:2.1026552e-05 4316:2.1026552e-05 4317:7.3592935e-05 4318:4.5596527e-05 4319:2.1026552e-05 4320:1.7600123e-05 4321:2.1026552e-05 4322:3.1539828e-05 4323:2.1026552e-05 4324:2.1026552e-05 4325:2.1026552e-05 4326:2.1026552e-05 4327:2.1026552e-05 4328:6.3079657e-05 4329:0.00014033301 4330:2.1026552e-05 4331:2.1026552e-05 4332:2.1026552e-05 4333:2.1026552e-05 4334:8.0679783e-05 4335:3.1539828e-05 4336:2.1026552e-05 4337:2.1026552e-05 4338:0.00011588002 4339:2.1026552e-05 4340:2.1026552e-05 4341:0.00042796889 4342:2.1026552e-05 4343:2.1026552e-05 4344:2.1026552e-05 4345:2.1026552e-05 4346:4.5713525e-05 4347:0.00011634801 4348:4.5596527e-05 4349:0.00023211105 4350:-0.0011450619 4351:-0.0020280601 4352:0.00019348436 4353:4.1049931e-05 4354:0.00029967009 4355:-1.3822711e-05 4356:-2.0207581e-05 4357:-0.00021843892 4358:2.4569976e-05 4359:2.4686969e-05 4360:3.5434236e-06 4361:7.0868473e-06 4362:8.7649634e-05 4363:0.00016241251 4364:-5.5641831e-05 4365:0.00035496088 4366:0.00025703199 4367:6.3079657e-05 4368:2.1026552e-05 4369:3.862668e-05 4370:3.5434236e-06 4371:8.7649634e-05 4372:5.2566378e-05 4373:2.1026552e-05 4374:3.1656822e-05 4375:0.00017565025 4376:-0.00087004533 4377:5.6226796e-05 4378:-2.6074679e-06 4379:-8.6713677e-05 4380:2.9751309e-05 4381:3.862668e-05 4382:7.7136363e-05 4383:4.0113978e-06 4384:0.00029129628 4385:0.00014894082 4386:9.2563409e-05 4387:9.4468895e-05 4388:1.4056699e-05 4389:2.1494539e-05 4390:2.1026552e-05 4391:9.8162913e-05 4392:3.5434236e-06 4393:1.4056699e-05 4394:2.4686969e-05 4395:7.0868473e-06 4396:7.737035e-05 4397:6.6623077e-05 4398:0.00012615931 4399:3.5434236e-06 4400:3.8944049e-06 4401:4.9139951e-05 4402:4.2053103e-05 4403:-1.3120729e-05 4404:6.3079657e-05 4405:3.5434236e-06 4406:0.0018043554 4407:0.00035838736 4408:0.00014375943 4409:0.00051652099 4410:0.00012970273 4411:4.9139951e-05 4412:0.00011977445 4413:2.1026552e-05 4414:2.1026552e-05 4415:3.7189191e-05 4416:5.6226796e-05 4417:0.00063870236 4418:2.4569976e-05 4419:2.1026552e-05 4420:4.2053103e-05 4421:2.1026552e-05 4422:-5.4003922e-05 4423:2.1026552e-05 4424:2.1026552e-05 4425:2.4569976e-05 4426:2.1026552e-05 4427:2.1026552e-05 4428:2.1026552e-05 4429:2.1026552e-05 4430:2.1026552e-05 4431:4.2053103e-05 4432:2.1026552e-05 4433:2.1026552e-05 4434:2.1026552e-05 4435:5.2683372e-05 4436:3.5083252e-05 4437:3.2592765e-05 4438:2.1026552e-05 4439:2.1026552e-05 4440:2.1026552e-05 4441:8.7649634e-05 4442:1.7600123e-05 4443:0.00013359713 4444:7.3709925e-05 4445:2.1026552e-05 4446:-5.4489178e-06 4447:0.0017291247 4448:0.00080084737 4449:0.00039900298 4450:0.00029281719 4451:2.1026552e-05 4452:2.1026552e-05 4453:3.5434236e-06 4454:0.00046636153 4455:0.00014021601 4456:7.3592935e-05 4457:0.00024262433 4458:0.00029814913 4459:3.862668e-05 4460:0.00046469001 4461:2.8113398e-05 4462:2.1026552e-05 4463:4.9139951e-05 4464:2.1026552e-05 4465:0.00016832942 4466:8.7247872e-06 4467:7.0868473e-06 4468:1.4056699e-05 4469:2.8113398e-05 4470:5.2566378e-05 4471:2.1026552e-05 4472:9.8162913e-05 4473:0.00079663546 4474:6.3079657e-05 4475:9.4619485e-05 4476:0.002816688 4477:0.00011693298 4478:2.2630917e-05 4479:4.2053103e-05 4480:0.001375066 4481:0.00029873411 4482:-6.7358624e-06 4483:0.00068134046 4484:3.5083252e-05 4485:0.00017187283 4486:5.2683372e-05 4487:4.2053103e-05 4488:3.1890813e-05 4489:0.00027416417 4490:0.00020080518 4491:3.5083252e-05 4492:0.00011965744 4493:3.1539828e-05 4494:1.4056699e-05 4495:1.0630271e-05 4496:9.1193055e-05 4497:9.4619485e-05 4498:5.2800369e-05 4499:0.00030877942 4500:0.00031929268 4501:0.00018947296 4502:4.2053103e-05 4503:3.5083252e-05 4504:6.3196654e-05 4505:2.1026552e-05 4506:0.00076085026 4507:0.00020341268 4508:2.1026552e-05 4509:0.00013028771 4510:7.3592935e-05 4511:0.00011564604 4512:5.9653223e-05 4513:0.00025940547 4514:9.4619485e-05 4515:0.00027050372 4516:2.1026552e-05 4517:2.1026552e-05 4518:7.0868473e-06 4519:2.1026552e-05 4520:3.1539828e-05 4521:2.1026552e-05 4522:2.1026552e-05 4523:-8.3053259e-05 4524:1.4056699e-05 4525:0.00012627631 4526:4.2053103e-05 4527:2.1026552e-05 4528:2.1026552e-05 4529:4.2287098e-05 4530:2.1026552e-05 4531:2.5505919e-05 4532:2.5271947e-05 4533:0.00041768962 4534:6.6623077e-05 4535:0.0001122196 4536:2.1026552e-05 4537:-3.4264281e-06 4538:3.5434236e-06 4539:4.2170101e-05 4540:9.1193055e-05 4541:2.1026552e-05 4542:2.1026552e-05 4543:-3.4264281e-06 4544:0.00060338515 4545:-3.4264281e-06 4546:0.00024025087 4547:3.5083252e-05 4548:2.1026552e-05 4549:1.4056699e-05 4550:2.1026552e-05 4551:2.1026552e-05 4552:-0.0018529613 4553:6.6857072e-05 4554:0.00033451931 4555:0.00077525794 4556:-9.4603265e-06 4557:0.00059922307 4558:-0.0021562756 4559:0.0011051474 4560:0.00010217432 4561:0.0011475513 4562:-0.0023260587 4563:2.1026552e-05 4564:2.1026552e-05 4565:-1.0396282e-05 4566:1.4056699e-05 4567:-6.6188659e-06 4568:3.5434236e-06 4569:9.4619485e-05 4570:-4.1468131e-05 4571:-6.3848797e-06 4572:0.00027050372 4573:-6.3848797e-06 4574:0.00010170634 4575:1.7717119e-05 4576:0.00011327257 4577:0.00023989988 4578:2.4569976e-05 4579:0.00010949516 4580:-3.4264281e-06 4581:-3.4264281e-06 4582:2.5973919e-05 4583:3.9211656e-05 4584:3.5434236e-06 4585:0.00036796468 4586:4.2053103e-05 4587:0.00020683909 4588:8.7883622e-05 4589:-0.00098430365 4590:0.00047675785 4591:-3.8158698e-05 4592:0.00012674429 4593:4.2053103e-05 4594:2.1026552e-05 4595:0.00014399343 4596:0.0012047478 4597:0.00017198984 4598:3.1539828e-05 4599:3.1539828e-05 4600:7.3592935e-05 4601:3.5434236e-06 4602:7.0868473e-06 4603:1.4056699e-05 4604:2.1026552e-05 4605:5.9653223e-05 4606:2.1026552e-05 4607:-3.4264281e-06 4608:0.00026127737 4609:4.2053103e-05 4610:-1.3120729e-05 4611:5.7045752e-05 4612:5.6109802e-05 4613:0.00079071859 4614:0.00040339891 4615:0.00073982374 4616:0.00010182332 4617:2.1026552e-05 4618:0.00047025597 4619:-0.00023548755 4620:2.1026552e-05 4621:3.1539828e-05 4622:7.3592935e-05 4623:2.1026552e-05 4624:2.1026552e-05 4625:-2.0792564e-05 4626:-3.4264281e-06 4627:0.00016124257 4628:2.1026552e-05 4629:9.4619485e-05 4630:0.00065571751 4631:0.00028751887 4632:0.0016436643 4633:9.8162913e-05 4634:6.3196654e-05 4635:0.00014033301 4636:8.4106206e-05 4637:0.00019301639 4638:0.00015793313 4639:9.4619485e-05 4640:0.00010867619 4641:9.1895017e-05 4642:0.00010867619 4643:0.00010513276 4644:0.00043859918 4645:0.0004250104 4646:2.4569976e-05 4647:5.6109802e-05 4648:-0.00026781284 4649:-7.2773975e-05 4650:0.00075065438 4651:-8.3287247e-05 4652:2.4803967e-05 4653:2.3398866e-07 4654:2.1026552e-05 4655:1.074727e-05 4656:2.8347389e-05 4657:0.00015178225 4658:4.5596527e-05 4659:2.8113398e-05 4660:0.00010536674 4661:3.531724e-05 4662:0.00072681997 4663:0.00011257059 4664:0.00046671255 4665:6.3079657e-05 4666:0.00010194032 4667:2.1494539e-05 4668:4.2053103e-05 4669:2.1026552e-05 4670:3.1539828e-05 4671:1.4056699e-05 4672:0.0003578024 4673:3.5083252e-05 4674:7.0868473e-06 4675:3.1539828e-05 4676:2.1026552e-05 4677:2.1026552e-05 4678:0.00044545199 4679:3.5200246e-05 4680:2.4569976e-05 4681:6.6857072e-05 4682:0.00033003994 4683:0.00029106229 4684:0.0010696297 4685:3.5083252e-05 4686:0.00012273289 4687:8.0913771e-05 4688:0.00012639331 4689:-5.0577495e-05 4690:7.3592935e-05 4691:2.1026552e-05 4692:2.1026552e-05 4693:1.4056699e-05 4694:2.1143549e-05 4695:0.00014753686 4696:5.6226796e-05 4697:3.1539828e-05 4698:1.4056699e-05 4699:3.1539828e-05 4700:2.1026552e-05 4701:4.2053103e-05 4702:0.00010524976 4703:1.4056699e-05 4704:0.00039004415 4705:2.1026552e-05 4706:0.00045573126 4707:2.1026552e-05 4708:3.1539828e-05 4709:0.00051608653 4710:2.1026552e-05 4711:0.00067254854 4712:-4.8554975e-05 4713:-3.9128281e-05 4714:5.2917359e-05 4715:7.4378272e-06 4716:0.00052489474 4717:-1.7249136e-05 4718:2.8230392e-05 4719:8.5393149e-05 4720:0.00015805011 4721:2.3398866e-07 4722:-0.00020714029 4723:0.00029281719 4724:-2.0675569e-05 4725:3.5434236e-06 4726:9.4619485e-05 4727:0.00012343486 4728:0.00035437595 4729:4.2170101e-05 4730:2.1026552e-05 4731:3.1539828e-05 4732:-8.3287247e-05 4733:2.1026552e-05 4734:0.00082892727 4735:2.1026552e-05 4736:0.00018592953 4737:3.5434236e-06 4738:9.4736482e-05 4739:2.4686969e-05 4740:0.00016288046 4741:3.5434236e-06 4742:5.2566378e-05 4743:0.00066280435 4744:2.1026552e-05 4745:0.00013017072 4746:0.00029106229 4747:4.2053103e-05 4748:0.00016821241 4749:-2.1394849e-06 4750:0.00018001266 4751:2.8113398e-05 4752:0.00018947296 4753:4.2053103e-05 4754:4.2053103e-05 4755:7.0868473e-06 4756:-1.6430173e-05 4757:2.1026552e-05 4758:2.1026552e-05 4759:7.2038424e-06 4760:-6.7358624e-06 4761:0.00014999374 4762:0.00018238611 4763:2.1026552e-05 4764:2.1026552e-05 4765:2.4569976e-05 4766:2.1026552e-05 4767:7.0868473e-06 4768:0.00018592953 4769:2.4920962e-05 4770:3.1539828e-05 4771:-0.00010999669 4772:3.6604172e-06 4773:0.0010497732 4774:2.4686969e-05 4775:3.1539828e-05 4776:0.00014021601 4777:-2.0792564e-05 4778:0.00011257059 4779:0.00048867502 4780:4.5596527e-05 4781:3.5434236e-06 4782:2.1026552e-05 4783:0.00015072929 4784:2.4569976e-05 4785:0.0001584011 4786:3.5434236e-06 4787:3.1539828e-05 4788:-3.4264281e-06 4789:3.8944049e-06 4790:2.1026552e-05 4791:3.1539828e-05 4792:2.4569976e-05 4793:0.00047839576 4794:0.0011963741 4795:7.0868473e-06 4796:1.4056699e-05 4797:0.00017529927 4798:0.00079640158 4799:0.00048065226 4800:2.1026552e-05 4801:0.0001123366 4802:2.4803967e-05 4803:3.1656822e-05 4804:0.00017198984 4805:3.1539828e-05 4806:9.1193055e-05 4807:0.00045596529 4808:1.4056699e-05 4809:-4.1000156e-05 4810:0.00085605471 4811:4.2053103e-05 4812:2.1026552e-05 4813:7.0868473e-06 4814:0.00018581255 4815:-0.00464438 4816:7.3208344e-06 4817:0.0013266617 4818:0.00023211105 4819:0.002079071 4820:5.6109802e-05 4821:4.5596527e-05 4822:-1.0396282e-05 4823:3.531724e-05 4824:2.1026552e-05 4825:2.1026552e-05 4826:5.2566378e-05 4827:0.00010891017 4828:0.0019749415 4829:0.0010423353 4830:8.4106206e-05 4831:6.6623077e-05 4832:3.8944049e-06 4833:-5.1981402e-05 4834:1.4056699e-05 4835:1.4056699e-05 4836:2.1143549e-05 4837:0.00024297531 4838:0.00042796889 4839:5.2566378e-05 4840:2.1026552e-05 4841:2.1026552e-05 4842:0.00054042245 4843:0.00030145858 4844:0.00019064294 4845:2.1026552e-05 4846:2.4569976e-05 4847:0.00015084629 4848:0.0014071076 4849:0.0021830674 4850:4.2053103e-05 4851:0.00012627631 4852:0.00013690659 4853:3.1539828e-05 4854:4.5713525e-05 4855:2.1026552e-05 4856:0.00013678959 4857:3.5083252e-05 4858:5.6226796e-05 4859:1.7600123e-05 4860:-1.7366134e-05 4861:0.00063091354 4862:6.3079657e-05 4863:6.3079657e-05 4864:4.2053103e-05 4865:2.1026552e-05 4866:2.4569976e-05 4867:0.00011280459 4868:-5.8132311e-05 4869:2.4569976e-05 4870:2.1026552e-05 4871:-1.0396282e-05 4872:7.2038424e-06 4873:4.2053103e-05 4874:3.5083252e-05 4875:4.2053103e-05 4876:0.00012627631 4877:0.00029507373 4878:2.1026552e-05 4879:8.7766632e-05 4880:-3.4264281e-06 4881:0.00042228596 4882:-3.4264281e-06 4883:7.0166505e-05 4884:0.00028880578 4885:0.00022821664 4886:5.6109802e-05 4887:1.4056699e-05 4888:0.00014103497 4889:0.00014091798 4890:2.1026552e-05 4891:0.00011918946 4892:0.0001686804 4893:4.2287098e-05 4894:0.000373029 4895:1.7717119e-05 4896:2.1026552e-05 4897:3.5434236e-06 4898:5.2566378e-05 4899:2.1026552e-05 4900:-3.4264281e-06 4901:0.00010583472 4902:8.7766632e-05 4903:6.1876133e-05 4904:-1.6547179e-05 4905:2.1026552e-05 4906:7.3592935e-05 4907:-3.4264281e-06 4908:2.1026552e-05 4909:2.1026552e-05 4910:3.5434236e-06 4911:0.00089362852 4912:0.00063811743 4913:0.00035437595 4914:0.00015769915 4915:3.1539828e-05 4916:4.2053103e-05 4917:5.2566378e-05 4918:7.0283495e-05 4919:8.8702574e-05 4920:0.00024534878 4921:9.4619485e-05 4922:0.00051526754 4923:3.1656822e-05 4924:0.00032614556 4925:4.5713525e-05 4926:0.00021038252 4927:7.7487348e-05 4928:-1.3822711e-05 4929:4.2053103e-05 4930:0.00012273289 4931:1.4056699e-05 4932:2.4569976e-05 4933:0.00053403765 4934:7.7136363e-05 4935:9.4619485e-05 4936:2.8113398e-05 4937:0.00018238611 4938:0.00031563229 4939:0.00025278662 4940:1.4056699e-05 4941:2.1026552e-05 4942:0.000445218 4943:5.2566378e-05 4944:9.8279903e-05 4945:3.1539828e-05 4946:-0.00021193705 4947:-0.00010797422 4948:2.1026552e-05 4949:0.00079640158 4950:0.00059345685 4951:9.4736482e-05 4952:0.00032591156 4953:0.00010524976 4954:4.5596527e-05 4955:4.5830522e-05 4956:0.00022443921 4957:2.1026552e-05 4958:3.5434236e-06 4959:0.00013371414 4960:0.0001870995 4961:-0.0001230005 4962:2.4569976e-05 4963:3.5434236e-06 4964:-0.00011377413 4965:0.00011564604 4966:2.1026552e-05 4967:1.1215241e-05 4968:2.1026552e-05 4969:0.00051854341 4970:0.00034386269 4971:0.00062971003 4972:0.00042489346 4973:4.9139951e-05 4974:6.3079657e-05 4975:0.00010513276 4976:4.2053103e-05 4977:9.4619485e-05 4978:0.0001764692 4979:0.00020859401 4980:7.063448e-05 4981:-6.1207727e-05 4982:3.862668e-05 4983:-6.5921115e-05 4984:-0.00013881207 4985:0.00037575347 4986:1.0864257e-05 4987:-9.7109951e-05 4988:0.00021404294 4989:-2.0792564e-05 4990:1.7834116e-05 4991:3.862668e-05 4992:3.1539828e-05 4993:9.1427049e-05 4994:-2.7762411e-05 4995:3.1656822e-05 4996:7.0868473e-06 4997:0.0003228361 4998:0.00040705933 4999:8.8117617e-05 5000:0.00025266962 5001:2.1026552e-05 5002:1.4056699e-05 5003:3.5434236e-06 5004:0.001055573 5005:0.00057893223 5006:0.00023837893 5007:0.00016124257 5008:0.00025597907 5009:3.1539828e-05 5010:0.0013853789 5011:0.00020976397 5012:0.00059120037 5013:0.00046539205 5014:-5.5290846e-05 5015:8.1147766e-05 5016:3.5668232e-05 5017:2.5271947e-05 5018:0.00012651031 5019:0.00024192237 5020:2.1026552e-05 5021:2.4569976e-05 5022:5.2566378e-05 5023:0.00055494718 5024:0.00031208884 5025:3.5434236e-06 5026:8.0796781e-05 5027:2.1143549e-05 5028:2.1026552e-05 5029:4.2170101e-05 5030:0.00026801325 5031:-3.1305837e-05 5032:0.0001341821 5033:9.154404e-05 5034:2.1026552e-05 5035:3.1539828e-05 5036:1.4056699e-05 5037:0.00021782034 5038:7.3592935e-05 5039:0.00013324615 5040:-3.8275692e-05 5041:2.1026552e-05 5042:2.8113398e-05 5043:0.00019278239 5044:2.4569976e-05 5045:7.0400492e-05 5046:0.0001209444 5047:0.00020719007 5048:0.00014422741 5049:0.00019986923 5050:1.4056699e-05 5051:1.7600123e-05 5052:1.4056699e-05 5053:4.2053103e-05 5054:0.00012331785 5055:0.00020481662 5056:3.1539828e-05 5057:7.3592935e-05 5058:0.0006503521 5059:1.4056699e-05 5060:0.00019975225 5061:3.1539828e-05 5062:0.00019181287 5063:0.00012273289 5064:7.7136363e-05 5065:2.1026552e-05 5066:-1.0396282e-05 5067:0.00031574926 5068:4.5596527e-05 5069:4.2053103e-05 5070:2.1026552e-05 5071:2.1026552e-05 5072:9.8279903e-05 5073:5.6109802e-05 5074:4.5830522e-05 5075:7.0283495e-05 5076:0.00040079144 5077:0.00031680221 5078:0.00017895967 5079:9.851389e-05 5080:5.2566378e-05 5081:3.8743674e-05 5082:0.00011611402 5083:5.2566378e-05 5084:8.7649634e-05 5085:0.00182702 5086:1.4056699e-05 5087:6.3079657e-05 5088:-1.0396282e-05 5089:1.4056699e-05 5090:2.1026552e-05 5091:0.0001122196 5092:6.3079657e-05 5093:6.3079657e-05 5094:0.00015769915 5095:5.6493514e-06 5096:0.0015136444 5097:0.00037563647 5098:9.8162913e-05 5099:0.00012615931 5100:0.00031621728 5101:8.0796781e-05 5102:9.6959404e-05 5103:2.4569976e-05 5104:4.9373939e-05 5105:-3.4732268e-05 5106:0.00057137734 5107:0.00037953092 5108:-3.0954849e-05 5109:-0.0018338066 5110:0.00042298791 5111:3.1539828e-05 5112:7.8540303e-05 5113:0.00016147655 5114:3.1539828e-05 5115:0.00010867619 5116:2.1026552e-05 5117:2.1026552e-05 5118:0.00049622986 5119:0.00070505787 5120:-6.2377687e-05 5121:7.0166505e-05 5122:0.00015131426 5123:1.4173695e-05 5124:1.1699433e-07 5125:0.0002923492 5126:0.00045842215 5127:0.00018803541 5128:1.4056699e-05 5129:-1.3822711e-05 5130:3.862668e-05 5131:-6.8528561e-06 5132:3.5434236e-06 5133:0.00057219632 5134:2.1026552e-05 5135:0.00048548265 5136:3.5083252e-05 5137:6.3313644e-05 5138:4.2053103e-05 5139:0.00035566284 5140:3.6604172e-06 5141:-6.7826622e-05 5142:5.1713851e-05 5143:-6.8528561e-06 5144:4.5596527e-05 5145:9.4853473e-05 5146:0.0001122196 5147:0.00016832942 5148:0.00041367818 5149:0.00010536674 5150:5.6109802e-05 5151:0.001244929 5152:0.00031894172 5153:2.4569976e-05 5154:4.2404085e-05 5155:0.00010879317 5156:0.00041118771 5157:0.00034503257 5158:5.6109802e-05 5159:0.00028043202 5160:9.1310052e-05 5161:0.00031232287 5162:1.4056699e-05 5163:0.0003788289 5164:-6.8528561e-06 5165:0.00011611402 5166:4.2053103e-05 5167:7.3592935e-05 5168:0.00068371394 5169:0.00035745141 5170:4.2053103e-05 5171:0.00025963946 5172:2.1026552e-05 5173:7.0868473e-06 5174:0.00035756838 5175:0.00020423162 5176:7.3592935e-05 5177:2.1026552e-05 5178:0.00010170634 5179:0.00036099483 5180:0.00030169258 5181:0.00012615931 5182:0.00010571773 5183:0.00053983752 5184:0.00043482176 5185:0.00025278662 5186:7.3709925e-05 5187:5.2566378e-05 5188:5.2566378e-05 5189:2.1026552e-05 5190:2.1026552e-05 5191:0.00010879317 5192:6.6623077e-05 5193:4.2053103e-05 5194:-3.4264281e-06 5195:6.6623077e-05 5196:-1.7132139e-05 5197:0.00027097174 5198:-0.00013515164 5199:0.00037894593 5200:0.00050249777 5201:0.00021178646 5202:3.1539828e-05 5203:2.1026552e-05 5204:0.00021392593 5205:5.2566378e-05 5206:0.00017541625 5207:2.4569976e-05 5208:2.1026552e-05 5209:3.5083252e-05 5210:1.0630271e-05 5211:7.0868473e-06 5212:2.1260543e-05 5213:-6.8528561e-06 5214:2.1026552e-05 5215:3.2475782e-05 5216:1.4056699e-05 5217:9.154404e-05 5218:1.4056699e-05 5219:2.1026552e-05 5220:0.00017529927 5221:9.1193055e-05 5222:0.00098859891 5223:9.8162913e-05 5224:2.4569976e-05 5225:2.1026552e-05 5226:0.00016513698 5227:-4.8671969e-05 5228:3.5434236e-06 5229:9.4619485e-05 5230:2.4920962e-05 5231:-0.00010952872 5232:1.1098243e-05 5233:0.00061658921 5234:1.4173695e-05 5235:0.00026941713 5236:5.6226796e-05 5237:0.00015910309 5238:2.1026552e-05 5239:0.00092007039 5240:0.00022432223 5241:3.5200246e-05 5242:7.2038424e-06 5243:-0.00015703078 5244:2.1026552e-05 5245:5.2566378e-05 5246:-1.3705712e-05 5247:3.862668e-05 5248:0.00015769915 5249:3.5083252e-05 5250:-2.7762411e-05 5251:0.00010571773 5252:2.4569976e-05 5253:3.5083252e-05 5254:4.2053103e-05 5255:0.00038981021 5256:-1.6781154e-05 5257:-1.0396282e-05 5258:3.1539828e-05 5259:-3.4264281e-06 5260:0.00012106141 5261:0.00010902717 5262:5.6109802e-05 5263:3.1890813e-05 5264:2.1026552e-05 5265:0.00017175585 5266:-1.0279286e-05 5267:4.5713525e-05 5268:9.2763912e-05 5269:0.00010524976 5270:3.1539828e-05 5271:1.4056699e-05 5272:0.00013690659 5273:4.2053103e-05 5274:1.8068111e-05 5275:-0.00021645003 5276:0.00010867619 5277:-0.00010088736 5278:-2.0324576e-05 5279:2.4569976e-05 5280:7.0400492e-05 5281:7.7136363e-05 5282:7.0868473e-06 5283:2.1026552e-05 5284:0.00010194032 5285:2.1026552e-05 5286:-3.4732268e-05 5287:0.00039876896 5288:0.00034608552 5289:3.6604193e-05 5290:4.5713525e-05 5291:5.3034357e-05 5292:0.0018305969 5293:0.0002992021 5294:-3.4732268e-05 5295:1.4173695e-05 5296:2.1026552e-05 5297:-0.00015193282 5298:-5.1981402e-05 5299:-5.5641831e-05 5300:8.8000619e-05 5301:0.00021746937 5302:-1.0045301e-05 5303:2.1026552e-05 5304:3.1539828e-05 5305:1.4056699e-05 5306:2.1026552e-05 5307:4.2053103e-05 5308:0.00011599701 5309:0.0013008048 5310:0.00038568178 5311:0.00055254018 5312:0.00012627631 5313:-3.1305837e-05 5314:0.00085780973 5315:3.5083252e-05 5316:0.00021626586 5317:2.1026552e-05 5318:2.1026552e-05 5319:2.8230392e-05 5320:7.0868473e-06 5321:2.1026552e-05 5322:5.0777879e-05 5323:0.00059509481 5324:0.00039265165 5325:0.00046682954 5326:0.00082805834 5327:3.5434236e-06 5328:0.0015275839 