SVM-light Version V6.20
0 # kernel type
3 # kernel parameter -d 
1 # kernel parameter -g 
1 # kernel parameter -s 
1 # kernel parameter -r 
empty# kernel parameter -u 
136599 # highest feature index 
2 # number of training documents 
2 # number of support vectors plus 1 
-0.068860738 # threshold b, each following line is a SV (starting with alpha*y)
1 1:0.007136147 2:0.0052159876 3:0.00095075858 4:0.034708008 5:-4.9625582e-05 6:0.00014394589 7:0.00011023666 8:0.00026695174 9:2.4706535e-05 10:-3.1425762e-07 11:-0.00039761508 12:-0.00035291139 13:0.0065363618 14:0.022378383 15:0.00068140804 16:-0.0013712307 17:0.010505786 18:0.00088241987 19:0.0035423343 20:0.012265142 21:-0.00011526475 22:-0.00036056427 23:0.026621493 24:-0.00024875187 25:0.0032620861 26:0.023302566 27:0.0011226014 28:0.024914142 29:0.0044037816 30:0.00016121654 31:0.00067932345 32:-5.1298603e-06 33:0.00076566782 34:0.0075627612 35:5.5693727e-05 36:-6.7006942e-05 37:0.00041864329 38:0.0020784102 39:0.00011881886 40:0.015271442 41:0.00048017511 42:0.00079206511 43:0.0012162724 44:0.0047729779 45:0.0034712548 46:0.0014527636 47:0.00018069139 48:0.0090267891 49:0.00014070155 50:0.0034869674 51:0.0043920842 52:1.9890931e-05 53:0.00060551811 54:-3.1425762e-07 55:1.2353267e-05 56:0.00026423423 57:1.9890931e-05 58:0.0015021769 59:2.4078022e-06 60:2.7114336e-05 61:2.6800079e-05 62:2.9522142e-05 63:4.2083426e-05 64:0.00011022314 65:0.00035572611 66:-3.6851805e-05 67:0.00010876713 68:4.1870931e-06 69:4.8156044e-06 70:-2.0205187e-05 71:-2.0833704e-05 72:1.9890931e-05 73:0.00011442372 74:7.3176852e-05 75:0.00029679266 76:0.00039446808 77:0.00087132363 78:2.9522142e-05 79:1.2353267e-05 80:1.9890931e-05 81:5.663648e-05 82:0.003083142 83:0.00024884462 84:0.0027838759 85:1.9890931e-05 86:-0.00012027135 87:0.0013507952 88:0.003579322 89:0.0018912934 90:1.9890931e-05 91:-1.8425902e-05 92:0.0018535033 93:-0.00027376815 94:0.0067754192 95:0.001243068 96:-0.00019137612 97:0.032624844 98:0.0035415944 99:0.00026695628 100:0.0018088068 101:0.010747731 102:0.001417377 103:0.031089738 104:7.8302248e-05 105:0.0009126541 106:0.007173677 107:0.00064223207 108:-2.722059e-06 109:0.0034581127 110:5.9146059e-05 111:0.00015535193 112:-3.036318e-06 113:5.7889003e-05 114:0.00052175386 115:0.0011164992 116:3.674555e-05 117:4.4597466e-05 118:1.6540362e-05 119:-5.758377e-06 120:8.4379324e-05 121:9.3904295e-05 122:7.5584649e-05 123:2.4078022e-06 124:7.9143239e-05 125:-9.9981415e-05 126:0.0024648954 127:-2.722059e-06 128:1.9890931e-05 129:2.2298733e-05 130:-1.7797387e-05 131:0.0022446208 132:0.003141474 133:0.0002702006 134:0.0001630003 135:-8.4906067e-05 136:0.00066580618 137:0.0018295363 138:0.0091894465 139:0.0016101076 140:0.0023226133 141:0.0013884521 142:0.0016851609 143:0.00026930595 144:-0.0004228483 145:0.00022863946 146:0.00060153019 147:0.013830046 148:0.0014750444 149:0.0034585651 150:0.00067175884 151:-3.036318e-06 152:0.0011307242 153:0.00034755559 154:0.012231208 155:0.0018995794 156:0.00030255105 157:0.0002323043 158:0.00028925503 159:2.4078022e-06 160:2.2298733e-05 161:0.00013923652 162:0.00037792767 163:5.4542928e-05 164:0.00011117942 165:0.00010091969 166:3.4337747e-05 167:1.9890931e-05 168:0.00010186246 169:-5.1298603e-06 170:2.4078022e-06 171:7.8620957e-05 172:6.6581946e-05 173:-0.00010836464 174:1.9576673e-05 175:6.050933e-05 176:1.9890931e-05 177:1.9890931e-05 178:3.9781862e-05 179:9.6312087e-06 180:1.9890931e-05 181:1.9890931e-05 182:0.0017086283 183:0.0017275718 184:0.001466675 185:0.00057649566 186:-3.1425762e-07 187:0.006126509 188:-0.00028874638 189:0.0002703775 190:0.0001172431 191:-0.00059531676 192:-0.00031323577 193:2.7008069e-05 194:-2.2621882e-05 195:0.010356487 196:-0.00037679475 197:7.223407e-06 198:-1.0259721e-05 199:1.8948165e-05 200:-0.00069724052 201:0.0009792312 202:0.00020508374 203:3.2244199e-05 204:0.00042533994 205:0.00012468344 206:-9.9875171e-05 207:7.6421136e-05 208:-0.0011086075 209:0.0063009616 210:-3.7166072e-05 211:0.0027795364 212:0.00065115112 213:7.9563724e-05 214:0.00025868384 215:4.8156044e-06 216:4.8156044e-06 217:-1.8111637e-05 218:-4.501795e-05 219:6.6581946e-05 220:2.0935465e-06 221:2.4078022e-06 222:2.4392277e-05 223:-5.192712e-05 224:3.9781862e-05 225:1.31898e-05 226:0.00019252244 227:-0.00028340393 228:-2.774285e-05 229:2.4078022e-06 230:2.1670221e-05 231:1.9890931e-05 232:3.8839091e-05 233:-5.3715357e-05 234:-7.0153969e-06 235:0.0016352211 236:-5.444118e-06 237:0.00090492656 238:3.674555e-05 239:5.4228673e-05 240:0.004300721 241:0.00056593993 242:2.4706535e-05 243:0.00034483348 244:2.490557e-05 245:0.0083347224 246:0.00066182681 247:0.00016111475 248:0.00018770683 249:6.2080595e-05 250:8.1971528e-05 251:0.0069242069 252:0.00082808943 253:0.0037127831 254:0.016570302 255:0.0040022577 256:0.00050385465 257:-0.00016363327 258:-0.00018676852 259:0.0008000235 260:1.9890931e-05 261:1.9890931e-05 262:0.00028098261 263:1.6226111e-05 264:9.1916998e-05 265:3.9781862e-05 266:0.0019631907 267:1.2353267e-05 268:0.00016519558 269:3.7059803e-05 270:1.9890931e-05 271:7.223407e-06 272:0.00042367593 273:0.00065838807 274:0.000617243 275:-5.915053e-05 276:0.00010238471 277:3.4652003e-05 278:5.4542928e-05 279:7.1083297e-05 280:-1.0259721e-05 281:0.00024203732 282:7.2862575e-05 283:0.00027417968 284:9.945465e-05 285:0.00037109782 286:-2.774285e-05 287:1.2353267e-05 288:0.0064137131 289:1.4761071e-05 290:2.9836398e-05 291:1.9890931e-05 292:-0.000252306 293:0.0008981193 294:0.0021473924 295:0.00046785283 296:0.00049381191 297:0.00075991364 298:0.0087139569 299:0.011716099 300:0.00041373048 301:0.0074993325 302:0.00092428626 303:0.00055652554 304:0.0026854561 305:0.00079690147 306:0.00025752425 307:0.00032390704 308:0.00013944453 309:2.3449518e-05 310:0.00011892509 311:0.0011397449 312:0.00031949853 313:-7.8519179e-06 314:1.9890931e-05 315:1.9784702e-05 316:-0.00037239524 317:0.0002463306 318:0.00021754323 319:4.4597466e-05 320:2.4706535e-05 321:0.00043466591 322:0.00013085789 323:-3.3186974e-05 324:0.00056392065 325:2.4706535e-05 326:0.00013368615 327:7.6841665e-05 328:0.00010908586 329:0.00012468344 330:2.9207882e-05 331:7.5792661e-05 332:0.00016833816 333:0.00019524447 334:0.00062973256 335:0.0016969916 336:0.0018639758 337:1.2039011e-05 338:2.7114336e-05 339:0.0013808348 340:0.00028014605 341:0.00017891213 342:5.0249579e-05 343:0.00011348094 344:-1.3296038e-05 345:0.00039467166 346:2.9522142e-05 347:2.4078022e-06 348:0.00012112487 349:-4.8262289e-05 350:9.4324801e-05 351:0.00080767169 352:0.0046223695 353:0.0018434157 354:0.00013965253 355:0.00041456698 356:3.9777406e-05 357:-0.00017065318 358:-6.8786292e-05 359:0.00023607085 360:0.00018372774 361:5.2135128e-05 362:0.00038766069 363:0.00014090956 364:5.9672795e-05 365:-2.722059e-06 366:1.3818307e-05 367:0.0024877999 368:1.8319643e-05 369:2.9522142e-05 370:-2.5185352e-06 371:0.0012162724 372:0.00056048698 373:4.8156044e-06 374:0.0040862048 375:4.532771e-05 376:-0.0006570383 377:0.00096249685 378:4.8156044e-06 379:-0.00039091398 380:-5.1298603e-06 381:0.0018809009 382:0.00021492288 383:0.00028046037 384:-3.3505755e-06 385:2.4706535e-05 386:2.2298733e-05 387:0.00033196242 388:1.9890931e-05 389:4.2189662e-05 390:2.4078022e-06 391:-1.0259721e-05 392:3.2244199e-05 393:4.1875406e-05 394:1.9890931e-05 395:-0.00024424156 396:0.00013975424 397:-1.0888236e-05 398:4.1246891e-05 399:0.0019151638 400:1.2353267e-05 401:-0.00015169605 402:0.00030966825 403:0.00032694332 404:5.9358539e-05 405:-0.00011683603 406:-3.7480306e-05 407:-0.00038170328 408:0.0069462061 409:0.00013525742 410:8.8876244e-05 411:6.0823564e-05 412:0.00027584826 413:-4.0973217e-05 414:0.0066211345 415:0.0001928189 416:-0.00021535692 417:8.9402958e-05 418:0.00014184789 419:-0.00018405552 420:8.6052336e-05 421:9.3904295e-05 422:0.000461466 423:0.0036992612 424:0.00065848063 425:-1.5389583e-05 426:0.00028318239 427:0.0016172199 428:0.00040210751 429:0.00011881886 430:0.002213089 431:-2.3870012e-05 432:1.2353267e-05 433:2.4078022e-06 434:2.9836398e-05 435:4.2189662e-05 436:4.2189662e-05 437:0.00053391256 438:3.2244199e-05 439:9.7254866e-05 440:-1.0573978e-05 441:3.5068035e-05 442:4.8156044e-06 443:0.0001630003 444:-5.1298603e-06 445:-1.2667524e-05 446:4.4597466e-05 447:0.00034997237 448:3.5802765e-05 449:0.00090530212 450:0.00066497381 451:0.00017252077 452:-4.7532012e-05 453:0.00045936799 454:0.00026653579 455:0.00026423423 456:1.4446814e-05 457:-4.5854486e-05 458:1.2353267e-05 459:5.2971653e-05 460:-0.00010197311 461:0.0037080562 462:0.0015377585 463:-1.6960876e-05 464:0.00010060542 465:0.0016848601 466:0.00049713079 467:1.4761071e-05 468:-3.852935e-05 469:2.4078022e-06 470:0.00011253816 471:0.00024402903 472:0.005006433 473:0.00122998 474:1.3818307e-05 475:0.00012290418 476:7.223407e-06 477:0.00091434078 478:0.0019841623 479:4.0932642e-05 480:0.00056825037 481:-1.7797387e-05 482:7.223407e-06 483:4.4597466e-05 484:0.00052228954 485:0.00033228123 486:2.4078022e-06 487:-5.1298603e-06 488:0.00072015438 489:0.00020006008 490:4.7527537e-05 491:-5.1298603e-06 492:0.00015546262 493:2.1670221e-05 494:0.00010123394 495:-3.1425762e-07 496:0.0019967325 497:4.8470298e-05 498:-0.000107639 499:1.4446814e-05 500:7.223407e-06 501:0.0029639341 502:6.8361223e-05 503:-4.7740024e-05 504:1.9890931e-05 505:2.4078022e-06 506:0.0024677147 507:0.0024975375 508:0.0054553631 509:0.0030255634 510:2.3449518e-05 511:0.00022403184 512:-6.5329405e-05 513:0.00012290418 514:0.00056416495 515:0.00049140409 516:3.1819167e-05 517:-6.2085121e-05 518:0.001330798 519:8.7623666e-05 520:0.00039719007 521:-3.9888113e-05 522:0.00073405216 523:1.611985e-05 524:9.2957074e-05 525:0.0081174988 526:0.00042629178 527:0.00037247903 528:0.0019085684 529:-2.0417647e-05 530:-0.00014206482 531:-8.5950611e-05 532:4.2189662e-05 533:0.00071868475 534:1.8948165e-05 535:3.9153347e-05 536:5.4228673e-05 537:1.9262417e-05 538:1.2353267e-05 539:0.0003006655 540:0.00023680562 541:1.9890931e-05 542:6.9304006e-05 543:3.7059803e-05 544:2.9836398e-05 545:7.3491101e-05 546:-5.1298603e-06 547:3.2244199e-05 548:-2.722059e-06 549:0.00030328133 550:4.8156044e-06 551:-1.7797387e-05 552:-3.1425762e-07 553:0.00010029118 554:-0.00015996851 555:0.0007402398 556:0.00060812949 557:0.00021544968 558:2.4078022e-06 559:1.9890931e-05 560:-7.6005148e-05 561:-6.2851524e-07 562:8.1343016e-05 563:7.6213153e-05 564:0.00094584143 565:2.4078022e-06 566:5.4542928e-05 567:2.4078022e-06 568:5.5901695e-05 569:0.00082828401 570:0.0024715287 571:0.00028872833 572:0.000804724 573:7.223407e-06 574:0.00049147435 575:9.8485158e-05 576:4.8156044e-06 577:2.9836398e-05 578:0.00039560528 579:0.00025627154 580:0.00017472504 581:2.0935465e-06 582:0.00082641188 583:0.00032683709 584:0.0004033554 585:0.00011829654 586:2.2298733e-05 587:2.4706535e-05 588:7.8620957e-05 589:-6.302791e-05 590:1.9890931e-05 591:-4.805428e-05 592:0.00053589995 593:-1.0888236e-05 594:7.704967e-05 595:5.2135128e-05 596:0.00042241442 597:1.9890931e-05 598:1.8005408e-05 599:0.00039602115 600:0.00018529902 601:-8.1347549e-05 602:0.00023251226 603:2.4078022e-06 604:-0.000775441 605:1.9890931e-05 606:2.3015421e-06 607:3.2766457e-05 608:1.9890931e-05 609:3.9781862e-05 610:3.4023484e-05 611:0.0031320779 612:-0.00036737183 613:2.4078022e-06 614:-2.449852e-05 615:0.0017124965 616:0.00038242454 617:0.00019011463 618:8.6158623e-05 619:2.9836398e-05 620:-7.8519179e-06 621:0.0027501755 622:0.00090335991 623:0.00010636381 624:-5.0984356e-05 625:2.4078022e-06 626:0.00036535735 627:0.0001313846 628:1.9890931e-05 629:0.00010186246 630:1.4761071e-05 631:-5.7685487e-05 632:1.9890931e-05 633:0.00026025518 634:0.00012885725 635:0.00026705361 636:0.0006425734 637:4.5013521e-06 638:3.2244199e-05 639:-8.009046e-05 640:9.6732598e-05 641:0.00011023666 642:6.2080595e-05 643:2.4078022e-06 644:0.0004724561 645:0.00016906841 646:2.3135246e-05 647:0.00013650551 648:0.00018592754 649:0.00026705812 650:-0.00054984225 651:0.00073166663 652:0.0031157278 653:0.001533372 654:0.00043706916 655:0.0008719521 656:0.00099590071 657:-5.1298603e-06 658:2.2298733e-05 659:0.00019796654 660:4.8156044e-06 661:7.223407e-06 662:0.00036630474 663:1.5597601e-05 664:0.00092816824 665:2.9836398e-05 666:0.00015211204 667:-9.6210337e-05 668:9.1288479e-05 669:6.145209e-05 670:-5.1298603e-06 671:0.0012975843 672:0.0006153573 673:1.9890931e-05 674:0.0014805946 675:7.9457473e-05 676:8.9819012e-05 677:0.00088367244 678:-9.8303884e-05 679:0.00053621409 680:4.4898155e-05 681:0.0026175112 682:8.4273081e-05 683:0.00043308109 684:-0.00013181854 685:2.4078022e-06 686:2.4078022e-06 687:0.00027762743 688:4.428321e-05 689:2.1355967e-05 690:2.9730149e-05 691:0.00033228123 692:4.7005266e-05 693:0.00011013036 694:0.00083917665 695:2.4078022e-06 696:1.2353267e-05 697:3.4652003e-05 698:9.4010531e-05 699:3.9781862e-05 700:2.4078022e-06 701:-3.1425762e-07 702:-2.8057108e-05 703:-2.3870012e-05 704:0.00068528525 705:-3.036318e-06 706:0.00078953354 707:0.00037320936 708:0.00025831143 709:0.0014164118 710:0.0019166287 711:0.00040177067 712:0.00016362433 713:-0.0003089424 714:0.00015933545 715:0.0017868014 716:-0.00050076132 717:-1.7797387e-05 718:2.4078023e-05 719:-2.5335048e-05 720:9.9976904e-05 721:0.0001677096 722:-1.0888236e-05 723:1.9890931e-05 724:5.8415764e-05 725:-3.036318e-06 726:4.2189662e-05 727:1.4761071e-05 728:3.1929947e-05 729:2.4078022e-06 730:2.9836398e-05 731:6.6581946e-05 732:1.4761071e-05 733:9.6312087e-06 734:7.9457473e-05 735:8.6158623e-05 736:2.826512e-05 737:-9.1080474e-05 738:-1.298178e-05 739:0.002568098 740:-1.0888236e-05 741:0.00018131995 742:0.00043432933 743:-5.192712e-05 744:0.00030621141 745:-8.5848842e-05 746:-5.1298603e-06 747:4.4597466e-05 748:0.00013002132 749:0.00082766893 750:-7.9674435e-05 751:-0.00082402193 752:-0.00054631085 753:0.0030176186 754:0.0003515436 755:0.0011065491 756:0.00039509204 757:7.1388502e-05 758:2.6171572e-05 759:0.00016833816 760:0.00047674938 761:0.0018996765 762:0.00025271301 763:0.00069890014 764:2.4078022e-06 765:1.2353267e-05 766:0.00014111755 767:4.8156044e-06 768:4.7005266e-05 769:0.00015336907 770:-8.9009554e-06 771:-2.722059e-06 772:4.8156044e-06 773:0.00028506346 774:5.9358539e-05 775:0.0002463306 776:4.1246891e-05 777:2.4078022e-06 778:1.2353267e-05 779:2.4078022e-06 780:0.00037289955 781:1.7168873e-05 782:-5.1298603e-06 783:3.2443213e-06 784:0.0016588736 785:0.00027030235 786:-5.444118e-06 787:1.7168873e-05 788:1.1724759e-05 789:3.4652003e-05 790:2.4078023e-05 791:2.9836398e-05 792:0.0014787274 793:2.9836398e-05 794:0.0022249471 795:0.00050156208 796:-0.00077106827 797:0.00020696926 798:0.00022078755 799:0.00018372774 800:0.00028747125 801:0.00026234868 802:2.3135246e-05 803:0.00057798339 804:-0.00052471523 805:1.2353267e-05 806:7.7992452e-05 807:1.9890931e-05 808:1.9890931e-05 809:2.2298733e-05 810:-3.1425762e-07 811:9.6312087e-06 812:1.2353267e-05 813:0.00040095672 814:0.00044921902 815:-1.5389583e-05 816:4.428321e-05 817:4.8156044e-06 818:2.2298733e-05 819:7.8620957e-05 820:0.00047486831 821:0.00010877162 822:9.8511882e-05 823:0.00029195912 824:0.0011961507 825:0.00041069413 826:8.0608268e-05 827:8.8880675e-05 828:2.6485826e-05 829:0.00034002689 830:3.9781862e-05 831:3.9781862e-05 832:3.9781862e-05 833:4.9727325e-05 834:6.741847e-05 835:0.00023534059 836:4.9727325e-05 837:3.2244199e-05 838:3.9781862e-05 839:3.9781862e-05 840:3.9781862e-05 841:3.9781862e-05 842:3.9781862e-05 843:2.4706535e-05 844:2.0408783e-05 845:4.637675e-05 846:0.00048345054 847:0.0010234311 848:-5.0147843e-05 849:1.9576673e-05 850:-2.596356e-05 851:0.00017210467 852:6.5639164e-05 853:-0.00019452328 854:3.1615684e-05 855:0.00013169885 856:1.9890931e-05 857:-5.3392152e-05 858:-5.3706397e-05 859:-1.3296038e-05 860:0.0045007002 861:0.00081280171 862:0.00017221097 863:0.00050280133 864:0.001760117 865:-0.00027160483 866:0.00044177403 867:-6.6798879e-05 868:0.00072318624 869:0.002050939 870:2.4078022e-06 871:0.00012112487 872:0.00030003701 873:5.1506624e-05 874:0.0011209649 875:-1.3508514e-05 876:0.0026317639 877:0.00035415939 878:0.00018289122 879:0.00026182641 880:-1.1516754e-05 881:8.688432e-06 882:0.00015661339 883:0.00020581846 884:6.050933e-05 885:0.0013255662 886:0.00021995101 887:8.7309389e-05 888:0.00010301325 889:1.2353267e-05 890:2.2298733e-05 891:0.00037603767 892:-0.00010018943 893:1.2353267e-05 894:1.4761071e-05 895:1.9890931e-05 896:4.1870931e-06 897:2.9836398e-05 898:8.1657265e-05 899:1.2353267e-05 900:2.0935465e-06 901:0.00015514839 902:0.00062373595 903:0.00080181169 904:0.000275959 905:1.7376864e-05 906:0.00019273041 907:0.00020047606 908:5.3914409e-05 909:0.00077583489 910:0.0015055228 911:0.00020685403 912:0.00017199844 913:-1.7903618e-05 914:0.00022884744 915:4.8156044e-06 916:7.6841665e-05 917:1.9576673e-05 918:-0.00022780738 919:0.00020864225 920:-5.1298603e-06 921:2.4078022e-06 922:0.0032635555 923:0.00092586648 924:7.3805357e-05 925:0.00021272762 926:0.0007622377 927:-0.00041321263 928:3.9781862e-05 929:0.00036954897 930:0.00075228786 931:0.00040284224 932:0.0005401888 933:0.00026831505 934:4.9727325e-05 935:0.00010416403 936:6.6369459e-05 937:0.00052082451 938:5.9358539e-05 939:-3.6648346e-06 940:6.2080595e-05 941:1.4761071e-05 942:0.00028946303 943:0.00087706413 944:1.4446814e-05 945:1.2039011e-05 946:0.00077961024 947:0.00058834488 948:0.00016844441 949:0.00060436741 950:1.9890931e-05 951:-0.0019471431 952:0.0041250121 953:5.5897253e-05 954:0.0048795054 955:-8.1661756e-06 956:0.00034807783 957:0.00010614221 958:6.2810868e-05 959:4.7005266e-05 960:1.9890931e-05 961:2.6800079e-05 962:3.4652003e-05 963:8.5109634e-05 964:6.626769e-05 965:4.5013521e-06 966:0.00029700069 967:2.9522142e-05 968:0.00032631482 969:1.1724759e-05 970:7.4433861e-05 971:4.1875406e-05 972:3.9781862e-05 973:2.4078022e-06 974:6.2080595e-05 975:3.9781862e-05 976:-5.444118e-06 977:0.00014823921 978:0.00033720306 979:9.6312087e-06 980:0.0015106529 981:2.0935465e-06 982:1.1410505e-05 983:0.00058185618 984:-0.00023670834 985:0.00052187359 986:0.00013168991 987:9.6418335e-05 988:0.00026172021 989:0.0002943849 990:1.2353267e-05 991:4.9727325e-05 992:-2.7220593e-05 993:1.7168873e-05 994:2.2298733e-05 995:-2.5127027e-05 996:8.1343016e-05 997:0.0011336723 998:5.5065182e-05 999:0.00022172576 1000:-8.6056847e-05 1001:-8.4804378e-06 1002:0.00054154295 1003:1.4242189e-06 1004:-1.0573978e-05 1005:-2.722059e-06 1006:-0.0015791428 1007:7.8810837e-05 1008:-0.00043751221 1009:0.00039687136 1010:0.00095568929 1011:-2.0833704e-05 1012:0.00079856283 1013:-2.0205187e-05 1014:-7.1503797e-05 1015:2.4078022e-06 1016:-2.774285e-05 1017:7.0769049e-05 1018:2.6800079e-05 1019:0.00016813014 1020:0.00069061882 1021:2.4078022e-06 1022:1.1410505e-05 1023:1.9890931e-05 1024:0.0015161943 1025:4.4597466e-05 1026:6.1868093e-05 1027:4.8156044e-06 1028:1.6854618e-05 1029:1.7792862e-06 1030:0.00016509384 1031:0.00025041593 1032:0.00047109721 1033:0.00011348094 1034:-8.124124e-05 1035:-4.9939819e-05 1036:0.00016806762 1037:2.2298733e-05 1038:-4.0410374e-05 1039:3.1929947e-05 1040:-7.5422354e-06 1041:-4.4703716e-05 1042:0.00019282308 1043:1.9890931e-05 1044:-0.00016656333 1045:2.2298733e-05 1046:1.9890931e-05 1047:-2.1776472e-05 1048:1.2353267e-05 1049:0.00021586564 1050:0.0007717628 1051:1.9890931e-05 1052:1.9890931e-05 1053:1.9890931e-05 1054:1.9890931e-05 1055:1.9890931e-05 1056:1.9890931e-05 1057:-3.0779167e-05 1058:3.2244199e-05 1059:-7.0353024e-05 1060:-0.00032265889 1061:3.8728449e-06 1062:1.9890931e-05 1063:1.9890931e-05 1064:1.9890931e-05 1065:1.9890931e-05 1066:1.9890931e-05 1067:2.4392277e-05 1068:1.9890931e-05 1069:1.9890931e-05 1070:3.2244199e-05 1071:0.00015755165 1072:7.9134152e-05 1073:-6.878173e-05 1074:-0.00010354001 1075:1.4761071e-05 1076:1.9890931e-05 1077:1.9890931e-05 1078:2.9836398e-05 1079:1.9890931e-05 1080:1.9890931e-05 1081:0.00014687594 1082:1.9890931e-05 1083:1.9890931e-05 1084:1.9890931e-05 1085:1.9890931e-05 1086:1.6854618e-05 1087:1.9890931e-05 1088:1.9890931e-05 1089:7.223407e-06 1090:2.9836398e-05 1091:1.9890931e-05 1092:1.4650432e-06 1093:3.3709235e-05 1094:3.8511324e-05 1095:0.0030601444 1096:9.5249625e-06 1097:0.0018875268 1098:0.0017935119 1099:0.00083980529 1100:0.00019974585 1101:-1.6018099e-05 1102:-6.5745415e-05 1103:4.7005266e-05 1104:0.00019398748 1105:0.00044868782 1106:0.00023094105 1107:0.00056489976 1108:3.6325051e-05 1109:0.0002515667 1110:1.4969099e-05 1111:1.4446814e-05 1112:6.5948998e-06 1113:0.00019136709 1114:0.001144764 1115:-1.2565766e-05 1116:1.9890931e-05 1117:1.4761071e-05 1118:0.00016362879 1119:7.0454778e-05 1120:3.2244199e-05 1121:0.00034264263 1122:0.0003563592 1123:2.4078022e-06 1124:-0.0001124409 1125:-2.2927243e-05 1126:2.4078022e-06 1127:1.2353267e-05 1128:0.00021869398 1129:2.6065289e-05 1130:-1.298178e-05 1131:0.00017566782 1132:0.0002033044 1133:0.00038074257 1134:9.484707e-05 1135:1.9890931e-05 1136:1.9890931e-05 1137:0.00046450229 1138:0.00019858615 1139:-1.9054414e-05 1140:-0.00012259891 1141:1.1724759e-05 1142:0.0019044791 1143:0.0026686068 1144:1.9890931e-05 1145:2.9836398e-05 1146:2.9836398e-05 1147:0.00031929943 1148:1.9890931e-05 1149:-2.5649299e-05 1150:-1.015797e-05 1151:1.9890931e-05 1152:1.9890931e-05 1153:0.00088042812 1154:0.0008611657 1155:2.4392277e-05 1156:1.9576673e-05 1157:1.4761071e-05 1158:0.00061462709 1159:0.00036504769 1160:0.00029700069 1161:0.00056762178 1162:1.9890931e-05 1163:2.2298733e-05 1164:0.000115995 1165:-4.501795e-05 1166:0.0001785979 1167:4.1246891e-05 1168:-3.3186974e-05 1169:0.00019262418 1170:0.001352362 1171:0.00039686248 1172:6.6581946e-05 1173:0.00078798895 1174:0.0030394886 1175:0.00018194845 1176:7.9351252e-05 1177:0.0010369085 1178:1.9262417e-05 1179:9.5789816e-05 1180:8.2701838e-05 1181:-6.6059685e-05 1182:1.2353267e-05 1183:-6.1558334e-05 1184:9.6312087e-06 1185:1.9890931e-05 1186:2.9836398e-05 1187:1.2353267e-05 1188:2.2298733e-05 1189:4.0932642e-05 1190:0.00018163421 1191:0.00011620305 1192:0.00070591096 1193:-4.3446682e-05 1194:1.9890931e-05 1195:1.9890931e-05 1196:-5.1298603e-06 1197:4.8156044e-06 1198:0.0001015482 1199:4.2189662e-05 1200:2.2298733e-05 1201:9.5161304e-05 1202:3.1509437e-05 1203:2.4078022e-06 1204:2.9522142e-05 1205:0.00025188093 1206:0.00028412518 1207:0.00019063691 1208:5.0878101e-05 1209:0.00037665264 1210:0.0032810015 1211:0.00011410948 1212:0.0009903009 1213:2.6693833e-05 1214:1.9890931e-05 1215:-0.00023807616 1216:1.067126e-05 1217:0.00046188652 1218:-0.00069106632 1219:-0.00017808905 1220:0.00010290695 1221:0.00041686848 1222:2.4706535e-05 1223:5.2135128e-05 1224:0.00033919033 1225:0.00030380362 1226:6.4488398e-05 1227:8.9509187e-05 1228:-7.8519179e-06 1229:0.00017985492 1230:-2.3555758e-05 1231:1.8633913e-05 1232:-3.1425762e-07 1233:2.2298733e-05 1234:-5.1298603e-06 1235:1.9890931e-05 1236:2.2298733e-05 1237:-1.2667524e-05 1238:0.0033873005 1239:1.9890931e-05 1240:2.9836398e-05 1241:2.9836398e-05 1242:6.9618261e-05 1243:0.00011149366 1244:5.4542928e-05 1245:4.2397663e-05 1246:3.2244199e-05 1247:0.0002308347 1248:-0.00011767702 1249:0.00032735939 1250:0.00016624459 1251:-9.4277942e-07 1252:0.00020958502 1253:4.8784554e-05 1254:-0.00016059702 1255:0.00076129509 1256:4.9727325e-05 1257:0.00023502632 1258:3.4337747e-05 1259:0.00013410665 1260:2.9836398e-05 1261:0.00012384694 1262:2.9836398e-05 1263:-5.1298603e-06 1264:3.9781862e-05 1265:3.2244199e-05 1266:4.9727325e-05 1267:0.00035677972 1268:7.4641874e-05 1269:4.9727325e-05 1270:4.9727325e-05 1271:7.6841665e-05 1272:5.9672795e-05 1273:0.00015545363 1274:0.00041508465 1275:4.6062498e-05 1276:0.0002713514 1277:-0.0017881264 1278:0.00015389133 1279:4.3654694e-05 1280:3.7059803e-05 1281:3.9781862e-05 1282:-2.8685618e-05 1283:0.00013724473 1284:-2.722059e-06 1285:-1.2667524e-05 1286:8.1343016e-05 1287:0.00026254778 1288:8.102876e-05 1289:9.3384136e-07 1290:0.00011201592 1291:9.6104079e-05 1292:4.8156044e-06 1293:-1.2667524e-05 1294:-1.7797387e-05 1295:1.9890931e-05 1296:0.0011549133 1297:2.2298733e-05 1298:2.7114336e-05 1299:4.909882e-05 1300:3.7059803e-05 1301:3.0672923e-05 1302:0.00075124338 1303:0.00037865358 1304:0.00013169885 1305:0.00011986784 1306:0.00029166281 1307:0.0022862798 1308:0.00027271465 1309:9.6732598e-05 1310:-1.7797387e-05 1311:0.00021408639 1312:7.223407e-06 1313:1.9890931e-05 1314:-6.7321111e-05 1315:0.00031866648 1316:0.0027547742 1317:1.2353267e-05 1318:2.7114336e-05 1319:0.0023150847 1320:7.6527409e-05 1321:8.6787135e-05 1322:-3.1425762e-07 1323:1.9890931e-05 1324:0.00013044183 1325:-5.1298603e-06 1326:-7.3911586e-05 1327:2.9836398e-05 1328:4.8156044e-06 1329:-3.8316826e-05 1330:0.00010510679 1331:-2.722059e-06 1332:2.4078022e-06 1333:0.00013410665 1334:4.7005266e-05 1335:8.1865284e-05 1336:0.0001604862 1337:2.2298733e-05 1338:2.1670221e-05 1339:2.4078022e-06 1340:1.9890931e-05 1341:-2.722059e-06 1342:2.4078022e-06 1343:1.9890931e-05 1344:-1.9682911e-05 1345:-0.00013840912 1346:-1.2251531e-05 1347:0.0035257929 1348:0.0019085866 1349:0.00046094376 1350:0.00024486557 1351:0.0016131209 1352:-7.3476673e-07 1353:2.7114336e-05 1354:0.00020246788 1355:-3.3103144e-05 1356:0.00086870341 1357:0.00039550819 1358:0.00043299291 1359:7.5478427e-05 1360:-1.936867e-05 1361:0.00047622263 1362:0.0013533881 1363:0.0012142761 1364:0.0018051483 1365:2.4392277e-05 1366:0.00054710242 1367:0.00012290418 1368:3.9781862e-05 1369:0.00072842679 1370:0.00013620021 1371:2.2298733e-05 1372:1.9890931e-05 1373:0.0011737684 1374:2.4078022e-06 1375:2.4078022e-06 1376:2.9836398e-05 1377:4.8156044e-06 1378:2.0098936e-05 1379:2.6171572e-05 1380:7.223407e-06 1381:0.00028014163 1382:0.00041959059 1383:7.9563724e-05 1384:4.9727325e-05 1385:6.7732741e-05 1386:0.0001285563 1387:0.00024999541 1388:4.8156044e-06 1389:0.00043414361 1390:2.9522142e-05 1391:7.6527409e-05 1392:4.7005266e-05 1393:0.0012933087 1394:0.0013193873 1395:-5.4963428e-05 1396:0.00029249932 1397:3.2244199e-05 1398:0.0021474678 1399:5.6950736e-05 1400:0.00011306048 1401:6.3859894e-05 1402:-7.1503797e-05 1403:8.9402958e-05 1404:1.9890931e-05 1405:2.9836398e-05 1406:0.00036682701 1407:0.00057610223 1408:0.00026025518 1409:0.0010154775 1410:0.00028977726 1411:0.00094208802 1412:0.00055830035 1413:0.00051025051 1414:-4.2818174e-05 1415:0.0010568216 1416:-0.00081565697 1417:-0.00014960251 1418:1.4340554e-05 1419:-0.00010919652 1420:3.9467606e-05 1421:-1.2667524e-05 1422:1.9262417e-05 1423:0.0011768002 1424:0.00012625474 1425:0.00016603661 1426:0.00015399759 1427:-3.2872707e-05 1428:0.00048177299 1429:-7.8519179e-06 1430:7.6841665e-05 1431:0.00014645993 1432:5.4542928e-05 1433:3.8728449e-06 1434:1.2353267e-05 1435:-1.0259721e-05 1436:6.1766332e-05 1437:0.00029846569 1438:6.3859894e-05 1439:0.0007102089 1440:0.00024047047 1441:0.00010667806 1442:-2.2927243e-05 1443:7.223407e-06 1444:2.4078022e-06 1445:0.00038431009 1446:-5.758377e-06 1447:0.00018111194 1448:2.4706535e-05 1449:-5.0355844e-05 1450:0.0003637906 1451:2.4706535e-05 1452:2.3971781e-05 1453:-6.2851524e-07 1454:6.6369459e-05 1455:3.9781862e-05 1456:0.0016810889 1457:0.0024262506 1458:0.0027627146 1459:1.9890931e-05 1460:1.9890931e-05 1461:0.0002323043 1462:1.4761071e-05 1463:0.00014886772 1464:0.00086452067 1465:0.00010667806 1466:0.00059316482 1467:0.00066498289 1468:0.00010542106 1469:3.2244199e-05 1470:0.0027543581 1471:0.00078788714 1472:0.00015127553 1473:6.8029099e-06 1474:0.00021743697 1475:1.2353267e-05 1476:-3.0783704e-05 1477:0.0013875138 1478:1.3818307e-05 1479:2.4078022e-06 1480:4.8156044e-06 1481:4.2189662e-05 1482:1.2353267e-05 1483:0.00059567887 1484:0.00017156903 1485:0.00029175996 1486:0.00016854166 1487:1.2247026e-05 1488:-3.1828189e-05 1489:0.00018320091 1490:1.9890931e-05 1491:0.0015746101 1492:0.00070654409 1493:0.0021123998 1494:-3.8316826e-05 1495:-0.00012531645 1496:0.0001466635 1497:3.5802765e-05 1498:1.2353267e-05 1499:2.4078022e-06 1500:0.00012980889 1501:3.4337747e-05 1502:9.4634626e-05 1503:0.00020424718 1504:0.00013975879 1505:4.909882e-05 1506:0.00023575667 1507:-4.9833554e-05 1508:1.2353267e-05 1509:4.8156044e-06 1510:-5.1298603e-06 1511:0.00024915891 1512:1.9890931e-05 1513:0.00049622433 1514:1.4761071e-05 1515:2.0098936e-05 1516:2.2298733e-05 1517:2.9836398e-05 1518:2.4078022e-06 1519:-8.3542807e-05 1520:-2.1251901e-07 1521:2.4078022e-06 1522:0.00030129403 1523:0.0015233902 1524:0.001320538 1525:2.4078022e-06 1526:5.6950736e-05 1527:0.0021203535 1528:0.00010123394 1529:3.9153347e-05 1530:0.0001313846 1531:8.5215863e-05 1532:2.4078022e-06 1533:1.4761071e-05 1534:3.7059803e-05 1535:8.6158623e-05 1536:9.6312087e-06 1537:4.9727325e-05 1538:2.9836398e-05 1539:2.4078022e-06 1540:2.4078022e-06 1541:0.00055411772 1542:1.2353267e-05 1543:0.00081904663 1544:5.0771858e-05 1545:2.4078022e-06 1546:-1.3296038e-05 1547:0.0011074962 1548:7.9563724e-05 1549:1.2039011e-05 1550:5.9672795e-05 1551:6.8029099e-06 1552:1.9890931e-05 1553:9.4324801e-05 1554:1.7168873e-05 1555:0.00033761907 1556:5.6322213e-05 1557:3.2244199e-05 1558:-9.810934e-05 1559:-7.1955808e-05 1560:0.00010992239 1561:0.00021209908 1562:0.0018330949 1563:-0.00095760642 1564:2.4078022e-06 1565:4.2189662e-05 1566:2.4078022e-06 1567:3.9153347e-05 1568:2.4078022e-06 1569:0.00088838622 1570:0.0007099965 1571:8.1657265e-05 1572:-2.0833704e-05 1573:5.8101527e-05 1574:7.223407e-06 1575:4.8156044e-06 1576:3.3917244e-05 1577:0.00017713284 1578:-2.6592075e-05 1579:-8.1449252e-05 1580:0.00025020351 1581:-0.00055255549 1582:9.8511882e-05 1583:2.7636614e-05 1584:8.1971528e-05 1585:1.6854618e-05 1586:0.00011546828 1587:0.0001564054 1588:0.000183834 1589:0.00027627323 1590:-0.00016384581 1591:0.0015156852 1592:0.0002765875 1593:5.2657382e-05 1594:0.00015074878 1595:0.00063514209 1596:0.00026967388 1597:5.6950736e-05 1598:4.7005266e-05 1599:2.4078022e-06 1600:6.6896202e-05 1601:-0.00014657517 1602:2.7114336e-05 1603:-2.5649299e-05 1604:0.001233543 1605:6.2080595e-05 1606:0.00050920603 1607:1.9890931e-05 1608:0.0011471719 1609:0.00011023666 1610:5.3914409e-05 1611:0.0009889917 1612:9.1916998e-05 1613:-5.1298603e-06 1614:-1.0259721e-05 1615:7.3805357e-05 1616:3.9467606e-05 1617:4.8156044e-06 1618:2.4392277e-05 1619:7.2862575e-05 1620:1.9890931e-05 1621:1.4761071e-05 1622:-0.00046976967 1623:-0.00023199902 1624:2.4078022e-06 1625:2.4078022e-06 1626:7.223407e-06 1627:-1.2667524e-05 1628:0.00010845735 1629:-0.00011191417 1630:4.3862685e-05 1631:1.6854618e-05 1632:1.150771e-06 1633:0.00019576676 1634:-4.8368547e-05 1635:-7.2132316e-05 1636:1.4446814e-05 1637:5.3914409e-05 1638:0.0011997232 1639:1.9890931e-05 1640:-5.1298603e-06 1641:0.0002569046 1642:3.5488531e-05 1643:1.2353267e-05 1644:1.9890931e-05 1645:2.1984475e-05 1646:1.2353267e-05 1647:-5.1298603e-06 1648:0.00013000779 1649:1.9890931e-05 1650:0.00044084026 1651:7.9771744e-05 1652:0.0003489189 1653:2.4706535e-05 1654:0.00010427026 1655:0.00070109084 1656:3.1929947e-05 1657:9.9034129e-05 1658:0.00021973847 1659:0.00079207413 1660:-5.6742727e-05 1661:1.9890931e-05 1662:6.626769e-05 1663:0.0002569046 1664:2.4078022e-06 1665:0.00029155661 1666:-1.1202495e-05 1667:0.0022253583 1668:0.00026548671 1669:1.2353267e-05 1670:4.9727325e-05 1671:1.7168873e-05 1672:0.00091747427 1673:0.00011379525 1674:0.0001556706 1675:2.4078022e-06 1676:-0.00022383292 1677:8.1657265e-05 1678:4.8156044e-06 1679:9.0974223e-05 1680:0.00010364175 1681:0.00024915891 1682:0.00014896951 1683:-0.00017179943 1684:2.4706535e-05 1685:5.1820873e-05 1686:-1.5389583e-05 1687:2.9836398e-05 1688:0.00035311488 1689:-1.0259721e-05 1690:1.4761071e-05 1691:8.8252171e-05 1692:0.00038996671 1693:1.413256e-05 1694:0.00013808128 1695:0.00030914598 1696:0.0010598624 1697:6.5426691e-05 1698:-7.0153969e-06 1699:0.00064874784 1700:0.00014133006 1701:-8.2077764e-05 1702:0.00018111194 1703:4.2189662e-05 1704:3.4652003e-05 1705:0.00032296425 1706:5.2135128e-05 1707:-7.1189548e-05 1708:4.428321e-05 1709:0.00012049636 1710:0.00036117487 1711:-2.596356e-05 1712:-0.0002732414 1713:1.9890931e-05 1714:-2.2927243e-05 1715:-0.00010406225 1716:-3.1425762e-07 1717:-2.0311456e-05 1718:4.7005266e-05 1719:-0.00061694207 1720:-0.00010647005 1721:0.00018582131 1722:-0.00027868553 1723:1.4761071e-05 1724:0.00050982996 1725:0.00020141884 1726:2.0935465e-06 1727:2.9836398e-05 1728:1.9890931e-05 1729:0.0002241381 1730:-9.9560893e-05 1731:3.9781862e-05 1732:1.4761071e-05 1733:9.6312087e-06 1734:7.4433861e-05 1735:4.8156044e-06 1736:0.00048805805 1737:0.00047183203 1738:7.6527409e-05 1739:0.00040074417 1740:0.0013191614 1741:3.7059803e-05 1742:0.00033018767 1743:1.9890931e-05 1744:-1.5389583e-05 1745:9.9870689e-05 1746:0.00014583141 1747:5.6950736e-05 1748:2.9836398e-05 1749:6.8361223e-05 1750:6.1766332e-05 1751:-1.4659338e-05 1752:0.00083112117 1753:9.5161304e-05 1754:5.3600157e-05 1755:0.00016058807 1756:0.0014177797 1757:0.00063053891 1758:2.9836398e-05 1759:-8.9301175e-05 1760:3.8839091e-05 1761:6.8361223e-05 1762:4.2189662e-05 1763:0.00011180792 1764:-2.0205187e-05 1765:2.0935465e-06 1766:1.2353267e-05 1767:6.9091534e-06 1768:0.00015818469 1769:0.00012625474 1770:0.00062216481 1771:0.00023471209 1772:9.3904295e-05 1773:0.00062059355 1774:-0.0001220721 1775:0.00084179686 1776:6.2080595e-05 1777:0.00070967758 1778:-4.8576556e-05 1779:5.5379456e-05 1780:1.9890931e-05 1781:2.9836398e-05 1782:1.9890931e-05 1783:1.9890931e-05 1784:1.9890931e-05 1785:3.4023484e-05 1786:0.00011055089 1787:5.3378508e-06 1788:2.4078022e-06 1789:7.9457473e-05 1790:1.9890931e-05 1791:-5.758377e-06 1792:5.4228673e-05 1793:0.00036295416 1794:0.0013031614 1795:1.9890931e-05 1796:0.00011306048 1797:0.00027533047 1798:0.00044696985 1799:2.9836398e-05 1800:8.1971528e-05 1801:1.9890931e-05 1802:-2.596356e-05 1803:2.1878232e-05 1804:0.00010991783 1805:2.4078022e-06 1806:5.9358539e-05 1807:-1.7173335e-05 1808:-0.00015693212 1809:2.9836398e-05 1810:0.0004658656 1811:0.00030035124 1812:0.00024402903 1813:-2.2927243e-05 1814:1.2353267e-05 1815:2.9522142e-05 1816:-2.3870012e-05 1817:0.00025397449 1818:0.0004685832 1819:4.6058045e-05 1820:0.00089622498 1821:7.4956144e-05 1822:1.4650432e-06 1823:4.9727325e-05 1824:-3.1093419e-05 1825:2.5330608e-05 1826:-3.1097854e-05 1827:0.00056657277 1828:2.1041713e-05 1829:0.00053725875 1830:1.2353267e-05 1831:1.9890931e-05 1832:-2.0205187e-05 1833:7.4433861e-05 1834:1.4761071e-05 1835:2.9836398e-05 1836:0.00021576394 1837:0.00058091345 1838:0.0002957393 1839:0.00090042525 1840:0.00019053069 1841:9.1602727e-05 1842:0.00026182641 1843:1.2039011e-05 1844:-2.9216866e-05 1845:0.00015022652 1846:-0.00062354619 1847:2.6485826e-05 1848:1.9890931e-05 1849:-3.5280511e-05 1850:-3.1721924e-05 1851:1.9890931e-05 1852:1.2353267e-05 1853:1.9890931e-05 1854:-3.0571173e-05 1855:3.9675626e-05 1856:0.00074694998 1857:0.00092910638 1858:0.00045936799 1859:1.6956406e-05 1860:0.00030244482 1861:0.00058060355 1862:1.9890931e-05 1863:1.9890931e-05 1864:1.4761071e-05 1865:1.2353267e-05 1866:1.9890931e-05 1867:1.9890931e-05 1868:2.9836398e-05 1869:0.00015755615 1870:0.00010667806 1871:4.2189662e-05 1872:0.00012677698 1873:6.0195056e-05 1874:1.9890931e-05 1875:8.9509187e-05 1876:-1.0578502e-05 1877:4.8156044e-06 1878:0.00024371479 1879:1.9890931e-05 1880:6.4488398e-05 1881:4.2189662e-05 1882:2.1355967e-05 1883:0.000114738 1884:-2.722059e-06 1885:1.2353267e-05 1886:4.9413069e-05 1887:1.7168873e-05 1888:1.9890931e-05 1889:-6.2851524e-07 1890:4.8156044e-06 1891:0.0010380861 1892:2.4078022e-06 1893:3.0044415e-05 1894:0.00065618369 1895:2.1355967e-05 1896:0.00027470198 1897:0.0010811123 1898:7.6841665e-05 1899:0.00037017756 1900:-4.3760938e-05 1901:0.00017807563 1902:-5.1298603e-06 1903:0.00015179779 1904:4.8156044e-06 1905:9.6732598e-05 1906:2.2298733e-05 1907:-0.00020331335 1908:1.9890931e-05 1909:0.00013892226 1910:4.9727325e-05 1911:5.6950736e-05 1912:-5.1298603e-06 1913:-5.1298603e-06 1914:0.00052606064 1915:6.3859894e-05 1916:4.4805463e-05 1917:5.6844478e-05 1918:-6.2186838e-05 1919:-1.0259721e-05 1920:-5.1298603e-06 1921:0.00011107315 1922:0.000417289 1923:4.3950922e-06 1924:-6.9136167e-06 1925:0.0011606758 1926:0.00018205021 1927:2.9836398e-05 1928:0.00024947317 1929:0.00071250607 1930:4.8156044e-06 1931:6.9507456e-05 1932:4.7005266e-05 1933:0.00021199282 1934:6.6896202e-05 1935:1.7168873e-05 1936:2.7114336e-05 1937:1.2353267e-05 1938:0.00014823921 1939:4.4597466e-05 1940:5.6950736e-05 1941:4.9413069e-05 1942:1.2353267e-05 1943:9.9140394e-05 1944:0.00015933545 1945:8.1657265e-05 1946:3.2244199e-05 1947:0.0002060265 1948:-5.1298603e-06 1949:6.2806462e-06 1950:2.2298733e-05 1951:1.9890931e-05 1952:-1.2667524e-05 1953:4.2189662e-05 1954:-2.774285e-05 1955:0.00090095209 1956:0.0004138322 1957:-0.00067975296 1958:8.1971528e-05 1959:3.7059803e-05 1960:0.00011023666 1961:9.8511882e-05 1962:0.00020842979 1963:9.6312087e-06 1964:0.000115995 1965:4.5013521e-06 1966:1.9890931e-05 1967:0.00040828635 1968:9.9140394e-05 1969:0.00036242744 1970:4.1870931e-06 1971:-3.036318e-06 1972:-3.8316826e-05 1973:0.001069706 1974:1.4761071e-05 1975:-5.0670096e-05 1976:1.9890931e-05 1977:2.4078022e-06 1978:0.00065555971 1979:0.00051433593 1980:-5.1298603e-06 1981:0.00012551995 1982:2.4078022e-06 1983:1.2353267e-05 1984:2.4078022e-06 1985:0.00024947317 1986:0.00029856749 1987:1.1724759e-05 1988:0.00029532315 1989:0.00014070155 1990:-0.00015599393 1991:-6.0929819e-05 1992:4.8156044e-06 1993:9.0659974e-05 1994:2.9207882e-05 1995:1.9890931e-05 1996:2.2298733e-05 1997:-5.3812641e-05 1998:2.0935465e-06 1999:0.00028684724 2000:1.2353267e-05 2001:8.79379e-05 2002:-1.7797387e-05 2003:2.4078022e-06 2004:7.223407e-06 2005:-6.0726361e-06 2006:3.9662034e-05 2007:0.00019786032 2008:6.4904445e-05 2009:0.00014373787 2010:0.00019461599 2011:0.00040262972 2012:2.4078022e-06 2013:2.9836398e-05 2014:6.4696396e-05 2015:1.2353267e-05 2016:2.4078022e-06 2017:2.4078022e-06 2018:-5.1298603e-06 2019:2.4392277e-05 2020:0.00013075609 2021:0.00042922178 2022:2.4078023e-05 2023:1.4761071e-05 2024:3.674555e-05 2025:7.223407e-06 2026:2.1984475e-05 2027:0.00011348094 2028:1.9890931e-05 2029:4.8156044e-06 2030:0.00022895374 2031:1.0444954e-06 2032:2.4078022e-06 2033:-1.2667524e-05 2034:4.2189662e-05 2035:5.7366724e-05 2036:2.9938197e-05 2037:-3.0779167e-05 2038:9.6312087e-06 2039:0.00040210751 2040:3.9781862e-05 2041:-5.1298603e-06 2042:0.00042995656 2043:0.00040189945 2044:-0.00036540246 2045:3.5488531e-05 2046:0.00017398586 2047:-0.0004663968 2048:0.00042534896 2049:8.4379324e-05 2050:5.7787256e-05 2051:3.1195203e-05 2052:0.00019105739 2053:6.4488398e-05 2054:0.00015096128 2055:-0.00011463622 2056:-2.3555758e-05 2057:-1.298178e-05 2058:1.9890931e-05 2059:-2.722059e-06 2060:3.9467606e-05 2061:0.00012143914 2062:1.2353267e-05 2063:0.00032212774 2064:5.1506624e-05 2065:6.5953442e-05 2066:0.001385872 2067:0.0010748405 2068:6.6055225e-05 2069:2.9836398e-05 2070:2.2298733e-05 2071:1.9262417e-05 2072:2.9836398e-05 2073:1.9890931e-05 2074:1.9890931e-05 2075:3.8524835e-05 2076:0.00026800079 2077:-1.1202495e-05 2078:4.9413069e-05 2079:1.2353267e-05 2080:0.0004546587 2081:0.00059567887 2082:0.00022141605 2083:0.0019624967 2084:3.9781862e-05 2085:2.4078022e-06 2086:0.00068664853 2087:3.674555e-05 2088:-8.4485568e-05 2089:0.00022958225 2090:0.00013190688 2091:-3.1093419e-05 2092:-0.00014415837 2093:-0.00021262585 2094:-0.00031103595 2095:-0.00011348545 2096:1.9890931e-05 2097:-3.036318e-06 2098:-1.7797387e-05 2099:2.9836398e-05 2100:1.2353267e-05 2101:-3.2872707e-05 2102:2.4078022e-06 2103:-6.7011511e-06 2104:4.5013521e-06 2105:2.4078022e-06 2106:0.0012107174 2107:-2.8057108e-05 2108:0.00010468629 2109:-5.1298603e-06 2110:2.4078022e-06 2111:2.0935465e-06 2112:-1.5389583e-05 2113:0.002966838 2114:0.0016080006 2115:6.8046967e-05 2116:0.0015672891 2117:0.00093748071 2118:1.9890931e-05 2119:-0.00043647696 2120:-8.1661756e-06 2121:4.1246891e-05 2122:5.663648e-05 2123:0.00093873765 2124:0.00057986885 2125:0.0010182966 2126:2.7114336e-05 2127:5.8938047e-05 2128:-2.9628394e-05 2129:-6.0615563e-05 2130:-3.1425762e-07 2131:-1.0259721e-05 2132:6.9618261e-05 2133:4.7005266e-05 2134:-3.979088e-06 2135:3.5802765e-05 2136:2.4078022e-06 2137:-1.0888236e-05 2138:1.9890931e-05 2139:0.00013913029 2140:0.00037593587 2141:7.3176852e-05 2142:2.4706535e-05 2143:1.5597601e-05 2144:-4.2933339e-06 2145:0.00030129403 2146:-0.00034170889 2147:-2.8057108e-05 2148:2.7114336e-05 2149:-6.1244085e-05 2150:0.00016090675 2151:0.00052720687 2152:8.6787135e-05 2153:2.4078022e-06 2154:-7.5690892e-05 2155:-0.00071724236 2156:3.1929947e-05 2157:4.8156044e-06 2158:0.00030390982 2159:0.0001879148 2160:0.00038462441 2161:-0.00028455455 2162:0.00043141705 2163:0.00011233019 2164:7.4433861e-05 2165:-2.722059e-06 2166:0.00024758762 2167:-6.3868897e-06 2168:3.9781862e-05 2169:0.00037059805 2170:1.2353267e-05 2171:-0.00036505659 2172:7.223407e-06 2173:-4.2924421e-05 2174:1.9890931e-05 2175:3.2244199e-05 2176:1.9890931e-05 2177:1.2353267e-05 2178:6.0195056e-05 2179:0.00029773545 2180:0.00027302891 2181:0.00011683153 2182:2.4706535e-05 2183:3.9781862e-05 2184:2.6800079e-05 2185:-3.5594774e-05 2186:4.8156044e-06 2187:-0.00015860519 2188:6.5948998e-06 2189:2.7114336e-05 2190:-2.6592075e-05 2191:8.688432e-06 2192:0.00025334599 2193:2.2298733e-05 2194:0.00012562622 2195:1.0781988e-05 2196:7.223407e-06 2197:6.3545638e-05 2198:-8.1661756e-06 2199:4.8470298e-05 2200:3.9781862e-05 2201:1.2353267e-05 2202:4.8156044e-06 2203:-1.0259721e-05 2204:1.7168873e-05 2205:4.1561147e-05 2206:2.9836398e-05 2207:4.2189662e-05 2208:0.00044691746 2209:0.00046377207 2210:3.5802765e-05 2211:1.4446814e-05 2212:0.00019932535 2213:-5.7056975e-05 2214:-7.8731646e-05 2215:-2.5335048e-05 2216:4.7005266e-05 2217:4.5956254e-05 2218:4.9413069e-05 2219:1.9890931e-05 2220:9.8392184e-06 2221:-3.036318e-06 2222:6.898975e-05 2223:0.00036410493 2224:4.396895e-05 2225:2.4078022e-06 2226:-0.00043331165 2227:0.0002652788 2228:1.9890931e-05 2229:1.9890931e-05 2230:0.00026726606 2231:0.00028925503 2232:-6.9830778e-05 2233:1.9890931e-05 2234:2.7008069e-05 2235:4.428321e-05 2236:0.00022173033 2237:-3.486453e-05 2238:-1.7589382e-05 2239:3.9781862e-05 2240:2.4078022e-06 2241:7.8935213e-05 2242:0.00075815246 2243:0.00011086516 2244:-3.1425762e-07 2245:1.9890931e-05 2246:6.2080595e-05 2247:2.7114336e-05 2248:0.00012834829 2249:-5.54857e-05 2250:1.2039011e-05 2251:-1.3296038e-05 2252:3.4652003e-05 2253:3.2244199e-05 2254:2.9836398e-05 2255:9.9140394e-05 2256:1.9890931e-05 2257:2.4078022e-06 2258:0.00029176462 2259:1.9890931e-05 2260:4.909882e-05 2261:7.223407e-06 2262:0.00026329144 2263:1.2353267e-05 2264:0.00043916731 2265:3.4652003e-05 2266:1.7792862e-06 2267:0.0001015482 2268:-7.1826937e-05 2269:9.0027042e-06 2270:-6.7737215e-05 2271:-0.000416041 2272:1.7168873e-05 2273:3.2244199e-05 2274:0.0002700944 2275:0.0016359648 2276:9.3169565e-06 2277:3.2244199e-05 2278:3.674555e-05 2279:-0.00011422475 2280:-5.5503697e-06 2281:3.4652003e-05 2282:-4.8576556e-05 2283:4.8156044e-06 2284:8.4379324e-05 2285:-7.2238581e-05 2286:6.5948998e-06 2287:-0.00016415553 2288:0.00063985132 2289:8.636665e-05 2290:-5.831401e-05 2291:-1.7797387e-05 2292:4.7527537e-05 2293:-5.0462098e-05 2294:4.2189662e-05 2295:-2.774285e-05 2296:1.7168873e-05 2297:-7.3911586e-05 2298:0.00017022368 2299:-2.4290544e-05 2300:-5.1298603e-06 2301:1.4761071e-05 2302:-3.0779167e-05 2303:2.9836398e-05 2304:1.9890931e-05 2305:1.9890931e-05 2306:1.2353267e-05 2307:2.4706535e-05 2308:1.9890931e-05 2309:0.00013494318 2310:3.9675626e-05 2311:-0.00016373505 2312:2.4078022e-06 2313:0.00079688523 2314:3.8839091e-05 2315:6.8029099e-06 2316:9.2952629e-05 2317:1.9890931e-05 2318:2.4392277e-05 2319:2.7114336e-05 2320:2.1984475e-05 2321:2.0935465e-06 2322:2.3135246e-05 2323:0.0003496581 2324:-4.4075208e-05 2325:0.00039634912 2326:1.4761071e-05 2327:3.4652003e-05 2328:3.2244199e-05 2329:0.00043152788 2330:0.00061356922 2331:0.00020560597 2332:-1.7173335e-05 2333:1.2353267e-05 2334:0.00016770061 2335:8.8566419e-05 2336:0.00012562622 2337:4.2189662e-05 2338:1.2353267e-05 2339:1.9890931e-05 2340:7.6841665e-05 2341:1.7792862e-06 2342:5.663648e-05 2343:1.9890931e-05 2344:0.00032631482 2345:0.00037059805 2346:0.00033437472 2347:1.4761071e-05 2348:-0.00012123113 2349:-9.6210337e-05 2350:1.9890931e-05 2351:1.9890931e-05 2352:1.9890931e-05 2353:0.0018256496 2354:-9.4231982e-06 2355:1.9890931e-05 2356:-0.00062660011 2357:0.00075993169 2358:3.4019024e-05 2359:0.00017817738 2360:0.00013651003 2361:1.4446814e-05 2362:0.00025951589 2363:0.00025103989 2364:-2.722059e-06 2365:0.00011840281 2366:9.5789816e-05 2367:4.1875406e-05 2368:4.3340442e-05 2369:1.9890931e-05 2370:3.2244199e-05 2371:0.0001313846 2372:-6.2851524e-07 2373:-4.0724626e-05 2374:3.8524835e-05 2375:0.00020518995 2376:-3.1425762e-07 2377:2.4078022e-06 2378:3.2244199e-05 2379:5.6007961e-05 2380:3.4652003e-05 2381:1.2353267e-05 2382:-2.5335048e-05 2383:2.1984475e-05 2384:-5.2360974e-06 2385:6.2080595e-05 2386:-0.00020843874 2387:-0.00040839706 2388:-8.4171326e-05 2389:-6.6059685e-05 2390:9.1602727e-05 2391:-0.00011662802 2392:4.9727325e-05 2393:-4.5646495e-05 2394:5.8415764e-05 2395:5.5693727e-05 2396:-5.1298603e-06 2397:-2.722059e-06 2398:-5.1298603e-06 2399:-1.8111637e-05 2400:-2.722059e-06 2401:1.2353267e-05 2402:0.00051935948 2403:4.8156044e-06 2404:-7.4540127e-05 2405:-0.00013013209 2406:-0.001148248 2407:-0.00018645429 2408:-3.3186974e-05 2409:-1.6124355e-05 2410:0.0010280301 2411:0.0001813155 2412:0.00013284961 2413:-6.6059685e-05 2414:0.00040912285 2415:1.4761071e-05 2416:9.0659974e-05 2417:1.4761071e-05 2418:-6.3337611e-05 2419:-2.722059e-06 2420:-1.7797387e-05 2421:2.2298733e-05 2422:4.7005266e-05 2423:0.00013787327 2424:3.1929947e-05 2425:8.0599248e-06 2426:-3.3186974e-05 2427:4.8156044e-06 2428:-1.2667524e-05 2429:-6.4700936e-05 2430:4.8156044e-06 2431:0.00030746838 2432:-6.0929819e-05 2433:5.0457624e-05 2434:0.00054667285 2435:2.4078022e-06 2436:7.223407e-06 2437:-6.878173e-05 2438:0.00028788726 2439:-1.0259721e-05 2440:5.4542928e-05 2441:1.9890931e-05 2442:1.9890931e-05 2443:1.9890931e-05 2444:0.00011871708 2445:0.00029521689 2446:0.00014488863 2447:0.0001410158 2448:1.6854618e-05 2449:1.9890931e-05 2450:6.6475681e-05 2451:0.00025010167 2452:4.9727325e-05 2453:4.2083426e-05 2454:1.9890931e-05 2455:1.9890931e-05 2456:1.9890931e-05 2457:1.9890931e-05 2458:0.00017776135 2459:1.2353267e-05 2460:0.00012656899 2461:0.00016582407 2462:1.9890931e-05 2463:1.9890931e-05 2464:1.9890931e-05 2465:2.6800079e-05 2466:1.9890931e-05 2467:-0.0003942645 2468:0.00016509384 2469:0.00058970362 2470:0.00018990209 2471:0.00068098312 2472:0.0012322813 2473:-5.30779e-05 2474:1.2353267e-05 2475:-2.722059e-06 2476:0.00028046037 2477:1.9890931e-05 2478:-0.00025785185 2479:1.9890931e-05 2480:6.4696396e-05 2481:-6.2851524e-07 2482:2.4078022e-06 2483:-5.1298603e-06 2484:-0.0012338143 2485:4.8156046e-05 2486:0.0010299153 2487:5.1506624e-05 2488:-8.1135004e-05 2489:-7.2132316e-05 2490:6.5010659e-05 2491:-0.00014908025 2492:2.4078022e-06 2493:1.9890931e-05 2494:4.7005266e-05 2495:3.9781862e-05 2496:2.9836398e-05 2497:-2.6203256e-06 2498:0.00043529447 2499:0.00022319535 2500:8.8252171e-05 2501:9.6312087e-06 2502:0.0010665635 2503:1.4761071e-05 2504:4.8156044e-06 2505:-0.00025366474 2506:2.9522142e-05 2507:3.2244199e-05 2508:1.9890931e-05 2509:2.4706535e-05 2510:1.9890931e-05 2511:-2.9420382e-05 2512:1.2353267e-05 2513:0.0042118225 2514:0.00011703954 2515:5.6950736e-05 2516:4.2189662e-05 2517:6.3647429e-05 2518:-1.8111637e-05 2519:3.4652003e-05 2520:2.4078022e-06 2521:0.00013357992 2522:0.00029825317 2523:5.1820873e-05 2524:9.6312087e-06 2525:0.00012531198 2526:9.6104079e-05 2527:8.0400256e-05 2528:0.00036462717 2529:1.9890931e-05 2530:1.9890931e-05 2531:1.9890931e-05 2532:1.9890931e-05 2533:0.00072182732 2534:1.1096233e-05 2535:5.2135128e-05 2536:5.3808209e-05 2537:2.2298733e-05 2538:7.8306693e-05 2539:0.00067900924 2540:0.00048114892 2541:1.9890931e-05 2542:3.9467606e-05 2543:2.4706535e-05 2544:3.9781862e-05 2545:9.6732598e-05 2546:1.9890931e-05 2547:3.2244199e-05 2548:1.9890931e-05 2549:1.9890931e-05 2550:1.9890931e-05 2551:1.9890931e-05 2552:0.00029051205 2553:0.0013077646 2554:2.6800079e-05 2555:0.0001647796 2556:5.0878101e-05 2557:-1.2667524e-05 2558:9.1288479e-05 2559:2.4078022e-06 2560:-0.00012228011 2561:0.00028318239 2562:6.3231368e-05 2563:7.5584649e-05 2564:0.0014664802 2565:0.00013410665 2566:0.00012677698 2567:7.223407e-06 2568:-0.0004866021 2569:-7.4752606e-05 2570:3.4652003e-05 2571:0.00024706533 2572:-2.1147956e-05 2573:2.4706535e-05 2574:0.00034735652 2575:4.7841771e-05 2576:9.6626325e-05 2577:0.00045926627 2578:9.0027042e-06 2579:0.00014886772 2580:0.00018152795 2581:1.9890931e-05 2582:1.9890931e-05 2583:1.9890931e-05 2584:0.0001081431 2585:2.4078022e-06 2586:3.9781862e-05 2587:0.0013885808 2588:4.5956254e-05 2589:1.9890931e-05 2590:2.9836398e-05 2591:1.9890931e-05 2592:4.5013521e-06 2593:-2.722059e-06 2594:-9.2966024e-05 2595:6.5953442e-05 2596:0.0002033044 2597:3.9467606e-05 2598:8.688432e-06 2599:1.9890931e-05 2600:0.00083226757 2601:7.223407e-06 2602:-1.5389583e-05 2603:3.9781862e-05 2604:8.4065068e-05 2605:0.0002652788 2606:2.4078022e-06 2607:1.9890931e-05 2608:2.9522142e-05 2609:0.00038745266 2610:-0.0006441627 2611:6.9091534e-06 2612:4.9727325e-05 2613:1.9890931e-05 2614:1.2353267e-05 2615:-0.00023210516 2616:-2.5335048e-05 2617:4.909882e-05 2618:-3.036318e-06 2619:5.4542928e-05 2620:1.1724759e-05 2621:-2.2404991e-05 2622:3.1615684e-05 2623:0.00026632327 2624:2.4078022e-06 2625:-2.722059e-06 2626:7.1711809e-05 2627:-4.0410374e-05 2628:-0.00011578701 2629:-2.7955355e-05 2630:2.2298733e-05 2631:-0.00020289289 2632:3.4652003e-05 2633:9.6312087e-06 2634:6.4174143e-05 2635:0.00045842974 2636:3.7059803e-05 2637:2.9836398e-05 2638:0.00026392 2639:0.00015263433 2640:1.2039011e-05 2641:4.1561147e-05 2642:0.00016331453 2643:0.00024675109 2644:0.00029742121 2645:2.9836398e-05 2646:0.0012307192 2647:-2.722059e-06 2648:-3.3186974e-05 2649:0.00016593035 2650:2.1984475e-05 2651:-2.5335048e-05 2652:-1.7797387e-05 2653:-7.8519179e-06 2654:2.9836398e-05 2655:2.1984475e-05 2656:6.6896202e-05 2657:2.9836398e-05 2658:2.9836398e-05 2659:1.9890931e-05 2660:2.4078022e-06 2661:0.00020852701 2662:-2.8371363e-05 2663:3.0880892e-05 2664:3.1615684e-05 2665:2.910164e-05 2666:1.9890931e-05 2667:0.00027051484 2668:0.00069460244 2669:-9.4277942e-07 2670:0.00034704228 2671:-0.00015033725 2672:0.00047840443 2673:-0.00027648575 2674:0.00016844441 2675:0.00015609115 2676:4.396895e-05 2677:9.1810762e-05 2678:1.9890931e-05 2679:0.00010929388 2680:3.9255094e-05 2681:0.00012866255 2682:0.00043791023 2683:1.2039011e-05 2684:-1.0259721e-05 2685:4.8784554e-05 2686:-5.1298603e-06 2687:7.223407e-06 2688:-5.1298603e-06 2689:-3.5280511e-05 2690:8.4379324e-05 2691:-0.00051538937 2692:2.4078022e-06 2693:-6.5431173e-05 2694:-0.00013800648 2695:0.00017378229 2696:7.9249476e-05 2697:-2.3033508e-05 2698:-0.0003368977 2699:-0.00058930553 2700:0.00040702932 2701:-0.00018980939 2702:6.145209e-05 2703:-3.3297711e-05 2704:6.7732741e-05 2705:-5.758377e-06 2706:3.4652003e-05 2707:0.00030820322 2708:8.1657265e-05 2709:0.0002408865 2710:-5.1298603e-06 2711:-9.8303884e-05 2712:2.9836398e-05 2713:3.7059803e-05 2714:2.3657492e-05 2715:0.0009701454 2716:0.00075197802 2717:0.00052877818 2718:0.0010591323 2719:-0.00018802554 2720:-1.7797387e-05 2721:2.4078022e-06 2722:0.00011903133 2723:1.4761071e-05 2724:0.00071659125 2725:1.9890931e-05 2726:1.8633913e-05 2727:6.626769e-05 2728:7.223407e-06 2729:0.00011233019 2730:5.8730013e-05 2731:-3.036318e-06 2732:-0.00018352424 2733:7.3805357e-05 2734:2.4078022e-06 2735:-2.2927243e-05 2736:0.00094355323 2737:3.2244199e-05 2738:5.7472982e-05 2739:-2.0205187e-05 2740:1.4761071e-05 2741:2.2298733e-05 2742:4.8156044e-06 2743:-2.5335048e-05 2744:6.2917134e-05 2745:0.00026245046 2746:3.9153347e-05 2747:0.00058895961 2748:7.6106895e-05 2749:-0.00010010573 2750:0.00027281634 2751:3.1929947e-05 2752:-3.1425762e-07 2753:5.1086095e-05 2754:1.9890931e-05 2755:7.5478427e-05 2756:0.00012980889 2757:-1.0259721e-05 2758:1.2353267e-05 2759:6.6896202e-05 2760:2.9207882e-05 2761:2.9836398e-05 2762:4.0304134e-05 2763:1.7168873e-05 2764:1.9890931e-05 2765:-3.6648346e-06 2766:2.7114336e-05 2767:6.5639164e-05 2768:0.0011407896 2769:0.00011651729 2770:1.2353267e-05 2771:-0.00012311667 2772:0.00015127553 2773:2.4078022e-06 2774:0.00011390147 2775:4.4597466e-05 2776:4.9413069e-05 2777:-3.2872707e-05 2778:1.9890931e-05 2779:0.00020634074 2780:0.00016833816 2781:0.00036912845 2782:0.0005137074 2783:0.0011893614 2784:6.145209e-05 2785:0.00011379525 2786:0.00054929772 2787:5.3914409e-05 2788:0.00027438317 2789:-2.5649299e-05 2790:7.6841665e-05 2791:1.2353267e-05 2792:9.3169565e-06 2793:0.00092000194 2794:2.9836398e-05 2795:5.2135128e-05 2796:3.9781862e-05 2797:6.1766332e-05 2798:8.9610927e-05 2799:0.00023994368 2800:1.9890931e-05 2801:7.223407e-06 2802:4.4597466e-05 2803:-2.2927243e-05 2804:4.8156044e-06 2805:0.00022308905 2806:-2.0311456e-05 2807:-1.3296038e-05 2808:3.4652003e-05 2809:9.8826138e-05 2810:0.00025030965 2811:1.9890931e-05 2812:0.00023083019 2813:2.4078022e-06 2814:0.00050061493 2815:6.6581946e-05 2816:-0.00024518432 2817:0.0015328407 2818:0.0010694981 2819:-0.00013620927 2820:-3.1425762e-07 2821:0.00021220092 2822:5.9672795e-05 2823:2.4078022e-06 2824:-2.722059e-06 2825:3.4337747e-05 2826:1.9890931e-05 2827:3.9153347e-05 2828:-1.1516754e-05 2829:1.2353267e-05 2830:2.4392277e-05 2831:0.00034201867 2832:4.8470298e-05 2833:8.4379324e-05 2834:6.626769e-05 2835:0.00014666795 2836:2.6800079e-05 2837:0.00050512073 2838:6.1345847e-05 2839:-4.0410374e-05 2840:1.9890931e-05 2841:2.4078022e-06 2842:1.7168873e-05 2843:-2.722059e-06 2844:2.9836398e-05 2845:-6.0929819e-05 2846:-3.3186974e-05 2847:0.00013703672 2848:0.0001033275 2849:5.4542928e-05 2850:2.8893628e-05 2851:0.001385106 2852:0.00045131249 2853:0.00032265001 2854:0.00030107715 2855:3.2244199e-05 2856:0.00013620021 2857:3.1929947e-05 2858:1.4761071e-05 2859:1.9890931e-05 2860:9.5789816e-05 2861:7.4433861e-05 2862:-5.8836267e-05 2863:1.4761071e-05 2864:-5.1298603e-06 2865:-1.298178e-05 2866:0.00030317515 2867:0.00051202084 2868:-0.00027470649 2869:0.00029982897 2870:0.00064027193 2871:8.102876e-05 2872:8.9194931e-05 2873:1.2353267e-05 2874:0.00030609622 2875:0.00021419264 2876:0.00080798595 2877:6.9304006e-05 2878:5.4542928e-05 2879:1.9890931e-05 2880:2.4078022e-06 2881:0.0002937564 2882:2.7114336e-05 2883:7.6841665e-05 2884:0.000287998 2885:1.2353267e-05 2886:-0.00021608268 2887:-2.5335048e-05 2888:-4.7948037e-05 2889:0.00025805071 2890:0.00031436406 2891:1.8837374e-05 2892:-4.1667408e-05 2893:-7.3916053e-05 2894:2.4078022e-06 2895:-1.5389583e-05 2896:0.00056762178 2897:-3.2872707e-05 2898:8.9509187e-05 2899:0.00010542106 2900:3.8839091e-05 2901:8.8252171e-05 2902:0.0004087023 2903:8.5317573e-05 2904:0.00010667806 2905:0.00012112487 2906:-5.4020671e-05 2907:4.8156044e-06 2908:7.7678182e-05 2909:7.223407e-06 2910:6.2080595e-05 2911:3.6117035e-05 2912:1.2353267e-05 2913:2.4078022e-06 2914:-2.1997887e-06 2915:5.9663844e-06 2916:0.00080693705 2917:-2.8057108e-05 2918:1.9890931e-05 2919:3.9467606e-05 2920:0.00022884744 2921:1.9576673e-05 2922:-8.1661756e-06 2923:0.00031270456 2924:0.00040314748 2925:5.5379456e-05 2926:6.4488398e-05 2927:2.7114336e-05 2928:0.00058123213 2929:1.9576673e-05 2930:7.6841665e-05 2931:1.7168873e-05 2932:2.0935465e-06 2933:-6.7945206e-05 2934:1.2353267e-05 2935:2.1984475e-05 2936:5.8101527e-05 2937:0.0001918895 2938:-0.00028674994 2939:-2.5127027e-05 2940:0.0002283252 2941:-7.8204925e-05 2942:0.00041310195 2943:8.3651992e-07 2944:2.9836398e-05 2945:5.2224772e-07 2946:1.9890931e-05 2947:1.9890931e-05 2948:-3.1425762e-07 2949:4.8156044e-06 2950:2.0935465e-06 2951:4.7005266e-05 2952:0.00036965529 2953:0.00030704797 2954:6.5639164e-05 2955:0.00025522706 2956:2.4078022e-06 2957:5.8309502e-05 2958:2.2298733e-05 2959:-3.0464909e-05 2960:0.00017776135 2961:2.0935465e-06 2962:6.6896202e-05 2963:0.0006010168 2964:0.00033793336 2965:-7.8833444e-05 2966:0.00040723738 2967:9.9870689e-05 2968:0.00054699153 2969:0.0002419355 2970:-2.3555758e-05 2971:7.3805357e-05 2972:7.6213153e-05 2973:2.4392277e-05 2974:-2.1568438e-05 2975:2.9836398e-05 2976:1.2039011e-05 2977:-1.0259721e-05 2978:-4.0724626e-05 2979:0.00012646274 2980:8.1971528e-05 2981:5.4542928e-05 2982:-7.8519179e-06 2983:6.6896202e-05 2984:9.6418335e-05 2985:1.9890931e-05 2986:-1.3610296e-05 2987:0.00011568076 2988:0.00014342362 2989:-4.2051056e-07 2990:-5.2555628e-05 2991:0.00010604954 2992:0.00021314371 2993:1.4761071e-05 2994:2.4078022e-06 2995:-3.1425762e-07 2996:1.9890931e-05 2997:5.4958917e-05 2998:-2.6074322e-05 2999:2.4078022e-06 3000:-2.5335048e-05 3001:1.7376864e-05 3002:0.00014781872 3003:4.2189662e-05 3004:1.4761071e-05 3005:2.7008069e-05 3006:-2.722059e-06 3007:1.9890931e-05 3008:7.4327596e-05 3009:9.9662677e-05 3010:0.00010992239 3011:7.7678182e-05 3012:0.00019377944 3013:0.00014133006 3014:0.00016153525 3015:0.00015158979 3016:-0.0001137997 3017:1.6226111e-05 3018:0.0016023391 3019:0.00057306589 3020:2.4078023e-05 3021:0.00056531583 3022:2.9836398e-05 3023:5.9672795e-05 3024:0.00011934559 3025:1.9890931e-05 3026:7.7673634e-05 3027:0.00019189392 3028:0.00015158979 3029:0.00013169885 3030:0.00011934559 3031:0.00012929105 3032:2.4078022e-06 3033:0.00094408001 3034:0.00028171734 3035:5.6476438e-06 3036:0.00072695722 3037:0.00045665039 3038:2.3015421e-06 3039:-1.4553073e-05 3040:3.9781862e-05 3041:6.2806462e-06 3042:0.00017022368 3043:2.4078022e-06 3044:3.9781862e-05 3045:1.4761071e-05 3046:-0.00024037318 3047:2.6158143e-06 3048:2.4706535e-05 3049:0.00024528606 3050:2.2298733e-05 3051:0.0001177743 3052:0.00011390147 3053:0.00062980416 3054:-9.3908799e-05 3055:0.00010571766 3056:-0.001062607 3057:3.9781862e-05 3058:6.1766332e-05 3059:0.00018026638 3060:-8.4698069e-05 3061:1.7168873e-05 3062:4.1870931e-06 3063:4.9935345e-05 3064:0.0010761906 3065:0.00011233019 3066:2.4078022e-06 3067:-1.0888236e-05 3068:7.1711809e-05 3069:1.6854618e-05 3070:6.9091534e-06 3071:-1.2667524e-05 3072:-1.2667524e-05 3073:7.223407e-06 3074:-0.00044755044 3075:-1.2667524e-05 3076:3.3080723e-05 3077:1.2353267e-05 3078:4.428321e-05 3079:7.3070623e-05 3080:2.2298733e-05 3081:4.8156044e-06 3082:2.2298733e-05 3083:2.4392277e-05 3084:0.00021178485 3085:2.9836398e-05 3086:0.00030401611 3087:0.00048261398 3088:0.00015881319 3089:0.0003057954 3090:0.00014164433 3091:0.00077668455 3092:9.945465e-05 3093:0.00011934559 3094:3.9781862e-05 3095:4.909882e-05 3096:4.9727325e-05 3097:2.4078022e-06 3098:2.4706535e-05 3099:1.9890931e-05 3100:2.9836398e-05 3101:0.00075867015 3102:0.00014164433 3103:0.00013651446 3104:0.00010091969 3105:4.2189662e-05 3106:3.9781862e-05 3107:3.9781862e-05 3108:3.9781862e-05 3109:7.2548341e-05 3110:-3.1425762e-07 3111:2.9836398e-05 3112:0.00046438718 3113:-3.0571173e-05 3114:2.3343258e-05 3115:2.9836398e-05 3116:3.9781862e-05 3117:0.00011662353 3118:3.7059803e-05 3119:2.7114336e-05 3120:2.7114336e-05 3121:5.7787256e-05 3122:-5.1298603e-06 3123:-4.5854486e-05 3124:4.2189662e-05 3125:0.00034369173 3126:0.00011828313 3127:4.0932642e-05 3128:0.00021932251 3129:0.00038504487 3130:0.00018980037 3131:4.3654694e-05 3132:4.9413069e-05 3133:1.2039011e-05 3134:4.2189662e-05 3135:-2.0519441e-05 3136:-2.774285e-05 3137:1.9890931e-05 3138:1.4761071e-05 3139:0.00015305482 3140:2.4078022e-06 3141:0.00013284961 3142:0.00016833816 3143:1.9576673e-05 3144:2.9522142e-05 3145:2.9836398e-05 3146:1.4761071e-05 3147:4.8156044e-06 3148:2.1670221e-05 3149:3.9781862e-05 3150:8.8566419e-05 3151:1.9890931e-05 3152:4.2189662e-05 3153:-0.000126153 3154:5.3905569e-05 3155:-0.000106054 3156:9.5161304e-05 3157:0.0021669518 3158:-1.2667524e-05 3159:1.9890931e-05 3160:1.9890931e-05 3161:2.4078022e-06 3162:4.4597466e-05 3163:3.0044415e-05 3164:0.00010813866 3165:-1.8111637e-05 3166:2.4078022e-06 3167:2.9836398e-05 3168:4.8156044e-06 3169:5.6844478e-05 3170:4.9413069e-05 3171:0.00013651446 3172:-1.0259721e-05 3173:-7.8519179e-06 3174:-9.9875171e-05 3175:-3.7480306e-05 3176:2.7114336e-05 3177:1.5597601e-05 3178:-1.0994464e-05 3179:6.3545638e-05 3180:2.8579374e-05 3181:2.9836398e-05 3182:2.4078022e-06 3183:4.7107049e-05 3184:1.9890931e-05 3185:1.2353267e-05 3186:6.145209e-05 3187:1.2353267e-05 3188:0.00024873842 3189:9.6312087e-06 3190:0.00012855179 3191:-6.2186838e-05 3192:5.3378508e-06 3193:-2.5649299e-05 3194:1.9890931e-05 3195:-3.036318e-06 3196:0.00035060087 3197:0.00011683153 3198:0.00039582679 3199:-5.0281219e-06 3200:0.00024078471 3201:-1.3296038e-05 3202:0.00010824489 3203:-3.142552e-06 3204:2.4078022e-06 3205:2.9836398e-05 3206:-3.1425762e-07 3207:-7.8519179e-06 3208:-8.1661756e-06 3209:-2.0833704e-05 3210:1.4752106e-05 3211:2.9836398e-05 3212:2.9836398e-05 3213:2.9836398e-05 3214:0.00035133565 3215:2.6485826e-05 3216:2.9836398e-05 3217:0.00017639811 3218:1.6226111e-05 3219:2.9836398e-05 3220:2.9836398e-05 3221:2.9836398e-05 3222:2.9836398e-05 3223:2.9836398e-05 3224:2.9836398e-05 3225:3.9781862e-05 3226:-0.00052366621 3227:-0.00010994024 3228:4.8364054e-05 3229:0.00017713284 3230:9.9662677e-05 3231:7.6841665e-05 3232:3.2244199e-05 3233:2.1984475e-05 3234:2.9836398e-05 3235:-3.0779167e-05 3236:2.9207882e-05 3237:1.4650432e-06 3238:1.8633913e-05 3239:0.0002891488 3240:8.5844353e-05 3241:3.1301428e-05 3242:8.0400256e-05 3243:-0.0025104897 3244:2.4078023e-05 3245:2.4078022e-06 3246:2.9836398e-05 3247:7.223407e-06 3248:1.9890931e-05 3249:0.00022183212 3250:2.4706535e-05 3251:0.0002754367 3252:0.00033929219 3253:8.1657265e-05 3254:1.9890931e-05 3255:4.1870931e-06 3256:3.9781862e-05 3257:-1.6018099e-05 3258:2.9836398e-05 3259:1.8948165e-05 3260:0.00016728473 3261:0.0010748405 3262:-0.0001781864 3263:0.00042472049 3264:-0.00012248817 3265:-0.00056522299 3266:2.1355967e-05 3267:1.1724759e-05 3268:1.9890931e-05 3269:9.3169565e-06 3270:-5.1298603e-06 3271:1.2353267e-05 3272:2.4078022e-06 3273:2.4078022e-06 3274:-0.00023785916 3275:-2.1674736e-05 3276:-2.722059e-06 3277:5.0249579e-05 3278:1.4761071e-05 3279:9.2106957e-06 3280:7.5898897e-05 3281:3.2244199e-05 3282:0.00013284961 3283:2.4600306e-05 3284:-3.5280511e-05 3285:-3.5594774e-05 3286:2.4392277e-05 3287:-6.8153226e-05 3288:0.00032087069 3289:8.4273081e-05 3290:8.3122293e-05 3291:0.00059965352 3292:-1.2667524e-05 3293:0.00012970708 3294:0.00010091969 3295:0.00026318064 3296:5.2135128e-05 3297:6.4488398e-05 3298:6.2080595e-05 3299:1.9576673e-05 3300:2.9836398e-05 3301:4.7005266e-05 3302:2.7114336e-05 3303:3.6117035e-05 3304:8.102876e-05 3305:2.4078022e-06 3306:0.0001289768 3307:0.000115995 3308:1.2353267e-05 3309:0.00023492005 3310:-4.2051056e-07 3311:1.9576673e-05 3312:3.9153347e-05 3313:2.7114336e-05 3314:4.8156044e-06 3315:4.8156044e-06 3316:1.4761071e-05 3317:0.00030181627 3318:0.00015158979 3319:-5.1298603e-06 3320:0.00017325999 3321:-2.9526615e-05 3322:-3.0464909e-05 3323:0.00048376468 3324:2.9836398e-05 3325:0.00036672517 3326:8.3436564e-05 3327:5.9358539e-05 3328:1.9890931e-05 3329:1.9890931e-05 3330:2.1984475e-05 3331:0.00012384694 3332:0.00052668474 3333:1.9890931e-05 3334:0.00024224525 3335:0.00021314371 3336:5.2135128e-05 3337:0.00030045304 3338:7.8306693e-05 3339:-6.8153226e-05 3340:-5.6742727e-05 3341:6.312511e-05 3342:1.9262417e-05 3343:1.2353267e-05 3344:3.3394979e-05 3345:7.6000666e-05 3346:5.9672795e-05 3347:1.9890931e-05 3348:7.223407e-06 3349:3.9781862e-05 3350:-7.6005148e-05 3351:4.8156044e-06 3352:0.00011421573 3353:2.9836398e-05 3354:0.00027721602 3355:0.00035950175 3356:0.00034369173 3357:1.9890931e-05 3358:-5.1298603e-06 3359:2.4078022e-06 3360:1.9890931e-05 3361:2.9836398e-05 3362:2.9836398e-05 3363:-0.0001640493 3364:1.9890931e-05 3365:3.1929947e-05 3366:1.9890931e-05 3367:0.00050229236 3368:1.9890931e-05 3369:1.9890931e-05 3370:5.7681034e-05 3371:0.0011037296 3372:-3.8002574e-05 3373:8.4065068e-05 3374:2.9836398e-05 3375:2.4078022e-06 3376:4.8156044e-06 3377:-0.00014415837 3378:8.8880675e-05 3379:4.909882e-05 3380:1.9890931e-05 3381:2.8574812e-05 3382:1.6540362e-05 3383:0.0002329328 3384:0.00034023938 3385:5.7787256e-05 3386:-4.9833554e-05 3387:2.7114336e-05 3388:1.9890931e-05 3389:0.00017754425 3390:-2.4184274e-05 3391:-4.2818174e-05 3392:2.2298733e-05 3393:0.00041874964 3394:-0.00070833683 3395:-5.7056975e-05 3396:3.4023484e-05 3397:2.4078022e-06 3398:0.00012049636 3399:-0.00012248817 3400:-5.30779e-05 3401:1.9890931e-05 3402:3.5262703e-05 3403:0.00014750448 3404:2.4078022e-06 3405:6.9304006e-05 3406:9.1288479e-05 3407:2.2298733e-05 3408:-0.00016530632 3409:-2.5127027e-05 3410:8.6158623e-05 3411:-3.0256919e-05 3412:-7.3287585e-05 3413:0.00026088365 3414:5.6007961e-05 3415:7.3805357e-05 3416:0.0040967837 3417:0.00015787043 3418:5.1820873e-05 3419:-2.722059e-06 3420:1.9890931e-05 3421:4.7005266e-05 3422:1.9576673e-05 3423:7.1397553e-05 3424:-1.5389583e-05 3425:2.2298733e-05 3426:5.2135128e-05 3427:5.1820873e-05 3428:0.00033280349 3429:2.585732e-05 3430:1.9890931e-05 3431:-6.0615563e-05 3432:2.4078023e-05 3433:-1.5389583e-05 3434:8.8252171e-05 3435:7.223407e-06 3436:9.7254866e-05 3437:1.9890931e-05 3438:0.00025010167 3439:0.00029553566 3440:3.9467606e-05 3441:0.00015849895 3442:4.9413069e-05 3443:4.3442204e-05 3444:2.2298733e-05 3445:2.7114336e-05 3446:1.9890931e-05 3447:-5.1298603e-06 3448:0.00027449397 3449:-0.00012165163 3450:2.1355967e-05 3451:2.2298733e-05 3452:-2.5335048e-05 3453:1.9890931e-05 3454:9.9140394e-05 3455:0.00059462996 3456:0.00074151042 3457:9.6418335e-05 3458:5.9358539e-05 3459:2.9836398e-05 3460:0.00023072849 3461:0.00026046316 3462:0.00011390147 3463:1.2353267e-05 3464:-2.722059e-06 3465:1.9890931e-05 3466:1.9890931e-05 3467:1.9890931e-05 3468:0.00012656899 3469:1.9890931e-05 3470:0.00020152514 3471:1.9890931e-05 3472:1.9890931e-05 3473:-3.1425762e-07 3474:4.9413069e-05 3475:-0.00076350372 3476:-2.1997887e-06 3477:-0.00017347249 3478:4.7005266e-05 3479:-7.8519179e-06 3480:-0.00051811145 3481:0.00018980037 3482:2.4078022e-06 3483:3.9153347e-05 3484:2.4706535e-05 3485:9.1602727e-05 3486:2.4078022e-06 3487:0.00020183486 3488:2.2298733e-05 3489:2.4078022e-06 3490:4.1246891e-05 3491:6.3859894e-05 3492:3.9047081e-05 3493:2.4078022e-06 3494:6.9091534e-06 3495:0.00019733804 3496:2.2298733e-05 3497:-5.3392152e-05 3498:2.4706535e-05 3499:-9.8830635e-05 3500:1.9890931e-05 3501:2.9836398e-05 3502:-1.7797387e-05 3503:5.9358539e-05 3504:-9.9560893e-05 3505:1.9890931e-05 3506:-0.00017850941 3507:-0.00061108661 3508:9.0031463e-05 3509:-0.00036170613 3510:1.9890931e-05 3511:-3.3505755e-06 3512:3.9153347e-05 3513:1.9890931e-05 3514:3.2244199e-05 3515:1.9890931e-05 3516:1.9890931e-05 3517:1.9890931e-05 3518:1.4761071e-05 3519:-1.5703836e-05 3520:1.9890931e-05 3521:8.6680884e-05 3522:-4.3132437e-05 3523:-1.298178e-05 3524:2.9836398e-05 3525:7.1711809e-05 3526:0.0002419355 3527:0.00012782145 3528:4.4597466e-05 3529:0.00018351973 3530:7.3805357e-05 3531:2.4078022e-06 3532:-9.3280258e-05 3533:3.4337747e-05 3534:4.1034389e-05 3535:0.00066498289 3536:-0.00060689042 3537:9.6732598e-05 3538:-3.4443998e-05 3539:-3.8316826e-05 3540:3.7059803e-05 3541:8.553009e-05 3542:1.2353267e-05 3543:0.00035824478 3544:0.00061953987 3545:4.3026168e-05 3546:0.0002765875 3547:0.00040964509 3548:0.00076233491 3549:-2.3662e-05 3550:3.9153347e-05 3551:7.2862575e-05 3552:1.9890931e-05 3553:6.4488398e-05 3554:0.00012981331 3555:6.9091534e-06 3556:9.2124996e-05 3557:1.6854618e-05 3558:0.00016080051 3559:6.9618261e-05 3560:4.8784554e-05 3561:0.00049590995 3562:-1.7797387e-05 3563:0.00022780294 3564:6.9091534e-06 3565:4.1561147e-05 3566:-2.596356e-05 3567:0.00011630927 3568:1.9890931e-05 3569:0.00046533882 3570:4.9413069e-05 3571:0.00019000837 3572:0.00011986784 3573:-5.444118e-06 3574:6.2806462e-06 3575:3.2244199e-05 3576:1.9890931e-05 3577:2.4078022e-06 3578:2.4078022e-06 3579:1.2039011e-05 3580:4.9413069e-05 3581:-2.0205187e-05 3582:-3.2872707e-05 3583:-3.1425762e-07 3584:4.8156044e-06 3585:0.00018016915 3586:4.5013521e-06 3587:1.2353267e-05 3588:2.4078022e-06 3589:2.4078022e-06 3590:3.4652003e-05 3591:3.9781862e-05 3592:7.1083297e-05 3593:0.00011149366 3594:1.2353267e-05 3595:0.00042399022 3596:1.9890931e-05 3597:1.2039011e-05 3598:1.2353267e-05 3599:9.3382041e-05 3600:3.9781862e-05 3601:4.3654694e-05 3602:5.663648e-05 3603:0.00018759615 3604:1.9890931e-05 3605:0.00013891784 3606:1.9890931e-05 3607:1.9890931e-05 3608:1.9890931e-05 3609:1.9890931e-05 3610:-1.6646603e-05 3611:1.9890931e-05 3612:1.9890931e-05 3613:1.9890931e-05 3614:-9.4277942e-07 3615:3.4652003e-05 3616:4.9727325e-05 3617:1.9890931e-05 3618:1.9890931e-05 3619:1.9890931e-05 3620:-1.2667524e-05 3621:1.9890931e-05 3622:1.9890931e-05 3623:2.9836398e-05 3624:1.9890931e-05 3625:0.00080924307 3626:-5.1298603e-06 3627:-2.722059e-06 3628:3.2244199e-05 3629:-5.1298603e-06 3630:7.2756309e-05 3631:2.4078022e-06 3632:0.00023345505 3633:-5.2869884e-05 3634:-0.0001968203 3635:8.1971528e-05 3636:4.6691021e-05 3637:4.428321e-05 3638:0.00016414659 3639:1.6434105e-05 3640:0.00050082285 3641:0.00014551714 3642:0.00014844719 3643:2.4078022e-06 3644:8.2808052e-05 3645:9.2439266e-05 3646:0.00017671235 3647:7.4433861e-05 3648:1.9890931e-05 3649:3.9781862e-05 3650:1.9890931e-05 3651:-5.0670096e-05 3652:-2.3241506e-05 3653:2.9836398e-05 3654:0.00032118495 3655:2.4078022e-06 3656:6.5953442e-05 3657:4.8156044e-06 3658:1.9576673e-05 3659:1.2039011e-05 3660:0.00010573529 3661:-2.4123026e-06 3662:0.00040797211 3663:0.00011327296 3664:-1.7797387e-05 3665:-1.8111637e-05 3666:-1.8217874e-05 3667:4.7005266e-05 3668:1.9890931e-05 3669:1.9890931e-05 3670:-5.1298603e-06 3671:1.4446814e-05 3672:2.4078022e-06 3673:0.00061734457 3674:1.9890931e-05 3675:1.9890931e-05 3676:-0.0001154772 3677:-4.501795e-05 3678:5.2135128e-05 3679:2.4078022e-06 3680:-7.8519179e-06 3681:-7.1818053e-05 3682:0.00018299297 3683:0.00015902119 3684:2.7114336e-05 3685:-0.00019472669 3686:-0.00027418416 3687:2.4078022e-06 3688:4.8156044e-06 3689:2.4706535e-05 3690:-5.1298603e-06 3691:2.2298733e-05 3692:2.4078022e-06 3693:2.2298733e-05 3694:2.4078022e-06 3695:2.4706535e-05 3696:2.4078022e-06 3697:2.9836398e-05 3698:-1.0573978e-05 3699:-2.5127027e-05 3700:-9.4231982e-06 3701:9.8405661e-05 3702:3.9467606e-05 3703:1.4650432e-06 3704:9.6312087e-06 3705:-1.8111637e-05 3706:-3.9259605e-05 3707:-8.1661756e-06 3708:0.00023366306 3709:0.00022392561 3710:2.9836398e-05 3711:-3.036318e-06 3712:1.9262417e-05 3713:0.00011798232 3714:2.4078022e-06 3715:1.9890931e-05 3716:0.00027993805 3717:-1.7797387e-05 3718:2.9836398e-05 3719:-1.0888236e-05 3720:7.223407e-06 3721:2.4078022e-06 3722:1.9890931e-05 3723:1.9890931e-05 3724:2.4078022e-06 3725:8.8880675e-05 3726:1.4761071e-05 3727:0.00042838088 3728:8.8964389e-06 3729:9.484707e-05 3730:4.7005266e-05 3731:5.2028874e-05 3732:5.6950736e-05 3733:1.7168873e-05 3734:-3.1425762e-07 3735:0.00028820598 3736:0.00098836306 3737:0.00011724763 3738:-1.0888236e-05 3739:-1.6332351e-05 3740:-9.4277942e-07 3741:0.00014676971 3742:1.9262417e-05 3743:0.00055673358 3744:0.00048606627 3745:0.00024884462 3746:0.0004457621 3747:8.1865284e-05 3748:0.00015451985 3749:-4.5854486e-05 3750:9.6104079e-05 3751:8.688432e-06 3752:-2.0833704e-05 3753:1.1410505e-05 3754:7.223407e-06 3755:0.00012866255 3756:2.4078022e-06 3757:2.4078022e-06 3758:-2.774285e-05 3759:0.00028674101 3760:0.0004861725 3761:3.2244199e-05 3762:2.4078022e-06 3763:2.4078022e-06 3764:4.2189662e-05 3765:4.8470298e-05 3766:-1.0259721e-05 3767:4.637675e-05 3768:-3.5072506e-05 3769:-0.00019723627 3770:2.2298733e-05 3771:-4.1038882e-05 3772:0.0003959286 3773:-0.00017400362 3774:0.00030286083 3775:-9.4431045e-05 3776:3.0566669e-05 3777:-1.7589382e-05 3778:0.00010845735 3779:2.9522142e-05 3780:4.8156044e-06 3781:4.5013521e-06 3782:0.00011463173 3783:0.00042691117 3784:1.2353267e-05 3785:-5.6220448e-05 3786:-1.298178e-05 3787:0.00014656171 3788:-1.4030794e-05 3789:-3.3501219e-05 3790:8.6995155e-05 3791:2.4078022e-06 3792:6.626769e-05 3793:-6.302337e-05 3794:7.3699091e-05 3795:-2.722059e-06 3796:-1.2667524e-05 3797:2.2298733e-05 3798:0.00018917186 3799:9.6312087e-06 3800:2.4078022e-06 3801:-9.0142195e-05 3802:-2.0205187e-05 3803:2.6171572e-05 3804:5.1506624e-05 3805:1.2353267e-05 3806:-1.0259721e-05 3807:0.00011117942 3808:2.4078022e-06 3809:-0.00021964122 3810:3.9781862e-05 3811:2.4078022e-06 3812:3.9047081e-05 3813:1.9890931e-05 3814:-0.0017483219 3815:-7.9041456e-05 3816:1.2039011e-05 3817:2.4078022e-06 3818:2.4078022e-06 3819:2.4078022e-06 3820:1.4761071e-05 3821:-1.0625951e-07 3822:-1.2667524e-05 3823:9.5475574e-05 3824:0.00084305851 3825:4.7005266e-05 3826:-0.00024309533 3827:5.6216006e-05 3828:5.5273227e-05 3829:-5.1298603e-06 3830:-6.1244085e-05 3831:5.6322213e-05 3832:-1.6646603e-05 3833:1.9890931e-05 3834:1.9890931e-05 3835:1.9890931e-05 3836:7.223407e-06 3837:-0.00011798683 3838:-3.8773078e-06 3839:-5.4334927e-05 3840:-2.722059e-06 3841:1.4761071e-05 3842:6.3545638e-05 3843:1.9890931e-05 3844:1.8319643e-05 3845:0.00040032816 3846:1.1096233e-05 3847:-2.722059e-06 3848:9.2855284e-05 3849:0.00012907856 3850:3.9467606e-05 3851:0.00010259272 3852:-0.00051947922 3853:4.4597466e-05 3854:6.9618261e-05 3855:-5.1298603e-06 3856:1.2039011e-05 3857:0.00010992239 3858:3.9781862e-05 3859:-6.3651882e-05 3860:-2.596356e-05 3861:2.4078022e-06 3862:7.6841665e-05 3863:-1.0259721e-05 3864:0.00035238022 3865:0.00011233019 3866:-5.1298603e-06 3867:2.4078022e-06 3868:-7.8519179e-06 3869:2.4706535e-05 3870:-6.7056785e-06 3871:1.9890931e-05 3872:5.8730013e-05 3873:0.00020864225 3874:-1.8846396e-05 3875:-2.8057108e-05 3876:2.4078022e-06 3877:-2.0519441e-05 3878:-9.129299e-05 3879:-1.3296038e-05 3880:-4.0410374e-05 3881:6.8675494e-05 3882:1.2353267e-05 3883:0.00013242912 3884:2.4078022e-06 3885:0.0035648586 3886:3.1195203e-05 3887:-7.7501636e-06 3888:9.0659974e-05 3889:0.0001501158 3890:4.3548451e-05 3891:-2.722059e-06 3892:2.4078022e-06 3893:1.9890931e-05 3894:1.9890931e-05 3895:0.0017366854 3896:1.2353267e-05 3897:1.9890931e-05 3898:6.4488398e-05 3899:2.7114336e-05 3900:-1.1831e-05 3901:2.9836398e-05 3902:1.4761071e-05 3903:2.4078022e-06 3904:2.7114336e-05 3905:-5.1298603e-06 3906:-1.2667524e-05 3907:2.9836398e-05 3908:-6.5015171e-05 3909:7.8620957e-05 3910:2.4078022e-06 3911:1.9890931e-05 3912:0.00011463173 3913:0.00022298732 3914:1.2353267e-05 3915:4.9727325e-05 3916:-2.8685618e-05 3917:1.2353267e-05 3918:2.4078022e-06 3919:2.4078022e-06 3920:0.00018885758 3921:2.2298733e-05 3922:1.8948165e-05 3923:3.4023484e-05 3924:2.9836398e-05 3925:7.9563724e-05 3926:-5.1298597e-05 3927:-0.00034558171 3928:1.9890931e-05 3929:0.00033290969 3930:8.1971528e-05 3931:6.9618261e-05 3932:9.1916998e-05 3933:6.2080595e-05 3934:6.9618261e-05 3935:0.00016907291 3936:0.00015096128 3937:6.9618261e-05 3938:6.9618261e-05 3939:0.00011421573 3940:0.00011934559 3941:0.00052344491 3942:0.00030307335 3943:1.9890931e-05 3944:0.0001015482 3945:3.6431287e-05 3946:7.6213153e-05 3947:4.9727325e-05 3948:0.00011766808 3949:8.9194931e-05 3950:0.00041006561 3951:7.6841665e-05 3952:0.00068905635 3953:2.9836398e-05 3954:-0.0002373324 3955:4.8156044e-06 3956:0.00056563452 3957:7.9249476e-05 3958:1.9890931e-05 3959:6.0823564e-05 3960:4.2189662e-05 3961:-6.878173e-05 3962:-2.3347764e-05 3963:0.00027385636 3964:0.00030150203 3965:-0.00013358438 3966:2.2298733e-05 3967:7.223407e-06 3968:-0.00010824935 3969:-0.00011777881 3970:0.00098919962 3971:-1.1202495e-05 3972:-1.0051705e-05 3973:-3.2562923e-05 3974:-2.0205187e-05 3975:-3.297894e-05 3976:1.6854618e-05 3977:5.5379456e-05 3978:9.6099655e-05 3979:8.6472872e-05 3980:4.8470298e-05 3981:5.6322213e-05 3982:-2.722059e-06 3983:-1.7797387e-05 3984:2.4078022e-06 3985:-1.4238802e-05 3986:-3.1425762e-07 3987:-3.1425762e-07 3988:9.6418335e-05 3989:0.00090210291 3990:0.00029281361 3991:6.6581946e-05 3992:1.9890931e-05 3993:0.00026569923 3994:1.9890931e-05 3995:1.9890931e-05 3996:1.7168873e-05 3997:1.4761071e-05 3998:3.2244199e-05 3999:0.00041896212 4000:4.2189662e-05 4001:0.0001313846 4002:3.1929947e-05 4003:1.5597601e-05 4004:0.00014719018 4005:1.1304246e-05 4006:0.00052553392 4007:2.9836398e-05 4008:6.6896202e-05 4009:3.5585724e-06 4010:7.4119605e-05 4011:-1.2570305e-06 4012:5.9358539e-05 4013:0.00021775121 4014:0.00038713391 4015:5.4542928e-05 4016:5.3600157e-05 4017:0.00013860801 4018:4.4597466e-05 4019:4.2189662e-05 4020:2.9522142e-05 4021:7.4119605e-05 4022:4.2189662e-05 4023:0.00015326279 4024:1.9890931e-05 4025:-5.1298603e-06 4026:-1.2667524e-05 4027:-0.00030079862 4028:-3.5594774e-05 4029:-1.5389583e-05 4030:-2.0205187e-05 4031:2.4078022e-06 4032:6.1660081e-05 4033:-7.6005148e-05 4034:1.2039011e-05 4035:1.9890931e-05 4036:0.0011235097 4037:5.652123e-06 4038:0.00028894079 4039:1.9576673e-05 4040:-2.0519441e-05 4041:5.1820873e-05 4042:6.4488398e-05 4043:0.00086231658 4044:0.00029668646 4045:0.00072810805 4046:9.0974223e-05 4047:1.9890931e-05 4048:0.0010992239 4049:0.00059284613 4050:2.4078022e-06 4051:0.00013672245 4052:3.1615684e-05 4053:0.00021377216 4054:1.9890931e-05 4055:8.6472872e-05 4056:9.945465e-05 4057:2.2298733e-05 4058:9.4010531e-05 4059:-5.0670096e-05 4060:0.00018561326 4061:-7.5482858e-05 4062:-8.1661756e-06 4063:0.00020393294 4064:3.1823714e-05 4065:0.00052271003 4066:0.00013012759 4067:-0.00043049242 4068:2.0935465e-06 4069:2.4078022e-06 4070:1.9890931e-05 4071:4.8156044e-06 4072:1.2353267e-05 4073:0.00031259391 4074:0.00012175339 4075:0.00014405213 4076:7.223407e-06 4077:4.8156044e-06 4078:0.00032411504 4079:0.00089550792 4080:0.00026255666 4081:8.0400256e-05 4082:0.00035970096 4083:5.2343144e-05 4084:2.1984475e-05 4085:9.8405661e-05 4086:3.9781862e-05 4087:4.4597466e-05 4088:8.8145913e-05 4089:5.2135128e-05 4090:0.00050501898 4091:1.9890931e-05 4092:1.4761071e-05 4093:1.2353267e-05 4094:0.00014070155 4095:3.789633e-05 4096:3.9153347e-05 4097:1.9890931e-05 4098:3.2244199e-05 4099:0.00011568076 4100:7.223407e-06 4101:0.00014070155 4102:1.8319643e-05 4103:7.1397553e-05 4104:2.4078022e-06 4105:2.0621217e-05 4106:6.4488398e-05 4107:0.00025575381 4108:1.9890931e-05 4109:2.2298733e-05 4110:-1.9054414e-05 4111:2.7114336e-05 4112:5.663648e-05 4113:1.2353267e-05 4114:4.9727325e-05 4115:1.9890931e-05 4116:1.9890931e-05 4117:4.2189662e-05 4118:2.1984475e-05 4119:7.9249476e-05 4120:4.8156044e-06 4121:1.9890931e-05 4122:1.9890931e-05 4123:1.9890931e-05 4124:4.8156044e-06 4125:1.9890931e-05 4126:-3.8002574e-05 4127:1.2353267e-05 4128:-9.4277942e-07 4129:2.9522142e-05 4130:1.9890931e-05 4131:7.1397553e-05 4132:-5.1298603e-06 4133:0.000103956 4134:0.00018529456 4135:1.4761071e-05 4136:3.2244199e-05 4137:-3.5909026e-05 4138:2.4078022e-06 4139:4.8156044e-06 4140:6.5953442e-05 4141:-5.1298603e-06 4142:9.3169565e-06 4143:-1.7797387e-05 4144:0.00020864225 4145:2.4078022e-06 4146:-1.0259721e-05 4147:0.00036074995 4148:0.00017294574 4149:2.4706535e-05 4150:2.9522142e-05 4151:2.9836398e-05 4152:2.9836398e-05 4153:5.2135128e-05 4154:6.2080595e-05 4155:1.6854618e-05 4156:-0.00011557899 4157:2.4078022e-06 4158:0.00010636381 4159:-1.0573978e-05 4160:0.00033280349 4161:6.4174143e-05 4162:2.2298733e-05 4163:0.0005691931 4164:1.9890931e-05 4165:0.00011358721 4166:2.1984475e-05 4167:2.9836398e-05 4168:0.0001638368 4169:7.1397553e-05 4170:0.00012227567 4171:0.0003011878 4172:0.00082766439 4173:0.00044555418 4174:5.8730013e-05 4175:2.4078022e-06 4176:-3.8316826e-05 4177:-1.8111637e-05 4178:9.0026952e-05 4179:6.3439416e-05 4180:-2.5131532e-05 4181:0.00019189392 4182:3.9781862e-05 4183:-3.570101e-05 4184:1.2353267e-05 4185:2.0935465e-06 4186:2.2298733e-05 4187:2.4078022e-06 4188:-1.5389583e-05 4189:-5.1298603e-06 4190:4.8156044e-06 4191:-3.8002574e-05 4192:0.00036913299 4193:7.4119605e-05 4194:2.1984475e-05 4195:0.0001653018 4196:0.00013012759 4197:2.9836398e-05 4198:0.00031605057 4199:-6.7529203e-05 4200:-6.2851524e-07 4201:0.00026454395 4202:3.4652003e-05 4203:-1.2667524e-05 4204:0.00010720031 4205:2.1984475e-05 4206:1.9890931e-05 4207:1.4761071e-05 4208:-1.7797387e-05 4209:1.9890931e-05 4210:0.00016603661 4211:4.3127951e-05 4212:1.7168873e-05 4213:1.9890931e-05 4214:-3.1425762e-07 4215:1.413256e-05 4216:1.9890931e-05 4217:1.9890931e-05 4218:0.00035311488 4219:0.00016026486 4220:0.00015054076 4221:0.00033374625 4222:0.00010604954 4223:0.00089036912 4224:5.9672795e-05 4225:-3.8002574e-05 4226:1.7168873e-05 4227:1.9890931e-05 4228:1.9890931e-05 4229:1.2039011e-05 4230:1.9890931e-05 4231:7.3805357e-05 4232:-7.8519179e-06 4233:-1.7797387e-05 4234:8.688432e-06 4235:0.0006220541 4236:0.0001500185 4237:1.9890931e-05 4238:6.2080595e-05 4239:1.9890931e-05 4240:1.9890931e-05 4241:0.00014320668 4242:4.6062498e-05 4243:2.4392277e-05 4244:0.00018289122 4245:3.8940827e-05 4246:1.9890931e-05 4247:3.9781862e-05 4248:8.1971528e-05 4249:9.4422037e-05 4250:2.4706535e-05 4251:1.9049925e-05 4252:0.0001331548 4253:2.9836398e-05 4254:3.7059803e-05 4255:0.00036693324 4256:-5.1298603e-06 4257:4.9413069e-05 4258:3.4652003e-05 4259:4.8156044e-06 4260:3.0672923e-05 4261:7.223407e-06 4262:2.0935465e-06 4263:-5.1298603e-06 4264:7.223407e-06 4265:-0.00017661511 4266:7.0140537e-05 4267:0.00011149366 4268:-2.722059e-06 4269:1.9890931e-05 4270:1.9890931e-05 4271:8.9509187e-05 4272:0.00011421573 4273:1.9890931e-05 4274:9.6312087e-06 4275:3.7059803e-05 4276:0.0015609114 4277:0.00014886772 4278:1.2353267e-05 4279:1.9890931e-05 4280:0.00030883169 4281:-3.3607463e-05 4282:0.00011934559 4283:1.9890931e-05 4284:-8.794691e-06 4285:1.2353267e-05 4286:0.00044754593 4287:-8.794691e-06 4288:8.1130514e-05 4289:6.4488398e-05 4290:9.945465e-05 4291:2.6800079e-05 4292:1.9890931e-05 4293:5.0249579e-05 4294:-5.758377e-06 4295:3.0035462e-05 4296:-4.0724626e-05 4297:4.1875406e-05 4298:9.0027042e-06 4299:1.2875527e-05 4300:1.9890931e-05 4301:1.9890931e-05 4302:2.4078022e-06 4303:7.4314171e-06 4304:-0.001493192 4305:2.4078022e-06 4306:7.5584649e-05 4307:4.7005266e-05 4308:2.585732e-05 4309:-0.00027785343 4310:0.00015012029 4311:6.3859894e-05 4312:6.3439416e-05 4313:-1.7797387e-05 4314:2.4706535e-05 4315:6.0823564e-05 4316:-2.5335048e-05 4317:-1.1202495e-05 4318:1.9890931e-05 4319:-6.0726361e-06 4320:2.4078022e-06 4321:1.2353267e-05 4322:-3.3186974e-05 4323:0.00011672531 4324:0.00022246059 4325:0.00056019035 4326:0.00025931239 4327:1.9890931e-05 4328:1.9890931e-05 4329:0.00015399759 4330:-0.0012826597 4331:2.0935465e-06 4332:0.00012049636 4333:5.1820873e-05 4334:1.7168873e-05 4335:0.00018980037 4336:6.1766332e-05 4337:8.1657265e-05 4338:5.1506624e-05 4339:2.4078022e-06 4340:0.000103956 4341:2.7114336e-05 4342:5.9358539e-05 4343:-1.0888236e-05 4344:-1.0259721e-05 4345:-5.1298603e-06 4346:0.00026025518 4347:0.000473297 4348:0.00015368333 4349:-2.2927243e-05 4350:3.6431287e-05 4351:0.00017545526 4352:-0.04481959 4353:0.0006328405 4354:2.2298733e-05 4355:2.4078022e-06 4356:0.00021220092 4357:7.223407e-06 4358:2.0935465e-06 4359:0.00014342362 4360:1.4761071e-05 4361:1.9890931e-05 4362:0.00010322127 4363:0.00014593315 4364:0.00032600059 4365:0.00028286816 4366:4.428321e-05 4367:-1.0578502e-05 4368:-0.00019639973 4369:-4.3760938e-05 4370:5.2135128e-05 4371:-1.2667524e-05 4372:-2.0205187e-05 4373:-5.1298603e-06 4374:1.7168873e-05 4375:2.4706535e-05 4376:-8.1661756e-06 4377:3.1929947e-05 4378:4.2189662e-05 4379:-3.8316826e-05 4380:0.00020006008 4381:2.4078022e-06 4382:1.4761071e-05 4383:-4.3760938e-05 4384:4.1561147e-05 4385:1.2353267e-05 4386:3.4337747e-05 4387:-4.2610187e-05 4388:2.9836398e-05 4389:1.4761071e-05 4390:3.4652003e-05 4391:1.9890931e-05 4392:2.0098936e-05 4393:-2.5649299e-05 4394:0.00011327296 4395:4.8156044e-06 4396:-4.4809982e-05 4397:-3.1721924e-05 4398:-0.0001877113 4399:0.00029072005 4400:-5.1298603e-06 4401:6.532493e-05 4402:2.4078022e-06 4403:2.9522142e-05 4404:8.3436564e-05 4405:1.2353267e-05 4406:2.4078022e-06 4407:2.9522142e-05 4408:1.9890931e-05 4409:0.00019524447 4410:2.2298733e-05 4411:0.00013620021 4412:4.428321e-05 4413:-5.444118e-06 4414:2.4078022e-06 4415:2.4078022e-06 4416:2.2298733e-05 4417:2.4078022e-06 4418:9.5789816e-05 4419:3.9781862e-05 4420:0.00010908586 4421:7.1397553e-05 4422:6.6896202e-05 4423:0.00017566782 4424:-7.0879789e-05 4425:-3.5280511e-05 4426:1.6540362e-05 4427:0.00031731214 4428:6.0717299e-05 4429:-1.5810099e-05 4430:0.00011390147 4431:-4.0516614e-05 4432:-7.0667258e-05 4433:-0.00012196587 4434:-0.00011526475 4435:-8.1449252e-05 4436:3.4652003e-05 4437:4.2189662e-05 4438:4.8156044e-06 4439:1.9890931e-05 4440:1.9890931e-05 4441:6.3859894e-05 4442:1.4761071e-05 4443:-1.2667524e-05 4444:-8.1661756e-06 4445:0.00011055089 4446:0.00011662353 4447:-1.8111637e-05 4448:-2.774285e-05 4449:-0.00020781024 4450:-2.0205187e-05 4451:0.00055736204 4452:5.1506624e-05 4453:0.00024130699 4454:-1.3721001e-05 4455:0.00034065536 4456:0.00018854334 4457:2.4078022e-06 4458:9.0027042e-06 4459:-5.444118e-06 4460:-0.00018593205 4461:2.2298733e-05 4462:-5.1298603e-06 4463:2.2298733e-05 4464:2.9836398e-05 4465:-1.298178e-05 4466:5.0249579e-05 4467:0.00011568076 4468:0.00059316482 4469:7.1083297e-05 4470:3.3709235e-05 4471:2.2298733e-05 4472:2.2298733e-05 4473:1.9890931e-05 4474:6.2080595e-05 4475:1.2353267e-05 4476:1.2353267e-05 4477:1.2353267e-05 4478:1.2353267e-05 4479:1.4761071e-05 4480:0.00021848598 4481:-2.3241506e-05 4482:-7.642564e-05 4483:-6.8467481e-05 4484:1.9890931e-05 4485:-1.7797387e-05 4486:-3.1425762e-07 4487:0.00065668789 4488:-0.0002125241 4489:-6.6373948e-05 4490:8.5215863e-05 4491:2.0935465e-06 4492:-1.2667524e-05 4493:3.4652003e-05 4494:4.8156044e-06 4495:2.1984475e-05 4496:-0.00014635816 4497:6.269569e-05 4498:0.00021063407 4499:0.0017774011 4500:2.9836398e-05 4501:2.9836398e-05 4502:0.00011117942 4503:2.9836398e-05 4504:-0.00018582575 4505:7.9563724e-05 4506:0.000103956 4507:0.00025627605 4508:2.7114336e-05 4509:2.9836398e-05 4510:4.4597466e-05 4511:3.2244199e-05 4512:0.0004341391 4513:0.00042346341 4514:0.00021178485 4515:4.5013521e-06 4516:1.9890931e-05 4517:7.223407e-06 4518:7.6213153e-05 4519:2.4706535e-05 4520:1.9890931e-05 4521:7.4119605e-05 4522:1.9890931e-05 4523:0.00022748868 4524:-0.00047372648 4525:-2.722059e-06 4526:6.4174143e-05 4527:1.9890931e-05 4528:9.5789816e-05 4529:1.2039011e-05 4530:4.8156044e-06 4531:1.9890931e-05 4532:1.7792862e-06 4533:8.8880675e-05 4534:8.267969e-06 4535:4.6580284e-05 4536:0.00036754835 4537:-8.4171326e-05 4538:-2.722059e-06 4539:0.00012081063 4540:-6.2851524e-07 4541:4.7841771e-05 4542:-2.449852e-05 4543:1.1096233e-05 4544:1.2353267e-05 4545:3.7059803e-05 4546:-0.00014478687 4547:-1.7797387e-05 4548:-0.00014091405 4549:0.00025553684 4550:0.00034871095 4551:-7.958176e-06 4552:6.9304006e-05 4553:7.3805357e-05 4554:4.8049827e-05 4555:-5.3706397e-05 4556:0.00017566782 4557:-3.2872707e-05 4558:1.9890931e-05 4559:-5.1298603e-06 4560:1.4761071e-05 4561:0.00012499771 4562:0.00021021358 4563:4.8156044e-06 4564:1.9890931e-05 4565:-2.0205187e-05 4566:2.4078022e-06 4567:2.4078022e-06 4568:2.9836398e-05 4569:7.6213153e-05 4570:9.6732598e-05 4571:5.4228673e-05 4572:7.3805357e-05 4573:9.3275747e-05 4574:-5.1298603e-06 4575:1.9890931e-05 4576:-0.0012541912 4577:-2.0205187e-05 4578:1.2353267e-05 4579:0.00011117942 4580:2.4078022e-06 4581:-2.774285e-05 4582:1.6540362e-05 4583:2.1670221e-05 4584:2.6485826e-05 4585:1.9576673e-05 4586:8.1343016e-05 4587:-5.2555628e-05 4588:2.4078022e-06 4589:5.2343144e-05 4590:0.00049108989 4591:-1.3402302e-05 4592:4.8156044e-06 4593:-2.0205187e-05 4594:4.8156044e-06 4595:-2.722059e-06 4596:2.4078022e-06 4597:3.4652003e-05 4598:2.4078022e-06 4599:0.00015546262 4600:0.00032631482 4601:0.00010500052 4602:-5.1298603e-06 4603:2.4706535e-05 4604:1.2353267e-05 4605:0.00024120076 4606:0.0002461226 4607:0.00026517699 4608:0.00012416119 4609:-5.1298603e-06 4610:0.00048324253 4611:4.6062498e-05 4612:0.00089853967 4613:1.1096233e-05 4614:7.3491101e-05 4615:-3.3186974e-05 4616:9.3169565e-06 4617:3.9781862e-05 4618:4.8156044e-06 4619:1.9576673e-05 4620:0.00077584811 4621:4.4491229e-05 4622:-0.00015054524 4623:0.00012866255 4624:2.9836398e-05 4625:2.2298733e-05 4626:4.9727325e-05 4627:1.9890931e-05 4628:0.0013765506 4629:0.00014614567 4630:3.4337747e-05 4631:1.611985e-05 4632:9.5789816e-05 4633:2.6171572e-05 4634:0.0001856087 4635:0.00013043736 4636:0.00044659429 4637:8.9194931e-05 4638:8.688432e-06 4639:4.2711934e-05 4640:0.00010908586 4641:-2.774285e-05 4642:-2.774285e-05 4643:1.4761071e-05 4644:-2.0205187e-05 4645:1.2353267e-05 4646:0.00013274336 4647:6.145209e-05 4648:1.9890931e-05 4649:3.9781862e-05 4650:3.4337747e-05 4651:2.4078022e-06 4652:3.0672923e-05 4653:-3.5072506e-05 4654:4.9727325e-05 4655:3.9781862e-05 4656:4.2189662e-05 4657:-7.9568206e-05 4658:-9.9246652e-05 4659:-6.8153226e-05 4660:7.0764545e-05 4661:-3.1425762e-07 4662:-0.00041248242 4663:0.00039163974 4664:7.4433861e-05 4665:-0.00010511126 4666:-5.7056975e-05 4667:6.898975e-05 4668:2.4706535e-05 4669:8.2803541e-05 4670:3.9781862e-05 4671:3.9781862e-05 4672:1.2353267e-05 4673:2.4078022e-06 4674:3.7059803e-05 4675:1.2039011e-05 4676:4.5013521e-06 4677:2.1984475e-05 4678:-1.298178e-05 4679:1.2353267e-05 4680:8.0599248e-06 4681:-9.2966024e-05 4682:0.00012970708 4683:-1.2667524e-05 4684:-6.2186838e-05 4685:-6.4908912e-05 4686:-9.1080474e-05 4687:-5.444118e-06 4688:1.9890931e-05 4689:4.5013521e-06 4690:8.3958839e-05 4691:0.0017733203 4692:2.9836398e-05 4693:9.6312087e-06 4694:0.00011505227 4695:7.9563724e-05 4696:6.9304006e-05 4697:3.7059803e-05 4698:0.00023094105 4699:-3.5280511e-05 4700:4.8156044e-06 4701:1.9890931e-05 4702:4.9727325e-05 4703:0.0001015482 4704:-5.1298603e-06 4705:0.0005594556 4706:9.0659974e-05 4707:1.9890931e-05 4708:2.9836398e-05 4709:2.9836398e-05 4710:0.0001469822 4711:0.00023732794 4712:3.8728449e-06 4713:9.6312087e-06 4714:5.1506624e-05 4715:0.00063482777 4716:1.9890931e-05 4717:7.223407e-06 4718:0.00034463449 4719:4.7005266e-05 4720:-3.036318e-06 4721:0.00011986784 4722:8.1971528e-05 4723:0.00064278604 4724:5.2135128e-05 4725:2.4706535e-05 4726:3.2244199e-05 4727:-1.5389583e-05 4728:8.4379324e-05 4729:1.9890931e-05 4730:1.9890931e-05 4731:2.9836398e-05 4732:-0.00013065431 4733:3.9153347e-05 4734:0.00020487567 4735:1.9890931e-05 4736:1.9890931e-05 4737:1.9890931e-05 4738:1.2353267e-05 4739:-5.444118e-06 4740:1.9890931e-05 4741:2.9836398e-05 4742:0.00021848598 4743:0.00019943158 4744:8.4379324e-05 4745:0.00020749152 4746:5.9672795e-05 4747:1.9890931e-05 4748:1.9890931e-05 4749:1.9890931e-05 4750:4.8156044e-06 4751:1.2353267e-05 4752:5.6322213e-05 4753:3.9781862e-05 4754:0.00029187085 4755:0.00039143176 4756:3.2137948e-05 4757:0.00039750437 4758:-3.0256919e-05 4759:3.4652003e-05 4760:0.00041561152 4761:-2.5335048e-05 4762:1.9890931e-05 4763:2.9836398e-05 4764:0.00036065254 4765:1.9890931e-05 4766:1.9890931e-05 4767:1.2353267e-05 4768:1.9890931e-05 4769:5.9672795e-05 4770:4.1246891e-05 4771:3.4652003e-05 4772:1.9890931e-05 4773:1.9890931e-05 4774:4.2189662e-05 4775:1.9890931e-05 4776:8.9509187e-05 4777:9.7883378e-05 4778:1.9890931e-05 4779:1.7792862e-06 4780:1.9890931e-05 4781:2.9836398e-05 4782:7.223407e-06 4783:1.9890931e-05 4784:4.2189662e-05 4785:0.0001604862 4786:1.9890931e-05 4787:2.9836398e-05 4788:1.9890931e-05 4789:0.00013347814 4790:6.4174143e-05 4791:1.9890931e-05 4792:0.00014070155 4793:6.2080595e-05 4794:-1.8111637e-05 4795:8.9717192e-05 4796:-9.3280258e-05 4797:-8.1661756e-06 4798:0.00016456711 4799:0.000185507 4800:1.6854618e-05 4801:0.00033144015 4802:0.00097286724 4803:-9.8437349e-06 4804:-0.00018708281 4805:-2.722059e-06 4806:4.8156044e-06 4807:2.4078022e-06 4808:3.2244199e-05 4809:4.8156044e-06 4810:3.1615684e-05 4811:7.086627e-05 4812:-0.00027826949 4813:-0.00021116083 4814:-9.4851581e-05 4815:-1.7067134e-05 4816:6.145209e-05 4817:3.9781862e-05 4818:1.2353267e-05 4819:7.223407e-06 4820:6.4488398e-05 4821:1.9890931e-05 4822:1.9890931e-05 4823:5.663648e-05 4824:-0.00064750877 4825:0.00018665779 4826:3.4753728e-05 4827:0.00011787144 4828:0.00029072005 4829:1.9890931e-05 4830:0.00017179053 4831:1.9890931e-05 4832:5.8730013e-05 4833:2.4078022e-06 4834:2.4078022e-06 4835:-8.5114109e-05 4836:6.5639164e-05 4837:0.000115995 4838:2.4078022e-06 4839:2.4706535e-05 4840:-3.2872707e-05 4841:1.2353267e-05 4842:0.00046774663 4843:8.6787135e-05 4844:-2.9314122e-05 4845:-5.1298603e-06 4846:2.9836398e-05 4847:1.9890931e-05 4848:-9.4277942e-07 4849:0.00013860801 4850:9.3169565e-06 4851:5.3493899e-05 4852:2.0935465e-06 4853:-2.5335048e-05 4854:-2.0519441e-05 4855:7.223407e-06 4856:0.0003011878 4857:0.00015818469 4858:1.9890931e-05 4859:2.4078022e-06 4860:2.4078022e-06 4861:-5.1298603e-06 4862:9.5475574e-05 4863:4.8156044e-06 4864:-4.1459396e-05 4865:-2.8999877e-05 4866:4.4597466e-05 4867:4.7005266e-05 4868:3.9781862e-05 4869:6.9091534e-06 4870:1.413256e-05 4871:-3.2872707e-05 4872:4.428321e-05 4873:0.00030244482 4874:-7.8519179e-06 4875:9.6418335e-05 4876:1.9890931e-05 4877:2.4078022e-06 4878:5.9672795e-05 4879:4.428321e-05 4880:7.7151395e-05 4881:5.3489395e-05 4882:-0.00016269053 4883:1.9890931e-05 4884:1.9890931e-05 4885:4.6062498e-05 4886:3.9781862e-05 4887:-5.1298603e-06 4888:2.4706535e-05 4889:-6.302337e-05 4890:2.4078022e-06 4891:-5.444118e-06 4892:2.8579374e-05 4893:1.4654826e-05 4894:0.00010542106 4895:3.4023484e-05 4896:0.00018257696 4897:2.4078022e-06 4898:4.2189662e-05 4899:2.2298733e-05 4900:2.4078022e-06 4901:2.4078022e-06 4902:-5.1298603e-06 4903:7.223407e-06 4904:2.4078022e-06 4905:1.9890931e-05 4906:1.9890931e-05 4907:1.2353267e-05 4908:5.9566551e-05 4909:0.00023638058 4910:0.00013012759 4911:1.2875527e-05 4912:2.0935465e-06 4913:0.00142229 4914:-0.00014750894 4915:2.1984475e-05 4916:1.9890931e-05 4917:2.2298733e-05 4918:1.9890931e-05 4919:6.3859894e-05 4920:1.9890931e-05 4921:0.00042513199 4922:-3.1425762e-07 4923:2.4078022e-06 4924:1.9890931e-05 4925:1.9890931e-05 4926:0.00043205009 4927:0.00026893918 4928:0.00031814864 4929:0.00013860801 4930:2.9836398e-05 4931:6.9091534e-06 4932:1.9890931e-05 4933:1.9890931e-05 4934:1.4761071e-05 4935:1.9890931e-05 4936:2.9836398e-05 4937:1.9890931e-05 4938:1.9890931e-05 4939:0.00013253538 4940:1.9890931e-05 4941:1.9890931e-05 4942:0.000103956 4943:-0.00028821939 4944:0.00029260557 4945:1.6540362e-05 4946:-5.8646046e-06 4947:1.9890931e-05 4948:-2.722059e-06 4949:1.2353267e-05 4950:4.1246891e-05 4951:1.2353267e-05 4952:9.5475574e-05 4953:7.223407e-06 4954:6.4696396e-05 4955:2.4078022e-06 4956:0.00010060542 4957:0.0003689205 4958:6.9091504e-05 4959:7.223407e-06 4960:-3.1425762e-07 4961:3.9153347e-05 4962:-3.036318e-06 4963:1.9890931e-05 4964:2.9836398e-05 4965:6.4488398e-05 4966:0.00029166281 4967:2.9300863e-06 4968:-2.722059e-06 4969:2.2298733e-05 4970:2.9836398e-05 4971:5.1820873e-05 4972:1.4446814e-05 4973:1.9890931e-05 4974:3.2244199e-05 4975:0.00017148071 4976:-6.0726361e-06 4977:1.9890931e-05 4978:1.9890931e-05 4979:1.1410505e-05 4980:-3.5386776e-05 4981:-0.00017347249 4982:-9.2023249e-05 4983:0.00018027086 4984:0.00034609946 4985:3.9153347e-05 4986:3.4652003e-05 4987:2.4706535e-05 4988:2.3135246e-05 4989:7.1397553e-05 4990:1.4446814e-05 4991:2.9836398e-05 4992:-1.8111637e-05 4993:2.4078022e-06 4994:4.9727325e-05 4995:2.4078022e-06 4996:2.7114336e-05 4997:2.2298733e-05 4998:0.00040022194 4999:-4.9833554e-05 5000:-2.0833704e-05 5001:7.223407e-06 5002:-3.6537549e-05 5003:0.00044597464 5004:2.4078022e-06 5005:3.2244199e-05 5006:-6.7011511e-06 5007:7.4956144e-05 5008:1.2353267e-05 5009:-0.00029313678 5010:8.8460147e-05 5011:3.4652003e-05 5012:0.00018320545 5013:-6.0615563e-05 5014:-2.2927243e-05 5015:1.9890931e-05 5016:0.00012866255 5017:4.8156044e-06 5018:-3.2872707e-05 5019:3.2244199e-05 5020:-2.0833704e-05 5021:-5.1298603e-06 5022:2.2298733e-05 5023:4.6691021e-05 5024:3.1615684e-05 5025:8.9819012e-05 5026:-0.00049089541 5027:7.7678182e-05 5028:-1.2667524e-05 5029:2.9836398e-05 5030:-0.00021576845 5031:0.00091581495 5032:4.8784554e-05 5033:-3.1425762e-07 5034:3.8728449e-06 5035:5.9044283e-05 5036:1.2353267e-05 5037:7.4119605e-05 5038:4.4597466e-05 5039:0.00011986784 5040:-5.444118e-06 5041:1.9890931e-05 5042:0.0001219614 5043:0.00012866255 5044:-4.616876e-05 5045:1.2039011e-05 5046:3.2244199e-05 5047:1.9890931e-05 5048:1.7168873e-05 5049:1.9890931e-05 5050:6.9304006e-05 5051:0.00017022368 5052:-5.1298603e-06 5053:1.9890931e-05 5054:1.2353267e-05 5055:-0.00023765551 5056:-2.0519441e-05 5057:9.0345697e-05 5058:1.9890931e-05 5059:3.2244199e-05 5060:2.4078022e-06 5061:0.00010709409 5062:2.9836398e-05 5063:9.3590061e-05 5064:1.2353267e-05 5065:0.00082253903 5066:2.4078022e-06 5067:1.9890931e-05 5068:2.9836398e-05 5069:-4.5332239e-05 5070:7.8620957e-05 5071:4.9727325e-05 5072:1.9890931e-05 5073:0.00067597284 5074:1.6854618e-05 5075:2.2086244e-05 5076:1.9890931e-05 5077:6.145209e-05 5078:1.1724759e-05 5079:1.413256e-05 5080:-0.00011548165 5081:2.1041713e-05 5082:0.00017744707 5083:7.223407e-06 5084:1.4761071e-05 5085:1.2353267e-05 5086:2.4078022e-06 5087:6.8046967e-05 5088:-0.00010542549 5089:-1.0259721e-05 5090:-1.0259721e-05 5091:2.4078022e-06 5092:0.00017263148 5093:5.4542928e-05 5094:1.6226111e-05 5095:-9.3174014e-05 5096:3.1929947e-05 5097:-5.0670096e-05 5098:-8.3649051e-05 5099:6.626769e-05 5100:-2.5335048e-05 5101:-4.4181437e-05 5102:0.00023921342 5103:1.2353267e-05 5104:-9.3174014e-05 5105:2.4078022e-06 5106:-5.1298603e-06 5107:-6.1872575e-05 5108:-1.2667524e-05 5109:1.9890931e-05 5110:2.3449518e-05 5111:1.1724759e-05 5112:-1.2667524e-05 5113:2.4078022e-06 5114:-2.722059e-06 5115:2.4078022e-06 5116:2.4078022e-06 5117:2.4078022e-06 5118:2.4078022e-06 5119:2.6800079e-05 5120:7.9771744e-05 5121:0.00012520571 5122:2.4078022e-06 5123:5.2135128e-05 5124:1.2353267e-05 5125:0.0005945192 5126:0.0005708661 5127:2.1355967e-05 5128:9.4010531e-05 5129:3.9781862e-05 5130:5.2135128e-05 5131:0.00059756445 5132:0.00022738242 5133:8.4065068e-05 5134:6.4488398e-05 5135:3.9467606e-05 5136:1.1410505e-05 5137:1.9890931e-05 5138:1.9890931e-05 5139:1.2353267e-05 5140:8.2909777e-05 5141:1.9890931e-05 5142:1.9890931e-05 5143:1.9890931e-05 5144:1.9890931e-05 5145:2.6485826e-05 5146:1.9890931e-05 5147:1.9890931e-05 5148:-1.0365961e-05 5149:2.2298733e-05 5150:0.00027030686 5151:0.00057913852 5152:1.9890931e-05 5153:1.9890931e-05 5154:0.00010510679 5155:1.9890931e-05 5156:0.0001438396 5157:5.1506624e-05 5158:6.4488398e-05 5159:0.0007557401 5160:1.9890931e-05 5161:0.00014279511 5162:-2.0103411e-05 5163:-0.00010196871 5164:-2.0519441e-05 5165:4.2189662e-05 5166:5.4542928e-05 5167:6.4174143e-05 5168:0.00057620852 5169:0.00029469913 5170:1.9890931e-05 5171:8.8880675e-05 5172:1.9890931e-05 5173:0.00025460302 5174:3.9781862e-05 5175:3.9781862e-05 5176:5.6950736e-05 5177:3.9781862e-05 5178:2.1670221e-05 5179:-7.8519179e-06 5180:1.9890931e-05 5181:-0.00015955245 5182:5.8101527e-05 5183:-0.00015788399 5184:0.00012792776 5185:2.4078022e-06 5186:-0.00011024117 5187:8.1343016e-05 5188:-2.722059e-06 5189:6.4488398e-05 5190:2.7322341e-05 5191:2.9836398e-05 5192:0.00011170167 5193:-8.7942404e-05 5194:-5.1298603e-06 5195:-0.00033438375 5196:-7.7890669e-05 5197:-0.00026518144 5198:2.9836398e-05 5199:4.1870931e-06 5200:-1.6960876e-05 5201:1.2353267e-05 5202:3.9781862e-05 5203:-3.1425762e-07 5204:7.223407e-06 5205:3.7059803e-05 5206:-3.036318e-06 5207:0.00010364175 5208:0.00019304472 5209:0.00022989648 5210:-5.1298603e-06 5211:-1.0259721e-05 5212:-6.2851524e-07 5213:4.9413069e-05 5214:1.2353267e-05 5215:-2.722059e-06 5216:0.00057326938 5217:0.00011086516 5218:5.2135128e-05 5219:4.9413069e-05 5220:0.00035007863 5221:-3.3501219e-05 5222:2.4706535e-05 5223:1.2353267e-05 5224:9.4324801e-05 5225:7.4433861e-05 5226:1.9890931e-05 5227:1.9890931e-05 5228:1.9890931e-05 5229:2.2298733e-05 5230:-1.0888236e-05 5231:4.7005266e-05 5232:3.9781862e-05 5233:-7.9156707e-05 5234:9.1602727e-05 5235:9.4010531e-05 5236:6.3231368e-05 5237:-2.596356e-05 5238:3.2244199e-05 5239:7.223407e-06 5240:9.8511882e-05 5241:7.5898897e-05 5242:1.9576673e-05 5243:9.3169565e-06 5244:0.00092953141 5245:0.00068916724 5246:0.00076328678 5247:0.0016513588 5248:6.2080595e-05 5249:0.001881149 5250:6.0823564e-05 5251:2.7114336e-05 5252:0.00026056942 5253:1.2353267e-05 5254:1.9890931e-05 5255:7.9249476e-05 5256:0.0001580784 5257:0.00018519277 5258:5.6007961e-05 5259:4.4597466e-05 5260:3.4337747e-05 5261:0.00016603661 5262:-5.1298603e-06 5263:9.0345697e-05 5264:-9.1501002e-05 5265:-4.3995774e-06 5266:0.00011903133 5267:6.1766332e-05 5268:6.6896202e-05 5269:3.7059803e-05 5270:5.1820873e-05 5271:-1.298178e-05 5272:5.2135128e-05 5273:-2.3241506e-05 5274:2.9836398e-05 5275:2.4078022e-06 5276:5.9672795e-05 5277:1.9890931e-05 5278:0.00010782882 5279:5.2135128e-05 5280:2.5751055e-05 5281:-0.00027062558 5282:2.2298733e-05 5283:4.3654694e-05 5284:-1.7797387e-05 5285:-2.0205187e-05 5286:-3.1425762e-07 5287:4.1246891e-05 