SVM-light Version V6.20
0 # kernel type
3 # kernel parameter -d 
1 # kernel parameter -g 
1 # kernel parameter -s 
1 # kernel parameter -r 
empty# kernel parameter -u 
135863 # highest feature index 
7 # number of training documents 
2 # number of support vectors plus 1 
-0.040546209 # threshold b, each following line is a SV (starting with alpha*y)
1 1:0.0069868802 2:0.0056263022 3:0.0011199577 4:2.644137e-05 5:8.4019906e-05 6:0.00014346813 7:0.000187489 8:0.0027882948 9:0.001940281 10:0.041205127 11:0.034040093 12:0.015143569 13:0.0047114044 14:0.042868614 15:0.0020633126 16:0.0025393735 17:0.0027748109 18:0.015712412 19:0.009235491 20:0.028854048 21:-9.4204661e-05 22:0.018620985 23:0.00017091869 24:2.4813648e-06 25:0.00087338896 26:0.0049100006 27:0.012913353 28:0.001501078 29:0.0007415748 30:0.00045590629 31:2.644137e-05 32:0.00010576548 33:0.0012111509 34:8.3110222e-05 35:0.00030024667 36:0.0026380068 37:0.00038524737 38:9.5230876e-05 39:-7.4260643e-05 40:0.00015012333 41:5.288274e-05 42:0.00045537692 43:-6.5236716e-05 44:2.644137e-05 45:2.644137e-05 46:2.644137e-05 47:0.0015826041 48:0.001259323 49:7.5061667e-05 50:-3.3957358e-06 51:0.00012028623 52:0.00039537137 53:0.0078330385 54:3.113717e-05 55:0.0031160184 56:0.00088072789 57:0.0052775559 58:2.2178927e-05 59:0.0064531369 60:0.00044567423 61:0.024068411 62:7.9324112e-05 63:9.7588003e-05 64:3.9662056e-05 65:2.644137e-05 66:0.0017167731 67:7.9324112e-05 68:0.039536349 69:0.0062877829 70:-0.00015091893 71:0.014128855 72:-0.00010455822 73:2.2178927e-05 74:3.9662056e-05 75:0.0013874337 76:1.4087394e-05 77:0.0027112439 78:0.038954701 79:3.9662056e-05 80:0.0038629621 81:8.0624181e-05 82:0.012188692 83:0.0080513228 84:0.0071166861 85:0.0034300138 86:0.00067468826 87:0.0063172341 88:0.00049204152 89:0.0051481519 90:0.00076083199 91:0.00065092574 92:0.0045283223 93:0.0011797966 94:0.00072800438 95:0.00070539216 96:0.0022192984 97:-4.2624433e-06 98:8.9582418e-06 99:2.644137e-05 100:0.00033065394 101:3.9662056e-05 102:6.6103421e-05 103:0.00010576548 104:0.002014752 105:6.1840983e-05 106:5.1496736e-05 107:2.644137e-05 108:0.0026336305 109:0.00011472372 110:0.00044500729 111:7.9324112e-05 112:0.00035825858 113:7.0799222e-05 114:6.7446461e-05 115:2.2178927e-05 116:3.9662056e-05 117:0.00010622155 118:0.00054815807 119:2.644137e-05 120:0.00059527007 121:0.0020730647 122:0.00082238822 123:5.4225777e-05 124:-0.00014716614 125:0.0096147442 126:8.0667152e-05 127:0.00062574871 128:0.00011645714 129:0.00012035192 130:0.0032663781 131:3.9662056e-05 132:0.00025840299 133:0.0076014381 134:0.035019681 135:0.0041154386 136:0.010748699 137:0.022331983 138:-2.8405673e-05 139:0.00016660902 140:0.00078075321 141:-1.0494369e-05 142:0.021307988 143:0.00096569292 144:0.0021770219 145:-0.0011875643 146:-0.0052756565 147:0.002469559 148:0.00861465 149:0.0016874624 150:1.3654039e-05 151:0.00069288927 152:8.7661094e-05 153:0.0094875488 154:-0.0060719987 155:0.0019111614 156:0.00090874283 157:0.010675703 158:0.00029393152 159:0.00028832603 160:2.644137e-05 161:-7.6581782e-06 162:0.00078439695 163:0.0010497319 164:0.00020726853 165:0.00071072375 166:0.00034051071 167:2.644137e-05 168:-0.00055202778 169:0.00064288691 170:-0.00012402151 171:9.3915951e-06 172:0.00022561835 173:3.9662056e-05 174:0.00012368198 175:2.2178927e-05 176:-0.00018707119 177:-0.00032584678 178:2.644137e-05 179:0.00053056085 180:0.0024761744 181:0.00010619884 182:7.9324112e-05 183:-0.0019123309 184:0.00079253741 185:0.002375806 186:0.0037146327 187:0.010752933 188:0.0027329638 189:0.00042775771 190:0.00026441368 191:0.00017227385 192:1.288115e-05 193:0.0005861313 194:0.0031813448 195:0.0098044546 196:3.5399611e-05 197:5.1291522e-06 198:-7.2248217e-06 199:3.9662056e-05 200:0.00021148799 201:-0.00062328886 202:-0.0025305694 203:0.0002029631 204:0.0024378418 205:-0.0036670251 206:0.00027257635 207:0.00017674445 208:0.00033106457 209:0.00035458655 210:4.695798e-06 211:-5.7507448e-05 212:-7.5423923e-05 213:-0.098606028 214:0.00011515708 215:0.00014542755 216:0.00024781999 217:0.00078936905 218:0.00051604008 219:0.0066726371 220:0.0012948314 221:0.00019831028 222:0.00026441368 223:0.00014542755 224:0.00014542755 225:2.644137e-05 226:3.9662056e-05 227:2.644137e-05 228:2.644137e-05 229:0.00011898617 230:0.00014542755 231:0.00073587202 232:2.644137e-05 233:2.644137e-05 234:2.644137e-05 235:2.644137e-05 236:2.644137e-05 237:7.9324112e-05 238:-0.00036556483 239:6.0388356e-06 240:9.2544797e-05 241:7.5061667e-05 242:9.2544797e-05 243:5.8878606e-05 244:1.4500481e-05 245:7.5061667e-05 246:9.2544797e-05 247:2.644137e-05 248:2.644137e-05 249:3.9662056e-05 250:3.9662056e-05 251:9.2544797e-05 252:7.2959238e-06 253:8.9582409e-06 254:2.644137e-05 255:2.644137e-05 256:3.9662056e-05 257:5.288274e-05 258:0.00015870176 259:0.0014356624 260:-0.00049776642 261:0.00067514437 262:0.0075669857 263:0.0023344997 264:0.00058306102 265:0.011891888 266:-0.00072809064 267:-4.3057793e-05 268:-2.6063386e-05 269:3.8433085e-05 270:-2.1312217e-05 271:0.0041163377 272:0.0030599362 273:0.0044423775 274:-2.4208915e-05 275:0.00053186092 276:2.644137e-05 277:2.2432394e-05 278:0.0083789835 279:0.0012574221 280:0.00075786375 281:2.644137e-05 282:3.9662056e-05 283:0.00010834535 284:4.8620295e-05 285:2.644137e-05 286:0.00010576548 287:0.00047858775 288:9.7932672e-05 289:0.00016847317 290:4.9877388e-05 291:0.0011787954 292:0.00311399 293:3.9662056e-05 294:0.00013220684 295:0.0015931623 296:2.644137e-05 297:4.0095412e-05 298:2.644137e-05 299:2.644137e-05 300:2.644137e-05 301:2.644137e-05 302:8.9582409e-06 303:0.0022790106 304:2.644137e-05 305:1.7916482e-05 306:-0.0012105944 307:0.0027948904 308:8.4019914e-05 309:2.644137e-05 310:2.644137e-05 311:2.644137e-05 312:0.00022447779 313:1.3177711e-05 314:-0.00035728593 315:0.0022045728 316:0.00011898617 317:2.644137e-05 318:0.0010627531 319:1.8826166e-05 320:0.0085787941 321:0.00037537405 322:0.00054958131 323:2.644137e-05 324:4.8620295e-05 325:0.00067784981 326:-0.00045861438 327:6.1840983e-05 328:0.0001063786 329:9.8679238e-06 330:9.2544797e-05 331:2.644137e-05 332:-0.00012826368 333:-5.5368793e-05 334:6.2274339e-05 335:-0.0018772135 336:0.000847538 337:-0.00082810078 338:0.0030947861 339:0.0076706838 340:0.00050500885 341:0.00038919543 342:0.002232441 343:0.0010359924 344:-0.00017151213 345:0.0033245755 346:-0.00053479546 347:-0.00067238277 348:-5.2016032e-05 349:-4.2624433e-06 350:-2.9837105e-05 351:-4.5287798e-05 352:-4.2624433e-06 353:0.0010826363 354:0.0004599641 355:8.9582409e-06 356:2.644137e-05 357:1.7916484e-05 358:2.644137e-05 359:5.288274e-05 360:2.644137e-05 361:-2.6008016e-05 362:0.00019404784 363:-7.5337972e-05 364:0.0055941138 365:0.00030370292 366:0.00018607281 367:-0.00012061907 368:0.00024064358 369:-0.00012663109 370:-0.00020518769 371:0.0052414038 372:0.0045117205 373:0.00048680985 374:0.019765468 375:0.015046498 376:9.2923423e-05 377:-3.8795348e-05 378:0.00025578262 379:-0.0013905215 380:4.4471934e-05 381:0.002700781 382:0.00059573678 383:0.00066471362 384:1.7916484e-05 385:0.011017101 386:3.113717e-05 387:0.0035350188 388:0.00025955096 389:0.017314913 390:-2.2221902e-05 391:0.00075229653 392:-0.0014191938 393:2.644137e-05 394:2.644137e-05 395:0.00058523455 396:7.5885415e-05 397:0.00052139716 398:-7.6804696e-05 399:0.00028276356 400:2.644137e-05 401:0.004636276 402:1.3206847e-05 403:0.00049172249 404:-0.0010110603 405:-0.00086571503 406:8.9582409e-06 407:4.9920363e-05 408:2.644137e-05 409:3.0749237e-05 410:3.0227486e-05 411:0.0062912581 412:5.0587045e-05 413:0.00041879946 414:0.0001718689 415:0.00020047708 416:0.004767071 417:0.000417011 418:0.0022728199 419:0.00072016689 420:9.005874e-05 421:5.1286108e-05 422:6.6103421e-05 423:-2.1745573e-05 424:6.9613241e-05 425:0.00018115884 426:2.644137e-05 427:6.1840983e-05 428:0.0026996201 429:0.001427881 430:0.00078738207 431:0.0020241805 432:0.00011898617 433:0.00057067891 434:-0.0026704962 435:0.00075540488 436:0.015639134 437:0.0099262306 438:-0.00027890631 439:0.00048966979 440:0.00011046128 441:-2.1745573e-05 442:0.00037753987 443:0.00063119712 444:0.00072843779 445:8.9582409e-06 446:0.00023457658 447:0.00032273223 448:0.0011089182 449:0.0030207625 450:0.00022516472 451:-0.00025103861 452:0.005949893 453:3.8138332e-05 454:0.00072796142 455:0.00011046128 456:2.8217761e-05 457:-0.00092613592 458:8.4042615e-05 459:0.00055786892 460:0.0024622029 461:2.644137e-05 462:0.00065568148 463:6.2730403e-05 464:-0.00010597068 465:0.00073037366 466:5.288274e-05 467:4.6714984e-05 468:0.0014298742 469:0.0032767833 470:5.288274e-05 471:6.6103421e-05 472:5.288274e-05 473:5.288274e-05 474:5.288274e-05 475:5.288274e-05 476:6.6103421e-05 477:6.6103421e-05 478:0.0019364042 479:0.00015055669 480:0.0020485334 481:-0.0015798408 482:0.001710964 483:0.0029477202 484:0.0001346418 485:0.00059342803 486:0.0012125415 487:0.0016894004 488:-0.0016056895 489:0.00016159432 490:3.9662056e-05 491:5.3316093e-05 492:8.0624181e-05 493:7.5495023e-05 494:8.9582409e-06 495:0.00017793292 496:0.00034127448 497:0.00010710852 498:4.9529979e-05 499:3.0039577e-05 500:0.00021798289 501:-0.00014240009 502:7.0756258e-05 503:-0.0019465624 504:-0.0016746159 505:-2.4001032e-05 506:0.0037933309 507:0.00035533914 508:0.00010576548 509:-1.7959457e-05 510:-4.2624433e-06 511:0.00019874364 512:7.9757461e-05 513:-6.7055212e-06 514:0.00018508959 515:7.9324112e-05 516:0.000425284 517:0.014415313 518:0.00094824552 519:0.00028731016 520:0.0031512924 521:0.0003344627 522:-0.0059986515 523:-0.0060042334 524:-0.011096916 525:0.0021861945 526:0.016654408 527:0.00012714048 528:0.00025675553 529:-0.00014996629 530:0.0023429298 531:0.0014217723 532:0.0079797367 533:0.0014526474 534:0.0034013772 535:-0.00014545406 536:8.8282359e-05 537:5.8011894e-05 538:7.1665942e-05 539:4.8620295e-05 540:5.288274e-05 541:9.2544797e-05 542:-0.00010989115 543:-0.00093071116 544:0.0033678655 545:-0.0020888713 546:-0.0018646892 547:-8.2740109e-05 548:6.2773375e-05 549:2.644137e-05 550:0.0003993726 551:0.0021647385 552:4.0528761e-05 553:6.2274339e-05 554:0.00030877156 555:-5.5411765e-05 556:6.7446461e-05 557:3.9662056e-05 558:0.00018119482 559:0.00010576548 560:-1.7049773e-05 561:-4.1669333e-05 562:3.5399611e-05 563:7.9324112e-05 564:2.2178927e-05 565:2.644137e-05 566:0.00019404784 567:0.00037607798 568:2.644137e-05 569:0.00015908157 570:8.1490885e-05 571:0.00060067308 572:-0.00012773655 573:0.00016124835 574:3.9662056e-05 575:0.0022500681 576:5.288274e-05 577:0.0052257557 578:0.00026262915 579:0.0021485686 580:5.2406409e-05 581:-0.0018064528 582:0.0024737453 583:0.0015262264 584:3.9662056e-05 585:6.6103421e-05 586:0.00031078124 587:3.9662056e-05 588:5.288274e-05 589:3.9662056e-05 590:5.288274e-05 591:5.288274e-05 592:0.00010576548 593:0.00023457658 594:0.00060609879 595:3.9662056e-05 596:3.9662056e-05 597:3.9662056e-05 598:3.9662056e-05 599:3.9662056e-05 600:0.00017944114 601:3.9662056e-05 602:-3.6585599e-05 603:3.9662056e-05 604:3.9662056e-05 605:0.0035486831 606:4.5414919e-05 607:-0.00018579925 608:0.000273529 609:3.9662056e-05 610:3.9662056e-05 611:0.00062767463 612:0.0024321603 613:-4.7317786e-05 614:0.0009348396 615:2.2178927e-05 616:2.644137e-05 617:5.288274e-05 618:0.00010619884 619:9.7240591e-05 620:0.00012368197 621:0.0015879312 622:0.0089070154 623:0.0014420446 624:0.00043375362 625:0.00042392864 626:0.0013417796 627:0.00064488273 628:0.00145197 629:-0.00012644433 630:-2.6347563e-05 631:0.00054620433 632:2.644137e-05 633:0.0022840747 634:0.00057492836 635:0.0011904342 636:0.00041722311 637:0.016008591 638:0.004840848 639:0.00015475589 640:0.0025698293 641:8.9582409e-06 642:2.644137e-05 643:4.6134246e-05 644:0.0011429748 645:0.0002337099 646:0.00084285007 647:0.0011102887 648:2.644137e-05 649:0.00012368197 650:0.00015908157 651:5.288274e-05 652:9.7673954e-05 653:0.00036817734 654:5.288274e-05 655:0.00018508959 656:0.00013054455 657:0.00015994829 658:2.644137e-05 659:2.644137e-05 660:2.644137e-05 661:2.644137e-05 662:2.644137e-05 663:2.644137e-05 664:3.9662056e-05 665:0.00011515708 666:5.288274e-05 667:0.00071679614 668:0.00013264021 669:2.644137e-05 670:6.1840983e-05 671:2.644137e-05 672:2.644137e-05 673:7.9324112e-05 674:0.00034164212 675:-5.8590754e-06 676:8.9582409e-06 677:2.644137e-05 678:6.2274339e-05 679:-0.00075689761 680:0.00071912759 681:0.0013921624 682:0.0014917477 683:0.0023806039 684:0.0051776338 685:0.0013532551 686:0.00088853564 687:-2.1745573e-05 688:0.0049177576 689:0.0066011772 690:0.0028447323 691:0.0016514221 692:0.0061146403 693:0.00048702673 694:0.00073640753 695:3.5399611e-05 696:0.0004064455 697:9.7673947e-05 698:9.5745636e-05 699:-6.1883955e-05 700:2.644137e-05 701:2.644137e-05 702:5.288274e-05 703:0.00050981878 704:0.00026956559 705:0.00012837777 706:2.644137e-05 707:0.0015035801 708:0.00020434913 709:3.5832963e-05 710:0.0016883772 711:0.00010150304 712:0.0010704703 713:0.016447486 714:0.00014461167 715:0.0020519521 716:4.1552521e-05 717:0.00041382632 718:0.0022044883 719:0.0079357941 720:0.00018082716 721:0.00073101337 722:-2.1745573e-05 723:1.0334272e-06 724:7.9324112e-05 725:0.0089927213 726:0.012135962 727:0.002446807 728:0.0032539463 729:0.00015864822 730:2.644137e-05 731:0.0017345756 732:2.644137e-05 733:0.0002691095 734:0.0022070785 735:-3.0270459e-05 736:0.00045419909 737:5.2155261e-05 738:0.00090359105 739:0.00040131636 740:0.00059269706 741:0.00079925969 742:0.00099514413 743:0.00036208765 744:0.00051381794 745:-0.00085419609 746:0.024955407 747:-1.2787331e-05 748:9.9220983e-05 749:3.204685e-05 750:0.0071962969 751:8.8282359e-05 752:0.0018870481 753:0.00099950307 754:-8.5248867e-06 755:0.00064538553 756:9.2544797e-05 757:4.3335513e-07 758:0.0013936918 759:2.644137e-05 760:8.8282359e-05 761:-4.3057789e-05 762:8.8715715e-05 763:5.288274e-05 764:0.00011041831 765:8.9582409e-06 766:-1.2787331e-05 767:0.00053017045 768:-0.00035496033 769:-4.2624433e-06 770:0.0004158598 771:7.9324112e-05 772:5.4382839e-05 773:-0.00041861431 774:0.00015538355 775:0.0051472122 776:2.2612281e-05 777:5.288274e-05 778:2.644137e-05 779:0.0024925943 780:0.0021826166 781:-0.00012621099 782:0.0054040751 783:0.00023086159 784:0.00083440589 785:0.00031584201 786:0.00037957079 787:0.00023414324 788:-6.5946384e-05 789:0.001492184 790:-2.7108057e-05 791:0.0012930214 792:-0.00058468763 793:0.00095697766 794:0.00011401406 795:0.0051126005 796:0.0005647369 797:0.00083820336 798:1.4582184e-05 799:0.00014021243 800:2.2178927e-05 801:0.00078282302 802:0.00032059563 803:0.00038998612 804:7.5061667e-05 805:0.00043390095 806:-2.6717675e-05 807:-0.0031670474 808:4.4791206e-05 809:0.0024687198 810:0.0012070911 811:-0.0040954091 812:2.1269243e-05 813:2.644137e-05 814:0.00014608364 815:0.0015730492 816:0.0036673567 817:0.0051150871 818:0.0012072924 819:2.644137e-05 820:2.644137e-05 821:2.644137e-05 822:2.644137e-05 823:2.644137e-05 824:2.644137e-05 825:0.00014542755 826:2.644137e-05 827:2.644137e-05 828:0.00019831028 829:0.00073299103 830:0.00017230227 831:0.0019891644 832:-4.7596535e-05 833:-0.0020758591 834:-0.0047549685 835:0.0003048995 836:0.0019513014 837:3.9185725e-05 838:0.0013017079 839:0.00026058461 840:3.5399611e-05 841:0.0028227519 842:0.0026400173 843:0.00011801797 844:0.00033521291 845:2.644137e-05 846:2.644137e-05 847:3.9662056e-05 848:-9.594053e-05 849:2.644137e-05 850:2.644137e-05 851:2.644137e-05 852:1.8349838e-05 853:8.9582409e-06 854:8.9582409e-06 855:0.0009716046 856:3.4646982e-05 857:0.00011898617 858:-0.00020309511 859:2.644137e-05 860:3.9662056e-05 861:2.644137e-05 862:6.6103421e-05 863:3.9662056e-05 864:0.0012464597 865:0.0014156125 866:0.00019578125 867:6.6103421e-05 868:9.391596e-06 869:3.9662056e-05 870:2.644137e-05 871:2.644137e-05 872:2.644137e-05 873:6.6103421e-05 874:0.00021852492 875:0.0019659447 876:4.0095409e-05 877:0.0080824904 878:-0.0012108766 879:0.0018885252 880:0.00010576548 881:5.288274e-05 882:5.33161e-05 883:-0.00018274307 884:0.00021284762 885:8.9582409e-06 886:0.00017699806 887:0.00018738773 888:0.00056787359 889:0.00089275953 890:0.00016803983 891:-1.5273386e-05 892:-8.9034984e-05 893:-0.00041119911 894:-5.4060874e-05 895:9.5144918e-05 896:0.00045167009 897:-0.00047187958 898:6.1840983e-05 899:4.6957989e-06 900:-0.00029055518 901:1.8420767e-06 902:2.644137e-05 903:2.644137e-05 904:-0.0042271274 905:-0.014807918 906:0.0023608969 907:0.0016357544 908:0.0010171607 909:0.00073836435 910:0.0032876423 911:-3.0270459e-05 912:0.00095689198 913:0.0021787013 914:0.0020263095 915:0.00032489956 916:-4.2624433e-06 917:-0.00030257567 918:-0.00014278443 919:-1.5843807e-05 920:2.644137e-05 921:7.9324112e-05 922:2.644137e-05 923:8.8282359e-05 924:5.288274e-05 925:0.00039073877 926:4.0962121e-05 927:5.288274e-05 928:2.644137e-05 929:5.288274e-05 930:-3.8290891e-06 931:4.0095409e-05 932:0.0023970557 933:0.0012458279 934:7.9757461e-05 935:0.0004187508 936:0.00014612396 937:0.0010837566 938:-8.3173465e-05 939:-3.8361992e-05 940:9.3017057e-05 941:0.00063516304 942:0.0011887922 943:0.0016238266 944:0.00064473687 945:-8.0915343e-06 946:1.8783192e-05 947:0.0027332909 948:-0.00053242588 949:0.00017323466 950:2.644137e-05 951:2.2178927e-05 952:7.9324112e-05 953:0.0090729734 954:0.00016629156 955:0.00078418688 956:0.0022001679 957:0.0018322435 958:4.9487007e-05 959:0.0060926457 960:0.00018636289 961:0.0024460575 962:0.0018254681 963:0.00035581813 964:-2.8103686e-05 965:0.0021930696 966:0.0032953627 967:-0.00084364141 968:0.0077179936 969:8.1490893e-05 970:8.8715715e-05 971:0.00037866895 972:9.0671856e-05 973:4.8620295e-05 974:3.113717e-05 975:3.9662056e-05 976:9.7240591e-05 977:-3.230045e-05 978:0.00013690266 979:3.9662056e-05 980:7.5495023e-05 981:9.4321185e-05 982:2.644137e-05 983:1.4563722e-05 984:0.00011132799 985:0.000344222 986:0.0028880718 987:0.00075576041 988:0.0070756739 989:3.9662056e-05 990:0.0040824893 991:0.0017889349 992:3.9662056e-05 993:0.00021153096 994:-7.65818e-06 995:0.00057894783 996:0.0023064865 997:7.9324112e-05 998:0.00021153096 999:-0.00066120247 1000:-0.0018741817 1001:0.00035784792 1002:0.0040477519 1003:0.0014952602 1004:0.0045579872 1005:0.0084037744 1006:0.001062457 1007:4.3335424e-07 1008:0.00010000964 1009:0.00085594878 1010:0.00076909788 1011:-0.00056147558 1012:8.6670849e-07 1013:2.644137e-05 1014:0.00018082716 1015:5.288274e-05 1016:0.00042436199 1017:0.00017230227 1018:0.00033521291 1019:2.644137e-05 1020:9.2544797e-05 1021:0.0018820892 1022:0.0020024334 1023:0.00096734252 1024:2.644137e-05 1025:0.00076137402 1026:0.00024198118 1027:2.2178927e-05 1028:6.1840983e-05 1029:0.0001411651 1030:-0.00010446542 1031:0.00043288688 1032:-0.00022461683 1033:0.00044536276 1034:3.9662056e-05 1035:0.0016572813 1036:0.0009588403 1037:5.3749449e-05 1038:0.0006906967 1039:0.00016955503 1040:-0.00022664368 1041:3.9662056e-05 1042:2.2178927e-05 1043:2.644137e-05 1044:8.9582418e-06 1045:3.6309295e-05 1046:5.3316093e-05 1047:0.00012074229 1048:4.695798e-06 1049:0.00052173395 1050:0.00052635168 1051:2.3088609e-05 1052:0.00252352 1053:0.00079761766 1054:0.0046435846 1055:2.644137e-05 1056:-3.92287e-05 1057:-8.5248867e-06 1058:-2.1745573e-05 1059:3.5926769e-05 1060:0.00056110485 1061:-0.0028155115 1062:0.0051236339 1063:0.00039112565 1064:1.7916482e-05 1065:-6.4370011e-05 1066:-4.2624433e-06 1067:-5.5877779e-05 1068:0.0054771183 1069:-0.00010857803 1070:0.0012956664 1071:0.0045982981 1072:0.0067792754 1073:3.5399611e-05 1074:3.7861153e-06 1075:0.0021387988 1076:8.9809519e-06 1077:0.0004140324 1078:0.0038133797 1079:0.00029555088 1080:0.00023797233 1081:6.6103421e-05 1082:0.00052552251 1083:0.00064254494 1084:0.002411528 1085:3.7654783e-05 1086:8.9582409e-06 1087:2.1729858e-05 1088:-0.0041811694 1089:0.00024770072 1090:0.010836355 1091:0.00055139669 1092:8.4019906e-05 1093:2.0496347e-05 1094:0.00032869924 1095:0.00098356826 1096:0.00031476744 1097:6.6103421e-05 1098:0.0015313029 1099:-0.0008616402 1100:6.1840983e-05 1101:4.3335424e-07 1102:0.00048833853 1103:0.00038957552 1104:-1.2764619e-05 1105:5.288274e-05 1106:2.644137e-05 1107:0.00010576548 1108:3.9662056e-05 1109:5.3414173e-05 1110:6.6103421e-05 1111:5.288274e-05 1112:-0.00010671419 1113:-0.00059014937 1114:0.015479002 1115:0.00033138387 1116:-0.00030187055 1117:3.9662056e-05 1118:0.0012369871 1119:6.1840983e-05 1120:0.0026940596 1121:-0.00063927413 1122:0.00047063275 1123:0.004666172 1124:6.6103421e-05 1125:2.644137e-05 1126:2.644137e-05 1127:0.00011176134 1128:8.9582409e-06 1129:5.288274e-05 1130:0.0051463284 1131:0.00088605407 1132:0.00071221171 1133:3.1636209e-05 1134:0.00046411785 1135:9.3306291e-05 1136:0.00018643263 1137:-8.4000218e-05 1138:0.0011666149 1139:0.0014458873 1140:-0.0010991778 1141:3.9662056e-05 1142:6.6103421e-05 1143:0.0018237019 1144:6.1840983e-05 1145:0.00070333946 1146:0.002288484 1147:-3.500923e-05 1148:3.5832963e-05 1149:5.288274e-05 1150:5.288274e-05 1151:5.288274e-05 1152:5.288274e-05 1153:5.288274e-05 1154:5.288274e-05 1155:0.00015864822 1156:0.00015864822 1157:0.00037913743 1158:0.00097311562 1159:5.288274e-05 1160:5.288274e-05 1161:5.288274e-05 1162:0.00011898617 1163:5.288274e-05 1164:5.288274e-05 1165:5.288274e-05 1166:7.9324112e-05 1167:4.9529979e-05 1168:5.288274e-05 1169:5.288274e-05 1170:5.288274e-05 1171:5.288274e-05 1172:5.288274e-05 1173:5.288274e-05 1174:0.00015864822 1175:0.00015864822 1176:0.00035695848 1177:5.288274e-05 1178:5.288274e-05 1179:5.288274e-05 1180:5.288274e-05 1181:5.288274e-05 1182:5.288274e-05 1183:5.288274e-05 1184:5.288274e-05 1185:5.288274e-05 1186:5.288274e-05 1187:0.0011935687 1188:9.2978153e-05 1189:0.0026842901 1190:0.0022963018 1191:2.644137e-05 1192:-7.8024052e-05 1193:0.0024049741 1194:5.288274e-05 1195:0.00053352321 1196:2.644137e-05 1197:0.00016803983 1198:-0.00078278338 1199:0.00097137346 1200:0.00019961034 1201:0.0005989421 1202:-8.5248867e-06 1203:2.644137e-05 1204:6.4484084e-05 1205:5.288274e-05 1206:0.00019803399 1207:0.00010576548 1208:0.00094499945 1209:0.00010576548 1210:9.2544797e-05 1211:9.2544797e-05 1212:-9.1868722e-05 1213:-8.5248867e-06 1214:0.00012552948 1215:0.00011046128 1216:0.00024770564 1217:0.00096061424 1218:-0.00093382865 1219:2.2092981e-05 1220:6.1840983e-05 1221:5.7578538e-05 1222:2.644137e-05 1223:3.9662056e-05 1224:0.00018638966 1225:0.005751431 1226:0.0010080643 1227:0.00058957079 1228:3.9662056e-05 1229:0.00020534397 1230:0.005233516 1231:2.644137e-05 1232:4.4357854e-05 1233:-5.7664489e-05 1234:0.00011505087 1235:2.2178927e-05 1236:0.00037945641 1237:0.00040546196 1238:-2.0878866e-05 1239:0.00035627157 1240:0.0016885553 1241:0.00092461368 1242:1.733417e-06 1243:-7.8024052e-05 1244:5.288274e-05 1245:8.8282359e-05 1246:0.00015867093 1247:2.644137e-05 1248:0.00010516022 1249:-2.9194061e-06 1250:9.391596e-06 1251:-0.00049876218 1252:-0.00027753907 1253:5.3815133e-05 1254:5.288274e-05 1255:0.00035471789 1256:0.0026463848 1257:0.0017065 1258:0.00018260354 1259:1.1167992e-05 1260:0.00113575 1261:-5.0196664e-05 1262:-0.0001755975 1263:-3.2186363e-05 1264:0.0027166195 1265:-0.00030160727 1266:0.00073546555 1267:6.1840983e-05 1268:0.00041969432 1269:0.0021293955 1270:4.7033958e-05 1271:0.0004687426 1272:0.00022571215 1273:0.00018217019 1274:0.00019865767 1275:0.00041453703 1276:0.0011783744 1277:5.288274e-05 1278:0.0012999404 1279:0.00049242156 1280:0.00044168535 1281:-4.3491145e-05 1282:2.644137e-05 1283:-1.6140091e-05 1284:2.644137e-05 1285:0.00011472372 1286:4.6567602e-05 1287:5.288274e-05 1288:3.5399611e-05 1289:2.644137e-05 1290:2.644137e-05 1291:2.644137e-05 1292:-4.2624433e-06 1293:-5.6469271e-06 1294:0.0030726015 1295:0.00077929051 1296:-0.0034064543 1297:0.00044097842 1298:0.00021923998 1299:-0.00047969297 1300:0.00092235667 1301:0.00027840701 1302:0.00015357236 1303:-0.00080927985 1304:0.0010864224 1305:0.0011777811 1306:0.0028454352 1307:0.00082910218 1308:9.9039702e-05 1309:8.1490893e-05 1310:-1.0062336e-06 1311:9.2544797e-05 1312:-5.6278477e-05 1313:-0.0003086575 1314:-3.4099547e-05 1315:0.00016760646 1316:0.00031303399 1317:3.9662056e-05 1318:8.4019914e-05 1319:3.113717e-05 1320:0.00025627919 1321:-4.2624433e-06 1322:2.644137e-05 1323:5.288274e-05 1324:2.644137e-05 1325:6.6103421e-05 1326:-0.00012960672 1327:-8.5248867e-06 1328:5.288274e-05 1329:0.00046833194 1330:8.9582409e-06 1331:3.9662056e-05 1332:0.00015138043 1333:0.00030843203 1334:-0.00019422066 1335:3.5399611e-05 1336:1.7916482e-05 1337:3.5399611e-05 1338:5.0353709e-05 1339:8.9582409e-06 1340:0.0020039359 1341:3.9662056e-05 1342:0.001496284 1343:4.8620295e-05 1344:-0.0002728409 1345:8.8282359e-05 1346:2.644137e-05 1347:0.00054800103 1348:2.644137e-05 1349:0.0022957348 1350:8.265661e-05 1351:3.0660842e-05 1352:-0.00078504789 1353:0.00060720427 1354:0.00015537128 1355:0.00011898617 1356:5.288274e-05 1357:7.4151983e-05 1358:0.00026015125 1359:5.288274e-05 1360:9.2544797e-05 1361:5.9397902e-05 1362:5.288274e-05 1363:0.00010059336 1364:0.00010059336 1365:0.00060997542 1366:-3.8063783e-06 1367:6.6103421e-05 1368:5.288274e-05 1369:0.00014275112 1370:-2.2546732e-07 1371:0.00030450913 1372:0.00059331144 1373:0.0063656266 1374:0.0014235942 1375:0.00031772378 1376:-4.2624433e-06 1377:3.2069562e-05 1378:0.00022475165 1379:0.00026960851 1380:0.002541523 1381:0.0027964097 1382:3.9662056e-05 1383:2.644137e-05 1384:0.00064250862 1385:0.0010344292 1386:0.00056823588 1387:0.00030422042 1388:1.3157447e-05 1389:2.644137e-05 1390:0.0053575323 1391:0.0018972099 1392:0.0010620111 1393:7.9324112e-05 1394:6.6103421e-05 1395:0.00024440151 1396:0.00017745413 1397:7.1232585e-05 1398:-0.0002471052 1399:0.00034073245 1400:0.00012500474 1401:0.000419238 1402:1.7916482e-05 1403:5.8967002e-05 1404:3.4142249e-05 1405:0.00056310673 1406:0.00016088611 1407:0.00024396821 1408:7.9893965e-05 1409:0.0021334069 1410:4.8620295e-05 1411:0.0030863986 1412:0.0011008331 1413:7.9757461e-05 1414:5.5763798e-05 1415:5.288274e-05 1416:-0.0010452367 1417:1.2721645e-05 1418:0.0001657214 1419:0.00050776178 1420:2.644137e-05 1421:3.5399611e-05 1422:5.7578538e-05 1423:0.00013264021 1424:3.5399611e-05 1425:-4.2624433e-06 1426:3.9662056e-05 1427:5.288274e-05 1428:8.4019906e-05 1429:-0.0019816586 1430:4.9487007e-05 1431:-0.0006444538 1432:0.00040357152 1433:9.7263306e-05 1434:0.00010619884 1435:0.0069947653 1436:6.6103421e-05 1437:0.00060782162 1438:0.00020726853 1439:-0.00084454182 1440:0.0036166294 1441:0.00061920029 1442:-0.001926312 1443:-2.1745573e-05 1444:-0.00049492816 1445:8.9582409e-06 1446:-6.9476453e-05 1447:0.00012368197 1448:-4.2624433e-06 1449:2.644137e-05 1450:2.644137e-05 1451:0.00015864822 1452:0.00010576548 1453:-4.2624433e-05 1454:-5.9283826e-05 1455:0.00054042059 1456:7.9324112e-05 1457:5.6215242e-05 1458:-0.00013283755 1459:0.00010280037 1460:0.00030068003 1461:-0.00014358388 1462:6.8703557e-05 1463:9.1749193e-05 1464:-0.0011984302 1465:-0.00093053607 1466:3.9662056e-05 1467:9.8150274e-05 1468:4.4991233e-05 1469:1.8349838e-05 1470:0.00015438578 1471:0.00018684572 1472:2.8608138e-05 1473:2.644137e-05 1474:-4.2624433e-06 1475:8.9582409e-06 1476:-0.00041190878 1477:-0.0004521037 1478:1.0734635e-05 1479:2.2178927e-05 1480:0.00039190453 1481:5.288274e-05 1482:-6.7575384e-05 1483:-0.00018478515 1484:0.0023153103 1485:0.00082437828 1486:0.0014638694 1487:0.00022048921 1488:0.00087299047 1489:-4.3491145e-05 1490:3.9662056e-05 1491:-0.00069912622 1492:0.0051729959 1493:-0.00077728747 1494:0.00010193639 1495:8.9582409e-06 1496:0.00039235811 1497:-0.00019469605 1498:0.0012834757 1499:6.6536784e-05 1500:5.7578538e-05 1501:3.5399611e-05 1502:0.00047627723 1503:6.9509661e-06 1504:2.644137e-05 1505:3.9662056e-05 1506:-0.00025155526 1507:-0.0028577014 1508:5.288274e-05 1509:4.8620295e-05 1510:6.5071523e-05 1511:7.0978989e-05 1512:2.5055358e-05 1513:1.6097118e-05 1514:2.644137e-05 1515:3.5399611e-05 1516:2.644137e-05 1517:0.0015818364 1518:2.644137e-05 1519:1.8415521e-05 1520:5.288274e-05 1521:2.644137e-05 1522:0.00011898617 1523:0.00021417406 1524:0.00099445565 1525:0.00077788177 1526:2.644137e-05 1527:2.644137e-05 1528:2.644137e-05 1529:2.644137e-05 1530:2.644137e-05 1531:5.8445243e-05 1532:-2.002275e-05 1533:-0.00014431783 1534:0.0010708983 1535:6.6103421e-05 1536:1.8349838e-05 1537:0.00010182205 1538:0.00014492281 1539:0.00053339155 1540:0.00080134231 1541:0.00036484376 1542:0.00055396056 1543:0.00011898617 1544:0.0033536716 1545:0.0004665101 1546:0.00031346735 1547:3.5399611e-05 1548:0.00038809568 1549:-3.8361992e-05 1550:-0.00022635008 1551:6.4030457e-05 1552:9.7197619e-05 1553:0.00018642214 1554:0.00052176404 1555:0.00048939593 1556:0.0018087683 1557:0.0010347427 1558:0.00022139889 1559:9.2544797e-05 1560:0.0010799527 1561:0.00022475165 1562:8.9582418e-06 1563:4.9053648e-05 1564:6.6103421e-05 1565:2.1269243e-05 1566:0.001169416 1567:0.00063928874 1568:5.288274e-05 1569:0.00015702072 1570:0.00078833714 1571:0.00084329827 1572:0.00021622678 1573:0.00011898617 1574:6.6103421e-05 1575:2.7308079e-05 1576:6.6103421e-05 1577:6.6103421e-05 1578:-7.4947595e-05 1579:0.0018394606 1580:0.0013286291 1581:0.00015438578 1582:3.5399611e-05 1583:0.0011112132 1584:-0.00051432964 1585:0.002807318 1586:0.00053815823 1587:0.00025117275 1588:-0.00010170579 1589:-6.5236716e-05 1590:0.0017891546 1591:0.00024667699 1592:-7.4671283e-05 1593:0.00025174289 1594:0.0025358165 1595:6.6103421e-05 1596:3.5399611e-05 1597:2.644137e-05 1598:2.644137e-05 1599:2.644137e-05 1600:2.644137e-05 1601:2.644137e-05 1602:2.644137e-05 1603:2.644137e-05 1604:2.644137e-05 1605:9.817299e-05 1606:0.00028203364 1607:0.0023477369 1608:0.0038759417 1609:0.0001718689 1610:0.0002222226 1611:8.9582409e-06 1612:2.644137e-05 1613:2.644137e-05 1614:2.644137e-05 1615:2.644137e-05 1616:2.644137e-05 1617:-9.7808079e-05 1618:2.644137e-05 1619:2.644137e-05 1620:0.00042233203 1621:2.644137e-05 1622:-4.5252975e-05 1623:5.7578538e-05 1624:8.9582409e-06 1625:2.644137e-05 1626:2.644137e-05 1627:5.288274e-05 1628:0.00059493084 1629:0.00056031201 1630:0.0032320784 1631:0.0062648533 1632:0.0010692131 1633:0.00082576921 1634:-8.5248867e-06 1635:1.3654039e-05 1636:0.0008333365 1637:0.0008176298 1638:0.00094806025 1639:7.9324112e-05 1640:5.288274e-05 1641:3.6831043e-05 1642:0.00012928745 1643:1.6362823e-05 1644:0.0013730929 1645:-0.0014937613 1646:0.00012604304 1647:-7.0545902e-05 1648:0.00058368657 1649:0.00039167117 1650:0.00018508959 1651:-5.2925716e-05 1652:-8.5248867e-06 1653:0.00049882266 1654:2.644137e-05 1655:4.695798e-06 1656:3.9662056e-05 1657:2.644137e-05 1658:2.644137e-05 1659:1.8415521e-05 1660:0.00019021874 1661:0.0036109276 1662:3.9662056e-05 1663:2.644137e-05 1664:2.644137e-05 1665:0.00017407867 1666:0.00010619884 1667:3.1570522e-05 1668:8.9582409e-06 1669:5.8488218e-05 1670:7.9324112e-05 1671:2.644137e-05 1672:1.365749e-06 1673:0.0043287729 1674:5.288274e-05 1675:1.3445865e-05 1676:-4.7320234e-05 1677:0.0015723921 1678:0.00024353483 1679:0.00045846155 1680:0.0004064455 1681:0.00023883903 1682:0.00017063993 1683:0.00037017919 1684:8.8282351e-05 1685:0.0003919529 1686:1.3430371e-06 1687:3.9662056e-05 1688:0.00092629704 1689:0.0016566656 1690:0.00029124544 1691:0.00036630713 1692:-0.00054088602 1693:7.8076147e-07 1694:0.00074995239 1695:0.00030366643 1696:0.00020097004 1697:-0.00017443125 1698:8.9582418e-06 1699:2.644137e-05 1700:2.644137e-05 1701:2.644137e-05 1702:-4.5888799e-05 1703:0.0050988845 1704:-0.0012627626 1705:0.00067389267 1706:2.644137e-05 1707:0.0004610898 1708:0.00028926088 1709:6.2932872e-05 1710:2.644137e-05 1711:0.00057879073 1712:0.002029194 1713:0.0013598775 1714:0.00029641759 1715:0.0020561011 1716:5.8185946e-05 1717:0.00085532758 1718:0.002977812 1719:0.0002599791 1720:6.1840983e-05 1721:5.288274e-05 1722:0.00011898617 1723:0.00010576548 1724:0.0001642537 1725:0.0004956242 1726:5.1291527e-06 1727:0.00064571796 1728:8.5319967e-05 1729:0.0011294279 1730:7.5495023e-05 1731:5.8077578e-05 1732:-0.00019464099 1733:0.00010576548 1734:2.644137e-05 1735:8.8282351e-05 1736:3.9662056e-05 1737:-8.0461105e-06 1738:6.1830287e-05 1739:-0.00029734211 1740:3.9662056e-05 1741:0.0010210741 1742:-3.6195222e-05 1743:7.0799222e-05 1744:2.2178927e-05 1745:4.8620295e-05 1746:4.9053651e-05 1747:7.9324112e-05 1748:0.00053707598 1749:2.644137e-05 1750:8.4019914e-05 1751:2.644137e-05 1752:0.00053908571 1753:0.0001765647 1754:0.002820685 1755:-0.006969572 1756:0.0017696187 1757:0.00014542755 1758:0.00018595631 1759:5.1948373e-06 1760:-9.9861783e-05 1761:7.5971351e-05 1762:9.6764263e-05 1763:0.0038397242 1764:0.00012076257 1765:0.0024524175 1766:0.00210722 1767:0.00028845231 1768:7.5495016e-05 1769:0.00034509206 1770:0.00011513681 1771:0.00014025542 1772:-0.00010776732 1773:0.00022609469 1774:0.00040816536 1775:0.00017494537 1776:2.644137e-05 1777:0.00026015125 1778:0.0012725936 1779:0.00092262233 1780:3.9662056e-05 1781:0.00032846443 1782:0.00017834111 1783:3.9662056e-05 1784:7.9737205e-05 1785:3.9662056e-05 1786:0.00028073357 1787:6.6493812e-05 1788:0.00020904491 1789:4.4357854e-05 1790:0.0010573355 1791:-0.00022731334 1792:0.00097019627 1793:-0.00030048995 1794:0.00024386866 1795:0.0014027605 1796:0.0011641474 1797:0.00097062084 1798:7.9324112e-05 1799:-8.0915343e-06 1800:3.9662056e-05 1801:2.644137e-05 1802:3.0531926e-05 1803:0.00032082896 1804:2.644137e-05 1805:3.9662056e-05 1806:2.644137e-05 1807:3.5399611e-05 1808:2.644137e-05 1809:0.00010576548 1810:0.00030115637 1811:0.00010576548 1812:-4.2624433e-06 1813:7.5061667e-05 1814:0.0024650227 1815:-6.3906075e-05 1816:-0.0021279389 1817:3.5399611e-05 1818:3.3737299e-05 1819:0.001048787 1820:-0.00016443161 1821:0.00073553366 1822:0.00032069761 1823:1.4520751e-05 1824:3.2003874e-05 1825:7.7722516e-06 1826:0.00013617273 1827:0.00013220684 1828:0.00023414324 1829:0.00020268677 1830:0.0001718689 1831:0.001787344 1832:0.00014207479 1833:-3.8290891e-06 1834:0.00034870178 1835:4.0095409e-05 1836:3.9510223e-06 1837:-8.0915343e-06 1838:0.00018082716 1839:6.9202593e-05 1840:0.0025439798 1841:9.3411509e-05 1842:5.288274e-05 1843:-2.6008016e-05 1844:-0.0047836974 1845:0.0013140708 1846:0.00068853248 1847:2.525538e-05 1848:-0.0004411627 1849:7.588786e-05 1850:7.9324112e-05 1851:0.00010150304 1852:0.00051425124 1853:3.9662056e-05 1854:0.00073972472 1855:1.3654039e-05 1856:-3.7018955e-05 1857:-2.0402535e-05 1858:0.00013173297 1859:-0.00028829792 1860:0.00068676 1861:0.00032201223 1862:0.00082120346 1863:0.00092064502 1864:0.00019255986 1865:-0.00024900289 1866:0.00062552845 1867:-4.511049e-05 1868:0.0019056462 1869:4.695798e-06 1870:0.0012001856 1871:0.0058915904 1872:0.00059930736 1873:0.0025632768 1874:-0.00025758444 1875:3.9662056e-05 1876:-4.6886882e-05 1877:5.7578538e-05 1878:3.9662056e-05 1879:7.9324112e-05 1880:0.00012552405 1881:3.1570522e-05 1882:2.8306158e-05 1883:3.9662056e-05 1884:2.644137e-05 1885:9.2544797e-05 1886:0.00021153096 1887:0.0016233019 1888:0.00021465038 1889:6.6103421e-05 1890:0.00013220684 1891:-3.92287e-05 1892:0.0017973034 1893:7.9324112e-05 1894:3.9662056e-05 1895:0.00031919722 1896:0.00018293761 1897:0.00010677684 1898:0.00017292437 1899:0.0038335845 1900:0.00042696213 1901:0.0042767907 1902:0.0005830102 1903:-2.8127235e-05 1904:-0.00026730497 1905:-0.00054781866 1906:2.644137e-05 1907:2.644137e-05 1908:2.644137e-05 1909:0.00036252101 1910:0.00011515709 1911:0.00021622676 1912:0.00010576548 1913:3.9662056e-05 1914:0.00064485118 1915:1.7916482e-05 1916:0.00028752501 1917:-4.2624433e-05 1918:0.00048533626 1919:4.8643007e-05 1920:0.00048533626 1921:-6.480336e-05 1922:3.5399611e-05 1923:0.00057318527 1924:0.00018508959 1925:0.00035027816 1926:0.00031729645 1927:3.9662056e-05 1928:6.6103421e-05 1929:3.9662056e-05 1930:2.644137e-05 1931:0.00010576548 1932:6.6103421e-05 1933:6.6103421e-05 1934:3.9662056e-05 1935:0.00037701725 1936:0.00018828256 1937:0.00016934077 1938:-0.003031994 1939:-0.0018827369 1940:0.00011898617 1941:5.288274e-05 1942:3.5904068e-05 1943:-4.2624433e-06 1944:0.000547314 1945:2.644137e-05 1946:7.7103767e-05 1947:-1.2787331e-05 1948:-5.671183e-05 1949:8.9582418e-06 1950:0.0016641043 1951:0.0020864049 1952:8.9582409e-06 1953:-4.2624433e-06 1954:0.0033872041 1955:-0.00017119983 1956:0.00061975286 1957:0.00060690229 1958:0.00038041722 1959:5.288274e-05 1960:3.9662056e-05 1961:0.0012056824 1962:2.644137e-05 1963:-3.9205988e-05 1964:0.00026268815 1965:3.9662056e-05 1966:3.5399611e-05 1967:0.00028787245 1968:0.00035286095 1969:7.9324112e-05 1970:8.8282359e-05 1971:0.0019046681 1972:-8.0915343e-06 1973:0.00014779136 1974:0.0011911617 1975:0.00016890652 1976:0.0020087094 1977:-2.1132453e-05 1978:-0.00092900597 1979:0.0011587121 1980:2.644137e-05 1981:-0.00011342366 1982:0.0011890806 1983:0.00015438578 1984:2.7054482e-05 1985:0.00010193639 1986:0.00017699806 1987:0.0001382684 1988:0.00010150304 1989:7.5994059e-05 1990:0.00011089463 1991:0.00011046128 1992:0.00082581514 1993:0.0012183101 1994:-4.2148109e-05 1995:1.3654039e-05 1996:2.644137e-05 1997:0.00036684916 1998:0.00010663219 1999:0.0002903585 2000:2.2178927e-05 2001:-0.00024579026 2002:-3.8638293e-05 2003:6.2274339e-05 2004:0.00041114131 2005:2.644137e-05 2006:0.00093239895 2007:2.644137e-05 2008:-8.0011057e-05 2009:2.644137e-05 2010:2.644137e-05 2011:3.9662056e-05 2012:0.00023553171 2013:0.00033870246 2014:0.00022930701 2015:5.288274e-05 2016:0.0002691095 2017:5.844525e-05 2018:0.00014112212 2019:3.1570522e-05 2020:-0.0023177166 2021:-0.0025870153 2022:3.9662056e-05 2023:0.0012960361 2024:3.9662056e-05 2025:0.0017555255 2026:9.3515919e-05 2027:3.0227486e-05 2028:7.5061667e-05 2029:0.00044141177 2030:8.6670849e-07 2031:4.8620295e-05 2032:2.8174789e-05 2033:0.000137336 2034:0.00011472372 2035:8.8282359e-05 2036:3.9662056e-05 2037:2.644137e-05 2038:8.9149064e-05 2039:0.00016803981 2040:0.00095244782 2041:2.644137e-05 2042:8.0485588e-06 2043:0.00010193639 2044:2.644137e-05 2045:0.00010150304 2046:6.1840983e-05 2047:4.3335424e-07 2048:2.644137e-05 2049:0.0012496978 2050:0.00024823064 2051:0.00018596416 2052:-9.5960793e-05 2053:-4.2624433e-06 2054:5.288274e-05 2055:6.6665409e-05 2056:0.0024889149 2057:-0.0001168194 2058:8.9582409e-06 2059:0.00035376279 2060:-0.00021589038 2061:0.0011746109 2062:0.0028473001 2063:2.644137e-05 2064:2.644137e-05 2065:2.644137e-05 2066:0.00010327942 2067:6.9194437e-05 2068:0.00014163816 2069:3.9662056e-05 2070:0.00014481139 2071:0.00030407577 2072:5.288274e-05 2073:2.644137e-05 2074:2.644137e-05 2075:8.4019914e-05 2076:0.00020004369 2077:2.644137e-05 2078:-1.2787331e-05 2079:0.00022944744 2080:0.00015012333 2081:0.0028352656 2082:0.00067557773 2083:0.0044228141 2084:-5.6689118e-05 2085:0.00042622315 2086:3.1444048e-05 2087:0.00060388912 2088:0.0015285212 2089:0.00054443761 2090:0.00011472372 2091:0.00026441368 2092:0.00012719422 2093:0.0025764958 2094:3.9662056e-05 2095:0.00040557879 2096:-0.00087132247 2097:2.644137e-05 2098:0.0018546485 2099:0.00019404784 2100:5.288274e-05 2101:0.0033893308 2102:-4.8916856e-05 2103:-0.00011544823 2104:0.00034209821 2105:4.0095409e-05 2106:6.6103421e-05 2107:7.9324112e-05 2108:0.00040984125 2109:3.9662056e-05 2110:3.5399611e-05 2111:1.3654039e-05 2112:5.288274e-05 2113:4.4856894e-05 2114:0.0001028031 2115:2.644137e-05 2116:2.644137e-05 2117:-0.0024765122 2118:7.5860728e-05 2119:0.00030303144 2120:0.00046718642 2121:1.0301279e-05 2122:-0.00018761861 2123:0.00021189863 2124:2.644137e-05 2125:3.9662056e-05 2126:2.644137e-05 2127:-1.2787331e-05 2128:7.8961857e-05 2129:-0.00030874342 2130:0.00012102065 2131:2.2178927e-05 2132:0.00025205972 2133:-0.0011169162 2134:-0.00010761995 2135:0.00034843359 2136:-0.00010340835 2137:-4.3879078e-05 2138:0.00062534347 2139:-1.3306633e-05 2140:0.00010300556 2141:-0.0001560481 2142:0.0010812932 2143:0.00046958658 2144:8.9582409e-06 2145:2.2178927e-05 2146:-8.1714548e-05 2147:4.2851548e-06 2148:-3.0681102e-05 2149:0.00020729125 2150:3.9662056e-05 2151:0.00017173999 2152:0.0014000438 2153:5.7578545e-05 2154:0.0001355729 2155:0.00042568476 2156:0.00024629629 2157:-4.2624433e-06 2158:0.002073769 2159:-3.3957358e-06 2160:-5.0715964e-05 2161:3.5399611e-05 2162:-0.00023420741 2163:0.00022269895 2164:0.00048744059 2165:-4.2624433e-06 2166:0.00011850984 2167:0.00011602379 2168:6.6536777e-05 2169:0.00046892953 2170:0.00058130489 2171:0.00013264021 2172:2.7308079e-05 2173:5.288274e-05 2174:9.7240598e-05 2175:1.7916482e-05 2176:-2.8339986e-05 2177:-6.5236716e-05 2178:4.4357854e-05 2179:3.5399611e-05 2180:2.644137e-05 2181:3.6309295e-05 2182:9.2544797e-05 2183:0.0062743435 2184:0.00014004206 2185:0.0015825419 2186:2.2178927e-05 2187:4.3670909e-05 2188:5.4225777e-05 2189:0.00044504626 2190:0.00077456259 2191:-0.00026296356 2192:3.6831043e-05 2193:0.0025891156 2194:0.00064063078 2195:-2.6008016e-05 2196:7.0799222e-05 2197:0.00026015125 2198:0.00066103425 2199:2.644137e-05 2200:7.9324112e-05 2201:0.00011985288 2202:5.288274e-05 2203:3.5399611e-05 2204:-4.2624433e-06 2205:4.8620295e-05 2206:3.9662056e-05 2207:-4.2624433e-06 2208:2.7784408e-05 2209:-3.0270459e-05 2210:-6.5713044e-05 2211:5.2429121e-05 2212:-2.6008016e-05 2213:0.00031346735 2214:0.00026441368 2215:7.2575611e-05 2216:1.4586434e-05 2217:9.2544797e-05 2218:-4.2624433e-06 2219:0.0016736443 2220:1.7916484e-05 2221:6.2274339e-05 2222:6.530781e-05 2223:7.9324112e-05 2224:3.113717e-05 2225:-1.3753554e-05 2226:6.7879817e-05 2227:0.0008476036 2228:0.00022395603 2229:-0.00031796249 2230:-9.3076735e-05 2231:0.00083585473 2232:0.002056248 2233:-3.0270459e-05 2234:6.6103421e-05 2235:-1.2787331e-05 2236:2.644137e-05 2237:2.3088609e-05 2238:5.288274e-05 2239:-0.0002234694 2240:-8.0915343e-06 2241:2.2178927e-05 2242:0.00013350691 2243:0.00027311561 2244:6.6103421e-05 2245:0.00030877156 2246:-0.00031793254 2247:8.8282359e-05 2248:0.00038426658 2249:0.0003826902 2250:9.8974015e-05 2251:-0.00032570871 2252:-0.00018255296 2253:-1.2282877e-05 2254:-0.00056719704 2255:-0.0005506844 2256:6.6536784e-05 2257:0.0016657765 2258:-8.5248867e-06 2259:-3.4532903e-05 2260:0.0010876061 2261:8.9152691e-06 2262:0.0018949572 2263:0.00010619884 2264:3.9662056e-05 2265:-2.8103686e-05 2266:-0.00011789673 2267:0.00019388265 2268:9.2544797e-05 2269:-0.00017041179 2270:5.288274e-05 2271:7.5061667e-05 2272:2.644137e-05 2273:2.5255375e-05 2274:0.00025119301 2275:3.9662056e-05 2276:0.001878313 2277:0.00014141841 2278:2.644137e-05 2279:0.00023797233 2280:0.0030364394 2281:0.0007622916 2282:-0.00012809878 2283:0.00026954288 2284:2.644137e-05 2285:5.8878599e-05 2286:0.00024624364 2287:0.00025119301 2288:0.0001411651 2289:0.00011472372 2290:0.00089076528 2291:0.00016334401 2292:-2.1745573e-05 2293:0.00012071957 2294:2.644137e-05 2295:0.00030026937 2296:0.00025513617 2297:2.644137e-05 2298:0.00017743142 2299:4.4791206e-05 2300:7.2099283e-05 2301:9.2544797e-05 2302:5.288274e-05 2303:2.644137e-05 2304:-0.00012568383 2305:2.644137e-05 2306:-0.00014367141 2307:0.00058892166 2308:0.00059836439 2309:2.644137e-05 2310:2.644137e-05 2311:2.644137e-05 2312:3.9662056e-05 2313:2.644137e-05 2314:2.644137e-05 2315:4.3335424e-07 2316:2.644137e-05 2317:2.644137e-05 2318:2.644137e-05 2319:-9.5917821e-05 2320:2.644137e-05 2321:2.644137e-05 2322:3.9662056e-05 2323:7.9324112e-05 2324:-1.9578802e-05 2325:0.00011559044 2326:4.8620295e-05 2327:2.644137e-05 2328:2.644137e-05 2329:0.00085369608 2330:4.695798e-06 2331:0.00012119591 2332:-0.00015629255 2333:-0.00028575433 2334:0.00040557879 2335:0.0036049664 2336:0.00025588882 2337:0.00029486392 2338:4.4357854e-05 2339:3.9662056e-05 2340:6.2707688e-05 2341:9.2544797e-05 2342:6.6536784e-05 2343:3.9662056e-05 2344:8.5839274e-05 2345:0.00013524035 2346:-2.1745573e-05 2347:-0.00016789389 2348:0.00032908004 2349:3.9662056e-05 2350:0.00023797233 2351:-4.6821195e-05 2352:-0.00049439038 2353:-4.139034e-05 2354:-0.0062818443 2355:0.00017565502 2356:-0.00041565194 2357:0.00016038163 2358:0.00010619884 2359:3.5399611e-05 2360:-8.7025262e-05 2361:0.00030963827 2362:0.00020047704 2363:2.2612281e-05 2364:-0.00014410993 2365:-0.00060165121 2366:-3.3527606e-06 2367:8.9582409e-06 2368:-4.2624433e-06 2369:0.00019576099 2370:8.481913e-06 2371:-1.2439926e-05 2372:2.644137e-05 2373:0.0008106301 2374:-5.5845117e-05 2375:5.288274e-05 2376:2.644137e-05 2377:9.2544797e-05 2378:-0.00017353123 2379:-0.00014671974 2380:0.00012924446 2381:-4.7753587e-05 2382:3.9662056e-05 2383:2.644137e-05 2384:0.0013634007 2385:0.00017521351 2386:0.0015272922 2387:0.0002103677 2388:0.00079339818 2389:0.00058255659 2390:8.8282359e-05 2391:2.644137e-05 2392:3.9662056e-05 2393:0.00010236974 2394:0.00013894722 2395:0.00059623091 2396:0.00011472372 2397:0.00015655256 2398:0.0010187548 2399:0.00047426208 2400:0.00011933357 2401:4.062257e-05 2402:4.9053651e-05 2403:0.00018887571 2404:-2.9403749e-05 2405:0.00016358701 2406:0.00040984125 2407:0.00041113317 2408:0.00011472372 2409:3.9662056e-05 2410:4.8620295e-05 2411:0.00031648058 2412:4.5093934e-06 2413:-0.0012618505 2414:-0.0019877506 2415:-0.00042496543 2416:-0.00025407306 2417:-0.0012021245 2418:2.644137e-05 2419:0.00022475165 2420:-1.10312e-05 2421:-8.0467129e-05 2422:-0.00011253424 2423:2.644137e-05 2424:-0.00028480755 2425:1.0301279e-05 2426:0.00016000286 2427:9.7240591e-05 2428:0.00049423741 2429:0.00016567028 2430:0.00019906563 2431:-2.9947551e-05 2432:6.8516296e-05 2433:-5.6352317e-05 2434:5.288274e-05 2435:3.0660842e-05 2436:0.00010979705 2437:-0.00012822072 2438:-1.710335e-05 2439:1.3243396e-05 2440:-6.8447276e-05 2441:4.695798e-06 2442:0.00011722824 2443:2.644137e-05 2444:4.9053648e-05 2445:8.9582418e-06 2446:-1.5937618e-05 2447:0.00075042876 2448:-0.00013506004 2449:0.00053940224 2450:0.00026058461 2451:3.9662056e-05 2452:0.0009092649 2453:0.00064740836 2454:-9.7538468e-06 2455:5.288274e-05 2456:-1.7049775e-05 2457:3.5399611e-05 2458:-0.00076080119 2459:0.00022135591 2460:8.8282359e-05 2461:3.9662056e-05 2462:3.9662056e-05 2463:0.00015012333 2464:0.00018082716 2465:2.644137e-05 2466:0.00038126123 2467:1.3654039e-05 2468:0.00044654094 2469:4.695798e-06 2470:5.7578538e-05 2471:-2.7647622e-05 2472:-0.0011166051 2473:4.8620295e-05 2474:0.00016334401 2475:-2.4642268e-05 2476:-0.00045096161 2477:-2.1745573e-05 2478:0.00039279147 2479:-8.5248867e-06 2480:-0.00013860794 2481:0.00025189726 2482:6.6103421e-05 2483:-4.2624433e-06 2484:0.0011912353 2485:-6.8632449e-05 2486:-0.00011804835 2487:-0.00047054442 2488:-2.5828256e-05 2489:0.00015661823 2490:0.0016699566 2491:0.001452656 2492:0.00064834615 2493:4.0095409e-05 2494:-4.2624433e-06 2495:-2.1745573e-05 2496:-4.3057789e-05 2497:-0.00012826368 2498:-9.4164141e-05 2499:0.00028319689 2500:0.00028094416 2501:-9.1244729e-05 2502:-2.6008016e-05 2503:0.000359992 2504:1.7916484e-05 2505:2.644137e-05 2506:9.2544797e-05 2507:0.00023886174 2508:2.644137e-05 2509:0.00019021875 2510:0.00027856679 2511:3.9662056e-05 2512:3.9662056e-05 2513:-6.3207524e-05 2514:0.00045748329 2515:-0.0014856186 2516:4.4357854e-05 2517:0.0034925842 2518:0.00086752989 2519:2.644137e-05 2520:0.00058971578 2521:0.00054914126 2522:7.5061667e-05 2523:0.00064546429 2524:0.00050325273 2525:0.00042306192 2526:0.00056848949 2527:0.00022048921 2528:6.6103421e-05 2529:7.9324112e-05 2530:2.6874724e-05 2531:8.5362946e-05 2532:3.6289031e-05 2533:6.6103421e-05 2534:4.8620295e-05 2535:0.00011898617 2536:9.2544797e-05 2537:0.0027768454 2538:6.6103421e-05 2539:0.00087685039 2540:0.00011898617 2541:6.6103421e-05 2542:0.0016914716 2543:0.0006171097 2544:2.644137e-05 2545:7.9324112e-05 2546:3.9662056e-05 2547:3.9662056e-05 2548:5.288274e-05 2549:8.0624173e-05 2550:-0.00012108184 2551:3.9662056e-05 2552:7.5061667e-05 2553:4.4357854e-05 2554:-4.2624433e-06 2555:-0.00012696478 2556:5.5057379e-05 2557:-3.3876819e-05 2558:-0.00014838991 2559:0.00027313863 2560:4.695798e-06 2561:0.00028708827 2562:0.000137336 2563:-0.0003349905 2564:-7.6152041e-06 2565:0.00010576548 2566:0.00018276795 2567:4.4357854e-05 2568:0.00034815734 2569:0.0014952429 2570:-1.5536577e-06 2571:-6.6899032e-05 2572:0.00014542755 2573:-0.00043898381 2574:-9.763512e-06 2575:0.00013220684 2576:8.8282359e-05 2577:0.00034090519 2578:0.00011333772 2579:-0.00014884354 2580:6.0388356e-06 2581:-0.00054219185 2582:0.00022446345 2583:0.00076969195 2584:4.695798e-06 2585:5.1948373e-06 2586:5.7578538e-05 2587:0.00055503671 2588:0.00014296419 2589:0.00020612549 2590:0.00065068458 2591:3.9662056e-05 2592:0.00018513837 2593:0.00087690668 2594:0.0038648711 2595:4.4314882e-05 2596:-0.00012192583 2597:-8.5248867e-06 2598:-4.2624433e-06 2599:3.9662056e-05 2600:0.0004102746 2601:-1.6616417e-05 2602:-0.00088436389 2603:-0.00019964544 2604:0.00027084292 2605:0.0019810025 2606:0.0010453674 2607:0.00019357151 2608:1.7505839e-05 2609:-5.8825324e-05 2610:6.6103421e-05 2611:2.644137e-05 2612:0.00043421506 2613:9.2544797e-05 2614:5.288274e-05 2615:5.288274e-05 2616:0.00057339319 2617:2.644137e-05 2618:0.00023840569 2619:0.00046876285 2620:3.9662056e-05 2621:-0.0002397436 2622:0.00057918113 2623:0.00077188591 2624:-0.00034914108 2625:0.00020238725 2626:0.00067172595 2627:0.0004093649 2628:2.3045637e-05 2629:3.9662056e-05 2630:3.9662056e-05 2631:3.9662056e-05 2632:0.00014542755 2633:3.9662056e-05 2634:6.1840983e-05 2635:5.288274e-05 2636:-9.0335052e-05 2637:0.00021196432 2638:8.8715708e-05 2639:0.00032242559 2640:0.00037957079 2641:0.00045463245 2642:5.288274e-05 2643:3.9662056e-05 2644:7.9324112e-05 2645:1.4520748e-05 2646:4.8620295e-05 2647:2.0779349e-05 2648:3.9662056e-05 2649:3.9662056e-05 2650:3.9662056e-05 2651:0.00016468705 2652:-0.0019710206 2653:2.644137e-05 2654:3.9662056e-05 2655:2.644137e-05 2656:0.00026484704 2657:0.0019547886 2658:0.00018357892 2659:0.00084030774 2660:0.00030877156 2661:0.00026015125 2662:9.2544797e-05 2663:5.605481e-06 2664:2.644137e-05 2665:2.644137e-05 2666:2.644137e-05 2667:0.00033293662 2668:0.00077174645 2669:0.00050126569 2670:0.00079859298 2671:0.0011605236 2672:2.644137e-05 2673:5.1948373e-06 2674:2.644137e-05 2675:1.7987581e-05 2676:5.605481e-06 2677:-0.00020258757 2678:-0.0009826211 2679:-6.9499161e-05 2680:5.3273117e-05 2681:-5.671183e-05 2682:-0.00012194855 2683:7.58854e-05 2684:-2.1312217e-05 2685:-0.00019014764 2686:2.2483357e-05 2687:-4.2624433e-06 2688:-4.2624433e-06 2689:-0.00048162969 2690:-0.0024005335 2691:0.0001189432 2692:-0.0023696097 2693:0.00078194693 2694:0.0001534761 2695:0.00044610756 2696:-0.00034594082 2697:6.1840983e-05 2698:0.00019451356 2699:7.9324112e-05 2700:-0.0010590145 2701:-1.4383964e-05 2702:-0.00010916121 2703:3.5399611e-05 2704:5.288274e-05 2705:5.8878606e-05 2706:0.00013021984 2707:7.9324112e-05 2708:5.288274e-05 2709:-7.332825e-05 2710:2.644137e-05 2711:3.849878e-05 2712:0.00035289853 2713:-0.0006362985 2714:0.00013307357 2715:-3.3506103e-06 2716:8.9582409e-06 2717:-5.6278477e-05 2718:-0.00025577229 2719:0.00010973137 2720:6.6103421e-05 2721:2.644137e-05 2722:0.00027731509 2723:3.9662056e-05 2724:0.002805046 2725:0.00089422491 2726:-0.0014723075 2727:0.001026951 2728:0.00031863948 2729:0.00033510331 2730:0.00029087777 2731:0.0010495294 2732:0.0004362826 2733:0.00019404784 2734:0.00022475165 2735:6.6103421e-05 2736:0.00015864822 2737:0.00019074294 2738:-0.00076291582 2739:-0.00015840278 2740:0.00023797233 2741:0.00075357902 2742:0.00015864822 2743:5.2910858e-05 2744:0.00010843129 2745:0.00076766644 2746:0.00037913743 2747:0.00047341568 2748:0.00028745935 2749:0.00019831028 2750:0.00023797233 2751:0.00033521291 2752:0.00036256397 2753:0.00027763439 2754:0.00026441368 2755:2.6387803e-05 2756:6.697014e-05 2757:0.00016334401 2758:2.644137e-05 2759:3.5399611e-05 2760:4.8620295e-05 2761:8.9582418e-06 2762:0.00070760184 2763:-4.2624433e-06 2764:9.3411509e-05 2765:0.00022728824 2766:6.1840983e-05 2767:-8.0915324e-06 2768:-0.00072265946 2769:6.6103421e-05 2770:2.6831749e-05 2771:-0.00069742318 2772:0.0040187514 2773:0.00051314582 2774:0.00016512041 2775:5.288274e-05 2776:3.9662056e-05 2777:-1.7049773e-05 2778:0.00012165197 2779:4.0118121e-05 2780:-0.00033286639 2781:0.00013220684 2782:3.9662056e-05 2783:0.00014586089 2784:4.8620295e-05 2785:0.00024736393 2786:0.00014542755 2787:0.0004036802 2788:8.4655738e-05 2789:0.00052582205 2790:0.00011941951 2791:0.00057127606 2792:4.4357854e-05 2793:0.0028039417 2794:0.00022994648 2795:8.027922e-05 2796:0.00014542755 2797:0.00017230227 2798:2.6874724e-05 2799:3.9662056e-05 2800:6.6103421e-05 2801:3.9662056e-05 2802:3.9662056e-05 2803:3.9662056e-05 2804:3.9662056e-05 2805:3.9662056e-05 2806:3.9662056e-05 2807:3.9662056e-05 2808:3.9662056e-05 2809:3.9662056e-05 2810:3.9662056e-05 2811:3.9662056e-05 2812:3.9662056e-05 2813:3.9662056e-05 2814:3.9662056e-05 2815:3.9662056e-05 2816:9.2544797e-05 2817:6.2730403e-05 2818:0.00043475168 2819:-2.9512408e-05 2820:0.00041434131 2821:6.6103421e-05 2822:-0.0014224891 2823:5.288274e-05 2824:0.00044933808 2825:0.00079665432 2826:-0.00011971394 2827:5.288274e-05 2828:-1.4797055e-05 2829:0.00025355982 2830:2.644137e-05 2831:3.9662056e-05 2832:4.8620295e-05 2833:1.70068e-05 2834:2.644137e-05 2835:0.00014426427 2836:0.00011845487 2837:2.2178927e-05 2838:-0.00012208827 2839:0.0003412088 2840:0.0001279444 2841:4.2350577e-05 2842:-6.8589477e-05 2843:2.644137e-05 2844:-0.00043412778 2845:-0.00020094551 2846:-2.9056342e-05 2847:2.6874724e-05 2848:2.644137e-05 2849:-4.2624433e-06 2850:-2.2652806e-05 2851:2.2178927e-05 2852:3.9662056e-05 2853:3.9662056e-05 2854:-4.2624433e-06 2855:0.00015438578 2856:-0.00018678032 2857:0.00054957619 2858:3.2650303e-05 2859:0.0010970498 2860:-0.00010790413 2861:2.644137e-05 2862:4.695798e-06 2863:-0.00031478229 2864:1.4087394e-05 2865:8.4019914e-05 2866:8.9582409e-06 2867:3.9662056e-05 2868:-2.0878862e-05 2869:-5.671183e-05 2870:-0.00010403206 2871:1.7916484e-05 2872:5.2406409e-05 2873:8.9582418e-06 2874:7.0137437e-05 2875:0.00010023109 2876:0.00015910428 2877:4.9053651e-05 2878:2.644137e-05 2879:0.0012337284 2880:3.5399611e-05 2881:0.00069537084 2882:-0.00016026512 2883:0.00065510947 2884:3.9662056e-05 2885:0.00069070642 2886:-0.00011642902 2887:0.0001335499 2888:4.4864766e-05 2889:3.9662056e-05 2890:3.113717e-05 2891:0.00032043434 2892:6.9159621e-05 2893:9.7240591e-05 2894:0.00035739187 2895:2.644137e-05 2896:3.9662056e-05 2897:0.00018508959 2898:2.2178927e-05 2899:-0.00014235108 2900:5.288274e-05 2901:3.9662056e-05 2902:3.9662056e-05 2903:0.0017148812 2904:0.002031632 2905:4.3335424e-07 2906:0.00012591442 2907:0.00015525249 2908:6.6992849e-05 2909:3.9662056e-05 2910:1.7916482e-05 2911:0.00034216142 2912:0.00039748725 2913:4.0095409e-05 2914:9.120717e-05 2915:7.0799222e-05 2916:6.1840983e-05 2917:0.0011224529 2918:0.00094856537 2919:0.0011270653 2920:0.00055871683 2921:-1.6183065e-05 2922:8.9582418e-06 2923:0.00014677057 2924:0.00031437704 2925:7.5061667e-05 2926:9.7263306e-05 2927:8.8715708e-05 2928:0.00011941951 2929:0.00050642539 2930:0.0003375271 2931:4.0095409e-05 2932:2.644137e-05 2933:2.6874724e-05 2934:-1.2787331e-05 2935:6.6103421e-05 2936:3.9662056e-05 2937:6.2274339e-05 2938:-4.2624433e-06 2939:3.9662056e-05 2940:0.00021627218 2941:0.00077514211 2942:-0.00019771987 2943:0.0043008276 2944:-3.2366137e-05 2945:0.00071474077 2946:7.9324112e-05 2947:8.9582418e-06 2948:6.0044331e-05 2949:0.00011515709 2950:0.00064544159 2951:0.0001279444 2952:0.0001335499 2953:2.644137e-05 2954:-4.6843903e-05 2955:0.00026108613 2956:9.2544797e-05 2957:2.2178927e-05 2958:5.288274e-05 2959:-0.00016543969 2960:-4.2624433e-06 2961:3.9662056e-05 2962:0.00029555088 2963:0.00083376991 2964:6.6103421e-05 2965:2.644137e-05 2966:5.3316093e-05 2967:2.644137e-05 2968:5.288274e-05 2969:0.00024467515 2970:-2.8494065e-05 2971:0.00068519177 2972:0.00069842878 2973:5.288274e-05 2974:0.00014588361 2975:0.00021527411 2976:8.9582409e-06 2977:-0.00054572389 2978:3.113717e-05 2979:0.00013264021 2980:9.2810507e-05 2981:2.644137e-05 2982:7.9324112e-05 2983:0.00011046128 2984:9.391596e-06 2985:3.9471695e-05 2986:0.00054248143 2987:2.644137e-05 2988:6.6103421e-05 2989:5.288274e-05 2990:6.6103421e-05 2991:2.644137e-05 2992:5.288274e-05 2993:-2.962383e-06 2994:2.644137e-05 2995:2.644137e-05 2996:3.9662056e-05 2997:2.644137e-05 2998:5.710221e-05 2999:-1.2787331e-05 3000:0.0003895839 3001:-0.00028877452 3002:4.8620295e-05 3003:-4.2624433e-06 3004:4.8620295e-05 3005:0.00011898617 3006:0.00032242559 3007:0.00061458076 3008:5.288274e-05 3009:-0.0009184244 3010:4.4357854e-05 3011:0.00018978539 3012:0.00021153096 3013:0.00010150304 3014:0.00042908051 3015:0.00036388676 3016:0.00079896563 3017:0.0027379792 3018:0.00040785421 3019:5.288274e-05 3020:0.00013220684 3021:7.8961857e-05 3022:4.9053651e-05 3023:0.00056848949 3024:2.644137e-05 3025:0.00041879946 3026:0.00022933012 3027:5.7578538e-05 3028:7.9324112e-05 3029:0.00025217378 3030:2.2178927e-05 3031:5.8011894e-05 3032:0.00032261721 3033:-0.0013169001 3034:6.2867191e-05 3035:0.00089835026 3036:0.00016823984 3037:0.00046454582 3038:1.7916482e-05 3039:3.5832963e-05 3040:2.2612281e-05 3041:0.000274672 3042:3.9662056e-05 3043:2.644137e-05 3044:2.644137e-05 3045:2.2178927e-05 3046:2.644137e-05 3047:2.2178927e-05 3048:0.00016760646 3049:4.0095409e-05 3050:0.0007214892 3051:0.00016334401 3052:8.481913e-06 3053:2.644137e-05 3054:2.2178927e-05 3055:-2.1745573e-05 3056:0.00095346442 3057:6.6103421e-05 3058:6.0388356e-06 3059:4.9963339e-05 3060:4.4357854e-05 3061:4.8620295e-05 3062:4.1828829e-05 3063:0.00013781234 3064:-2.1745573e-05 3065:3.9662056e-05 3066:0.00057713088 3067:0.00035533914 3068:3.113717e-05 3069:0.0011288874 3070:0.00017920781 3071:6.1840983e-05 3072:0.00038935273 3073:4.695798e-06 3074:0.00023922943 3075:0.00013264021 3076:0.00040557879 3077:0.0004234747 3078:3.9662056e-05 3079:0.00015864822 3080:5.288274e-05 3081:2.644137e-05 3082:6.1840983e-05 3083:2.644137e-05 3084:8.9582409e-06 3085:-0.0025865284 3086:0.00058004784 3087:0.00019898909 3088:-6.9618407e-05 3089:-0.00016327293 3090:-0.00028223637 3091:-0.00010006129 3092:5.288274e-05 3093:0.00030671884 3094:-6.6901746e-05 3095:-0.0015079033 3096:-0.00058513327 3097:2.644137e-05 3098:4.0095409e-05 3099:5.288274e-05 3100:0.00051398983 3101:0.00015956035 3102:2.644137e-05 3103:0.00035153277 3104:3.5399611e-05 3105:0.0018618869 3106:2.2612281e-05 3107:0.00090123905 3108:0.00016760646 3109:8.3067251e-05 3110:-6.1427898e-05 3111:-0.00068253098 3112:-4.2624433e-06 3113:0.00035213379 3114:0.00021452937 3115:2.1269243e-05 3116:0.0003557952 3117:0.0001718689 3118:6.6103421e-05 3119:2.644137e-05 3120:3.5399611e-05 3121:2.644137e-05 3122:0.00035486283 3123:0.00015951494 3124:0.00017410137 3125:2.644137e-05 3126:2.644137e-05 3127:0.00016806251 3128:2.644137e-05 3129:0.00050667662 3130:0.0012517027 3131:5.288274e-05 3132:7.0799222e-05 3133:7.2959215e-06 3134:0.00065297872 3135:-0.0002690384 3136:0.00014499959 3137:0.00012881112 3138:0.00016470977 3139:2.644137e-05 3140:2.644137e-05 3141:-4.4591186e-05 3142:-4.2624433e-06 3143:8.9582409e-06 3144:2.2178927e-05 3145:0.00018978539 3146:1.7916482e-05 3147:0.00031910095 3148:0.0004158371 3149:0.00080792379 3150:0.00011472372 3151:0.00025119301 3152:0.00034194515 3153:0.00016564218 3154:9.4777257e-05 3155:0.0033802332 3156:0.00050238601 3157:2.525538e-05 3158:-3.2572534e-05 3159:6.1840983e-05 3160:-0.0014967249 3161:0.0011028791 3162:0.00020049977 3163:9.391596e-06 3164:0.00011559044 3165:0.00055043586 3166:2.644137e-05 3167:-4.2624433e-06 3168:2.644137e-05 3169:0.00029782631 3170:0.0003067416 3171:0.00025940649 3172:0.00010499504 3173:2.644137e-05 3174:9.323939e-07 3175:7.9324112e-05 3176:0.00010572252 3177:8.9149056e-05 3178:0.00045453594 3179:0.00037152713 3180:6.6795787e-05 3181:-0.00013943168 3182:9.3949267e-05 3183:0.00084537908 3184:0.00013690266 3185:-7.5011294e-06 3186:8.7985776e-05 3187:8.8282359e-05 3188:5.288274e-05 3189:3.5399611e-05 3190:5.288274e-05 3191:2.644137e-05 3192:-3.2713535e-05 3193:8.9582409e-06 3194:2.644137e-05 3195:-0.00010916121 3196:-4.2624433e-06 3197:3.9662056e-05 3198:0.00036341042 3199:8.4019914e-05 3200:0.00011898617 3201:4.8620295e-05 3202:0.00078270654 3203:0.0014965807 3204:0.0029990654 3205:9.2978153e-05 3206:9.7240598e-05 3207:6.0135691e-05 3208:2.644137e-05 3209:-6.5989349e-05 3210:2.644137e-05 3211:5.288274e-05 3212:0.00093317154 3213:0.00050238601 3214:3.9662056e-05 3215:3.9662056e-05 3216:2.644137e-05 3217:2.644137e-05 3218:2.644137e-05 3219:2.644137e-05 3220:3.9662056e-05 3221:2.644137e-05 3222:2.644137e-05 3223:2.644137e-05 3224:2.644137e-05 3225:2.644137e-05 3226:2.644137e-05 3227:2.644137e-05 3228:2.644137e-05 3229:2.644137e-05 3230:2.644137e-05 3231:2.644137e-05 3232:3.9662056e-05 3233:5.288274e-05 3234:-7.0918475e-05 3235:-5.6592624e-05 3236:0.00053980743 3237:0.0013254455 3238:0.00040496295 3239:0.00032376865 3240:0.00037866109 3241:-0.00079487526 3242:-0.00010549733 3243:2.644137e-05 3244:1.7916482e-05 3245:5.6349578e-05 3246:0.00040732193 3247:0.00011046128 3248:0.00010150304 3249:0.00010150304 3250:3.9662056e-05 3251:3.5399611e-05 3252:-0.0016943876 3253:-0.00023441169 3254:5.288274e-05 3255:0.0002081782 3256:-0.00024367191 3257:0.0001084797 3258:0.00041408883 3259:9.7240591e-05 3260:8.4019914e-05 3261:3.5399611e-05 3262:0.00024061544 3263:0.0015400085 3264:0.0002383627 3265:0.00011898617 3266:0.0008021791 3267:0.00025595992 3268:-1.3197974e-05 3269:-2.9403755e-05 3270:-0.0020857358 3271:1.5387463e-05 3272:6.6103421e-05 3273:8.9582418e-06 3274:2.644137e-05 3275:8.4929598e-05 3276:4.5290246e-05 3277:-2.2221901e-05 3278:0.00012028623 3279:0.00019404784 3280:6.6103421e-05 3281:0.0005241168 3282:2.644137e-05 3283:3.5399611e-05 3284:0.00012794441 3285:-0.00022894754 3286:0.00015908157 3287:-0.00010266632 3288:0.00037618715 3289:0.00016604955 3290:0.0028544154 3291:0.00030442316 3292:0.0001718689 3293:0.00018508959 3294:0.00018082716 3295:0.00011941951 3296:0.00016086042 3297:0.00023840569 3298:0.00015864822 3299:0.0010948535 3300:0.0011255395 3301:0.00014763729 3302:-6.0107566e-05 3303:-0.00016552563 3304:-2.2221901e-05 3305:-0.0017948358 3306:0.00059061009 3307:0.00015908157 3308:1.1581082e-05 3309:-7.5107928e-06 3310:-0.0026501154 3311:-4.7753587e-05 3312:2.2178927e-05 3313:-2.2221901e-05 3314:2.644137e-05 3315:2.644137e-05 3316:-1.6117381e-05 3317:0.00017366232 3318:2.644137e-05 3319:7.9324112e-05 3320:8.8049019e-05 3321:-0.00012664434 3322:0.00015864822 3323:-2.0731481e-05 3324:0.00043844938 3325:4.6957989e-06 3326:7.0799222e-05 3327:0.00023051418 3328:0.00045679923 3329:5.7578538e-05 3330:0.0020989559 3331:0.00018978539 3332:-4.7816822e-05 3333:-0.00085072988 3334:4.9487007e-05 3335:2.2201637e-05 3336:3.5399611e-05 3337:3.113717e-05 3338:3.9662056e-05 3339:1.7916482e-05 3340:0.0003054188 3341:6.2611158e-05 3342:-4.2624433e-06 3343:-8.5248867e-06 3344:-4.2624433e-06 3345:7.5061667e-05 3346:2.2178927e-05 3347:3.9662056e-05 3348:0.00025833162 3349:8.9582409e-06 3350:0.0001765647 3351:0.00035356276 3352:3.1636209e-05 3353:-0.00026486191 3354:6.5938235e-05 3355:-0.0004102035 3356:4.8620295e-05 3357:0.0011970457 3358:0.00090647687 3359:0.00087711855 3360:0.0010079853 3361:6.7634852e-07 3362:9.391596e-06 3363:-0.00044554981 3364:3.9662056e-05 3365:5.288274e-05 3366:8.9582409e-06 3367:3.204685e-05 3368:-2.5617635e-05 3369:-2.0878862e-05 3370:6.1863691e-05 3371:0.00069007574 3372:-4.2624433e-06 3373:3.5399611e-05 3374:-2.6008016e-05 3375:2.644137e-05 3376:-8.6997141e-05 3377:4.613425e-05 3378:0.00019080912 3379:-0.00018980629 3380:5.4182812e-05 3381:0.0039840564 3382:3.1636209e-05 3383:0.00090274971 3384:0.00010619884 3385:0.00012368197 3386:3.9662056e-05 3387:5.288274e-05 3388:3.5399611e-05 3389:0.00046624342 3390:5.288274e-05 3391:4.3335424e-07 3392:0.0013646579 3393:1.0645361e-05 3394:8.9582409e-06 3395:-1.1003071e-05 3396:3.9662056e-05 3397:0.00049812358 3398:5.288274e-05 3399:5.288274e-05 3400:8.8462111e-05 3401:6.1840983e-05 3402:2.644137e-05 3403:5.288274e-05 3404:0.00090377347 3405:-0.0018625042 3406:2.644137e-05 3407:2.644137e-05 3408:0.0002691095 3409:2.2178927e-05 3410:-0.00021891067 3411:2.644137e-05 3412:2.644137e-05 3413:2.644137e-05 3414:0.00011898617 3415:2.644137e-05 3416:2.644137e-05 3417:5.288274e-05 3418:0.0010072149 3419:0.00023211326 3420:3.9662056e-05 3421:7.5061667e-05 3422:9.7630982e-05 3423:0.0033994978 3424:0.00071435038 3425:0.00010576548 3426:2.2178927e-05 3427:0.00086490705 3428:0.00011472372 3429:2.644137e-05 3430:8.9582418e-06 3431:3.9662056e-05 3432:7.9324112e-05 3433:0.0003262547 3434:-8.0915343e-06 3435:-0.00011595269 3436:0.00045017267 3437:2.2178927e-05 3438:2.646408e-05 3439:2.2178927e-05 3440:5.288274e-05 3441:0.0002691095 3442:5.288274e-05 3443:0.00031293384 3444:0.0038001684 3445:-0.00010130056 3446:3.9709659e-05 3447:3.5399611e-05 3448:0.002029065 3449:0.00030063704 3450:-0.00022032726 3451:-0.00012743995 3452:-4.6453526e-05 3453:-0.00033532974 3454:1.7767297e-05 3455:-0.00023719158 3456:-4.2624433e-06 3457:0.00055533927 3458:2.2178927e-05 3459:9.8679238e-06 3460:8.5772786e-05 3461:6.1840983e-05 3462:4.1828825e-05 3463:0.00022475165 3464:0.00023544332 3465:-0.00034928034 3466:-2.1745573e-05 3467:5.288274e-05 3468:4.8620295e-05 3469:-1.4299823e-05 3470:2.9773866e-05 3471:-6.9065805e-05 3472:-0.00012913041 3473:-2.1745573e-05 3474:0.000176901 3475:7.5928387e-05 3476:5.2406409e-05 3477:3.1570522e-05 3478:-0.00012621099 3479:-2.1745573e-05 3480:-2.4664978e-05 3481:0.00022746045 3482:-4.0414689e-05 3483:0.00018978539 3484:-7.1725211e-05 3485:-6.1741746e-05 3486:2.644137e-05 3487:-4.2624433e-06 3488:2.644137e-05 3489:-2.0790467e-05 3490:-0.00078199414 3491:-7.84574e-05 3492:0.00015012333 3493:-0.00044007148 3494:-1.3674301e-05 3495:0.00037088856 3496:0.00035482767 3497:-0.0010067513 3498:0.00068546837 3499:0.0001876897 3500:0.00045714658 3501:2.644137e-05 3502:1.885428e-05 3503:2.2178927e-05 3504:7.0799222e-05 3505:2.644137e-05 3506:6.1840983e-05 3507:0.00089244329 3508:2.644137e-05 3509:3.5399611e-05 3510:2.644137e-05 3511:2.2178927e-05 3512:1.385406e-05 3513:0.00028880237 3514:2.644137e-05 3515:1.7916482e-05 3516:5.288274e-05 3517:3.6309295e-05 3518:5.7578538e-05 3519:1.8349838e-05 3520:2.644137e-05 3521:-3.8290891e-06 3522:-0.0012991527 3523:-8.3613151e-07 3524:3.113717e-05 3525:0.00015864822 3526:2.644137e-05 3527:2.644137e-05 3528:-1.4363699e-05 3529:0.00016985371 3530:2.644137e-05 3531:-6.0974275e-05 3532:-0.0043454929 3533:-5.1106348e-05 3534:0.00010276012 3535:9.3887829e-05 3536:0.00017791511 3537:9.2978145e-05 3538:0.00098681264 3539:1.3177711e-05 3540:-0.00010446541 3541:0.00025255876 3542:0.0011188377 3543:0.00014542755 3544:-4.2624433e-06 3545:-0.00013337014 3546:7.6795084e-05 3547:2.644137e-05 3548:5.8445243e-05 3549:8.3110222e-05 3550:0.00017483917 3551:2.644137e-05 3552:1.787351e-05 3553:0.00013264021 3554:3.4238581e-06 3555:0.00013600962 3556:0.00047805702 3557:0.00015864822 3558:2.8608141e-05 3559:2.587909e-05 3560:3.9662056e-05 3561:3.9662056e-05 3562:6.8979862e-05 3563:3.9662056e-05 3564:2.5055358e-05 3565:3.9662056e-05 3566:0.00024419336 3567:5.710221e-05 3568:-0.00039670552 3569:4.0095409e-05 3570:2.644137e-05 3571:7.9324112e-05 3572:0.00099394575 3573:3.9662056e-05 3574:-0.00038995914 3575:0.00073698536 3576:0.00031255768 3577:2.2612281e-05 3578:6.6103421e-05 3579:-3.0681102e-05 3580:0.00053616631 3581:3.5399611e-05 3582:0.00011472372 3583:2.644137e-05 3584:0.00099504087 3585:2.644137e-05 3586:-6.0084851e-05 3587:0.00014714581 3588:0.00099086459 3589:0.000199177 3590:3.9662056e-05 3591:0.00083759893 3592:9.8679238e-06 3593:3.1570522e-05 3594:-8.5248867e-06 3595:3.0334795e-06 3596:0.00010150304 3597:0.00014339756 3598:0.00014246516 3599:3.113717e-05 3600:6.6103421e-05 3601:0.00040901478 3602:-0.00097317371 3603:0.00036603081 3604:0.00020182254 3605:-3.4532903e-05 3606:-4.3057789e-05 3607:-0.0086975237 3608:-3.8290891e-06 3609:-2.1312217e-05 3610:-4.2624433e-06 3611:-0.00023631942 3612:2.644137e-05 3613:0.00010754187 3614:2.6874724e-05 3615:7.9757468e-05 3616:-4.0933995e-05 3617:1.8306868e-05 3618:8.9582409e-06 3619:6.6103421e-05 3620:0.0016620315 3621:0.00049194531 3622:0.0011929759 3623:8.9582409e-06 3624:3.113717e-05 3625:2.644137e-05 3626:7.0799222e-05 3627:-2.1745573e-05 3628:3.806542e-05 3629:0.00020430614 3630:3.9596369e-05 3631:2.644137e-05 3632:4.695798e-06 3633:2.2178927e-05 3634:8.8282359e-05 3635:-8.3433122e-07 3636:9.1338545e-05 3637:7.9324112e-05 3638:5.288274e-05 3639:5.288274e-05 3640:-3.2009593e-05 3641:3.9662056e-05 3642:0.00040406387 3643:-4.6557936e-05 3644:0.00029551037 3645:0.00018978539 3646:3.1636209e-05 3647:0.0001411651 3648:-0.00057508418 3649:0.00028030021 3650:0.00086403469 3651:2.644137e-05 3652:0.00030537581 3653:-5.4484308e-06 3654:5.288274e-05 3655:0.00028832603 3656:8.9582418e-06 3657:8.9582409e-06 3658:0.00011353775 3659:0.0001722593 3660:2.644137e-05 3661:-5.7296784e-06 3662:0.00049493037 3663:-0.0014583515 3664:-8.0986436e-05 3665:0.00010150304 3666:3.5399611e-05 3667:2.644137e-05 3668:2.5055358e-05 3669:0.00033095048 3670:-4.2624433e-06 3671:2.644137e-05 3672:2.644137e-05 3673:0.00014546726 3674:-2.1745573e-05 3675:-0.001742742 3676:-8.6779815e-05 3677:6.6536777e-05 3678:0.00033028628 3679:0.0001066549 3680:3.5399611e-05 3681:-8.5248867e-06 3682:4.9920363e-05 3683:-1.2787331e-05 3684:3.6750505e-05 3685:2.644137e-05 3686:-4.3491145e-05 3687:9.9016986e-05 3688:-0.0003594594 3689:0.00054001808 3690:8.6157306e-06 3691:-4.2043695e-05 3692:-0.00016024485 3693:0.00040478315 3694:3.9662056e-05 3695:8.451895e-05 3696:0.00015965171 3697:2.2178927e-05 3698:1.70068e-05 3699:4.7710615e-05 3700:-2.962383e-06 3701:2.1269243e-05 3702:0.00030537581 3703:0.00020813523 3704:-0.00012395826 3705:1.3177711e-05 3706:0.0012344447 3707:-0.00014486442 3708:7.8870493e-05 3709:-0.0013732176 3710:0.00021283102 3711:-1.2249561e-05 3712:0.00029263148 3713:0.00084559637 3714:-1.9969179e-05 3715:3.4945999e-05 3716:2.644137e-05 3717:-0.00026529524 3718:5.288274e-05 3719:0.001181562 3720:4.8620295e-05 3721:9.2068469e-05 3722:8.0485588e-06 3723:-7.3262563e-05 3724:3.113717e-05 3725:-4.2624433e-06 3726:2.1269243e-05 3727:0.00024693058 3728:2.644137e-05 3729:0.00025304049 3730:-8.1462749e-05 3731:-1.6528027e-05 3732:2.644137e-05 3733:-4.2624433e-06 3734:-6.6600983e-06 3735:0.00021804613 3736:0.0023605139 3737:-0.00039520641 3738:-0.00033227389 3739:3.5399611e-05 3740:-4.4693144e-05 3741:0.00010576548 3742:0.0001279444 3743:0.00015012333 3744:8.9582409e-06 3745:5.8011894e-05 3746:2.644137e-05 3747:5.8011894e-05 3748:5.628192e-06 3749:2.644137e-05 3750:6.2274339e-05 3751:0.00027179805 3752:0.0014842493 3753:-0.0013908984 3754:0.00056552707 3755:0.00062672922 3756:-3.3666194e-05 3757:-0.0002064626 3758:0.00059176027 3759:-3.8290891e-06 3760:3.9662056e-05 3761:8.9582418e-06 3762:0.00010334511 3763:2.644137e-05 3764:3.9662056e-05 3765:-3.3527606e-06 3766:3.9662056e-05 3767:2.644137e-05 3768:1.7916482e-05 3769:0.00080547557 3770:3.2003878e-05 3771:-6.0974275e-05 3772:3.204685e-05 3773:0.00089193875 3774:0.00011898617 3775:5.288274e-05 3776:4.4357854e-05 3777:0.00010150304 3778:1.3654039e-05 3779:5.288274e-05 3780:2.644137e-05 3781:4.695798e-06 3782:-0.00017165857 3783:0.00013220684 3784:4.4357854e-05 3785:0.00075957493 3786:0.00027158496 3787:7.9324112e-05 3788:3.9662056e-05 3789:6.6103421e-05 3790:2.644137e-05 3791:6.6536777e-05 3792:0.0002337099 3793:1.3654039e-05 3794:1.3430371e-06 3795:7.2099283e-05 3796:1.3329538e-05 3797:4.8620295e-05 3798:3.9662056e-05 3799:2.2592019e-05 3800:-4.2624433e-06 3801:5.8011894e-05 3802:-2.9403749e-05 3803:9.2978145e-05 3804:9.2068476e-05 3805:0.0015957219 3806:-0.00020337646 3807:0.0011613243 3808:0.00051511655 3809:0.0027822766 3810:0.00020234185 3811:5.288274e-05 3812:2.644137e-05 3813:0.00030297818 3814:0.00089950778 3815:6.275066e-05 3816:5.288274e-05 3817:7.0799222e-05 3818:2.644137e-05 3819:0.00027806775 3820:-1.2787331e-05 3821:7.8984565e-05 3822:5.288274e-05 3823:2.644137e-05 3824:-4.9327511e-05 3825:-0.00014398525 3826:2.644137e-05 3827:2.644137e-05 3828:2.644137e-05 3829:3.9662056e-05 3830:3.9662056e-05 3831:3.9662056e-05 3832:0.00018508959 3833:7.5061667e-05 3834:2.644137e-05 3835:2.644137e-05 3836:5.288274e-05 3837:2.644137e-05 3838:2.644137e-05 3839:2.644137e-05 3840:2.644137e-05 3841:-0.00033167828 3842:0.00036674051 3843:3.06927e-05 3844:3.113717e-05 3845:-1.7049773e-05 3846:0.00011176134 3847:6.1840983e-05 3848:2.644137e-05 3849:6.6103421e-05 3850:-4.2624433e-06 3851:-0.00012429536 3852:9.2268492e-05 3853:0.0015441892 3854:8.1599545e-05 3855:0.0002338037 3856:7.9757468e-05 3857:0.00023505292 3858:0.00071947952 3859:-0.00041560011 3860:6.8270194e-05 3861:0.00018526935 3862:-2.7627357e-05 3863:-0.00063472998 3864:0.00014542755 3865:0.00025162636 3866:0.0001279444 3867:-4.7753587e-05 3868:0.00010150304 3869:2.2097508e-06 3870:-4.2624433e-06 3871:9.0449124e-05 3872:-9.3773764e-05 3873:0.00067523576 3874:7.5495023e-05 3875:4.8620295e-05 3876:3.9662056e-05 3877:-0.00014460379 3878:0.00036330419 3879:-3.635227e-05 3880:2.644137e-05 3881:3.5399611e-05 3882:0.00024688759 3883:0.0010085476 3884:0.00017273561 3885:-0.00068240048 3886:-8.7807828e-05 3887:0.00026619009 3888:8.0485588e-06 3889:5.3316093e-05 3890:0.00032668802 3891:-2.8691638e-05 3892:3.9662056e-05 3893:0.00055706786 3894:-1.7414994e-05 3895:0.0010240998 3896:0.00023869411 3897:3.113717e-05 3898:7.4688302e-05 3899:0.00011472373 3900:0.00013220684 3901:0.00010576548 3902:0.00016044732 3903:0.00060931704 3904:5.3316093e-05 3905:-1.2353977e-05 3906:0.00025201673 3907:9.1472873e-05 3908:5.288274e-05 3909:-1.3585906e-05 3910:2.644137e-05 3911:9.2544797e-05 3912:2.644137e-05 3913:1.7916482e-05 3914:0.0014055157 3915:0.00019831028 3916:-4.7320234e-05 3917:0.00055859319 3918:-0.00011481783 3919:-4.491278e-05 3920:0.00032778535 3921:5.288274e-05 3922:9.2544797e-05 3923:0.0013891098 3924:0.00046359134 3925:0.00012121862 3926:0.00020339646 3927:0.00010619884 3928:2.7373764e-05 3929:-1.9535823e-05 3930:0.00034391761 3931:-0.00048179834 3932:-2.1745573e-05 3933:0.00018893799 3934:5.2839769e-05 3935:2.2178927e-05 3936:0.00056332769 3937:-4.3491145e-05 3938:8.7182314e-05 3939:3.1570522e-05 3940:4.6957989e-06 3941:3.9662056e-05 3942:-4.2624433e-06 3943:2.3045637e-05 3944:-0.00013516923 3945:-0.00050226541 3946:3.9662056e-05 3947:0.00072177523 3948:0.00019021874 3949:-1.2787331e-05 3950:3.9185725e-05 3951:3.9662056e-05 3952:0.00017072589 3953:1.712333e-05 3954:2.644137e-05 3955:2.644137e-05 3956:-0.00077189674 3957:0.00019167665 3958:0.00134981 3959:0.00013307357 3960:0.00040041454 3961:-0.00016113183 3962:0.001429048 3963:2.2178927e-05 3964:7.1232578e-05 3965:2.2178927e-05 3966:-1.2630285e-05 3967:-3.92287e-05 3968:0.00096251775 3969:2.644137e-05 3970:-1.7460417e-05 3971:0.00013220684 3972:0.0001718689 3973:2.644137e-05 3974:0.00095466926 3975:6.6103421e-05 3976:0.00048588368 3977:0.00040984125 3978:0.00026441368 3979:4.695798e-06 3980:-1.1877648e-05 3981:-0.00026875242 3982:-0.00095962704 3983:5.3316093e-05 3984:-4.2624433e-06 3985:0.00018552295 3986:9.2544797e-05 3987:-0.00016655755 3988:-7.8224359e-05 3989:-9.2154412e-05 3990:3.9662056e-05 3991:2.644137e-05 3992:7.5084376e-05 3993:-8.5248867e-06 3994:4.3335424e-07 3995:-8.5248867e-06 3996:2.644137e-05 3997:-8.6967812e-06 3998:0.00013469263 3999:1.7916484e-05 4000:0.0010783512 4001:0.00044524088 4002:-1.6469037e-05 4003:3.9662056e-05 4004:8.9582409e-06 4005:-2.1745573e-05 4006:3.5832963e-05 4007:2.644137e-05 4008:1.7916482e-05 4009:1.3725147e-05 4010:0.0001411651 4011:0.00020726853 4012:0.0001812605 4013:3.9662056e-05 4014:-0.0013086648 4015:4.3335424e-07 4016:0.00011472372 4017:9.2978145e-05 4018:0.00018595632 4019:5.4616157e-05 4020:3.9662056e-05 4021:-2.1745573e-05 4022:5.288274e-05 4023:2.644137e-05 4024:8.6896347e-05 4025:0.00028233021 4026:0.00013740713 4027:8.4019914e-05 4028:0.00043753971 4029:9.2978145e-05 4030:0.0020376169 4031:-0.00012160114 4032:0.0014007363 4033:0.00059591164 4034:-0.00016247468 4035:0.00014542755 4036:0.0012638767 4037:5.288274e-05 4038:2.5965042e-05 4039:0.00038736576 4040:-0.00069946464 4041:-8.5248867e-06 4042:2.644137e-05 4043:7.9324112e-05 4044:3.5399611e-05 4045:4.3335424e-07 4046:0.00012967782 4047:0.00091220421 4048:2.644137e-05 4049:-6.0974275e-05 4050:-0.0018630933 4051:-4.7320234e-05 4052:-0.0023848526 4053:0.0001095516 4054:0.00073309056 4055:-0.0016280274 4056:3.6765363e-05 4057:5.8445243e-05 4058:-8.8706038e-05 4059:6.6103421e-05 4060:8.9582409e-06 4061:-4.3491145e-05 4062:8.7806031e-05 4063:5.8499067e-05 4064:6.7446461e-05 4065:0.00060703664 4066:-7.84574e-05 4067:-4.2624433e-06 4068:2.644137e-05 4069:-4.1671778e-05 4070:-0.00011541492 4071:8.9582409e-06 4072:-4.2581461e-05 4073:0.00011110252 4074:2.644137e-05 4075:-5.7188157e-05 4076:-8.5248867e-06 4077:4.2851548e-06 4078:6.1840983e-05 4079:0.00068414555 4080:0.00024777619 4081:0.00016124835 4082:2.644137e-05 4083:4.4791206e-05 4084:2.1514688e-05 4085:8.8282359e-05 4086:9.6330914e-05 4087:-0.00025702693 4088:0.00050751521 4089:0.0011418569 4090:5.288274e-05 4091:7.9759913e-05 4092:-4.2624433e-06 4093:0.00073722168 4094:-0.00012240217 4095:9.2544797e-05 4096:0.00030877156 4097:0.0010143662 4098:0.0021354361 4099:2.644137e-05 4100:7.9324112e-05 4101:0.00012741153 4102:3.9662056e-05 4103:0.00050588406 4104:7.9324112e-05 4105:3.5399611e-05 4106:2.644137e-05 4107:7.9324112e-05 4108:2.644137e-05 4109:0.00015864822 4110:0.00010576548 4111:-0.0001240805 4112:2.644137e-05 4113:-0.00065315631 4114:-1.2288291e-05 4115:0.00026666641 4116:0.00012796436 4117:0.00065850525 4118:8.9582409e-06 4119:5.844525e-05 4120:8.9582409e-06 4121:1.3654039e-05 4122:-1.9664212e-05 4123:0.00013350691 4124:0.0008297583 4125:0.00016551079 4126:2.644137e-05 4127:4.8620295e-05 4128:8.8715708e-05 4129:5.3316093e-05 4130:-0.00015682101 4131:0.00026705681 4132:0.00059623091 4133:2.644137e-05 4134:8.9214744e-05 4135:3.9662056e-05 4136:0.00016334401 4137:7.9324112e-05 4138:3.5399611e-05 4139:-0.0011899758 4140:3.9662056e-05 4141:-3.4387078e-06 4142:-5.8277878e-05 4143:-0.00042023661 4144:-4.3057789e-05 4145:3.9662056e-05 4146:-0.00025495101 4147:-0.0019784272 4148:3.1094201e-05 4149:-3.1309068e-05 4150:3.1188003e-05 4151:-9.0745692e-05 4152:0.00011788432 4153:2.644137e-05 4154:0.00033919633 4155:0.00014763727 4156:-0.00016967944 4157:8.4019906e-05 4158:-5.928383e-05 4159:-8.0915343e-06 4160:2.644137e-05 4161:2.644137e-05 4162:0.0001279444 4163:0.00054526137 4164:9.7240591e-05 4165:0.00016085798 4166:2.3544675e-05 4167:0.00027554118 4168:5.5625078e-06 4169:-2.5075622e-05 4170:0.00022048921 4171:0.00019874364 4172:5.1948373e-06 4173:-4.2624433e-06 4174:0.00025156068 4175:0.00014389658 4176:2.644137e-05 4177:-0.0006879344 4178:-0.00041453284 4179:0.0017908041 4180:-0.0011058691 4181:0.00087003619 4182:-0.00017353123 4183:-0.003016612 4184:-8.5248867e-06 4185:-8.5248867e-06 4186:2.644137e-05 4187:8.9582409e-06 4188:-0.00035142776 4189:9.2544797e-05 4190:0.00022475165 4191:5.3316093e-05 4192:3.9662056e-05 4193:-8.3500883e-05 4194:-0.0003187336 4195:4.695798e-06 4196:-7.1763927e-05 4197:7.1460738e-05 4198:0.001574541 4199:3.709006e-05 4200:4.8620295e-05 4201:8.9582409e-06 4202:-0.0004228676 4203:7.9324112e-05 4204:6.6103421e-05 4205:5.288274e-05 4206:-0.00095253292 4207:2.644137e-05 4208:0.00047168223 4209:0.00010150304 4210:-3.6195215e-05 4211:-2.131222e-05 4212:0.00021622678 4213:0.0001279444 4214:0.00089561089 4215:5.288274e-05 4216:0.00092132232 4217:8.9582409e-06 4218:4.695798e-06 4219:-4.2624433e-06 4220:0.0006193195 4221:0.00028659264 4222:3.9684764e-05 4223:0.00035717912 4224:0.00012454868 4225:7.9365287e-05 4226:-0.0029087544 4227:7.3964075e-05 4228:-1.3674302e-05 4229:8.4019914e-05 4230:0.00018217019 4231:-7.8333003e-05 4232:0.00061264209 4233:5.5625078e-06 4234:1.8420935e-05 4235:1.3654039e-05 4236:2.644137e-05 4237:0.00037234594 4238:0.00013524033 4239:0.0010237632 4240:2.644137e-05 4241:8.0055843e-06 4242:-8.5248867e-06 4243:2.644137e-05 4244:3.9662056e-05 4245:-3.8290891e-06 4246:2.644137e-05 4247:5.288274e-05 4248:5.288274e-05 4249:3.9662056e-05 4250:8.8305067e-05 4251:3.9662056e-05 4252:5.288274e-05 4253:3.9662056e-05 4254:5.288274e-05 4255:5.288274e-05 4256:0.00060301879 4257:-0.00025181184 4258:3.9662056e-05 4259:-4.6453522e-05 4260:0.00032242559 4261:0.00032755474 4262:0.00014112212 4263:0.00055319583 4264:-0.00022710091 4265:-3.8361992e-05 4266:-5.5411765e-05 4267:-2.1745573e-05 4268:0.0001411651 4269:-4.2624433e-06 4270:5.288274e-05 4271:2.644137e-05 4272:-6.0107563e-05 4273:-8.5248867e-06 4274:0.00010619884 4275:1.7916482e-05 4276:1.7916482e-05 4277:-0.00010156358 4278:0.0004310245 4279:3.9662056e-05 4280:3.9662056e-05 4281:3.9662056e-05 4282:3.9662056e-05 4283:3.9662056e-05 4284:0.00016603254 4285:8.9582409e-06 4286:4.695798e-06 4287:3.9662056e-05 4288:0.00021622678 4289:3.7198715e-05 4290:-0.00020005855 4291:-6.0107563e-05 4292:2.644137e-05 4293:2.644137e-05 4294:2.644137e-05 4295:3.9662056e-05 4296:0.0005240094 4297:0.0001718689 4298:0.00010150304 4299:0.0001028031 4300:0.00041397204 4301:0.00019021875 4302:9.2978145e-05 4303:8.9582418e-06 4304:5.288274e-05 4305:-3.3189866e-05 4306:0.00015856227 4307:-9.7559874e-05 4308:3.9662056e-05 4309:2.644137e-05 4310:2.644137e-05 4311:0.00065227848 4312:8.9582409e-06 4313:-0.00041504877 4314:0.0010355924 4315:2.644137e-05 4316:2.644137e-05 4317:9.2544797e-05 4318:4.8620295e-05 4319:2.644137e-05 4320:4.695798e-06 4321:2.644137e-05 4322:3.9662056e-05 4323:2.644137e-05 4324:2.644137e-05 4325:2.644137e-05 4326:2.644137e-05 4327:2.644137e-05 4328:7.9324112e-05 4329:0.00014159844 4330:2.644137e-05 4331:2.644137e-05 4332:2.644137e-05 4333:2.644137e-05 4334:8.4019914e-05 4335:3.9662056e-05 4336:2.644137e-05 4337:2.644137e-05 4338:0.00011985288 4339:2.644137e-05 4340:2.644137e-05 4341:0.00046313708 4342:2.644137e-05 4343:2.644137e-05 4344:2.644137e-05 4345:2.644137e-05 4346:2.2612281e-05 4347:6.3120788e-05 4348:4.8620295e-05 4349:0.00023062529 4350:-0.0032103369 4351:-0.0035239721 4352:9.9430072e-05 4353:-0.00097336591 4354:8.9186316e-05 4355:-5.8245227e-05 4356:-0.00013851954 4357:-0.00040404144 4358:2.2178927e-05 4359:-3.8290891e-06 4360:-4.2624433e-06 4361:1.7916484e-05 4362:0.00011096032 4363:-3.6861908e-05 4364:-0.00015768591 4365:0.00024613499 4366:0.00010389255 4367:7.9324112e-05 4368:2.644137e-05 4369:4.4357854e-05 4370:-4.2624433e-06 4371:0.00010150304 4372:6.6103421e-05 4373:2.644137e-05 4374:1.4563722e-05 4375:0.0001382027 4376:-0.0022404264 4377:4.9053648e-05 4378:-0.00011398594 4379:-9.4822026e-05 4380:-8.6455126e-05 4381:4.4357854e-05 4382:8.8282359e-05 4383:-7.9871234e-06 4384:0.00029503155 4385:7.9567748e-05 4386:-0.00049617677 4387:0.00022472195 4388:2.1269243e-05 4389:-5.2059007e-05 4390:2.644137e-05 4391:0.00011472372 4392:-4.2624433e-06 4393:8.9582409e-06 4394:3.4013603e-05 4395:4.695798e-06 4396:3.626632e-05 4397:7.5061667e-05 4398:0.00015864822 4399:-4.2624433e-06 4400:-4.2624441e-05 4401:4.4357854e-05 4402:5.288274e-05 4403:-0.00016413962 4404:7.9324112e-05 4405:-4.2624433e-06 4406:0.0020450456 4407:0.00027733782 4408:0.00016516338 4409:0.00023603589 4410:0.00015438578 4411:5.7578538e-05 4412:0.0001168905 4413:2.644137e-05 4414:2.644137e-05 4415:-0.00012273925 4416:4.9053648e-05 4417:0.00065645255 4418:2.2178927e-05 4419:2.644137e-05 4420:5.288274e-05 4421:2.644137e-05 4422:-0.00023434601 4423:2.644137e-05 4424:2.644137e-05 4425:2.2178927e-05 4426:2.644137e-05 4427:2.644137e-05 4428:2.644137e-05 4429:2.644137e-05 4430:2.644137e-05 4431:5.288274e-05 4432:2.644137e-05 4433:2.644137e-05 4434:2.644137e-05 4435:4.0095409e-05 4436:3.5399611e-05 4437:-0.00014529076 4438:2.644137e-05 4439:2.644137e-05 4440:2.644137e-05 4441:0.00011381404 4442:1.7916484e-05 4443:0.00011085166 4444:6.6536784e-05 4445:2.644137e-05 4446:-0.00016831793 4447:0.0019292138 4448:0.0001838522 4449:-3.3367443e-05 4450:0.00012595612 4451:2.644137e-05 4452:2.644137e-05 4453:8.9582418e-06 4454:0.00056418404 4455:0.00016760646 4456:9.2544797e-05 4457:0.00018994242 4458:0.00032712141 4459:3.113717e-05 4460:0.00016687316 4461:3.113717e-05 4462:2.644137e-05 4463:4.4357854e-05 4464:2.644137e-05 4465:0.00018552295 4466:-0.0002942227 4467:4.695798e-06 4468:8.9582409e-06 4469:1.7916482e-05 4470:6.6103421e-05 4471:2.644137e-05 4472:0.00011472372 4473:0.00078952609 4474:7.9324112e-05 4475:0.00011898617 4476:0.0016910018 4477:0.00013697374 4478:-0.00070963975 4479:5.288274e-05 4480:0.00099728035 4481:0.00035366081 4482:-6.0041879e-05 4483:0.00060973573 4484:4.8620295e-05 4485:0.00021819351 4486:5.3316093e-05 4487:5.288274e-05 4488:-2.5141308e-05 4489:0.00020134376 4490:5.678293e-05 4491:3.5399611e-05 4492:0.00010893033 4493:3.9662056e-05 4494:8.9582409e-06 4495:-1.2787331e-05 4496:9.7240591e-05 4497:0.00011898617 4498:1.4087394e-05 4499:0.00033610236 4500:0.00037952783 4501:0.00018595629 4502:5.288274e-05 4503:3.5399611e-05 4504:5.3316093e-05 4505:2.644137e-05 4506:0.00091690279 4507:0.00027289562 4508:2.644137e-05 4509:8.6810389e-05 4510:9.2544797e-05 4511:0.00014542755 4512:5.7578538e-05 4513:0.00032199224 4514:0.00011898617 4515:0.00021463014 4516:2.644137e-05 4517:2.644137e-05 4518:-8.5248867e-06 4519:2.644137e-05 4520:3.9662056e-05 4521:2.644137e-05 4522:2.644137e-05 4523:-7.5423923e-05 4524:8.9582409e-06 4525:0.00013264021 4526:5.288274e-05 4527:2.644137e-05 4528:2.644137e-05 4529:3.2092274e-05 4530:2.644137e-05 4531:-0.00015853415 4532:-5.9218142e-05 4533:0.00042434174 4534:7.5061667e-05 4535:0.00013690266 4536:2.644137e-05 4537:-2.1745573e-05 4538:8.9582418e-06 4539:3.6332007e-05 4540:0.0001095516 4541:2.644137e-05 4542:2.644137e-05 4543:-1.2288291e-05 4544:0.00063237251 4545:-2.1745573e-05 4546:-3.3740023e-05 4547:3.5399611e-05 4548:2.644137e-05 4549:8.9582409e-06 4550:2.644137e-05 4551:2.644137e-05 4552:-0.004356964 4553:4.1050513e-05 4554:0.00015575693 4555:0.00093365356 4556:-9.1289687e-05 4557:0.00051770511 4558:-0.0056656902 4559:0.00083406101 4560:8.871816e-05 4561:0.0013682988 4562:-0.0042126621 4563:2.644137e-05 4564:2.644137e-05 4565:-3.8319016e-05 4566:8.9582409e-06 4567:-9.459749e-05 4568:-4.2624433e-06 4569:0.00011898617 4570:-0.00010041166 4571:-0.00012108184 4572:0.00022694112 4573:-8.7127228e-05 4574:0.00012368198 4575:-2.1312217e-05 4576:-9.4224497e-06 4577:0.00015459793 4578:2.2178927e-05 4579:-3.9981329e-05 4580:-2.1745573e-05 4581:-2.1745573e-05 4582:-0.00027487721 4583:6.0639945e-06 4584:-4.2624433e-06 4585:0.00046272398 4586:5.288274e-05 4587:0.00024266813 4588:6.2707688e-05 4589:-0.002414864 4590:0.00059110177 4591:-0.00013516923 4592:0.00013528331 4593:5.288274e-05 4594:2.644137e-05 4595:0.00012454868 4596:0.0010737265 4597:0.00019400487 4598:3.9662056e-05 4599:3.9662056e-05 4600:9.2544797e-05 4601:-4.2624433e-06 4602:4.695798e-06 4603:2.2178927e-05 4604:2.644137e-05 4605:5.7578538e-05 4606:2.644137e-05 4607:-2.1745573e-05 4608:0.00015238393 4609:5.288274e-05 4610:-0.0002038017 4611:-7.8300349e-05 4612:7.4151983e-05 4613:0.0005522123 4614:0.00045885192 4615:0.00097536831 4616:8.4453262e-05 4617:2.644137e-05 4618:0.00047995351 4619:-0.0010000633 4620:2.644137e-05 4621:3.9662056e-05 4622:9.2544797e-05 4623:2.644137e-05 4624:2.644137e-05 4625:-6.5236716e-05 4626:-2.1745573e-05 4627:0.00019404784 4628:2.644137e-05 4629:0.00011898617 4630:0.00077898847 4631:0.00032668802 4632:0.0015034488 4633:0.00011472372 4634:5.3316093e-05 4635:0.00014159844 4636:0.00010576548 4637:0.00018169386 4638:0.00014629425 4639:0.00011898617 4640:0.0001279444 4641:-5.8807498e-05 4642:0.0001279444 4643:0.00013220684 4644:0.00046915325 4645:0.00044221521 4646:3.5399611e-05 4647:6.1840983e-05 4648:-0.00046871623 4649:-0.00016392657 4650:0.00040546598 4651:-0.00023870225 4652:-1.7526103e-05 4653:-1.4173342e-05 4654:2.644137e-05 4655:-2.6484344e-05 4656:-2.1788546e-05 4657:5.0576444e-05 4658:4.8620295e-05 4659:1.7916482e-05 4660:8.0190817e-05 4661:3.2627588e-05 4662:0.00070213317 4663:0.00011176134 4664:0.00046826625 4665:7.9324112e-05 4666:0.00012454868 4667:-2.9381039e-05 4668:5.288274e-05 4669:2.644137e-05 4670:3.9662056e-05 4671:8.9582409e-06 4672:0.00039792061 4673:3.5399611e-05 4674:-8.5248867e-06 4675:3.9662056e-05 4676:2.644137e-05 4677:2.644137e-05 4678:0.00053634308 4679:9.391596e-06 4680:3.5399611e-05 4681:4.9487007e-05 4682:0.00038039449 4683:0.0003347366 4684:0.0012680452 4685:4.8620295e-05 4686:0.00013690266 4687:3.2003878e-05 4688:0.00013307355 4689:-0.00035451393 4690:9.2544797e-05 4691:2.644137e-05 4692:2.644137e-05 4693:2.1269243e-05 4694:4.3335424e-07 4695:0.00010706555 4696:4.9053648e-05 4697:3.9662056e-05 4698:8.9582409e-06 4699:3.9662056e-05 4700:2.644137e-05 4701:5.288274e-05 4702:0.00010619884 4703:8.9582409e-06 4704:0.00028244426 4705:2.644137e-05 4706:0.000538219 4707:2.644137e-05 4708:3.9662056e-05 4709:0.0005020895 4710:2.644137e-05 4711:-0.00038803479 4712:-0.00015650416 4713:-0.00052357634 4714:1.6340113e-05 4715:-8.6548935e-05 4716:-0.00053907023 4717:-8.2719846e-05 4718:5.1291504e-06 4719:-0.00011022009 4720:0.00013441659 4721:8.6671025e-07 4722:-6.9602036e-05 4723:0.00011545093 4724:-8.1787453e-05 4725:-4.2624433e-06 4726:0.00011898617 4727:4.4104261e-05 4728:0.00036204467 4729:2.6874724e-05 4730:2.644137e-05 4731:3.9662056e-05 4732:-0.00011025881 4733:2.644137e-05 4734:-0.00011015839 4735:2.644137e-05 4736:0.00019021874 4737:-4.2624433e-06 4738:9.2978145e-05 4739:8.481913e-06 4740:7.4858399e-05 4741:-4.2624433e-06 4742:6.6103421e-05 4743:0.0007817538 4744:2.644137e-05 4745:9.0015776e-05 4746:0.0003356463 4747:5.288274e-05 4748:0.00021153096 4749:-0.00018029999 4750:7.7317354e-06 4751:2.7373764e-05 4752:0.00020772459 4753:5.288274e-05 4754:5.288274e-05 4755:-3.8518001e-06 4756:-0.00026477597 4757:2.644137e-05 4758:2.644137e-05 4759:5.1291527e-06 4760:-6.9499161e-05 4761:-0.00022266296 4762:0.00019448118 4763:2.644137e-05 4764:2.644137e-05 4765:2.2178927e-05 4766:2.644137e-05 4767:-7.6152041e-06 4768:0.00019021874 4769:1.0258305e-05 4770:3.9662056e-05 4771:-0.00035523993 4772:-3.0270459e-05 4773:0.0011099536 4774:9.391596e-06 4775:3.9662056e-05 4776:0.00018082713 4777:-6.61464e-05 4778:0.00012316265 4779:0.00035456623 4780:4.8620295e-05 4781:-4.2624433e-06 4782:2.644137e-05 4783:0.00019404784 4784:3.5399611e-05 4785:8.7382337e-05 4786:8.9582418e-06 4787:3.9662056e-05 4788:-2.1745573e-05 4789:-4.5478162e-05 4790:2.644137e-05 4791:3.9662056e-05 4792:3.5399611e-05 4793:0.0004168633 4794:0.0012502631 4795:4.695798e-06 4796:8.9582409e-06 4797:0.00020300607 4798:0.00082923117 4799:0.0004823739 4800:2.644137e-05 4801:0.00011089465 4802:-2.9837105e-05 4803:5.3316093e-05 4804:0.00016380008 4805:3.9662056e-05 4806:9.7240591e-05 4807:0.00053259329 4808:8.9582409e-06 4809:-0.0002036316 4810:0.00095976592 4811:5.288274e-05 4812:2.644137e-05 4813:-8.5248867e-06 4814:0.00022853777 4815:-0.011011532 4816:-2.464227e-05 4817:0.0014551365 4818:0.00019017822 4819:0.0013643056 4820:6.1840983e-05 4821:4.8620295e-05 4822:-3.92287e-05 4823:1.2553998e-05 4824:2.644137e-05 4825:2.644137e-05 4826:6.6103421e-05 4827:0.00012892221 4828:0.0021931536 4829:0.0010991871 4830:0.00010576548 4831:7.5061667e-05 4832:-4.6387842e-05 4833:-0.00018292281 4834:8.9582409e-06 4835:2.2178927e-05 4836:2.3111321e-05 4837:0.00016298179 4838:0.00052160263 4839:6.6103421e-05 4840:2.644137e-05 4841:2.644137e-05 4842:0.00055644661 4843:0.00036165433 4844:-3.3441007e-05 4845:2.644137e-05 4846:2.2178927e-05 4847:0.0001812605 4848:0.0014899687 4849:0.0023251302 4850:5.288274e-05 4851:0.00015999125 4852:0.00011985288 4853:3.9662056e-05 4854:6.1364655e-05 4855:2.644137e-05 4856:0.00015908157 4857:3.5399611e-05 4858:8.8715708e-05 4859:3.113717e-05 4860:-3.82909e-06 4861:0.00076723308 4862:7.9324112e-05 4863:7.9324112e-05 4864:5.288274e-05 4865:2.644137e-05 4866:2.2178927e-05 4867:5.8835623e-05 4868:-0.00028811148 4869:2.2178927e-05 4870:2.644137e-05 4871:-2.6008016e-05 4872:-3.1803855e-05 4873:5.288274e-05 4874:3.5399611e-05 4875:5.288274e-05 4876:0.00015155476 4877:0.00022735177 4878:2.644137e-05 4879:7.6404707e-05 4880:-2.1745573e-05 4881:0.00025211056 4882:-1.3197974e-05 4883:7.0799222e-05 4884:0.00022556479 4885:0.00022231102 4886:6.1840983e-05 4887:8.9582409e-06 4888:-1.2289696e-06 4889:1.1558373e-05 4890:2.644137e-05 4891:0.00015062238 4892:0.00014625127 4893:3.3001954e-05 4894:0.00037736888 4895:2.7931792e-05 4896:2.644137e-05 4897:-4.2624433e-06 4898:6.6103421e-05 4899:2.644137e-05 4900:4.6957989e-06 4901:2.242437e-05 4902:7.5495023e-05 4903:-0.00011607671 4904:-0.0001858852 4905:2.644137e-05 4906:9.2544797e-05 4907:-2.1745573e-05 4908:2.644137e-05 4909:2.644137e-05 4910:-4.2624433e-06 4911:0.0011237583 4912:0.00075914158 4913:0.00037617507 4914:0.00019831028 4915:3.9662056e-05 4916:5.288274e-05 4917:6.6103421e-05 4918:4.4791206e-05 4919:-1.1527794e-05 4920:0.00031303399 4921:0.00011898617 4922:0.00062180555 4923:1.3654039e-05 4924:0.00035782522 4925:3.2069562e-05 4926:0.00024786298 4927:1.0258305e-05 4928:-6.0974275e-05 4929:5.288274e-05 4930:0.00013690266 4931:8.9582409e-06 4932:2.2178927e-05 4933:0.00052141713 4934:8.8282359e-05 4935:0.00011898617 4936:4.4357854e-05 4937:0.00023323356 4938:0.00038335691 4939:0.00022648505 4940:2.2178927e-05 4941:2.644137e-05 4942:0.00053445558 4943:6.6103421e-05 4944:8.8715708e-05 4945:3.9662056e-05 4946:-0.00045571584 4947:-0.00026895246 4948:2.644137e-05 4949:0.0010069186 4950:0.00052798883 4951:0.00010243543 4952:0.00040984125 4953:0.00010619884 4954:4.8620295e-05 4955:6.061548e-06 4956:0.00025591152 4957:2.644137e-05 4958:-4.2624433e-06 4959:6.876923e-05 4960:-3.757975e-06 4961:-0.0004159098 4962:2.2178927e-05 4963:-4.2624433e-06 4964:-0.00050297921 4965:0.00014542755 4966:2.644137e-05 4967:-8.9944668e-05 4968:2.644137e-05 4969:6.2720974e-05 4970:0.00039612397 4971:0.00038079949 4972:0.00040302952 4973:5.7578538e-05 4974:7.9324112e-05 4975:0.00013220684 4976:5.288274e-05 4977:0.00011898617 4978:6.1002396e-05 4979:-8.6021777e-05 4980:6.4220818e-05 4981:-0.00018452371 4982:3.113717e-05 4983:-0.00023020008 4984:-0.00039274062 4985:0.00032459237 4986:-1.1010938e-05 4987:-0.0002591048 4988:0.0002601083 4989:-7.84574e-05 4990:-4.6410551e-05 4991:3.113717e-05 4992:3.9662056e-05 4993:7.0756243e-05 4994:-8.3629529e-05 4995:2.3111321e-05 4996:-8.5248867e-06 4997:0.00032420197 4998:0.0004276718 4999:9.7819766e-06 5000:0.00023927238 5001:2.644137e-05 5002:8.9582409e-06 5003:-4.2624433e-06 5004:0.0011749786 5005:0.00063445041 5006:0.00030877156 5007:0.00019404784 5008:0.00029648328 5009:3.9662056e-05 5010:0.0016037506 5011:-0.00022438673 5012:0.00080803543 5013:0.00019639978 5014:-0.00017871692 5015:8.5753338e-05 5016:1.603388e-05 5017:-4.5872785e-05 5018:0.00012028623 5019:0.00029128842 5020:2.644137e-05 5021:3.1636209e-05 5022:6.6103421e-05 5023:0.00051698455 5024:0.00034977667 5025:-4.2624433e-06 5026:5.8921578e-05 5027:4.3335424e-07 5028:2.644137e-05 5029:2.6874724e-05 5030:1.5025206e-05 5031:-9.1678085e-05 5032:-2.3290104e-06 5033:2.867383e-05 5034:2.644137e-05 5035:3.9662056e-05 5036:8.9582409e-06 5037:0.0001668968 5038:9.2544797e-05 5039:0.00016334401 5040:-0.00010916121 5041:2.644137e-05 5042:1.7916482e-05 5043:0.0002337099 5044:2.2178927e-05 5045:8.3067251e-05 5046:-4.7804715e-05 5047:0.00028363024 5048:8.4843647e-05 5049:0.00022518501 5050:8.9582409e-06 5051:1.4153079e-05 5052:8.9582409e-06 5053:5.288274e-05 5054:8.709637e-05 5055:-2.0286003e-05 5056:3.9662056e-05 5057:9.2544797e-05 5058:2.085965e-06 5059:8.9582409e-06 5060:0.00025119301 5061:3.9662056e-05 5062:-3.3399865e-06 5063:0.00013690266 5064:8.8282359e-05 5065:2.644137e-05 5066:-1.4606697e-05 5067:0.00031859649 5068:6.1840983e-05 5069:5.288274e-05 5070:2.644137e-05 5071:2.644137e-05 5072:9.7263306e-05 5073:6.1840983e-05 5074:2.2135953e-05 5075:5.710221e-05 5076:0.00028525502 5077:0.0002037463 5078:0.00017273561 5079:7.6361735e-05 5080:6.6103421e-05 5081:2.5987752e-05 5082:9.4278221e-05 5083:6.6103421e-05 5084:0.00010150304 5085:0.0013756984 5086:8.9582409e-06 5087:7.9324112e-05 5088:-3.92287e-05 5089:8.9582409e-06 5090:2.644137e-05 5091:0.00012368197 5092:7.9324112e-05 5093:7.9324112e-05 5094:0.00019831028 5095:-0.00028993507 5096:0.0013234114 5097:0.00039413697 5098:0.00011472372 5099:0.00015864822 5100:0.00024955341 5101:5.8011894e-05 5102:-0.00011499217 5103:2.2178927e-05 5104:-7.6581782e-06 5105:-0.00010487606 5106:0.00069686724 5107:0.00026455047 5108:-0.00010450839 5109:-0.0024160061 5110:0.00022929006 5111:3.9662056e-05 5112:-2.095514e-05 5113:0.00016470977 5114:3.9662056e-05 5115:0.0001279444 5116:2.644137e-05 5117:2.644137e-05 5118:0.00036954309 5119:0.00014713409 5120:-0.00018898193 5121:7.0799222e-05 5122:6.0244354e-05 5123:-1.7049773e-05 5124:-2.418865e-05 5125:6.1869119e-05 5126:3.9446518e-06 5127:-0.00020807229 5128:8.9582409e-06 5129:-6.0974275e-05 5130:4.4357854e-05 5131:-4.3491145e-05 5132:5.1948373e-06 5133:0.00052712212 5134:2.644137e-05 5135:0.00045595187 5136:4.4856894e-05 5137:4.0528761e-05 5138:5.288274e-05 5139:0.00015800966 5140:1.8973549e-05 5141:-0.00031423484 5142:-6.0185655e-05 5143:-2.754141e-05 5144:4.8620295e-05 5145:8.96481e-05 5146:0.00012459165 5147:0.00018552295 5148:0.00052499835 5149:8.0190817e-05 5150:7.1298266e-05 5151:0.0013764513 5152:0.00039235811 5153:3.1636209e-05 5154:-2.5141308e-05 5155:0.00011515709 5156:0.00044085193 5157:0.00036625357 5158:7.5061667e-05 5159:0.00033521291 5160:7.2142262e-05 5161:0.00034973369 5162:8.9582409e-06 5163:0.00049046538 5164:1.8647891e-06 5165:0.00014625127 5166:5.288274e-05 5167:9.2544797e-05 5168:0.0007813205 5169:0.00044950331 5170:5.288274e-05 5171:0.00028137755 5172:2.644137e-05 5173:-8.5248867e-06 5174:0.00043671599 5175:0.00016536584 5176:9.2544797e-05 5177:2.644137e-05 5178:0.00012459166 5179:0.00044524088 5180:0.00032285898 5181:0.00015864822 5182:8.0567639e-05 5183:0.00065629551 5184:0.000512211 5185:0.0002529264 5186:7.8847777e-05 5187:6.6103421e-05 5188:6.6103421e-05 5189:2.644137e-05 5190:2.644137e-05 5191:0.00012837777 5192:7.5061667e-05 5193:5.288274e-05 5194:-2.1745573e-05 5195:7.5061667e-05 5196:-8.4230531e-05 5197:0.00022194629 5198:-0.00031542621 5199:0.00041726854 5200:0.00045932646 5201:0.00019290301 5202:3.9662056e-05 5203:2.644137e-05 5204:0.00023414324 5205:6.6103421e-05 5206:0.00017699806 5207:2.2178927e-05 5208:2.644137e-05 5209:3.6309295e-05 5210:-1.2787331e-05 5211:4.695798e-06 5212:-2.5574662e-05 5213:-2.2632543e-05 5214:2.644137e-05 5215:-7.7676639e-05 5216:9.8679238e-06 5217:1.9216548e-05 5218:8.9582409e-06 5219:2.644137e-05 5220:0.00021622676 5221:0.00010578819 5222:0.001217603 5223:0.00011472372 5224:2.2178927e-05 5225:2.644137e-05 5226:0.0001382027 5227:-0.00014748023 5228:-4.2624433e-06 5229:0.00011898617 5230:-5.5845117e-05 5231:-0.00022313256 5232:-7.8067023e-05 5233:0.00030528943 5234:2.2612281e-05 5235:-7.0499977e-05 5236:6.3184016e-05 5237:0.00011096575 5238:2.644137e-05 5239:0.0009913689 5240:0.00027337193 5241:5.760125e-05 5242:5.1291527e-06 5243:-0.00039079017 5244:2.644137e-05 5245:6.6103421e-05 5246:-6.0540919e-05 5247:3.113717e-05 5248:0.00019831028 5249:3.5399611e-05 5250:-8.6483247e-05 5251:2.575442e-05 5252:2.2178927e-05 5253:3.5399611e-05 5254:5.288274e-05 5255:0.00033924449 5256:-0.00011678754 5257:-2.6008016e-05 5258:3.9662056e-05 5259:-2.1745573e-05 5260:-4.5427314e-05 5261:0.00010462247 5262:7.5061667e-05 5263:-3.472326e-05 5264:2.644137e-05 5265:0.00020726852 5266:-3.8795348e-05 5267:4.9053655e-05 5268:-0.00095031591 5269:0.00010619884 5270:3.9662056e-05 5271:8.9582409e-06 5272:0.00015860525 5273:5.288274e-05 5274:4.6091274e-05 5275:-0.00069458474 5276:0.0001279444 5277:-0.00028215043 5278:-0.00014841018 5279:2.2178927e-05 5280:2.7330789e-05 5281:8.8282359e-05 5282:2.2711085e-08 5283:2.644137e-05 5284:9.7197619e-05 5285:2.644137e-05 5286:-0.00010020297 5287:0.00019506589 5288:0.00018791789 5289:-0.0001496527 5290:3.5832963e-05 5291:-1.5250672e-05 5292:0.0020607011 5293:0.00012040032 5294:-8.6982291e-05 5295:5.628192e-06 5296:2.644137e-05 5297:-0.00034991128 5298:-3.7495272e-05 5299:-0.00012428052 5300:6.0412003e-05 5301:0.00023079048 5302:-9.5484465e-05 5303:2.644137e-05 5304:3.9662056e-05 5305:8.9582409e-06 5306:2.644137e-05 5307:5.288274e-05 5308:6.7403489e-05 5309:0.0014970367 5310:0.00044141177 5311:-0.00035606534 5312:0.00015908157 5313:-4.6322155e-05 5314:0.00053635152 5315:3.5399611e-05 5316:-0.00020281844 5317:2.644137e-05 5318:2.644137e-05 5319:-8.0915343e-06 5320:-8.5248867e-06 5321:2.644137e-05 5322:-0.00013569914 5323:0.00041814556 5324:0.00045889488 5325:0.00045420876 5326:0.00094236684 5327:-4.2624433e-06 5328:0.0015394678 5329:2.644137e-05 5330:0.0015634111 5331:3.4489931e-05 5332:-4.2624433e-06 5333:0.0002337099 5334:5.288274e-05 5335:0.00015864822 5336:3.9662056e-05 5337:4.9053651e-05 5338:5.288274e-05 5339:0.00013350691 5340:4.2119693e-05 5341:2.644137e-05 5342:0.00015864822 5343:0.00019924268 5344:9.2544797e-05 