SVM-light Version V6.20
0 # kernel type
3 # kernel parameter -d 
1 # kernel parameter -g 
1 # kernel parameter -s 
1 # kernel parameter -r 
empty# kernel parameter -u 
136599 # highest feature index 
11 # number of training documents 
2 # number of support vectors plus 1 
-0.02888586 # threshold b, each following line is a SV (starting with alpha*y)
1 1:0.0035578916 2:-0.0013574521 3:-0.00022187154 4:0.0014312054 5:-8.197748e-05 6:3.7564099e-05 7:9.5328076e-05 8:0.00010958328 9:1.6680819e-05 10:2.2529913e-07 11:-0.00046496553 12:-0.00052459026 13:0.0018340856 14:0.0067843879 15:-0.00010421168 16:-0.0025074938 17:0.00099564763 18:0.00076779025 19:0.0018404734 20:0.005115469 21:-0.00031477676 22:-0.00091974816 23:0.014015363 24:-0.001240737 25:0.0020959624 26:7.3446579e-05 27:-0.0033112722 28:0.002823679 29:0.00098032493 30:2.674043e-05 31:0.0005958117 32:3.7690504e-06 33:-0.00055573718 34:0.0029931755 35:1.6438316e-05 36:-0.00028727661 37:5.1614436e-05 38:-0.0018176881 39:1.0459398e-05 40:0.0021126654 41:-0.00015470663 42:-0.00010853087 43:0.0010045741 44:0.0055944091 45:0.0024513952 46:0.0014725788 47:0.00016050581 48:0.0027600806 49:0.00016973511 50:0.0033591194 51:0.003130046 52:2.5823538e-05 53:0.0005292045 54:-1.268647e-05 55:1.0690318e-05 56:0.0002499746 57:2.5823538e-05 58:0.0013431603 59:-4.5713596e-06 60:2.7371138e-05 61:-1.348878e-05 62:2.5412757e-05 63:-0.00011027727 64:-0.00088445027 65:-0.00014965513 66:-0.00017131711 67:-0.00022849662 68:-2.7202857e-05 69:3.7690495e-06 70:-5.7020745e-05 71:-7.093267e-05 72:2.5823538e-05 73:8.9885012e-05 74:4.0072024e-05 75:0.00032174942 76:0.00044596125 77:0.00081127346 78:3.3361637e-05 79:1.8902268e-05 80:2.5823538e-05 81:5.8382859e-05 82:0.00043172599 83:0.00015003874 84:0.0027168996 85:2.5823538e-05 86:-0.0011404752 87:0.0012350983 88:-0.0014394042 89:0.00087905006 90:2.5823538e-05 91:-4.0916933e-05 92:0.0010600345 93:-0.00049963623 94:0.0037881522 95:0.00097078783 96:-0.00057780335 97:0.0025258351 98:0.0028055066 99:0.00026928767 100:-0.0031821763 101:-0.00071791135 102:0.001386934 103:0.0055550183 104:-0.00010942152 105:-9.4405048e-05 106:0.005951602 107:0.00011839651 108:-2.6625848e-05 109:0.00014659612 110:-6.701122e-05 111:-0.00016308263 112:-4.256138e-05 113:-0.00024571255 114:-0.0004973663 115:0.00049899617 116:3.905745e-05 117:5.5416123e-05 118:-1.9498526e-05 119:-1.9890062e-05 120:0.0001070632 121:-9.901412e-05 122:2.7899332e-05 123:-4.5713596e-06 124:-6.0247174e-05 125:-0.00031349706 126:0.0021639324 127:-2.6625848e-05 128:2.5823538e-05 129:2.1252177e-05 130:-6.1592109e-05 131:0.0017796493 132:0.001388278 133:0.00020356792 134:0.00017337569 135:-0.00026651818 136:-5.806809e-05 137:0.0015935107 138:0.0062110615 139:0.0014363562 140:0.0018431477 141:-0.00039590086 142:0.0013234677 143:-0.002280111 144:-0.00055075868 145:0.00019324168 146:-3.9474385e-06 147:0.0087566767 148:0.00058817997 149:0.0013004146 150:-0.00064556912 151:-6.1759797e-06 152:0.00059217867 153:0.00091128051 154:0.012528195 155:0.0022875913 156:0.00036186405 157:0.00023491078 158:0.00032124179 159:-4.5713596e-06 160:2.3602088e-05 161:0.00018076478 162:0.00049064722 163:7.1576957e-05 164:0.00010088724 165:8.9735979e-05 166:-1.6046208e-06 167:2.5823538e-05 168:0.00012689624 169:-2.2054488e-05 170:1.02761e-06 171:5.2407446e-05 172:5.4319127e-05 173:-0.00085220119 174:3.3361641e-05 175:-3.1439708e-05 176:2.5823538e-05 177:2.5823538e-05 178:5.1647075e-05 179:9.8880082e-06 180:2.5823538e-05 181:2.5823538e-05 182:0.002116113 183:0.0016619965 184:0.00049779663 185:0.00029579384 186:-3.1197207e-05 187:0.0011823567 188:-0.0012516619 189:-0.00048966793 190:-0.00030135553 191:-0.0032181027 192:-0.00070499908 193:-3.0861382e-05 194:-0.00049413979 195:-0.002896551 196:-0.0012815541 197:5.6958102e-06 198:7.5381008e-06 199:2.3897305e-06 200:-0.0015256649 201:-0.00025391518 202:8.2592778e-05 203:3.7413007e-05 204:-0.00025778104 205:3.8911785e-05 206:-0.00026260281 207:1.8134939e-05 208:-0.0038919249 209:0.0037637055 210:-0.00012559532 211:-0.00035883571 212:-7.3998111e-05 213:0.00010329415 214:0.0001755119 215:1.6680819e-05 216:-6.7928099e-06 217:-2.9681227e-05 218:-0.00016585962 219:6.8130044e-05 220:-3.5768568e-05 221:-4.5713596e-06 222:1.537089e-05 223:-0.0001235868 224:5.1647075e-05 225:-4.4138538e-05 226:0.00015102651 227:-0.0010717412 228:-6.1592102e-05 229:8.3404093e-06 230:-1.50778e-06 231:2.5823538e-05 232:4.6087924e-05 233:-0.00053277891 234:-6.6945198e-05 235:0.0010933666 236:-2.272834e-05 237:0.00094514724 238:2.2896618e-05 239:4.5079563e-05 240:0.0047349622 241:3.7535632e-05 242:1.6680819e-05 243:2.067389e-05 244:-0.00058862858 245:0.0024141043 246:0.00013131367 247:0.00013445696 248:0.00023177783 249:7.6148317e-05 250:0.00010197185 251:-0.00099080952 252:0.0009997309 253:0.0041400124 254:0.0044632391 255:-0.0020075194 256:-0.0004457866 257:-0.00025816416 258:-0.00036199193 259:0.00035809749 260:2.5823538e-05 261:2.5823538e-05 262:0.00012869308 263:-5.2409567e-05 264:0.00011163456 265:5.1647075e-05 266:0.00017704524 267:1.1589469e-05 268:2.5159698e-06 269:2.7371138e-05 270:2.5823538e-05 271:8.0457194e-06 272:0.00048279722 273:0.00066473865 274:0.0004457894 275:-0.00016294509 276:3.2022137e-05 277:2.9592587e-05 278:5.5416123e-05 279:2.2742757e-05 280:-1.5036378e-05 281:0.00039549623 282:9.0230562e-05 283:0.00033341721 284:0.00012911769 285:-0.00068475719 286:-9.9450281e-06 287:2.1252177e-05 288:0.0038266224 289:2.9592587e-05 290:3.8735307e-05 291:2.5823538e-05 292:-0.00052533956 293:0.00055933755 294:-0.0031853239 295:0.0003458625 296:0.0004704622 297:-0.00074291509 298:-0.0014065142 299:-0.0013015881 300:0.00057172892 301:0.004744743 302:0.00040529043 303:0.00062109058 304:0.0014814406 305:-0.00092796935 306:0.00033066931 307:0.00032654608 308:7.3119714e-05 309:-6.9288231e-05 310:2.5978334e-06 311:0.00093780074 312:-0.00048709911 313:-3.5768568e-05 314:2.5823538e-05 315:-8.4234649e-05 316:-0.0011768241 317:8.8623114e-05 318:0.00019484082 319:5.5416123e-05 320:2.9592587e-05 321:0.0002440149 322:-0.00016823781 323:-7.3758587e-05 324:-0.00036127702 325:3.2841646e-05 326:8.9783993e-05 327:8.9580077e-05 328:0.00011083225 329:2.5100864e-05 330:4.0899737e-05 331:-6.43151e-05 332:3.4508699e-05 333:0.00018966498 334:-0.0031762174 335:0.0008630841 336:0.0015862018 337:1.4164679e-05 338:3.7932998e-05 339:0.00075711263 340:0.00034063446 341:0.00012182751 342:-4.7112175e-05 343:0.00015320187 344:-1.4977309e-05 345:-7.3423624e-05 346:4.6273406e-05 347:-4.5713596e-06 348:8.7975444e-05 349:-0.00010547578 350:0.00011997498 351:0.00076634297 352:0.0023835299 353:-0.00055007357 354:9.2573346e-06 355:0.00044810845 356:-0.00039708873 357:-0.0005523428 358:-0.00041958631 359:0.00010907297 360:8.4511346e-05 361:5.9987484e-05 362:0.00023118495 363:4.9284799e-06 364:7.7470613e-05 365:-2.6625848e-05 366:-6.9598005e-05 367:0.00091690675 368:2.3327957e-05 369:3.3361637e-05 370:-0.00026752529 371:0.0011340649 372:2.5166188e-05 373:3.7690495e-06 374:0.0037126136 375:6.8511916e-05 376:-0.001392883 377:0.00014923379 378:-9.1427191e-06 379:-0.00082807132 380:3.7690504e-06 381:0.00019701562 382:0.00010806595 383:0.00026473688 384:-3.0696472e-05 385:1.9030727e-05 386:2.1252177e-05 387:0.00018692602 388:2.5823538e-05 389:4.7075715e-05 390:8.3404093e-06 391:-5.3736699e-06 392:4.7075715e-05 393:1.587851e-05 394:2.5823538e-05 395:-0.00052925071 396:-0.00018308951 397:-1.9921677e-05 398:-3.5954046e-05 399:0.00045456699 400:2.1252177e-05 401:-0.00022311806 402:0.0002722372 403:0.00044169967 404:8.2658808e-05 405:-0.00022010329 406:-0.0001372885 407:-0.00064558664 408:0.0074697714 409:0.00015069748 410:-0.00011240062 411:4.1741863e-05 412:0.00018846332 413:-0.0018357807 414:0.00031450696 415:-0.00070681504 416:-0.00037259801 417:5.4282675e-05 418:8.156577e-05 419:-0.0003917648 420:3.1272008e-05 421:-9.7563359e-05 422:0.00031884719 423:0.0021048852 424:0.00044823022 425:-1.126733e-05 426:0.00028991196 427:0.00069927901 428:0.00028313563 429:-0.00010159831 430:0.00049132045 431:-9.6518546e-05 432:8.3404093e-06 433:-4.5713596e-06 434:3.8735307e-05 435:5.2674684e-05 436:4.7075715e-05 437:0.00049650646 438:3.416395e-05 439:1.7280458e-05 440:-2.365911e-05 441:-0.00013858129 442:-5.8936589e-06 443:0.00024028444 444:3.7690504e-06 445:-2.6625848e-05 446:4.2504354e-05 447:0.0001775417 448:2.6273917e-06 449:-0.00033183288 450:2.8638879e-05 451:2.4387038e-05 452:-0.00036109277 453:8.7681168e-05 454:0.00024803885 455:0.00024321341 456:-6.5675104e-06 457:-9.2172479e-05 458:2.1252177e-05 459:1.0104069e-06 460:-0.00054971722 461:0.002796906 462:0.00063223357 463:-2.1423239e-05 464:6.8464564e-05 465:0.0015996298 466:-0.0017013815 467:2.9592587e-05 468:-0.00022770258 469:8.3404093e-06 470:7.4702977e-05 471:0.00024460093 472:0.0057962886 473:0.00096002873 474:-7.6910801e-05 475:9.2881317e-05 476:-4.8660495e-06 477:-0.00020062039 478:0.0016950504 479:-2.6066042e-05 480:0.00055241102 481:-2.6105861e-05 482:-1.371408e-05 483:5.5416123e-05 484:0.00031957249 485:0.00025281493 486:-4.5713596e-06 487:-2.2054488e-05 488:0.00075745169 489:0.00020959487 490:-2.3541692e-05 491:-1.1492629e-05 492:0.00014126697 493:2.9015577e-05 494:0.00012201094 495:-1.828544e-05 496:0.0023223846 497:-4.1719246e-05 498:-0.00060250837 499:1.2206299e-05 500:-8.0231041e-07 501:0.0019766246 502:1.2540809e-05 503:-0.0001337042 504:2.5823538e-05 505:-4.5713596e-06 506:0.0017455802 507:0.0011432846 508:0.0017370264 509:-7.0277034e-05 510:-1.1227512e-05 511:9.9260571e-05 512:-0.00019587199 513:0.0001099413 514:0.00025167663 515:8.0367769e-05 516:-0.00023732017 517:-0.00013178865 518:0.001105214 519:6.1389423e-05 520:0.00047754997 521:-0.00013234412 522:-0.0006929845 523:-0.0002381146 524:-0.00034111211 525:0.0042669335 526:0.00031162097 527:0.00037676841 528:0.0013982491 529:-0.00028703743 530:-0.00035554802 531:-9.7546152e-05 532:4.7075715e-05 533:0.00031667505 534:-3.3732598e-05 535:3.8549828e-05 536:3.8844515e-05 537:4.0899737e-05 538:8.3404093e-06 539:0.00030858279 540:0.00019285703 541:2.5823538e-05 542:9.5570569e-05 543:5.084477e-05 544:3.8735307e-05 545:2.8733255e-05 546:-2.2054488e-05 547:3.416395e-05 548:-1.0465019e-05 549:0.0001076037 550:9.3680192e-06 551:-3.5768571e-05 552:-1.268647e-05 553:8.5665371e-05 554:-0.00031994851 555:0.00020498855 556:0.00029188668 557:0.00025489769 558:-4.5713596e-06 559:2.5823538e-05 560:-0.00011515775 561:-2.600902e-05 562:8.1561804e-05 563:7.4132913e-05 564:0.00032620391 565:-4.5713596e-06 566:6.4264153e-05 567:5.9904996e-06 568:-6.4603621e-05 569:0.0003137821 570:-0.0012951081 571:5.3948338e-06 572:-8.0743637e-05 573:2.4467497e-06 574:0.00021688057 575:-0.00035553766 576:3.7690495e-06 577:3.8735307e-05 578:0.00051218044 579:-0.0002469086 580:0.00017981679 581:-2.2856799e-05 582:0.00059510075 583:0.00024651049 584:-0.00050797965 585:-2.0246605e-05 586:2.1252177e-05 587:2.9592587e-05 588:0.00013882022 589:-0.00016122792 590:2.5823538e-05 591:-0.00023398147 592:0.00039519262 593:-0.00010650339 594:-3.4141329e-05 595:7.2899253e-05 596:0.00016489494 597:2.5823538e-05 598:-2.5333416e-06 599:-0.00023569181 600:0.00024131207 601:-0.00035451158 602:0.00018776083 603:8.3404093e-06 604:-0.0011661116 605:2.5823538e-05 606:-0.00013538027 607:-3.5522702e-05 608:2.5823538e-05 609:5.1647075e-05 610:2.1195157e-05 611:0.0034251616 612:-0.001501798 613:5.9904996e-06 614:-6.3016079e-05 615:0.0017940527 616:0.00030362466 617:0.00015966162 618:0.00014104167 619:3.8735307e-05 620:-4.8680336e-05 621:0.0031121764 622:0.00095662003 623:0.00014470149 624:-6.6465043e-05 625:8.3404093e-06 626:-8.8298701e-05 627:0.00017081974 628:2.5823538e-05 629:0.00012454632 630:3.7690495e-06 631:-4.3058753e-05 632:2.5823538e-05 633:0.00017278148 634:-0.00059560692 635:-2.4041263e-05 636:0.00042602833 637:-1.4516389e-05 638:4.7075715e-05 639:-0.00028405144 640:0.0001233525 641:9.4513402e-05 642:7.2899253e-05 643:-4.5713596e-06 644:0.00019570337 645:-0.00014914251 646:-6.1834609e-05 647:-0.0004873531 648:0.00020601129 649:0.00031037146 650:-0.0013261072 651:0.00056864182 652:0.0019091433 653:0.0012848488 654:7.1890601e-05 655:0.00083287118 656:0.00072396622 657:3.7690504e-06 658:2.1252177e-05 659:0.00017990543 660:-9.1427191e-06 661:1.2109458e-05 662:0.00024737188 663:9.3508233e-06 664:0.00070926093 665:3.8735307e-05 666:0.00010534454 667:-9.3435723e-05 668:8.5625543e-05 669:5.3939963e-05 670:-2.2054488e-05 671:-0.00094625034 672:0.00038917456 673:2.5823538e-05 674:0.00034122466 675:-4.6924633e-05 676:-7.6318109e-05 677:0.00044736505 678:-0.00013577385 679:0.00045385849 680:-0.00052127958 681:0.001427368 682:3.1786512e-05 683:0.00017334898 684:-0.0011420556 685:-4.5713596e-06 686:-4.5713596e-06 687:-0.00028797871 688:1.7805271e-05 689:-6.8814475e-06 690:-9.0732778e-05 691:0.00026445455 692:4.8494854e-05 693:-3.6379992e-05 694:0.00028808581 695:-4.5713596e-06 696:8.3404093e-06 697:4.0154446e-05 698:0.00010493859 699:5.1647075e-05 700:-4.5713596e-06 701:-5.3736703e-06 702:-5.4054006e-05 703:-0.00012559113 704:0.00014489348 705:-3.5164107e-05 706:-0.0010408204 707:-1.1766891e-05 708:-0.0019016438 709:-0.0002401604 710:0.0014011459 711:-0.0013906521 712:-5.2509971e-05 713:-0.00054274715 714:0.00012511434 715:0.001118492 716:-0.001593038 717:-4.3081367e-05 718:1.8845247e-05 719:-5.6416284e-05 720:4.4984052e-05 721:2.8088167e-05 722:-2.1719979e-05 723:2.5823538e-05 724:7.5779162e-06 725:-3.199952e-05 726:5.9987484e-05 727:1.1081849e-05 728:2.2376629e-05 729:-4.5713596e-06 730:3.8735307e-05 731:7.1294642e-05 732:2.1643709e-05 733:1.9391293e-06 734:2.2597102e-05 735:6.5106287e-05 736:3.0640778e-05 737:-0.00013324262 738:-2.4602248e-05 739:0.0018576148 740:-4.1944546e-05 741:0.00017386611 742:-0.00028051526 743:-0.00021838046 744:0.00015550782 745:-0.00012431506 746:-1.1492629e-05 747:5.3066215e-05 748:8.6214124e-05 749:0.00092665647 750:-0.00039888988 751:-0.00056455249 752:-0.0019740998 753:0.0011128314 754:0.0002804299 755:0.0010559374 756:0.00021194808 757:-0.0003425506 758:-1.6923321e-05 759:0.00010403045 760:0.00024759368 761:0.0021513591 762:-0.00024694769 763:0.00049950404 764:-4.5713596e-06 765:2.1252177e-05 766:2.6389648e-06 767:1.6680819e-05 768:5.0844763e-05 769:0.00018109927 770:-0.00019841763 771:-3.1522191e-06 772:-9.1427191e-06 773:7.3781062e-05 774:7.209694e-05 775:0.00025177631 776:-1.9793217e-05 777:8.3404093e-06 778:8.3404093e-06 779:8.3404093e-06 780:0.00025297632 781:1.2109458e-05 782:-1.5556367e-05 783:1.8969529e-05 784:0.00076069834 785:4.4314191e-05 786:-5.3251697e-05 787:2.5920379e-05 788:2.2601929e-05 789:5.3066218e-05 790:-4.2464537e-05 791:3.8735307e-05 792:0.0015657604 793:3.8735307e-05 794:0.0024535235 795:0.00050434947 796:-0.002417308 797:0.00015647162 798:0.00026853755 799:0.00011276927 800:0.00010460184 801:0.00015137544 802:-3.3661163e-05 803:0.00045806912 804:-0.0019069844 805:2.1252177e-05 806:0.00012076009 807:2.5823538e-05 808:2.5823538e-05 809:2.1252177e-05 810:-2.4699088e-05 811:-5.2891978e-06 812:2.1252177e-05 813:0.00032852706 814:0.00046803834 815:-4.0339928e-05 816:1.3657058e-05 817:1.6680819e-05 818:3.1814037e-05 819:5.7464462e-05 820:0.00057596085 821:0.00013128211 822:0.00011299668 823:-0.00012091923 824:-0.00057271286 825:0.00051651878 826:1.414265e-05 827:7.4036077e-05 828:6.9610855e-06 829:0.00053410832 830:5.1647075e-05 831:5.1647075e-05 832:5.1647075e-05 833:6.4558844e-05 834:0.00010766283 835:0.00030483093 836:6.4558844e-05 837:4.7075715e-05 838:5.1647075e-05 839:5.1647075e-05 840:5.1647075e-05 841:5.1647075e-05 842:5.1647075e-05 843:4.2504354e-05 844:-1.2598055e-05 845:3.4498458e-05 846:0.00044487519 847:0.0010708756 848:-0.00012083643 849:-3.0237604e-06 850:-4.8737362e-05 851:0.00028862667 852:8.6596126e-05 853:-0.00013730867 854:4.9240141e-05 855:0.00016328163 856:2.5823538e-05 857:-6.811291e-05 858:-9.4084156e-05 859:-9.1997417e-06 860:-0.00031662182 861:0.00078251003 862:9.2230082e-05 863:-0.00066519494 864:0.00056369143 865:-0.0010528596 866:-0.00010179455 867:-0.00052850152 868:0.000619617 869:0.001431558 870:-4.5713596e-06 871:0.00012264702 872:0.00020710549 873:6.2151921e-05 874:-0.0015651865 875:-0.00016734477 876:0.0025448662 877:0.00016748326 878:0.00015721488 879:0.00026745771 880:-6.9667403e-05 881:-2.4743742e-05 882:7.538787e-05 883:0.00023679771 884:1.0544662e-05 885:0.0010513813 886:0.00026919082 887:-5.694111e-05 888:0.00010019413 889:2.1252177e-05 890:2.1252177e-05 891:-4.8297199e-05 892:-0.00022174977 893:8.3404093e-06 894:6.1189589e-06 895:2.5823538e-05 896:-1.0142877e-05 897:3.8735307e-05 898:8.2787265e-05 899:8.3404093e-06 900:1.35286e-05 901:0.00013995705 902:0.0007381771 903:0.00090308394 904:0.00028720216 905:-0.0001470982 906:6.0178369e-05 907:-0.00010185519 908:3.5006076e-05 909:4.1316242e-05 910:0.0014914246 911:-0.00017830534 912:-0.00014375857 913:-0.00016901185 914:0.00012848015 915:-2.6445989e-06 916:8.9580077e-05 917:-5.3736699e-06 918:-0.00043641549 919:1.8098483e-05 920:-1.4741689e-05 921:-4.5713596e-06 922:0.0023446884 923:0.00098803698 924:3.7355985e-05 925:0.00025491003 926:0.00080887688 927:-0.00092034688 928:5.1647075e-05 929:0.00034950514 930:0.00093894033 931:0.00037800765 932:0.00050144864 933:3.0042464e-05 934:6.4558844e-05 935:7.3134797e-05 936:-0.00016487263 937:0.00032357784 938:5.9185175e-05 939:-5.9722366e-05 940:7.2899253e-05 941:2.9592587e-05 942:0.00014868072 943:-0.00088891864 944:3.0951981e-06 945:-9.945029e-06 946:0.00053981628 947:0.0005046716 948:0.00017733024 949:0.00065024284 950:2.5823538e-05 951:-0.0014903051 952:0.0020002755 953:1.770756e-05 954:0.0031789716 955:-1.5318697e-05 956:-0.00025194656 957:-0.0011482117 958:-6.9760863e-05 959:5.0844763e-05 960:2.5823538e-05 961:2.379577e-05 962:4.2504354e-05 963:-0.00014701854 964:6.2493309e-05 965:-1.4516389e-05 966:0.00022773667 967:2.0449868e-05 968:0.00033253658 969:-9.7197299e-06 970:8.1239668e-05 971:8.0437356e-05 972:5.1647075e-05 973:8.3404093e-06 974:7.2899253e-05 975:5.1647075e-05 976:-1.216648e-05 977:0.0001904673 978:0.00043344099 979:7.538099e-06 980:0.0013483491 981:1.35286e-05 982:-8.5251209e-05 983:0.00041730606 984:-0.00059246609 985:0.00053642329 986:-0.00046979438 987:0.00011327901 988:0.00017141453 989:0.00030284715 990:2.1252177e-05 991:6.4558844e-05 992:-0.00013389174 993:2.4467497e-06 994:2.3602088e-05 995:-0.00011476416 996:0.00011704805 997:0.0011554166 998:1.5989759e-05 999:0.00018149544 1000:-0.00011026636 1001:1.9665797e-06 1002:6.4280102e-05 1003:-0.0020148433 1004:-1.6346308e-05 1005:-8.0230956e-07 1006:-0.0022242735 1007:-0.00060088467 1008:-0.00067684922 1009:0.00014832549 1010:7.9135127e-05 1011:-4.2580628e-05 1012:0.00073290087 1013:-1.5036378e-05 1014:-9.346733e-05 1015:8.3404093e-06 1016:-5.9242197e-05 1017:5.1404582e-05 1018:1.8196799e-05 1019:0.00016139471 1020:3.0125804e-05 1021:-4.5713596e-06 1022:-9.4944289e-06 1023:2.5823538e-05 1024:0.00051045342 1025:4.2504354e-05 1026:-0.00018476474 1027:1.4330909e-05 1028:-2.468672e-05 1029:-5.6403915e-05 1030:0.0001945901 1031:0.00032038728 1032:0.00050155108 1033:9.7237644e-05 1034:-0.00011525121 1035:-0.00015750894 1036:-0.0020016907 1037:3.4163946e-05 1038:-1.0747342e-05 1039:1.677766e-05 1040:-0.00019659739 1041:-9.3314135e-05 1042:0.00024912736 1043:2.5823538e-05 1044:-8.4477782e-05 1045:3.1814037e-05 1046:2.5823538e-05 1047:-4.5153785e-05 1048:1.1589469e-05 1049:0.0002522523 1050:0.00080987078 1051:2.5823538e-05 1052:2.5823538e-05 1053:2.5823538e-05 1054:2.5823538e-05 1055:2.5823538e-05 1056:2.5823538e-05 1057:-4.194455e-05 1058:3.416395e-05 1059:-0.00018661108 1060:-0.00053254247 1061:1.8613062e-05 1062:2.5823538e-05 1063:2.5823538e-05 1064:2.5823538e-05 1065:2.5823538e-05 1066:2.5823538e-05 1067:1.8619949e-05 1068:2.5823538e-05 1069:2.5823538e-05 1070:3.416395e-05 1071:-0.00025574691 1072:-0.00038818186 1073:-0.00013130619 1074:-0.00025604287 1075:1.6680819e-05 1076:2.5823538e-05 1077:2.5823538e-05 1078:3.8735307e-05 1079:2.5823538e-05 1080:2.5823538e-05 1081:3.3006399e-05 1082:2.5823538e-05 1083:2.5823538e-05 1084:2.5823538e-05 1085:2.5823538e-05 1086:-1.9087751e-05 1087:2.5823538e-05 1088:2.5823538e-05 1089:-8.0231041e-07 1090:3.8735307e-05 1091:2.5823538e-05 1092:-7.0625618e-05 1093:-2.932747e-05 1094:-0.0010026174 1095:0.0027279034 1096:-6.1061852e-05 1097:0.0013218102 1098:0.0015940156 1099:0.00017874829 1100:0.00018806038 1101:-5.1087267e-05 1102:-0.00012855788 1103:3.7932998e-05 1104:0.00013999686 1105:-0.00022172809 1106:9.5603442e-05 1107:0.00054881023 1108:-0.00010571009 1109:0.00018371429 1110:-8.6179934e-05 1111:-6.3044395e-06 1112:-9.8358169e-06 1113:-0.00015893982 1114:0.00058262493 1115:-5.0461226e-06 1116:2.5823538e-05 1117:3.7690495e-06 1118:0.00018385997 1119:-2.8190656e-05 1120:4.7075715e-05 1121:0.00024519089 1122:0.00032348587 1123:-4.5713596e-06 1124:-0.00048681724 1125:-2.1437656e-05 1126:8.3404093e-06 1127:8.3404093e-06 1128:7.5143333e-05 1129:-0.00020300137 1130:-2.640055e-05 1131:0.00016921513 1132:0.00016067202 1133:-0.00020549171 1134:5.1739084e-05 1135:2.5823538e-05 1136:2.5823538e-05 1137:0.00037528816 1138:-0.0003694052 1139:-0.00010476212 1140:-8.2541126e-05 1141:2.1066702e-05 1142:0.00085272116 1143:0.0022729398 1144:2.5823538e-05 1145:3.8735307e-05 1146:3.8735307e-05 1147:0.00023353277 1148:2.5823538e-05 1149:-2.3775196e-05 1150:-0.0001963542 1151:2.5823538e-05 1152:2.5823538e-05 1153:0.00048678793 1154:0.00043000627 1155:3.4780776e-05 1156:3.1011732e-05 1157:2.7242679e-05 1158:0.00057228381 1159:0.00020780813 1160:0.00021120285 1161:0.00053696387 1162:2.5823538e-05 1163:3.4163946e-05 1164:0.00016605054 1165:-0.00021634447 1166:0.00021153604 1167:3.0954703e-05 1168:-2.1212361e-05 1169:-1.1407568e-05 1170:0.0010885359 1171:-0.00010038347 1172:0.00011002995 1173:0.00071104011 1174:-8.9933164e-05 1175:0.00028880677 1176:-0.00017187149 1177:-0.000503271 1178:-1.7160988e-05 1179:4.7635527e-05 1180:-0.00012547168 1181:-0.00015624297 1182:1.5653208e-05 1183:-9.0675756e-05 1184:-1.8285438e-05 1185:2.5823538e-05 1186:3.8735307e-05 1187:8.3404093e-06 1188:2.4501238e-05 1189:1.7632156e-05 1190:0.00019792914 1191:3.4295772e-05 1192:0.00046859664 1193:-0.00014044205 1194:2.5823538e-05 1195:2.5823538e-05 1196:-1.1492629e-05 1197:-9.1427191e-06 1198:9.3349125e-05 1199:4.7075715e-05 1200:2.8564978e-05 1201:2.4875564e-05 1202:-0.00016762433 1203:-1.3222995e-06 1204:4.6273406e-05 1205:0.00028254083 1206:0.00031499096 1207:8.2399107e-05 1208:-4.629061e-05 1209:-0.00040638944 1210:0.00088654761 1211:-2.6994752e-05 1212:-0.001092589 1213:4.0793904e-05 1214:2.5823538e-05 1215:-0.0010546406 1216:-0.00045798655 1217:0.00064978405 1218:-0.0013945801 1219:-0.00027383061 1220:-0.00010185035 1221:0.0003079439 1222:2.9592587e-05 1223:6.2337393e-05 1224:0.00035652536 1225:0.00019248527 1226:8.1239661e-05 1227:0.00011620592 1228:-3.5684094e-05 1229:0.00012820134 1230:-7.2634139e-05 1231:-2.3844588e-05 1232:-3.1197207e-05 1233:2.1252177e-05 1234:-9.1427191e-06 1235:2.5823538e-05 1236:2.1252177e-05 1237:-3.9537616e-05 1238:0.0022455349 1239:2.5823538e-05 1240:3.8735307e-05 1241:3.8735307e-05 1242:9.0382389e-05 1243:0.00013208443 1244:5.5416123e-05 1245:-5.9670179e-05 1246:3.6513859e-05 1247:0.00027186962 1248:1.2262473e-05 1249:0.00036075321 1250:0.00015352546 1251:-7.7304612e-06 1252:0.00020505849 1253:2.0264388e-05 1254:-0.00037920379 1255:0.00069299934 1256:6.4558844e-05 1257:0.00027508449 1258:3.4780776e-05 1259:0.00018453381 1260:3.8735307e-05 1261:0.00011460131 1262:3.8735307e-05 1263:1.4191409e-06 1264:5.1647075e-05 1265:4.7075715e-05 1266:6.4558844e-05 1267:0.00038112004 1268:-2.0543343e-05 1269:6.4558844e-05 1270:6.4558844e-05 1271:0.00010484175 1272:7.7470613e-05 1273:-0.0002316319 1274:3.6060213e-05 1275:2.3610286e-05 1276:4.1707463e-05 1277:-0.0034435918 1278:6.6899753e-05 1279:3.8480433e-05 1280:4.1182058e-05 1281:5.1647075e-05 1282:-0.00010173835 1283:-9.6142161e-05 1284:-2.6625848e-05 1285:-2.8975757e-05 1286:6.7750887e-05 1287:-0.00040538269 1288:6.969001e-05 1289:-9.7413824e-05 1290:7.7217795e-05 1291:6.9170019e-05 1292:3.7690495e-06 1293:-1.9313049e-05 1294:-2.5206709e-05 1295:2.5823538e-05 1296:0.00047500723 1297:3.4163946e-05 1298:3.0620198e-05 1299:1.1012461e-05 1300:3.0620198e-05 1301:-7.9837722e-05 1302:0.00044869151 1303:1.1199095e-05 1304:0.0001761934 1305:2.2146496e-05 1306:0.00023928427 1307:0.00070200663 1308:0.00029324146 1309:0.00010249185 1310:-4.8680336e-05 1311:0.00015766884 1312:-3.1522197e-06 1313:2.5823538e-05 1314:-0.00026085469 1315:1.4461284e-05 1316:0.0031191667 1317:8.3404093e-06 1318:3.7932998e-05 1319:0.001860498 1320:6.0732771e-05 1321:0.00010809081 1322:-7.0875008e-06 1323:2.5823538e-05 1324:8.6712222e-05 1325:3.7690504e-06 1326:-0.00020022347 1327:3.8735307e-05 1328:7.01811e-06 1329:-7.2339448e-05 1330:0.00014018234 1331:-1.371408e-05 1332:5.9904996e-06 1333:0.00016430924 1334:4.8494854e-05 1335:3.6632077e-06 1336:-3.5116755e-05 1337:2.6851149e-05 1338:1.7002958e-05 1339:8.3404093e-06 1340:2.5823538e-05 1341:-1.371408e-05 1342:5.9904996e-06 1343:2.5823538e-05 1344:-0.00019306454 1345:-0.00073902594 1346:-0.00014875163 1347:0.0022313485 1348:0.0024095776 1349:0.00042274789 1350:0.00035130556 1351:0.00021818129 1352:-9.3794304e-05 1353:1.2109458e-05 1354:0.00019057651 1355:-0.0012206517 1356:0.00062709197 1357:0.00018958855 1358:0.00048910989 1359:3.5491705e-06 1360:-8.9012065e-05 1361:0.00039804657 1362:6.3973552e-05 1363:0.00069237099 1364:0.0019128999 1365:1.3657059e-05 1366:0.00054103648 1367:6.7956935e-05 1368:5.1647075e-05 1369:0.00093798776 1370:0.00017223887 1371:2.1252177e-05 1372:2.5823538e-05 1373:0.00094419182 1374:-4.5713596e-06 1375:-4.5713596e-06 1376:3.8735307e-05 1377:3.7690495e-06 1378:3.8610492e-06 1379:-1.6024169e-05 1380:1.2109458e-05 1381:-0.00011905201 1382:0.00028516262 1383:0.00010329415 1384:6.4558844e-05 1385:4.496552e-05 1386:-4.7924801e-05 1387:0.00025056186 1388:-9.1427191e-06 1389:0.00043974878 1390:2.2799779e-05 1391:6.8944726e-05 1392:3.7932998e-05 1393:0.00030485241 1394:0.0010895896 1395:-0.00013417406 1396:0.00025127971 1397:3.416395e-05 1398:0.0022332065 1399:6.610644e-05 1400:-6.4038279e-05 1401:0.00010191483 1402:-9.6800861e-05 1403:9.267046e-05 1404:2.5823538e-05 1405:3.8735307e-05 1406:0.00023846889 1407:0.00067359902 1408:0.00018867925 1409:0.00083589193 1410:0.00020416621 1411:0.00083274324 1412:0.00043647966 1413:0.0006843016 1414:-5.1324936e-05 1415:0.0010344818 1416:-0.0016726082 1417:-0.000298258 1418:-4.3566368e-05 1419:-7.4114563e-05 1420:2.2799777e-05 1421:-2.6625848e-05 1422:-1.3097248e-05 1423:0.00067887834 1424:0.0001205918 1425:0.00020041232 1426:0.00021035736 1427:-3.1999516e-05 1428:0.00022206199 1429:-3.5768568e-05 1430:0.00010249185 1431:0.00019052433 1432:5.5416123e-05 1433:-3.0142144e-05 1434:8.3404093e-06 1435:-2.5598238e-05 1436:5.6963723e-05 1437:0.00011837578 1438:3.7355985e-05 1439:0.00076377124 1440:0.00032598627 1441:0.0001306653 1442:-3.9948394e-05 1443:-8.0231041e-07 1444:-4.5713596e-06 1445:0.00023968126 1446:-2.7838942e-05 1447:0.00020720514 1448:2.7242679e-05 1449:-8.4332816e-05 1450:0.00021729431 1451:1.6680819e-05 1452:1.4982722e-05 1453:7.7633968e-06 1454:2.1481459e-05 1455:5.1647075e-05 1456:0.0015500344 1457:0.001209698 1458:0.0011119582 1459:2.5823538e-05 1460:2.5823538e-05 1461:0.00021640005 1462:2.2279788e-05 1463:0.00017864016 1464:0.00090836076 1465:0.00012831538 1466:0.00050621299 1467:0.00070744904 1468:5.0473813e-05 1469:3.416395e-05 1470:0.0024204284 1471:0.00082858832 1472:0.00017876862 1473:-0.0001052993 1474:0.00019892717 1475:8.3404093e-06 1476:-0.00027868751 1477:0.00070582336 1478:1.9969701e-05 1479:-1.3222995e-06 1480:-1.8299201e-06 1481:4.7075715e-05 1482:8.3404093e-06 1483:0.00064945157 1484:-0.00011909547 1485:0.00025241976 1486:0.0001962336 1487:-5.1232928e-05 1488:-0.00010092645 1489:-4.3258078e-05 1490:2.5823538e-05 1491:0.0010486252 1492:0.00068870268 1493:0.0024057957 1494:-4.308825e-05 1495:-0.00025152645 1496:5.213944e-05 1497:3.8198108e-05 1498:8.3404093e-06 1499:8.3404093e-06 1500:4.5158315e-05 1501:5.0042458e-05 1502:-0.00022760025 1503:0.00020604422 1504:0.00016011223 1505:3.0337882e-05 1506:7.9147911e-05 1507:-0.00012738124 1508:2.1252177e-05 1509:-9.1427191e-06 1510:-2.2054488e-05 1511:0.00025890095 1512:2.5823538e-05 1513:0.00057459396 1514:2.7242679e-05 1515:-5.9162558e-05 1516:2.1252177e-05 1517:3.8735307e-05 1518:8.3404093e-06 1519:-9.0656504e-05 1520:-0.00015004304 1521:8.3404093e-06 1522:0.00028817068 1523:-0.00096555648 1524:0.0014916047 1525:8.3404093e-06 1526:6.3756532e-05 1527:0.0019098051 1528:0.00011316291 1529:7.1273193e-06 1530:0.00016350693 1531:2.0811827e-05 1532:-4.5713596e-06 1533:1.4330909e-05 1534:2.8270288e-05 1535:0.00012577999 1536:7.538099e-06 1537:6.4558844e-05 1538:3.8735307e-05 1539:-4.5713596e-06 1540:-4.5713596e-06 1541:0.00053330261 1542:8.3404093e-06 1543:-0.0018061809 1544:-9.9187222e-05 1545:-1.3222995e-06 1546:1.6251919e-06 1547:0.000873329 1548:0.00010329415 1549:-5.8812902e-06 1550:7.7470613e-05 1551:-0.00013907172 1552:2.5823538e-05 1553:0.00012557395 1554:6.5104887e-06 1555:0.00017245037 1556:5.8871236e-05 1557:4.7075715e-05 1558:-0.00031221361 1559:-0.0011614972 1560:0.00012163998 1561:0.00026006045 1562:0.0015551524 1563:-0.0010140437 1564:-4.5713596e-06 1565:4.7075715e-05 1566:-4.5713596e-06 1567:2.5638057e-05 1568:8.3404093e-06 1569:0.00083559664 1570:0.00059822889 1571:9.3349125e-05 1572:-1.2871947e-05 1573:7.7324956e-05 1574:6.5104887e-06 1575:3.7690495e-06 1576:-0.00012820895 1577:0.00022192961 1578:-0.0001104957 1579:-6.8627422e-05 1580:0.00017640075 1581:-0.00078125537 1582:0.00010568388 1583:3.0276688e-05 1584:0.00011163456 1585:1.3233908e-05 1586:-0.00010691291 1587:0.00019612329 1588:0.00023618089 1589:0.00037248083 1590:-0.00035819909 1591:0.0018095627 1592:0.00023864205 1593:-2.9952932e-07 1594:-2.7201624e-05 1595:0.00033464859 1596:-1.2328098e-05 1597:7.6668301e-05 1598:5.4093824e-05 1599:-4.5713596e-06 1600:6.3756539e-05 1601:-0.00071841665 1602:1.9422258e-05 1603:-7.2987888e-05 1604:0.00068715838 1605:8.5811022e-05 1606:0.00052822364 1607:2.5823538e-05 1608:0.00067995599 1609:7.1854447e-05 1610:9.1825359e-06 1611:0.00073532492 1612:0.00012454634 1613:3.7690504e-06 1614:-2.7312068e-05 1615:5.7580561e-05 1616:3.9859755e-05 1617:-6.7928099e-06 1618:-1.6046208e-06 1619:3.530896e-05 1620:2.5823538e-05 1621:1.6680819e-05 1622:-0.0023616196 1623:-0.00035464292 1624:8.3404093e-06 1625:8.3404093e-06 1626:1.2109458e-05 1627:-2.5989768e-05 1628:0.00010008492 1629:-0.00018519741 1630:-0.00013473255 1631:-7.0751321e-06 1632:-5.7488549e-05 1633:0.0001479732 1634:-0.00020758509 1635:-4.8503862e-05 1636:3.4780776e-05 1637:2.7057195e-05 1638:0.00068358151 1639:2.5823538e-05 1640:-9.1427191e-06 1641:8.5822583e-05 1642:-6.2520827e-05 1643:2.1252177e-05 1644:2.5823538e-05 1645:1.3528597e-05 1646:8.3404093e-06 1647:-8.2435681e-06 1648:-0.00056828465 1649:2.5823538e-05 1650:0.00031732771 1651:4.8458409e-05 1652:-0.00017037218 1653:2.9592587e-05 1654:0.00011997497 1655:0.00025528416 1656:2.8790277e-05 1657:2.8048345e-05 1658:-7.0728085e-05 1659:0.00084157148 1660:-0.00014937871 1661:2.5823538e-05 1662:6.1857223e-05 1663:4.7748821e-05 1664:-1.3222995e-06 1665:0.00022964421 1666:-0.00010157828 1667:0.0018236862 1668:7.6999233e-05 1669:1.0690318e-05 1670:6.4558844e-05 1671:1.2109458e-05 1672:7.4643322e-05 1673:7.0374132e-05 1674:0.00010142983 1675:8.3404093e-06 1676:-0.00036482917 1677:0.00013208443 1678:-5.8936589e-06 1679:4.3051798e-05 1680:9.6315867e-05 1681:0.0002675546 1682:6.7768662e-05 1683:-0.00051455444 1684:1.6680819e-05 1685:5.4613814e-05 1686:-3.3841807e-05 1687:3.8735307e-05 1688:0.00042144279 1689:-4.4108976e-05 1690:1.1081849e-05 1691:4.6313224e-05 1692:0.00049596385 1693:2.1195163e-05 1694:-0.00019657744 1695:0.00032837599 1696:0.00063510454 1697:-0.00017774459 1698:-2.9951957e-07 1699:0.00012289743 1700:0.00017081974 1701:-7.4878997e-05 1702:0.00021190496 1703:4.7075715e-05 1704:2.9592587e-05 1705:0.0002095653 1706:5.9987484e-05 1707:-0.00019300752 1708:7.2616931e-05 1709:9.5738847e-05 1710:0.00020463533 1711:-9.4522395e-05 1712:-0.00058822776 1713:2.5823538e-05 1714:-7.6267374e-06 1715:-0.00024758151 1716:-5.3736703e-06 1717:-7.3337571e-05 1718:5.0844763e-05 1719:-0.0014707749 1720:-0.00028670835 1721:0.00017957429 1722:-0.00059714523 1723:1.6680819e-05 1724:0.00015929941 1725:-5.1877279e-05 1726:-7.5951189e-06 1727:3.8735307e-05 1728:2.5823538e-05 1729:0.00013463007 1730:-0.00026679772 1731:5.1647075e-05 1732:3.7690495e-06 1733:7.538099e-06 1734:9.4151437e-05 1735:-9.1427191e-06 1736:0.00044135546 1737:0.00042305558 1738:0.00011002995 1739:0.00033541798 1740:0.00044159108 1741:2.5021229e-05 1742:0.00031612089 1743:2.5823538e-05 1744:-1.451639e-05 1745:-8.411103e-05 1746:0.00012812989 1747:6.1406623e-05 1748:3.8735307e-05 1749:1.7240627e-05 1750:5.4613814e-05 1751:-0.00025713714 1752:0.00054804422 1753:2.406089e-05 1754:2.9632409e-05 1755:-2.0602554e-05 1756:0.00040949884 1757:0.00042836057 1758:3.8735307e-05 1759:-0.00017122026 1760:-2.310089e-06 1761:-1.9144773e-05 1762:4.7075715e-05 1763:0.0001374581 1764:-3.1197207e-05 1765:-2.2220718e-05 1766:1.3939379e-05 1767:-1.0239717e-05 1768:0.00015498104 1769:0.00011327901 1770:0.00066146004 1771:0.00028587165 1772:-5.7640365e-05 1773:0.00070266268 1774:-0.00040186066 1775:0.00054514816 1776:7.2899253e-05 1777:0.00051677192 1778:-8.8011904e-05 1779:9.6138865e-06 1780:2.5823538e-05 1781:3.8735307e-05 1782:2.5823538e-05 1783:2.5823538e-05 1784:2.5823538e-05 1785:2.4444218e-05 1786:6.4316344e-05 1787:-0.0001483511 1788:-1.3222995e-06 1789:-1.0912244e-05 1790:2.5823538e-05 1791:-1.9890062e-05 1792:8.6427855e-05 1793:0.00032963228 1794:0.0014356775 1795:2.5823538e-05 1796:5.1327526e-05 1797:0.00026525685 1798:-0.00067224517 1799:3.8735307e-05 1800:9.872279e-05 1801:2.5823538e-05 1802:-7.6910808e-05 1803:-6.1653962e-05 1804:9.0721587e-05 1805:-4.5713596e-06 1806:7.7695913e-05 1807:-7.0675123e-05 1808:-0.00011115381 1809:3.8735307e-05 1810:0.00054513465 1811:0.00024144183 1812:0.00029038597 1813:-5.7823054e-05 1814:8.3404093e-06 1815:3.3361637e-05 1816:-0.00011764226 1817:0.00020206497 1818:0.00016214261 1819:0.00011212141 1820:0.0001953328 1821:5.2638232e-05 1822:-3.7031794e-05 1823:6.4558844e-05 1824:-8.6053529e-05 1825:-0.00031287203 1826:-0.00030085811 1827:0.00056078838 1828:-3.8078655e-05 1829:0.00052920106 1830:8.3404093e-06 1831:2.5823538e-05 1832:-4.2395146e-05 1833:8.3589577e-05 1834:2.9592587e-05 1835:3.8735307e-05 1836:0.0002544093 1837:0.00059089193 1838:9.2754701e-05 1839:0.0011154194 1840:3.9334176e-05 1841:0.0001109607 1842:0.00037716556 1843:3.8658909e-06 1844:-0.00079905521 1845:2.9667417e-05 1846:-0.0011628581 1847:5.3009193e-05 1848:2.5823538e-05 1849:-4.5938898e-05 1850:-0.00010411366 1851:2.5823538e-05 1852:2.1252177e-05 1853:2.5823538e-05 1854:-4.8723314e-06 1855:7.16902e-05 1856:0.00059626153 1857:0.00042151808 1858:-0.00011624322 1859:-0.00013918993 1860:0.00036774873 1861:0.00063903665 1862:2.5823538e-05 1863:2.5823538e-05 1864:1.9929879e-05 1865:2.1252177e-05 1866:2.5823538e-05 1867:2.5823538e-05 1868:3.8735307e-05 1869:8.7623732e-05 1870:0.00011865267 1871:4.7075715e-05 1872:9.4976363e-05 1873:-1.333975e-05 1874:2.5823538e-05 1875:0.00011620592 1876:-0.00025599077 1877:-9.1427191e-06 1878:0.00017403235 1879:2.5823538e-05 1880:7.1576957e-05 1881:5.7637575e-05 1882:1.4878356e-05 1883:5.4988152e-05 1884:-2.6625848e-05 1885:8.3404093e-06 1886:5.9185175e-05 1887:1.2109458e-05 1888:2.5823538e-05 1889:2.7987964e-05 1890:3.7690495e-06 1891:0.00059534563 1892:-4.5713596e-06 1893:-1.3929122e-05 1894:0.00021439951 1895:-4.8229736e-05 1896:0.00015617826 1897:0.00059950486 1898:0.00010014194 1899:0.00042498991 1900:-3.5208755e-05 1901:0.00017204104 1902:-1.8299196e-06 1903:0.00012199374 1904:4.6682003e-06 1905:0.00010484175 1906:2.1252177e-05 1907:-0.00021939514 1908:2.5823538e-05 1909:0.00016807829 1910:6.4558844e-05 1911:8.9580077e-05 1912:3.7690504e-06 1913:-1.5556367e-05 1914:0.00063590374 1915:4.3854106e-05 1916:-8.7093267e-06 1917:1.8545716e-05 1918:-7.8475605e-05 1919:-3.7610855e-05 1920:-2.2054488e-05 1921:4.519902e-05 1922:0.00043518431 1923:-5.3865155e-05 1924:-0.00021989517 1925:0.00087359478 1926:-7.8943507e-05 1927:3.8735307e-05 1928:0.00022119671 1929:0.00051302084 1930:1.6680819e-05 1931:-1.9087245e-05 1932:7.6668301e-05 1933:0.00016175184 1934:7.4318392e-05 1935:2.5021229e-05 1936:4.5245793e-05 1937:1.3939379e-05 1938:0.00012265939 1939:4.2504354e-05 1940:6.3756532e-05 1941:5.9185175e-05 1942:2.1252177e-05 1943:9.7920485e-05 1944:0.00018444723 1945:8.6036322e-05 1946:3.7413007e-05 1947:0.00011867531 1948:3.7690504e-06 1949:-4.7446672e-05 1950:2.1252177e-05 1951:2.5823538e-05 1952:-8.0231041e-07 1953:4.7075715e-05 1954:-5.5993136e-05 1955:0.0010799258 1956:0.00052515318 1957:-0.0013073826 1958:9.872279e-05 1959:3.7932998e-05 1960:8.6480046e-05 1961:4.5188779e-05 1962:-9.7714619e-05 1963:-1.5036378e-05 1964:0.00017156503 1965:-3.3841807e-05 1966:2.5823538e-05 1967:0.00044182123 1968:0.00010848235 1969:0.00011490814 1970:-4.8962655e-05 1971:-2.315149e-05 1972:-4.7067515e-05 1973:0.0010702368 1974:1.6680819e-05 1975:-0.00011698078 1976:2.5823538e-05 1977:-4.5713596e-06 1978:0.00060473604 1979:0.00055036269 1980:3.7690504e-06 1981:3.628161e-05 1982:8.3404093e-06 1983:8.3404093e-06 1984:1.02761e-06 1985:0.00028015656 1986:-0.00010998345 1987:-2.4069304e-06 1988:0.00024946756 1989:0.00011962326 1990:-0.00056191604 1991:-8.6053529e-05 1992:-1.8299201e-06 1993:6.4316344e-05 1994:2.2388997e-05 1995:2.5823538e-05 1996:2.8564978e-05 1997:-0.0001704544 1998:-7.5951189e-06 1999:0.0003557849 2000:1.1589469e-05 2001:9.2586633e-05 2002:-3.01696e-05 2003:-4.5713596e-06 2004:9.7595494e-06 2005:-1.8681139e-05 2006:-0.00086693006 2007:0.00010443434 2008:-3.3106189e-05 2009:0.00018005929 2010:0.00018686653 2011:0.00028134134 2012:2.7414396e-06 2013:3.8735307e-05 2014:4.4914646e-05 2015:8.3404093e-06 2016:8.3404093e-06 2017:-4.5713596e-06 2018:-2.2054488e-05 2019:8.9572395e-06 2020:0.00012458615 2021:0.0002966958 2022:-2.7838938e-05 2023:3.7690495e-06 2024:3.4273158e-05 2025:6.5104887e-06 2026:-2.6322323e-06 2027:-3.4866051e-05 2028:2.5823538e-05 2029:1.6680819e-05 2030:0.00019843673 2031:-9.5759584e-05 2032:-4.5713596e-06 2033:-1.6063988e-05 2034:5.7637575e-05 2035:6.8314061e-05 2036:-4.7500333e-05 2037:-2.3433809e-05 2038:2.0449868e-05 2039:8.3597042e-05 2040:5.1647075e-05 2041:-9.1427191e-06 2042:0.00047147289 2043:0.0003774114 2044:-0.0026556451 2045:-5.9008697e-05 2046:-0.00038368386 2047:-0.0012872274 2048:0.0003521099 2049:9.415143e-05 2050:-1.373128e-05 2051:-8.0002617e-05 2052:0.00021840307 2053:7.1576957e-05 2054:0.00014783448 2055:-0.00025418063 2056:-6.0621518e-05 2057:-6.0172966e-05 2058:2.5823538e-05 2059:-2.4275938e-05 2060:2.0449868e-05 2061:0.00013208443 2062:8.3404093e-06 2063:0.00036191076 2064:4.9240152e-05 2065:2.1811995e-05 2066:0.0016020457 2067:0.0012059415 2068:-0.0001779321 2069:3.8735307e-05 2070:2.1252177e-05 2071:2.1644303e-06 2072:3.8735307e-05 2073:2.5823538e-05 2074:2.5823538e-05 2075:1.0826981e-05 2076:0.00014003458 2077:-6.4929802e-05 2078:5.7734414e-05 2079:2.1252177e-05 2080:0.0002945828 2081:0.00061631523 2082:0.0002181537 2083:0.0020280853 2084:5.1647075e-05 2085:-4.5713596e-06 2086:0.00053314655 2087:4.5471097e-05 2088:-0.00017783447 2089:0.00022769482 2090:0.00016760018 2091:-2.5558418e-05 2092:-0.00019832212 2093:-0.00030267343 2094:-0.00038044839 2095:-0.00014199242 2096:2.5823538e-05 2097:-1.583869e-05 2098:-2.845577e-05 2099:3.8735307e-05 2100:8.3404093e-06 2101:-6.2522871e-05 2102:-4.5713596e-06 2103:-4.1610041e-05 2104:-1.4516389e-05 2105:8.3404093e-06 2106:0.00081909972 2107:-4.3492146e-05 2108:-4.3221144e-06 2109:1.4191409e-06 2110:8.3404093e-06 2111:-7.5951189e-06 2112:-2.5078249e-05 2113:0.00054379064 2114:5.6246023e-05 2115:2.477873e-05 2116:0.0011669229 2117:0.0006048443 2118:2.5823538e-05 2119:-0.00256558 2120:-4.2041389e-05 2121:-1.2824763e-06 2122:5.8382859e-05 2123:0.00031012733 2124:0.00030063931 2125:-4.3626551e-05 2126:1.2109458e-05 2127:-0.00013424344 2128:-0.00015902905 2129:-2.9032781e-05 2130:-5.3736703e-06 2131:-1.6571608e-05 2132:9.0382389e-05 2133:3.7932998e-05 2134:-5.0385963e-05 2135:-3.0424475e-05 2136:2.7414396e-06 2137:-4.5745215e-05 2138:2.5823538e-05 2139:6.3766798e-05 2140:0.00034845696 2141:3.9520419e-05 2142:4.2504354e-05 2143:-1.9721772e-05 2144:-1.6209642e-05 2145:0.00035888012 2146:-0.00076662208 2147:-7.1029513e-05 2148:2.8270288e-05 2149:-0.00014867325 2150:0.00020679436 2151:0.00027476344 2152:9.2829134e-05 2153:8.3404093e-06 2154:-0.00016494328 2155:-0.0020120102 2156:2.8790277e-05 2157:7.01811e-06 2158:0.00024538187 2159:8.0171485e-05 2160:0.00031800431 2161:-0.00092348759 2162:0.00026282441 2163:0.0001177047 2164:9.4151437e-05 2165:-1.5427908e-05 2166:0.0003020805 2167:-7.4072523e-05 2168:5.1647075e-05 2169:0.00038347818 2170:2.1252177e-05 2171:-0.0008609714 2172:1.2109458e-05 2173:-0.00023531614 2174:2.5823538e-05 2175:4.7075715e-05 2176:2.5823538e-05 2177:8.3404093e-06 2178:1.0218351e-05 2179:0.00032495867 2180:0.00033410135 2181:8.6475869e-05 2182:2.3178938e-05 2183:5.1647075e-05 2184:2.2896618e-05 2185:-6.5938169e-05 2186:3.7690495e-06 2187:-0.00027952401 2188:-3.9087015e-05 2189:1.9422258e-05 2190:-0.00015952979 2191:-1.3282734e-05 2192:0.00019746822 2193:3.4163946e-05 2194:0.00014045228 2195:2.4534176e-05 2196:-1.371408e-05 2197:4.8143149e-05 2198:-5.4054006e-05 2199:-1.7430939e-05 2200:5.1647075e-05 2201:8.3404093e-06 2202:-9.1427191e-06 2203:-4.4108976e-05 2204:2.5021229e-05 2205:4.3005097e-05 2206:3.8735307e-05 2207:4.7075715e-05 2208:0.000531547 2209:0.00053096999 2210:9.3885856e-06 2211:-4.8536813e-06 2212:-3.9955357e-05 2213:-0.00020602644 2214:-4.1210489e-05 2215:-3.7090867e-05 2216:6.3756539e-05 2217:7.4811581e-08 2218:5.2771524e-05 2219:2.5823538e-05 2220:-3.2214561e-05 2221:-2.640055e-05 2222:7.7921221e-05 2223:0.00021616984 2224:3.3470846e-05 2225:-4.5713596e-06 2226:-0.00082402746 2227:0.00018736722 2228:2.5823538e-05 2229:2.5823538e-05 2230:-0.00014157423 2231:0.00031482815 2232:-0.00028581198 2233:2.5823538e-05 2234:-2.6976237e-05 2235:6.2954226e-05 2236:0.00026054881 2237:-8.0642822e-05 2238:-7.0558344e-05 2239:5.1647075e-05 2240:-4.5713596e-06 2241:7.5571304e-05 2242:0.00049069989 2243:8.5850843e-05 2244:-1.097264e-05 2245:2.5823538e-05 2246:7.2899253e-05 2247:1.2109458e-05 2248:0.00011299668 2249:-7.3250965e-05 2250:-1.5543999e-05 2251:-4.2368511e-06 2252:2.9592587e-05 2253:3.416395e-05 2254:3.8735307e-05 2255:0.00013024214 2256:2.5823538e-05 2257:-2.2214501e-06 2258:-1.5330474e-05 2259:2.5823538e-05 2260:4.821254e-05 2261:-1.136417e-05 2262:0.00021986409 2263:8.3404093e-06 2264:0.00029975048 2265:2.9592587e-05 2266:-4.5205976e-05 2267:0.00012242173 2268:-0.00080662151 2269:-2.9032777e-05 2270:-0.00031699066 2271:-0.00064217404 2272:1.2109458e-05 2273:4.7075715e-05 2274:0.00018997403 2275:0.0012348549 2276:2.1644303e-06 2277:3.6513859e-05 2278:5.838287e-05 2279:-0.00076464738 2280:-0.00013972633 2281:3.2841646e-05 2282:-5.1889583e-05 2283:9.3680192e-06 2284:0.00011997497 2285:-0.00036079809 2286:-4.2972155e-05 2287:-0.0004434445 2288:0.00022413641 2289:-1.6452144e-05 2290:-0.00012460964 2291:-3.811848e-05 2292:2.1032483e-06 2293:-8.41316e-05 2294:4.7075715e-05 2295:-3.2519507e-05 2296:9.7595494e-06 2297:-0.00013476548 2298:0.00017492329 2299:-0.00022863738 2300:-1.5556367e-05 2301:2.2279788e-05 2302:-6.8667236e-05 2303:3.8735307e-05 2304:2.5823538e-05 2305:2.5823538e-05 2306:2.1252177e-05 2307:2.2279788e-05 2308:2.5823538e-05 2309:8.7147464e-06 2310:-1.4281435e-06 2311:-0.00036785117 2312:8.3404093e-06 2313:0.00046270841 2314:3.0826242e-05 2315:-6.6204843e-06 2316:-0.00038049134 2317:2.5823538e-05 2318:2.1869011e-05 2319:1.2109458e-05 2320:6.2157978e-06 2321:1.2629449e-05 2322:-8.1160026e-05 2323:0.00021415239 2324:-0.00013096481 2325:0.00026070126 2326:3.7690495e-06 2327:2.9592587e-05 2328:3.9762916e-05 2329:0.00055576587 2330:7.8865327e-05 2331:0.00028967773 2332:-0.00031402186 2333:1.8902268e-05 2334:-9.1919399e-05 2335:7.9860351e-05 2336:9.9282595e-05 2337:4.7075715e-05 2338:8.3404093e-06 2339:2.5823538e-05 2340:8.7866247e-05 2341:-4.1142237e-05 2342:7.1294635e-05 2343:2.5823538e-05 2344:0.00033642171 2345:0.00031802017 2346:0.00025767411 2347:2.9592587e-05 2348:-0.00018599557 2349:-0.00013721839 2350:2.5823538e-05 2351:2.5823538e-05 2352:2.5823538e-05 2353:0.00090334489 2354:-9.3423347e-05 2355:2.5823538e-05 2356:-0.0025821114 2357:0.00048289809 2358:-0.0002391059 2359:0.00022875944 2360:0.00023470118 2361:1.6444396e-06 2362:-0.00030401794 2363:0.00010144143 2364:-1.371408e-05 2365:7.9860351e-05 2366:0.00010316775 2367:4.4051962e-05 2368:3.3980909e-06 2369:2.5823538e-05 2370:3.416395e-05 2371:0.00014824525 2372:-2.0410051e-05 2373:-7.0117996e-05 2374:1.2540812e-05 2375:0.00018795115 2376:1.9391287e-06 2377:-4.5713596e-06 2378:4.7075715e-05 2379:1.7748251e-05 2380:2.9592587e-05 2381:2.1252177e-05 2382:-3.7990019e-05 2383:1.5878508e-05 2384:-2.5738414e-05 2385:8.5811022e-05 2386:-0.00043209273 2387:-0.00080275536 2388:-0.00014013915 2389:-5.6639539e-05 2390:0.00011185986 2391:-0.00050825003 2392:6.4558844e-05 2393:-0.00024633278 2394:3.7549667e-05 2395:1.6438316e-05 2396:-1.8805427e-05 2397:2.4467504e-06 2398:-9.1427191e-06 2399:-4.1142237e-05 2400:-3.1522191e-06 2401:8.3404093e-06 2402:0.00068412442 2403:7.01811e-06 2404:-0.00013666479 2405:-0.00023255211 2406:-0.0022833559 2407:-0.00016230565 2408:-2.7710483e-05 2409:6.3503376e-06 2410:0.0003858406 2411:-4.2984018e-05 2412:0.00010172934 2413:-0.00017673059 2414:0.00037399612 2415:1.1081849e-05 2416:5.356465e-06 2417:1.6680819e-05 2418:-4.0396939e-05 2419:1.5475997e-06 2420:-1.2294941e-05 2421:3.1814037e-05 2422:7.1968483e-05 2423:-2.4721112e-05 2424:5.7862879e-05 2425:-9.915077e-05 2426:-6.3196727e-05 2427:3.7690495e-06 2428:-2.4912018e-05 2429:-0.0001807724 2430:-9.1427191e-06 2431:0.00015715089 2432:-5.3086133e-05 2433:-8.1350321e-05 2434:-0.00010512742 2435:8.3404093e-06 2436:-8.0231041e-07 2437:-0.00011857303 2438:-0.00032223942 2439:7.5381008e-06 2440:6.2728926e-05 2441:2.5823538e-05 2442:2.5823538e-05 2443:2.5823538e-05 2444:0.00011105755 2445:6.6434543e-05 2446:0.00011850701 2447:0.00014287158 2448:-9.4250418e-06 2449:2.5823538e-05 2450:0.0001003802 2451:0.00028187729 2452:6.4558844e-05 2453:8.8891693e-06 2454:2.5823538e-05 2455:2.5823538e-05 2456:2.5823538e-05 2457:2.5823538e-05 2458:0.00014075935 2459:2.1252177e-05 2460:0.00015738797 2461:-6.4827582e-05 2462:2.5823538e-05 2463:2.5823538e-05 2464:2.5823538e-05 2465:6.0732771e-05 2466:2.5823538e-05 2467:-0.00078699028 2468:0.00017869235 2469:0.00037905294 2470:-3.7218782e-05 2471:4.7343092e-05 2472:0.0010406364 2473:-0.0001148438 2474:8.3404093e-06 2475:-8.0230956e-07 2476:0.00020957767 2477:2.5823538e-05 2478:-0.00027674073 2479:2.5823538e-05 2480:-3.6068093e-05 2481:-5.6795448e-05 2482:-2.2214501e-06 2483:-2.2054488e-05 2484:-0.0024833267 2485:-6.0903836e-05 2486:0.00019632664 2487:7.5962838e-05 2488:-0.00010280373 2489:-6.2136183e-05 2490:-3.7744143e-05 2491:-0.00030402187 2492:-4.5713596e-06 2493:2.5823538e-05 2494:3.7932998e-05 2495:5.1647075e-05 2496:3.8735307e-05 2497:-0.00010789859 2498:0.00039029366 2499:0.00020645707 2500:3.5115285e-05 2501:7.538099e-06 2502:0.0010217357 2503:2.9592587e-05 2504:3.7690495e-06 2505:-0.00035451289 2506:4.6273406e-05 2507:3.416395e-05 2508:2.5823538e-05 2509:2.3993618e-05 2510:2.5823538e-05 2511:-2.7128057e-05 2512:2.1252177e-05 2513:0.002683029 2514:4.7011737e-05 2515:5.0844763e-05 2516:4.7075715e-05 2517:-0.00019285512 2518:-3.0580377e-05 2519:4.2504354e-05 2520:-4.5713596e-06 2521:-3.9768547e-05 2522:0.00011224495 2523:4.1702042e-05 2524:-5.3736699e-06 2525:0.00010618462 2526:7.5583666e-05 2527:4.1967178e-05 2528:0.00011334682 2529:2.5823538e-05 2530:2.5823538e-05 2531:2.5823538e-05 2532:2.5823538e-05 2533:0.00074830616 2534:-4.5306988e-05 2535:5.9987484e-05 2536:7.4663149e-05 2537:3.4163946e-05 2538:6.1574909e-05 2539:0.00063051417 2540:0.00053989078 2541:2.5823538e-05 2542:4.4559576e-05 2543:1.6680819e-05 2544:5.1647075e-05 2545:0.00012831538 2546:2.5823538e-05 2547:4.7075715e-05 2548:2.5823538e-05 2549:2.5823538e-05 2550:2.5823538e-05 2551:2.5823538e-05 2552:0.00037740805 2553:0.00056816835 2554:3.2559325e-05 2555:0.00011499489 2556:1.2669262e-05 2557:-1.371408e-05 2558:0.00010178638 2559:8.3404093e-06 2560:-0.00018801996 2561:0.00030192459 2562:6.7956935e-05 2563:1.4724491e-05 2564:0.0016969925 2565:0.00015871027 2566:0.00023961881 2567:2.5021229e-05 2568:-0.00084790791 2569:-0.000154137 2570:5.5416131e-05 2571:0.00031469969 2572:-3.4406447e-05 2573:1.6680819e-05 2574:0.00046790988 2575:2.5088499e-05 2576:5.9163805e-05 2577:0.00049901771 2578:2.8849345e-05 2579:0.0002141264 2580:4.2195828e-05 2581:2.5823538e-05 2582:2.5823538e-05 2583:2.5823538e-05 2584:0.00015195728 2585:8.3404093e-06 2586:5.1647075e-05 2587:0.00082465808 2588:-2.6742011e-05 2589:2.5823538e-05 2590:3.8735307e-05 2591:2.5823538e-05 2592:1.1307149e-05 2593:-1.371408e-05 2594:-0.00029550149 2595:4.7635531e-05 2596:0.00012835037 2597:6.0084327e-05 2598:3.926349e-05 2599:2.5823538e-05 2600:0.00057677581 2601:-1.0465019e-05 2602:3.3582696e-06 2603:5.1647075e-05 2604:0.00012516316 2605:0.00021778065 2606:8.3404093e-06 2607:2.5823538e-05 2608:2.0449868e-05 2609:0.00036241356 2610:-0.0017120932 2611:1.7933733e-05 2612:6.4558844e-05 2613:2.5823538e-05 2614:1.3939379e-05 2615:-0.00041485229 2616:-7.2577117e-05 2617:5.3811509e-05 2618:-3.4349428e-05 2619:7.1576957e-05 2620:-4.7568401e-06 2621:-0.00010981363 2622:1.140399e-05 2623:0.00011156913 2624:-4.5713596e-06 2625:1.2109458e-05 2626:6.9875488e-05 2627:-8.8217952e-05 2628:-0.00018792854 2629:-0.00030236508 2630:2.1252177e-05 2631:-0.00033993821 2632:4.5753419e-05 2633:7.538099e-06 2634:7.5950462e-05 2635:0.00064051279 2636:4.1182058e-05 2637:3.8735307e-05 2638:0.00019765367 2639:-8.4154293e-05 2640:-3.4469085e-06 2641:1.3753897e-05 2642:0.00017297181 2643:0.00029678724 2644:0.00033484664 2645:3.8735307e-05 2646:0.00099172839 2647:-2.6625848e-05 2648:-3.7373189e-05 2649:0.00015520152 2650:1.6777658e-05 2651:-1.4516389e-05 2652:-4.8680336e-05 2653:-2.1957647e-05 2654:3.8735307e-05 2655:3.1140185e-05 2656:6.610644e-05 2657:3.8735307e-05 2658:3.8735307e-05 2659:2.5823538e-05 2660:-4.5713596e-06 2661:5.3655764e-05 2662:-4.6779959e-07 2663:-6.7391695e-05 2664:2.3416605e-05 2665:9.4919349e-05 2666:2.5823538e-05 2667:0.00022066568 2668:0.00066518353 2669:-1.1158118e-05 2670:0.00048186164 2671:-0.00035727082 2672:0.00022068007 2673:-0.00021244699 2674:0.00016180548 2675:0.00015111516 2676:2.4444213e-05 2677:-3.1186955e-05 2678:2.5823538e-05 2679:1.644652e-05 2680:-0.00017671903 2681:0.00013128213 2682:0.00015796069 2683:2.1740549e-05 2684:-1.5036378e-05 2685:4.6087931e-05 2686:-9.3076858e-07 2687:-6.4012802e-06 2688:3.7690504e-06 2689:-3.5640107e-05 2690:0.00010471329 2691:-0.00034775445 2692:8.3404093e-06 2693:-5.862537e-05 2694:-0.0021155893 2695:6.2751547e-05 2696:7.940975e-05 2697:-8.6788576e-05 2698:-0.00058659795 2699:-0.0014616378 2700:0.00047495961 2701:-0.00089739193 2702:4.1927346e-05 2703:-0.0003875079 2704:4.5228597e-05 2705:-3.2801832e-05 2706:2.9592587e-05 2707:0.00031315413 2708:8.1336504e-05 2709:8.6934007e-05 2710:-1.4741689e-05 2711:-0.000202504 2712:3.8735307e-05 2713:4.0282906e-05 2714:-9.3685107e-05 2715:0.00078474364 2716:0.00070446718 2717:0.00018028439 2718:0.00083411153 2719:-0.00033994153 2720:-2.2856801e-05 2721:-4.5713596e-06 2722:0.00012374403 2723:1.4330909e-05 2724:0.00068798068 2725:2.5823538e-05 2726:-4.0184015e-05 2727:4.5696397e-05 2728:-1.371408e-05 2729:4.2584001e-05 2730:2.2614298e-05 2731:-4.3197459e-05 2732:-0.00041579315 2733:9.3965959e-05 2734:-4.5713596e-06 2735:-6.4236701e-05 2736:0.00082525116 2737:4.7075715e-05 2738:-1.7569721e-05 2739:-4.2395146e-05 2740:2.7242679e-05 2741:3.4163946e-05 2742:-9.1427191e-06 2743:-7.2577117e-05 2744:-4.8286751e-05 2745:-7.6253586e-05 2746:2.7987966e-05 2747:0.00021649976 2748:6.2600382e-05 2749:-0.00041062196 2750:0.0004391546 2751:1.35286e-05 2752:2.0449868e-05 2753:-0.00015358812 2754:2.5823538e-05 2755:-4.9285591e-05 2756:-0.00011437279 2757:-5.3736699e-06 2758:2.1252177e-05 2759:6.3756539e-05 2760:-2.798462e-06 2761:3.8735307e-05 2762:3.6414902e-05 2763:3.0620198e-05 2764:2.5823538e-05 2765:-1.9188758e-05 2766:1.8607579e-05 2767:-9.3852186e-06 2768:0.0011311633 2769:8.0203055e-05 2770:8.3404093e-06 2771:-0.00025932281 2772:0.00016522077 2773:2.7414396e-06 2774:0.0001072885 2775:5.5416123e-05 2776:5.9185175e-05 2777:-6.8384914e-05 2778:2.5823538e-05 2779:0.00023140686 2780:0.00010809419 2781:0.00015227585 2782:0.00055424089 2783:0.0014096334 2784:0.00010007255 2785:-6.807953e-06 2786:0.0002887524 2787:5.758055e-05 2788:-0.00027776568 2789:-4.9777333e-05 2790:0.00010249185 2791:2.1252177e-05 2792:-2.3659108e-05 2793:0.00099111709 2794:3.8735307e-05 2795:5.9987484e-05 2796:5.1647075e-05 2797:6.6626431e-05 2798:-5.3829513e-05 2799:0.00012977286 2800:2.5823538e-05 2801:1.2109458e-05 2802:4.4854267e-05 2803:-2.2336808e-05 2804:-9.1427191e-06 2805:1.1089316e-05 2806:-0.000184402 2807:-5.7597757e-05 2808:4.0790528e-05 2809:9.2283735e-05 2810:0.00013288394 2811:2.5823538e-05 2812:-0.00037370736 2813:-4.5713596e-06 2814:0.0001963422 2815:4.5471097e-05 2816:-0.00026456188 2817:0.00085981574 2818:0.001175363 2819:-0.00062005443 2820:-3.1197207e-05 2821:7.0352107e-05 2822:7.7470613e-05 2823:8.3404093e-06 2824:-1.9313049e-05 2825:1.6906119e-05 2826:2.5823538e-05 2827:6.3126404e-06 2828:-2.8413242e-05 2829:8.3404093e-06 2830:2.7467979e-05 2831:0.00036768831 2832:-9.3975877e-06 2833:0.00010146423 2834:1.9872859e-05 2835:1.4256689e-05 2836:3.4867278e-06 2837:0.00034393286 2838:-7.5528107e-05 2839:-1.0747342e-05 2840:2.5823538e-05 2841:-4.5713596e-06 2842:4.7966591e-06 2843:1.5475997e-06 2844:3.8735307e-05 2845:-5.7880079e-05 2846:-0.00010689492 2847:6.2056381e-05 2848:5.951968e-05 2849:6.8327892e-05 2850:1.6573656e-05 2851:-0.00026284702 2852:0.0004292838 2853:0.00026729971 2854:-0.00043617858 2855:3.416395e-05 2856:0.00015842795 2857:6.7525587e-05 2858:1.1081849e-05 2859:2.5823538e-05 2860:8.6370834e-05 2861:9.4151437e-05 2862:-8.4800609e-05 2863:1.496699e-05 2864:-1.0856548e-05 2865:6.7357882e-06 2866:0.00010166399 2867:-0.00035383733 2868:-0.000547837 2869:0.0003320736 2870:0.00027282847 2871:4.3866483e-05 2872:8.5008709e-05 2873:1.8902268e-05 2874:-0.00019829659 2875:0.00018239202 2876:0.00066110003 2877:7.209694e-05 2878:5.5416123e-05 2879:2.5823538e-05 2880:-4.5713596e-06 2881:0.00027213834 2882:1.2109458e-05 2883:7.6668308e-05 2884:0.00020123724 2885:8.3404093e-06 2886:-0.0004635173 2887:-6.3813553e-05 2888:-9.278932e-05 2889:0.00035053879 2890:-0.00045628188 2891:-0.00025725263 2892:-0.00015918841 2893:-0.00039893587 2894:-1.3222995e-06 2895:-4.0339928e-05 2896:0.00063033222 2897:-7.3983887e-05 2898:0.00011620592 2899:3.259915e-05 2900:3.3812237e-05 2901:5.2280047e-06 2902:0.00020522877 2903:-3.8785591e-05 2904:0.00013887724 2905:0.00014287158 2906:-0.00016256592 2907:1.6680819e-05 2908:6.2204097e-05 2909:-8.0231041e-07 2910:7.2899253e-05 2911:-1.4836482e-05 2912:2.1252177e-05 2913:-4.5713596e-06 2914:-5.4591201e-05 2915:-1.9947074e-05 2916:0.00056470773 2917:-1.5318697e-05 2918:2.5823538e-05 2919:4.2209667e-05 2920:0.00017797173 2921:7.538099e-06 2922:-4.0243089e-05 2923:0.00026657918 2924:6.4777618e-05 2925:7.5623495e-05 2926:6.8327899e-05 2927:2.5021229e-05 2928:0.00053772633 2929:1.0787159e-05 2930:8.9580077e-05 2931:4.7966591e-06 2932:-4.3460591e-06 2933:-0.00024274502 2934:8.3404093e-06 2935:5.4613814e-05 2936:6.6032888e-05 2937:0.00028997086 2938:-0.00088506326 2939:-0.00012207696 2940:0.00014697718 2941:-0.00017787641 2942:0.00046726561 2943:-2.0877853e-05 2944:3.8735307e-05 2945:-0.00012954568 2946:2.5823538e-05 2947:2.5823538e-05 2948:-3.1197207e-05 2949:-9.1427191e-06 2950:-9.9450281e-06 2951:6.1406623e-05 2952:0.00039236606 2953:-1.2914017e-05 2954:3.4949055e-05 2955:6.1962841e-05 2956:-4.5713596e-06 2957:6.7196481e-05 2958:3.4163946e-05 2959:-3.657088e-05 2960:0.00016016923 2961:-1.2294938e-05 2962:6.7005596e-05 2963:0.00065160496 2964:0.00027641832 2965:-0.00022744352 2966:0.00047565607 2967:-8.2838873e-05 2968:-0.00010025006 2969:0.00020931254 2970:-3.7783968e-05 2971:5.7580561e-05 2972:6.5920969e-05 2973:2.421892e-05 2974:-0.00021402413 2975:3.8735307e-05 2976:1.4164679e-05 2977:-2.2349177e-05 2978:-4.6907437e-05 2979:5.1130461e-05 2980:9.872279e-05 2981:5.8665184e-05 2982:-4.1367537e-05 2983:6.3756539e-05 2984:0.00014876523 2985:2.5823538e-05 2986:-6.7035166e-05 2987:8.4020925e-05 2988:0.00015446106 2989:-3.6773559e-05 2990:-0.00021766679 2991:9.0845351e-05 2992:0.00017739741 2993:1.6680819e-05 2994:2.7414396e-06 2995:7.5380976e-06 2996:2.5823538e-05 2997:-1.5783118e-05 2998:-0.00012338228 2999:-4.5713596e-06 3000:-4.3588989e-05 3001:-9.7070828e-05 3002:-2.5196418e-06 3003:5.7637575e-05 3004:3.7690495e-06 3005:-5.3961998e-05 3006:-1.371408e-05 3007:2.5823538e-05 3008:0.00017895746 3009:0.00019347385 3010:0.00023929667 3011:0.00021073168 3012:0.00024909264 3013:0.0001910443 3014:0.00020201693 3015:0.00018910518 3016:3.7368307e-05 3017:-4.0115528e-06 3018:-0.00051060447 3019:0.00073406874 3020:2.4444218e-05 3021:7.8092147e-05 3022:3.8735307e-05 3023:7.7470613e-05 3024:0.00015494123 3025:2.5823538e-05 3026:-0.00042833749 3027:0.00018072831 3028:0.00018910518 3029:0.00016328163 3030:0.00015494123 3031:0.000167853 3032:-4.5713596e-06 3033:0.00083631586 3034:0.00026745774 3035:-0.00039208055 3036:0.00067733985 3037:0.00041060199 3038:-0.00011381487 3039:-0.00011585085 3040:5.1647075e-05 3041:-4.2110772e-05 3042:0.00017672159 3043:8.3404093e-06 3044:5.1647075e-05 3045:1.6680819e-05 3046:-0.00089724897 3047:-9.9856246e-05 3048:2.9592587e-05 3049:0.00028605713 3050:2.1252177e-05 3051:8.698766e-05 3052:0.00015505042 3053:0.00050168904 3054:-0.00034376557 3055:-0.00029888903 3056:-0.0019795592 3057:5.1647075e-05 3058:4.9014845e-05 3059:0.00023909015 3060:-7.0009002e-05 3061:3.2334028e-05 3062:-2.6303707e-05 3063:-4.7701549e-05 3064:0.00045890218 3065:0.00015229182 3066:-4.5713596e-06 3067:-3.3732598e-05 3068:5.4613818e-05 3069:1.4947737e-05 3070:3.0209423e-05 3071:-2.8975757e-05 3072:-8.0231041e-07 3073:9.7595494e-06 3074:-0.00081124902 3075:-3.6288558e-05 3076:-1.4887347e-05 3077:2.1252177e-05 3078:5.59045e-05 3079:-0.00015143603 3080:2.1252177e-05 3081:7.01811e-06 3082:2.1252177e-05 3083:5.7081788e-06 3084:0.00015823831 3085:3.8735307e-05 3086:0.00032419615 3087:0.00046023852 3088:0.00019390184 3089:0.00041370688 3090:0.00017619341 3091:0.00071148522 3092:0.00012911769 3093:0.00015494123 3094:5.1647075e-05 3095:5.3175427e-05 3096:6.4558844e-05 3097:-4.5713596e-06 3098:1.6680819e-05 3099:2.5823538e-05 3100:3.8735307e-05 3101:1.6069695e-05 3102:0.00017619341 3103:0.00015413892 3104:0.00010607541 3105:4.9425624e-05 3106:5.1647075e-05 3107:5.1647075e-05 3108:5.1647075e-05 3109:-2.052409e-05 3110:2.0449868e-05 3111:3.8735307e-05 3112:-0.00011179161 3113:-3.7735939e-05 3114:-0.00012569698 3115:3.8735307e-05 3116:5.1647075e-05 3117:0.00014122715 3118:5.4093831e-05 3119:1.2109458e-05 3120:3.7932998e-05 3121:-6.7728266e-05 3122:-1.4741689e-05 3123:-7.6910801e-05 3124:4.7075715e-05 3125:0.0003213427 3126:-0.00089685235 3127:-1.1355971e-05 3128:0.0001577623 3129:0.0003651866 3130:0.00016197374 3131:2.2582675e-05 3132:5.6835266e-05 3133:-9.945029e-06 3134:4.7075715e-05 3135:-2.3023029e-05 3136:-4.0468385e-05 3137:2.5823538e-05 3138:1.6680819e-05 3139:0.00013852553 3140:-1.3222995e-06 3141:7.5905817e-05 3142:-2.5972474e-06 3143:2.0449868e-05 3144:2.0449868e-05 3145:3.8735307e-05 3146:3.7690495e-06 3147:5.4828793e-06 3148:-3.8792328e-05 3149:5.1647075e-05 3150:5.8100544e-05 3151:2.5823538e-05 3152:5.9987484e-05 3153:-0.00029079616 3154:-0.00023366441 3155:-5.9063786e-05 3156:3.9238097e-05 3157:0.0021235142 3158:-2.8975757e-05 3159:2.5823538e-05 3160:2.5823538e-05 3161:-4.5713596e-06 3162:5.5416123e-05 3163:4.8446836e-06 3164:-0.0003359713 3165:-1.766861e-05 3166:8.3404093e-06 3167:3.8735307e-05 3168:1.4191402e-06 3169:-7.1836657e-05 3170:5.4485357e-05 3171:0.00016470077 3172:-4.4108976e-05 3173:-2.8455768e-05 3174:-0.00024327739 3175:-9.3217299e-05 3176:2.5021229e-05 3177:-0.00012446668 3178:-0.00018595374 3179:3.549445e-05 3180:-1.0932815e-05 3181:3.8735307e-05 3182:-4.5713596e-06 3183:-0.0001466181 3184:2.5823538e-05 3185:1.1589469e-05 3186:2.6665666e-05 3187:8.3404093e-06 3188:0.0001230756 3189:3.3361637e-05 3190:-0.00025902284 3191:3.2767432e-05 3192:-9.6067946e-05 3193:-3.2801825e-05 3194:2.5823538e-05 3195:6.7357882e-06 3196:0.00049204641 3197:9.7326258e-05 3198:0.00032199733 3199:1.6965541e-06 3200:0.00028702567 3201:-6.3196727e-05 3202:0.00011023451 3203:-6.9680341e-06 3204:-4.5713596e-06 3205:3.8735307e-05 3206:-5.3736703e-06 3207:-2.0506888e-05 3208:-1.7668608e-05 3209:-8.7237358e-06 3210:-0.00036953637 3211:3.8735307e-05 3212:3.8735307e-05 3213:3.8735307e-05 3214:0.00037951546 3215:1.1024825e-05 3216:3.8735307e-05 3217:0.00021283432 3218:-2.0172381e-05 3219:3.8735307e-05 3220:3.8735307e-05 3221:3.8735307e-05 3222:3.8735307e-05 3223:3.8735307e-05 3224:3.8735307e-05 3225:5.1647075e-05 3226:-0.00082674983 3227:-0.00073612935 3228:-0.00018047701 3229:0.00011953463 3230:3.7896538e-05 3231:0.00010249185 3232:3.416395e-05 3233:1.5878508e-05 3234:3.8735307e-05 3235:-5.4593245e-05 3236:1.2726289e-05 3237:-5.6178615e-05 3238:-5.6980924e-05 3239:0.00023909398 3240:8.2307095e-05 3241:5.2078427e-05 3242:1.5507554e-05 3243:-0.0012764176 3244:-2.5489027e-05 3245:8.3404093e-06 3246:3.8735307e-05 3247:2.5021229e-05 3248:2.5823538e-05 3249:0.0001427121 3250:2.9592587e-05 3251:0.00032691704 3252:0.00019562653 3253:8.0437356e-05 3254:2.5823538e-05 3255:-3.7292284e-06 3256:5.1647075e-05 3257:-7.3661744e-05 3258:3.8735307e-05 3259:-4.4294458e-05 3260:-0.00021936721 3261:0.001116101 3262:3.5311587e-05 3263:0.00021053103 3264:-0.00031063129 3265:-0.0008132506 3266:-4.8865815e-05 3267:-5.4054006e-05 3268:2.5823538e-05 3269:-2.8621998e-05 3270:-9.1427191e-06 3271:2.1252177e-05 3272:8.3404093e-06 3273:1.02761e-06 3274:-0.00064326008 3275:0.00012239955 3276:-1.5427908e-05 3277:6.1780949e-05 3278:3.7690495e-06 3279:-9.6780299e-05 3280:1.3600037e-05 3281:3.416395e-05 3282:0.00011960402 3283:-0.00010275154 3284:-4.3588985e-05 3285:-9.4374685e-05 3286:-1.6046208e-06 3287:-0.00015215996 3288:0.00030537145 3289:1.2818297e-05 3290:3.7170506e-05 3291:0.00043772854 3292:-2.1026879e-05 3293:3.8151349e-05 3294:9.5513555e-05 3295:-0.00033505101 3296:5.9987484e-05 3297:8.6838634e-05 3298:7.2899253e-05 3299:-5.3736699e-06 3300:3.8735307e-05 3301:4.8494854e-05 3302:3.7932998e-05 3303:6.6146262e-05 3304:8.8200759e-05 3305:-4.5713596e-06 3306:0.00014956755 3307:0.00016190232 3308:2.1252177e-05 3309:0.00024458373 3310:-7.2522889e-05 3311:-5.3736699e-06 3312:2.2388997e-05 3313:3.5583085e-05 3314:-9.1427191e-06 3315:1.6680819e-05 3316:2.9592587e-05 3317:0.00012287569 3318:0.00018910518 3319:-9.1427191e-06 3320:0.00016322463 3321:-0.00019623055 3322:-7.2057126e-05 3323:0.00048689728 3324:3.8735307e-05 3325:0.00037877017 3326:6.5118656e-05 3327:4.9522467e-05 3328:2.5823538e-05 3329:2.5823538e-05 3330:2.9667374e-06 3331:0.00014042483 3332:0.00018390991 3333:2.5823538e-05 3334:0.00011981958 3335:4.5303379e-05 3336:5.9987484e-05 3337:0.00015737752 3338:3.8101276e-05 3339:-0.00013364923 3340:-2.0133461e-06 3341:-0.00011252215 3342:5.14616e-05 3343:8.3404093e-06 3344:-7.978444e-06 3345:-6.4160566e-05 3346:7.7470613e-05 3347:2.5823538e-05 3348:-1.371408e-05 3349:5.1647075e-05 3350:-1.7725626e-05 3351:3.7690495e-06 3352:0.00014579851 3353:3.8735307e-05 3354:0.00028667395 3355:0.00039979705 3356:0.00019022266 3357:2.5823538e-05 3358:-9.1427191e-06 3359:5.9904996e-06 3360:2.5823538e-05 3361:3.8735307e-05 3362:3.8735307e-05 3363:-0.00031470665 3364:2.5823538e-05 3365:1.0279539e-05 3366:2.5823538e-05 3367:0.00028609537 3368:2.5823538e-05 3369:2.5823538e-05 3370:-0.00011085223 3371:0.0013258462 3372:-4.4391298e-05 3373:8.8777764e-05 3374:3.8735307e-05 3375:-1.3222995e-06 3376:6.1189589e-06 3377:-0.00023264615 3378:7.9635043e-05 3379:2.067517e-05 3380:2.5823538e-05 3381:-0.00038131472 3382:2.1586693e-05 3383:0.00028439341 3384:0.0004419669 3385:2.2018039e-05 3386:-0.00012764431 3387:1.2109458e-05 3388:2.5823538e-05 3389:-0.00041816523 3390:-0.0001316009 3391:-6.8384914e-05 3392:2.3602088e-05 3393:4.6485489e-05 3394:-0.0015591852 3395:-0.00018870339 3396:3.7355985e-05 3397:8.3404093e-06 3398:8.9240733e-05 3399:-0.00033698097 3400:-0.00010988092 3401:2.5823538e-05 3402:-0.00073114235 3403:8.605918e-07 3404:-4.5713596e-06 3405:7.209694e-05 3406:0.00011704805 3407:2.4501238e-05 3408:-0.00034777226 3409:-0.00014917266 3410:4.3346481e-05 3411:-0.00016507658 3412:-0.00014999912 3413:0.00023688973 3414:5.819738e-05 3415:5.0267758e-05 3416:0.0040024612 3417:0.00018662885 3418:6.2825762e-05 3419:-2.6625848e-05 3420:2.5823538e-05 3421:5.0844763e-05 3422:-5.3736699e-06 3423:6.5400978e-05 3424:-5.4965527e-05 3425:2.1252177e-05 3426:6.3236541e-05 3427:5.2263906e-05 3428:0.00028317337 3429:3.5265457e-06 3430:2.5823538e-05 3431:-8.0679856e-05 3432:-1.6640997e-05 3433:-5.3251697e-05 3434:6.7173867e-05 3435:-1.371408e-05 3436:2.5229334e-05 3437:2.5823538e-05 3438:0.00026571649 3439:0.00024660528 3440:2.0449868e-05 3441:0.0001805793 3442:5.6835266e-05 3443:-0.00024146953 3444:2.1252177e-05 3445:2.5021229e-05 3446:2.5823538e-05 3447:-2.2054488e-05 3448:0.00027710808 3449:-0.00029241046 3450:-4.6779718e-07 3451:2.1252177e-05 3452:-5.3251697e-05 3453:2.5823538e-05 3454:0.00011733038 3455:0.00053546362 3456:0.00083166291 3457:8.4206404e-05 3458:9.0607689e-05 3459:3.8735307e-05 3460:-8.2393191e-05 3461:0.00019758769 3462:0.00013807493 3463:8.3404093e-06 3464:-3.1522191e-06 3465:2.5823538e-05 3466:2.5823538e-05 3467:2.5823538e-05 3468:0.00016145171 3469:2.5823538e-05 3470:9.5271062e-05 3471:2.5823538e-05 3472:2.5823538e-05 3473:1.1244504e-06 3474:4.6273402e-05 3475:-0.0007766207 3476:-2.1922e-05 3477:-0.00023598531 3478:4.0282906e-05 3479:-2.0506888e-05 3480:-0.00089609285 3481:0.00017955988 3482:-1.3222995e-06 3483:3.5936846e-05 3484:1.9030727e-05 3485:0.0001449962 3486:-4.5713596e-06 3487:-5.5105855e-05 3488:3.4163946e-05 3489:-4.5713596e-06 3490:-1.4194247e-05 3491:5.2880736e-05 3492:-9.1444395e-05 3493:2.7414396e-06 3494:-1.9087747e-05 3495:0.00017014172 3496:3.4163946e-05 3497:-5.9722362e-05 3498:4.2504354e-05 3499:-0.00040150897 3500:2.5823538e-05 3501:3.8735307e-05 3502:-9.9450326e-06 3503:4.6273406e-05 3504:-0.00026119876 3505:2.5823538e-05 3506:-0.00076277915 3507:-0.0013200769 3508:4.4169366e-05 3509:-0.00078087748 3510:2.5823538e-05 3511:-3.502328e-05 3512:3.3586937e-05 3513:2.5823538e-05 3514:4.7075715e-05 3515:2.5823538e-05 3516:2.5823538e-05 3517:2.5823538e-05 3518:3.7690495e-06 3519:-5.3662476e-05 3520:2.5823538e-05 3521:5.0231309e-05 3522:-9.4882307e-05 3523:-4.0211471e-05 3524:3.8735307e-05 3525:8.0437356e-05 3526:0.00030529388 3527:-9.0708098e-05 3528:6.8327892e-05 3529:0.00021789545 3530:4.7018693e-05 3531:-4.5713596e-06 3532:-0.00031387139 3533:1.1307149e-05 3534:-0.00010363224 3535:0.00073480775 3536:-0.0011109721 3537:0.00011711744 3538:-7.4129552e-05 3539:-3.6853198e-05 3540:2.5021229e-05 3541:3.5265457e-06 3542:8.3404093e-06 3543:0.00048313176 3544:0.00019979775 3545:-5.0373601e-05 3546:0.0002953365 3547:0.0002823711 3548:0.00022380926 3549:-7.6759723e-05 3550:5.4134903e-06 3551:5.4981923e-05 3552:2.5823538e-05 3553:8.1239661e-05 3554:1.3204341e-05 3555:-6.1759788e-06 3556:-5.7320267e-05 3557:3.2559325e-05 3558:5.2054347e-05 3559:9.0382389e-05 3560:1.0601678e-05 3561:0.00054258201 3562:-5.1030249e-05 3563:0.00025357539 3564:-2.5501397e-05 3565:1.0241768e-05 3566:6.4218484e-06 3567:0.00013675263 3568:2.5823538e-05 3569:0.00013763313 3570:5.9185175e-05 3571:0.00016789619 3572:4.715535e-05 3573:-3.2127977e-05 3574:-4.3730477e-05 3575:4.7075715e-05 3576:2.5823538e-05 3577:-4.5713596e-06 3578:-4.5713596e-06 3579:2.3191307e-05 3580:4.3024342e-05 3581:-1.8285438e-05 3582:-6.3422027e-05 3583:-2.388441e-05 3584:-9.1427191e-06 3585:0.00017231032 3586:-3.3841807e-05 3587:2.1252177e-05 3588:-4.5713596e-06 3589:-4.5713596e-06 3590:2.9592587e-05 3591:5.1647075e-05 3592:4.7115536e-05 3593:0.00013208443 3594:8.3404093e-06 3595:0.00051805819 3596:2.5823538e-05 3597:6.2158001e-06 3598:8.3404093e-06 3599:6.6017812e-05 3600:5.1647075e-05 3601:3.1346233e-05 3602:7.6893601e-05 3603:1.3577845e-05 3604:2.5823538e-05 3605:-0.00012103227 3606:2.5823538e-05 3607:2.5823538e-05 3608:2.5823538e-05 3609:2.5823538e-05 3610:-0.00015952979 3611:2.5823538e-05 3612:2.5823538e-05 3613:2.5823538e-05 3614:-5.1607258e-05 3615:2.9592587e-05 3616:6.4558844e-05 3617:2.5823538e-05 3618:2.5823538e-05 3619:2.5823538e-05 3620:-3.9537616e-05 3621:2.5823538e-05 3622:2.5823538e-05 3623:3.8735307e-05 3624:2.5823538e-05 3625:0.00086273305 3626:3.7690504e-06 3627:-2.6625848e-05 3628:3.6513859e-05 3629:3.7690504e-06 3630:1.8992159e-05 3631:-4.5713596e-06 3632:0.00022590472 3633:-0.00012218069 3634:-0.00061796472 3635:0.00011163456 3636:5.3419975e-05 3637:2.4218916e-05 3638:-0.00012219664 3639:-0.00013269584 3640:8.3633968e-05 3641:0.0001556295 3642:3.424563e-05 3643:8.3404093e-06 3644:4.0008796e-05 3645:2.4336332e-05 3646:-1.1421968e-05 3647:9.4151437e-05 3648:2.5823538e-05 3649:5.1647075e-05 3650:2.5823538e-05 3651:-5.3957167e-05 3652:-2.446142e-05 3653:3.8735307e-05 3654:0.00033305655 3655:8.3404093e-06 3656:0.00011048054 3657:3.7690495e-06 3658:-5.3736699e-06 3659:2.9667397e-06 3660:9.3768103e-05 3661:-0.00026359415 3662:0.00037487471 3663:5.9604154e-05 3664:-1.2294941e-05 3665:-3.644242e-05 3666:-6.9556125e-05 3667:7.6668301e-05 3668:2.5823538e-05 3669:2.5823538e-05 3670:-1.9704579e-05 3671:-2.011536e-05 3672:-1.3222995e-06 3673:0.00025687975 3674:2.5823538e-05 3675:2.5823538e-05 3676:-0.00052473781 3677:-0.00015268478 3678:7.2899253e-05 3679:8.3404093e-06 3680:1.117869e-05 3681:-8.4299871e-05 3682:0.00018647076 3683:0.00023983173 3684:1.8607579e-05 3685:-0.00031521989 3686:-0.00036166361 3687:-2.2214501e-06 3688:1.6680819e-05 3689:1.6680819e-05 3690:-9.1427191e-06 3691:2.4501238e-05 3692:8.3404093e-06 3693:3.1814037e-05 3694:8.3404093e-06 3695:1.6680819e-05 3696:8.3404093e-06 3697:3.8735307e-05 3698:-1.0747338e-05 3699:-0.00013977302 3700:-7.6363365e-05 3701:-1.6734466e-05 3702:4.7172558e-05 3703:-3.0270605e-05 3704:-5.3736699e-06 3705:-4.8191967e-05 3706:-0.00010453681 3707:-1.7668608e-05 3708:0.00034869459 3709:4.5718221e-05 3710:3.8735307e-05 3711:-4.3197459e-05 3712:-2.6009018e-05 3713:-2.6350493e-05 3714:-4.5713596e-06 3715:2.5823538e-05 3716:0.00030941464 3717:-3.0805681e-05 3718:3.8735307e-05 3719:-5.1522784e-05 3720:-8.0231041e-07 3721:-4.5713596e-06 3722:2.5823538e-05 3723:2.5823538e-05 3724:-4.5713596e-06 3725:7.9635043e-05 3726:3.7690495e-06 3727:3.858329e-05 3728:-0.00015768617 3729:0.00011122512 3730:5.3194675e-05 3731:-2.8395378e-05 3732:5.0844763e-05 3733:1.5358519e-05 3734:-1.828544e-05 3735:8.2478742e-05 3736:0.00063959986 3737:-0.00018199651 3738:-5.2243337e-05 3739:-8.2021405e-05 3740:-2.4069888e-05 3741:-1.2850115e-05 3742:4.441187e-05 3743:0.00041150799 3744:7.8850433e-05 3745:0.00027355747 3746:0.00028935337 3747:8.3630248e-06 3748:0.00012189689 3749:-0.00010914799 3750:9.345833e-05 3751:-6.8178873e-05 3752:-8.6278822e-05 3753:-2.0692367e-05 3754:-6.4012802e-06 3755:0.00017001743 3756:-4.5713596e-06 3757:8.3404093e-06 3758:-4.3717446e-05 3759:0.00016961273 3760:0.00031942615 3761:3.416395e-05 3762:-4.5713596e-06 3763:-4.5713596e-06 3764:4.7075715e-05 3765:-3.1157386e-05 3766:-1.5036378e-05 3767:3.1333868e-05 3768:-7.6411518e-05 3769:-0.00036429649 3770:3.4163946e-05 3771:-0.00011829071 3772:0.0001182836 3773:-0.00084216404 3774:0.00030603359 3775:-0.00012520378 3776:-9.6790624e-05 3777:-0.00012725279 3778:9.2772112e-05 3779:3.4260789e-05 3780:1.1980999e-05 3781:-1.6046208e-06 3782:1.6359914e-05 3783:8.5968612e-05 3784:8.3404093e-06 3785:-0.00019939238 3786:-2.2336812e-05 3787:1.7150613e-06 3788:-5.351827e-05 3789:-8.2118248e-05 3790:5.4790296e-05 3791:-4.5713596e-06 3792:4.8945458e-05 3793:-0.00013741828 3794:-8.424768e-05 3795:-1.6063988e-05 3796:-2.9790437e-05 3797:3.4163946e-05 3798:0.00013280015 3799:-5.3736699e-06 3800:8.3404093e-06 3801:-0.00015242741 3802:-3.4624867e-05 3803:-1.7474928e-05 3804:3.6328383e-05 3805:8.3404093e-06 3806:-2.1534499e-05 3807:0.00010088724 3808:8.3404093e-06 3809:-0.00050903513 3810:5.1647075e-05 3811:5.9904996e-06 3812:-0.0001278298 3813:2.5823538e-05 3814:-0.0028063839 3815:-0.00010029448 3816:1.117869e-05 3817:8.3404093e-06 3818:-4.5713596e-06 3819:-4.5713596e-06 3820:3.7690495e-06 3821:-0.00013794311 3822:-8.0231041e-07 3823:5.517363e-05 3824:0.00089141825 3825:3.7932998e-05 3826:-0.00089329254 3827:-0.0001216923 3828:-1.9546025e-05 3829:-9.1427191e-06 3830:-0.00018180959 3831:2.9535566e-05 3832:-5.3359588e-05 3833:2.5823538e-05 3834:2.5823538e-05 3835:2.5823538e-05 3836:2.5021229e-05 3837:-0.00014717448 3838:-5.7997013e-06 3839:-0.00010636673 3840:-2.6625848e-05 3841:2.7242679e-05 3842:0.00010736609 3843:2.5823538e-05 3844:1.3050933e-06 3845:0.00025240623 3846:8.7789966e-05 3847:1.2109458e-05 3848:0.00021742891 3849:0.00010629989 3850:4.0674437e-05 3851:9.9805948e-05 3852:-0.0011288415 3853:4.5753415e-05 3854:9.0382389e-05 3855:-1.9704579e-05 3856:6.1683033e-07 3857:7.9392543e-05 3858:5.1647075e-05 3859:-8.7754983e-05 3860:-6.7248096e-05 3861:-1.3222995e-06 3862:0.00011215455 3863:7.5381008e-06 3864:0.00012755831 3865:3.2022141e-05 3866:-2.2054488e-05 3867:-4.5713596e-06 3868:-3.5768568e-05 3869:1.6680819e-05 3870:-0.00047302281 3871:2.5823538e-05 3872:2.2614298e-05 3873:-6.4528881e-06 3874:-0.00025494312 3875:-0.00010570108 3876:-4.5713596e-06 3877:-1.074734e-05 3878:-0.0002015569 3879:-2.7016199e-06 3880:-6.4744323e-05 3881:4.4374094e-05 3882:8.3404093e-06 3883:-9.1436195e-05 3884:8.3404093e-06 3885:0.0034038608 3886:-0.00011015296 3887:-0.00023685349 3888:4.1741863e-05 3889:-0.00042011391 3890:-9.9462653e-05 3891:-1.6063988e-05 3892:-4.5713596e-06 3893:2.5823538e-05 3894:2.5823538e-05 3895:0.002072566 3896:8.3404093e-06 3897:2.5823538e-05 3898:6.8327899e-05 3899:2.5021229e-05 3900:-0.00014041459 3901:3.8735307e-05 3902:3.7690495e-06 3903:5.9904996e-06 3904:1.6809277e-05 3905:-1.239178e-05 3906:-1.371408e-05 3907:3.8735307e-05 3908:-0.00024278149 3909:3.2277003e-05 3910:-4.5713596e-06 3911:2.5823538e-05 3912:-7.059479e-05 3913:0.00024890716 3914:1.1589469e-05 3915:6.4558844e-05 3916:-0.00012204739 3917:8.3404093e-06 3918:-1.3222995e-06 3919:8.3404093e-06 3920:0.00013619004 3921:2.1252177e-05 3922:1.7015331e-05 3923:4.2318876e-05 3924:3.8735307e-05 3925:0.00010329415 3926:-0.00010732495 3927:-0.0006719465 3928:2.5823538e-05 3929:0.00036297127 3930:9.872279e-05 3931:9.0382389e-05 3932:0.00012454634 3933:7.2899253e-05 3934:9.0382389e-05 3935:0.00021950009 3936:0.00017835783 3937:9.0382389e-05 3938:9.0382389e-05 3939:0.0001361358 3940:0.00015494123 3941:0.00064247608 3942:0.00015548385 3943:2.5823538e-05 3944:9.6598189e-05 3945:2.9535564e-05 3946:2.7185661e-05 3947:6.4558844e-05 3948:-6.4045809e-05 3949:8.8257773e-05 3950:0.00039931267 3951:8.9580077e-05 3952:0.00038248193 3953:3.8735307e-05 3954:-0.00044620651 3955:-6.7928099e-06 3956:0.00063999154 3957:7.2096947e-05 3958:2.5823538e-05 3959:5.8717367e-05 3960:4.7075715e-05 3961:-0.00020985457 3962:-0.00016501751 3963:0.00012575564 3964:0.00026640261 3965:-0.00011805303 3966:2.1252177e-05 3967:-8.1151093e-06 3968:-0.00022850613 3969:-0.00041004928 3970:0.0014703725 3971:-9.6615382e-05 3972:-0.00013315881 3973:-0.00035212183 3974:-3.1197207e-05 3975:-0.00018665504 3976:-1.2130911e-06 3977:-3.6518693e-05 3978:-0.00015337935 3979:9.7118173e-05 3980:2.0752759e-05 3981:6.9170026e-05 3982:-1.371408e-05 3983:-4.5431279e-05 3984:-4.5713596e-06 3985:-5.9907848e-05 3986:-3.1197207e-05 3987:5.1881884e-06 3988:8.4206404e-05 3989:0.0009942638 3990:0.00024673724 3991:7.1294642e-05 3992:2.5823538e-05 3993:0.00019199769 3994:2.5823538e-05 3995:2.5823538e-05 3996:1.0395629e-05 3997:1.1081849e-05 3998:4.7075715e-05 3999:0.0002750514 4000:5.9987484e-05 4001:0.0001449962 4002:1.587851e-05 4003:-9.2229493e-05 4004:-6.3378837e-05 4005:-0.00024469104 4006:0.00043597413 4007:3.8735307e-05 4008:6.3756539e-05 4009:-4.5262997e-05 4010:7.3516079e-05 4011:-4.9668131e-05 4012:7.209694e-05 4013:0.00019725111 4014:0.00029945781 4015:7.3290779e-05 4016:4.6607915e-05 4017:0.0001943902 4018:4.2504354e-05 4019:4.7075715e-05 4020:2.0449868e-05 4021:7.0267022e-05 4022:4.7075715e-05 4023:7.7454737e-05 4024:2.5823538e-05 4025:1.4191409e-06 4026:-1.7777818e-05 4027:-0.0015329227 4028:-0.00011523534 4029:-5.5601606e-05 4030:-4.5822806e-05 4031:8.3404093e-06 4032:-0.0001171017 4033:-0.00017005389 4034:2.8790277e-05 4035:2.5823538e-05 4036:0.00051113497 4037:-5.024514e-05 4038:0.00033997782 4039:1.2237919e-05 4040:-1.8959288e-05 4041:4.1702042e-05 4042:6.8327899e-05 4043:0.00040108961 4044:9.7393546e-05 4045:0.00054012495 4046:6.4091051e-05 4047:2.5823538e-05 4048:0.00056761311 4049:0.00030780421 4050:8.3404093e-06 4051:5.2355907e-05 4052:8.1549315e-06 4053:0.00010209884 4054:2.5823538e-05 4055:0.00011734274 4056:0.00012911769 4057:2.1252177e-05 4058:0.00011695122 4059:-0.0001088533 4060:0.00021030032 4061:-7.6477409e-05 4062:-4.0506158e-05 4063:0.00017052022 4064:-9.8327895e-05 4065:0.0005801043 4066:0.00013127181 4067:-0.00065417448 4068:-2.0506888e-05 4069:8.3404093e-06 4070:2.5823538e-05 4071:1.6680819e-05 4072:1.1589469e-05 4073:-9.7629483e-05 4074:0.00016093173 4075:0.00017162206 4076:4.7966591e-06 4077:-9.1427191e-06 4078:0.0002731611 4079:0.0010648578 4080:5.3010448e-05 4081:3.1405314e-05 4082:-0.00030935803 4083:7.7659468e-05 4084:1.5878508e-05 4085:7.7533048e-05 4086:5.1647075e-05 4087:4.2504354e-05 4088:-3.629208e-05 4089:7.0549344e-05 4090:0.00059831009 4091:2.5823538e-05 4092:7.01811e-06 4093:2.1252177e-05 4094:0.00014951054 4095:4.7794611e-06 4096:2.7987966e-05 4097:2.5823538e-05 4098:3.416395e-05 4099:0.00012275623 4100:6.5104887e-06 4101:0.00011167437 4102:4.7174588e-05 4103:6.2151921e-05 4104:-4.5713596e-06 4105:7.2691771e-05 4106:7.8889752e-05 4107:0.00023163215 4108:2.5823538e-05 4109:3.4163946e-05 4110:-0.00012733659 4111:3.9646824e-05 4112:3.4909233e-05 4113:8.3404093e-06 4114:6.4558844e-05 4115:2.5823538e-05 4116:2.5823538e-05 4117:4.7075715e-05 4118:-6.6959715e-06 4119:9.7920485e-05 4120:-5.8936589e-06 4121:2.5823538e-05 4122:2.5823538e-05 4123:2.5823538e-05 4124:-9.1427191e-06 4125:2.5823538e-05 4126:-4.6741206e-05 4127:1.3939379e-05 4128:-5.4135766e-05 4129:1.2237918e-05 4130:2.5823538e-05 4131:0.00010323714 4132:-2.2054488e-05 4133:0.00012986298 4134:8.4797175e-06 4135:2.9592587e-05 4136:3.6513859e-05 4137:-7.3661744e-05 4138:-4.5713596e-06 4139:1.4330909e-05 4140:1.9462084e-05 4141:-9.1427191e-06 4142:-1.8959288e-05 4143:-2.4307559e-05 4144:3.9277512e-07 4145:8.3404093e-06 4146:-3.1197207e-05 4147:-3.7543115e-05 4148:0.00015550105 4149:1.6680819e-05 4150:2.2799779e-05 4151:3.8735307e-05 4152:3.8735307e-05 4153:7.2899253e-05 4154:7.2899253e-05 4155:3.4909233e-05 4156:-0.00030288639 4157:8.3404093e-06 4158:0.00011237986 4159:-7.5306183e-05 4160:0.00017076814 4161:5.4742275e-05 4162:3.4163946e-05 4163:0.00065548671 4164:2.5823538e-05 4165:0.00010922763 4166:-9.9450317e-06 4167:3.8735307e-05 4168:5.2011077e-05 4169:7.0999944e-05 4170:7.1656599e-05 4171:0.00031871669 4172:0.00039195915 4173:0.00039033138 4174:4.1125037e-05 4175:-4.5713596e-06 4176:-8.84158e-05 4177:-7.6628487e-05 4178:-0.00015671436 4179:3.0469708e-05 4180:-0.00035078658 4181:0.00019599001 4182:5.1647075e-05 4183:-0.00012469683 4184:2.1252177e-05 4185:-7.5951189e-06 4186:3.4163946e-05 4187:8.3404093e-06 4188:-5.3251697e-05 4189:-1.1492629e-05 4190:-9.1427191e-06 4191:-9.6853051e-05 4192:0.000366886 4193:6.5304128e-05 4194:-7.595122e-06 4195:0.00010319037 4196:9.9476289e-05 4197:3.8735307e-05 4198:0.00024552204 4199:-6.2320476e-05 4200:-1.309725e-05 4201:-2.6628126e-05 4202:2.9592587e-05 4203:-1.371408e-05 4204:2.287942e-05 4205:-9.9450317e-06 4206:2.5823538e-05 4207:3.7690495e-06 4208:-4.3081367e-05 4209:2.5823538e-05 4210:0.00018515065 4211:-0.00020017478 4212:6.5104887e-06 4213:2.5823538e-05 4214:1.9391287e-06 4215:1.1532452e-05 4216:2.5823538e-05 4217:2.5823538e-05 4218:0.00036573198 4219:-0.0004194059 4220:0.00015684593 4221:0.00043546181 4222:0.00010294244 4223:0.00034611087 4224:7.7470613e-05 4225:-2.823047e-05 4226:2.5021229e-05 4227:2.5823538e-05 4228:2.5823538e-05 4229:-2.2856799e-05 4230:2.5823538e-05 4231:4.2318876e-05 4232:-3.2519507e-05 4233:2.966739e-06 4234:-5.3338549e-06 4235:7.5138261e-05 4236:0.00011708788 4237:2.5823538e-05 4238:7.2899253e-05 4239:2.5823538e-05 4240:2.5823538e-05 4241:-0.00037034965 4242:2.6651669e-06 4243:3.7130685e-05 4244:0.00019017261 4245:-0.00013090312 4246:2.5823538e-05 4247:5.1647075e-05 4248:0.00010432176 4249:-0.00020164704 4250:1.6680819e-05 4251:-0.00012104595 4252:-0.0003024505 4253:3.8735307e-05 4254:3.7932998e-05 4255:0.00016791544 4256:-2.2054488e-05 4257:5.9185175e-05 4258:4.2504354e-05 4259:-5.8936589e-06 4260:-5.4014181e-05 4261:-8.0231041e-07 4262:1.35286e-05 4263:-2.2054488e-05 4264:-1.371408e-05 4265:-0.00038323386 4266:-2.535237e-05 4267:0.00011917267 4268:-2.6625848e-05 4269:2.5823538e-05 4270:2.5823538e-05 4271:0.00011620592 4272:0.00014579851 4273:2.5823538e-05 4274:-5.3736699e-06 4275:4.8494861e-05 4276:0.0019219527 4277:0.00020121464 4278:8.3404093e-06 4279:2.5823538e-05 4280:0.00032796522 4281:-0.00014456763 4282:0.00015494123 4283:2.5823538e-05 4284:-4.4492306e-05 4285:8.3404093e-06 4286:0.00058102957 4287:-8.4847314e-05 4288:0.00032621008 4289:7.1576957e-05 4290:0.00012911769 4291:8.4496187e-06 4292:2.5823538e-05 4293:-4.8826005e-05 4294:-4.246454e-05 4295:-0.00059252331 4296:-0.0001088533 4297:3.2039337e-05 4298:-2.5783718e-05 4299:-2.1160175e-05 4300:2.5823538e-05 4301:2.5823538e-05 4302:8.3404093e-06 4303:-0.00014132062 4304:-0.0012277977 4305:-4.5713596e-06 4306:-6.1361579e-06 4307:3.7932998e-05 4308:-1.4363413e-06 4309:-0.00054478936 4310:-8.0653859e-05 4311:9.460203e-05 4312:6.1340608e-05 4313:-5.427931e-05 4314:4.2504354e-05 4315:-9.9052131e-06 4316:-3.4740959e-05 4317:-2.7908323e-05 4318:2.5823538e-05 4319:-8.4223604e-05 4320:-4.5713596e-06 4321:1.5653208e-05 4322:-8.107139e-05 4323:0.00022970601 4324:0.00011219564 4325:0.00060136546 4326:0.00016930918 4327:2.5823538e-05 4328:2.5823538e-05 4329:0.00019184663 4330:-0.0010266008 4331:-1.7330791e-06 4332:0.00011100053 4333:7.0774637e-05 4334:9.7595494e-06 4335:0.00016719972 4336:7.3124553e-05 4337:7.0774644e-05 4338:7.506369e-05 4339:8.3404093e-06 4340:9.9339632e-05 4341:2.5021229e-05 4342:6.1535087e-05 4343:-5.8741458e-05 4344:-2.0635349e-05 4345:-2.2054488e-05 4346:0.00012818414 4347:0.00036336487 4348:0.00018475913 4349:-2.1437656e-05 4350:4.2447329e-05 4351:-7.1820956e-05 4352:-0.026316607 4353:0.00034145315 4354:2.4501238e-05 4355:8.3404093e-06 4356:-6.8801288e-05 4357:7.4096397e-06 4358:1.35286e-05 4359:0.00014471388 4360:1.496699e-05 4361:2.5823538e-05 4362:-5.6400542e-05 4363:-2.3563725e-05 4364:0.00034593671 4365:0.00019615829 4366:6.2954226e-05 4367:-0.00027067537 4368:-0.00036628096 4369:-0.00016432645 4370:5.9987484e-05 4371:-3.2224816e-05 4372:-4.4108976e-05 4373:-2.2054488e-05 4374:-8.0231041e-07 4375:1.6680819e-05 4376:-3.3829438e-05 4377:2.9667397e-06 4378:5.0324776e-05 4379:-0.00011902364 4380:0.00018612122 4381:-4.5713596e-06 4382:1.4330909e-05 4383:-0.00015782833 4384:2.8379496e-05 4385:8.3404093e-06 4386:4.0379746e-05 4387:2.3849061e-06 4388:3.8735307e-05 4389:3.7690495e-06 4390:3.6905385e-05 4391:2.5823538e-05 4392:-1.7379188e-06 4393:-6.1874423e-05 4394:0.00011441581 4395:1.4191402e-06 4396:-6.2608866e-05 4397:-3.857119e-05 4398:-0.00031247633 4399:0.0003393692 4400:-1.6455519e-05 4401:4.5820692e-05 4402:-4.5713596e-06 4403:3.8960607e-05 4404:6.7468565e-05 4405:1.1589469e-05 4406:-4.5713596e-06 4407:5.1872375e-05 4408:2.5823538e-05 4409:0.00018000227 4410:3.4163946e-05 4411:0.00016988897 4412:2.4218916e-05 4413:-1.6046191e-06 4414:-4.5713596e-06 4415:-4.5713596e-06 4416:2.6851149e-05 4417:-4.5713596e-06 4418:7.290746e-05 4419:5.1647075e-05 4420:0.00012374403 4421:6.5400978e-05 4422:8.7230161e-05 4423:0.00019071184 4424:-7.2613773e-05 4425:-4.6753576e-05 4426:2.8973539e-06 4427:0.00036563311 4428:-0.00017665784 4429:-0.00018809347 4430:0.00013726024 4431:-0.0001313674 4432:-0.00018421446 4433:-0.00044874608 4434:-0.00030537712 4435:-0.00011414938 4436:2.9592587e-05 4437:4.7075715e-05 4438:-1.8299201e-06 4439:2.5823538e-05 4440:2.5823538e-05 4441:4.9631675e-05 4442:1.8394649e-05 4443:-2.8975757e-05 4444:-3.5543268e-05 4445:3.7678128e-05 4446:0.00016705069 4447:-6.3716718e-05 4448:-5.0394166e-05 4449:-0.00040402231 4450:-4.0223837e-05 4451:0.00046920261 4452:1.5204661e-05 4453:0.00020181427 4454:-0.00056814146 4455:0.00020525488 4456:0.00011906683 4457:-4.5713596e-06 4458:-7.5080883e-05 4459:-4.0339928e-05 4460:-0.00055797654 4461:2.1252177e-05 4462:-1.1492629e-05 4463:2.1252177e-05 4464:3.8735307e-05 4465:-3.6063258e-05 4466:4.1556377e-05 4467:6.9946924e-05 4468:0.00062378525 4469:6.8612266e-05 4470:2.7019425e-05 4471:3.4163946e-05 4472:3.4163946e-05 4473:2.5823538e-05 4474:8.5811022e-05 4475:2.1252177e-05 4476:2.1252177e-05 4477:2.1252177e-05 4478:2.1252177e-05 4479:1.6680819e-05 4480:0.00026577347 4481:-1.2364328e-05 4482:-3.8805483e-05 4483:-9.8573764e-05 4484:2.5823538e-05 4485:-2.195765e-05 4486:-4.4745198e-06 4487:0.00047955156 4488:-0.00056190358 4489:-5.8585552e-05 4490:6.8310685e-05 4491:-9.9450281e-06 4492:-1.371408e-05 4493:4.2504354e-05 4494:1.6680819e-05 4495:3.6103076e-05 4496:-0.00017282972 4497:-0.0002888072 4498:0.00023325396 4499:0.0013448939 4500:3.8735307e-05 4501:3.8735307e-05 4502:8.391172e-05 4503:3.8735307e-05 4504:-0.00023201489 4505:0.00010329415 4506:9.2026828e-05 4507:0.00021008046 4508:4.0282906e-05 4509:3.8735307e-05 4510:4.2504354e-05 4511:4.4725806e-05 4512:-3.5173933e-05 4513:0.00017106757 4514:0.00017468767 4515:-3.3184497e-06 4516:2.5823538e-05 4517:-1.371408e-05 4518:8.2081795e-05 4519:4.2504354e-05 4520:2.5823538e-05 4521:6.2954219e-05 4522:2.5823538e-05 4523:0.00025939965 4524:-0.00059276354 4525:-3.1522191e-06 4526:8.3178798e-05 4527:2.5823538e-05 4528:0.00014361688 4529:-2.0506888e-05 4530:3.7690495e-06 4531:2.5823538e-05 4532:-2.4981407e-05 4533:8.1984952e-05 4534:-0.00013420361 4535:-5.8764255e-07 4536:0.00050974922 4537:-0.00010555206 4538:-2.4275938e-05 4539:6.9690024e-05 4540:-2.8358929e-05 4541:-4.7503694e-05 4542:-5.7248159e-05 4543:-2.7710128e-06 4544:8.3404093e-06 4545:5.084477e-05 4546:-0.00030560241 4547:-4.5431279e-05 4548:-0.00024515812 4549:-0.00022148555 4550:-0.00023737644 4551:-0.00012206459 4552:8.8257773e-05 4553:0.00013505117 4554:-0.00014423934 4555:-0.00016839018 4556:0.00015223961 4557:-8.1296683e-05 4558:2.5823538e-05 4559:-2.2054488e-05 4560:3.7690495e-06 4561:6.8573754e-05 4562:0.00021136909 4563:-9.1427191e-06 4564:2.5823538e-05 4565:-4.9707945e-05 4566:-1.3222995e-06 4567:-4.5713596e-06 4568:3.8735307e-05 4569:4.5696397e-05 4570:0.0001057409 4571:2.7467977e-05 4572:3.1757019e-05 4573:-0.00013674723 4574:1.4191409e-06 4575:2.5823538e-05 4576:-0.00098056416 4577:-4.4108976e-05 4578:8.3404093e-06 4579:0.00013962253 4580:-4.5713596e-06 4581:-9.9450281e-06 4582:-1.8862447e-05 4583:1.3753897e-05 4584:3.4498458e-05 4585:2.3698929e-05 4586:8.8874607e-05 4587:-0.00023292846 4588:-4.5713596e-06 4589:-3.5560472e-05 4590:0.00031247875 4591:0.0001093787 4592:1.6680819e-05 4593:-3.1197207e-05 4594:-5.8936589e-06 4595:-2.6625848e-05 4596:-1.3222995e-06 4597:4.5753419e-05 4598:-1.3222995e-06 4599:0.00013891706 4600:0.00033578565 4601:-0.00010656942 4602:-9.1427191e-06 4603:2.2279788e-05 4604:2.1252177e-05 4605:-3.6436988e-05 4606:0.00016359895 4607:0.00025959749 4608:0.00014579851 4609:-2.2054488e-05 4610:0.00049987982 4611:1.0435447e-05 4612:0.00091820047 4613:-3.1665008e-05 4614:8.3629398e-05 4615:-5.3797092e-05 4616:2.067517e-05 4617:5.1647075e-05 4618:3.7690495e-06 4619:7.538099e-06 4620:0.00075041637 4621:-6.3753163e-05 4622:-0.00036106317 4623:0.00011837036 4624:3.8735307e-05 4625:2.8564978e-05 4626:6.4558844e-05 4627:2.5823538e-05 4628:0.0011637942 4629:0.00015372814 4630:3.7130685e-05 4631:-0.00013545653 4632:7.9957186e-05 4633:-1.6923321e-05 4634:-2.3541113e-05 4635:1.0340503e-05 4636:0.00013857397 4637:9.7920485e-05 4638:-1.734647e-05 4639:-3.0822881e-05 4640:0.00012374403 4641:-4.5431276e-05 4642:-3.5768568e-05 4643:3.7690495e-06 4644:-5.7020745e-05 4645:8.3404093e-06 4646:0.00012630335 4647:1.6103806e-05 4648:2.5823538e-05 4649:5.1647075e-05 4650:3.4780776e-05 4651:-4.5713596e-06 4652:6.5356333e-05 4653:-0.00012857509 4654:6.4558844e-05 4655:5.1647075e-05 4656:5.9987484e-05 4657:-0.00040773509 4658:-0.00022809331 4659:-0.00013689829 4660:-0.00026388676 4661:-2.0635349e-05 4662:-0.00060645427 4663:0.00035027793 4664:9.4151437e-05 4665:-0.00039731883 4666:-0.00024278484 4667:5.3811505e-05 4668:1.6680819e-05 4669:-0.00043300568 4670:5.1647075e-05 4671:5.1647075e-05 4672:8.3404093e-06 4673:-4.5713596e-06 4674:2.5021229e-05 4675:-1.319409e-05 4676:-3.1491898e-05 4677:1.3528597e-05 4678:-7.073483e-05 4679:8.3404093e-06 4680:-6.682911e-05 4681:-0.00026598721 4682:-0.0001623963 4683:-3.9537616e-05 4684:-0.00024397869 4685:-0.00025011689 4686:-0.00013576147 4687:-4.5938898e-05 4688:2.5823538e-05 4689:-2.5078249e-05 4690:5.5927128e-05 4691:0.0017894835 4692:3.8735307e-05 4693:2.0449868e-05 4694:-1.1509826e-05 4695:0.00010329415 4696:9.7920485e-05 4697:3.7932998e-05 4698:2.7506994e-05 4699:-6.6163462e-05 4700:3.7690495e-06 4701:2.5823538e-05 4702:6.4558844e-05 4703:0.00011185987 4704:-9.1427191e-06 4705:0.00061501347 4706:4.7340836e-05 4707:2.5823538e-05 4708:3.8735307e-05 4709:3.8735307e-05 4710:8.3290055e-05 4711:6.4210515e-05 4712:-2.5263726e-05 4713:2.0449868e-05 4714:3.9577444e-05 4715:0.00020593475 4716:2.5823538e-05 4717:-1.371408e-05 4718:0.0003890009 4719:7.6668301e-05 4720:-3.199952e-05 4721:0.00013193877 4722:0.00011163456 4723:0.00033300358 4724:5.9987484e-05 4725:1.6680819e-05 4726:4.7075715e-05 4727:-4.0339928e-05 4728:9.415143e-05 4729:2.5823538e-05 4730:2.5823538e-05 4731:3.8735307e-05 4732:-0.00036974228 4733:2.7987966e-05 4734:0.00015530319 4735:2.5823538e-05 4736:2.5823538e-05 4737:2.5823538e-05 4738:2.1252177e-05 4739:-4.0339928e-05 4740:2.5823538e-05 4741:3.8735307e-05 4742:0.00026577347 4743:0.00018529968 4744:0.0001070632 4745:0.00013880507 4746:7.7470613e-05 4747:2.5823538e-05 4748:2.5823538e-05 4749:2.5823538e-05 4750:-2.6445989e-06 4751:8.3404093e-06 4752:1.4273891e-05 4753:5.1647075e-05 4754:0.00018012173 4755:0.00042362444 4756:-8.7618326e-05 4757:0.00053132168 4758:-0.00011189427 4759:2.9592587e-05 4760:0.00021338991 4761:-1.6866299e-05 4762:2.5823538e-05 4763:3.8735307e-05 4764:0.00030835747 4765:2.5823538e-05 4766:2.5823538e-05 4767:2.1252177e-05 4768:2.5823538e-05 4769:7.7470613e-05 4770:3.0954703e-05 4771:3.2841646e-05 4772:2.5823538e-05 4773:2.5823538e-05 4774:4.7075715e-05 4775:2.5823538e-05 4776:0.00011620592 4777:5.8551148e-05 4778:2.5823538e-05 4779:-3.0580377e-05 4780:2.5823538e-05 4781:3.8735307e-05 4782:-8.0231041e-07 4783:2.5823538e-05 4784:5.9987484e-05 4785:3.1419004e-05 4786:2.5823538e-05 4787:3.8735307e-05 4788:2.5823538e-05 4789:0.00010687773 4790:6.2954219e-05 4791:2.5823538e-05 4792:0.00010842532 4793:7.2899253e-05 4794:-2.7331318e-05 4795:0.00013126491 4796:-0.00012066199 4797:-8.8205779e-06 4798:-0.00010329773 4799:0.00014938618 4800:-6.1759815e-06 4801:0.00012382005 4802:0.00074059138 4803:3.9827428e-05 4804:-0.00039184833 4805:-7.2159587e-06 4806:-2.6445989e-06 4807:-1.3222995e-06 4808:4.4725806e-05 4809:-9.1427191e-06 4810:-9.7197299e-06 4811:-0.00061406672 4812:-0.00085769419 4813:-0.00052861334 4814:-0.00025516714 4815:-0.00021573871 4816:3.7227524e-05 4817:5.1647075e-05 4818:8.3404093e-06 4819:-1.371408e-05 4820:6.8327899e-05 4821:2.5823538e-05 4822:2.5823538e-05 4823:9.7118165e-05 4824:-0.00048441309 4825:0.00021153121 4826:-0.00013022854 4827:-0.00013385291 4828:0.00023607505 4829:2.5823538e-05 4830:-2.3922339e-05 4831:2.5823538e-05 4832:8.1574181e-05 4833:-4.5713596e-06 4834:-4.5713596e-06 4835:-0.00012574646 4836:8.4246218e-05 4837:0.00011025524 4838:-4.5713596e-06 4839:1.6680819e-05 4840:-5.7823054e-05 4841:8.3404093e-06 4842:0.00041532234 4843:0.00012831538 4844:-0.0001844418 4845:-1.8805427e-05 4846:3.8735307e-05 4847:2.5823538e-05 4848:-6.2805193e-05 4849:0.00019349105 4850:2.3924229e-05 4851:-5.2694028e-05 4852:-4.3460591e-06 4853:-5.3251697e-05 4854:-4.6233585e-05 4855:1.2109458e-05 4856:0.00017723879 4857:0.00011299667 4858:2.5823538e-05 4859:-4.5713596e-06 4860:-4.5713596e-06 4861:-2.2054488e-05 4862:0.0001044708 4863:9.3680192e-06 4864:-7.6142904e-05 4865:-0.0001000623 4866:5.3066215e-05 4867:6.3756539e-05 4868:5.1647075e-05 4869:-3.5248577e-05 4870:-9.3281978e-06 4871:-7.3084731e-05 4872:3.5679932e-05 4873:0.00014093582 4874:-3.5768568e-05 4875:7.1294628e-05 4876:2.5823538e-05 4877:-4.5713596e-06 4878:7.7470613e-05 4879:3.8928993e-05 4880:0.00013955294 4881:-0.00024724859 4882:-0.00017656585 4883:2.5823538e-05 4884:2.5823538e-05 4885:7.4494592e-06 4886:5.1647075e-05 4887:-2.2054488e-05 4888:4.2504354e-05 4889:-0.00015033006 4890:-4.5713596e-06 4891:-2.7428159e-05 4892:-2.9839364e-06 4893:-5.9604958e-05 4894:0.00012939518 4895:-6.9782886e-06 4896:0.0001759509 4897:-4.5713596e-06 4898:4.7075715e-05 4899:2.1252177e-05 4900:8.3404093e-06 4901:-4.5713596e-06 4902:3.7690504e-06 4903:-1.371408e-05 4904:-4.5713596e-06 4905:2.5823538e-05 4906:2.5823538e-05 4907:1.0690318e-05 4908:5.6632594e-05 4909:-5.8636644e-05 4910:7.573959e-05 4911:-8.5082931e-05 4912:-9.9450281e-06 4913:0.0007551859 4914:-0.00035082348 4915:2.7076445e-05 4916:2.5823538e-05 4917:3.1814037e-05 4918:2.5823538e-05 4919:5.9930466e-05 4920:2.5823538e-05 4921:-0.00013134633 4922:-2.1246101e-06 4923:2.7414396e-06 4924:2.5823538e-05 4925:2.5823538e-05 4926:0.0005013409 4927:9.0439818e-05 4928:0.00030935346 4929:0.00016270463 4930:3.8735307e-05 4931:-1.9087747e-05 4932:2.5823538e-05 4933:2.5823538e-05 4934:1.6680819e-05 4935:2.5823538e-05 4936:3.8735307e-05 4937:2.5823538e-05 4938:2.5823538e-05 4939:9.9604746e-05 4940:2.5823538e-05 4941:2.5823538e-05 4942:0.00012751308 4943:-0.0011160711 4944:0.00034723844 4945:1.4358364e-05 4946:-7.241367e-05 4947:2.5823538e-05 4948:-8.0230956e-07 4949:2.1252177e-05 4950:5.6778248e-05 4951:2.1252177e-05 4952:0.0001190964 4953:-8.0231041e-07 4954:9.5337634e-07 4955:-4.5713596e-06 4956:0.00014683433 4957:0.00014697369 4958:-0.00011260186 4959:1.2109458e-05 4960:-1.0073489e-05 4961:5.6161418e-05 4962:-2.468672e-05 4963:2.5823538e-05 4964:3.8735307e-05 4965:9.415143e-05 4966:0.00029003221 4967:3.8390408e-06 4968:-7.2159587e-06 4969:2.1252177e-05 4970:3.8735307e-05 4971:5.2263906e-05 4972:8.0580885e-06 4973:2.5823538e-05 4974:4.7075715e-05 4975:0.00021492872 4976:-6.2548279e-05 4977:2.5823538e-05 4978:2.5823538e-05 4979:-3.7404803e-05 4980:-0.00012573681 4981:-0.00054800394 4982:-0.00017382088 4983:8.5717489e-05 4984:0.00021481806 4985:1.5076198e-05 4986:4.2504354e-05 4987:4.2504354e-05 4988:-8.7658147e-05 4989:5.9802009e-05 4990:-1.6046208e-06 4991:3.8735307e-05 4992:-8.9540255e-05 4993:-4.5713596e-06 4994:6.4558844e-05 4995:-4.5713596e-06 4996:4.1182055e-05 4997:2.1252177e-05 4998:6.0271737e-05 4999:-0.00018227738 5000:-0.00011941516 5001:-1.371408e-05 5002:1.5635991e-05 5003:0.00058088393 5004:-4.5713596e-06 5005:3.416395e-05 5006:-7.9709273e-05 5007:5.690978e-06 5008:8.3404093e-06 5009:-0.00027016667 5010:-7.6233773e-06 5011:2.9592587e-05 5012:0.00020285907 5013:-5.5670997e-05 5014:-4.1026145e-05 5015:2.5823538e-05 5016:0.00012893221 5017:1.4191402e-06 5018:-4.1662224e-05 5019:3.416395e-05 5020:-7.4817814e-05 5021:3.7690504e-06 5022:3.4163946e-05 5023:6.6331748e-05 5024:2.1066697e-05 5025:-0.00021175532 5026:-0.00052345823 5027:5.8572073e-06 5028:-3.6288558e-05 5029:3.8735307e-05 5030:-0.00023606568 5031:0.00086734816 5032:5.4121279e-05 5033:8.4372487e-06 5034:5.5981002e-07 5035:9.8145785e-05 5036:1.8902268e-05 5037:7.5865995e-05 5038:6.8327892e-05 5039:5.1592102e-05 5040:-1.4516389e-05 5041:2.5823538e-05 5042:7.4410404e-05 5043:0.00017733024 5044:-9.5832322e-05 5045:1.5159814e-06 5046:3.416395e-05 5047:2.5823538e-05 5048:3.7933001e-05 5049:2.5823538e-05 5050:7.209694e-05 5051:0.00017085955 5052:3.7690504e-06 5053:2.5823538e-05 5054:8.3404093e-06 5055:-0.00035889965 5056:-4.6149114e-05 5057:6.0656508e-05 5058:2.5823538e-05 5059:3.416395e-05 5060:-1.3222995e-06 5061:7.5559051e-06 5062:3.8735307e-05 5063:-7.3228344e-05 5064:8.3404093e-06 5065:0.00082667387 5066:2.7414396e-06 5067:2.5823538e-05 5068:3.8735307e-05 5069:-0.0001501096 5070:7.5160526e-05 5071:6.4558844e-05 5072:2.5823538e-05 5073:0.00050948886 5074:1.9647556e-05 5075:-8.8494853e-05 5076:2.5823538e-05 5077:6.2151914e-05 5078:-2.2631499e-05 5079:-2.9552766e-05 5080:-0.00071602751 5081:8.784129e-06 5082:0.00015479556 5083:-6.4012802e-06 5084:2.2279788e-05 5085:2.1252177e-05 5086:-4.5713596e-06 5087:-2.7586357e-06 5088:-0.00043003543 5089:-2.3884408e-05 5090:-2.4699088e-05 5091:-1.3222995e-06 5092:0.00016393827 5093:6.5977983e-05 5094:-7.6249211e-07 5095:-0.00013547915 5096:5.6327648e-05 5097:-1.6121006e-05 5098:-0.00023419857 5099:8.4431704e-05 5100:-5.0002636e-05 5101:-0.00013952714 5102:0.00018593576 5103:8.3404093e-06 5104:-0.00013547915 5105:8.3404093e-06 5106:-1.8805427e-05 5107:-0.00014038369 5108:-3.9537616e-05 5109:2.5823538e-05 5110:1.4902611e-07 5111:-2.4981407e-05 5112:-1.371408e-05 5113:-4.5713596e-06 5114:-2.6625848e-05 5115:-4.5713596e-06 5116:5.9904996e-06 5117:8.3404093e-06 5118:8.3404093e-06 5119:4.5471097e-05 5120:-4.0651812e-05 5121:2.4036803e-05 5122:8.3404093e-06 5123:7.2899253e-05 5124:1.1589469e-05 5125:6.6704488e-05 5126:0.00057462271 5127:-1.7443308e-05 5128:9.6989708e-05 5129:5.1647075e-05 5130:7.2899253e-05 5131:0.00064792117 5132:2.3939969e-05 5133:6.2954226e-05 5134:8.8552464e-05 5135:4.627341e-05 5136:-2.0692367e-05 5137:2.5823538e-05 5138:2.5823538e-05 5139:8.3404093e-06 5140:-0.00024159177 5141:2.5823538e-05 5142:2.5823538e-05 5143:2.5823538e-05 5144:2.5823538e-05 5145:1.9236775e-05 5146:2.5823538e-05 5147:2.5823538e-05 5148:-5.627756e-05 5149:3.4163946e-05 5150:0.0003397972 5151:0.00062171428 5152:2.5823538e-05 5153:2.5823538e-05 5154:9.1784321e-05 5155:2.5823538e-05 5156:-0.00014262646 5157:1.0504842e-05 5158:9.415143e-05 5159:0.00021964942 5160:2.5823538e-05 5161:0.00019211172 5162:-7.0112575e-05 5163:-0.00029707653 5164:-3.4857047e-05 5165:5.2674684e-05 5166:7.3926865e-05 5167:5.0042458e-05 5168:0.00069768616 5169:0.0003349435 5170:2.5823538e-05 5171:7.9635043e-05 5172:2.5823538e-05 5173:0.00026094724 5174:5.1647075e-05 5175:5.1647075e-05 5176:6.3756532e-05 5177:5.1647075e-05 5178:4.0476589e-05 5179:-3.5768568e-05 5180:2.5823538e-05 5181:-0.0002397441 5182:5.9450293e-05 5183:-0.00080112985 5184:-3.4935452e-05 5185:8.3404093e-06 5186:-0.00037179 5187:0.00010260106 5188:-1.371408e-05 5189:9.415143e-05 5190:-8.4973719e-05 5191:3.8735307e-05 5192:9.0712078e-05 5193:-0.00012190115 5194:-9.1427191e-06 5195:-0.0003181269 5196:-0.00011281265 5197:-0.00029648785 5198:3.8735307e-05 5199:-1.1941178e-05 5200:-0.00018080122 5201:1.3939379e-05 5202:5.1647075e-05 5203:-1.828544e-05 5204:-6.4012802e-06 5205:2.5021229e-05 5206:-4.0763076e-05 5207:0.00011419052 5208:0.00020749704 5209:0.00024191652 5210:-1.8299196e-06 5211:-1.8285438e-05 5212:-2.690817e-05 5213:5.6572193e-05 5214:8.3404093e-06 5215:-1.371408e-05 5216:0.00067049055 5217:0.00012133708 5218:7.2899253e-05 5219:3.6610694e-05 5220:0.00034566061 5221:-6.8570393e-05 5222:1.9929877e-05 5223:8.3404093e-06 5224:0.00011997498 5225:9.9750403e-05 5226:2.5823538e-05 5227:2.5823538e-05 5228:2.5823538e-05 5229:2.1252177e-05 5230:-9.5305455e-05 5231:3.7932998e-05 5232:5.1647075e-05 5233:-0.00078069366 5234:8.3686413e-05 5235:9.9339617e-05 5236:2.0194999e-05 5237:-7.1311835e-05 5238:3.416395e-05 5239:1.9422258e-05 5240:5.9898844e-05 5241:4.1221876e-05 5242:2.0449868e-05 